14 128
12 0.10291546 0.045193646 0.10392191 -0.08772403 -0.06504521 0.09001497 0.05389093 -0.08340138 0.07964859 0.09818105 3.3158693e-05 0.114488505 0.012057174 -0.04863719 -0.14355819 0.058757722 -0.01611408 0.22282773 0.03449253 0.08493584 0.059635546 0.12471113 0.068246655 -0.11011517 0.21196404 0.03612857 0.27334756 0.10938695 0.037721533 -0.12970962 -0.08750975 -0.02453028 0.16310178 -0.07683894 -0.018288666 0.17668785 -0.014969441 0.06142539 0.06512875 0.10875738 -0.041938767 -0.017379496 -0.099886805 0.058190987 -0.18599194 -0.12793055 0.024499174 0.16089407 0.05004873 -0.048949283 -0.02719958 0.023819448 -0.09780814 -0.048554964 -0.10313718 0.17859404 0.02208358 -0.055755213 0.09052118 -0.0048033567 0.11641313 0.12673333 -0.07887431 -0.17810664 -0.12772232 -0.035942234 -0.09780271 0.0064366832 0.052023064 -0.0010842842 -0.13209821 0.039698865 0.20732936 0.100776166 -0.02323842 0.026370509 0.07711309 -0.096467696 0.1842094 -0.054113783 -0.11105776 -0.18596645 0.053440694 -0.11789427 -0.051483043 -0.043513097 0.28372896 -0.04817275 0.1480698 0.14310777 -0.033070587 0.071339704 -0.029756092 -0.17583382 0.01788887 -0.048301138 -0.097645946 -0.20772006 -0.2159703 -0.1360558 -0.05525695 -0.106441155 0.032270737 0.048585594 0.12735185 -0.054505534 -0.070207976 0.016377473 0.14228441 0.03757489 0.12979966 0.02668554 -0.041460615 0.049931847 -0.059224296 -0.12696096 0.12950566 -0.20001236 0.046818495 -0.07164569 0.01705854 0.08429138 0.17560172 0.07458654 0.03779579 -0.022122085 -0.03348181 -0.078925036
7 0.100133054 0.043683417 0.10477915 -0.08900483 -0.08246356 0.070152484 0.059552643 -0.08603648 0.098277524 0.0936649 0.00028792903 0.11083253 -0.006861002 -0.04710842 -0.15020002 0.061261293 0.0011774185 0.22790264 0.029371222 0.0862175 0.06075502 0.1390172 0.08404965 -0.1203795 0.21999857 0.038465615 0.2710383 0.11873683 0.062637985 -0.13724078 -0.088726155 -0.0343571 0.15963154 -0.0944776 -0.014925263 0.16539113 -0.009008438 0.059098188 0.060625523 0.11001248 -0.047226515 -0.0016044375 -0.11192098 0.0636351 -0.18506618 -0.13063054 0.023789315 0.14466749 0.061272953 -0.061784368 -0.022570651 0.02642193 -0.110162005 -0.038680222 -0.106194325 0.18969893 0.023821324 -0.05430383 0.079146005 -0.0081602745 0.112075604 0.13764562 -0.08153712 -0.19267245 -0.137031 -0.03372603 -0.10761863 0.010111438 0.05693009 -0.00056996825 -0.13105337 0.043437272 0.21600951 0.098239295 -0.02956121 0.025537835 0.08786678 -0.09694209 0.18705924 -0.06308189 -0.115162164 -0.18179025 0.054047875 -0.12621461 -0.04370041 -0.047776327 0.284604 -0.042151887 0.14784622 0.14311793 -0.032722596 0.07161356 -0.029115109 -0.18763337 0.03199912 -0.05091539 -0.09304592 -0.21257536 -0.21165697 -0.13774632 -0.056226593 -0.10191412 0.033360664 0.04907692 0.13594754 -0.06211303 -0.06886697 -0.004989408 0.14933069 0.033211306 0.12976268 0.031978343 -0.039832298 0.042032406 -0.049324848 -0.115810744 0.13408099 -0.20474327 0.056526955 -0.09733579 0.014426804 0.09762088 0.17912805 0.077818915 0.040070992 -0.024683144 -0.042970013 -0.07847576
8 0.12863076 0.042358022 0.079908244 -0.06676791 -0.16452676 -0.031619664 0.07901277 -0.12225891 0.15074666 0.024424128 -0.026364801 0.06874203 -0.07257515 -0.07650767 -0.18893243 0.03356716 0.0818398 0.24490246 0.017654166 0.055630177 0.066281915 0.14104444 0.17706054 -0.18140806 0.27141887 0.12630796 0.23588917 0.15293698 0.15541251 -0.17650713 -0.054250624 -0.10731847 0.118775524 -0.19005132 0.006761192 0.093172446 0.079436585 0.0067921686 0.01504179 0.08304838 -0.061146308 0.036609683 -0.17872377 0.010546639 -0.20432875 -0.10366445 0.059355255 0.0569953 0.06005024 -0.10422271 -0.049430735 0.08375499 -0.17031978 0.01553262 -0.2123695 0.28961328 0.079078026 -0.045385703 0.039717723 -0.038654584 0.10812045 0.22012292 -0.022766082 -0.26720968 -0.11395718 -0.1004385 -0.047245737 0.04974031 0.023316953 0.017204415 -0.11975675 0.007937355 0.23857866 0.10735382 -0.0042426432 -0.0059078434 0.10879682 -0.08001754 0.17832835 -0.1192504 -0.055763267 -0.14051259 0.07673914 -0.21370511 0.0012221504 -0.05655232 0.32275975 -0.018059494 0.20611839 0.23872617 -0.03921964 0.1261554 -0.07993323 -0.23598391 0.1426659 -0.06917394 -0.08914354 -0.24164307 -0.21391001 -0.11619831 -0.109153375 -0.045306236 0.092853196 0.10676809 0.15568593 -0.09106014 -0.055824608 -0.096431874 0.14776777 0.010978961 0.1176951 0.07773275 -0.04200758 0.0005306104 -0.037380215 -0.04157725 0.16425332 -0.20999125 0.095312774 -0.21324179 0.0028587058 0.08590151 0.23545635 0.06522903 0.01327702 -0.010940649 -0.055887975 -0.12226488
1 0.087341316 0.05323079 0.13336366 -0.12894787 0.006337557 0.18080106 0.035233226 -0.057757664 0.05926329 0.15781303 0.044085253 0.16149904 0.0644655 -0.030453397 -0.11874378 0.09777064 -0.070451535 0.23101817 0.041269507 0.11291483 0.07306568 0.14925137 -0.008546634 -0.07071186 0.17593746 -0.038114354 0.3295149 0.08320562 -0.03539122 -0.089730784 -0.1125164 0.03078238 0.21555522 0.008740764 -0.047057994 0.2525054 -0.11851858 0.1178949 0.10968031 0.14149074 -0.06283839 -0.04661523 -0.054403473 0.124625936 -0.18492499 -0.16583963 -0.0014859457 0.2612877 0.06109381 -0.02442903 -0.004439202 -0.017560074 -0.047422033 -0.1134776 -0.012117408 0.087245494 -0.04275128 -0.067578875 0.12318991 0.03361924 0.124617666 0.05800461 -0.14956847 -0.13136716 -0.17320095 0.02658328 -0.18225367 -0.019580582 0.09368187 -0.0008473879 -0.15475711 0.08126844 0.20445679 0.09222024 -0.066598475 0.044794407 0.07226035 -0.1345476 0.21788715 -0.008014186 -0.17501359 -0.22078839 0.04375961 -0.0602001 -0.113746345 -0.043536525 0.2671596 -0.07343977 0.09063266 0.059957154 -0.010832415 0.03128422 0.0058737397 -0.14542843 -0.08221202 -0.03690976 -0.10850015 -0.18772721 -0.23964335 -0.180075 -0.014916046 -0.15299225 -0.017441275 -0.005751073 0.1263176 -0.030266339 -0.06596494 0.09045036 0.15122095 0.06356756 0.14952908 -0.029726664 -0.046506412 0.089726135 -0.069957085 -0.22115797 0.11578271 -0.20705444 0.022240918 0.01468965 0.023376437 0.11212126 0.14173386 0.09068954 0.08126579 -0.01915188 -0.033183612 -0.0521192
6 0.09936042 0.045265496 0.09498254 -0.09139251 -0.07447014 0.07357002 0.05219905 -0.080725215 0.08927058 0.08762039 0.0027466156 0.11103403 -0.0017592153 -0.043234885 -0.1427101 0.060926724 -0.0053504175 0.21693039 0.029044399 0.08109114 0.056533758 0.12785427 0.07483927 -0.10859814 0.2046446 0.03786178 0.25522336 0.106121086 0.050991174 -0.12799802 -0.08147854 -0.02608405 0.1538765 -0.07932818 -0.017471083 0.16221291 -0.014816842 0.06066034 0.063302964 0.10484916 -0.045436364 -0.008760108 -0.103155166 0.057241753 -0.17385955 -0.12335149 0.025904277 0.14697629 0.051517066 -0.050019477 -0.017964 0.02784719 -0.09652813 -0.046301953 -0.09867935 0.17303023 0.020040259 -0.057905495 0.082225055 -0.0042966027 0.10271741 0.12055997 -0.079663746 -0.17741552 -0.12846948 -0.028316414 -0.1016302 0.011763905 0.055421505 0.0015802355 -0.120462835 0.040891197 0.19736828 0.0907938 -0.031674646 0.016674457 0.07682292 -0.091022834 0.18005775 -0.050964616 -0.11128205 -0.17331558 0.052163143 -0.114136614 -0.047617562 -0.039484795 0.26911384 -0.03919037 0.13744506 0.13655408 -0.021976449 0.064409144 -0.026941162 -0.17710511 0.020588633 -0.04436032 -0.094785035 -0.19512266 -0.20354694 -0.13434702 -0.049642645 -0.090170324 0.02994833 0.042835135 0.12212525 -0.055634283 -0.06480517 0.006363361 0.14143673 0.035557855 0.123089135 0.022125263 -0.03484059 0.045790147 -0.05002568 -0.11972686 0.1187565 -0.19063172 0.053091366 -0.08247883 0.015776213 0.09148748 0.17057902 0.072431944 0.044865865 -0.019642234 -0.03767085 -0.077349335
4 0.07041087 0.047183923 0.13083419 -0.12860584 0.038118143 0.21778363 0.024270326 -0.036171556 0.0425727 0.17907299 0.05351943 0.1763171 0.08663881 -0.012802173 -0.09483235 0.10698177 -0.09055307 0.21619676 0.043869834 0.1201962 0.061228603 0.13988674 -0.046357237 -0.041933414 0.14575903 -0.07334505 0.32853657 0.06696162 -0.06823763 -0.064906225 -0.11721648 0.059319273 0.22190204 0.050179284 -0.059985515 0.26364616 -0.15306783 0.12716123 0.12049227 0.14447133 -0.053701997 -0.061772175 -0.02813413 0.13798808 -0.16133748 -0.17279278 -0.008252684 0.28678507 0.053599764 -0.010797875 0.01280167 -0.030734539 -0.01854065 -0.13434558 0.02889097 0.03805828 -0.06887375 -0.07032098 0.13317579 0.054154694 0.120682456 0.01820463 -0.17321827 -0.09635714 -0.17248969 0.05744825 -0.19842057 -0.038239326 0.101608515 -0.0037178472 -0.14789619 0.09539155 0.18097797 0.0772974 -0.07245105 0.046618525 0.058033485 -0.13923739 0.21129635 0.01592982 -0.1963084 -0.22289905 0.033179093 -0.023388082 -0.13254341 -0.03812487 0.23484388 -0.07855961 0.056642298 0.022964314 -0.0017099553 0.00143835 0.02518639 -0.11484409 -0.122901745 -0.022974802 -0.103593774 -0.1678626 -0.22658889 -0.18124303 0.0071938597 -0.16016258 -0.03777472 -0.022594817 0.11188828 -0.016002411 -0.06906995 0.12298569 0.14209452 0.068067744 0.15307619 -0.049284063 -0.039466016 0.10205337 -0.0640795 -0.24237454 0.099815324 -0.20028545 0.0021335557 0.058600437 0.025186855 0.11664393 0.11621733 0.08496485 0.091553666 -0.019993719 -0.02368403 -0.028805647
9 0.11471606 0.045683093 0.089949116 -0.07908474 -0.12467331 0.009878181 0.07198348 -0.10974888 0.12865122 0.057694715 -0.009478137 0.09152167 -0.044478133 -0.06562665 -0.1685795 0.050276693 0.047148675 0.23451337 0.027040817 0.070011705 0.06433804 0.13898295 0.13769269 -0.15353021 0.23881525 0.0834589 0.24756418 0.13622141 0.11635775 -0.15876786 -0.07149046 -0.07372241 0.13631147 -0.14844903 -0.0021006088 0.12806429 0.0433266 0.027945532 0.03188862 0.08754043 -0.05913457 0.020520266 -0.14524083 0.039498445 -0.19626492 -0.11954594 0.043804515 0.09648447 0.060108006 -0.0882635 -0.04225042 0.06440922 -0.14056593 -0.011666305 -0.16532573 0.247436 0.052131712 -0.046161186 0.06113507 -0.026769819 0.104800105 0.18038844 -0.049954187 -0.23541534 -0.12641041 -0.07239703 -0.07561099 0.029751113 0.031682212 0.01375711 -0.12706372 0.026418464 0.22753488 0.106293045 -0.012155273 0.0036272155 0.09613326 -0.08827075 0.1836599 -0.10032225 -0.07704242 -0.1606977 0.069589995 -0.17246889 -0.020071764 -0.049350806 0.3014928 -0.03303307 0.17786132 0.19543676 -0.033030633 0.09766988 -0.06351141 -0.20980287 0.09281395 -0.061848983 -0.09619425 -0.22715284 -0.2106462 -0.12535734 -0.08699175 -0.07346516 0.06023651 0.08032768 0.14826591 -0.071466826 -0.055628724 -0.058153342 0.14411807 0.016896373 0.1254469 0.054895077 -0.038130984 0.018902253 -0.042891547 -0.07667328 0.15105076 -0.2075058 0.077485755 -0.16114841 0.0101511 0.094495915 0.21095729 0.06938681 0.028649785 -0.014954685 -0.04990609 -0.10847633
2 0.07008018 0.053227786 0.14588858 -0.13487865 0.04242401 0.22618286 0.026758598 -0.041721936 0.043568965 0.18723476 0.05992289 0.18324827 0.0895231 -0.020509047 -0.10140938 0.11712051 -0.103423454 0.22543804 0.040681984 0.12503147 0.0748349 0.15067488 -0.047873836 -0.048509322 0.1485448 -0.07567798 0.3425652 0.071601145 -0.07826098 -0.07043311 -0.12912682 0.064188704 0.23431785 0.052429896 -0.063199714 0.2801484 -0.15646814 0.13829648 0.13104934 0.14443964 -0.059772633 -0.059891764 -0.02892021 0.15258645 -0.17795798 -0.18333839 -0.01399486 0.30475828 0.058475327 -0.0074050454 0.01041478 -0.0334932 -0.021801863 -0.13960272 0.035284918 0.041929003 -0.07344768 -0.071535334 0.14793944 0.051194783 0.1268992 0.020891013 -0.18272732 -0.10479459 -0.1800393 0.059976976 -0.21392955 -0.03902616 0.10942633 -0.0011097287 -0.16407317 0.099579334 0.19105804 0.0825323 -0.07831019 0.04781409 0.06391886 -0.13597697 0.22432423 0.016319422 -0.20660803 -0.23172177 0.03757806 -0.019522255 -0.14005776 -0.040685408 0.24713698 -0.08510357 0.06824327 0.01852771 0.005079099 0.010880957 0.020870596 -0.12937537 -0.1318536 -0.021108536 -0.11603886 -0.17676863 -0.23920135 -0.18769592 0.010658704 -0.17362049 -0.047984093 -0.03028298 0.120207444 -0.017835526 -0.07055703 0.12862314 0.15085085 0.07675753 0.15436824 -0.054014202 -0.045346554 0.10558614 -0.0743179 -0.26085 0.10187333 -0.20432693 0.0026974888 0.061183665 0.02677307 0.11866519 0.12355367 0.09521943 0.09581955 -0.023724042 -0.02649035 -0.03657455
14 0.104581654 0.046871644 0.10632013 -0.08912744 -0.07900952 0.075329185 0.06223175 -0.08912934 0.09157719 0.09307351 0.004784107 0.11302706 -0.0015381757 -0.044487003 -0.15203525 0.06410822 -0.0043893103 0.22333822 0.030215414 0.086671956 0.0609735 0.13079998 0.0834499 -0.11820881 0.21951638 0.038629282 0.27228916 0.11518813 0.057600208 -0.14000145 -0.08721089 -0.028033819 0.16241732 -0.09271562 -0.015442906 0.17020008 -0.0083287945 0.059831966 0.061387926 0.103219256 -0.04746131 -0.0071364874 -0.10600787 0.061139338 -0.18812719 -0.13163319 0.025460983 0.14749853 0.057343405 -0.05215343 -0.025460765 0.027750574 -0.10741648 -0.038834196 -0.11126106 0.19180883 0.021703223 -0.059422124 0.08723442 -0.007327513 0.11061113 0.13344935 -0.07448949 -0.19183889 -0.13077912 -0.04173166 -0.09940192 0.007862137 0.05321917 -0.0015436244 -0.13067827 0.040842842 0.21454576 0.09700801 -0.022475647 0.024159165 0.0803147 -0.10036822 0.1850545 -0.061783325 -0.11524102 -0.18274862 0.059362028 -0.1244693 -0.04531044 -0.041296504 0.28758696 -0.043726925 0.15103805 0.1492801 -0.033509355 0.07404359 -0.03144137 -0.18695055 0.03398055 -0.053278018 -0.093308024 -0.2132466 -0.21481092 -0.13710704 -0.05446346 -0.099747755 0.03833715 0.05316318 0.13504897 -0.0616946 -0.07063836 0.0015866226 0.14631474 0.033482943 0.12851281 0.032830648 -0.041974336 0.043932803 -0.052747726 -0.115896165 0.13239884 -0.2017148 0.054699957 -0.0903345 0.011177 0.09284125 0.17969106 0.072078206 0.04118279 -0.023918036 -0.034651242 -0.08087897
13 0.09607256 0.041706998 0.10082537 -0.089093365 -0.068635054 0.07802187 0.056406826 -0.07776805 0.0901427 0.09096882 0.0059867925 0.108544126 0.002310451 -0.045134276 -0.14014287 0.06565518 -0.007427456 0.215 0.025010878 0.08005088 0.06301462 0.12964673 0.06955854 -0.106324874 0.20492055 0.033980124 0.26001027 0.106572956 0.043604992 -0.12748122 -0.080551155 -0.024938919 0.15514264 -0.08383295 -0.019861525 0.16325253 -0.017793646 0.061820004 0.062054966 0.102019414 -0.048832223 -0.008675335 -0.10078561 0.058594164 -0.1737006 -0.121238925 0.02696516 0.14465243 0.057934336 -0.049766503 -0.020002212 0.026323048 -0.09755938 -0.04516891 -0.09846212 0.17400002 0.018171873 -0.05714209 0.080751285 -0.0047004134 0.10701532 0.1242904 -0.0799305 -0.17837222 -0.12378952 -0.033239815 -0.10084655 0.012136784 0.056905806 0.0013522854 -0.12586157 0.04576039 0.20304845 0.095738046 -0.025031652 0.019454718 0.074449375 -0.09604893 0.17580003 -0.05089278 -0.11137269 -0.1741188 0.05806165 -0.11111627 -0.047845975 -0.04450258 0.2696174 -0.04025769 0.14116631 0.13609837 -0.028786918 0.069748655 -0.03192306 -0.17639388 0.018301535 -0.046160307 -0.09219845 -0.19995275 -0.20470703 -0.1350439 -0.0550584 -0.09243044 0.032901533 0.044865917 0.12713002 -0.056288555 -0.061029047 0.008599296 0.13792647 0.032420672 0.119227804 0.021376204 -0.038380485 0.04555805 -0.05167703 -0.12041573 0.120445766 -0.1936522 0.0492035 -0.08408212 0.013006492 0.09114281 0.16793069 0.07090124 0.03874083 -0.01592197 -0.035380695 -0.07335562
5 0.063796215 0.050954964 0.13903488 -0.1410897 0.061465982 0.24338362 0.025405213 -0.026927905 0.030616345 0.19791272 0.06205811 0.19142623 0.100184746 -0.008095788 -0.08803536 0.11292439 -0.10866814 0.21132934 0.048783958 0.12790605 0.063684374 0.14229527 -0.065656655 -0.03712802 0.13466486 -0.09016297 0.33633837 0.05342114 -0.09500461 -0.058594037 -0.12235147 0.07596048 0.2303774 0.06975975 -0.0665487 0.28771383 -0.17821598 0.14283971 0.13090388 0.149187 -0.05830638 -0.07175534 -0.009935959 0.1546012 -0.1616753 -0.1842695 -0.02098602 0.310686 0.056637883 0.0012088362 0.012591127 -0.045684826 -0.005968846 -0.14789537 0.054043166 0.01679002 -0.08574559 -0.07626844 0.14772336 0.06284826 0.12176111 0.0037871308 -0.19029213 -0.07969187 -0.18196034 0.07317033 -0.2186354 -0.04039094 0.114615165 -0.004604301 -0.15982209 0.10670828 0.18197368 0.08188669 -0.08386449 0.055557836 0.058534775 -0.14386773 0.21695922 0.029700601 -0.20911795 -0.22810665 0.031328924 -0.009039337 -0.1440402 -0.03861886 0.23188645 -0.085700184 0.045034457 0.0013399753 0.007073316 -0.0078008785 0.031231416 -0.10626633 -0.1453 -0.02215934 -0.11153681 -0.16599913 -0.23261395 -0.1864804 0.017119871 -0.1781603 -0.055672683 -0.03638314 0.1120223 -0.01398421 -0.06636823 0.14009707 0.15020733 0.07921971 0.15713958 -0.059644148 -0.041871853 0.10744105 -0.068846494 -0.26917738 0.09363009 -0.19976896 -0.0024511095 0.08523323 0.024649346 0.11503204 0.10391453 0.09036661 0.09981843 -0.0260683 -0.021234948 -0.020084884
11 0.11693245 0.0480508 0.08643721 -0.07205167 -0.12936674 0.00307435 0.07213595 -0.10525935 0.12519214 0.050752178 -0.017271925 0.08883785 -0.042744935 -0.061169237 -0.17087813 0.050158896 0.04808654 0.23179354 0.025467368 0.064362735 0.064518146 0.14025141 0.14115928 -0.15533333 0.24719165 0.088072844 0.24521552 0.13638787 0.12096926 -0.16753855 -0.06798154 -0.06955985 0.13470714 -0.15334311 0.0017808978 0.12692596 0.049866952 0.03089344 0.028007993 0.08531232 -0.05440765 0.02682843 -0.14890076 0.030930359 -0.19338138 -0.11325581 0.049706463 0.08574977 0.064527944 -0.085507445 -0.036869407 0.0652886 -0.14155604 -0.0020318106 -0.16413298 0.25008667 0.058832835 -0.047607627 0.052503433 -0.030018501 0.10151666 0.18460841 -0.046754204 -0.23248626 -0.12072808 -0.0761426 -0.06912017 0.027968492 0.038585413 0.004100732 -0.12532645 0.021026494 0.22202581 0.101337634 -0.0055993097 0.0072752833 0.09738354 -0.087484784 0.17993723 -0.099991575 -0.076697804 -0.15663666 0.06428619 -0.17526686 -0.010802874 -0.052731805 0.30244145 -0.021204442 0.17601474 0.19441278 -0.035974342 0.101579666 -0.059556864 -0.21370542 0.09698606 -0.05896089 -0.09199643 -0.22606024 -0.21126279 -0.12037672 -0.08688384 -0.063544594 0.07012935 0.08432741 0.14246348 -0.07375957 -0.061655458 -0.057157584 0.14150836 0.018565236 0.12518674 0.060993373 -0.032783747 0.023788013 -0.038748935 -0.06349598 0.15050788 -0.20930028 0.07765583 -0.15797774 0.009562584 0.09328621 0.21312866 0.072385624 0.019489093 -0.01744616 -0.043948222 -0.10637086
10 0.10841696 0.04386297 0.08250559 -0.06952389 -0.12215333 0.0025079316 0.06462937 -0.09987945 0.12220944 0.042772166 -0.015786633 0.079659455 -0.047232512 -0.058569334 -0.15957701 0.045037117 0.052380484 0.21780652 0.017977579 0.060098853 0.058945693 0.13251512 0.13380727 -0.14649071 0.2280516 0.09051242 0.22687437 0.13173598 0.115991406 -0.14422777 -0.06063578 -0.0761015 0.11976448 -0.14126123 -0.0016207483 0.11580239 0.04413938 0.020270402 0.02606951 0.0753445 -0.054799337 0.024529388 -0.14577459 0.031498063 -0.18356605 -0.10862628 0.048446372 0.0813609 0.05830151 -0.08773968 -0.040095884 0.0607523 -0.13559794 -0.0066991085 -0.16019796 0.23808055 0.04839394 -0.038268305 0.048276447 -0.020938268 0.09686285 0.16914189 -0.04259246 -0.22434022 -0.11321372 -0.06980284 -0.06763505 0.030438747 0.026387073 0.011966208 -0.120687686 0.019831099 0.2117383 0.09917301 -0.012617656 0.0041467934 0.09430615 -0.08413023 0.16975996 -0.099820696 -0.07093109 -0.13973762 0.066931695 -0.17110954 -0.016415555 -0.04469839 0.282568 -0.024918979 0.16343431 0.190913 -0.027748717 0.10235964 -0.06116407 -0.19822794 0.093335114 -0.052820705 -0.08760317 -0.20898564 -0.19880661 -0.11206426 -0.08751928 -0.059339575 0.06899619 0.078914106 0.14055738 -0.073706016 -0.053581454 -0.060964286 0.12825741 0.021259299 0.11269933 0.051377237 -0.03725451 0.020043043 -0.037372638 -0.062319316 0.14530158 -0.18696846 0.07339251 -0.15963474 0.010294237 0.08637572 0.2005902 0.064488664 0.024138575 -0.010219567 -0.04233063 -0.10418055
3 0.07068836 0.056008764 0.14497222 -0.14457542 0.04925157 0.23695636 0.026228325 -0.033390313 0.037222996 0.19157615 0.066648826 0.18821408 0.096476816 -0.016837975 -0.09446379 0.118253596 -0.10739467 0.21985613 0.0415142 0.12465208 0.07206104 0.14685933 -0.053912334 -0.041154362 0.14379068 -0.08067361 0.34850422 0.061230604 -0.08780443 -0.060602706 -0.12623253 0.069568835 0.23252055 0.058332615 -0.06662859 0.2897748 -0.1708601 0.13640474 0.13299431 0.14929712 -0.06600721 -0.07065602 -0.018833427 0.15716925 -0.17333086 -0.18550809 -0.012509707 0.315269 0.05804993 -0.001827056 0.008017831 -0.04399482 -0.012492711 -0.1423966 0.04189336 0.032267395 -0.08022764 -0.078006804 0.14875707 0.058599 0.12567519 0.018449623 -0.1871564 -0.09493532 -0.18731183 0.06065692 -0.22127618 -0.042695954 0.10952633 0.0019132403 -0.16475223 0.10507427 0.1914209 0.08778362 -0.085198276 0.049909297 0.056346647 -0.14567606 0.22797932 0.026328007 -0.21142818 -0.23433463 0.037738107 -0.0143175535 -0.14498466 -0.042061225 0.24159926 -0.088222116 0.060277835 0.011716958 0.0033476572 0.0013135168 0.029329183 -0.12186753 -0.14026079 -0.02044683 -0.116285175 -0.17035079 -0.2375705 -0.1902647 0.011618861 -0.17511986 -0.051679906 -0.036302805 0.11796598 -0.014316558 -0.07045375 0.1399156 0.1522766 0.08004703 0.15341969 -0.05329821 -0.045105714 0.10579939 -0.07791825 -0.2703672 0.09666175 -0.20047906 0.0002644015 0.07017964 0.022366218 0.11899689 0.120303206 0.09722804 0.104277484 -0.022865275 -0.02891716 -0.02619362
