349 128
1 0.20099826 -0.064113066 0.013337327 0.13408513 -0.069457956 -0.10387401 -0.095362544 0.06998076 -0.0082761375 0.13898095 0.057916146 0.07761769 0.04945909 0.22801071 0.1476915 -0.09471126 0.2520699 0.22873342 -0.1921487 0.15257873 -0.097446986 -0.14765164 0.09349344 -0.031929173 0.002109984 0.105948724 -0.046420608 0.24513534 -0.053026926 0.17475708 0.0042455047 0.080164686 -0.25880095 -0.057038892 0.09484969 0.14098129 -0.13939679 -0.15839137 0.08429527 0.086724445 -0.16071242 -0.084518775 -0.08176245 0.14863268 0.2638089 -0.0061080046 0.28018498 -0.09519505 0.16134687 -0.029845148 0.18734436 0.064414546 -0.06408259 -0.15448843 0.23649588 0.093028925 -0.18572438 -0.16883598 -0.26166603 -0.08824082 -0.10597203 -0.15251362 0.07451723 -0.101602726 0.15318517 -0.14518003 0.011077068 -0.076150954 0.08707135 0.24566117 -0.12729542 -0.049984016 -0.08305961 -0.23965563 -0.15215607 0.024467256 -0.12598701 0.09059418 0.019653907 0.21887669 0.07731102 -0.08413926 -0.06421622 -0.13616495 -0.33347294 -0.07307596 0.06783872 -0.07725463 0.2434489 -0.12022744 0.12027539 0.032958064 0.21467917 -0.019100463 -0.34708944 0.10754733 0.18390864 -0.110589474 -0.06170243 -0.13552083 -0.0077291667 -0.12779559 -0.2151169 -0.13883059 -0.18493754 -0.23192738 0.28443062 0.040348362 0.08124898 0.05429136 -0.18733254 0.0677761 -0.11101512 -0.2527323 0.057720505 0.19227178 -0.2485032 0.27259248 0.14907524 0.26859725 -0.052303765 0.015466555 -0.07692938 -0.27424455 -0.09168434 0.017542286 -0.05960485 0.12793556
71 0.28725287 0.13608219 0.1321463 0.06945584 0.30425224 -0.40949038 0.24560063 0.120598316 0.08692592 -0.2694946 -0.03169613 0.14226936 0.33809718 0.21842562 0.36206844 -0.5427946 0.32534868 0.19453879 -0.26096317 0.4030426 -0.6873457 -0.057820946 0.027856616 -0.10686804 0.0554831 0.037378013 0.19656421 0.03829228 -0.07866719 0.38506234 0.068321414 -0.14527667 0.06085344 -0.022543387 0.11472154 0.5852657 0.005513829 -0.23228179 -0.21106333 -0.1459316 -0.49243662 0.056657486 -0.10259679 0.30540273 0.23525788 -0.42384303 0.26842877 -0.06752213 0.43679675 0.0391409 -0.18141082 0.4746042 -0.18229593 0.015016269 0.09718024 -0.013293043 -0.23371665 0.08805846 -0.22575164 -0.15382832 0.09250304 -0.123757094 0.014540933 0.017819459 -0.029934913 -0.2948724 -0.032877292 0.4312208 0.09890394 0.05310517 -0.3294159 0.19301163 0.011147595 0.12507619 -0.53254366 0.32512054 0.24265634 0.49759036 0.07004826 -0.38118312 0.32707554 -0.012569395 0.06621315 -0.115140416 -0.6043239 -0.34045246 0.07324813 0.44676247 0.2181253 0.2281905 -0.025589267 0.095921904 0.259266 -0.17482287 -0.136639 -0.62361413 0.06698687 -0.28479403 -0.6234822 0.09344572 -0.04450511 0.26516187 -0.09100591 0.04961352 0.0502773 -0.0850646 0.082488425 -0.034922495 0.1657697 -0.16241857 -0.44320345 -0.11884046 -0.114456 -0.34294268 0.29271796 -0.13812281 -0.045541458 0.19791582 0.12535839 -0.031610224 0.07029856 0.076341055 -0.114719406 0.1358028 -0.05193612 -0.07474279 0.035868526 0.22034962
38 0.09260933 0.14360549 0.4477277 0.15437716 -0.527962 -0.4464805 0.085253164 -0.17729278 0.044454508 -0.25750086 0.25760666 0.023805996 0.2354282 0.30613843 0.10225577 -0.33385247 -0.006173691 0.28493306 -0.46479356 0.3171544 -0.035535976 -0.18441024 0.3879336 -0.19073397 -0.034088805 -0.14549772 0.27988568 0.12914951 0.31661817 0.02894965 0.058926627 0.47986373 0.15027419 0.11342417 0.4668747 0.05732138 0.020661993 0.2275338 -0.26816833 0.17520545 -0.15878607 -0.004440632 -0.24620238 0.10566164 0.3768253 -0.25499588 0.14005877 -0.014154768 -0.031668797 -0.39936295 0.19538534 0.32874975 0.29231197 -0.06875742 -0.27421066 0.16781332 -0.10304238 0.30986333 -0.17509979 -0.16057862 0.06796355 -0.04610452 0.043939 0.10612708 -0.19489239 0.12956281 -0.43318728 0.31470004 0.5048795 0.0829879 -0.10719681 0.3796879 0.027939996 0.33902827 -0.09381986 0.0896783 0.3579428 0.26382425 0.26958343 0.109590314 0.24224684 -0.02053822 0.17723922 -0.23091212 -0.23949647 0.15870687 -0.20033482 -0.19093144 0.09676489 -0.08914173 -0.150216 -0.49190623 0.037204955 0.15015723 -0.51698726 0.035046924 0.5803773 -0.23454136 -0.07509117 -0.022774326 -0.19403107 0.33525664 0.14025731 -0.26941073 -0.12670663 0.029824564 -0.18653168 0.041925695 -0.06421999 0.31730506 0.02187323 0.025820963 -0.19179736 0.2620875 -0.050354045 0.08741105 -0.29511422 0.03322873 0.21613725 0.3839156 0.14852862 0.58275753 -0.30041093 0.38050222 -0.090463005 0.32186693 0.19174527 0.15872875
252 0.22110653 -0.27241993 0.03698155 0.091284186 0.3228057 -0.09490703 -0.09816065 -0.14415096 0.35849255 0.3335511 0.014917079 0.16016603 0.033291083 -0.22829925 0.15892133 -0.1594509 0.4986549 0.18739094 -0.38611555 0.27397117 -0.16573976 0.05167403 -0.16413175 -0.34543166 0.25958648 -0.10510145 -0.10363636 0.24478847 -0.009622568 0.026360061 0.014943383 0.42362168 0.06933529 -0.09689356 0.23715231 0.11640142 0.08909614 0.025001138 -0.3619164 0.2093749 -0.111490816 -0.25825387 -0.060981672 -0.41282406 0.22581714 0.3421845 -0.0010558415 0.15122953 0.029372297 -0.09956544 0.061605413 0.20370871 0.52844083 -0.23829895 -0.11792401 0.53624356 -0.20693746 -0.04030218 -0.38422814 0.14487946 0.14687355 -0.27134752 0.2953788 0.17672718 0.14430459 -0.08509103 0.021679603 0.37058982 0.09360205 0.3325152 0.21821907 0.08922946 0.05654196 -0.5121775 -0.0150217125 -0.03154849 0.20264101 0.44402224 -0.12648425 -0.21969609 0.64733 0.39544123 0.39931998 -0.20284018 -0.46427077 -0.17378074 0.29460138 0.059433173 0.2970123 0.10737329 0.22616604 -0.22052939 0.20369683 -0.034036875 -0.5336102 -0.6102819 0.00090478704 0.1212137 0.016808305 0.20897375 0.25997368 -0.28628612 -0.15693697 -0.28619283 0.11624774 -0.06165828 -0.08572098 0.1203989 -0.30132192 0.17720328 -0.29351595 0.059066173 0.23053217 -0.13589749 0.17507516 0.1753003 -0.11500225 0.31759712 -0.10684051 0.07441488 0.37102795 0.13721865 -0.22132845 0.011974522 0.041386362 0.27176142 0.13281395 -0.19974126
146 -0.0706457 0.034754336 -0.19005528 0.09678583 0.033260368 -0.35684833 -0.0010273311 -0.1043321 0.25430027 -0.18136448 0.475278 0.35000086 -0.23441045 0.19752996 -0.060984418 -0.3914069 -0.016378982 -0.18359585 -0.12064829 0.18205546 -0.11229718 -0.27517402 -0.08559714 -0.17621344 0.20542978 -0.12674196 0.26029217 -0.004547707 -0.054637328 0.009624811 0.17059018 -0.3398162 0.13525349 0.28710926 0.467807 0.11400644 -0.52451706 -0.42572045 0.18139145 -0.2525555 -0.14244524 0.29547456 -0.53226244 -0.1285626 0.14397573 -0.028609853 -0.011488768 -0.17070444 0.019116761 -0.32932445 0.17642882 -0.068157196 -0.06177617 0.29408866 0.102696426 0.48276648 -0.33312932 0.17730592 -0.3424763 -0.316911 0.00055613107 -0.18388653 0.2971346 0.33381972 0.034902904 0.28118396 -0.41448942 -0.080917 0.17687522 0.28512165 0.17552464 -0.21668753 0.24821788 0.1326102 -0.3942735 -0.13072823 0.1558767 0.25375465 0.053240966 -0.18243621 0.43771663 0.02514505 0.27509078 0.09089402 -0.3898742 -0.25377467 -0.26656422 0.50796175 0.08907013 -0.15152492 -0.06363996 -0.5861115 0.091482185 0.24652141 -0.25499722 -0.543155 -0.06713901 -0.037110362 -0.1900403 -0.1008 0.30100274 -0.03237557 -0.042801283 0.14627671 -0.06317155 0.03926725 0.07762534 -0.15935366 -0.03701798 -0.12797663 -0.3417604 -0.17120235 0.0063599283 -0.009924196 0.22453801 0.01495756 -0.59816486 0.26405814 0.015386177 0.2026744 -0.09031498 0.43730047 -0.10776473 -0.07312472 -0.051899694 0.52084315 0.07616204 0.0635274
93 0.33254585 -0.10470761 0.2185551 -0.30600747 -0.07160997 -0.26989216 -0.099197276 0.34897038 -0.16959791 0.10628131 0.04980658 -0.3412023 -0.24774605 0.09777502 0.41855973 -0.13498072 -0.16259135 0.22399518 -0.4284715 0.31244975 -0.008478219 -0.26444688 0.015716229 -0.7213156 -0.09662801 -0.3368372 0.008289887 0.08753996 0.31443128 0.17678986 0.123272054 0.46151322 0.018689547 0.095319204 0.16127911 0.270397 -0.0908526 -0.18304653 0.01197723 0.44919306 0.037163902 -0.064543754 0.014566558 -0.22249758 -0.2814106 -0.40097618 0.0607937 0.3373334 0.2912668 0.33998832 0.21367946 0.2477286 -0.1596834 -0.34758744 0.020263167 0.14489855 -0.2664272 0.34992602 -0.057554908 -0.0073959255 -0.1422422 0.060242012 -0.069135964 0.43840522 0.3186122 -0.05704869 0.0010149558 0.27124745 0.12238437 -0.17040956 0.31197143 0.08511295 -0.12122326 0.16538092 -0.35779858 -0.21147391 0.3986733 0.031196631 0.328429 0.17756256 0.34713763 0.29333165 -0.10003196 -0.044453386 -0.5719381 0.03410939 0.27587736 -0.12944523 0.15065919 0.13043682 0.08649196 -0.17730795 -0.4115469 -0.44802463 -0.42924616 -0.28056052 -0.13938804 0.34657297 -0.43937638 -0.30136693 -0.15794885 -0.18337171 0.14424501 -0.2482006 -0.07274405 0.236289 0.1415453 0.09579136 0.06254512 -0.28138882 -0.41369897 -0.071406 -0.1733937 0.1274583 0.11640528 0.3425237 -0.08457018 0.3475368 0.022898616 0.012051944 -0.09655811 0.32000598 -0.021304667 -0.25437623 0.064724706 -0.061141264 0.39661232 -0.06058619
65 -0.10321925 -0.2657656 0.016169671 0.057776906 -0.016299361 -0.044741876 -0.12232506 0.24099182 -0.17789264 -0.18700531 0.15233462 -0.081491105 -0.36159533 0.5935414 0.38841802 -0.0430766 0.5538613 0.11318193 -0.4155816 0.109473415 0.08662255 -0.42524055 0.056889657 0.099906996 0.17305554 -0.109331705 0.01107007 0.538975 -0.1036756 0.16525169 -0.14335993 0.2764659 -0.27430755 0.02793247 0.5854218 0.31768396 -0.09667225 0.030719584 -0.46725163 0.43827066 -0.17266278 0.33922482 0.19434851 0.13621646 0.08802976 0.05276835 0.54340273 0.041801654 0.30220425 0.022940764 0.2266657 0.41516712 0.19574547 0.028601287 -0.3192895 0.57287043 -0.30491546 0.036057938 -0.17676926 -0.08546782 0.39353308 0.21829386 0.31146568 0.019082528 0.14465493 -0.096242376 -0.17176726 0.40269163 0.18475248 0.20671223 -0.09059979 -0.010286977 0.11644415 -0.21525328 0.003664772 -0.0577673 0.3932133 0.14854765 -0.0050662034 -0.22025311 0.3765909 0.4895564 0.14414412 0.046006013 -0.3042469 0.30656862 0.115898624 -0.10145232 0.17768948 -0.04398201 0.013713924 -0.4661386 -0.0723366 0.49419788 -0.20545724 -0.5094984 0.46535647 -0.06769957 -0.29344842 0.183883 -0.18205924 -0.11862911 -0.29064775 0.2597972 0.09011085 -0.40537038 0.40290502 -0.29996434 0.092388146 -0.16181594 -0.29399207 -0.24936254 -0.3661893 0.089664295 -0.4072589 0.20712544 0.058431804 -0.089627184 -0.091959685 0.17102106 0.24725866 0.4277884 0.05179122 -0.10126174 0.041653577 -0.1757855 -0.0669036 0.20959271
304 0.19536385 0.13428064 -0.08508131 0.11072779 -0.024377355 -0.46834657 0.39170048 -0.04117747 -0.2797343 0.36014485 -0.031576302 0.056529738 0.1977366 0.15781926 0.19209374 -0.21665046 0.088721454 0.49927002 -0.7599454 0.073080756 -0.09416509 0.042686973 -0.07771165 -0.08527275 0.34858578 -0.19026634 0.16064775 0.14918725 -0.12975982 0.27224973 0.13646935 0.20106418 0.10697189 -0.15147358 0.5722661 -0.18185651 0.15301363 -0.15044579 -0.01041092 0.231584 0.15158647 0.25988367 -0.0011335746 0.024074866 0.13787328 -0.42168894 0.423344 -0.18409218 0.09589482 0.0044737463 0.097744435 -0.021944277 0.36590967 -0.3001329 -0.073406845 0.35137236 -0.45888352 0.26835814 0.012797506 -0.27285984 0.03678776 0.05953289 -0.036367763 -0.017653696 0.24476221 -0.122309394 -0.41142893 -0.2716995 -0.071397066 -0.11144285 0.2979162 -0.052168652 0.03082102 0.095548786 0.15058269 0.03449028 0.16581504 0.18271914 -0.21760036 0.44009042 0.12438107 0.11831223 -0.50283366 0.21210478 -0.48619348 0.11869803 0.031046104 -0.07786962 0.29749113 0.3154488 0.16793929 -0.25374636 -0.15611532 -0.1355695 -0.25381076 -0.3403953 0.080754004 -0.60636204 -0.2672702 0.103749886 0.15465923 0.1246402 0.18284635 -0.066009074 -0.028714191 -0.29901156 -0.10533311 -0.09240527 0.005981015 -0.5339356 -0.06883595 0.25758544 0.042889327 0.11201819 0.07923975 0.28546602 -0.2256035 0.3029357 0.016632577 -0.1896469 -0.018353373 0.1831547 -0.2672944 0.20053788 -0.14861645 0.17715575 0.13362087 -0.11955072
199 -0.11424607 -0.025729239 -0.06694348 -0.24353546 0.07592897 -0.2257928 -0.22011054 -0.028915392 0.15800272 -0.09785203 0.060481053 0.41028747 0.17852657 0.03723987 0.40657416 -0.11052878 0.12068838 -0.10305901 -0.343444 0.16765323 -0.4952752 -0.1482792 0.19227034 -0.19790326 0.36985043 -0.04211502 0.25076318 -0.11434932 -0.27995154 -0.043240268 0.17638753 -0.25630307 -0.14473104 0.16971463 0.071216516 0.20041886 -0.021602346 0.055788513 -0.4179515 -0.3992419 -0.44312164 -0.113016136 -0.40372258 -0.08005144 -0.0026606945 -0.22427471 0.478011 0.19502778 0.4094992 -0.010430424 0.21490651 0.21225198 -0.2417828 0.2703504 -0.24199975 0.06060386 -0.14648126 0.11314774 0.50224465 0.25230578 -0.05452496 -0.08928826 0.34324858 0.0029396778 0.4085294 -0.15045874 -0.21301949 0.122351095 -0.10342774 0.111405715 0.47114667 0.25824985 0.14991465 -0.11575934 -0.092763714 0.3534336 0.14796053 -0.059888575 0.09750094 0.073516175 0.48178488 0.33910412 0.06818271 -0.06752385 -0.42328867 0.06561238 -0.13379402 0.12458053 0.10426209 -0.046899643 -0.07603259 -0.14813887 -0.20299734 0.09034555 0.14337018 -0.0477198 -0.07799598 -0.13660175 -0.18398152 0.11993326 -0.4379103 0.23138456 -0.11287346 -0.22189367 0.008937143 0.017295828 -0.11188148 0.06436773 0.06101788 -0.27117747 -0.27037778 0.0109292045 0.33709902 -0.28468737 0.25721544 -0.24217547 -0.094025195 0.5666507 -0.0009391132 0.4056592 0.41240013 0.26085356 -0.39009127 -0.32425752 0.0729743 -0.14117849 0.31392795 0.086706504
223 0.38163817 0.18878397 -0.27772537 0.0065288944 0.055670373 -0.14969686 -0.07286199 -0.20619929 -0.41558918 -0.048770495 0.2722576 -0.070252195 -0.11202264 0.20330204 0.5560522 -0.06165419 0.1960071 -0.30290198 -0.15694834 -0.22992593 -0.19012098 0.005959324 0.17136465 -0.3260692 -0.08702378 0.0060657756 0.25185356 0.39920512 0.15258092 -0.16968636 0.43558025 -0.18381181 0.07259263 0.3004929 0.07003481 0.3289095 -0.24388196 -0.25562397 -0.22357774 -0.14613318 0.22325477 0.030095082 0.089922786 0.24825771 0.05841714 0.07788708 0.1004643 0.21263789 -0.043517474 0.06851339 -0.26575437 0.2876676 0.08767733 -0.04814126 0.31844637 0.46638638 -0.10646164 0.30649945 -0.10294327 0.06975445 -0.28041926 -0.25025144 0.13921952 0.15766853 -0.23565029 -0.114854544 0.140819 0.09689972 -0.08088285 0.22886056 -0.23784713 0.31150624 -0.11677961 0.25398397 -0.352111 -0.30110964 0.07715701 -0.18733053 0.012097876 0.22091249 0.3911034 0.18254879 0.15380369 0.37837666 -0.5622642 -0.101891875 0.09638922 0.13963032 0.19085582 0.24203758 0.11217497 -0.39397436 -0.13327062 -0.15548955 -0.19439916 0.2795419 0.34436393 -0.4124192 -0.026564268 0.23095718 0.1708733 0.12530454 -0.5477756 -0.3975244 -0.08494624 -0.01370154 -0.14718057 -0.11006638 0.010916682 -0.16595624 -0.22783919 0.06428199 -0.15115704 -0.0735143 -0.027776519 0.08098811 -0.1488614 0.47433868 0.11530342 0.6431866 0.43166298 0.28102016 -0.24174422 0.0033720164 0.23282035 0.41979927 0.224882 0.5327089
276 0.047274683 0.055398367 0.011681646 0.2827941 0.12177179 0.23424014 -0.40180743 0.1801948 -0.10381654 -0.07483918 -0.0130969975 0.26254097 -0.0946633 0.08287465 -0.1287138 -0.35617813 0.113103434 0.11935725 -0.28533608 0.09189687 -0.24917021 -0.047677916 0.47103333 0.33040243 0.009678449 -0.20553108 0.31065112 -0.060670175 0.07740279 0.06281676 0.062233057 0.11918911 0.23326094 0.03788268 0.23419032 -0.0033948005 0.06435598 -0.32527 0.14384532 0.07410391 0.023103267 0.22015497 -0.22846621 0.088778354 0.19862618 0.08532574 0.13388099 -0.10322045 0.012398528 0.17750876 -0.053662915 0.31822118 -0.17907302 0.090725444 -0.09180845 0.5545411 -0.090865195 0.1015014 -0.15339816 -0.05367989 -0.26340586 -0.20536901 0.15388212 0.07345192 0.50327915 -0.4438054 -0.3782141 0.24108289 -0.023261927 0.03239264 0.34023488 -0.2537227 0.18231879 0.049409192 -0.11070641 0.19020322 0.16904023 -0.28975582 0.15569781 0.34562185 0.13045883 0.45179212 -0.25581354 0.15323493 -0.5523077 -0.1607774 0.19669715 0.20852824 0.30116796 0.34514445 -0.14139484 -0.03472708 0.264395 0.12156098 0.066959485 -0.41277844 0.12895077 -0.4275254 -0.2831622 -0.012664273 0.19074062 0.04355798 -0.02592732 0.019209595 0.48175135 -0.5868183 0.27951634 -0.22123195 0.16196142 0.011663352 -0.18742356 0.37485486 0.020626815 -0.2068127 0.3887189 0.019049812 0.106602736 0.32042304 0.13952391 0.24248323 0.13419117 0.2531504 -0.36538732 -0.5642867 -0.31029356 -0.054547213 -0.10870706 0.28385422
289 0.03890551 -0.024356684 -0.26270574 0.032692444 0.16773997 -0.27239108 -0.11857888 0.3317713 -0.20760164 -0.0684067 0.243814 0.03167945 -0.32957378 0.33502916 0.087910086 -0.024503525 0.5767218 0.231803 -0.41671553 -0.0047839135 -0.20905538 -0.06172403 0.3337199 0.13786644 -0.32258278 -0.18005757 0.2920072 0.42947203 0.13741623 -0.06385058 0.0029470643 -0.0055874554 -0.053058676 0.270839 0.03934723 -0.6144297 -0.38578904 0.071831845 -0.25901484 0.2733215 -0.013161011 0.47397926 0.4634263 0.5509331 -0.013352521 -0.021593766 -0.13368675 -0.3935512 0.37024492 -0.0063720006 -0.2807736 0.28332564 -0.2692399 0.10992296 0.31623322 0.67762125 -0.07684813 0.1723146 0.2610518 -0.06253354 -0.21991259 -0.10008288 0.12395835 0.022785954 -0.18071672 -0.117532365 0.18382064 0.16051781 0.10339446 -0.013004485 -0.25341606 -0.09529741 -0.33772978 -0.103410244 -0.1296543 -0.0215909 0.077903755 -0.0032467777 0.20909813 0.18662329 0.3311744 0.14344196 -0.14630581 -0.20758663 -0.4502537 0.15637246 0.07836024 -0.018304398 0.31474075 -0.051932078 0.191251 -0.39662787 0.24636406 0.13249469 -0.1948264 -0.23146129 0.43965748 -0.38422364 -0.35344002 -0.51597387 -0.24706669 0.24405614 -0.21560271 -0.122568436 -0.08002433 -0.09366203 -0.018455446 0.07533153 0.1686047 -0.21256332 -0.32086885 -0.08231951 -0.18640575 0.27364898 -0.29766592 0.3150349 0.035504483 0.1922873 0.19600952 0.17970954 0.19481255 -0.06666326 0.0045317602 -0.092606954 -0.09910867 -0.35894203 -0.24937062 0.52898616
87 0.13722338 -0.17286548 -0.089237474 -0.15241526 0.39263067 -0.2586324 0.006858224 -0.23709005 -0.34381893 -0.2882626 -0.093600504 -0.19857912 -0.3114485 0.28503618 0.0676811 -0.38430062 -0.00037072017 0.1116183 -0.3880552 0.2208732 -0.06252456 0.008617079 0.04901626 0.17160715 -0.26052296 -0.24377808 0.18999922 0.1645999 -0.2438314 -0.23015516 0.27930713 -0.23384036 0.109937206 0.08248994 0.016814046 0.1766568 -0.23206452 0.04469131 -0.046487767 -0.088597596 -0.30804136 -0.044085916 0.18435094 0.093029976 0.089344464 -0.058787376 0.2307708 -0.008974421 0.22681546 0.0075074383 -0.008486027 0.005086066 0.011260807 -0.17079432 -0.07202538 0.39336467 -0.08316252 -0.01748523 0.020201657 0.09590456 0.055145357 0.33529234 0.099773474 0.059175752 0.2183421 -0.18071589 -0.1518832 -0.117154956 -0.18693723 0.3262538 -0.0016033661 0.5660624 0.25340444 0.043563973 -0.10404513 -0.28295264 -0.0543735 0.18847418 0.16623357 -0.047305908 0.41354164 0.29928553 -0.3427681 0.3636183 -0.3784004 -0.08349563 0.18881819 -0.2586691 0.5377668 -0.22084554 0.18634503 0.0038530238 0.28405368 0.004206749 -0.3658895 -0.121433645 0.06061947 -0.7498573 -0.10519016 -0.023688111 -0.009829867 0.31076247 -0.5832958 0.21696123 -0.12914664 -0.32061857 -0.021597492 0.17230414 0.040601164 -0.10916969 -0.23774955 0.30030054 0.12877572 0.09513508 0.2508829 0.05575093 0.012424889 0.25266987 0.26032215 0.5698569 -0.08957317 0.23004796 -0.14100236 -0.2819743 -0.054099463 0.15815945 -0.19976969 0.10945933
214 0.3196053 -0.18711318 -0.25642636 -0.015333259 -0.0012656106 -0.1897379 -0.024730928 0.40096033 0.21939048 0.02146713 0.041930035 -0.16849492 0.12416673 0.071237184 0.17042665 0.02269825 0.16430834 0.2960956 -0.45720866 0.24070276 -0.054982435 0.04707155 0.4392041 -0.06869866 0.0481777 -0.14221215 0.034599323 0.3844737 0.20953493 0.027181989 0.30133402 0.024654202 0.15425599 0.2408635 0.048527535 -0.06565629 0.2249962 -0.28125298 -0.23184367 0.06756757 -0.02177542 -0.26251906 -0.097489804 -0.3087343 0.34854335 -0.32262558 0.26249343 -0.051620185 0.053217877 -0.0023391435 0.44878435 -0.2739683 0.02115836 -0.3968508 0.04253479 0.13165043 -0.26196668 0.4091611 -0.24014072 0.12615855 0.29544324 -0.29538044 0.1970232 0.30811843 -0.0826876 -0.009289526 -0.008090646 0.12670821 -0.28444862 0.019584388 0.11382346 0.27143866 -0.036168925 0.43498746 -0.10896598 -0.18813473 -0.2377926 -0.029479375 0.14768067 0.17285448 0.21917896 0.3557794 -0.12688331 0.024291204 -0.48445532 0.08496644 -0.06744595 0.1438256 0.4884334 0.15554208 0.17999516 -0.06632335 0.13382356 -0.2581247 -0.32486725 0.23222023 0.57704324 -0.13123538 -0.024774209 -0.22114691 -0.29667097 0.02215403 -0.05470891 0.24757266 0.10979023 -0.051959753 0.024811514 0.0991781 -0.33858356 -0.059420742 -0.52628684 -0.22346325 0.15808459 0.055733807 0.2000797 0.35356775 -0.26775452 0.5667492 0.19289415 0.039367378 0.35763407 -0.08588001 0.07770957 0.1316454 0.4231786 0.30212632 0.071988784 0.03789429
209 0.03693996 -0.17557696 -0.2879683 0.06680804 -0.010774564 -0.34453908 -0.15798976 0.150294 -0.103219904 0.34140742 0.16153705 0.08759872 0.072657794 0.32611236 -0.3848417 -0.19907504 0.16100721 -0.024977764 -0.23943335 -0.48772663 -0.07222925 -0.1800521 0.45863283 0.16861953 0.2790358 -0.010420947 -0.088577084 0.31794187 0.12114326 0.26885137 -0.24682117 0.13211392 -0.2826335 -0.18471111 -0.095414825 0.13645318 -0.0355821 0.16060592 -0.19212459 0.1266195 -0.02838263 0.033865415 0.033688933 0.12650421 0.41339123 0.25707337 0.2989531 -0.09102613 0.26808682 -0.11851356 -0.122144245 0.48591527 0.1596132 0.021751368 -0.0585866 0.15249884 -0.15188985 0.2686022 -0.07803487 0.23579608 -0.13571346 -0.09005406 0.6781641 0.38263208 -0.07329047 0.05674765 -0.40895274 0.3097057 -0.05929926 -0.20140414 0.03690527 -0.17630409 0.23215124 -0.24281463 -0.1839063 -0.24418062 -0.024110427 -0.0003617071 0.30092233 0.1733966 0.16335599 -0.084868744 0.10240915 -0.13721392 -0.57861257 -0.08152711 0.23446941 -0.18700041 0.3467855 -0.061361823 0.008017979 -0.57709044 0.0016535362 -0.01567546 -0.07467043 -0.27143636 0.14914748 -0.15825863 -0.2957539 -0.2644665 -0.34489483 -0.26156178 0.3602582 0.058660783 -0.19960992 -0.49413198 -0.069078386 -0.04379792 -0.46570358 -0.3577847 -0.15182528 0.14435133 0.1608492 0.30572498 0.11881422 0.2240792 -0.24613056 -0.027013863 0.06657737 0.20557886 0.5037276 0.0071683647 -0.3194388 -0.36841616 -0.22808182 0.1634042 0.22922333 0.25668043
239 0.2660126 -0.2783247 -0.14325976 -0.010141926 -0.25340134 -0.133092 0.024270905 0.2552273 0.38218948 -0.045235828 0.15320003 0.20183694 0.1419966 -0.20552619 0.24961987 -0.24899504 0.34600374 0.020332867 -0.26309884 -0.15546499 -0.24223883 -0.24743573 -0.21122302 0.103681624 0.059326623 0.10762154 0.11501487 0.35128385 0.27437696 -0.1512485 0.25916994 0.33698776 0.019952413 0.08367393 -0.2421312 -0.10986702 0.13076049 0.14472015 0.2981515 0.5805318 -0.07619034 -0.12849857 0.2918245 0.4078469 -0.26218987 -0.17853178 0.37996474 -0.09725648 0.46269053 -0.050887015 0.20654248 0.5011297 -0.35815585 -0.10865419 0.37414202 -0.0019637914 -0.086279415 0.3366039 -0.06726461 0.17938611 -0.33013645 -0.17412575 0.22444585 0.3875516 0.11945268 -0.06419262 -0.07822967 -0.2673759 0.20328456 0.100360945 0.280335 0.23192084 -0.12140094 0.15998602 0.16871075 -0.19063394 0.43089068 0.26461023 -0.06340157 0.14846285 0.287992 0.22325873 0.22038537 -0.065109305 -0.5115279 -0.15993585 0.09647616 -0.27793634 0.10202777 -0.0043066293 -0.16820464 -0.22252388 0.06524951 -0.45998576 -0.3569216 -0.1802469 0.060383264 -0.25674206 -0.17234716 0.21246104 -0.5172316 0.062442552 0.20619984 -0.042846378 0.039032944 0.12302864 0.10811765 0.16919295 -0.10166116 0.015315049 -0.1038176 -0.33863991 -0.43206984 -0.06425928 0.021454455 0.37853003 0.16913828 0.5645788 -0.13112842 0.434891 0.19589032 0.25195226 -0.16847527 -0.4079085 -0.07611957 0.23955233 -0.2949923 0.12954728
294 0.1079242 -0.32587293 -0.008578472 -0.06496499 0.2914058 -0.12957835 -0.061426863 0.3027863 0.10773701 -0.35926273 0.23577115 -0.26310143 0.101883166 -0.33019722 0.17906512 -0.23062474 0.38120317 0.20542505 -0.124810636 0.21511222 0.09811822 -0.17249712 0.083079405 -0.14490595 0.08329597 0.09031764 -0.08874385 0.66725785 0.19562842 -0.008107559 -0.11589086 -0.19316338 0.13623303 -0.26459894 0.18952553 0.107922934 -0.16673787 -0.20107703 0.12356557 -0.28152454 -0.261215 -0.27721652 0.023081202 -0.16196872 0.35570574 0.09926514 0.3827755 0.019379916 0.32233405 -0.024296444 0.35958955 0.16417496 0.13478796 -0.41470423 -0.26362368 0.46284747 -0.09288545 0.62220854 -0.046502903 0.078727044 0.051557757 -0.14588842 0.29757994 0.06304598 0.14038014 -0.14739752 0.19713505 0.23912348 0.26179564 0.3644902 -0.007377265 -0.26567462 0.058544643 -0.064761154 0.029015504 0.011027588 0.25946578 -0.09751046 0.15062892 0.101249956 0.603556 0.21011433 0.064316206 -0.008860703 -0.3678631 0.27372155 0.2945235 0.074054025 0.23883711 0.33899894 0.14215447 -0.33149907 -0.211897 -0.0156164905 -0.19489482 0.16381924 0.044196635 -0.2997742 0.4184638 -0.07536993 0.061542545 -0.20860812 0.054371063 0.06742812 0.32954448 -0.20021555 -0.18882148 0.12335422 0.27125677 -0.031047093 -0.5554133 -0.009726756 -0.1403756 -0.10941103 0.09681148 0.13520281 0.34714767 0.80788034 0.49781984 0.6360166 0.26866025 0.25755543 0.059879906 0.16871783 -0.27340543 0.036879636 0.017954586 0.21048062
106 0.30394936 0.13137145 -0.23370862 0.096178815 0.14767607 -0.121202044 -0.37706107 -0.045188725 -0.0055382107 -0.07168019 -0.36353385 0.24971947 -0.43576837 -0.084341876 0.2686206 -0.115777425 0.73542833 0.23858193 -0.5072527 0.08294522 -0.043929055 -0.26598793 -0.13398124 -0.078064404 0.07284771 -0.05878851 0.32586738 -0.00408995 0.0648994 0.09873529 -0.23666458 0.21503182 0.16836175 0.03268161 0.14799884 0.073508315 0.044439577 -0.09748145 -0.6633721 -0.082380675 -0.26159382 0.08454834 -0.121726595 -0.0048764935 0.16338533 -0.04867256 -0.0611224 -0.044196587 0.09634735 0.10814416 0.11701409 0.055577707 0.047985118 -0.074397884 0.08190205 0.33928382 0.07967759 0.31915927 0.12184358 0.009809252 0.11755437 -0.2768998 -0.2585236 0.14168902 0.33960798 -0.09742592 -0.12736475 -0.034075197 -0.07960428 0.04445064 0.16313416 0.1067638 -0.03425925 0.22142069 -0.115051776 -0.18515013 0.5209262 0.3902697 0.42203847 -0.08143888 -0.13433842 -0.20728764 -0.06110637 -0.029123656 -0.45867938 0.2187015 0.39496845 0.36759666 0.10960729 -0.35236296 -0.027271664 -0.3525234 -0.20081405 0.22860913 -0.5687037 0.1687724 0.14318654 -0.15945114 0.15214866 -0.18632734 -0.03091792 0.13277398 0.23890908 -0.018867267 -0.520257 0.1935983 0.110312775 0.111785196 -0.28152636 -0.14238137 0.027290499 -0.3914673 -0.12555903 -0.22353819 0.39498872 0.07770382 0.06532555 0.47316733 0.35766628 0.45673403 -0.0833404 0.39011493 -0.023670062 -0.21950836 -0.19790849 0.08882599 -0.09722902 0.26537868
82 0.2727109 -0.28692845 -0.14017424 0.123782605 -0.35333598 -0.053307723 -0.14955248 -0.14153968 -0.15394701 -0.20640881 0.15634717 0.16976285 0.2620369 0.10215113 -0.17879742 -0.41904566 0.2225495 -0.185603 -0.19648457 0.16915779 -0.2697078 0.21829143 0.067516245 0.09089025 -0.07434659 0.037406743 -0.14520873 0.4854793 -0.12201397 -0.1641785 0.22976172 -0.28706303 0.31949192 -0.17072044 0.07565559 0.04641568 0.0255926 -0.3055133 -0.13370009 0.19487134 -0.14778717 0.0898636 -0.091168106 0.070684016 0.26405668 0.11283733 0.5839613 -0.5160569 0.10903923 0.12809242 0.17607336 0.1514719 0.35837474 -0.25279132 -0.49153563 -0.1555909 -0.2489713 0.3748321 -0.29166526 -0.08899798 0.37889296 0.1636293 0.26507872 0.19100408 0.19890346 -0.05375774 0.16596599 0.01146784 0.075905114 0.08164256 0.15063031 -0.09095634 -0.33520636 -0.02874779 0.1112598 -0.3584739 0.28835547 -0.13636611 0.13063559 0.1519128 0.49836698 -0.010252807 0.28409857 0.0062802075 -0.53952146 -0.23324133 -0.041476816 0.11654984 0.013384711 -0.20689332 0.18160893 -0.35540977 0.06015438 0.15198502 0.0039635003 -0.35723045 0.4226576 -0.20284244 -0.26474586 0.09249625 0.10956258 0.038930565 -0.036054745 0.03609832 0.1725124 -0.07838918 -0.13844842 0.09615244 -0.119180955 0.31838626 -0.3923094 -0.08149212 -0.09234057 0.044241134 -0.08065207 0.092310406 -0.032966573 0.060703065 -0.25983423 0.40955222 0.25450087 -0.35493866 -0.3324999 -0.05989275 -0.25252864 0.43788442 0.054018784 0.056683537
204 -0.11605357 -0.15036951 0.21755958 0.014693128 0.051417932 0.011460402 0.1808344 -0.17574604 0.2812694 0.095982626 0.12628822 0.22411193 -0.24686816 0.43798673 0.17739107 -0.3577421 -0.20932935 -9.202682e-05 -0.39183313 0.19368172 0.12384651 -0.39008516 0.13529783 0.06381484 -0.054598182 0.27026585 0.16964412 0.123805836 -0.11091474 -0.16692717 0.14341024 0.11219367 0.11916311 0.08233519 0.18678625 0.40811998 -0.17642105 0.034465156 0.08906257 0.25914145 0.22801669 0.028419286 -0.038668152 -0.093609735 -0.060792465 -0.6291741 0.018826947 -0.02864994 0.16473943 0.15803663 0.5556114 0.2509359 0.33511138 -0.22240122 0.13106357 0.30448487 -0.2257146 -0.12056023 -0.031221054 0.19620772 -0.08298857 -0.07995645 0.19465886 0.124725215 -0.03709814 -0.31702113 -0.32050842 0.029682644 0.11878412 0.48872414 -0.12431417 -0.16149391 -0.08237942 -0.36882228 -0.04988271 -0.08802306 0.09924592 -0.16290547 0.65126497 0.12967393 0.2514058 0.085987695 0.18648842 0.011839598 -0.2575101 0.06769855 0.36778516 0.3360393 0.32703996 -0.08034353 -0.14762661 -0.33560225 0.28164348 0.53325605 -0.6123612 -0.2903525 -0.05809929 -0.48384932 -0.33670908 -0.005101691 0.065241046 0.18070738 -0.4085823 0.29219207 0.031866495 0.0758916 0.07613737 0.19562913 -0.07249928 -0.07198108 -0.16816355 0.07986064 0.24464633 -0.019274915 0.27373967 -0.044429436 0.053810593 0.48306465 0.041666646 0.5938012 -0.02729245 0.17252482 -0.098173425 -0.24671064 0.10387207 0.03695499 0.18226811 0.24352443
7 -0.31115896 0.1933634 -0.27035922 0.07331907 -0.17120871 0.16375089 0.22181223 0.14737967 0.31056187 -0.004521631 -0.05286669 0.33678487 0.012607957 0.2437441 0.27631652 -0.30217618 0.33493847 0.036757074 -0.22358228 0.099468656 -0.06432565 -0.2451791 0.17758247 0.03481037 0.15332793 0.15552934 -0.12283807 -0.081232525 0.18453397 0.28270042 0.16701128 -0.2242474 -0.007920477 -0.112231985 0.3447836 0.08310669 0.24163681 -0.10937308 -0.27146524 0.37746653 -0.09310287 -0.09348932 -0.08721058 0.2584721 -0.27984342 -0.05692591 -0.22370459 0.25575876 0.4145902 -0.40613884 -0.072490476 0.42947307 -0.15011942 -0.32435867 -0.12883168 -0.0100972885 -0.13282125 0.12336164 0.3184767 0.0940149 0.12931609 -0.06316235 -0.08958049 0.25122496 0.46410504 -0.51298726 0.12063994 0.055194113 0.17724952 -0.039246883 0.10091792 -0.1707062 -0.12398754 -0.33454672 0.278811 -0.14392148 0.18604167 0.5280407 0.0355552 0.104353756 0.17168592 0.29174092 0.13952692 -0.17900357 -0.9422874 -0.3122878 0.048516728 0.022620823 0.07574457 -0.13537498 0.1075062 -0.008193845 0.11405385 -0.05801773 -0.17059642 -0.330666 0.10477373 -0.10688898 -0.27033684 0.05747757 -0.18023337 0.27798593 0.16945046 0.17162669 -0.0018276322 0.020846786 0.029036753 0.12842582 0.041738898 -0.0965676 -0.20470987 -0.30453488 -0.06881987 -0.09524127 0.022695245 0.26598704 -0.37383667 0.08846626 0.45611304 0.42890164 0.3621985 0.060797706 -0.112537846 -0.12548849 -0.33474997 -0.09193433 0.010344742 -0.31779137
325 0.31437996 -0.109061316 -0.12222504 0.035938147 -0.22043881 0.04685669 -0.030103695 0.014945945 -0.31049272 -0.313699 0.26822335 -0.019320032 0.18434379 -0.20008792 0.30596057 -0.507412 0.3913798 0.30432597 -0.56989366 0.30211902 0.013988581 -0.23529968 0.21659495 -0.06366537 0.17686993 -0.08547457 0.046819277 0.16180962 -0.24032532 -0.04366379 0.23484197 0.069969036 -0.11741622 -0.16856298 -0.34939685 0.15483141 -0.4379399 -0.09049514 0.035561427 -0.029745325 -0.12258044 -0.13083494 0.06388802 0.14085594 0.3252265 0.06013875 0.35950956 -0.30291837 0.39506328 -0.18959029 -0.39951715 0.082912184 0.18451715 -0.19052553 0.038010146 0.4114325 -0.26535046 0.19945568 0.07076335 0.13370533 0.16562787 0.4568772 0.42563593 -0.038552206 -0.04903658 -0.39792678 -0.20051248 -0.07331252 -0.3888134 0.024996731 0.18075077 0.10957986 0.1853627 -0.37329078 -0.12777166 0.056416422 0.08785248 0.1215204 0.1675036 -0.29168093 0.17766432 0.18293811 0.2418929 -0.22018898 -0.6023379 0.014776793 0.38118416 -0.3733325 -0.026591346 0.102288574 -0.021871088 0.0011912833 0.20189087 0.1362507 -0.31106597 -0.17326434 0.039752066 -0.12451628 0.115887046 -0.020529198 0.03726079 -0.13332625 0.06485899 0.07118902 -0.18296239 -0.43148118 -0.2659053 0.28734776 -0.10813348 -0.33717728 -0.14118367 -0.30572596 0.2191339 0.11803355 0.34509274 -0.11143665 -0.5480897 0.17523396 0.12304082 0.27488115 0.09196604 0.1003857 -0.25802207 0.076119125 -0.24871153 0.17549044 0.14122881 0.081132635
19 0.06895683 -0.14046693 0.02660425 0.16701819 -0.27416846 -0.19945097 -0.04893383 0.0275433 -0.0062606647 -0.5006089 0.15243116 -0.042386197 -0.050073866 0.18461934 -0.049342204 -0.014555754 0.27356574 0.07005809 -0.42196232 0.29104704 -0.3220509 0.14298077 0.12630329 0.079624906 -0.047312137 -0.18381733 0.24398606 0.027542936 0.09836086 0.19564095 -0.31913763 -0.08427488 0.1960606 -0.028627774 0.73626345 0.04285463 0.23453426 -0.00871468 -0.007583596 0.016466968 -0.08632948 0.1460964 0.10964698 0.51348996 0.44112775 0.18370745 0.2833697 -0.15598933 -0.12732159 -0.5927854 -0.116739444 0.085100584 0.09415672 0.29679024 -0.15625688 0.48558927 -0.17161639 0.22055115 -0.3083681 0.081744395 -0.29285854 -0.16141391 0.726484 0.38697034 0.36804426 -0.05411587 -0.002107032 -0.27566034 -0.09521289 0.05717664 0.48657304 0.40920308 -0.056911632 0.31356817 0.15590821 -0.38533846 -0.4019824 0.27380326 0.59527636 0.20498368 0.42419624 0.040093735 0.077991575 -0.029587349 -0.18316741 0.11023878 -0.010302128 0.029487731 0.48225945 -0.13096942 0.07688039 -0.20960069 -0.53944176 0.018434387 -0.25477728 -0.59825176 -0.27035296 -0.411665 -0.41291448 -0.42950705 -0.04038691 -0.09056843 -0.4174382 -0.08907148 0.08082621 0.10480172 -0.15849654 0.08324276 -0.025412591 0.18007697 -0.5502229 -0.3212693 0.623765 0.24629992 0.083281904 0.1260676 -0.15264721 0.26957682 0.30744165 0.18908538 0.38034448 0.4332353 -0.4211818 -0.45916831 -0.1186881 0.32295632 -0.17573014 0.015301477
338 -0.14225362 0.11348368 -0.12016144 0.076760106 -0.024450896 -0.19667748 0.03858481 -0.112794705 0.16203009 -0.118182786 0.33688396 0.12965982 0.18063526 -0.023957638 0.26809984 -0.57011616 0.013619578 0.10146538 -0.10695427 -0.024231285 -0.34529066 -0.018033462 -0.12624943 0.09102087 -0.25774413 -0.48720682 0.26197138 0.31582132 -0.07355485 0.29310235 -0.16321872 -0.020444266 -0.13866858 0.020306582 0.3585199 -0.11822347 0.08360896 -0.40301248 -0.12617062 0.25458935 0.21642016 0.008182211 0.14973795 0.056137744 -0.08081311 -0.3235013 0.2101289 -0.16305521 0.43667954 0.009440825 0.037622683 0.56163806 -0.0320409 0.08635239 0.17004254 0.623499 0.18784666 0.09693095 0.29060963 -0.08767377 0.08890656 -0.44544348 0.35358423 -0.14182834 -0.33858505 -0.18043382 -0.20086609 0.23807116 -0.4202434 0.01341555 -0.01293028 -0.2683792 -0.09470957 -0.15756972 0.288222 -0.13219064 0.33144647 -0.11700263 -0.09150711 0.13909651 0.5942485 0.37079558 -0.25470656 -0.07122798 -0.3683456 -0.024806157 -0.1764801 0.10987887 0.35156733 -0.10011034 -0.046122912 -0.3706215 -0.2623123 0.02006413 -0.31306386 -0.004224505 -0.047118858 -0.4110928 0.03292487 -0.3633431 -0.04640762 0.15010089 -0.005895937 -0.18879583 -0.47307307 -0.23741527 -0.014491335 0.20799859 -0.33788157 0.067554414 0.14902332 0.0025470543 0.06782644 0.13241042 -0.1590351 0.32261765 -0.44884637 -0.08364341 0.17523037 0.28269258 0.029232908 0.25157356 -0.008508189 -0.24082996 0.09701573 0.25602317 0.21323729 0.2299706
158 0.18805112 0.1977809 -0.21033345 0.0034641272 0.21473703 -0.49455073 0.2579457 -0.3293833 0.30834642 -0.068166964 -0.08103549 0.3271207 0.20885484 0.033621106 0.08578567 -0.014798914 0.42927405 -0.04249196 -0.33355883 -0.11173928 0.033594616 -0.17544886 0.123074956 0.004343353 0.28691912 0.07802305 0.4037932 0.28166753 0.17305948 -0.08984517 0.33931333 -0.07168222 0.27255067 0.0025425933 0.08222158 -0.1255326 0.3187875 0.29094374 -0.1338787 -0.120509796 -0.25712535 0.0052951076 0.051599592 -0.06326313 0.11759259 -0.061969694 -0.12194622 -0.14791153 0.06581863 0.15108101 -0.15635704 0.37190804 0.16044003 -0.40023673 -0.23656219 0.16828974 0.092194796 0.076420166 0.133442 0.29907668 -0.0010436178 -0.51058596 0.18102902 0.26322043 0.1663583 -0.28918588 0.022213327 0.109980814 0.12838826 0.15688685 -0.17502438 -0.08538406 0.09802107 -0.07259508 -0.09783156 -0.23146918 0.18179831 0.13204384 -0.08972788 0.27967516 0.062390357 0.3952037 -0.17159195 -0.0713919 -0.10366194 0.330359 0.19973487 0.100553304 0.1871145 -0.22221166 -0.091088064 -0.01273875 0.030500297 0.07007221 -0.64738727 -0.06603698 0.097065486 -0.3373668 -0.0550713 0.09757787 -0.32540762 0.085812405 -0.054063104 -0.28698778 -0.07288676 -0.017955277 0.3083009 -0.24964151 0.021901239 0.021431252 -0.6874159 -0.26433522 0.13676533 0.021722283 -0.0478189 0.31615245 -0.45680562 0.3069757 -0.11832016 0.34597695 0.05278176 -0.19960083 -0.52148205 -0.34293 0.18982825 0.017784104 0.36661586 0.2788485
300 0.3550026 -0.3559044 -0.29177707 -0.5163161 0.031696312 -0.33858553 0.12403039 -0.2824385 -0.016100427 0.022823012 0.21550483 0.3865073 0.0282287 0.23115814 -0.032561656 -0.0724819 -0.19249424 0.25222054 0.19338475 0.06371926 -0.1915672 -0.1486508 0.18705082 -0.04918605 -0.043553464 0.14276075 -0.04160498 0.11350903 0.12363309 0.09096168 0.0569087 0.017698353 -0.089903325 0.17546846 0.021884937 -0.120496325 0.018242396 -0.102181695 -0.13196662 0.15974016 0.006747668 -0.28395408 -0.035607263 -0.10262231 0.16066852 0.01225278 0.33659577 -0.11494463 0.44381678 0.19256583 0.46418637 -0.041944057 -0.22122523 0.010771673 0.1284304 0.36525413 0.014432831 0.3026598 0.22207597 -0.25254035 -0.09198127 -0.12256787 0.31338167 0.2484817 -0.12938054 0.0058973623 0.038593058 0.2608539 0.31956965 0.22891827 0.23759261 0.07362344 -0.3766523 -0.2602342 -0.42628923 -0.04888621 0.2048749 0.020359643 0.12073642 0.10580591 0.20617217 0.330707 0.34884122 -0.19040515 -0.6278987 -0.22339211 -0.43004465 0.039138872 0.0347067 -0.39056325 -0.2169849 -0.32169405 0.13283214 -0.3490147 -0.4634009 -0.3339733 0.036848888 -0.5478491 -0.22395243 -0.026125118 -0.20417431 0.043294095 -0.58268005 -0.28827968 -0.24729264 0.23796158 -0.3635262 0.17820519 -0.09522918 0.15800014 -0.22682013 0.063245706 -0.28446636 -0.20453703 -0.11552277 0.0048333197 -0.2535058 0.07537649 0.1843747 0.43466148 0.38572425 0.038436342 -0.14889264 0.32270935 -0.04158215 0.061271798 0.21880129 0.08100569
320 -0.094192475 -0.029680278 -0.072627746 -0.16148096 -0.25696453 -0.25596744 0.05442129 -0.004115171 -0.014322417 0.0100782085 0.2803367 -0.18868874 -0.14182042 -0.10893295 0.05763702 -0.1720625 0.2221931 0.24876392 -0.44422412 0.4749994 -0.14273566 -0.16836452 0.3133155 0.20719576 0.29655346 -0.013448927 -0.05168305 0.22719266 -0.098079905 0.15629134 0.12676798 0.12906417 0.20498228 0.040767718 0.38863665 -0.54838514 -0.0013941217 -0.17306185 0.092623904 0.2730383 -0.08218913 -0.16088796 -0.008831438 0.08819658 -0.167914 -0.34782708 0.46496385 -0.124527365 -0.018653655 0.004458252 -0.0030513692 0.21256252 0.1961235 -0.06473409 -0.11381853 0.1586525 -0.08653922 0.29475138 0.15726718 -0.09518966 0.076577984 -0.24684419 0.37868533 0.017395489 0.019239437 0.13439171 -0.22184919 -0.18543576 0.076298244 -0.03193501 -0.021881565 -0.2757636 0.17655215 0.12112104 0.06039445 -0.31024224 0.057169415 0.41046524 0.37608588 0.22891408 0.11518303 -0.06768932 0.1458698 -0.52546424 -0.38843182 -0.1274668 -0.06524519 -0.10710623 0.15926763 -0.5959034 0.2716725 -0.21979132 -0.022186618 0.029529616 -0.18591554 -0.123499416 -0.2769385 -0.017368995 -0.17189413 -0.19016512 -0.16216525 0.018334676 -0.36771142 -0.27994853 -0.18109858 -0.258665 0.13030884 0.4764186 0.16811712 -0.17442788 -0.21956693 -0.083100796 -0.016295703 -0.20314798 0.36643526 0.07885359 0.01979712 0.12143659 0.5404268 0.52642846 -0.012784001 -0.16618314 0.18073584 -0.26970035 -0.21261297 -0.017462848 0.26443613 0.30505177
191 0.2390671 0.066941224 -0.12052447 0.08313023 0.038961876 -0.33471033 -0.30039072 -0.40983033 -0.46019623 -0.28280154 0.047472775 0.21549623 -0.062153447 0.14672461 0.029885933 -0.34003973 0.48363024 0.33552936 -0.04380897 0.18052895 0.14424336 -0.21517438 0.24067095 0.0374716 -0.10784263 -0.2689127 0.2968965 0.16959202 0.20569983 0.075882696 0.09651095 0.15493162 0.21126342 -0.09860917 0.24449167 0.28896973 0.3367864 0.15822116 0.2446395 0.39236006 -0.22736752 -0.24840705 -0.11414378 -0.17926154 0.022858733 0.12565322 -0.2194547 -0.1463106 0.32736176 -0.10597421 0.40704507 -0.09330351 0.060002223 -0.19823308 0.007394197 0.22146417 -0.11592521 0.11529095 0.21392559 -0.1988506 -0.1149223 -0.061835557 0.74360186 0.014218445 0.21871965 0.0006739207 -0.40412667 0.342691 -0.08699391 0.060859013 0.0049789893 -0.06752864 -0.25908166 0.2665869 0.10487745 0.056761175 -0.020830464 -0.02481962 0.2676894 0.17651351 0.24798079 0.3107159 0.16952302 -0.06163011 -0.04562088 -0.07041959 0.22357643 -0.16055904 0.3497805 -0.1676207 0.20414181 -0.19864148 -0.27429163 -0.123317234 -0.32904953 -0.16375032 0.010037061 -0.06777791 0.22162825 -0.39962056 0.48919412 0.06918942 0.020378832 -0.103654586 -0.119908616 0.20215607 -0.03668779 -0.25426736 -0.11661569 0.2644811 -0.4245688 -0.28544617 0.24407001 0.37774885 -0.028045539 0.1830374 -0.014973149 0.27404326 0.21708284 0.30511844 0.030976092 0.4899333 -0.12488255 -0.46563944 -0.21781519 0.13423382 -0.09928997 0.09055813
244 0.29514086 0.46993282 -0.21253116 -0.285447 -0.08951707 -0.15352541 0.23527603 0.035822347 0.08749762 -0.37246874 0.31888184 0.2227852 0.1306178 0.18574297 0.26606658 -0.30643913 0.5265485 0.2737111 0.052059732 0.106487274 -0.15235135 -0.1306609 0.22934264 0.09178968 0.00803868 -0.09433228 0.22540031 -0.017053524 0.14813118 -0.05596911 -0.014574474 0.17964904 0.2511549 0.25024554 -0.09863263 0.13887092 0.12538369 0.01690167 0.05775747 0.37847748 -0.2390638 0.0026885215 0.35882485 -0.006823907 0.3367844 -0.3498983 0.58900565 0.105576985 -0.0031650292 -0.39137888 0.11150931 0.6381382 0.08878098 -0.21838287 -0.20771028 0.24505663 -0.057184186 0.13866001 -0.068466805 -0.33084127 -0.06225478 0.14039893 0.11582802 0.0015274643 -0.19972467 -0.2890812 0.13444862 0.12002791 0.2698569 0.05767096 -0.28420597 0.031410675 -0.101989806 0.14616868 -0.24204658 -0.17303349 0.25271767 -0.12565327 0.38644257 0.073082834 -0.25147992 0.14617279 0.16951622 -0.1451899 -0.703149 0.09191543 0.33260906 -0.16188952 0.10933018 0.30293766 -0.14560857 -0.191816 -0.029877907 0.41273716 -0.4581568 0.24541536 0.116306774 0.16051789 -0.36308753 0.145988 -0.24895994 0.1590111 -0.32512733 -0.45885962 0.16076244 -0.10480653 0.25280383 -0.40298262 -0.29724273 -0.079025276 -0.3019898 -0.38314396 -0.037836377 -0.17678557 0.035619527 -0.06516504 -0.013674426 0.20900199 0.23656724 0.41300663 0.18051665 0.18681055 0.04831947 -0.40824884 -0.21060877 -0.001970101 0.07139232 -0.030858649
195 0.4364675 0.23793904 -0.42192522 -0.19658381 0.27275646 -0.18297143 -0.13907363 0.07525488 0.2822899 -0.045943145 -0.024635784 0.20892432 -0.17666338 -0.040846 -0.059422128 -0.15950532 0.18280305 -0.17167243 -0.24172933 0.023334084 -0.44954497 -0.58666044 -0.08239268 -0.18011117 -0.061666552 0.1771521 -0.12275721 0.18485254 -0.14828745 -0.12582831 0.017532174 0.19717214 0.056355193 0.041477308 0.44241673 0.1662302 -0.30353 -0.11445229 0.19884695 -0.14714412 -0.24098985 0.4131027 -0.06380473 -0.035947755 0.356679 0.13219413 0.058678694 -0.16906635 -0.09670395 0.17198096 -0.031279266 0.34573606 0.013382644 0.22118804 0.03054037 0.266279 0.11357926 0.21976596 0.24552134 0.06782053 0.15419331 -0.2040919 0.49943256 0.07546682 0.14480065 0.030625537 -0.4292463 -0.025723197 -0.21069041 0.16144978 -0.03527456 0.26413643 -0.24445127 -0.23669744 0.0038543195 -0.12606396 -0.20860192 0.39828372 0.11760495 0.11463583 0.42388394 0.44018838 -0.059813753 -0.2117521 -0.43508172 -0.24842946 -0.060074218 -0.14692426 0.25669008 0.0435208 0.3852093 0.0058718952 0.0026036263 -0.22354841 -0.33966884 -0.036313936 0.12670812 -0.310455 -0.0032833363 0.11067171 -0.20306846 -0.019722588 0.18029833 -0.26702493 0.0020660332 -0.1333895 0.39479664 -0.2667898 0.030150931 0.5055359 -0.63946694 0.16200912 -0.17899852 -0.028111024 0.24921165 0.450671 -0.055571236 0.2110158 0.05109354 0.2036228 0.648499 0.18953067 -0.01767765 0.042842858 0.10546969 -0.15191577 0.2954245 0.0067190947
268 0.36781722 0.30145824 -0.34615877 -0.18624341 0.07709411 -0.088539116 0.039456356 0.35324228 -0.06502806 -0.08332134 0.3233682 -0.021253359 0.24080339 0.4179792 0.09866197 -0.31042057 0.52619255 0.55298233 -0.854288 0.6335403 -0.19063003 -0.42784986 0.35956466 0.021246739 -0.053243846 -0.26250133 0.18228245 0.49099597 0.15538944 -0.17907812 0.1911883 -0.06263837 0.010754572 0.40524524 0.048164062 0.13438769 -0.11928032 -0.21382171 0.10245472 0.30712298 0.06763502 -0.01978918 -0.011127231 0.20389906 0.3316803 -0.16433455 -0.006664376 -0.2230852 0.12208418 -0.06641096 0.060395982 0.23056091 0.17948502 0.17704956 -0.1468548 0.37097153 -0.28810975 0.23681277 -0.09195642 0.054873895 -0.22421522 -0.42804822 0.09035379 0.28862005 0.26793638 -0.026074247 -0.17759272 -0.0018087418 -0.0066514327 0.03467455 -0.17956056 0.060815644 -0.09007072 -0.12185454 -0.050900295 0.06827066 -0.03299405 0.14370638 0.2602515 0.11594456 -0.15525784 0.010588534 0.100927114 0.11360172 -0.53677475 0.05829838 -0.03301511 0.3140559 -0.21093474 -0.13350369 0.41726843 -0.081083074 -0.019490201 -0.08013565 -0.30925834 -0.18277878 0.061597325 0.025272364 -0.13327806 0.35951775 -0.021380382 -0.26832908 -0.24517569 0.19299188 -0.07078868 -0.009811695 -0.102956496 -0.20159325 -0.33710432 -0.22786577 0.13318746 -0.040894594 0.15947811 -0.24901521 -0.10661335 0.27317664 -0.19345188 0.0489539 0.038082164 -0.027895136 0.09293975 -0.019726917 -0.11171923 -0.21273692 -0.06160061 -0.017700408 0.1143042 -0.051227525
228 0.18573242 -0.16091421 -0.3396255 -0.46344918 -0.2602826 0.061148703 0.13724025 -0.106447525 0.12373785 -0.019752335 0.30768964 0.049764533 0.13626826 0.14866169 0.26624367 -0.044351008 0.10787258 0.08686349 -0.36150283 -0.06566406 -0.2504739 -0.12549631 -0.014611888 -0.16071095 0.1699724 0.19532138 0.40588665 0.12532355 0.14386906 -0.4589777 -0.009575992 -0.022170192 -0.09394244 0.103128836 -0.10048599 -0.062122807 -0.15831637 -0.16125837 0.0068598767 0.5421462 -0.14313196 0.31501764 0.24380174 -0.22018178 0.39195573 -0.22287741 0.5298952 -0.031750917 -0.0673109 0.23647867 0.3542642 0.049284805 -0.24542691 -0.08433765 -0.047097977 0.3640694 -0.021879077 0.23376167 0.13017249 0.06097139 -0.18622342 -0.66732883 0.32948056 0.08139041 -0.10097911 -0.181818 -0.594798 0.15919799 0.026390266 0.15799855 0.42652828 0.12476973 0.21609284 -0.079756394 -0.20605862 0.041784175 0.08161564 0.24823822 0.007900593 0.261111 0.24987651 -0.15419602 -0.023456344 -0.22295375 -0.21442312 -0.019174073 0.020174136 0.41938242 0.36315092 0.007138376 0.0803865 -0.011531317 0.16569223 -0.018616676 -0.032218263 -0.056939263 0.118195474 -0.44004554 0.16424666 -0.03839772 -0.002936616 0.07307359 -0.10737391 -0.07597066 -0.09090889 0.058204453 0.24578047 -0.0038034087 0.038386617 -0.0015725296 -0.36277977 -0.0073248334 -0.36906436 -0.05751375 0.52394414 0.31124726 0.14464705 0.39062932 -0.15931085 0.42440063 0.21537502 -0.119571805 -0.21808803 -0.25988948 -0.27680528 0.13982281 0.16033453 0.013885121
187 0.20907877 -0.26216513 -0.007305728 0.13874927 -0.088633835 -0.009614006 -0.22143292 -0.23498474 -0.36927348 -0.15730193 -0.12060587 0.091480054 0.10416372 -0.14474002 0.42932883 -0.06447286 0.31074366 0.14001457 -0.10440942 -0.07207273 -0.18044303 0.07508797 0.42332143 -0.31942216 -0.067923345 -0.22884725 0.40788734 0.26288074 -0.28296468 -0.04208884 0.14520991 0.14454815 0.039785452 -0.4667639 0.23002762 0.17401722 -0.025279986 -0.08660786 -0.3217647 0.48301786 0.11535279 0.09424438 0.19365068 0.18954344 -0.03812598 0.050025504 0.18042994 -0.27122745 0.36741742 0.45737273 -0.06572055 -0.03281654 -0.118374094 -0.37789944 0.018371463 0.19806409 -0.4575241 -0.18396914 0.26518044 0.0006935415 0.16863686 -0.1424809 0.25557977 0.26164475 0.02606823 -0.089978404 0.024427898 0.15504003 -0.12933236 -0.001959172 -0.52618444 -0.3167142 0.39401752 0.27873415 -0.20633078 -0.056570865 0.18475938 0.18673576 0.20422837 0.065089285 0.18563835 0.2558967 -0.16192351 0.091735885 -0.3407752 0.080197155 0.24221441 0.2544679 0.4013773 -0.13283321 0.16588739 -0.35911548 0.15158966 0.03634101 -0.099378414 -0.15988775 -0.05356153 -0.06714421 -0.08523075 -0.30964038 0.032174 0.19381718 0.06974199 -0.11527123 0.029684834 -0.18734913 -0.13090105 -0.1610253 0.2649383 -0.565248 -0.045198765 -0.16015705 0.07630047 -0.11580407 0.4117065 0.23617023 -0.3269872 0.35504547 0.26296738 0.7561809 0.061016798 -0.11229977 -0.23026194 -0.22890119 -0.1749068 0.17393912 0.51860434 -0.13122228
264 0.41943517 -0.10274496 -0.09733007 -0.033184722 0.004443816 -0.13821132 0.33625153 0.18946226 -0.20891954 -0.003006406 0.025381966 0.26822704 0.048274357 0.16976568 0.07077608 -0.20671913 0.1459972 0.066218145 -0.10593746 0.17338139 -0.28867602 -0.00037225682 0.24693362 0.15704985 -0.124590054 0.13649021 0.33933717 0.2916974 0.45572415 0.3367112 0.07103502 0.054136027 -0.14190875 -0.18982863 -0.044361316 0.16816285 0.3731767 -0.06489512 0.18093273 -0.11926713 -0.030705214 -0.31681305 0.09282029 0.39601716 -0.006908895 -0.46017972 0.0765579 0.0069595 0.33550707 0.51098067 0.3138929 0.05396506 0.11165908 0.05638134 0.12592795 0.14348805 -0.13848054 0.09202437 0.18406703 -0.2545376 -0.034149878 -0.3527566 0.0077039716 0.04110537 -0.052422933 -0.28605694 -0.2548074 -0.13795865 0.43191606 0.088956706 -0.1316149 0.13459173 -0.052199878 0.01731918 -0.4654693 -0.21281472 0.2384797 0.28269023 0.31239405 -0.06618567 0.23536478 0.56649756 0.0070157917 -0.25969526 -0.5890824 -0.06759303 -0.0015308041 0.13754787 0.37841517 -0.31811967 0.020121245 0.03638197 0.13912636 0.13541098 -0.3644227 -0.37964925 0.12715667 0.04317899 -0.37366346 0.27775353 0.11164422 -0.024185274 0.18888189 -0.102674365 -0.17411327 0.1817223 0.1568404 0.17762804 0.18611833 -0.30905202 -0.40421793 -0.29509953 -0.00068150565 -0.26832858 0.16847932 0.28248432 -0.24730666 0.032876927 0.19052067 0.37647507 -0.072228394 0.5994756 0.06844097 -0.25199866 0.03544308 -0.19981909 0.38097855 0.19891271
166 -0.069957495 -0.1393648 -0.094257794 0.2031198 -0.149531 -0.24338204 -0.33597672 -0.14549723 -0.12276473 0.04316115 0.46255624 0.15779258 0.05490533 -0.08595498 0.08377184 0.19015162 0.6451541 -0.091942646 -0.06135658 0.27319485 -0.28351727 -0.28275946 0.07464761 0.14215611 -0.008629963 -0.04517862 -0.23074351 0.1956813 -0.2989702 -0.22648916 -0.23296292 0.39013597 0.020905277 0.03668799 0.30969113 0.09506746 0.0016379452 -0.039957114 -0.20611525 0.09022156 -0.3486098 0.024378423 0.1665655 -0.1897818 0.49557272 0.2761389 0.358236 -0.106126845 0.44968098 -0.2374393 -0.04024464 0.3343538 0.25993216 -0.15826993 0.3859493 0.5745826 -0.3508165 -0.21349269 0.14417945 -0.26987174 0.0013370727 -0.27793586 0.46396428 0.14746818 -0.05944079 0.052769523 -0.1751263 -0.09822104 0.10301007 0.2559128 0.16884811 -0.12013731 -0.060887557 0.42927852 -0.07283403 0.28974876 0.054432217 0.5610977 0.054833367 -0.0033171792 0.60935 0.259929 -0.04569581 -0.17339264 -0.6197209 -0.108777285 0.022953175 -0.09511957 0.33733028 -0.088163875 0.04146872 -0.43112287 -0.055835005 0.092038706 -0.055638693 0.011563089 -0.18576287 -0.20522892 -0.092881575 0.27284965 -0.111959845 0.064049 -0.03365197 0.01940669 0.38548386 -0.013446945 -0.009640009 -0.21830791 -0.038425177 -0.25346068 -0.18046325 -0.001839248 0.05371558 -0.40357316 -0.101179145 0.0067242985 -0.10107614 0.46837732 0.10494313 -0.23514229 0.09751742 -0.022345798 -0.16323823 -0.010852335 -0.057481058 0.15935604 -0.032104675 0.18751933
78 0.3639159 0.04198305 0.0029979448 -0.04767703 0.21063308 0.010497546 -0.10617471 0.056166224 0.11365263 0.054309044 -0.17468655 0.1264204 -0.21962109 0.18985926 0.20973489 -0.01574053 0.17258054 0.5021219 -0.20299982 0.10259086 0.0746199 -0.17812471 -0.21177608 0.16036342 0.10031045 -0.29242626 -0.15116122 0.17905676 -0.09916168 -0.14710064 -0.03924019 0.26733932 0.02819132 0.43439665 0.27987534 0.120329484 0.36371002 -0.32426384 -0.17509298 0.2561573 -0.12658383 -0.019109247 0.2297953 -0.2971108 0.10502878 0.0839935 0.3331533 -0.44574824 0.12337945 0.117177285 0.16234253 0.43664053 -0.08307043 -0.15613551 -0.06924718 0.04981735 -0.33171266 0.27554286 0.033880353 0.13801876 -0.3722683 -0.11902 0.42431793 0.2921508 0.09514478 0.25027508 -0.20222129 -0.107983075 -0.061853625 0.011590278 0.028710466 -0.15305401 -0.072275646 -0.10026178 -0.1793934 -0.017150803 0.22065361 0.0068677664 -0.04836717 0.17032471 -0.01969796 -0.08528391 0.14348704 0.070102565 -0.50612444 -0.31093615 0.48123366 0.15345766 -0.098067015 0.008064012 0.4106971 -0.1793634 -0.068302475 0.051205244 -0.41765133 -0.11801544 0.057802893 -0.031776756 -0.09481159 -0.04442394 -0.3971531 -0.04908583 0.0950991 0.07401679 0.20257066 -0.19833282 0.07343195 -0.0017902465 0.0064062434 -0.09838913 0.083121665 0.3529633 -0.12760709 0.07326858 0.022383893 0.1292152 -0.2866691 0.5412488 0.08005291 0.35709444 0.102848046 0.077287346 -0.14605829 -0.39825165 -0.054785546 -0.14881922 0.09997388 0.20579337
281 0.23170188 0.062488843 -0.15244995 -0.26030076 -0.0045940448 -0.2116686 0.28282854 -0.5161323 -0.27501175 -0.09868744 -0.09650301 0.22403225 -0.14769216 0.6598855 0.38720563 -0.1317812 0.33293587 0.02938109 -0.37377745 0.25371623 -0.24606141 -0.32792208 0.13005774 0.05324328 0.22676897 0.032376382 -0.16206108 0.09934147 -0.15681607 0.07840364 -0.041125063 0.2390305 0.0656541 0.10919927 0.15132903 -0.13777839 0.29294783 -0.13581842 -0.61057466 0.13518254 -0.07141377 0.13474698 0.25751677 -0.19790429 0.33761778 -0.10419681 0.53695303 -0.019198883 0.30241415 -0.17557622 0.25614032 -0.009637683 -0.082242586 -0.34887573 0.14604805 0.284227 -0.13091868 0.09854107 0.31749156 0.16960204 -0.33501014 -0.028757889 0.11583932 0.0504899 0.3746625 0.028153472 0.042025696 0.13063923 -0.11539664 0.05543479 0.040321514 0.21501228 0.15938537 0.3121289 0.1012714 -0.029126877 0.3977123 0.1930072 -0.3094679 0.09796476 0.088016964 0.15529583 0.2778362 0.16124934 -0.08588978 0.22369431 0.29577005 -0.18999358 0.15398923 -0.088909365 0.06967549 -0.25725865 -0.10881118 0.0048069586 -0.48794863 -0.22479086 -0.19550753 -0.26968956 -0.28082642 -0.00906629 0.017068341 0.34723687 -0.14452022 -0.16365436 -0.53218246 -0.003969301 0.16402853 0.15999036 -0.014129759 -0.033712298 -0.34416816 0.12062724 0.093042135 0.3395418 0.21893957 -0.007949894 0.014287348 0.7132903 -0.010231724 0.038804807 -0.078399196 -0.14258312 -0.29221177 0.2962676 -0.12908477 0.025463512 -0.12902573 -0.08185378
100 0.2249981 -0.14065424 -0.06380404 -0.3450673 0.10886774 -0.20287868 0.14813933 0.10467877 -0.19215128 0.029683296 -0.23740518 0.30008826 -0.06130647 0.36276537 0.1734701 -0.45022637 0.22680625 0.23987958 -0.3845893 0.26955158 0.101290554 -0.11824351 0.3804807 0.04743859 0.017104859 0.13175626 0.3779351 0.07964646 0.0073064836 -0.09032492 0.30167064 0.24331291 -0.0815659 0.007953108 -0.07651457 0.10102921 0.0786444 0.048482414 -0.099988125 -0.0351366 -0.13991664 -0.06774442 -0.08738416 -0.43340573 0.24995157 0.16205853 -0.10000756 -0.23164289 0.09873163 0.032900188 -0.24692497 0.40243062 0.011670459 0.089399464 0.15763602 0.22121991 0.014949858 -0.0484786 -0.02762379 0.11011168 -0.22843581 -0.09120541 0.07615167 -0.42941472 -0.10034564 -0.26856562 -0.13750042 0.0019845108 0.060319487 0.100137495 0.6666357 -0.117885284 -0.07493742 -0.20886396 -0.06513653 0.16621494 0.15222569 -0.00245647 0.24169274 0.13317631 0.19357775 0.19634752 0.034526747 0.07706368 -0.83530897 -0.16365567 -0.13832365 -0.22361241 0.3590087 -0.220969 -0.08241199 -0.29796705 0.14674436 0.27840835 -0.14430182 -0.5427955 0.16509213 -0.2492203 -0.25862426 0.30373588 0.036951084 -0.0554601 -0.023078892 -0.18842651 -0.37038556 0.04020626 0.34247127 -0.006036176 -0.06592179 0.1515024 -0.53601897 -0.05309014 -0.10853947 -0.007943965 -0.04606547 -0.4424652 -0.1154473 0.2884811 0.09837017 0.1261987 -0.11770891 -0.42285112 -0.044706095 -0.2827126 -0.19102994 0.39682382 0.4275289 0.13929231
140 -0.06654005 -0.2329035 0.081599 -0.0043179905 0.28506753 0.055547938 -0.020484328 0.09317408 -0.048462495 -0.0052732835 0.30363306 0.34206077 -0.08124489 0.27652714 0.15663426 -0.55356425 0.25507846 0.031648852 -0.4748837 -0.23596282 0.0022486262 -0.21908034 0.15379055 -0.06562669 -0.18134564 -0.3817712 0.38095683 0.3856118 0.06297713 -0.27688596 0.049454883 0.4785613 0.29294866 -0.0007142097 0.014216654 -0.15007204 0.04391701 0.05132367 -0.41037995 -0.15281948 -0.31495494 0.20141968 -0.19381446 -0.119798936 0.23043664 0.05342892 0.12388608 -0.01959824 0.06775206 -0.14015605 0.12749104 0.47238138 0.014195769 0.053913187 -0.24378522 -0.026773533 -0.31258985 -0.39839366 -0.33972636 -0.117399745 -0.016702432 -0.1662677 0.03695112 0.33116072 -0.097831756 0.04955983 0.10249949 0.038199186 -0.19975713 0.18819313 -0.014796143 -0.18522485 -0.06355222 -0.16094472 -0.20024215 0.06569192 0.31452474 -0.0036507603 0.009618774 0.31526414 0.16527736 0.04731653 0.011809336 -0.107176565 -0.5752236 0.03703448 0.31419206 -0.13007785 0.26253068 -0.1762205 0.24754988 -0.23157023 -0.117699414 0.017821718 -0.399042 -0.15652917 -0.021143656 -0.3952417 -0.0712016 -0.014372826 -0.00648649 -0.20861486 -0.12946247 0.24023473 -0.18695433 -0.17152742 -0.037264053 0.028151589 -0.012082168 0.15112588 -0.4353587 -0.30408618 -0.44447023 -0.020961601 0.082286246 -0.118858844 -0.041659784 0.12905511 0.13911688 0.13092855 0.06160702 -0.28482193 -0.027837655 0.030099176 -0.14529468 -0.06828472 0.11740208 0.26297444
26 0.06402522 -0.502604 0.0821986 -0.0068806265 -0.48794046 -0.3320822 -0.06981964 -0.041046456 -0.043430395 -0.8623452 0.4006276 0.14648138 -0.059366457 0.2667449 0.22814822 -0.3004138 0.57792354 0.35160875 -0.7181984 0.2787761 -0.16831292 -0.017983424 0.15738635 0.17524761 0.15235996 -0.2201332 0.48729527 0.055968206 -0.009631675 0.3085705 -0.57118773 -0.13568053 0.048369434 0.036470164 0.8064418 0.10527275 0.5104667 -0.15006378 0.06940094 0.5635651 -0.02725052 -0.19373162 0.22688939 0.51445603 0.45636338 0.11025081 0.18930656 0.04902228 -0.02656337 -0.6929491 -0.2836471 0.36485678 0.007822246 0.03177344 -0.09001456 0.8048993 -0.21722789 0.4546231 -0.31896186 0.19246186 -0.37076706 -0.13298486 1.0183254 0.6239095 0.51133984 -0.21599539 -0.17291325 -0.05326641 -0.081690475 0.17296451 0.5990566 0.43236995 -0.290706 0.10538703 0.3497063 -0.26091105 -0.28969717 0.088863656 1.1412324 -0.03187154 0.63509905 0.025698466 0.19924542 -0.014916545 -0.3928731 0.029113878 -0.0037095028 -0.0038571544 0.53809804 0.02516896 0.18075724 -0.4226447 -0.9774603 0.18778005 -0.5415246 -0.8528273 -0.51394296 -0.59528977 -0.3818083 -0.23646998 -0.23157638 -0.06678035 -0.5014197 0.13614887 0.009888494 0.29988915 -0.32642606 0.44121605 0.13987531 -0.08251066 -0.7088473 -0.666389 0.90455025 0.18598631 0.21756996 0.17941357 0.022803023 0.54077417 0.53062296 0.44586658 0.63061595 0.9455082 -0.21045728 -0.57524425 0.03741873 0.3634906 -0.12403205 -0.31676474
14 -0.3437097 0.2958885 -0.17500037 -0.07027658 -0.126527 0.25571683 0.32217067 0.060844038 0.121572725 -0.13174404 0.42029247 -0.013983461 -0.22035281 0.5113863 0.7658921 -0.4664146 0.39480206 0.040266804 -0.6107913 0.13654672 -0.114112996 -0.24318326 0.4649062 -0.15121357 0.08204976 0.10858958 -0.44714168 0.09958112 0.3905303 0.13832937 0.22691035 -0.5854325 0.2854873 0.15688741 0.6543515 0.06162811 0.055463713 -0.36711437 -0.36629698 0.75149083 -0.03215862 -0.037896477 0.07672008 -0.07981555 0.10248898 0.34116995 -0.25340405 0.4789013 0.18669349 -0.7089169 -0.2415293 0.64102215 -0.0012572042 -0.6984488 -0.1157181 0.35135853 -0.22242789 -0.12206773 0.22762668 0.00998071 -0.03290886 -0.17523474 -0.06941203 0.6165647 0.55200225 -0.57798505 0.34127596 0.035343528 0.0639902 0.2251375 0.36784258 -0.30516553 -0.42238775 -0.28193364 0.18362932 -0.091089256 0.06232142 0.22666305 0.23281951 0.47655788 0.54181254 0.30092806 0.09524242 0.21282938 -1.1669679 -0.5200867 0.18735802 -0.3279768 0.068457395 0.07493502 0.2860762 0.20611721 0.19711298 -0.14976995 -0.20703328 -0.68949336 -0.0026294123 -0.17448877 -0.522754 0.13669911 0.007959065 0.041980144 -0.059006106 -0.00016180889 -0.17087318 -0.07325772 -0.004241838 0.29083022 0.2811766 -0.15608907 -0.68005043 -0.08639946 0.14856523 -0.15316194 0.06550254 0.1260468 -0.6811273 0.1435108 0.84699064 0.6502468 0.34095103 -0.06784663 -0.18120365 -1.6528065e-05 -0.5217845 0.008282312 -0.116541885 -0.3510891
21 -0.055193525 -0.2233681 -0.009124783 -0.05017781 -0.33732718 -0.2680916 0.13407773 0.1745029 0.18616052 -0.79268163 0.45209938 -0.10169595 -0.19606544 0.25015786 0.20698059 -0.09990102 0.18594445 0.18492077 -0.50284135 0.07911448 -0.4758242 0.1763973 0.1573631 0.093803436 -0.15713109 -0.15600735 0.3648977 0.19929057 0.03803755 0.109789856 -0.3493765 -0.16968387 0.2184787 -0.016562127 0.7137586 -0.11538766 0.12608618 0.2593897 -0.18895426 0.20778756 -0.102188446 0.32855102 0.32772425 0.61920047 0.54239285 0.16749585 0.46168616 -0.032549277 0.12583768 -0.5433625 0.05942497 0.24573311 -0.08099728 0.5137182 -0.26680794 0.64923203 -0.4084002 0.32098562 -0.26111504 0.10073371 -0.52216834 -0.4203346 0.79581636 0.5121104 0.32023448 -0.024493841 0.08676159 -0.2843023 -0.11084819 -0.05239025 0.5942241 0.41858143 -0.1358771 0.064081796 0.29789746 -0.40026253 -0.33488616 0.27097735 0.7485184 0.33142918 0.5913756 -0.070750356 -0.014141187 -0.13361406 -0.062393986 0.29148597 0.13809255 0.016658977 0.6877037 -0.24426988 0.31070507 -0.11299677 -0.55654734 0.29468912 -0.1661664 -0.77138364 -0.3613343 -0.49883512 -0.82464653 -0.68489236 -0.3413726 -0.3037333 -0.30059707 0.024878146 -0.09294463 0.06974354 -0.14685836 0.29492325 -0.22047593 0.079326876 -0.8417772 -0.45460555 0.6964216 0.15486701 0.17696886 0.1730883 -0.12622316 0.2523388 0.4577121 0.37742618 0.41162068 0.65486455 -0.47670215 -0.537892 -0.13477398 0.09931932 -0.09469256 0.12792237
162 -0.16386092 -0.13329354 -0.23422159 -0.0034794202 0.09808057 -0.07413687 0.28082836 -0.12897886 -0.05697615 -0.24523775 0.094896466 0.05061336 0.107218266 0.23584111 -0.114338934 0.028948126 0.5336917 -0.10972207 -0.48190933 0.4203467 -0.06658426 -0.29113013 0.17686778 0.16000941 0.30721426 -0.08757642 0.33513552 0.20009539 0.06994411 0.34991747 0.04365932 -0.24229585 -0.15333417 0.17790283 -0.024751145 -0.30135533 -0.1781922 -0.24786292 -0.11057429 0.3027676 0.07070086 -0.24568354 0.030018 0.015325391 0.27667648 -0.034628898 0.55699354 -0.057722267 0.20962182 0.35726264 0.23262553 0.41719714 -0.13134103 0.03746351 0.029153775 0.45404512 0.053022362 -0.20981227 0.13917981 -0.19348362 -0.27382815 -0.23325299 0.08913005 0.023508122 -0.10403065 0.07839051 0.1501785 0.06439981 -0.013039066 -0.027428553 -0.22369261 0.16417317 -0.020378381 0.13581488 -0.24106559 -0.19017719 0.12391643 0.22425997 -0.08004353 0.09722149 0.32495025 0.15455951 0.25840086 0.13246457 -0.4348572 0.25404903 0.38682213 0.15101038 0.37867254 -0.0738361 -0.043626007 -0.29693303 -0.275412 0.1373952 0.009659872 -0.023718748 0.25973842 -0.20970981 0.10950372 0.038861077 -0.36401236 -0.24363638 -0.1382001 -0.0493285 -0.028984463 -0.26872683 0.1657122 0.3326491 0.18072593 -0.08268583 -0.023485873 -0.020570774 -0.15565269 0.14156851 0.03600246 -0.23478414 -0.037608165 0.20103714 0.33338022 0.015664611 0.06287973 0.03507617 -0.06890651 0.24360628 -0.0461675 0.39080226 0.39737743 -0.20842671
9 -0.49485263 0.11632966 -0.28807187 0.014207592 -0.25535566 0.06946221 0.14709045 0.20564565 0.49729615 -0.13678472 0.0603684 0.29176342 -0.082441375 0.15662178 0.3945537 -0.60344446 0.27031538 -0.08579011 -0.16418815 0.16527371 0.091945305 -0.33219668 0.09741988 -0.18054031 0.06940982 0.11901156 0.017448552 -0.09120847 0.35239944 -0.03306268 0.26018423 -0.3453543 0.039527006 -0.27277684 0.35110474 0.1962838 0.041442353 -0.3338548 -0.115667164 0.44739798 0.1439548 -0.012437629 -0.06541804 0.03274606 -0.15605357 -0.18335046 -0.22814438 0.27829522 0.4843403 -0.44230357 -0.26794088 0.7063843 -0.11019145 -0.63067454 -0.051593076 0.092032656 -0.2991643 0.08906026 0.30966958 0.22816609 -0.13197324 -0.15383546 0.14267816 0.25700212 0.32038975 -0.53443515 -0.0074338475 0.16422106 0.13020505 -0.14836153 0.2774407 -0.41095987 -0.21174756 -0.4080024 0.4379463 -0.2982158 0.32885042 0.5868427 0.13541818 -0.03909362 0.48432153 0.22419938 0.01533985 -0.3168123 -1.121219 -0.20547898 0.21160898 0.15359499 0.34795225 -0.01504456 0.29765671 -0.12279092 -0.013965562 -0.1048114 -0.4004204 -0.3171941 -0.007775126 -0.35538557 -0.124939315 -0.02079542 -0.044213455 0.239344 0.26365978 0.36292905 0.22046053 -0.10773442 0.088973515 0.2848448 0.16544707 -0.1330882 -0.32370088 -0.6489081 0.029627545 0.086564206 -0.0050956183 0.39437202 -0.59401923 0.0014234434 0.45887473 0.5365394 0.31564957 -0.019294072 -0.26790038 -0.07315348 -0.18861508 0.25110394 0.23569395 -0.35527942
62 0.09114491 -0.11739677 -0.14818281 -0.03358324 0.16863929 0.024773376 0.05973468 0.13012153 0.06391342 0.06560344 0.055447217 0.17046377 -0.2843661 0.08776528 0.010547885 -0.12522353 0.45433107 0.07552382 -0.30899578 0.05085854 0.23717824 0.23658562 0.3439899 0.21655741 -0.10414456 0.07984613 0.09308196 0.23302221 0.27911636 -0.40787643 -0.02258318 0.23396406 -0.25747675 -0.3336252 0.019653872 0.014355019 0.070915945 -0.28307512 -0.38520125 -0.011444737 0.12802237 0.0013269614 0.064659104 0.014010998 0.42955086 0.14488758 0.374601 0.17252283 0.23055068 -0.071445145 -0.020319259 0.15318754 -0.11321059 -0.18214537 -0.2830418 0.18834221 -0.16694313 -0.08850661 -0.029357018 -0.161134 0.36405295 -0.13498582 0.05953861 0.071382456 0.03541744 0.033620365 0.024584934 -0.12810238 0.24166508 -0.033915613 0.29505378 0.041053593 0.12463973 -0.09206503 -0.12603378 -0.37434438 -0.04341958 0.008952325 -0.05890837 0.12755859 0.38995665 0.086568326 0.061940175 0.10692512 -0.2845982 -0.0026726373 0.031831507 0.18818524 0.4371321 0.004512867 -0.0017372493 -0.15858778 0.4000722 0.03632104 -0.46455702 -0.5374348 -0.23566774 -0.042167846 -0.4282054 -0.33703157 -0.09103882 -0.0360452 0.1255049 0.031150937 0.30424574 -0.099443235 0.05016157 -0.13441254 0.19775227 0.03750477 -0.14392476 0.60753316 0.016983107 0.048771303 0.076361 0.11215571 -0.3912624 0.430648 0.26779726 0.5672198 0.18576758 0.2700499 -0.19614695 -0.17519972 -0.07666932 0.19722459 0.110667765 0.37446213
310 -0.26242602 0.11139547 -0.052521188 0.14203797 -0.110403635 -0.27600703 0.04042722 0.011380543 0.2697165 0.041192446 0.09092958 0.16193353 0.14557205 0.12505265 0.5912099 -0.08818375 0.18182683 0.25085536 -0.13394883 0.023424339 -0.2945415 -0.08487982 -0.055670112 -0.021588257 -0.014748385 -0.2504205 0.077685975 0.289902 -0.08235279 -0.12528104 0.26318103 0.041326188 0.010957603 0.12530175 -0.020826524 -0.02554886 -0.102341115 -0.19845091 0.033813175 -0.101249605 -0.20715769 0.09960221 0.13134839 -0.19103137 -0.18320227 0.09618874 0.22549479 -0.26217797 0.08413195 -0.18897933 -0.12272065 0.30776322 -0.15141782 0.05005677 -0.28912243 0.5044586 -0.052282564 0.38114154 -0.2837629 -0.13050017 -0.032084327 -0.13384019 0.32393163 -0.12748954 0.00932766 0.010401198 0.22797374 0.06615387 0.0128481435 -0.1944101 0.4630422 0.16206217 -0.035601206 0.043297548 0.037049513 -0.050441727 -0.051802732 0.15611728 0.20640835 0.29993427 0.042154633 0.46974897 0.058732048 0.073590055 -0.53350925 -0.12540777 -0.13475718 -0.03541086 0.28302327 -0.034410167 -0.24395947 -0.18654084 -0.07400332 0.051611252 -0.17415634 -0.369313 0.39725587 0.13065721 0.15820923 -0.14798406 0.079606004 -0.21624811 -0.6367661 0.27400562 -0.102602325 -0.12905778 0.32440495 -0.066527 0.0040558176 -0.04776837 -0.28614616 -0.090513244 -0.24135767 0.07364701 0.31955913 0.0147917615 -0.14132696 0.58255076 0.36338723 0.21132527 0.104712516 0.015492386 -0.11578837 -0.16659288 -0.11274834 -0.01602387 -0.3680816 0.610504
273 0.35029817 -0.0990432 -0.19248308 -0.04814021 -0.18534209 -0.0824315 0.045562148 0.25780153 0.1557432 0.10252092 0.39533964 0.0798614 -0.024500273 0.005045412 -0.35689256 -0.29112756 0.17723906 0.2077018 -0.5976702 -0.04726164 0.30745834 -0.2084866 0.32950372 -0.1424867 -0.2902259 0.20851003 0.40951303 0.17662084 0.13289471 0.024127154 0.1215454 0.00627604 -0.12749422 -0.18462186 0.15121421 -0.09000349 -0.35162327 0.19617653 -0.3753586 0.46685097 -0.063268684 0.24950655 0.50992936 0.10604408 0.34824792 0.122282915 0.47732216 0.257962 -0.026581239 0.092934854 0.057634894 0.27775306 0.04327 -0.18421496 0.20324649 0.29078475 -0.083410956 -0.109874934 0.3038654 0.1759013 0.19493747 -0.21140575 0.099794246 0.18203083 -0.21529223 0.113702826 -0.06398439 -0.3057526 -0.111089975 0.20446557 0.33782127 0.09637089 -0.08132418 -0.22823177 0.013308772 -0.18381754 0.24205013 0.3454355 -0.13970232 0.46883628 0.36574158 0.107559964 0.14294383 0.041582987 -0.46872273 -0.32492736 0.19889203 -0.22156568 -0.18117054 -0.22348674 -0.08561382 -0.48332426 -0.022875953 0.105784975 -0.44835162 -0.26783526 0.27903673 -0.31667647 0.046856407 0.099655434 -0.029574322 0.010556423 0.012870632 0.020680685 0.18203697 -0.04962527 0.048952587 0.22175463 0.004410833 -0.03774764 -0.13573126 0.12173054 -0.11165953 -0.03408134 0.039598547 0.15488304 -0.020021286 0.15619531 -0.010419928 0.0072420603 -0.14548579 0.051740035 -0.102544084 -0.41304335 -0.19532613 0.25926134 0.2179813 0.111927934
123 0.22808456 0.09937978 -0.25833002 0.17334789 0.12885842 -0.2321004 0.09294731 0.037112188 -0.037290506 -0.48143512 0.23936123 0.34876996 0.06568185 -0.022859422 -0.09250908 -0.49064428 -0.050212473 0.35135955 -0.021647612 -0.055258676 0.16148813 -0.3354335 0.034180414 0.11117243 -0.018476171 -0.028517758 -0.25537607 0.042347617 -0.22917223 0.28380558 0.04587889 0.4441865 0.10990289 0.13681474 0.2056317 -0.15954767 -0.031627625 -0.18337698 0.17367344 0.21327654 -0.05324317 0.1935689 -0.30718353 -0.21118587 0.13890515 -0.17713246 0.16878664 0.09312233 0.24328317 0.15878634 -0.07389999 0.20761482 -0.28255785 -0.5711845 0.13944732 0.44305488 -0.19285868 0.2692563 0.02991525 -0.1539282 -0.036631525 -0.21964088 -0.25928932 0.15519057 -0.13434613 0.090585 0.019672478 0.29996473 0.13119929 -0.009567012 -0.16329911 0.07776165 -0.1468678 -0.299713 -0.09123195 -0.06679347 -0.031377133 -0.010991175 0.0561668 -0.2665727 0.39522472 0.38026324 0.06434759 -0.0060799452 -0.42350352 0.048044816 0.03145215 -0.06292494 0.23137632 -0.008210425 0.007985885 -0.1901355 0.21845856 0.3815911 -0.42667025 0.030287787 0.27591172 -0.04968336 -0.21651284 -0.2423063 -0.07698775 0.21923691 0.11894157 0.16089599 -0.20785028 0.03141473 0.06760992 0.20543298 -0.38659087 -0.3850489 -0.42765218 0.35880688 -0.00763802 -0.3191836 0.06424822 0.26682955 -0.27176312 0.14559922 0.50830907 0.08757249 0.036950827 0.55575097 -0.09421357 -0.05226572 0.07497261 -0.09164173 0.14989609 0.34624368
249 0.1826479 0.10197516 -0.044334933 -0.11844392 -0.26415396 0.40974304 0.00577816 0.002143747 -0.24426243 -0.15313733 0.19837642 -0.25257123 0.25088096 0.34141338 0.10541334 -0.17777136 0.1834344 -0.033818368 -0.35291922 0.35320482 -0.19425362 -0.3769865 0.26545292 -0.08184182 -0.07582427 0.045919754 0.39642006 0.3211344 0.022670813 0.3569288 -0.061141156 -0.19614992 0.118847705 0.1567691 0.08325816 -0.21887718 -0.39547896 -0.32079786 -0.07273104 0.09523687 -0.039446652 0.06555257 -0.06744866 0.03630638 0.12407389 -0.4008109 0.052019425 -0.21615571 -0.04208232 0.03399908 0.20260695 0.096955486 -0.23058014 0.14806171 0.03581003 0.4033292 0.09345109 0.2574722 0.24374701 -0.013999864 0.28063506 0.176973 -0.00062775577 -0.0011003873 0.09759718 -0.45048288 -0.09982003 0.009821159 -0.3542616 0.4556597 0.18363978 -0.008352366 0.22376913 -0.22146748 -0.048897434 -0.08345876 0.11367913 0.34404853 -0.14627986 0.16540675 0.30232304 0.34823057 0.25906578 -0.5056351 -0.4709891 -0.06854016 -0.027677938 -0.006888999 -0.10763081 -0.044055715 -0.04326481 -0.10364528 -0.022420231 0.3411129 -0.1437798 0.034677144 -0.07139787 -0.056492053 -0.14257845 -0.13910699 -0.22863983 0.019755023 -0.055398744 -0.009215425 -0.03857378 0.041207183 -0.0077874563 0.30512214 0.3298935 0.21269517 -0.55470455 0.20261192 -0.24812911 0.07883744 0.26963815 -0.04465467 0.013640675 0.25052044 -0.21816063 0.17799309 0.079249434 0.15594319 -0.07474425 0.10825252 -0.32566953 -0.29473993 0.20704855 0.12649065
120 0.32070512 0.044359706 -0.023933614 0.022607625 -0.004627601 -0.2167972 0.36802784 -0.01213958 0.35286504 -0.04740954 -0.056168802 0.023255775 -0.009886302 -0.13873893 -0.099810116 -0.19615199 0.018274276 0.23603173 -0.36695498 -0.08355212 -0.06957739 0.01714558 0.07123638 -0.32426718 -0.2911498 -0.1215288 0.25223967 0.18151934 -0.5137108 0.08294108 0.20272331 -0.048534878 -0.24568051 -0.064981945 0.25363058 0.34864628 0.11587092 -0.027949682 -0.2732966 0.027614214 -0.080445535 -0.026597504 0.23513825 -0.046183266 0.19041832 0.16452529 -0.16342174 -0.052268554 -0.06573395 0.42595962 0.057531968 0.25351188 -0.04732582 -0.17159885 0.32233956 0.46937013 -0.15013236 -0.020053707 -0.030544396 -0.1866166 -0.017389478 -0.2361465 0.030637586 0.15179545 0.17242688 -0.038889047 -0.114975035 0.11375942 -0.09895472 0.21944886 0.23048803 0.15466961 0.34217975 0.12091843 -0.109198615 -0.00038547008 0.09320436 0.4017846 -0.3649337 -0.025252577 0.12662056 0.30607164 -0.08342257 -0.011013809 -0.37977973 -0.08589941 -0.32269078 0.021913834 0.4491586 0.37770274 0.37524968 -0.053203743 -0.2612564 0.233058 -0.3358638 -0.14220954 0.15019076 -0.23799531 -0.18170717 -0.058221117 -0.18265623 0.17005536 -0.042604737 -0.07442939 0.26630998 -0.17093128 0.067033894 0.28824824 0.19955692 0.26361337 -0.21006696 -0.074768 0.023521243 -0.4544781 0.12901647 0.298824 -0.34218633 0.3557007 -0.121539496 0.12779358 0.49253222 0.39493656 0.07405359 -0.3720927 -0.40992406 0.057246108 0.25962633 0.07621481
53 0.017128505 0.05480179 -0.018427737 -0.1151005 0.12244809 0.060512863 -0.17290619 0.13627541 -0.46664956 -0.09871076 0.15455833 -0.21336213 -0.12250693 0.1628569 0.24135059 -0.17456792 0.24165596 0.060023494 -0.24067347 0.39629143 -0.004997441 0.025049856 -0.009580286 0.16395327 0.27968505 0.11071449 0.12080486 0.5569559 0.13124101 0.35566872 0.2898413 0.06974984 -0.19462942 0.021962218 0.040208817 -0.04373213 -0.31346196 0.056726985 -0.015483477 0.37387952 0.12134218 0.052365936 -0.0110071525 0.10893941 -0.03541139 -0.087348424 0.1931568 0.092579834 0.09957688 -0.026327446 0.33427382 0.08880512 0.14865474 0.11575795 -0.1703608 0.14275317 0.17563641 0.2986603 0.07899952 0.03319789 -0.15194926 -0.023852926 0.20751809 0.04537304 -0.054970495 0.11105869 -0.09838233 0.00786338 -0.13807505 0.22015373 0.02793336 0.34693924 -0.16002266 0.09057206 -0.28092155 0.18358362 0.020735139 0.3549178 -0.14624211 -0.1273345 0.8123672 -0.21860428 -0.082905956 -0.16239816 -0.42356324 -0.009843641 0.40856567 -0.21803963 -0.049108814 -0.096757494 0.14164893 -0.30994987 -0.030048678 0.1515118 -0.32365426 0.19268645 0.17462668 -0.7076457 0.081144586 -0.09762437 -0.29673582 0.253885 0.05103197 -0.185094 -0.33837378 -0.019352393 -0.33175606 -0.15843153 0.054272473 0.19428657 -0.73913926 -0.085776776 0.17897442 0.09037571 -0.42839336 0.08256654 0.110808045 0.4635971 -0.07146998 0.29151592 0.2198314 -0.029371234 0.0039668027 -0.17706898 -0.23405823 0.22977707 0.15865187 0.028348476
59 0.4051462 0.093427464 -0.34352243 -0.0680459 0.07279451 -0.009818978 -0.10541083 0.0645659 -0.06312694 -0.21751642 0.19250561 0.14604074 0.044919927 0.005163753 0.07296123 -0.27239475 0.05453881 0.10146212 -0.28403687 0.027256133 -0.46160293 -0.14834952 -0.106884815 -0.3735386 -0.07221599 0.1268743 0.36699882 0.6037735 0.058755085 -0.1273961 0.0018004782 -0.0061948667 -0.3140959 0.11136872 0.39636233 -0.21818644 -0.1833386 0.20873848 0.08958657 -0.028212387 -0.10936706 0.013705711 -0.16537568 -0.05288064 0.22550157 -0.2745373 0.2953243 -0.26797408 0.2334021 0.15838599 0.41124263 0.109396726 -0.2574871 -0.10140405 -0.10117366 0.3631924 -0.15502685 0.31233117 -0.12206242 0.07910081 -0.14556605 -0.3408688 0.2747283 -0.18022184 0.2070596 0.0039710696 0.007766583 0.24580313 0.20004527 -0.08249535 0.15534587 -0.13597764 0.2560839 0.030968124 -0.005680783 -0.04951133 0.00096705323 -0.25611383 0.15325332 0.21085869 0.55809253 0.056574002 -0.015562806 0.14274983 -0.039058346 -0.10530696 0.08590014 -0.11425384 0.35248923 0.19191884 0.14837964 0.0029971334 0.1906141 0.6522911 -0.35297593 -0.28649002 -0.10227229 0.22818848 -0.47743884 -0.01644453 0.058340427 0.15866973 0.10887145 -0.18197055 0.01623715 0.022864988 -0.0022203233 -0.101114064 -0.06875935 0.00011674705 -0.42419347 0.27210388 -0.1598663 -0.2737932 0.39042795 0.3466343 0.118009366 0.23633447 -0.17020716 0.13130887 0.12526175 0.07272261 -0.18774351 -0.23598851 -0.22909465 0.25750646 -0.2957929 0.2616339
334 0.3783317 0.032030072 0.3004074 0.10477168 -0.43222287 0.08606559 0.16173914 -0.17356363 -0.15849729 -0.19123417 0.052542627 0.1826449 0.15759842 0.030259734 -0.29463175 -0.1819554 0.24554253 -0.1359653 -0.25689954 0.15502654 -0.22136322 -0.001755794 0.185689 -0.024577688 -0.13100997 -0.006303011 -0.062592454 0.15453194 -0.22915502 0.26288238 0.3993771 0.2858539 0.13777189 0.17462896 0.40503 -0.030199362 0.48250195 -0.308311 -0.005627632 0.31488952 -0.21977209 -0.052729264 0.020096328 -0.16730832 0.3921914 -0.0545086 -0.050064884 -0.09686857 0.04984505 0.23148912 0.08016199 0.029843738 -0.054693587 -0.3284328 0.07044149 0.16058698 0.023656068 0.39507636 -0.009630065 -0.30240408 0.15960735 -0.17369187 0.096665196 0.10386438 -0.013442125 -0.40585643 0.19193953 -0.124796346 0.22064944 0.07169191 -0.108556196 0.119346395 -0.03615917 -0.015268502 -0.21601261 0.115938455 0.14325765 0.17022896 0.06682995 0.35516942 0.5589844 -0.017502412 -0.16620362 0.08325734 -0.5313812 -0.15569465 0.43145525 0.12323004 0.45497143 -0.023986373 -0.042925805 -0.108172774 -0.052412618 0.5047729 -0.10193302 0.0692474 0.1976689 -0.042917095 -0.29946762 0.04681686 -0.09627357 0.19248322 0.12536772 0.043571047 -0.2286944 0.1810484 0.13297036 -0.16380452 0.067684054 -0.13413513 -0.2543591 0.113533676 -0.029004714 -0.15464807 -0.010639191 0.13907807 -0.20438293 0.44781107 0.23035152 -0.011582473 -0.050043166 0.25721171 -0.04835959 -0.054753054 -0.048393987 0.10970362 0.26258725 -0.11679553
137 0.29763925 0.33756018 -0.11351177 -0.14105704 0.02407055 0.16723672 0.011023771 0.17955308 -0.12247796 -0.31341287 0.08507874 -0.17157885 -0.2139377 0.05552138 -0.10576843 -0.47276616 0.34360003 0.46010372 -0.19620214 0.31436643 -0.053854175 -0.4683024 0.19990684 0.034894776 0.110978544 -0.1707782 -0.26823878 -0.0029755728 0.018211728 0.12748413 0.24166408 0.1476498 -0.072302245 -0.23471585 -0.07063752 -0.28520998 -0.3039565 0.21140964 -0.08113537 -0.05436074 0.2918711 -0.07212423 -0.19847134 0.23553288 -0.20586896 -0.01348463 0.05311524 -0.03853363 0.017908094 -0.192993 0.16186185 0.27623916 0.58444685 -0.15265079 -0.10735029 0.51928025 -0.19386727 0.52845633 -0.076884754 0.074933924 -0.2039183 -0.32736155 -0.15780005 0.11569634 -0.14547743 0.043848243 0.05241316 0.13327786 -0.1380743 -0.06998873 0.014412565 0.24368672 0.11161629 -0.23887561 -0.17413458 0.107957885 0.06234381 0.052939307 0.15161882 0.41404003 0.17751361 0.2760642 0.5243556 -0.03559948 -0.51513946 0.027952412 0.32902145 -0.048910297 0.11776136 -0.23461352 0.15441832 -0.42995352 0.017795991 0.18203445 -0.24419408 -0.4950189 0.075973 -0.19186227 -0.061904646 -0.45756462 0.4447708 0.13310198 -0.22325505 0.12596335 -0.28083423 0.062857635 0.23118447 -0.15702362 -0.40417376 0.10910922 -0.24319623 -0.15354235 0.25391367 -0.18320194 -0.061355334 0.34944457 0.051161747 0.32731104 -0.010594437 0.08486992 0.14455953 0.13849497 0.08768038 -0.1130039 -0.50302714 0.12149645 0.031195523 0.14971603
286 0.053140007 -0.22343822 -0.1804829 -0.040504068 0.22406457 -0.073144294 0.24701758 0.280676 -0.07301913 0.065585405 0.086894 0.09972745 -0.19759437 0.07637584 0.17568485 -0.17904499 0.18656576 0.36743245 -0.38267726 -0.023384927 -0.03186051 -0.101516254 -0.20294741 -0.26281625 0.032436803 -0.12090449 0.13393338 0.07345311 -0.15933786 0.49359676 -0.0301792 -0.13248825 -0.063941814 0.055616003 -0.059395336 0.57536584 -0.094271 0.10302032 -0.11799696 0.10659018 -0.39846548 -0.2715587 -0.22506115 -0.09881637 -0.21385844 -0.27009815 -0.088764 -0.3246022 0.5196754 0.02751956 0.110685706 0.34064543 -0.13958262 0.07587654 -0.18525475 0.1574869 -0.22240745 0.18309556 -0.36619553 -0.16127561 0.10756875 0.024052123 -0.03969077 0.17676951 -0.26389503 -0.27764308 0.100867145 -0.12265296 -0.012777424 0.02838754 0.13362658 0.04945622 -0.14257197 0.3219042 -0.5826628 -0.038470253 0.28158772 -0.10059301 -0.036619466 -0.2006799 0.27883318 0.24428125 0.04431768 0.0806518 -0.60296714 -0.40732047 -0.116831824 0.120701194 -0.03790987 0.10518326 -0.23097336 -0.05890905 -0.093740895 0.19299103 -0.19356799 -0.20445406 0.019133197 -0.42843238 -0.19343372 -0.44037798 -0.17854731 0.05319703 -0.22644854 -0.27317318 -0.18687393 -0.13596468 -0.19382027 0.08535603 -0.20477459 0.15522596 -0.27903327 -0.23580052 -0.13741702 -0.13320321 0.2646869 0.41785446 -0.41777143 0.065809846 -0.028148185 0.35626522 -0.087546326 0.04432349 -0.034194406 -0.1094873 -0.3667253 -0.020070368 0.09153205 -0.14771467
129 -0.0035016444 0.048987284 0.22281869 0.13425161 -0.037543345 -0.15031904 0.00652352 -0.15334931 0.14530283 -0.0016960464 0.008335588 -0.00906919 0.046387393 0.21313041 0.123661704 -0.22192927 0.29677197 0.016156655 -0.14940955 0.04280899 -0.35656297 0.08616458 0.22068128 -0.14834277 0.058542863 -0.35914004 0.43897063 0.21651843 -0.031223787 -0.076464705 0.009371329 -0.04420702 0.024909487 -0.05426736 0.24010834 0.04915358 -0.04321983 0.17750956 -0.51452404 -0.08357877 -0.16346326 -0.11454874 -0.28833267 -0.07903635 0.071957596 -0.15715975 -0.040927395 -0.31167442 0.014655535 0.14505216 0.13559063 0.07446625 -0.13218732 -0.17747743 -0.08189497 0.10103384 -0.4290971 0.50377196 0.05154974 0.05638408 0.046833288 0.03917186 0.1075094 -0.08320141 0.050299376 0.15889743 -0.030271986 -0.028084531 -0.16181546 -0.17074542 0.23260717 0.2708978 0.19040518 -0.00639232 -0.15079989 -0.23193811 0.0554811 0.124404274 0.060054265 0.4254053 0.26201645 0.039184127 0.04662964 -0.46883723 -0.38324186 -0.15005155 0.09270471 0.12526868 0.39203578 -0.3291145 0.44751328 -0.183954 -0.049408995 0.08976942 -0.35812804 -0.04768771 0.14450501 -0.3649634 -0.10050327 -0.5961155 -0.3023269 -0.12307193 -0.43489513 -0.09815227 0.055883516 0.012294368 0.22424267 0.11244063 0.15173262 0.023620097 -0.108111106 0.014060133 -0.1597693 0.090077735 0.34109643 0.104122214 -0.14278191 0.4795348 -0.10984171 0.00021039974 -0.19859424 0.06142514 0.31260252 -0.021779718 0.043865446 -0.026927702 -0.0032237163 0.5479028
56 -0.3030592 -0.0377447 0.124444515 0.02811828 -0.011634991 -0.22821346 0.27314478 -0.14170341 -0.11574952 -0.04424224 -0.11392147 0.07652431 -0.12746653 0.15557082 -0.15936634 -0.24496025 0.35550162 0.04137435 -0.28733033 0.47425056 -0.27294683 -0.28539965 -0.14386414 -0.16201219 -0.049919035 -0.34591794 0.22202387 0.287459 0.033488467 0.11710362 -0.14712934 0.04632567 -0.19061159 -0.33044022 0.13094561 0.10124166 -0.06171419 -0.048775923 0.06373774 0.2547005 -0.13620956 -0.30226657 -0.24564171 -0.09576501 0.26387763 -0.19718023 -0.2314746 -0.50229526 0.38553458 -0.12162692 -0.14149886 0.23892678 -0.027063878 -0.046013333 -0.06149277 0.6259066 0.02786187 0.09699771 -0.17470816 -0.017202307 -0.23614354 -0.15337603 0.2992064 -0.010282214 0.6020645 -0.336769 -0.046082944 0.2849075 -0.015897403 0.056543346 -0.072624385 0.0026472893 0.08020126 0.25871617 -0.2759904 -0.20646621 0.20453657 0.22663192 0.06983628 -0.06794813 0.08201828 0.08504322 -0.03375518 0.14931181 -0.67604053 -0.104058534 0.030685926 0.05802208 0.19607152 0.14045987 -0.1110358 -0.058012646 -0.1141793 -0.35621095 -0.06304069 -0.117473036 -0.039679408 0.026665378 -0.24161187 0.18660587 -0.043856546 -0.22111759 -0.46424225 -0.041628547 0.07828387 -0.052398443 -0.005093769 0.064543776 -0.10252854 -0.07838474 -0.41934654 0.06271862 -0.10462199 0.117662765 0.42425707 0.2235372 -0.17273052 -0.04305721 -0.13770826 0.14184244 -0.11828092 -0.408104 -0.0836406 -0.112180226 -0.10438228 0.54043496 0.31297588 -0.13706505
314 -0.013731767 -0.097339004 -0.14090014 -0.019666817 0.10316134 -0.093715206 0.27136755 -0.2738323 -0.008105723 0.022157224 0.1775898 0.27114204 -0.3272582 0.36295485 -0.018150909 -0.26903415 0.3654129 -0.12776233 -0.49392298 0.33358124 0.10036351 -0.24979882 0.12346158 -0.37218824 -0.006165717 -0.051786546 0.18029071 0.16301467 -0.0141861215 0.27002499 0.038593493 0.32506633 0.13248871 -0.021432467 0.39542866 0.4092807 0.47188443 0.07976203 -0.11979723 0.17817709 -0.055428088 0.027945163 -0.6552184 0.18540822 0.41623598 -0.23021734 0.16855924 0.18038467 0.3838607 -0.16138592 0.15157557 0.23924178 -0.16168334 -0.24237655 0.20430647 -0.12297527 0.015402656 0.15394856 -0.1028083 -0.11317858 -0.22971262 0.07973226 0.404474 -0.13414535 0.08639841 -0.340545 0.16620408 0.11024288 0.14786243 0.07057316 0.24033858 -0.058133528 -0.08674481 -0.21180399 0.12769051 -0.19292325 0.15941058 0.15240873 -0.0002386014 0.17491727 0.270533 -0.037298653 0.215488 -0.19572735 -0.21132599 0.22674803 0.2787723 0.2159893 0.29484218 0.14038344 0.22503233 0.032996275 0.03757062 0.32073337 -0.2637657 -0.3311882 -0.08948301 -0.3470619 -0.05748927 -0.14909561 -0.17908739 0.070276536 -0.2107283 -0.13615137 -0.064486936 -0.083087415 0.08072977 0.029103935 -0.42244437 0.28517914 -0.11365136 0.17730156 -0.48241815 0.058003355 0.21212533 -0.32794964 0.14165965 0.19405842 0.28007987 0.016660618 0.37835813 0.1978163 0.24519938 -0.013864139 -0.020630658 0.09223604 0.13905568 0.15839805
143 0.33923134 -0.2373549 -0.4518691 -0.18010612 0.29912382 -0.24443273 -0.07277664 -0.14947742 0.26978028 -0.06956043 -0.099598706 0.1442058 -0.11535547 0.627175 0.121049725 -0.06636209 0.2223266 -0.06492425 -0.13487186 0.11079492 -0.024470298 -0.34650686 0.07794396 0.12149816 -0.031069767 0.27735886 0.412958 0.24041584 -0.2389092 0.2575201 0.3051794 -0.10013367 0.21680374 -0.124411725 0.08580377 0.04899006 0.19159268 0.1460943 -0.07419747 0.0964677 -0.038911443 -0.048917245 -0.19800842 -0.12188198 0.046619155 -0.097926125 0.29590395 -0.27112654 0.2542225 0.18824755 0.11376724 0.63809884 -0.10025532 -0.295902 -0.12206169 0.18335073 -0.5751323 -0.033539847 -0.13397592 0.03577519 -0.06633037 0.3649765 -0.15783755 0.10345524 -0.11835881 -0.106017604 0.09533732 0.2259679 0.1590209 0.055225857 -0.22464438 0.010917 -0.34834725 -0.14785866 0.10391643 -0.3056616 0.015481893 0.06844217 -0.1266458 0.13905768 0.21424963 0.23558864 -0.02934332 -0.04645157 -0.5729758 -0.3295267 -0.032090236 0.29268757 0.24284926 -0.3782991 -0.08179016 -0.44324303 -0.48066407 0.25984433 0.07493775 -0.102449074 0.13544786 -0.3476899 -0.54476124 -0.09773758 -0.26909485 0.18421718 0.123828866 -0.002459084 -0.0010294215 -0.15817748 -0.051395096 -0.08198639 -0.1260218 0.4467719 -0.21563649 -0.05429475 -0.19721271 -0.012863053 0.17094097 0.20956115 -0.3285377 0.06747465 0.055234097 0.2005305 0.101088144 0.14383446 -0.4814004 -0.031394955 0.1282977 0.129782 -0.1211409 0.13722582
126 -0.07725063 -0.27086434 0.1152641 0.47869918 0.19822283 -0.22040685 -0.3326298 0.37442783 0.14834228 0.14837056 -0.0011206793 0.27282566 -0.020732246 0.027986392 -0.0061215814 -0.20713767 0.05598346 -0.07797923 -0.70351356 0.2367728 -0.40164822 0.061456904 0.20714383 -0.4614165 0.0116767 -0.3370481 0.25651357 0.07005577 0.18446091 0.17003208 -3.9406383e-05 0.32120386 0.25235766 0.07724139 0.28201807 -0.1400705 0.19718073 -0.3635464 -0.123950854 0.26671085 -0.14117809 0.22168832 -0.053659562 -0.06444566 0.13023217 -0.14330786 0.07124442 -0.12947461 -0.018042618 -0.08077142 0.14059031 0.020830156 -0.17176548 -0.076796085 0.32978976 0.3855003 -0.17961173 -0.20563194 0.1284887 0.20851505 -0.0014227458 -0.21975125 0.28235325 0.08631768 -0.086829565 -0.2920967 0.07472515 0.66219705 -0.07078156 0.56074715 0.036618233 -0.077551775 -0.08705908 0.015148257 -0.028478494 -0.16135027 0.031197453 0.22080357 0.020695793 0.003828974 0.3056657 0.23086357 0.016674986 0.19319984 -0.27917734 -0.1091939 -0.14612731 0.1323192 -0.025038507 0.3213042 0.22867772 -0.35939562 -0.38180718 -0.0512543 -0.29588184 -0.30735382 0.12948292 -0.10076595 -0.18889366 -0.20877083 -0.0893121 0.113893725 -0.05409698 -0.15340693 -0.38403672 -0.015761092 -0.2469086 0.2925758 0.14531021 -0.12904751 -0.10866913 0.07207459 -0.2360387 0.012241904 -0.041335378 -0.10448851 -0.22315471 0.23522411 0.56091183 -0.024709871 -0.11462671 0.16520707 -0.15442432 -0.31311548 -0.20532884 -0.15206861 -0.27733922 -0.08299853
330 0.33529922 -0.07299476 -0.045695074 -0.1722429 -0.098846644 -0.07019415 0.25545952 -0.095472686 -0.15684985 0.07840154 -0.19767696 0.14510843 0.28182358 -0.011494101 0.34293005 -0.4844628 0.24555388 0.21151443 -0.1439926 0.010545322 0.08080342 -0.22962141 0.064818 -0.0080138035 0.022728268 0.2624972 -0.09375169 0.37110198 0.22202978 0.04656131 0.32124364 -0.058373183 -0.23632224 -0.058558658 0.34353918 -0.006628608 0.19297938 -0.2914432 -0.23199318 0.09764261 -0.04382011 -0.15206942 -0.2991375 -0.15722017 0.24116442 -0.15940212 0.3047569 -0.34524536 0.29372814 0.018707663 0.27275613 0.13722959 -0.15323171 0.04477821 0.10478177 0.3379504 -0.093191534 -0.1075476 -0.14731064 -0.19501111 0.03075213 -0.07809103 0.52710843 -0.19534098 -0.16954347 -0.14731042 -0.235125 -0.33667564 -0.5029583 0.011578194 -0.038130984 -0.03083421 -0.2550679 0.015597977 -0.03963603 -0.44974995 0.1820516 0.27236608 0.10472521 0.101189815 0.4331642 0.29280654 -0.24236254 0.041381363 -0.5191594 -0.20516235 0.10114188 -0.21685998 0.053015836 0.123014145 -0.12183783 -0.32744142 0.021497559 -0.028287778 -0.22591841 0.109487504 -0.09034442 0.26370254 -0.19017902 0.2816175 -0.32661042 0.26977044 -0.086052716 -0.118892185 -0.19248863 -0.20762064 0.15330082 -0.16233554 -0.059991375 -0.12071699 -0.0027711736 -0.05545446 -0.3138322 0.21967918 0.2630769 -0.11676745 -0.04152412 0.57898456 -0.10330635 0.17670575 -0.049671326 -0.04154298 -0.25629774 -0.14208622 -0.0045732264 0.17105184 0.32342854 -0.038049523
233 0.38850296 -0.14617339 -0.2595659 0.025644531 -0.20994431 -0.2658717 -0.21153398 -0.15774427 -0.14796712 0.013531139 -0.27699202 -0.02207676 0.033376124 -0.19881225 0.17227548 -0.27256912 -0.06097811 0.46130386 -0.21245709 -0.08176585 0.10248971 0.26851517 0.21983854 -0.23948953 0.17344487 -0.099891275 0.05218895 0.24829113 0.23026212 -0.085518874 0.17814581 -0.17076677 -0.08006314 0.10507961 -0.011478574 0.054353297 0.09671047 0.20779794 0.12615423 0.2214871 0.029645825 -0.13360076 -0.06263073 0.052750986 0.07318234 -0.22645602 0.5179126 -0.19476789 0.0027009854 0.16226403 0.15951905 0.36626217 0.11231383 0.031629488 0.3716625 0.18573627 -0.20794412 -0.19607031 -0.3847335 -0.2601704 -0.059996467 -0.15293671 -0.0029984612 0.14132187 0.26523858 -0.03873079 0.07959543 0.14248137 -0.022651313 0.028103989 0.16738605 0.04330376 -0.21766455 -0.09707657 0.010377458 -0.32454336 0.2890586 0.4299481 -0.059384614 -0.048095334 0.26282674 -0.039585654 0.030890657 0.076932535 -0.5280506 -0.021610394 0.19617853 0.1173154 0.13721842 -0.015584172 0.07893594 -0.3408857 0.24699676 -0.38751018 -0.012413132 -0.31057847 -0.118733004 -0.46341506 -0.1849899 0.2623503 -0.29469094 0.09355194 -0.010915297 0.10640296 -0.15270713 -0.008301836 -0.0658396 0.045023117 -0.06683987 -0.29771706 -0.2992293 0.06451368 -0.15446074 -0.20887831 -0.017047834 0.107746124 -0.10296656 0.36223927 0.07044974 0.54117084 0.21460693 0.33990398 0.316684 -0.2534242 -0.34764975 0.1815331 0.26824912 0.13621606
114 0.32514456 -0.23228897 -0.2940262 0.072918475 0.08405726 -0.2073201 -0.10344324 0.46432284 -0.25896823 -0.17407534 0.31963676 -0.36737555 -0.28860158 0.099013984 0.32924855 -0.09114284 0.3221333 0.47205165 -0.2368584 -0.1215739 -0.05039654 -0.2835585 0.5772396 0.012804338 0.16846901 -0.025459077 0.071665585 -0.28066346 0.42543915 -0.2501528 0.59473467 -0.3608913 0.09206939 -0.021011246 0.22970192 -0.2042036 0.18130401 0.0071950466 -0.06269551 0.13419585 -0.2596228 0.20524855 -0.3475829 0.016385648 0.24303249 0.21586776 0.13428365 -0.19319439 0.12179448 0.20752287 -0.05585404 -0.118902765 0.045641992 -0.4460354 -0.005571717 0.27135378 -0.2060494 0.22833481 0.016828464 -0.09460419 0.0606414 -0.2756891 0.07946547 -5.4906064e-05 0.15020393 -0.20046012 -0.25763533 0.30053285 0.068982415 -0.33274597 0.27079797 0.034990378 -0.2902934 0.03966614 -0.19508694 -0.19718012 0.165432 -0.10536331 -0.04170825 0.04726019 0.19017233 0.15027289 0.26984286 0.060714353 -0.68679744 0.0347426 -0.054505993 0.03271211 0.31109628 -0.062255405 0.11112748 -0.19595428 0.18973324 0.083846085 -0.06470282 0.15971068 -0.03217317 -0.21843962 -0.39606574 -0.20920403 0.17975111 -0.058373507 -0.2449997 -0.20591258 0.009191172 0.20504805 -0.039152376 0.10000537 0.1067426 -0.11400014 -0.07561475 0.141606 -0.19775309 0.003501746 0.26946637 0.12666282 0.05660038 0.4436299 0.036273595 0.19224012 -0.108980834 0.04428107 -0.3785343 -0.11087718 0.13498631 0.12419891 0.22268511 -0.11363163
132 0.3387697 -0.18377502 -0.20635127 -0.0718934 -0.03523931 -0.24475737 0.067906596 0.042059507 0.06489023 0.34019256 0.014951923 0.16223317 0.18477748 0.12096643 -0.013980492 -0.015186458 0.13361794 0.0004889959 -0.59009105 0.22993606 0.096528955 -0.22127393 -0.118458204 -0.07734376 0.4800618 -0.07045131 0.031938832 0.24173184 -0.14021045 0.045403685 0.30262628 0.46639478 0.06903573 0.24941327 0.13070926 0.08173823 -0.3056374 0.24675329 -0.084635906 -0.035356652 -0.19301905 -0.069107845 -0.17200431 0.0807757 0.003385086 -0.10688504 0.36384457 -0.018603703 0.052830044 -0.054008935 0.056858446 -0.14131509 -0.18632594 -0.12050541 -0.05387521 0.13642597 0.10448609 -0.049739864 0.015697649 -0.01584704 0.2522888 0.13530186 0.34050265 -0.07026068 -0.097863905 -0.24521609 0.14569119 -0.11074788 0.17576197 -0.06811754 0.16108209 -0.16795355 -0.12199732 -0.09587731 -0.33135644 -0.114191964 -0.17045806 0.4560319 0.13154909 -0.00043848844 0.19605488 0.20652643 -0.018071007 -0.38556215 -0.74425423 -0.099513695 -0.08330843 0.07981586 0.14386307 0.34881106 0.07606992 -0.60803634 -0.019277757 0.1400112 -0.16953892 0.012065119 0.18576138 -0.24601704 0.057796393 -0.23516583 -0.23795949 0.11740446 -0.015663592 -0.15505506 0.0051445104 0.20354408 0.013424653 0.04816021 0.23900038 0.011037078 -0.36999667 -0.25624356 0.023717012 -0.10246448 0.0937562 0.17017317 -0.16426226 0.25126815 0.05427168 0.3396185 0.39019644 -0.11482099 -0.115341134 0.3676359 -0.43330404 0.056396123 -0.0040348805 -0.0916699
117 0.29139057 -0.20013802 -0.3642228 -0.0044336375 0.23610406 0.3531598 0.026861576 -0.21658589 -0.1770812 0.032184478 0.25694862 0.11466639 -0.31706268 -0.010648099 -0.09451783 -0.03700358 0.038396154 0.18663216 -0.63617486 -0.054737985 -0.1276597 -0.1389185 -0.101694666 -0.39124474 -0.14468127 -0.032223176 0.2699116 0.31574568 0.05891864 -0.16323091 -0.38727805 0.059283525 -0.51308185 0.18527704 0.5490242 0.33002108 -0.015705988 -0.2428842 0.11451797 0.04808738 -0.07217217 0.023398798 -0.1953576 -0.049823992 0.031585168 0.22068873 0.11904153 -0.24051708 0.49320427 0.040349424 -0.1183669 0.07858228 0.36928543 -0.0997885 -0.023682114 0.29827884 -0.20315431 0.3867895 -0.010148844 -0.07966483 -0.031273987 -0.013294152 -0.094569154 0.041673105 -0.112383105 -0.27182478 -0.1411175 0.03865712 -0.04656157 0.15159133 -0.08425493 0.14448622 -0.10590668 0.05796649 -0.41044536 -0.35165668 0.14229736 0.07266387 0.20276998 0.31965777 0.0054351506 0.12041443 0.21122943 0.13178653 -0.50574845 0.17244862 0.04426285 0.28203976 0.1214206 -0.21256226 0.10428941 -0.037429817 0.10037655 0.0069762077 0.050575864 -0.1653941 -0.016395165 -0.13505769 -0.3511972 -0.35073832 0.07083794 -0.1342111 0.07574935 -0.15376243 -0.17762843 -0.45860088 0.011635175 0.039251365 -0.043156255 0.06139061 -0.6403189 0.22107413 -0.6269631 0.33183548 -0.14296259 0.26750782 -0.06583878 0.47811672 0.14416537 0.2674414 0.13746862 -0.14230657 0.1614704 -0.0001374622 -0.17425825 -0.21345702 0.40518603 0.2018486
258 0.37719032 -0.23976919 0.101050876 -0.38367894 0.052656718 0.01965373 -0.05018691 0.14240314 -0.06242256 0.17520916 0.25083682 0.20477267 0.12935069 0.21848331 -0.06242315 -0.33845627 0.039502546 0.13110203 -0.2913035 0.09719605 -0.41558492 -0.22228017 0.3868067 -0.60408986 -0.31294134 0.23849656 -0.084368795 0.083892524 0.29238537 0.2792426 0.18562308 0.0965083 -0.10385142 0.08411917 0.25848782 0.018203199 -0.13425612 -0.21220705 -0.32725653 -0.015890751 -0.34710616 0.12706381 0.20067394 -0.11109332 0.45290437 0.12528205 0.14154132 -0.010155932 -0.057703573 -0.027243769 0.18914026 0.30617824 -0.042597424 -0.14152199 -0.043807335 0.08156414 -0.13690509 0.0034421722 0.018832786 -0.28980553 -0.12642224 -0.054681752 0.38975736 0.47382072 -0.2564655 -0.08197634 -0.051356558 0.08241457 -0.06287735 -0.0081722075 -0.120409094 0.09167622 -0.31302494 0.035549287 -0.22880515 0.054749306 0.07099247 -0.0058593205 0.028477233 0.0077539994 0.54547703 0.053528838 -0.029156879 -0.13218221 -0.4388945 -0.15726231 -0.0009643086 0.1030121 0.22616036 0.008434619 -0.10525771 -0.2845642 0.031735305 -0.13533004 0.09514259 -0.30506045 0.4090443 -0.18526936 -0.112774 -0.3322229 0.019000327 -0.30152333 0.021694547 -0.08587776 0.022717565 -0.03966583 -0.2766439 0.5058401 -0.062862895 -0.07836715 -0.036795937 0.04023852 0.11468639 0.3061428 0.06170053 0.06905268 -0.04957055 0.34929135 -0.02945068 0.13705926 0.2101599 -0.10871002 -0.24790443 0.441201 -0.34257498 -0.20531034 0.2054783 0.39409077
40 -0.18652739 0.11903824 0.3772188 0.18526745 -0.7888498 -0.37819874 0.25535434 -0.13241546 0.076329775 -0.37430888 0.352935 0.28104714 -0.015106094 0.49961802 0.26287472 -0.35799137 -0.12626094 0.13946036 -0.5594667 0.31212613 -0.1362592 -0.17412964 0.6161398 -0.44847542 -0.4192753 -0.2125156 0.21674785 0.129368 0.19279766 -0.27067226 0.1836187 0.6416779 0.014384417 0.11624579 0.5206744 0.18390855 0.15173313 0.06940405 -0.22510946 0.44320947 -0.03146513 0.29494482 -0.2712342 0.023947584 0.5825949 -0.13588694 -0.07345709 -0.09008151 0.13399681 -0.41271433 0.05464182 0.40953648 0.1476155 -0.0017109046 -0.02667111 0.17869183 -0.14847347 0.029545063 -0.20806974 -0.23876667 -0.16117643 -0.12828645 -0.020157952 0.283923 -0.17780401 0.07544139 -0.5189487 0.18209967 0.5977788 -0.043917805 0.15440838 0.58182484 -0.12470404 0.53322244 -0.006968854 0.13328232 0.35371754 0.4228327 0.44987154 0.12370464 0.35251576 0.055704437 0.106660776 -0.24303232 -0.41056362 0.27977934 -0.26312405 -0.27336434 0.278871 -0.3377533 -0.27342933 -0.3997804 0.32021558 0.21907021 -0.5680166 -0.17485029 0.6006937 -0.27329975 -0.11639252 0.01391553 -0.12875696 0.5440445 0.12056492 -0.0874236 -0.353403 0.08331948 -0.24278225 -0.019011496 -0.20409736 0.2636555 0.02984391 -0.080080055 -0.2468818 0.28551164 0.08424722 0.027194155 -0.6094102 0.13698956 0.3730819 0.39890614 0.25814486 0.47752944 -0.5013805 0.2104703 0.004135719 0.37910584 0.27484816 0.0868628
