8 128
3 -0.0034823064 -0.089311235 0.06733175 -0.24146028 0.3290034 0.12636748 -0.022680929 0.026355693 -0.059519917 0.16150615 0.2692832 0.12510571 0.07321541 -0.14323422 -0.0010857844 0.026252504 -0.16689056 0.10386875 0.101956755 -0.19784005 -0.102583736 0.024116471 0.11426998 -0.0017520594 0.07498575 0.06935539 0.023109805 -0.028694848 0.028873593 0.0374434 -0.015710007 0.182398 0.2427802 -0.069212586 0.103467464 -0.087603815 0.048852604 -0.05600944 0.07090877 -0.2110166 0.005275156 -0.098120116 -0.011611975 0.060478494 0.040544637 0.028844334 -0.057591822 -0.027550269 -0.30483785 -0.16361153 0.0698881 -0.07469508 0.005348566 -0.27155748 0.061022438 -0.08384012 0.12208151 -0.0704414 0.06860984 -0.169701 0.17248061 -0.02769661 0.15497 0.20246218 0.031217061 0.0027365494 0.21424153 -0.08435387 0.1504499 -0.06884895 0.0096323425 0.026414467 -0.15899141 0.05026451 -0.05216827 0.049401138 -0.0996704 0.02879679 -0.11754753 -0.020882864 0.12758832 -0.032009117 -0.055951923 0.07611974 -0.23654507 -0.06259348 -0.09498846 0.01812258 -0.059836607 -0.015376677 0.081047304 0.02009628 0.102815956 0.07844557 0.10744566 0.080208994 -0.08399216 -0.07801788 -0.01590669 -0.00059758325 0.05729136 -0.20456965 -0.16152833 0.06973562 -0.07837794 0.20778377 -0.006328301 -0.036214717 0.07805793 -0.139835 0.090246655 0.10163427 0.0063096667 0.09543174 -0.01195147 -0.038242143 -0.25149995 0.028466351 0.048426133 -0.05692626 0.10101782 0.13487452 0.10673083 0.14051308 0.036870025 -0.14529775 -0.055712473 -0.027679078
4 -0.009439866 -0.08605852 0.061638746 -0.23253642 0.32006317 0.12499935 -0.01744499 0.027459571 -0.060374904 0.15516314 0.26104414 0.12515911 0.07047623 -0.13246077 0.0005290785 0.027871964 -0.16338505 0.10135722 0.09883306 -0.19734296 -0.10447909 0.023722902 0.11345012 0.0016356688 0.068166636 0.06926952 0.026236463 -0.03287317 0.028462084 0.036582604 -0.014974015 0.17903885 0.23086353 -0.07287218 0.0990029 -0.07992816 0.04748715 -0.053759832 0.07138282 -0.20628548 0.0066287 -0.09428943 -0.008065453 0.06353579 0.03607309 0.032441735 -0.054621626 -0.03069809 -0.2942104 -0.15720622 0.06372408 -0.075465955 0.0063598366 -0.26509175 0.05915424 -0.07842202 0.11526163 -0.07344076 0.063868955 -0.16287178 0.16838437 -0.024942432 0.15513104 0.19853108 0.028868195 0.006444955 0.21040022 -0.074628316 0.14387208 -0.07235938 0.004289493 0.023346977 -0.1504736 0.050775442 -0.052243814 0.05610909 -0.10404577 0.029722143 -0.11361592 -0.02333264 0.12515372 -0.032753494 -0.05776149 0.06861862 -0.23351224 -0.055519056 -0.09839683 0.010540276 -0.061476655 -0.02112019 0.08037162 0.019790512 0.09481812 0.071914576 0.103285156 0.08266647 -0.083913505 -0.07631182 -0.02027584 -0.00042223907 0.05145374 -0.19918056 -0.16373137 0.071891256 -0.07998815 0.19997786 -0.002561461 -0.035266902 0.0771755 -0.13666421 0.08125171 0.094646305 0.009279791 0.09263605 -0.018344171 -0.033182174 -0.24390268 0.02699971 0.05129406 -0.051051315 0.098822996 0.13474447 0.10585557 0.1388256 0.041893862 -0.14000307 -0.058210094 -0.019833142
2 0.000587433 -0.08659 0.06374974 -0.21743101 0.2981128 0.11619352 -0.020523235 0.028773583 -0.055227663 0.14663568 0.24120846 0.11587565 0.07257268 -0.12920693 -0.0050482624 0.023150727 -0.15440719 0.09332207 0.091891095 -0.18255676 -0.09699763 0.016349882 0.103838764 0.0008356257 0.066429704 0.06338338 0.019922562 -0.026089502 0.026342329 0.035722658 -0.009116088 0.16793369 0.22043334 -0.061461695 0.091716856 -0.08000896 0.038093243 -0.04688269 0.05984544 -0.18997075 0.0036950277 -0.09368642 -0.0067513967 0.058501232 0.04001035 0.026462438 -0.04791778 -0.028249724 -0.2746002 -0.148659 0.059394307 -0.07318649 0.005858813 -0.24707079 0.05571007 -0.07285671 0.11470439 -0.06770312 0.058991592 -0.1513075 0.1569576 -0.025080416 0.13838829 0.18302402 0.029679032 -0.0017141264 0.19625896 -0.0800496 0.13720118 -0.062089004 0.011931824 0.021731522 -0.14839113 0.040035248 -0.045661516 0.048609614 -0.09177215 0.025489759 -0.102252156 -0.018531643 0.11049924 -0.027330516 -0.050734326 0.069575205 -0.21332747 -0.05170894 -0.08485625 0.018553121 -0.059096143 -0.018838482 0.07196985 0.023373554 0.0891698 0.07409037 0.092470266 0.07700092 -0.07825655 -0.068870544 -0.01969067 0.0040102256 0.05562466 -0.19073829 -0.14804263 0.06518907 -0.074601725 0.1888619 -0.0088738315 -0.031402044 0.07337494 -0.119248785 0.08482369 0.09009815 0.0022748352 0.08571344 -0.013969583 -0.04021247 -0.22410786 0.025355034 0.045333 -0.0462034 0.093881115 0.12219385 0.09251914 0.12484585 0.036152575 -0.1309079 -0.053812567 -0.023593467
7 -0.005602171 -0.08866 0.063919716 -0.23335154 0.31620467 0.12590508 -0.01881565 0.027553488 -0.05686006 0.15975182 0.26267058 0.121115685 0.074984506 -0.14004701 -0.0055080173 0.027184604 -0.15951912 0.1011881 0.10060933 -0.19260938 -0.10569612 0.02070343 0.11303294 -0.002622633 0.07044535 0.06938773 0.027586233 -0.027575383 0.032568112 0.03561006 -0.0087720435 0.17931329 0.23524298 -0.069545716 0.09911087 -0.08122028 0.04528591 -0.049793296 0.067610726 -0.2068862 0.0075363424 -0.09911889 -0.013643877 0.06004472 0.037292447 0.03314826 -0.05253354 -0.024509976 -0.298535 -0.15842728 0.06853105 -0.07113653 0.0063184225 -0.26496157 0.06358099 -0.0825685 0.12202575 -0.07027362 0.061082106 -0.16632336 0.16691169 -0.030371351 0.15179728 0.19843085 0.032367487 0.0035593754 0.20725168 -0.083133504 0.14739023 -0.06784303 0.006241964 0.026690844 -0.15385151 0.051176473 -0.044621572 0.051418073 -0.10235138 0.022424523 -0.11504361 -0.021759171 0.11835345 -0.031465024 -0.054515455 0.07675609 -0.23341475 -0.060737904 -0.094890125 0.01562694 -0.06035381 -0.015549592 0.07431125 0.024418209 0.097828366 0.080352426 0.098349705 0.08332703 -0.08212317 -0.078037985 -0.018257417 0.002740033 0.051673427 -0.19787854 -0.1597298 0.065218136 -0.076723084 0.19728158 -0.0057730107 -0.035514798 0.07840885 -0.13365828 0.08785169 0.09433368 0.0016089842 0.086455725 -0.0111069735 -0.04117255 -0.24252366 0.030415433 0.051329296 -0.049515866 0.09730583 0.13124129 0.10392783 0.1395313 0.035940297 -0.14176041 -0.060418814 -0.025216857
8 -0.009775418 -0.08830666 0.067716 -0.23364724 0.32455295 0.12369515 -0.015547946 0.029098753 -0.056559507 0.16157435 0.26513535 0.12533505 0.07314856 -0.14042152 -0.004791852 0.028062288 -0.16520898 0.09758534 0.09555988 -0.19529468 -0.104256645 0.020483935 0.10906315 0.0031142856 0.06939708 0.06607585 0.026978709 -0.034390826 0.03263222 0.033531193 -0.014021866 0.18243767 0.2398443 -0.07120365 0.101522654 -0.08207971 0.047283303 -0.056235015 0.07236195 -0.20607612 0.011306627 -0.09613029 -0.010879732 0.05880732 0.044489466 0.032122944 -0.0537263 -0.027056698 -0.30037242 -0.16230942 0.06977212 -0.07694832 0.0006947906 -0.26693073 0.062296327 -0.08409828 0.11867073 -0.07285582 0.06620774 -0.16844757 0.17325705 -0.031164115 0.1553151 0.19829409 0.033247598 -0.00062221324 0.214004 -0.08334152 0.14680555 -0.06868149 0.0058169686 0.028600022 -0.15903941 0.050041243 -0.049991515 0.05281438 -0.103768624 0.026543027 -0.1147943 -0.024038162 0.12088092 -0.032897785 -0.055074304 0.07285537 -0.23678125 -0.06104465 -0.09695307 0.015116682 -0.058970314 -0.014962992 0.07921365 0.02230906 0.101418525 0.07781477 0.1046194 0.07972927 -0.08034526 -0.07480651 -0.015683357 0.00080376206 0.05663104 -0.20366333 -0.16516736 0.06747859 -0.08357388 0.20591824 -0.0041214474 -0.04062669 0.079025604 -0.14007533 0.084981576 0.10027364 0.008110967 0.090219565 -0.012930336 -0.035441294 -0.24848436 0.02456599 0.0445785 -0.05627195 0.098006934 0.13438943 0.101057865 0.14022173 0.039430384 -0.14362709 -0.05658123 -0.02738741
1 -0.002366063 -0.08869607 0.06440449 -0.23004034 0.3151372 0.11967664 -0.016538166 0.026232623 -0.05713379 0.1581213 0.25746256 0.12480578 0.07414078 -0.13374133 -0.004068969 0.029126478 -0.16104314 0.098779395 0.0981825 -0.18857673 -0.103257686 0.022357006 0.1048724 0.0046285405 0.06639319 0.06473422 0.021153314 -0.028499644 0.025970893 0.03858871 -0.011987092 0.17263465 0.2307875 -0.07217196 0.10170053 -0.08141558 0.04099866 -0.047303565 0.06479947 -0.20025563 0.0035343857 -0.096816875 -0.007868763 0.062208433 0.037345093 0.031060003 -0.0546686 -0.031028604 -0.29344794 -0.15674277 0.068798125 -0.07699678 0.0058834315 -0.25457382 0.058400936 -0.077161245 0.11535312 -0.07051288 0.060571827 -0.15683527 0.1675512 -0.027573245 0.14846867 0.1936681 0.026590247 0.0038409317 0.200172 -0.07975277 0.14419004 -0.07175263 0.0098620495 0.020376803 -0.15407892 0.043203216 -0.045642186 0.049526185 -0.10192394 0.023746425 -0.11327904 -0.01736102 0.120302536 -0.02947188 -0.057706844 0.07567004 -0.22422159 -0.056407157 -0.08858574 0.013920761 -0.059330203 -0.014974194 0.074708045 0.016976204 0.090667896 0.07592977 0.09998319 0.08113157 -0.07910917 -0.07261635 -0.01828483 0.0011085124 0.05568686 -0.19826995 -0.15903112 0.062238153 -0.075068824 0.19796942 -0.0054100137 -0.034181725 0.07103084 -0.12684064 0.08609071 0.09337968 0.0035151083 0.08995646 -0.015000057 -0.038787954 -0.2419121 0.026566247 0.04949331 -0.05031109 0.0947215 0.12356031 0.10379764 0.13316774 0.0321556 -0.14063694 -0.059490047 -0.025621489
5 -0.0108141 -0.07993631 0.065059274 -0.22579008 0.30961305 0.116808906 -0.017827172 0.030401576 -0.057983484 0.15382701 0.25261948 0.121935345 0.07399838 -0.12963298 0.0026575588 0.02092529 -0.15475677 0.09992413 0.09245095 -0.18968861 -0.09706348 0.022537395 0.10889065 -5.733466e-05 0.0702752 0.06695999 0.02186154 -0.02919129 0.026509497 0.032410134 -0.015011064 0.16590549 0.22670473 -0.06875554 0.100763075 -0.07816335 0.041155852 -0.05087015 0.06529722 -0.19705318 0.010512373 -0.090198286 -0.009955956 0.05791996 0.0351916 0.026156958 -0.05520192 -0.024884997 -0.28840715 -0.14888236 0.06405599 -0.07331951 0.0027954872 -0.2539553 0.059572242 -0.07712635 0.11758018 -0.06940746 0.06454745 -0.15701029 0.16536081 -0.029643666 0.1488096 0.191029 0.027778424 0.003024943 0.20375594 -0.071896195 0.13664848 -0.06653167 0.007876705 0.022399245 -0.1523691 0.043894995 -0.0493691 0.04845975 -0.099203125 0.022834582 -0.108070076 -0.02230899 0.11968153 -0.028452955 -0.054100342 0.07286597 -0.21992607 -0.060246103 -0.09314888 0.013756876 -0.053860027 -0.01931623 0.07688147 0.025023535 0.09278286 0.07036448 0.099336915 0.080507345 -0.07713359 -0.0749256 -0.018473348 -0.001886832 0.052043725 -0.19236143 -0.15755312 0.068475254 -0.07646599 0.1943441 -0.0009897258 -0.035810452 0.076147676 -0.13214287 0.08120357 0.09491924 0.0034123505 0.09091764 -0.016421244 -0.03495909 -0.23680644 0.024405595 0.04663962 -0.053861618 0.090229414 0.12343353 0.10165794 0.12984185 0.03866938 -0.1357763 -0.051087722 -0.020370014
6 -0.008809225 -0.08121432 0.061503623 -0.2174031 0.2954193 0.11411934 -0.015601745 0.024934473 -0.054095224 0.1465385 0.23843597 0.11460034 0.065787986 -0.12657794 0.003029897 0.021651177 -0.15267353 0.09266971 0.08763602 -0.17957133 -0.089422286 0.020837072 0.09846836 0.0028308427 0.064724505 0.06354251 0.019331746 -0.030692201 0.026597476 0.03126016 -0.01152853 0.16040175 0.21570514 -0.062088076 0.09603968 -0.078758806 0.046809774 -0.052798335 0.061836034 -0.18849985 0.012930408 -0.08109243 -0.0100538 0.05893192 0.039827574 0.029243877 -0.05389085 -0.028079303 -0.2738545 -0.14011136 0.05890807 -0.07110522 -0.00063088036 -0.24503253 0.050822966 -0.07808912 0.10920134 -0.06559147 0.05831446 -0.1533115 0.15668012 -0.020970682 0.14384566 0.18307374 0.023329707 0.0070283017 0.19514142 -0.06765764 0.12837349 -0.067082815 0.00081202 0.027159616 -0.14176205 0.043245077 -0.04224549 0.052775472 -0.092654824 0.025981752 -0.10695201 -0.021409389 0.11591235 -0.029664377 -0.046197947 0.06338076 -0.2166239 -0.05401858 -0.09184992 0.011874591 -0.05828899 -0.018593306 0.07189499 0.020317653 0.09376818 0.068638876 0.09591994 0.07616347 -0.07347954 -0.07385697 -0.018892568 -0.004247696 0.0458358 -0.1845527 -0.15078743 0.060721107 -0.076587 0.1850296 -0.003216368 -0.03848174 0.07392781 -0.12723805 0.07862549 0.08974488 0.009797483 0.08873562 -0.015255915 -0.031240806 -0.22736011 0.028263215 0.046627488 -0.054496016 0.09307729 0.12525162 0.09959509 0.12699084 0.033047844 -0.13093549 -0.05349296 -0.024188843
