17 128
6 -0.17911988 0.27341443 -0.16078718 0.10968353 0.021994963 0.11952314 -0.07943721 0.0908861 0.08994317 0.2886739 0.029609496 0.0037671395 0.11470665 0.08524164 -0.09387997 -0.12413855 0.16776283 0.2936326 0.21160217 0.012180554 0.06373588 0.0056379987 0.23086894 -0.19015524 -0.047187388 0.2715252 0.05932098 0.09189127 -0.0998876 0.017300552 -0.18414687 0.15692751 -0.03129729 -0.021155737 0.033576507 -0.10701687 -0.14734727 -0.11957467 -0.033274103 0.26286325 0.034234837 0.13545471 0.08632615 0.052094698 0.19030578 -0.11514855 -0.02173588 -0.004701893 0.031533305 0.03417481 -0.23727474 0.08571175 -0.13233265 0.13452825 0.0040838732 0.16432369 -0.25530958 -0.23461579 0.17159632 -0.026817717 -0.06420491 0.048434224 0.011688779 0.16823177 -0.032099467 0.048964564 -0.08062954 0.041691087 0.24036175 -0.09063813 0.099177904 -0.016971804 -0.17767575 -0.18232858 -0.21585567 0.08065293 -0.09305972 0.0215806 0.07780096 -0.034822498 0.16951214 -0.12965077 -0.01788345 -0.28013775 0.028150195 -0.17568211 -0.08917037 0.08889638 0.33131468 0.34608728 0.060155436 0.18887939 0.021810893 -0.111970015 -0.259366 0.13624004 -0.002470036 0.03522806 -0.055988457 -0.05932363 -0.041172333 0.19678201 -0.33867475 -0.20726949 0.05837823 -0.0870625 0.1315418 -0.0022832202 0.002228139 -0.14405312 -0.0881055 -0.13929348 -0.02523969 -0.032420725 0.12860774 -0.0043530557 -0.008428986 -0.015369934 0.29158637 -0.06107679 0.23057361 -0.119069114 0.06769557 0.03434258 0.0404944 -0.18312089 0.20919009 -0.09419256
15 -0.033639703 -0.08930344 0.05035344 0.013522329 0.21931714 0.16149452 0.11819825 -0.04208081 -0.14293674 0.041767087 0.359236 0.22962019 -0.08298147 0.039891735 -0.1284163 -0.08363606 0.17560472 0.028552743 0.030900413 -0.056760777 0.066284865 -0.037680227 -0.009297477 -0.12438774 0.02171083 -0.1666969 -0.010381567 -0.20167561 -0.15476923 0.13678578 0.1674422 -0.14062472 -0.21819714 0.20504117 -0.07497044 0.013293446 0.056251377 -0.21444467 0.0653365 0.019863702 -0.06754588 0.24541476 -0.102442496 -0.11628847 0.057684336 0.17039308 0.18109554 -0.16852598 -0.018216994 0.15797591 -0.22100386 -0.0047939653 -0.1284137 0.18955147 -0.02598618 0.25631213 -0.24769917 0.013004372 -0.03891273 -0.10147359 0.23245135 0.088391766 -0.015006497 0.19602463 0.108894244 -0.03023972 0.12582149 -0.008807098 0.16731013 0.022377154 0.058899358 -0.2109733 -0.1436206 -0.28514346 -0.19368014 0.116433084 0.05403787 -0.1940162 0.16999787 -0.11505796 0.34990093 -0.0057929102 0.17882757 -0.26731357 0.13031639 -0.32652164 -0.049361885 0.012247096 0.21950172 0.07624495 0.034227848 0.026731482 -0.20277613 -0.15216438 0.07245853 0.12421547 -0.018949192 0.10350332 -0.0061471313 -0.26900712 0.14831862 0.10216725 -0.11726972 0.001780506 -0.05024615 -0.055668987 0.1906846 -0.020592047 0.00801082 -0.051777896 0.026681064 -0.18758956 0.09352732 -0.10651192 0.18484756 -0.04164871 0.110217385 -0.13801311 0.053527776 0.28417695 -0.02349442 -0.0012909698 0.0008610098 -0.06423298 0.0007010435 -0.32385507 0.05105143 -0.266881
2 -0.15205596 0.23033252 -0.14333497 0.108402535 0.0039400775 0.12338829 -0.050633606 0.055187393 0.06644575 0.2585702 0.030552076 0.04035718 0.11075274 0.037336987 -0.12715593 -0.09575145 0.17048982 0.26151624 0.17522418 0.0034075978 0.043431573 -0.013575127 0.211459 -0.20419545 -0.053326614 0.22628911 0.07408437 0.07295444 -0.10579502 0.026719749 -0.14676274 0.14266616 -0.03262612 -0.006061936 0.024728773 -0.08492561 -0.122033104 -0.14815798 -0.017831903 0.23028211 0.039581694 0.15123276 0.05786319 0.034329873 0.17144477 -0.08345958 -0.034686778 -0.014565429 0.037588872 0.026625808 -0.20981528 0.10182526 -0.12733768 0.14219119 -0.012901249 0.18620981 -0.25323087 -0.22075023 0.14295456 -0.037734624 -0.040231198 0.07001187 0.015843736 0.18656132 -0.02061351 0.034963362 -0.053436592 0.026434252 0.24240938 -0.07534433 0.099448554 -0.050531853 -0.17187662 -0.18769535 -0.17519699 0.09445189 -0.08918518 0.011228494 0.0865359 -0.027468048 0.19449691 -0.102508195 -0.0023174256 -0.26544473 0.008785711 -0.17416415 -0.07298921 0.049830154 0.32573938 0.30553153 0.048921514 0.18458335 0.0013139542 -0.10775948 -0.22790307 0.1545043 0.009416108 0.031530034 -0.03743581 -0.081289664 -0.013894388 0.1749049 -0.31566387 -0.18899064 0.06013416 -0.08000564 0.15314916 -0.010553683 -0.002130409 -0.12286834 -0.05944578 -0.13065252 -0.0038451627 -0.019973192 0.11882694 0.01513237 -0.0142361075 -0.020804204 0.2495778 -0.05323624 0.18101762 -0.087060094 0.043120317 0.035990182 0.01905429 -0.17948364 0.16146593 -0.10528059
1 -0.14507382 0.17005457 -0.106305785 0.089754425 0.040223666 0.121787176 -0.028098691 0.04732431 0.024980836 0.22317898 0.08420011 0.06466243 0.07977627 0.04400133 -0.11952824 -0.10288242 0.15882367 0.21602382 0.14259289 -0.0023850913 0.035771 -0.015552973 0.17018104 -0.17598322 -0.030733567 0.14564279 0.047767445 0.034072313 -0.113302596 0.046295803 -0.10176391 0.10203365 -0.059700657 0.035976633 0.005241678 -0.060136423 -0.102231234 -0.14385724 0.0024711802 0.20212322 0.0086814035 0.15093243 0.03580026 -0.0023458395 0.13989112 -0.03262647 0.013724323 -0.045310713 0.027545625 0.045890305 -0.19529018 0.0712016 -0.115985684 0.14309196 -0.0071847537 0.19141716 -0.2559702 -0.17815289 0.1091477 -0.03296356 0.0028863105 0.071911685 0.006972497 0.18759392 -0.009687541 0.023511194 -0.021406973 0.020884486 0.2074149 -0.06787366 0.09010946 -0.068325594 -0.16317847 -0.19120261 -0.17773645 0.08943267 -0.055633698 -0.02191903 0.09208279 -0.049030177 0.20841524 -0.08529423 0.02950316 -0.25943714 0.042391844 -0.1966176 -0.05526361 0.05144392 0.30136412 0.26256612 0.038225602 0.15100095 -0.02614753 -0.09713607 -0.15782511 0.14617977 -0.0066138697 0.041633606 -0.043116752 -0.10124601 0.0027987799 0.14865723 -0.27097592 -0.15045585 0.02196529 -0.07433955 0.14088365 -0.0060753003 0.003972526 -0.11144762 -0.048521806 -0.1301809 0.006932152 -0.03416662 0.11955662 0.000809961 0.022987524 -0.04464671 0.20723136 0.01517399 0.13851713 -0.065110676 0.034158055 0.023203848 0.020998381 -0.18543129 0.1463683 -0.119025685
10 -0.064670205 -0.046345472 0.029125087 0.029057171 0.15831117 0.1274629 0.07547862 -0.018764298 -0.105388254 0.06647072 0.2650587 0.17580388 -0.040320493 0.030822542 -0.11570469 -0.09180427 0.1454036 0.04799461 0.040026497 -0.03549122 0.031036371 -0.03209868 0.020569388 -0.10220745 0.021061547 -0.11449271 -0.0064032134 -0.13053307 -0.13418886 0.1047924 0.09427039 -0.069880925 -0.16495739 0.15953921 -0.06846784 0.009043747 0.013046405 -0.16839412 0.054087233 0.05704799 -0.05607521 0.19497956 -0.063509725 -0.099103875 0.04556503 0.124116845 0.14070974 -0.13701715 -0.007928808 0.117579445 -0.17285003 0.0066585247 -0.10177765 0.14680128 -0.0070693693 0.21850191 -0.23009463 -0.019979753 -0.02365847 -0.060084242 0.16329528 0.079887494 -0.0048197946 0.18085295 0.059324723 -0.034240708 0.089003496 -0.018062722 0.12744334 -0.0068616616 0.060759295 -0.16095278 -0.12117945 -0.22568686 -0.15325965 0.08888792 0.042814758 -0.13874865 0.12027852 -0.093181714 0.27366623 -0.009191912 0.13238977 -0.22191328 0.10606401 -0.26693428 -0.027310757 0.02124594 0.1997187 0.089839965 0.024336183 0.031761393 -0.1403973 -0.100451514 0.049160816 0.123554595 -0.02475276 0.083579086 -0.019842044 -0.20814343 0.10413869 0.07281912 -0.1145979 -0.019988837 -0.055038292 -0.05492295 0.14470452 -0.015877552 0.003999381 -0.044856556 0.009822767 -0.14791735 0.06901939 -0.07367315 0.137105 -0.031627603 0.10083122 -0.10661915 0.06305172 0.21383145 -0.010624142 0.0051302947 0.006257393 -0.033717215 -0.0023961843 -0.23965721 0.051766846 -0.19937119
12 -0.1041221 -0.035994492 0.041686546 0.048311785 0.14685103 0.15352458 0.08395699 -0.028202016 -0.118070275 0.10214488 0.27410975 0.18824515 -0.022274073 0.01919949 -0.14481689 -0.11650442 0.15029837 0.051131975 0.04007629 -0.013215558 0.012576855 -0.049255528 0.05265156 -0.12164561 0.017352385 -0.13597603 0.0062797787 -0.113879636 -0.16903394 0.1108245 0.071307555 -0.046142515 -0.17072283 0.17645897 -0.08876007 0.02821473 -0.013348876 -0.16345313 0.059186205 0.09231112 -0.058841083 0.2091539 -0.071319684 -0.120919324 0.039692823 0.14324157 0.15314038 -0.16641212 0.010954623 0.11734404 -0.16024248 0.01842896 -0.0984022 0.16118407 -0.00029165458 0.2578227 -0.2892284 -0.042897966 -0.0300219 -0.023815857 0.14247881 0.1066376 0.0037256933 0.23212801 0.037939977 -0.05614978 0.0993059 -0.032318387 0.1096122 -0.029994113 0.08601471 -0.17670491 -0.15950611 -0.23573953 -0.15049087 0.08713194 0.058803596 -0.13958561 0.10474227 -0.09731968 0.29051444 0.001645176 0.14649047 -0.25294995 0.10740512 -0.2995871 -0.020571327 0.039615244 0.24583367 0.10841665 0.0022087975 0.0434846 -0.120148204 -0.088243484 0.06336383 0.16304561 -0.040583614 0.09633693 -0.030275645 -0.22119477 0.09185828 0.046034463 -0.14658087 -0.022621697 -0.07547005 -0.07643182 0.1317519 -0.017047185 0.018745458 -0.050608635 0.015118172 -0.1509305 0.075185426 -0.058307637 0.1070973 -0.033951584 0.12916648 -0.12530003 0.066205785 0.23502325 -0.02770024 0.014216484 0.0015629245 -0.018611014 0.004833597 -0.2396871 0.057476915 -0.19036622
11 -0.08676834 -0.046808433 0.034209784 0.038663164 0.16020384 0.14461796 0.088272415 -0.025903694 -0.115548916 0.09382029 0.27742565 0.19087689 -0.032217577 0.023704682 -0.13697807 -0.11090702 0.15687226 0.05187724 0.03817958 -0.028435333 0.02261194 -0.049386926 0.040604107 -0.12177708 0.019819308 -0.12852867 0.002456792 -0.12613446 -0.15664254 0.11295831 0.08396185 -0.057253793 -0.17420761 0.17237443 -0.07784758 0.021271737 0.0029815803 -0.17190807 0.058210608 0.0814611 -0.06305406 0.21145347 -0.07368421 -0.109239474 0.050686624 0.14308687 0.15167513 -0.16149701 0.0070702974 0.11755867 -0.1714556 0.0140533615 -0.10798211 0.15770409 -0.0029204371 0.25129345 -0.2767519 -0.03011904 -0.023758348 -0.041501727 0.16184038 0.09811285 0.0047431053 0.21629176 0.055807333 -0.041530255 0.097085625 -0.026026396 0.11918817 -0.022819966 0.080170214 -0.17842577 -0.14934835 -0.24156356 -0.1602138 0.09174239 0.051592838 -0.14585893 0.11843597 -0.10122161 0.29373458 -0.0062198946 0.14624433 -0.24733944 0.10991892 -0.29713103 -0.022431385 0.026521573 0.23587507 0.097592294 0.008032116 0.035962146 -0.13662797 -0.09698198 0.062363178 0.15043147 -0.035502482 0.09214707 -0.028486 -0.2192009 0.09873936 0.059648048 -0.13640562 -0.0216563 -0.068717346 -0.06451493 0.14737152 -0.01590495 0.014451028 -0.0564035 0.012226099 -0.15871215 0.0785211 -0.07091858 0.12720096 -0.03714686 0.12310123 -0.118159644 0.06030238 0.23522443 -0.025041731 0.01111955 0.0012161738 -0.024618128 0.008221024 -0.24925448 0.056590732 -0.20603266
9 -0.09921311 0.052792445 -0.031443395 0.054624517 0.08633994 0.11538006 0.026536077 0.0067730835 -0.033274177 0.13409425 0.15343592 0.10496941 0.0186744 0.0348425 -0.102091394 -0.09282538 0.13079672 0.117466345 0.077578716 -0.010437691 0.029089727 -0.026690947 0.0850464 -0.12556157 -0.008519415 0.005601974 0.017070184 -0.044188716 -0.11267522 0.06253202 -0.0035980772 0.012936661 -0.10167434 0.083000205 -0.028596342 -0.018735811 -0.03987706 -0.1273576 0.028082034 0.12044067 -0.020482685 0.14992513 -0.015264707 -0.043635357 0.08332611 0.039592024 0.067948766 -0.083878055 0.013098821 0.075968675 -0.16062637 0.03553267 -0.09337112 0.12910666 -0.0043258364 0.18122748 -0.22244419 -0.087190226 0.034465127 -0.033659454 0.072524294 0.06780159 0.003908842 0.16264623 0.0219678 -0.0056975316 0.032225 -0.0042610727 0.13953818 -0.033818673 0.06974358 -0.101310186 -0.1251964 -0.18438357 -0.14498818 0.07291741 -0.003139185 -0.07183476 0.08873196 -0.06401367 0.20978789 -0.0367135 0.070120096 -0.21454017 0.06530294 -0.2055956 -0.033099208 0.03289101 0.22406057 0.14991836 0.027784407 0.078232735 -0.06983459 -0.0842147 -0.04214332 0.12209649 -0.014553905 0.0563582 -0.032583207 -0.13201034 0.04432509 0.09216754 -0.17130792 -0.075457826 -0.015363479 -0.05943595 0.12410864 -0.012943157 0.007862134 -0.065313525 -0.016526245 -0.122304514 0.033327285 -0.045610555 0.10271947 -0.014074197 0.058195524 -0.06579768 0.11535128 0.106235415 0.049590394 -0.028167598 0.016302383 -0.008382456 0.011395392 -0.18042327 0.08439563 -0.14083214
14 -0.041307587 -0.09267475 0.056002665 0.013570074 0.21635252 0.15751311 0.11424775 -0.042869106 -0.13872074 0.044276454 0.35471445 0.22712414 -0.078737944 0.039928507 -0.12129922 -0.09165113 0.16778044 0.022225384 0.032508537 -0.055258393 0.06223044 -0.04255398 -0.009180799 -0.118008554 0.026168289 -0.1683608 -0.011997245 -0.20048578 -0.1543738 0.13202645 0.16375898 -0.1333997 -0.21730064 0.20746821 -0.08185265 0.019353136 0.050929796 -0.20835406 0.06722296 0.025317686 -0.07233502 0.24156515 -0.09971776 -0.117586136 0.051290393 0.17198175 0.18302314 -0.16610628 -0.013218024 0.14925152 -0.20937684 -0.0077154054 -0.12588261 0.1787952 -0.025896223 0.25710288 -0.24884628 0.010188267 -0.042900417 -0.09282263 0.22368053 0.08820898 -0.0074919392 0.19339117 0.104631774 -0.038685277 0.12556852 -0.011744259 0.1521781 0.017164716 0.060565118 -0.20758013 -0.14129873 -0.27746162 -0.18167906 0.11444686 0.060547546 -0.19347605 0.16077666 -0.11011189 0.3418509 -0.0071197003 0.17777546 -0.26200908 0.12720867 -0.31780604 -0.045201793 0.016057305 0.21795341 0.07357258 0.035749365 0.0268493 -0.19883415 -0.1453019 0.08147855 0.124505214 -0.021009767 0.10236132 -0.0036633795 -0.26807916 0.14097664 0.09437482 -0.113653496 0.006925408 -0.061519332 -0.050928965 0.18096583 -0.023644716 0.009836534 -0.049488604 0.02629293 -0.18749581 0.088648126 -0.09762281 0.179828 -0.040634695 0.11346729 -0.13859682 0.044110898 0.28408533 -0.027083214 -0.0006876297 0.0030106902 -0.060186274 0.001293391 -0.31182352 0.05167437 -0.25460127
5 -0.13462938 0.18548763 -0.10763124 0.08330912 0.043401536 0.11500491 -0.036440365 0.05444078 0.03985427 0.22087517 0.07819744 0.045088958 0.07835659 0.064055294 -0.09902317 -0.10565963 0.15133592 0.22176357 0.15871836 -0.0022846067 0.0536147 -0.0033366866 0.17323712 -0.1629917 -0.032633014 0.16993292 0.042639557 0.03372243 -0.10405269 0.036606006 -0.10995927 0.0953164 -0.057365034 0.019431325 0.0161049 -0.072780006 -0.100691505 -0.12758501 -0.0062210513 0.2013963 0.013330334 0.14227994 0.044964477 0.016054712 0.14595276 -0.051410355 0.013254843 -0.03058618 0.022081677 0.0427436 -0.20573454 0.06615824 -0.12030742 0.12926732 -0.0045409035 0.16937543 -0.2320869 -0.17640576 0.12032852 -0.033435203 -0.007524693 0.053567767 0.003996987 0.16627727 -0.004610706 0.027125638 -0.034207758 0.02387891 0.20209211 -0.063965455 0.08407 -0.051139984 -0.15444432 -0.1762847 -0.18579005 0.082529366 -0.06351777 -0.020110477 0.08536617 -0.04179422 0.18902336 -0.093216255 0.015910504 -0.24821164 0.042753186 -0.18144271 -0.06395854 0.063712806 0.2861493 0.26355854 0.04488345 0.14665477 -0.020129971 -0.10491699 -0.17478073 0.12576121 -0.0023649784 0.039258663 -0.045766376 -0.09309007 -0.0038292124 0.15487948 -0.26489055 -0.15324533 0.027579693 -0.06921013 0.13318925 -0.009289366 0.0020804266 -0.111584514 -0.060474798 -0.13402966 -0.0039449167 -0.034464166 0.118518084 -0.0054315785 0.0166906 -0.03300088 0.2125072 -0.0014451302 0.1581297 -0.0822047 0.045502823 0.015580745 0.02132981 -0.1849879 0.15619364 -0.10959929
13 -0.09907114 -0.047733303 0.044616986 0.039532136 0.1434827 0.14828902 0.08556526 -0.028115066 -0.11820156 0.09332913 0.26779225 0.18828566 -0.02897303 0.02270957 -0.13825493 -0.118609235 0.15007544 0.04531162 0.028313689 -0.013151379 0.012484104 -0.054119896 0.04550368 -0.113022126 0.022933783 -0.14053893 -0.00047118272 -0.110258624 -0.16291504 0.10157812 0.07028165 -0.04049708 -0.16222243 0.16752777 -0.0866178 0.03495105 -0.011803554 -0.16031455 0.067416534 0.0894278 -0.056036558 0.20059323 -0.065117925 -0.117166765 0.036310717 0.14075552 0.14812456 -0.1632833 0.0047997697 0.11608862 -0.14801313 0.020296905 -0.09871728 0.149224 0.0014033567 0.25213215 -0.28314492 -0.03308488 -0.030377565 -0.022705767 0.14202625 0.09888757 0.0103258155 0.22496338 0.03787883 -0.05737409 0.10295474 -0.037289824 0.09660343 -0.026586633 0.07781184 -0.17487599 -0.15151966 -0.23113628 -0.14079273 0.082510136 0.0636731 -0.13405834 0.09798534 -0.09520852 0.2747645 0.006517229 0.14539663 -0.24076739 0.10160267 -0.28724667 -0.013526372 0.035090853 0.23309216 0.09127937 -0.001726721 0.030825218 -0.116614 -0.081857376 0.075125426 0.1555019 -0.03955602 0.09716108 -0.027165452 -0.21339162 0.09473196 0.040871304 -0.13271448 -0.024098208 -0.07999908 -0.06912243 0.12574673 -0.01586778 0.01771233 -0.04808854 0.015485962 -0.14593433 0.0780636 -0.058190297 0.100167274 -0.036901593 0.13045682 -0.12209938 0.053670343 0.2276924 -0.03315831 0.022309562 -0.00086479844 -0.023002218 0.008702927 -0.22556391 0.045396775 -0.18733528
7 -0.17698494 0.29769444 -0.17749321 0.116624445 0.0048640184 0.11516285 -0.092384204 0.09834483 0.10028697 0.30204675 0.0025842446 -0.007782257 0.12654075 0.08132965 -0.09292368 -0.11433835 0.16997032 0.3103896 0.21854231 0.017638693 0.062866904 0.0058070645 0.24382348 -0.19936952 -0.05436133 0.29886988 0.06731781 0.115337834 -0.09126569 0.0069737863 -0.20349833 0.17608215 -0.010965868 -0.038982015 0.049021285 -0.112862974 -0.15499967 -0.111013845 -0.040080413 0.27185076 0.04190673 0.123422936 0.10097185 0.062012188 0.20132525 -0.13560408 -0.043574847 0.0095785735 0.034670964 0.020643571 -0.22850657 0.09775384 -0.13525635 0.13296008 0.0024465574 0.15664701 -0.24855249 -0.2475552 0.18624617 -0.027415583 -0.07887713 0.04284893 0.012391344 0.16327345 -0.034928218 0.058406103 -0.09528805 0.049877595 0.2484668 -0.0947276 0.09949187 -0.0086748805 -0.17177069 -0.16276723 -0.20780145 0.082549796 -0.109550655 0.033555016 0.073000565 -0.024201524 0.15794168 -0.13020739 -0.036286153 -0.27457508 0.016855942 -0.15659234 -0.09210164 0.08301017 0.330149 0.3546948 0.063042216 0.2011817 0.031285983 -0.108347215 -0.28210035 0.13924967 0.0035515607 0.026974134 -0.057175014 -0.04258369 -0.05470971 0.20445217 -0.3501577 -0.22251117 0.06587706 -0.08801021 0.12876554 0.00037503266 -0.0017152412 -0.14859699 -0.08919963 -0.12959528 -0.030298145 -0.024125885 0.12136053 0.0043556904 -0.018960644 0.00024565967 0.29895973 -0.095202 0.24039017 -0.12508807 0.06609942 0.03735225 0.040858097 -0.17072737 0.21223576 -0.078572094
3 -0.1626996 0.22143948 -0.1367427 0.108279236 0.010825748 0.13162935 -0.051433723 0.056130826 0.056198176 0.26154456 0.041775078 0.04216089 0.10858169 0.036041085 -0.12857223 -0.10815033 0.16827142 0.25199464 0.17183423 0.010323718 0.032018483 -0.013188944 0.21347241 -0.19952017 -0.050438035 0.20600994 0.06981036 0.077489525 -0.117911175 0.03447 -0.15122443 0.14807166 -0.034369424 0.0033790162 0.015655084 -0.07736052 -0.13302442 -0.14211226 -0.011019809 0.23895139 0.035009783 0.15452038 0.05788774 0.019012192 0.16650125 -0.07340197 -0.024535125 -0.03380712 0.038006898 0.027982954 -0.20358275 0.0978195 -0.12630087 0.13835885 -0.011461859 0.1982938 -0.26790887 -0.21949726 0.13888074 -0.023776235 -0.0432184 0.07460138 0.019209366 0.20052865 -0.026224608 0.02670003 -0.05100324 0.025581539 0.22703075 -0.08176923 0.104738355 -0.058121312 -0.17813724 -0.188241 -0.17769147 0.0913772 -0.07545618 0.0067315362 0.074293464 -0.031741306 0.19669475 -0.09500797 0.0054362305 -0.27286795 0.015725203 -0.1854829 -0.066109695 0.0562071 0.33056477 0.30542672 0.04046071 0.18183716 0.0052993027 -0.102645986 -0.21348064 0.16229573 -0.0026010335 0.04036846 -0.041110728 -0.086005606 -0.014312921 0.16695333 -0.31466493 -0.18392368 0.04933075 -0.08695718 0.1451933 -0.010083177 0.009024021 -0.123498075 -0.061373606 -0.12772112 -0.00550666 -0.01811615 0.11294244 0.01267469 0.0029121935 -0.03465604 0.24239972 -0.040708926 0.16641417 -0.082805775 0.04128084 0.038500864 0.017619317 -0.17826848 0.15564144 -0.09735925
8 -0.16732514 0.23918259 -0.1462914 0.103740714 0.04389847 0.12648624 -0.057388596 0.07708637 0.059975315 0.26571342 0.06696442 0.032707036 0.098485015 0.08058064 -0.10274297 -0.12181265 0.17709479 0.2728589 0.19864793 0.0067008235 0.06561055 0.0024298267 0.21242656 -0.18617278 -0.037368175 0.2284758 0.056168124 0.06412864 -0.10473522 0.033509023 -0.14782512 0.13356379 -0.04683789 0.0033898912 0.024890907 -0.09121367 -0.12909603 -0.13705707 -0.022592371 0.24123988 0.024948856 0.15318885 0.066197656 0.03637965 0.18215044 -0.08066675 2.0875013e-05 -0.020712052 0.024607621 0.039023552 -0.23390302 0.08067111 -0.13951711 0.14616932 -0.0035899293 0.18570976 -0.25776774 -0.21699749 0.15441124 -0.034860853 -0.034804802 0.05260875 0.010417483 0.18139413 -0.01507487 0.03950728 -0.060179334 0.04104 0.23551975 -0.07834568 0.10160091 -0.046340983 -0.177457 -0.19427392 -0.2154139 0.089195356 -0.08129792 -0.008279797 0.09293263 -0.04612273 0.19996247 -0.114638925 -0.0018667572 -0.28494087 0.03930555 -0.19240578 -0.088554606 0.08023835 0.33214986 0.32410938 0.055485565 0.1813549 -0.004854828 -0.119692065 -0.2314618 0.14342988 -0.0032478443 0.0370866 -0.051272575 -0.086503334 -0.016575215 0.19293283 -0.3260021 -0.18653254 0.04447231 -0.08561369 0.14695923 -0.0055149132 0.0017928632 -0.13171168 -0.07866011 -0.14382002 -0.01215931 -0.040576324 0.13440365 -0.008017274 0.0027866517 -0.029119032 0.27106756 -0.026157754 0.20500246 -0.104906954 0.052680895 0.022303887 0.030143585 -0.20658657 0.19557877 -0.11221191
16 -0.02883913 -0.08626759 0.04642855 0.010748023 0.21058303 0.14851761 0.11148189 -0.03322661 -0.1318237 0.036961194 0.34246272 0.21181679 -0.07982917 0.038618926 -0.11319181 -0.07801864 0.16056651 0.023794698 0.032863546 -0.05637532 0.06325714 -0.031172514 -0.008747786 -0.10750142 0.02520066 -0.15587188 -0.016286463 -0.19598961 -0.14676386 0.1282255 0.15837485 -0.13832176 -0.2052169 0.19595952 -0.06832407 0.009125949 0.053751323 -0.20426315 0.055144355 0.014636524 -0.06312987 0.2309632 -0.09803942 -0.10905265 0.051518474 0.15825911 0.17251493 -0.15439653 -0.018077586 0.1459841 -0.21065584 -0.010997878 -0.11991992 0.17280555 -0.025773806 0.23736802 -0.22713785 0.012926896 -0.032194898 -0.09704031 0.21804847 0.07671795 -0.013982541 0.17781457 0.10743799 -0.030591523 0.11492802 -0.007149307 0.15358089 0.025104914 0.054391533 -0.19641308 -0.12669206 -0.26880887 -0.1844746 0.110380486 0.049185343 -0.18542911 0.16073243 -0.10789473 0.32823735 -0.008798843 0.16592395 -0.24767889 0.1245764 -0.3003755 -0.049181078 0.012395365 0.19944881 0.07319605 0.039290696 0.024509778 -0.19556895 -0.14473946 0.068931036 0.11697256 -0.018934611 0.09858352 7.251522e-05 -0.25808725 0.14250341 0.10346356 -0.10847463 0.0044944324 -0.053498823 -0.04768441 0.1771941 -0.024547717 0.0021786622 -0.043238588 0.022565298 -0.18344834 0.08670616 -0.10367439 0.1798901 -0.04202098 0.10821562 -0.13131778 0.048043612 0.2672645 -0.015030703 -0.008040976 0.0049651875 -0.06452849 -0.0032181952 -0.31009212 0.048561588 -0.25233984
17 -0.018924389 -0.10717762 0.067110546 0.004596476 0.21824713 0.1535487 0.118488185 -0.044048738 -0.15160017 0.017613316 0.362402 0.22878419 -0.09485667 0.031164665 -0.115424186 -0.082225405 0.15734543 -0.0014202478 0.013557563 -0.05491502 0.061763372 -0.03771112 -0.02487211 -0.10086721 0.031512182 -0.18975163 -0.017260054 -0.20980144 -0.14588931 0.13801458 0.18288237 -0.15474592 -0.2203877 0.2057278 -0.08593199 0.018720778 0.066723414 -0.19944978 0.06115771 -0.0024452582 -0.07082727 0.23106025 -0.109009564 -0.12161453 0.03930378 0.17990284 0.18102325 -0.16988257 -0.018646471 0.15159915 -0.20221235 -0.01265137 -0.1204868 0.17179325 -0.022470523 0.24557135 -0.2229282 0.033754632 -0.049527016 -0.10017949 0.23609564 0.08709791 -0.009424975 0.18117633 0.113512695 -0.040125936 0.13331135 -0.018233392 0.14478722 0.028038463 0.05284694 -0.20949283 -0.12364808 -0.26561207 -0.17911199 0.109690964 0.0671434 -0.19618145 0.15656829 -0.10984703 0.33424017 0.00043119933 0.17709582 -0.24577016 0.12848012 -0.31417412 -0.044517796 0.006128402 0.19404635 0.04724395 0.029379679 0.008450638 -0.19993162 -0.14524515 0.09879066 0.115005784 -0.020839056 0.10342722 0.0060816277 -0.2716568 0.1464612 0.09042239 -0.09044466 0.019836685 -0.060462873 -0.043444395 0.17218067 -0.027194507 0.0029945583 -0.03696352 0.03550513 -0.18257822 0.09677986 -0.10561059 0.17441383 -0.03853231 0.11816046 -0.13618499 0.02763658 0.28838128 -0.03375596 0.0040692384 -0.00011365065 -0.062101476 -0.008093221 -0.30926737 0.03992375 -0.2588228
4 -0.17460614 0.29207757 -0.18186954 0.12272384 -0.015726892 0.12344405 -0.08190321 0.08392549 0.09769684 0.30521324 -0.013014343 0.0074512647 0.13368699 0.051846877 -0.11877572 -0.10539279 0.16996698 0.30083793 0.20881777 0.012560196 0.04921716 -0.0023549057 0.2535151 -0.21747707 -0.060972676 0.2952971 0.08094118 0.11995905 -0.09966111 0.011296022 -0.20092557 0.1860775 -0.0062827915 -0.0350311 0.046778485 -0.101965375 -0.16205919 -0.12926501 -0.028027888 0.2710667 0.054977834 0.13793026 0.08772169 0.06025486 0.20098326 -0.12094243 -0.061946835 0.0025964193 0.04281536 0.007106269 -0.21588975 0.11143975 -0.13319798 0.13955733 -0.009991149 0.17938516 -0.25974023 -0.25837663 0.17698081 -0.026977248 -0.088561416 0.05997415 0.015042001 0.18475927 -0.037636198 0.053402983 -0.086730644 0.03771953 0.2550789 -0.09782057 0.11180335 -0.023434408 -0.18014 -0.17839724 -0.18654524 0.09289082 -0.10947082 0.03503643 0.07491486 -0.017283905 0.17279536 -0.12491376 -0.0268094 -0.27547047 0.00067618163 -0.15523356 -0.07908417 0.064380474 0.35089383 0.3545101 0.049319554 0.21504694 0.039867166 -0.10900723 -0.28266805 0.15907861 0.0014253705 0.028276138 -0.05367773 -0.04731049 -0.047288377 0.19936062 -0.3566381 -0.21920009 0.07767786 -0.087427594 0.14624293 -0.005016288 0.006365801 -0.14505255 -0.079251 -0.12315125 -0.026042208 -0.013254987 0.11665902 0.017818216 -0.029184826 -0.007585112 0.28604394 -0.10245115 0.22428934 -0.115065776 0.050126024 0.050592676 0.024396937 -0.16881846 0.19166207 -0.08120065
