353 128
1 0.13599403 0.06659133 0.1268808 0.13544363 0.19305928 -0.08134804 -0.22539859 -0.04329799 0.107144624 0.22709592 -0.047570515 0.04407465 0.017990625 -0.07578985 -0.015513448 -0.0013140284 0.29370576 0.0024960702 0.1632964 -0.14912766 -0.13778864 0.14977278 0.2309282 0.12705585 0.32793742 -0.051560584 -0.001908643 -0.1153778 0.050266527 0.12764068 0.19671874 -0.034076236 0.024154045 -0.014075329 0.085598156 0.018598398 0.059359483 -0.058736075 0.12772484 0.11663941 -0.11697002 -0.06789969 -0.05003193 -0.049354695 -0.2944762 -0.25771004 0.049415164 0.015668413 0.09387559 -0.050550766 -0.05018435 -0.074035294 -0.02567725 0.08289077 -0.15651107 -0.09082452 0.043694604 -0.27881056 0.0035633547 -0.1869488 -0.036939867 0.12867992 -0.015560339 0.16067754 -0.1831976 -0.12441462 0.06743768 0.09238891 -0.026548756 -0.05902186 0.06722623 -0.006063375 -0.071610175 0.070138924 0.05009109 0.20988902 0.07222514 -0.15226218 0.018190615 0.25374138 0.30461562 0.003069896 0.23368575 -0.26665935 0.12984253 0.13600774 -0.04601425 -0.091101855 -0.084571555 0.07317699 0.32182816 0.2538253 0.19872016 -0.115487106 0.044854484 -0.017248522 -0.2962162 -0.011750941 -0.18628249 -0.055419516 -0.27269584 -0.110752046 -0.0075612706 -0.31812996 -0.07150023 -0.11224192 -0.07393043 -0.31316826 -0.07532951 -0.081138685 0.13760868 -0.22272405 0.026724508 -0.29308897 -0.15390752 -0.04886476 -0.07364258 -0.2027646 0.11710339 -0.029050272 -0.03087806 0.19841205 -0.09423755 -0.031717088 0.017555056 0.13952887 0.046933968 0.09782528
38 0.23796192 -0.18807527 0.27251032 -0.043143492 0.13468605 -0.36362046 -0.30899727 -0.2442776 0.066110425 -0.26660407 0.022174768 0.6564055 0.020629635 -0.19256938 -0.19390509 -0.17071304 0.18579336 -0.057473857 -0.112388834 0.18676043 -0.09391596 -0.15562883 0.05000157 0.21890533 0.20131722 0.3329211 -0.07306106 -0.14123249 -0.09156193 0.073370785 0.25018683 -0.13516158 -0.0416128 -0.34408984 0.073350295 -0.055644285 0.024073355 0.021928176 -0.07438049 0.50518066 -0.489996 0.12101391 -0.08096647 0.4837791 0.29238445 -0.05900459 0.014962435 0.5348913 0.27735358 0.6365437 0.23195273 -0.19825318 -0.13788769 -0.4658626 -0.28850922 -0.2309252 0.09665134 -0.08728885 -0.32799846 0.19634454 -0.14801902 -0.037213374 -0.09740677 0.3973097 -0.40323 -0.6622576 -0.22363183 -0.23452975 0.03073544 0.0814963 0.65119576 -0.024883566 -0.4368094 0.009514855 0.0753066 0.28025353 -0.19916101 -0.10899794 -0.042742476 0.3249493 0.2375187 0.26981208 -0.21898808 -0.16110429 0.0334831 -0.1504521 0.3080172 -0.1116605 -0.14337684 0.28571928 0.119973615 0.08233011 -0.106753536 0.12238586 -0.39270094 -0.08062027 0.111410916 -0.23839352 -0.30585572 0.06525921 -0.28128147 0.1358027 0.17405134 -0.29771554 -0.43534252 0.118429914 0.0025481747 0.007908635 0.24067295 -0.34903905 0.15147206 -0.6041308 0.21283443 -0.21050446 -0.14657846 -0.33402088 -0.31265423 0.069295034 -0.14545879 0.03624383 0.026832158 0.2211463 0.1852215 0.23426943 -0.0491228 -0.046481553 0.32454428 -0.01894224
252 0.27446836 0.01962972 0.04241025 -0.00076640537 -0.009126765 0.02109224 -0.23839597 -0.287345 -0.25627074 0.17605184 0.1758944 -0.053887833 0.21587226 0.13846645 0.035098758 0.11858754 -0.31675392 -0.31066534 -0.15590644 -0.3015417 -0.29477832 -0.00318609 0.13161288 -0.1499846 0.49902764 -0.16474612 -0.04175835 -0.26010418 -0.45957312 0.011585602 0.012529886 0.529545 -0.18244557 0.129787 0.0558823 0.08470964 0.1642607 -0.17248197 -0.51767933 0.18657063 -0.043554615 0.17707382 -0.027584558 -0.22301789 -0.044178676 -0.0048649944 -0.03646932 0.45312846 -0.107450634 0.20446602 -0.03516475 -0.057129122 0.113156155 0.10221149 -0.3560363 -0.016378092 0.061545335 0.06753468 0.32725483 -0.03814036 -0.096698724 0.27183244 -0.010540709 -0.073374614 -0.20027597 -0.41232497 0.16712868 0.24912167 -0.22354981 -0.13395652 0.5385536 0.13126752 0.090261884 -0.22505318 0.086004876 0.6484691 0.044695016 -0.0011167168 -0.46763605 0.45026892 -0.23430014 -0.1327936 -0.24766684 0.043988086 -0.13391449 -0.30796555 -0.32395047 -0.21656285 0.130964 0.21097168 0.14997806 0.1965743 0.0022681896 -0.26270917 -0.39637497 -0.29244405 -0.2617707 0.3070911 -0.15786844 0.13080603 -0.37516323 -0.23556323 0.43470028 0.1333352 -0.06649591 0.18749538 0.109164 -0.2939007 0.24603654 -0.08044912 0.64024335 -0.20429659 -0.2199362 -0.06885397 -0.07207363 -0.38234457 -0.2266659 -0.11668246 -0.16419648 -0.26162535 -0.15406388 0.68313336 -0.0038119496 -0.1811422 0.10017434 -0.117761575 -0.06658605 -0.011840136
65 0.056179795 -0.21136671 0.19646221 0.22885637 -0.1631268 0.012333124 -0.18253614 -0.21071592 0.41407317 0.24236864 -0.025521645 0.38291112 0.25903443 -0.074242085 -0.06785279 0.018205209 0.26132816 -0.33270606 0.23629047 0.04041964 -0.2774549 -0.010517658 0.03142662 -0.024958326 0.25462908 0.14443193 -0.22172272 -0.002949806 0.22388649 0.06179729 0.22295006 0.42164087 0.2979173 0.0999517 0.33758882 0.34831387 0.3990787 0.10395734 -0.16966492 0.41830105 -0.32310095 0.35053074 -0.3289994 0.40051433 0.21498482 0.015827045 0.43329716 0.028989045 0.26360735 -0.17183292 0.021031678 -0.30493498 0.03847144 -0.36903238 -0.12136682 -0.10078993 0.22951561 -0.08385937 -0.3122325 -0.19937962 -0.12976164 0.5510098 0.00012928623 -0.02236584 0.07254163 0.012732814 -0.5069184 0.1783013 0.04446952 -0.0044142324 0.36217558 -0.013065103 0.06726041 -0.12080796 -0.07086767 0.34997028 -0.22061633 0.19973275 -0.22616743 -0.15666674 -0.05256859 -0.15623166 -0.069394976 -0.24686319 0.06716699 0.039833624 -0.22636835 -0.009967103 0.1488884 -0.027442249 0.22053671 -0.089591414 -0.093054414 0.225838 -0.18785325 -0.28893062 -0.2924764 -0.23409554 -0.29019064 -0.1511673 -0.32802913 -0.2355753 0.4005259 -0.4636075 0.13859607 0.18617979 -0.06483591 -0.099768564 0.042295653 -0.38698623 0.22598502 -0.3949815 0.1766665 -0.33623958 -0.18206264 -0.61751086 0.26003683 -0.21885596 0.3182431 0.0372462 -0.035751317 0.22202562 -0.15922812 -0.335677 0.23207374 -0.062093053 -0.12374115 0.05988999
71 0.31528512 -0.22010115 -0.3823122 0.37969306 0.13111578 -0.01578822 -0.40594715 -0.2699076 0.13701302 0.45766416 -0.18591455 0.13681081 0.1995846 -0.41575018 -0.16462031 0.2727309 0.08655655 -0.00083203753 -0.20856807 0.0141604785 -0.16629337 0.008408549 0.1928427 0.2943763 0.035477433 0.21706396 0.12411813 -0.08944346 0.1317451 -0.039093338 0.24107055 0.1901689 0.21580629 -0.29647493 0.48021173 -0.14181182 0.12003177 0.21277052 -0.21629827 0.055452313 -0.20591597 0.29633608 -0.20138343 -0.1583657 0.24493213 -0.02811408 -0.088711195 0.015560299 0.21983872 0.013538082 -0.0023693494 -0.30542547 0.2648067 -0.27720127 -0.30247337 0.32984382 0.16798204 -0.6005569 0.24663667 -0.123819694 0.023597302 0.22764961 0.023796193 -0.03518394 0.2795054 -0.1376248 0.0446078 0.0789693 0.20405173 0.049053352 -0.07176449 -0.027200043 0.21315889 -0.4514613 0.0915316 0.2520368 -0.40619937 -0.100127004 -0.12441618 0.100863606 0.5479452 -0.016140098 -0.1546693 -0.13855536 -0.12989597 0.108834706 0.37128583 -0.29495916 -0.08047519 -0.0534312 0.4079502 0.31486097 -0.10259048 -0.18518297 -0.22805725 -0.3058405 -0.33103818 -0.26861048 -0.19829586 -0.25674868 0.2834966 -0.14238149 0.17823653 -0.18360083 0.21351768 0.11071694 -0.6759977 -0.08100579 -0.023391495 -0.50117075 0.30199212 -0.027586566 0.046152942 0.12097116 -0.3054372 -0.2629232 -0.051935058 -0.002276582 -0.24597026 0.017582132 0.26841724 0.30955628 0.13542289 -0.22711514 -0.058714658 -0.2261496 0.15382694 0.043505624
146 -0.015532932 -0.06516245 0.06483739 -0.20688088 -0.062131513 -0.5163283 0.31010547 -0.01244084 -0.19100946 0.34398565 0.06508973 0.2757987 -0.11509154 0.24151896 0.050353754 0.3740825 0.3663464 0.24024706 0.06560797 -0.15571389 -0.14946188 0.123400494 0.56617606 0.15050425 -0.037841715 -0.010198172 0.11561871 0.04857926 -0.035352744 0.2727287 0.12617347 0.31819975 -0.2524251 0.15250833 0.495908 0.034889758 0.005466116 -0.19740272 0.11640844 0.47059917 -0.28867087 -0.0291978 -0.51142627 0.28238145 -0.5049124 0.07588974 -0.18202274 0.19708763 0.29621574 0.16016753 0.2542647 0.023409942 0.14331698 -0.26389307 -0.50824845 -0.09356614 0.08951975 0.06467824 0.09844864 0.039488234 -0.107611306 0.32508504 -0.2782502 -0.17703894 -0.25694588 -0.08777638 0.03920067 0.116698705 -0.23970151 0.3928777 0.15733962 0.497525 0.15792389 -0.2996568 0.017907642 0.17818947 0.14780024 0.16725324 -0.043941874 0.11830698 0.26779726 0.026515365 0.17856194 -0.16225421 0.14062709 -0.12358473 -0.3272732 0.052493423 -0.13276348 -0.09496645 -0.16571745 -0.10314036 -0.14822443 -0.18870324 -0.2564562 0.10148821 -0.6282669 0.0401786 0.20395176 -0.26346168 -0.06712405 0.20336494 0.3290698 -0.29827774 -0.022460425 -0.08037517 -0.04537476 -0.16623627 -0.07719427 -0.29748523 0.03634704 -0.14738955 0.25222513 0.048896648 -0.035917964 -0.19052255 -0.2554759 -0.084013805 0.2745086 0.30254292 0.23729597 0.31349868 -0.28289598 -0.27352533 0.27941954 -0.20765656 0.21398914 -0.10911101
304 0.7343835 -0.00927135 0.10327957 0.3438336 0.024832306 -0.13486122 -0.1930796 0.14359242 -0.016147727 0.013631746 -0.17405298 0.22635464 -0.0071259476 -0.20039506 0.30477425 0.31884447 0.33700863 -0.08637252 0.01667436 0.10213528 0.22710694 0.0034211448 0.003941049 -0.07397092 0.75909275 -0.0023028052 -0.03512949 -0.16494985 0.17777066 0.12721093 0.1681301 0.40379086 0.03917796 0.09907199 0.019172776 -0.10026634 0.32373238 0.23991631 -0.04489194 0.06457205 0.026419146 0.29571006 0.059495505 0.11383134 -0.07127323 0.31258193 0.19338962 0.15872031 0.28935945 0.0016056149 0.345999 -0.1481932 0.23075983 -0.07554358 -0.48387524 0.31974828 0.34840807 -0.10681048 0.35450503 -0.081524946 -0.108404726 -0.16007067 -0.33445668 0.10986211 0.062969 -0.61607885 -0.17843741 0.11745053 -0.26857066 -0.09039974 0.09693823 0.3345884 0.30709082 -0.1044871 0.28431478 0.07359257 -0.12607972 0.15212922 -0.029754331 0.40732315 -0.046035487 0.11282945 -0.056582704 0.07631364 0.0542582 -0.3700309 0.09548642 -0.22823453 -0.29117715 0.02222935 0.37338257 0.015547262 -0.117344975 -0.09280352 -0.23229392 0.07821057 -0.29512385 0.08059032 -0.27904987 -0.1112314 -0.15960436 -0.26963136 -0.15926415 -0.16300583 -0.25347304 0.14449735 -0.30142045 -0.57042056 -0.10740553 -0.16138186 0.058873884 -0.39245203 0.00948735 0.11572947 0.009367027 -0.17808355 -0.18284813 -0.14587557 -0.15396558 0.21296284 -0.010942647 0.057693202 0.1544299 -0.48080528 0.33785963 -0.11845539 0.009332662 0.24634452
209 0.41216642 0.07370264 -0.08054507 -0.13662796 0.15588166 -0.16076691 -0.20852013 -0.2766928 -0.016631452 0.60708225 -0.038048815 0.33212656 0.0015722788 -0.069446415 -0.018867137 0.013314289 0.4160911 0.005983787 -0.27650622 0.0018406592 -0.41668597 -0.09462456 0.12885593 0.37561527 0.12766342 0.28006095 0.04749683 -0.6498859 0.43344584 0.394444 -0.1423265 0.08639196 0.12962034 0.14216979 0.28533623 -0.0043610623 0.044363573 0.16308947 -0.23311087 0.046636794 -0.18355612 -0.23977086 -0.09554448 0.39008301 -0.1824285 -0.38167405 -0.29047996 0.57024103 0.59539205 0.3353867 -0.004990187 -0.5396183 -0.23873815 0.26011983 -0.22825685 -0.21201926 0.30742198 0.15843737 -0.0010184019 -0.25018004 -0.20722805 0.0050460035 0.094308496 0.134343 -0.11477534 -0.06830206 0.043657046 0.023330614 0.30037582 -0.090629905 -0.00046250306 -0.062948056 0.39313427 -0.37334886 0.14583787 0.2004402 0.12808163 0.051856432 0.14029601 -0.09098494 0.25245178 0.105092384 -0.22872932 0.43338487 -0.027583875 -0.21789093 -0.28513533 -0.095523804 0.12564057 -0.2501381 0.3188359 -0.2699237 -0.25750223 -0.11154167 -0.30588126 -0.17009014 -0.52877 -0.40275717 -0.19479945 0.14207605 -0.3514301 -0.43729213 0.37423256 -0.25212425 0.017747175 0.23865256 -0.0708958 -0.15581912 -0.047129646 -0.18367058 0.32589334 -0.3664841 -0.06231155 -0.19828649 -0.21266963 -0.2403605 0.18449648 -0.14699543 -0.0491091 0.22512463 0.09228068 0.10933963 -0.098893866 -0.030834261 0.047246814 -0.21195182 0.072529264 -0.07018825
93 -0.08821619 0.03853998 0.16028804 -0.058823973 0.1223586 -0.38376832 0.09096817 0.13288076 0.405342 0.36826733 -0.20836312 0.25844905 -0.07086616 -0.24729669 -0.018998953 0.17420293 -0.18391035 -0.12470768 0.2630507 -0.33814952 -0.21830395 0.29430196 0.113916904 -0.07855796 -0.30749264 0.22002608 0.0911722 -0.03473226 0.23277365 -0.051106606 -0.09923747 0.34908378 -0.3295787 -0.07616324 0.5989742 -0.31410325 0.12646434 -0.49478868 0.37439457 0.660046 -0.20754732 0.19321306 0.17863417 0.32331917 0.088992566 -0.54006326 -0.08015664 0.22053346 0.053002413 0.1194004 0.017956262 -0.33064836 0.083711475 -0.2989019 -0.6651514 0.031754985 0.3024198 0.17285351 -0.36523157 0.09030671 -0.36074692 -0.096213944 -0.10547882 -0.2468305 0.040485647 -0.15410888 0.3629835 -0.22098581 0.031832926 0.146009 0.14681716 0.1986413 -0.06927559 -0.1334694 0.5397905 -0.041974455 0.17347755 -0.40012097 0.06531556 0.24309522 0.09567441 0.4508587 -0.03846463 0.003266095 -0.08736765 0.13244323 0.27629757 0.05550476 0.1556333 0.090939745 0.21211791 0.41365033 0.057591904 0.12438685 -0.111097015 -0.026248744 -0.44320077 -0.22333096 -0.32654157 0.057831354 -0.53709894 -0.42131785 -0.03852786 -0.20388746 -0.1684173 -0.23146576 0.07446131 -0.2937511 0.12311269 -0.42824495 0.46588632 -0.14643681 0.08941013 0.009535066 -0.35687774 -0.15798613 0.13533558 0.12177871 0.29223523 -0.25765908 -0.21441418 0.2844064 -0.2805899 -0.112743974 0.07883117 -0.11082226 0.059155073 0.12703487
294 0.22326136 0.037248414 1.5972615e-05 -0.076331675 0.20568958 -0.44544646 -0.108513124 0.08573129 0.4492839 0.06590434 0.18008476 0.4134174 -0.08146633 -0.3101523 -0.13966067 -0.1044932 -0.191735 0.012834631 -0.26549724 -0.03890722 -0.32573467 0.09037015 -0.08266183 0.42060825 0.38801244 -0.17337301 0.07520484 -0.20006683 -0.2412234 0.27531782 0.26648295 0.039577134 -0.086200304 -0.03228314 0.034878455 -0.21654701 0.5147969 0.010825983 0.02833312 -0.023491805 -0.102184035 0.44411016 -0.027988212 0.38366035 -0.07278352 0.25814143 -0.048134573 -0.060150977 -0.27761292 0.38229066 0.12088026 -0.06492132 -0.0014431978 -0.34498233 0.0155770965 0.115398206 -0.3757473 -0.034011398 0.3143718 -0.044014547 -0.22484238 0.18795516 -0.09396855 0.36441138 0.004151739 -0.5103286 0.22483253 0.45708472 0.007580032 0.25369295 -0.053671844 0.15461698 0.14416641 0.25574863 -0.26210883 0.47530618 0.36435118 0.22884838 -0.21643245 0.12076815 0.43958667 -0.3000774 -0.09538585 -0.0072184517 0.081471704 -0.067185715 -0.104098156 -0.039002307 -0.18048349 -0.05446129 0.3926193 0.11506053 0.4490579 0.17024456 0.06911145 0.047342237 0.04419097 -0.04665962 -0.6035424 -0.28373715 -0.31643322 -0.39289495 0.093047835 -0.18652259 0.13128564 -0.06564188 0.016240243 -0.16578591 -0.06166276 -0.14752066 0.15272325 0.034023844 -0.0056811785 0.11854013 0.25234622 -0.11271789 -0.064929254 -0.1025594 0.052782107 -0.10889713 -0.19168507 0.024320578 -0.34005487 -0.41377512 -0.18050386 -0.23531066 0.33261392 -0.12243526
82 0.20828442 0.07791127 0.10763527 -0.17616288 0.021274209 -0.06544703 -0.2509641 0.037183397 0.415551 0.35360706 -0.12964162 0.3747069 0.16964528 -0.20291682 0.22026141 0.16181755 0.13407372 -0.15462027 -0.29789641 -0.12007153 0.106563404 0.03390635 0.052714895 0.004794471 0.1772773 0.07853276 -0.1975803 0.15046051 -0.04202683 0.18950357 -0.42747757 0.41414976 0.16280398 -0.5489754 0.28475773 -0.191611 -0.1480407 -0.16613866 0.016027274 0.32432714 0.014258852 0.27552384 -0.20388322 0.21872555 -0.26923317 -0.13873321 0.0455202 0.26226315 -0.059514344 -0.06972019 0.076974526 0.22990629 0.069756575 -0.31797197 -0.25313878 0.18728855 0.3560766 0.14616656 -0.3294268 0.3092194 0.1616139 0.27236181 -0.12438236 0.009135487 0.40620443 -0.4630939 -0.03708931 0.24197517 -0.30502525 0.26527426 0.40393892 0.22174671 0.16432664 -0.08360897 -0.04392902 0.11632414 0.07626014 -0.17223482 0.008443225 0.22740139 0.5226837 -0.30587602 0.034743622 -0.19685186 -0.080257915 0.24414898 0.018999387 0.035417985 -0.19109659 0.13869718 0.13582128 -0.1884927 -0.1059226 0.07950789 -0.102280915 -0.2971898 -0.1000998 0.10492288 -0.4046579 0.06418195 -0.19021666 -0.08139548 0.34880877 0.39347622 -0.35119736 0.21494961 -0.111704595 -0.16102746 -0.36344308 -0.019088212 0.25779986 -0.24047343 -0.23073371 -0.3391289 -0.23183419 -0.4608206 -0.024921186 -0.29085523 -0.010851763 -0.08531684 0.1678831 0.26716432 -0.05448212 -0.045509826 -0.01077357 0.21107614 0.08884701 -0.3859804
106 -0.24675097 -0.4395402 0.4668379 0.04101504 0.13559549 -0.28256023 0.16889858 -0.0738008 0.1002036 0.34622988 -0.24443133 0.29276687 0.11006196 -0.1533599 -0.008099842 0.13595568 0.12277845 -0.16333562 0.08909086 -0.48766607 -0.4916696 0.078710854 -0.15011133 0.11666219 0.27553487 -0.19908132 0.25666296 -0.16988963 0.10872874 0.17745021 0.12808101 0.4582442 -0.51638895 -0.3829319 0.15816747 0.25356132 0.1782997 -0.035489615 -0.30308542 0.25650284 -0.23565632 0.26465285 0.33751255 0.17240563 -0.12477353 -0.2312461 0.03623685 0.28184208 -0.3587975 0.02412748 0.2783099 -0.18563811 -0.10401819 -0.3217413 -0.28896835 -0.44892555 0.073136024 -0.125359 0.038838934 -0.06188328 0.15862057 -0.14316773 0.21017644 -0.04481905 -0.17856066 -0.61656535 -0.29650247 0.258673 0.40060264 0.18110742 0.44296032 0.47870898 0.35374635 0.07727386 -0.36873534 0.13965617 0.06820462 -0.01742526 0.19570878 0.5033542 -0.018869912 -0.15479113 -0.21621215 -0.17817526 0.4461425 0.3653387 0.065785035 0.088226125 -0.16343676 0.12648408 0.17065935 0.11984418 0.11505747 -0.27073362 -0.20394173 -0.058580365 -0.2064314 -0.033549026 -0.23984672 -0.5031063 -0.24233969 -0.073650114 -0.032196347 -0.33011532 -0.46205202 0.0028474322 -0.08405408 -0.18359572 0.122183844 -0.03667264 0.070008025 0.011718353 -0.21579152 -0.08196947 0.09404887 -0.24779734 -0.18373227 -0.27352643 -0.13236454 -0.20807037 -0.0116724875 0.13021597 -0.13512154 -0.08693685 0.1410093 0.15082955 0.0937832 0.41030315
204 0.4977458 -0.38874763 0.49089095 0.27453676 0.13971853 -0.14412034 -0.13373107 -0.22018577 -0.06555791 -0.07030803 -0.3638836 0.23297653 0.19040616 -0.044086136 0.06728109 0.16186704 0.22221377 -0.019883156 -0.011648905 0.19309166 -0.11015968 0.020323673 0.3148348 0.1383908 0.16831458 -0.19544673 0.10431174 -0.12913404 0.32822263 0.19057977 -0.16077116 0.35900667 0.021164037 -0.10213637 0.21588786 -0.06804141 0.32326773 0.06972837 0.0025590407 0.052025463 -0.28140914 0.18598332 0.44597614 0.22135921 -0.05132465 -0.07831398 -0.14570533 -0.27999336 0.11554035 -0.104807876 -0.14153755 -0.18881361 0.01245809 -0.1803929 -0.76833826 0.25414893 0.11945398 0.17885728 0.026234273 0.000979437 -0.34233776 0.24928388 -0.345453 0.23208126 -0.17078593 -0.18008265 0.26228246 0.046686828 -0.03242479 -0.2475211 0.41110665 0.35920024 0.08283838 -0.06707338 0.26032564 0.3205975 0.20533256 -0.0068497565 0.12812841 0.48115513 -0.005229893 -0.22036211 0.529892 -0.09573501 0.2896778 0.06724551 -0.31870678 -0.39153835 0.30492336 0.091754965 0.20308544 0.21560399 0.016829021 0.030982168 -0.11502525 -0.37973604 -0.32479024 0.096636176 -0.122674115 0.2554276 -0.27443132 0.22044425 0.30548725 -0.030397847 0.12849785 -0.017409798 -0.08655338 0.054428164 0.4346429 -0.43849218 -0.061644472 -0.10711693 0.0081161205 -0.13035569 -0.29695782 -0.63859206 0.005206532 -0.078717776 0.004280683 0.1637699 -0.1460858 -0.06607951 0.07242261 -0.36002812 0.10793772 0.29933465 -0.24007422 0.07756164
214 -0.003513807 0.08703547 -0.109695025 -0.06149426 0.3731363 -0.33712298 -0.19980188 -0.30657354 -0.03905551 0.5887937 0.0014470003 0.41132092 -0.059313226 -0.16601458 0.26651928 0.10606605 -0.13959327 -0.14208196 -0.031998586 0.397658 -0.1713919 -0.22179717 -0.46489888 0.09006848 0.13635473 0.045981653 0.0554244 -0.3449654 -0.14370357 0.0051249834 0.05831992 0.23399982 -0.14958306 -0.092235185 0.46483198 -0.058874622 0.058672443 -0.08166977 0.17278469 -0.08706698 -0.16312183 0.26697496 -0.21090971 0.08310692 -0.5298223 -0.057486173 -0.15208876 0.14154978 0.31362906 -0.14129691 0.048485953 -0.19165964 0.03383504 -0.054871757 -0.659402 0.3831451 -0.13809478 0.25740433 0.09453629 -0.22661775 -0.29451263 -0.08512628 -0.35037148 -0.035752628 -0.35503274 -0.02922813 0.122522175 0.16003643 0.0977591 -0.14192125 0.12537576 -0.14520049 0.33463988 0.2555381 0.19221243 0.053413067 -0.06963489 -0.12167922 -0.10461584 0.4310441 0.2862649 0.45331872 0.16773964 -0.14884679 -0.18789087 -0.281475 0.11981027 -0.10085375 -0.20129104 0.13859656 0.4909593 0.008833332 -0.071472034 0.101444535 -0.45837817 -0.033481076 -0.49994534 -0.510125 -0.2430885 -0.2607862 -0.033916954 -0.1399403 0.13782604 0.11849346 -0.23434144 0.017488929 -0.53672963 -0.124787815 -0.20343664 0.17790385 0.08562867 -0.3092113 -0.21152045 -0.21784194 -0.11617182 -0.39761057 0.059604485 -0.47615442 0.07794342 -0.037164617 0.010194162 0.28533158 -0.3110643 -0.3733747 0.20537724 -0.015578901 -0.073498085 -0.099970035
87 0.3131475 0.26044157 0.284434 -0.03704606 0.63319 -0.29576352 -0.12821312 -0.1607957 0.024626072 0.2334288 -0.28953627 -0.056350783 -0.06788086 -0.079336755 -0.23565552 0.117744125 0.07557319 -0.23775938 0.19447652 -0.06803438 0.08283476 -0.1550773 -0.15271048 0.29868773 0.3495632 0.058905814 -0.30606258 -0.17731619 -0.1793197 0.670552 0.043669727 0.2159856 0.21441822 0.118415385 -0.01775726 -0.06026123 0.41366106 0.12411773 0.076093405 0.32312605 -0.102259874 0.14883883 0.18335223 0.39036638 -0.43111768 -0.16654433 -0.058958765 0.13114549 0.35155585 0.07197425 0.19012472 -0.42368162 -0.08985055 -0.0691207 -0.04015166 -0.179078 0.096473254 0.07885488 -0.008382559 0.17343752 -0.07387612 -0.16742878 -0.24485819 0.009033532 -0.26714587 -0.26479733 -0.09106542 0.017858904 0.55446863 0.07340095 0.08866154 0.14397378 -0.11417487 -0.24623956 0.11198499 -0.13893883 0.16107899 -0.13824488 0.12820601 0.06666991 0.24137457 0.11288822 -0.13435923 -0.13270368 0.3575754 0.257131 0.005254908 -0.15179664 0.13067591 0.11315624 -0.073009215 0.4086131 0.41478628 -0.02525067 0.22865203 0.06041816 -0.26654524 0.44181606 -0.16923974 0.024355896 -0.024336522 -0.13632908 0.40302464 -0.41535163 -0.09123385 0.14653559 -0.22529662 0.009703896 0.19472513 0.4293875 0.26574048 -0.4960812 0.3020232 0.13135542 -0.13948971 -0.41044 -0.19875444 0.04426909 -0.16525862 -0.118808836 -0.035837494 -0.08669385 -0.34840715 -0.13489725 0.10292569 -0.1375005 0.27278408 -0.22580525
199 0.09462323 0.34400648 0.36357063 0.16156186 0.29103905 -0.15828559 0.05938049 -0.40611577 0.43840656 0.78007674 0.20274405 0.41257262 0.14026286 -0.39880684 0.044612937 -0.37085402 -0.23043038 -0.1307169 0.16399907 -0.12110221 0.057761136 0.14953655 0.122066006 0.065018594 -0.05656413 -0.17318621 0.46522927 -0.33421883 0.13013221 0.12170749 0.4158098 0.17211287 -0.016473714 -0.31043553 0.9165292 -0.08151985 0.038629055 -0.3636217 0.15113196 -0.05472564 0.073867284 0.14528579 0.09021045 0.28627917 -0.031413946 -0.22327949 0.054062992 -0.089294374 0.11232863 0.1466189 0.119025655 -0.3611796 -0.12250228 -0.2825762 -0.39991453 0.06987377 0.2691424 0.21686886 -0.11702656 0.14945956 -0.12708238 0.15843855 0.25603193 0.21649837 -0.18289551 -0.22350802 0.014266398 0.26573783 -0.170267 -0.18000005 0.23840725 0.071084015 0.13614777 -0.08450191 -0.0954636 -0.18430786 0.028505733 0.18193965 -0.041300043 -0.19449371 0.21923381 0.33291367 0.14733693 -0.37386194 -0.012831673 -0.03199048 -0.10288783 -0.1910216 -0.0049941284 -0.3603279 0.42472893 0.15963665 0.21466617 -0.071375065 -0.010000132 -0.426465 -0.19192904 -0.12087546 -0.22324459 -0.29925123 -0.23433353 -0.35101905 0.2655327 0.13202892 -0.08435338 0.27205813 0.14935619 -0.016236579 0.09712065 0.026317328 -0.3540813 -0.36423904 -0.17552684 -0.20785083 -0.10736099 -0.48836204 -0.3525818 -0.11280592 0.185695 -0.24559124 -0.1702552 0.33188546 0.1646976 0.030741822 -0.1435745 -0.1678922 0.0065838923 -0.20856264
276 0.45455286 -0.5431232 0.2701181 -0.16119334 -0.07984778 0.006357544 -0.018946195 -0.069932215 0.3093551 0.42456108 -0.12572686 0.18172564 0.4311605 -0.43352073 0.21144988 0.091405414 -0.018163482 -0.18966392 0.117261 -0.2947095 -0.5667437 0.2293971 0.41383034 -0.1937179 0.55058676 0.20569131 0.19016697 -0.38301876 -0.099849485 0.38825482 -0.11628521 0.2866094 0.36019644 -0.24554822 -0.06617088 0.09941688 0.2842472 -0.28074008 -0.11908877 0.3076244 0.092070006 0.07558326 -0.17250079 0.41775727 0.14686257 -0.0387631 -0.08818269 -0.0060428074 -0.5270695 0.18095042 -0.15267844 -0.2931902 -0.21347384 0.11817384 -0.36203673 0.044692617 -0.13515958 0.27749425 0.27537492 -0.21119492 -0.37935644 0.17719437 -0.3843961 0.20031436 -0.21348517 -0.30150363 -0.0437565 0.27640933 0.3548603 -0.028446183 0.2186644 0.14177915 0.018292412 -0.04512202 0.6639684 0.21917363 0.18556654 -0.17639506 0.0016219999 0.009544507 0.17168546 0.22318178 0.10565328 -0.3422218 -0.18693396 -0.19153523 0.3281261 -0.21579424 -0.036477946 0.20897533 0.022764113 0.122513816 -0.31594524 0.009089895 -0.028189695 0.001431275 0.2037782 -0.4669663 -0.12217827 -0.13700865 -0.43077418 -0.435302 -0.044433765 -0.351561 0.07571138 -0.011373763 -0.11413131 -0.20585091 -0.030728243 0.019157564 0.23660347 -0.12369789 -0.02798313 -0.42347017 -0.22730371 -0.325599 0.21178046 -0.44785511 0.015835544 -0.047286715 -0.21507856 -0.088567376 -0.13515338 -0.049824126 -0.21931504 -0.15395522 0.003258597 -0.02521382
223 0.19443615 0.011196915 0.06994447 -0.051531658 0.0299493 -0.56944144 -0.35973346 0.005588025 0.08614914 0.41844144 -0.34111217 0.30969825 0.3051125 0.016397921 0.081264034 0.24751872 0.2827859 0.06537299 0.20028323 -0.31618908 -0.11377426 -0.23421612 0.10379939 -0.20488153 0.24804467 0.15754624 0.32756847 -0.30644506 -0.008339947 0.08660994 0.12874706 -0.13374028 0.11181742 -0.076178595 0.28691968 0.18401197 0.529197 -0.4008478 -0.02879631 0.35817376 -0.09257513 0.016359346 0.18231417 0.42619368 -0.026333747 -0.06559085 -0.11741666 0.05839121 0.018590908 -0.016985536 0.08430459 0.004606552 0.13380966 -0.5088882 -0.2646726 -0.12540483 0.19142576 -0.04602886 0.21329403 0.12225458 0.0807205 0.43766135 -0.27820152 0.08448106 -0.15463139 -0.63504964 0.20161912 0.12220162 -0.19506215 0.35949722 0.14565688 0.1661156 0.017485723 0.25134268 -0.09646974 0.18645883 -0.41862255 -0.1524158 -0.20086356 0.1714755 0.15823781 0.04194685 0.13349006 0.05530955 -0.22968343 0.7014913 -0.03869992 -0.021100892 0.32295132 0.43804404 0.19666086 0.30164072 -0.14604016 -0.060079116 0.30849144 0.35647985 -0.22881553 -0.19176707 -0.30488536 -0.08929411 -0.0065523046 -0.02965436 0.09850257 -0.37907633 0.55682844 0.19982313 -0.14720504 -0.21123956 -0.5090993 -0.29963815 0.2625408 -0.1823157 0.054678973 -0.15803477 -0.8495478 -0.29649252 -0.12050111 0.038436245 -0.05111828 -0.038807902 -0.33588463 0.24475165 -0.054057546 -0.13707253 -0.082864776 -0.10696976 -0.026933523 -0.0204981
289 0.11743182 -0.106663436 0.17445362 0.42529574 0.21579373 -0.19748524 -0.19639724 -0.23266198 0.30582199 0.16106334 -0.102794304 0.5926266 -0.042085946 0.11249967 -0.46690843 0.051462572 0.21947178 -0.21587874 -0.17295623 -0.060580615 -0.17308736 0.2068087 -0.1020729 0.101110004 0.110285096 -0.06398865 0.6934043 -0.14671183 -0.15273164 0.23384362 -0.04533954 0.01729599 0.18840788 -0.0015940273 0.4398043 -0.031497892 0.49844614 -0.35941333 0.12838523 0.08908396 0.043080296 -0.1543311 0.021839086 0.13467777 0.119382754 -0.23509896 -0.4973011 -0.0014963961 0.071810186 0.23910968 -0.094200425 -0.31620914 0.2753586 -0.36373815 -0.289297 -0.3706778 0.3899871 0.042136203 -0.17078884 -0.3349335 -0.35178623 0.039320618 -0.39921072 0.39569217 -0.380499 -0.0013766238 0.08289446 0.12486448 0.12382972 0.13860212 0.32756144 -0.18735342 0.19814146 0.038879212 0.46694428 0.1290395 -0.11016207 0.073284216 -0.14959256 0.24404213 0.118510805 0.22149265 -0.2467895 0.37229723 -0.48657152 -0.41928142 -0.3785591 0.27700314 -0.29309362 0.39333647 0.11919008 0.12012217 0.074057534 -0.17887257 0.12878542 -0.13692446 -0.2476833 -0.013948476 -0.2508148 -0.0935776 -0.13540602 -0.074697845 0.22552706 0.073446006 -0.46130005 0.19860546 -0.23394465 0.0151226185 -0.3870215 -0.11662371 0.117275335 -0.27433154 0.0693602 -0.16142495 -0.024132757 -0.3815253 0.050787717 -0.09161514 -0.1619501 -0.03656101 -0.056473024 0.16965906 -0.20780133 -0.02949388 0.08196344 0.21292134 0.11528946 -0.10244995
239 0.027251152 -0.19788581 0.26587814 0.34545755 0.0248479 -0.30214652 0.10917357 -0.37436077 0.15703218 0.3334364 0.08626227 0.21335128 0.15948735 -0.21405087 0.1484509 0.64321214 0.18073902 -0.23180938 -0.34342206 0.21561499 -0.28283226 0.065562904 0.16296355 0.019133147 0.2435008 0.2518824 0.3761011 -0.26595166 0.18499638 0.12823333 0.08293563 0.04265489 -0.3610965 0.06490881 0.021219062 0.065723635 0.16041619 0.11696553 0.13750927 0.3589138 -0.008693173 0.64228934 -0.11913575 0.055807043 -0.38800865 -0.13831031 -0.1152103 -0.22523858 0.1227646 0.31499407 -0.21948749 -0.1912087 -0.057214867 -0.39614904 -0.38103265 -0.21360956 -0.2327019 -0.04931846 -0.026749833 -0.28693533 -0.102483645 0.24469563 0.032010965 -0.02596528 -0.12927179 -0.32126963 0.016379297 -0.0018972612 0.003489694 -0.026574047 0.2749214 -0.15533018 -0.040206455 -0.30630475 0.12918255 0.3329845 0.48575044 -0.14942682 0.09146154 0.11010111 0.06114314 0.09030096 -0.17121577 -0.27247202 0.43738058 -0.2459119 0.10142029 -0.18612628 -0.4469359 -0.062347345 -0.119954325 0.12013884 0.10999021 0.14113362 -0.04161171 -0.46062803 -0.1935046 0.15932585 -0.4324796 -0.41320607 0.050771214 -0.39263383 -0.22218083 -0.1657181 0.19133705 0.20124406 -0.30339614 -0.11873517 0.5476577 -0.19095144 -0.092104554 -0.32210585 0.08045869 0.112653434 0.45959073 -0.646874 0.07691308 0.15623039 -0.00024784243 0.05333025 0.10282031 0.27989128 -0.11145986 -0.3833977 0.0435529 0.025071595 0.12469107 0.2247512
166 0.2215549 -0.09005611 0.4729623 0.10373534 0.15893474 -0.095142476 -0.29434195 0.17933565 -0.22168465 0.31562427 -0.05317935 0.22411963 -0.05463451 -0.053029183 -0.33245105 0.18476126 -0.071808256 -0.06370176 0.021099804 -0.051167954 -0.0192128 0.12820026 -0.062769435 -0.3810603 0.11505608 -0.024038266 -0.20831673 -0.3797192 0.27907273 0.24242853 0.29165643 0.26349652 -0.33780482 -0.17524306 0.10670049 0.47742018 -0.092455156 -0.09078976 -0.011371862 0.5394694 -0.27928144 0.19230787 0.17825471 0.2571238 -0.4494821 -0.16575389 -0.026957927 0.59297746 -0.10939465 0.4008594 -0.04330873 -0.12040036 -0.14173512 0.049470223 -0.41612557 -0.03999698 -0.1472117 -0.36291987 0.07634617 0.15281898 -0.061263453 0.19971845 0.044469014 0.22488411 -0.2373133 -0.18025616 -0.033341553 -0.018956175 0.5955691 0.15802929 0.27844346 0.25515008 -0.07914199 -0.054796364 -0.04917435 0.57251626 0.4332998 0.40867838 -0.2764594 0.39698508 0.3042592 -0.19890592 0.08706729 -0.22386503 0.24103713 -0.17455553 0.3254817 0.10841007 -0.032802925 0.02519303 0.11165325 0.1143994 0.14787492 -0.24245244 -0.3759051 -0.12079959 0.16471153 -0.44635227 -0.284867 0.013351831 -0.6343218 -0.48266342 0.36325544 -0.21993276 -0.041644495 0.21523781 -0.19739006 0.0014463345 0.0942335 -0.063965686 0.23799619 0.041418847 0.10555375 -0.17588888 0.053089645 -0.3269901 -0.008644102 -0.26221877 0.14040521 -0.33374995 -0.1423817 0.098666854 0.2274239 -0.13894404 0.19403465 -0.1064857 0.14722237 0.08882302
281 0.37365344 -0.0074411724 0.12561774 0.09242237 0.0985939 -0.032532282 -0.20653477 -0.043046426 -0.4594064 0.35454208 -0.17394933 0.30641282 0.020795586 -0.14560033 -0.14622834 0.39776748 0.12936622 0.101608895 0.42195848 -0.018659431 0.025782079 0.013673313 -0.00010482884 0.2229231 0.5542205 0.13003983 0.009612596 -0.09600566 0.13272049 0.109260455 0.40036103 0.5667032 -0.06974798 -0.15182038 -0.03228477 -0.14048892 0.39608553 -0.054169003 0.0743298 0.124326326 0.1352784 0.19810945 0.26954663 0.1597276 0.08129924 -0.15641612 -0.3137878 0.415853 0.039471943 0.15034921 0.1886668 -0.07389574 -0.17763257 0.050735377 -0.36857864 -0.4156525 0.027365059 -0.17983271 0.09176889 0.11404589 -0.21534179 0.60984856 -0.18349217 0.11884247 0.14404623 -0.22550158 0.08081555 0.28456372 -0.3796287 -0.11830675 0.1843274 0.33746827 0.061000492 -0.019190973 0.18579885 0.2743958 0.13007088 0.1722643 -0.1866398 0.008083563 0.5180685 -0.007965691 0.15002973 0.026441347 -0.050758824 0.40474066 -0.15625694 -0.10441648 0.15917756 0.0076541915 0.028042804 0.33976296 -0.17878582 -0.16120738 -0.2025896 -0.45141286 -0.39759627 -0.036225963 -0.22496463 0.081672 0.084502496 -0.1097235 0.4126104 0.09535311 0.06777915 -0.052550543 0.1406219 -0.4157171 0.09059727 -0.024822684 -0.14713348 -0.11146213 -0.23365554 0.09960436 0.21306072 0.13588847 -0.12762927 -0.4284405 0.3695312 -0.27208814 -0.077313386 0.048487883 -0.2882571 -0.26348212 0.40679112 0.038319014 0.015113164 0.016523575
338 0.2242932 0.13531172 0.1297555 -0.32775494 0.18227223 -0.40005687 -0.10782821 -0.25070676 -0.26362562 0.29172662 0.027791493 0.10678987 0.05149824 -0.115145296 -0.026728453 0.37153384 0.054497413 -0.08779913 -0.46769953 0.0153466705 -0.0071499953 0.12718278 0.44712734 -0.056338903 0.12146143 0.01987538 0.11504467 -0.26954597 0.12160699 0.30713865 -0.4266471 0.18908982 0.13068205 -0.044837214 0.45217627 -0.032187518 0.08598199 0.25966096 0.071571514 0.00051206304 -0.2287713 0.035131298 0.18676531 0.30467194 -0.08370982 -0.5561499 -0.1143338 0.11999428 0.29525492 -0.19603802 -0.07106661 -0.10187137 0.06893768 -0.23932219 -0.18199465 0.2524234 -0.05638117 0.27241585 0.07093018 -0.14708032 0.07279488 0.043303877 -0.1074477 0.057669345 -0.558944 -0.3364349 0.015286312 0.21036716 0.24620596 -0.035881598 -0.124676436 0.15333508 -0.025631884 0.24857771 0.033029083 0.29901066 -0.26519766 -0.06992834 0.212067 -0.058599245 0.0049485457 0.20896652 0.055401865 -0.05420979 -0.23204039 -0.33166006 0.07968354 -0.27941993 -0.020049645 -0.092859805 0.15376614 0.41757593 -0.21614352 0.096838675 -0.29643917 0.09303529 0.035904128 -0.11036877 0.019814253 -0.09529456 -0.52139616 -0.24152292 0.24957614 -0.34231913 0.07116134 0.045722727 -0.043773755 -0.377965 0.04114493 -0.10749983 -0.066000044 -0.40448648 0.22493638 -0.07526541 -0.255643 -0.13962308 0.02143713 -0.3720937 0.04005061 -0.027018605 0.1485439 -0.02320915 -0.09784562 -0.5010196 0.22061191 0.16302703 -0.09225517 -0.20016138
244 0.5129002 -0.16429141 0.0127609065 0.47994572 0.17394291 -0.21767741 -0.24153794 0.35590023 -0.176668 0.26965508 -0.17525642 0.04608374 -0.053845048 -0.34105113 0.028257506 0.32706866 -0.14412527 0.09345538 -0.3646127 -0.52624196 -0.289983 -0.16529396 0.23778836 0.030399133 0.046527036 0.38810855 -0.48013714 0.020652624 -0.15797475 0.32846922 0.28183612 0.29552898 -0.023707053 0.09834086 0.08327562 0.11146995 0.42919225 0.07647444 0.10780974 0.37073454 0.035383478 0.10517598 -0.074200496 0.23185709 0.012064538 -0.050978255 0.33872083 0.1332215 -0.1113181 -0.124841146 -0.050526045 -0.19842526 0.23370202 -0.11320835 -0.36537746 0.0036268067 -0.23349749 0.008335327 -0.13282324 -0.029078646 -0.013587116 -0.12001605 -0.072909676 0.07473419 -0.12399159 -0.5436271 -0.029268539 -0.10324462 0.31846955 0.0041396823 0.03170842 -0.09326769 0.3219233 0.34970698 0.028112385 -0.07005968 0.037796345 0.23273025 -0.33894125 0.090422764 0.43145692 0.23324245 0.14114404 -0.34571317 0.13394669 0.2305038 0.07292526 -0.2980036 -0.028960906 -0.11570671 0.18342476 0.18548088 0.1957133 -0.29438692 -0.21896012 -0.38923657 -0.3174777 -0.17621295 -0.3269574 -0.037236188 -0.03068656 -0.22309572 0.12856299 -0.16734469 0.1360716 -0.16675024 -0.23147833 -0.3607128 -0.12832052 0.0031712214 -0.28229406 -0.4716119 -0.014732283 0.12504967 0.08089073 -0.16617437 -0.42480695 -0.19848123 0.06021991 -0.38874882 -0.1190208 0.40145513 0.114476085 -0.048513345 0.2052803 0.12145026 0.18475294 -0.28096583
268 0.29893214 0.49522534 0.20487632 0.099833444 0.08846697 -0.06848066 -0.1773885 -0.28279784 -0.066842064 0.14182004 -0.090113044 0.088874385 0.22633146 -0.2753446 -0.011832567 0.5135794 0.124012835 0.37477192 0.027725017 0.100830056 0.09084571 0.3484121 0.28200245 0.34472865 0.2549779 0.4535301 0.3610926 -0.21272048 -0.14041796 0.07747543 -0.03559065 0.34302026 -0.2643375 -0.3306148 0.09531358 -0.05781665 0.19231676 0.022974212 0.07487414 0.29389384 0.13231118 0.092491366 -0.119371206 0.39050838 0.07437476 -0.17042407 -0.101188995 0.51591146 0.32529947 0.113156445 -0.29758176 -0.27351826 0.13889186 -0.21117347 0.0031095766 -0.34020266 -0.08552801 0.22172457 0.034348495 0.040022098 -0.14696486 0.05040717 -0.044598322 0.20464209 -0.21912895 -0.19461161 -0.014084948 0.116391346 0.13234958 -0.1265826 0.2817834 0.021428572 -0.02465639 0.028745465 0.07409707 0.12203643 0.10765294 -0.22547135 -0.28022635 0.19137108 0.36644554 -0.024445642 -0.19983736 -0.3034332 0.13296862 0.110231034 0.01650665 -0.14544852 -0.24447179 0.19858193 0.31286266 0.07177123 -0.24429423 -0.1150021 -0.47258332 -0.30099422 -0.21468906 -0.27759266 0.26975694 -0.07924824 -0.2668598 -0.029206483 -0.11055256 -0.26551047 0.09827276 0.040104587 -0.014721578 -0.16028647 0.10727266 -0.12436096 0.1703337 -0.21006554 0.23292121 0.35494164 -0.07244322 -0.07175115 -0.15488563 0.117374554 -0.08269058 -0.29895183 0.13990611 0.061076507 0.12172744 0.03775219 0.3679046 0.067808315 0.010535354 0.1572472
78 0.44676736 -0.05475272 -0.02313182 -0.032883193 0.25815678 -0.0159588 -0.2672684 0.06946201 0.42943802 0.641134 -0.071470335 0.44824335 0.14343546 -0.039692268 -0.46065083 0.27543706 0.17333508 0.02885428 0.3294065 0.04103925 0.034930203 -0.018610626 -0.10429263 -0.06429671 0.14708018 -0.0294469 0.1812228 -0.065125644 -0.19227159 0.26931682 -0.19716996 0.017990597 -0.48551705 -0.20544606 0.098338 0.117528304 0.4046706 -0.32518703 -0.17150608 -0.01960541 -0.3740831 -0.05243422 0.2743805 0.3243251 -0.2241872 -0.1720029 -0.28940776 0.11122766 0.105464354 0.2797394 0.1295635 -0.629529 0.14142556 -0.22571808 -0.018281285 -0.4554935 -0.06243109 -0.0937324 0.28345543 0.082317464 -0.008664114 0.3637786 -0.36245596 0.1485592 0.20349245 -0.16884741 -0.14960527 0.14101672 0.26406017 -0.36643195 -0.11457534 0.035667304 -0.069784135 -0.13551526 -0.21900074 0.38456446 0.16385244 -0.19030827 -0.071804866 0.004990196 0.19819798 0.10853683 -0.20705463 0.10883364 0.04350391 -0.056091525 0.079667516 -0.0026539462 -0.0691794 0.02428571 0.48497966 0.0993342 -0.16866373 -0.0372703 0.07716077 -0.20678738 -0.48965666 0.18432961 -0.2514369 -0.40029743 -0.086273864 -0.3551611 0.3156806 -0.035048045 0.090339705 0.4562098 0.25136262 0.12936212 0.08844317 0.100029595 -0.21354792 -0.24162614 0.17050554 -0.12555021 0.049762644 -0.2678731 0.13534227 -0.16469608 -0.28702405 -0.07995043 0.21220507 0.062936775 -0.31412882 0.09628718 -0.13245092 0.20950988 -0.38211256 0.0057233423
300 0.4522964 0.20635961 0.038667474 0.058046654 0.24715286 0.12463509 0.027772125 -0.33097664 -0.11534214 0.37804052 -0.2949863 0.22518824 -0.06422699 0.024698747 -0.20494351 0.12904401 0.061391212 0.6160313 -0.38698462 -0.011629885 -0.35006425 0.34863627 0.016684618 0.016994243 0.56440586 -0.10168134 0.12456435 -0.13980961 -0.12158967 -0.03623953 0.08294657 -0.14354727 0.24010646 -0.18302572 0.32794616 0.13593231 0.34744364 -0.048389424 0.15364273 0.11015812 -0.69310176 0.15302512 -0.20528823 0.10793484 -0.35987037 -0.42595813 0.20585863 0.13667445 0.12949239 0.29058775 -0.0111715505 -0.14309701 -0.061187707 -0.20950276 -0.34675893 -0.1922619 0.15153596 -0.11765172 0.049136873 -0.05590481 -0.15878917 0.29411104 -0.1442572 -0.08213735 -0.26754606 -0.27823487 0.24616395 0.3103363 0.09384973 0.06020926 -0.025722044 0.42913815 0.34328505 -0.038092144 0.15394458 -0.049989507 -0.040842004 0.29466122 0.124442354 0.48899662 0.18693574 0.2054308 0.12086323 -0.201821 0.21053693 -0.009687792 -0.09268971 -0.43341172 -0.50611556 0.18120979 0.26441827 0.05340183 -0.11448232 -0.036107022 -0.40194958 0.20203654 -0.07918808 -0.55616117 0.04144554 -0.29708105 -0.09817409 0.14596029 0.15333809 0.0898978 0.094334334 -0.043773867 -0.55457526 0.036807355 -0.170188 0.010495304 0.095515415 -0.32736155 0.31696528 -0.23575091 0.057547405 -0.15427637 -0.07683703 0.0775516 0.04362925 0.17379022 0.47775617 0.06555643 -0.26077774 0.13039021 0.1305813 -0.18029739 0.3024362 0.22705507
7 0.41837353 0.176822 0.21406251 0.33847618 0.04506592 -0.097876966 -0.40108103 0.4035562 0.46974346 0.2979088 0.06292401 0.5736337 0.1314358 0.054096058 -0.20639235 0.16525507 -0.06771433 0.1207037 0.030193621 0.10331622 -0.04824342 0.33953816 0.10751498 0.053388964 0.033508807 0.26289472 -0.01722368 -0.31842664 -0.137083 0.36969334 -0.10031431 0.34527054 -0.25071347 -0.029424613 0.0061695855 0.08415101 0.46235132 -0.09813361 0.37652045 -0.08215001 0.2260772 -0.25479573 0.06551657 0.48545447 -0.2917478 0.061129957 0.06996096 0.4334635 -0.18373995 0.010531697 0.07292496 -0.14849761 -0.1567563 -0.29923204 -0.23507378 -0.39335236 0.22805828 0.005091179 0.28150785 -0.32769373 -0.04525888 0.14116997 -0.27020612 0.20743859 0.020700967 -0.566282 -0.15501288 -0.029979095 0.35863146 -0.023242336 -0.04540179 0.05450523 0.1448343 0.105876185 0.09804752 -0.33453548 -0.11991773 0.20577061 -0.09899193 -0.03896361 0.30840865 0.13712172 0.04901758 -0.0074707186 -0.07601216 0.12314452 -0.25097868 -0.22069441 0.08794643 0.035808265 -0.14802283 0.3113707 0.20641553 -0.05086859 -0.37516415 -0.17218184 0.006504252 0.0025108422 -0.06145389 0.11318523 -0.3057533 -0.35262045 -0.024522915 0.2012566 -0.17449924 0.22863078 -0.12829795 -0.21508464 0.25129256 -0.14427097 0.34383968 -0.06193147 0.12368648 -0.06662982 -0.15276144 -0.30677882 0.053247824 0.078347914 0.26011777 -0.10351645 0.025832627 0.16609874 0.03813604 -0.10780667 0.08619377 0.18451622 0.2015057 -0.16432776
158 0.5219151 -0.15831567 0.04215333 -0.051487964 0.068809055 -0.41179192 -0.14178477 -0.3092343 0.22779435 0.38905835 -0.25926608 -0.01790493 0.13659123 -0.06421072 -0.0003168743 0.30273634 0.10248616 0.0072988947 0.089921005 0.009037207 -0.19082437 0.18617381 -0.030565038 -0.0142610185 0.15137945 0.25095546 0.01589388 -0.20668598 -0.11265831 0.04530975 0.036335353 -0.025116224 0.040113874 -0.34880707 0.3642559 -0.25086582 -0.11574555 -0.2141866 0.033911735 0.34452677 -0.05655854 0.28783166 0.22200339 0.08445661 0.10325644 -0.21963678 -0.05763221 0.27266195 -0.03185369 0.31918105 0.06847707 -0.08704769 -0.46761522 0.10145552 -0.47155082 -0.07043185 -0.4524019 -0.017062923 -0.2200232 0.12371131 -0.14518751 0.33889446 -0.11312791 0.2877732 0.0714082 -0.055479098 0.32374063 -0.16849868 0.11584524 -0.0014642501 0.06930038 0.4454016 0.2941457 -0.1566067 -0.16993906 0.71469605 0.0190089 -0.2872411 -0.24255799 0.3833141 0.1426635 -0.13920847 -0.25911003 -0.039103262 0.101322845 -0.27228922 -0.04985854 -0.4830337 -0.15279266 0.23832203 -0.12757805 -0.2630358 0.24972388 -0.2867483 0.018105447 -0.258609 -0.19161275 0.05478883 -0.45982605 0.24436001 0.17821826 -0.2333909 0.3262405 -0.34666505 0.16665334 0.14477777 -0.003642095 -0.106100954 0.055856608 0.08359243 0.065122396 -0.56747216 -0.07152651 0.14791797 0.00820912 -0.13242412 0.094931714 -0.13460073 -0.1801166 -0.21335788 0.09338125 0.42126238 -0.25380546 -0.01371177 -0.14239313 -0.22289863 0.05343716 -0.104850456
187 0.33690214 0.23507988 0.26756912 -0.027474273 0.1663076 -0.36969903 -0.24040705 0.07183262 -0.065295555 0.18766625 -0.073970154 0.051808838 0.23842731 -0.10028251 -0.13203467 -0.14602314 0.22807981 -0.031124441 -0.23641145 -0.16676357 -0.42040956 0.3852664 -0.1559039 -0.118579715 0.022064824 0.33778837 0.34073278 0.15858574 0.22085498 0.38948146 -0.020487415 0.31312078 -0.0784101 0.12735489 0.25832927 0.04184457 -0.18816431 -0.13158448 0.1680268 0.2956619 -0.29740813 0.045252554 -0.12571268 0.02920229 -0.006044337 -0.21861514 -0.08403566 0.34574106 -0.260155 0.15793216 0.07316294 -0.17776953 0.022361115 -0.48523423 -0.16933057 0.30370638 -0.035328377 0.06584746 0.057552822 -0.1313021 0.06518109 0.51305884 0.053171918 0.2668846 -0.2438268 -0.8631198 -0.15705518 -0.096836 -0.06994376 -0.0014251675 0.12884001 0.14418508 0.4811937 0.16772671 0.20636055 0.35040912 -0.30890197 0.16562615 0.24522094 -0.19946764 0.107989155 -0.052004218 0.13875823 0.0066919904 -0.11739709 -0.031399384 0.04551992 -0.25527176 -0.008881564 0.19360372 -0.033847418 0.23145452 0.16529202 -0.039292134 -0.103493124 0.12271024 -0.20742604 0.043633852 -0.010519551 0.05177593 0.0013896833 -0.20391795 0.09245398 -0.24113312 -0.61361265 -0.12648043 -0.2809645 -0.34388617 -0.15698385 -0.16292694 -0.030081345 -0.28526187 -0.08760144 0.039080717 0.06646464 -0.40971926 0.17280097 0.004884599 0.3521903 0.006942813 0.3724273 0.10961358 -0.12575449 -0.26178727 -0.31367114 0.28126895 0.16120708 0.3052317
320 -0.057320867 -0.18239793 -0.021957451 0.26834518 -0.20486595 -0.23199096 -0.07458971 -0.362527 -0.31171516 0.60529035 -0.039012264 0.6290796 0.44918704 -0.3546123 0.17788884 0.31280452 -0.10969845 -0.43373948 0.06631336 0.1648268 -0.0050141774 -0.010027027 0.23255296 -0.2787916 0.3895549 -0.045386594 0.25682956 -0.3165686 -0.15508127 0.5381775 -0.23877522 0.5363132 -0.07090549 0.26822016 -0.029286712 0.1947173 0.38698626 -0.069596864 -0.41507033 0.1222258 -0.09877108 0.18795589 0.07739223 0.21931614 -0.1889523 -0.21878736 -0.23229083 0.13123177 0.29312587 0.21898766 0.10124759 0.027685802 0.12746848 0.11251785 -0.47338417 0.012114578 -0.2792775 -0.34332567 0.107480496 -0.4737422 -0.12341132 0.2042084 0.20591483 0.20631634 -0.014684796 -0.3385795 0.050775625 0.22459406 0.13857338 0.3637566 0.04544481 0.006978095 -0.036839705 0.19230957 0.11342225 -0.31475815 0.26239523 0.09503126 -0.08973123 -0.15793619 0.12934321 0.033069637 -0.19373268 -0.0023888575 0.010880772 -0.11886618 0.1480363 -0.14688455 0.010475672 0.0010613925 -0.12738653 0.1318573 0.013333825 -0.047917727 -0.20041887 -0.21513894 -0.31790274 -0.35333958 -0.12616843 -0.341434 -0.20812286 -0.21476142 0.34498173 -0.023853537 -0.32944024 -0.053291757 -0.008663506 -0.45612755 -0.31726038 -0.36818486 0.3111789 -0.23961543 -0.32864192 0.014794916 -0.2638896 -0.20005654 -0.083856605 -0.5531394 0.01805138 0.0120731415 0.1653105 0.25653398 0.11523948 0.077101335 -0.374517 -0.054866172 0.27142408 0.21926399
195 -0.011386617 -0.21312226 0.14746405 0.07184388 0.2183302 -0.32792166 -0.35932657 -0.025868395 -0.08276539 0.22650935 0.04505664 0.35765702 0.31342334 0.030415485 -0.19081284 0.071887456 0.022811562 -0.06664328 0.023564763 -0.031093441 -0.1202929 -0.21339843 -0.28262177 -0.035160024 0.44621807 0.38016075 0.013318769 -0.21178141 -0.099242814 0.026686132 -0.1615228 0.41093224 -0.29219994 0.15343645 0.056820624 0.004023298 0.4014072 -0.25476453 -0.022574786 0.33633202 -0.6706443 -0.0036744438 -0.27142873 0.41251534 -0.12698705 -0.027315913 0.043418966 -0.078577355 0.03689248 0.16073017 0.27480564 -0.2250413 0.35743544 -0.12438936 -0.046906564 0.39984065 0.048092116 -0.017216261 0.098340645 -0.18113475 0.005600834 0.26506644 -0.09581856 0.29273534 0.04568264 -0.26809153 0.12477923 -0.25819013 -0.3121689 0.24627838 0.16384843 -0.19019902 0.29212603 -0.028339183 0.17130142 0.0687119 -0.06137669 -0.24527337 -0.089441866 0.06380396 0.43402746 -0.16221388 0.43582034 0.06963789 0.37933466 0.36583847 -0.10905723 -0.26368904 0.038439717 0.09456938 0.46577665 0.17875682 -0.04736568 0.36019 -0.12823834 -0.38044542 -0.21378127 -0.2181848 0.1620832 -0.25125098 -0.3911247 -0.21671687 -0.11945822 -0.5232782 -0.17951298 -0.25720876 -0.29669693 -0.44356814 0.23112957 -0.239941 0.14620087 -0.29993564 0.09318792 0.242806 -0.033171397 -0.31954074 0.17325372 0.018643962 -0.03581294 -0.1537623 0.043018322 -0.05981604 -0.40357947 -0.0010985537 0.025778849 0.10225561 -0.120867774 0.3025791
325 0.17730494 0.40650427 0.115528494 0.18618183 -0.19903056 -0.63609 0.28534618 -0.33385378 -0.0057065063 0.52768683 -0.048655838 0.550569 -0.13291167 0.046264447 -0.41629985 -0.04270172 0.31733268 0.1380514 0.1449087 -0.11491096 0.007056147 0.1010473 -0.1057345 0.3140484 0.4742504 0.28328022 -0.15826723 -0.24629886 -0.19269094 -0.04912093 -0.12718037 0.0039476748 -0.09355727 -0.17332552 -0.12177004 -0.06206399 0.491729 -0.16543229 -0.3206867 0.13727011 -0.33152848 0.006326287 0.21687323 -0.14077581 -0.06351391 -0.1295958 0.022873072 -0.040263407 -0.02029352 0.00013301644 0.18516687 -0.17064099 -0.38084897 -0.3266073 -0.314159 0.19445622 0.2413626 -0.28559977 0.003085599 -0.07210859 0.006180509 0.20934418 -0.45293772 0.08937853 -0.13660423 0.004238614 -0.0011739873 0.46650967 0.05604742 0.022537459 0.58443195 0.20818974 0.26171765 -0.17143151 0.10580023 0.21167241 -0.1380259 -0.001366602 -0.16930507 0.4376485 -0.089266054 -0.033577293 0.08040039 -0.20670769 0.08289519 0.13695523 -0.11825849 0.042040095 -0.14379196 -0.10569305 0.03971837 0.019717634 -0.12721479 -0.03874432 -0.026969012 -0.427781 -0.16387829 0.01228546 -0.49476874 0.023803318 -0.2112054 -0.13475467 -0.18665498 0.15623078 -0.24670695 0.085332364 -0.16239123 -0.04360428 0.3718241 -0.14186758 0.20597525 -0.3396007 0.3307431 -0.032896258 -0.03809109 -0.09107617 0.1632616 -0.15470415 -0.12268804 -0.024348844 0.25604162 0.1339254 0.20837077 -0.021089187 -0.1742317 -0.37076265 0.3344492 0.079019055
191 0.1189838 0.04096486 0.0015777515 0.22511296 -0.045556713 -0.21525528 -0.063148595 0.23551181 0.011096984 0.5193272 0.16278915 0.14623702 0.08001505 -0.091591276 0.029300485 0.047889534 0.31808832 -0.046643455 0.22403796 -0.26611415 -0.01735192 -0.12861803 0.122456975 0.15704744 0.28205755 -0.05200257 0.012219577 -0.20385055 -0.38840795 -0.21093917 0.032663997 0.48513335 0.22074752 -0.19077489 -0.109470315 -0.13302457 0.17144057 -0.17748597 -0.15101972 0.19315541 -0.2058978 -0.010911219 -0.17709225 0.20008488 0.50424516 -0.18309651 -0.29772162 0.16277248 -0.021366008 0.18828867 0.33566052 -0.12961031 -0.19167298 -0.087492146 -0.21588777 -0.41589072 0.051858198 0.051462755 -0.12833992 -0.35971862 0.047605336 0.192736 -0.31682408 -0.2358137 -0.076427184 -0.67362756 -0.050451513 0.16246845 0.07208563 0.16770019 0.05723057 0.36473745 0.0023969316 -0.29539987 -0.11965297 0.6044154 -0.13733265 -0.09089168 -0.24422966 0.49056616 0.3766953 0.38445678 -0.35737467 -0.18721367 -0.034760024 -0.03382062 -0.19513455 0.19378619 -0.028548647 -0.13267294 0.11829682 -0.06296194 0.005598353 0.06808682 -0.14324869 0.086783335 -0.3633191 -0.20483817 -0.43225813 -0.049653523 -0.5293901 0.36273038 0.103742875 0.016475659 -0.029462866 0.043384776 -0.33096132 -0.08668572 0.055156577 -0.35462627 0.37901908 -0.11010687 0.016091153 0.08605785 0.021111883 0.068834394 -0.04531713 -0.4170727 0.2854896 -0.17677455 0.15866196 0.10981317 0.010363177 -0.08221922 0.067632094 -0.11885142 0.320752 -0.06051532
228 0.17094186 0.43458804 0.041418225 0.27369758 0.07191144 -0.017374227 -0.1818173 -0.19660868 -0.09451118 0.6442543 0.15432735 0.28095168 -0.10137033 -0.14035486 0.007854632 0.2537153 -0.00029218884 0.34610745 0.14795332 -0.17042902 0.04794636 0.426966 -0.07744385 -0.18416204 0.10563917 -0.19030505 -0.090433255 -0.26220405 -0.07523848 0.5641648 -0.018393412 0.34562933 0.13037045 0.13537063 0.652435 0.14136547 0.28181526 -0.06741941 -0.06583385 -0.06752203 -0.3016322 0.5275244 -0.16076952 0.15111572 -0.07109218 0.015685888 -0.30819368 0.29993942 0.04605209 0.054640234 0.13683093 0.105403125 0.33462876 -0.37164527 -0.06223536 -0.010296857 -0.3625575 0.10885221 0.0846587 0.003076077 -0.21064518 0.28684166 -0.50145423 0.25247777 -0.14096792 0.22689308 0.09303335 -0.052037083 -0.025709897 0.15598026 -0.026725026 0.41092893 0.7177971 -0.27412325 0.14801839 0.43282333 -0.0650048 -0.14142373 0.26353452 0.02900095 0.1580021 -0.05841216 0.003339544 -0.1434997 0.018116012 -0.076889545 -0.08551532 -0.6229997 0.19828269 -0.24045509 0.15477966 0.34835678 0.1174272 -0.068986714 -0.2890666 -0.12060361 -0.3497574 -0.11268738 -0.11237981 -0.25878853 -0.37564236 -0.27067563 0.37379262 -0.15962307 -0.299359 -0.059683334 0.07789061 -0.39835572 -0.052541822 0.074945815 -0.12995753 -0.15711565 0.05498672 -0.19969153 0.26844838 0.007997495 0.05289319 -0.1462805 0.057616975 -0.08721968 0.23082288 0.024737328 -0.01279843 -0.3776039 -0.29197678 0.35080704 -0.13165335 -0.12412099
19 0.63889235 -0.17559403 -0.088495195 -0.018405834 0.38876826 -0.4912423 -0.03524036 -0.41596806 0.30616593 0.24131708 0.32602957 0.5492436 0.27915418 -0.107883 0.5292117 -0.13937192 -0.1546665 -0.07897803 0.078805335 -0.06495518 -0.34534064 0.37619707 0.056330565 0.019459987 0.489926 0.114722036 0.042289868 -0.3099973 -0.12130354 0.45734313 0.04945719 0.09423766 0.069006674 0.17186211 0.5969557 -0.25948325 -0.08444082 0.09234489 -0.15042257 -0.0998885 -0.46520615 0.49167988 0.4830344 -0.0551571 0.17560278 -0.052918226 0.28071684 -0.13034491 0.13405782 0.5864526 0.40833145 -0.41610774 -0.1252207 -0.44683605 -0.23927818 0.10359805 -0.41428044 0.24308935 -0.20687926 -0.24783765 -0.23470372 -0.13912557 -0.17394301 0.12252328 -0.19390494 -0.4695402 0.39990097 0.45339417 -0.13313186 0.23581603 0.05889153 0.32796252 0.4509698 0.25429338 0.1567737 0.09891983 0.008257194 -0.0934746 -0.23903514 -0.010102138 0.38517326 0.1445483 -0.39094347 -0.19154006 0.21626899 0.040222183 -0.18070284 -0.54071116 0.13092005 0.21312253 -0.20663698 0.46752945 -0.17657015 -0.12549181 0.26025796 -0.37417644 0.04746224 0.54977 0.08018316 -0.13849197 -0.33197045 0.045647267 0.53519034 -0.12535384 0.005329754 0.30486265 -0.12921998 0.220286 0.19749206 -0.43124673 0.34011674 -0.18762088 -0.23046611 -0.4260667 -0.4466241 -0.15027426 -0.52478963 0.08238351 0.10623077 0.5053296 0.3667493 0.25774482 -0.33475855 -0.20832917 0.11790604 -0.14929186 0.10516122 0.081919305
264 0.22819406 0.09472151 0.024964198 0.21912527 0.5516986 -0.3897621 -0.014812176 -0.0035149618 -0.010257688 0.104260154 0.07579244 0.11682621 0.40900108 -0.010128362 0.29744774 0.28384456 0.06630704 -0.05193741 0.18661515 0.026015116 0.22265565 0.41940218 -0.24577999 0.20610842 0.3038764 0.43756616 0.22728449 -0.1547405 0.26542142 0.21492061 0.22125764 0.28177756 -0.42847827 -0.20990004 0.16598792 0.25515285 0.40718493 -0.11624737 0.2776963 -0.19147877 -0.014098046 0.24865733 0.33378342 0.057842363 -0.2633977 -0.21435297 -0.1634404 -0.03945857 0.002187512 0.19568698 -0.2003211 -0.08587199 -0.49048895 -0.028677829 -0.32901844 0.06700451 0.090752445 0.04062216 -0.08558503 -0.22303303 -0.17689736 -0.08571526 -0.29136345 0.054869216 -0.13730417 -0.2696716 0.24727301 -0.1511386 0.061289694 0.027607938 -0.09978083 0.18046401 -0.08442931 -0.09161566 0.40409392 -0.057780717 0.09454589 0.20068873 -0.034560982 0.19654617 0.026664976 0.4689408 -0.18940541 -0.06273258 -0.20991567 -0.014439793 -0.36690095 -0.24855675 0.00046756264 -0.013646452 -0.01162542 0.086043954 0.3005744 -0.12399127 0.19331945 -0.07617476 -0.4873319 -0.21706119 -0.01101388 -0.18920052 -0.5712387 0.006555291 0.05214008 -0.049073774 -0.24075952 -0.024987277 -0.24060078 -0.44134253 0.16559882 -0.4230843 0.13405637 -0.43675867 -0.1643895 -0.1287004 -0.034162544 -0.030812116 0.046905056 -0.056568924 -0.10324067 -0.4915724 0.094948314 0.30856836 -0.03680166 -0.18096498 -0.19162571 0.17352767 0.42478153 -0.121172525
100 0.41321045 0.109382465 0.09807309 0.43578404 0.40443036 -0.22667274 -0.39111573 -0.21521008 -0.0662469 0.3466384 -0.12868847 0.04858461 -0.27459255 -0.4522295 0.023385445 0.34782138 0.22338955 -0.03781753 0.5033734 -0.12587498 -0.051581398 0.23705217 -0.09681501 0.07090358 0.19015162 -0.023482744 -0.34714717 -0.46555412 0.019406218 0.3037873 0.143474 0.3900278 0.05946733 -0.30067444 0.1987906 0.17668942 0.19065757 -0.055928968 0.077281535 -0.03387867 -0.27967516 0.05703091 0.3123817 0.051583067 -0.1783572 -0.29890463 -0.38198638 0.084077 -0.07407176 0.011407376 0.043276712 -0.14495325 0.12776333 -0.49315882 -0.30635107 0.04447333 -0.15860555 -0.06993347 -0.052340493 -0.0342647 -0.038379688 -0.09204338 0.27398717 -0.3022589 -0.1682896 -0.43818992 -0.07808411 -0.07400105 -0.17322354 0.15817665 0.20452736 -0.15450998 -0.09035449 0.08793435 0.080442294 0.06359941 0.14878584 -0.28929693 -0.36337307 -0.02923 0.5430535 -0.017494135 -0.099545375 -0.22263288 0.08083769 -0.14732017 0.099060476 -0.2811047 0.15387967 0.32284027 0.18703865 -0.12701613 -0.30756158 0.09209816 0.26820692 -0.155937 -0.29276773 0.26603353 0.11759432 0.059099223 0.04595821 0.06643187 0.1450612 0.0917444 0.061932184 0.22324315 -0.006598915 -0.25920415 -0.48891285 -0.18736395 -0.1732409 -0.10099702 -0.20690629 0.11340458 -0.11073402 -0.110766985 -0.111454554 0.17852916 0.00020188006 -0.022963809 0.17238998 0.23246971 -0.02682857 -0.19321652 0.28791523 -0.19434755 0.22933425 0.0012865439
348 0.5194174 0.15895094 -0.15389241 -0.16107303 -0.0683084 -0.1527621 0.14899176 0.2264008 -0.49934855 0.574816 0.20335656 0.29167908 0.3753394 0.25537062 -0.43760166 0.060405355 -0.0077827564 -0.06520795 0.213142 -0.5536938 -0.15922925 -0.20984441 0.37756962 -0.081033066 0.2242594 0.4172562 -0.35530886 -0.5369925 -0.25081822 0.3160837 -0.16072284 0.0050025987 -0.13969731 -0.06414183 0.5817628 0.4890965 0.4659676 0.44769195 -0.2708128 0.29838914 -0.024529977 0.43359706 -0.062323585 0.21973552 0.03388726 -0.76979756 -0.34735492 0.389694 0.15398823 0.15749031 0.39337322 0.19368577 0.5724448 -0.53699243 -0.6601233 -0.5142927 0.14292024 -0.16005442 -0.30846813 0.07402444 0.19981079 -0.011342786 -0.13768171 -0.2015562 -0.16287747 -0.37821302 -0.28663594 0.42995042 0.09689146 0.21795872 0.26553017 0.34481084 -0.15347034 -0.019633304 0.06873781 -0.019686254 0.5038819 -0.04394479 -0.2791501 -0.23659404 0.29728416 0.33078215 0.13707231 0.23060411 0.13752493 -0.06875728 0.18000847 -0.32598072 -0.27046877 0.20466849 0.05146522 0.22400865 -0.13564762 -0.19984154 -0.03735255 -0.18505514 -0.13909987 0.35747188 -0.27999562 -0.16978347 -0.7123132 -0.45642424 0.47058412 -0.10410539 0.3448724 0.63964486 0.14291804 -0.31219068 -0.07065622 -0.026235934 -0.018718947 -1.267612 0.20491882 0.14411777 -0.18949865 -0.68432677 0.018150216 -0.31975585 0.30462837 -0.15967296 0.009029387 0.3857789 -0.14967906 -0.117758796 0.4032161 -0.29703128 0.3742701 -0.18127538
137 0.10923793 -0.027303688 -0.08875867 -0.21309617 -0.09835345 -0.19356504 0.049947526 0.16548112 0.15179417 0.21818191 0.22793594 0.15150195 0.16347614 -0.049032997 0.25432128 -0.12510185 -0.024424424 0.32758936 -0.16272901 0.073309906 -0.06932045 0.16028072 0.033723157 -0.06339972 0.38387233 0.19748555 0.074830435 -0.22489889 -0.033380836 0.34659818 0.3951955 0.4465492 0.023650793 -0.04965644 0.36138707 -0.14258774 0.5459803 -0.12974483 -0.23353341 0.42264986 0.021359196 -0.038991347 0.09385381 0.44664726 -0.26707107 0.041164994 0.43165222 0.07464084 0.083594576 0.3506005 0.06968097 -0.45859772 0.07214806 -0.6494012 -0.20084679 -0.1929449 0.07458514 0.095571555 -0.12097202 0.15974887 -0.032476608 0.20431896 -0.52643883 -0.027821256 -0.19119787 0.1371614 0.12290253 0.011723019 -0.059757177 -0.2041864 0.0025969287 -0.16307664 0.092403315 0.05103798 0.27791306 0.25870118 -0.008145042 -0.031217173 0.23232396 0.007869084 0.13166541 0.28211913 -0.10972843 -0.1807098 0.30364737 0.10652834 -0.086631924 -0.17460597 -0.055488765 0.30662337 0.18255812 0.021542769 -0.002852735 -0.37569773 0.0449712 -0.40033844 -0.3866874 -0.20304917 -0.29498598 -0.25083867 -0.12117462 0.0037168986 0.024118965 0.10407156 0.054020733 0.35517317 0.058106564 -0.062825814 0.113432854 -0.024866514 0.04737241 -0.1390489 -0.1024759 -0.13970257 -0.01608655 -0.17752118 -0.30221823 -0.023403084 -0.19113266 -0.19650955 0.20422474 0.26355577 -0.11588528 0.025149336 -0.025034368 0.35591155 -0.0879889 -0.2422553
347 0.63600117 0.007579965 0.026740769 0.09293678 -0.072403185 0.20256987 0.20354325 0.08521455 -0.30131423 0.3507958 0.15489887 0.12931083 0.3903648 0.111702256 -0.30226946 -0.032707926 0.08489581 0.043171175 0.058633186 -0.48021248 -0.19450189 0.006184889 0.3937439 -0.091857195 0.26825014 0.3054778 -0.16122018 -0.38740003 -0.03858818 0.01723647 -0.2978623 0.089615 0.12762761 -0.19390067 0.43633446 0.42371705 0.4422974 0.33170167 -0.047177926 0.31018543 0.16895638 0.34308547 -0.04363488 0.16591115 0.0557485 -0.8292373 -0.086352974 0.47338346 -0.069503374 0.12892826 0.3495105 0.12820506 0.4507752 -0.34705287 -0.58275616 -0.44750804 0.26478988 -0.03710437 -0.3677704 -0.052300435 0.070715055 0.058387082 -0.116071306 -0.1557548 -0.105139814 -0.315636 -0.17464946 0.3449604 -0.07719335 0.044440597 0.34064615 0.37113598 -0.0598884 -0.052877642 -0.055668633 0.11633677 0.41541156 0.044555925 -0.2110174 -0.19171253 0.17096904 0.32956365 0.20245239 0.12730435 0.20936184 -0.13262355 0.15661353 -0.37246284 -0.5322241 0.20441891 0.035826232 0.022802368 -0.111232325 -0.312294 -0.04510823 -0.13316403 -0.10836686 0.12270255 -0.14666077 -0.073708236 -0.3954912 -0.35709918 0.28767484 0.09104543 0.24205396 0.5686292 0.051517285 -0.2675157 -0.25757948 0.060380213 -0.12457425 -1.0331535 0.0066241464 0.1298654 0.07064595 -0.46778935 -0.016314005 -0.2028473 0.3801516 -0.15822075 -0.04136416 0.2712257 -0.19138394 0.056615606 0.14237161 -0.31174234 0.3529888 -0.084155925
314 0.050788738 -0.2815853 -0.007344341 -0.23420013 0.43813094 0.118468314 -0.19138606 -0.40522337 0.050956324 0.3829279 -0.17069496 0.08752871 0.13623127 0.04516395 -0.22605969 -0.04780886 0.33924264 -0.009451092 -0.4130403 -0.108817354 -0.19317733 0.4154602 0.0785899 0.271185 0.30683625 0.07220238 0.10746163 -0.2965352 0.36017954 0.28096008 -0.25022972 0.17067367 0.2604485 -0.15329945 0.58383524 0.41456985 0.4028975 -0.16050996 0.3031199 0.2425937 -0.16283672 0.48969433 0.17322277 0.17616257 -0.29033804 -0.21588953 -0.04878987 0.20108184 -0.03411045 0.0562725 0.018049771 -0.2142585 -0.11775665 0.17975701 -0.12810758 -0.036933906 0.23504633 0.046475243 0.17030486 -0.03546592 0.2525516 0.15358217 -0.1569154 -0.0025194422 -0.20339647 -0.042956963 0.10271098 0.0097040525 0.20824616 0.013970888 0.28632623 -0.033661664 0.4108027 -0.2595532 0.24473487 0.441695 0.022273611 0.009355878 -0.3362328 0.15496671 0.2552893 -0.0241936 -0.25585455 -0.29100204 -0.074171126 0.20745343 0.008325144 -0.08878805 -0.45051214 0.19317621 0.42277586 0.1595106 0.22325219 0.12711339 0.04357952 0.3227537 -0.43436712 -0.0151192965 0.1451981 0.0056362124 -0.13217443 -0.15336244 0.29080024 -0.14708982 -0.08573914 -0.13443772 -0.25751838 -0.11265164 -0.42054218 0.07574614 -0.28743598 -0.3163059 0.13524204 -0.15385075 0.008874848 -0.016353065 -0.003843566 0.006701802 0.51293004 -0.0064276066 -0.0058853966 0.37531555 -0.40009537 0.13763641 -0.19891326 0.010532332 0.31891692 0.032690275
53 0.3597856 0.09288106 -0.049261495 0.1769068 0.049864475 -0.30779037 0.0011398875 -0.32988882 -0.10417318 0.53909606 -0.055562817 0.1656025 0.14833088 0.12665479 -0.27198747 0.11811037 -0.29528213 0.030939095 -0.1523472 -0.07021363 -0.038114674 -0.03725108 0.14547975 -0.178267 0.15825215 0.03382344 -0.021621693 -0.22013476 0.26947072 0.085198194 -0.116852 0.16606775 0.0396407 0.29392892 0.2369336 -0.007567214 -0.048304047 -0.14045718 0.26792958 -0.0628132 -0.13967574 0.26286602 0.14235453 -0.046589065 -0.23389162 -0.5739712 0.087008685 0.04902269 0.20887621 0.23163213 0.12854788 -0.3180558 -0.042191822 -0.32075548 -0.038485922 0.06595403 0.2670778 -0.10347964 0.21847923 -0.25579718 -0.056682907 -0.053445216 0.098722994 -0.009540453 0.037886415 -0.6082611 0.300904 0.15919398 0.121913776 0.14133406 0.12013343 -0.0031397946 0.09427795 -0.03236614 0.05275342 0.030375103 0.023630628 0.074270435 -0.2350995 0.262397 0.25749123 -0.06148836 -0.0005861978 0.23776981 -0.0039991844 0.286644 -0.08191873 -0.1065869 -0.25631127 0.07143863 0.090355225 0.22400497 0.27013338 -0.11399993 -0.27547976 -0.51138085 -0.29498667 -0.42452672 -0.72028834 -0.077962264 0.096146256 -0.118813336 0.2561807 -0.01040903 0.10750467 -0.1978764 -0.22626254 0.042948674 0.2141595 0.08127626 0.36429596 -0.058385465 0.1901973 -0.06852676 -0.48341793 -0.3770813 -0.30133975 -0.3232814 0.08856989 -0.032822188 -0.050939415 0.35570064 -0.09670375 0.075255476 0.38243753 0.016559632 0.51645756 -0.020402651
286 0.20311964 0.08157566 0.34531945 -0.19613475 -0.10133993 -0.6883755 -0.10722915 0.0643534 0.060744334 0.62926817 -0.09133311 0.19595581 0.03859558 -0.05669083 0.013434856 0.11096202 -0.09748766 0.106324546 0.045875244 -0.14372848 0.062384345 0.32223812 0.121285126 0.17619924 0.23934078 0.34153315 -0.07357076 0.14332409 -0.03258436 -0.07068602 0.3629402 0.08580905 0.021566179 -0.2621361 0.18598373 -0.16136847 -0.35373896 -0.12574594 -0.056733202 -0.039990067 -0.48881173 0.360042 -0.031641286 0.13831893 -0.10892608 -0.18570714 0.115436666 0.24980976 -0.050642695 0.5086718 -0.108315356 0.104885526 0.026532784 -0.024985272 -0.29238924 -0.12996842 -0.24009265 -0.27658087 0.12268135 -0.17325531 -0.1891051 0.13542603 0.0005539913 0.22017238 0.13144067 -0.530723 0.1420559 0.1832523 0.10301328 -0.26269194 -0.08312312 0.032438353 0.39330882 -0.15092571 0.27604115 0.21884155 -0.26288918 -0.043356013 -0.17784965 0.13660781 0.36131826 0.14193317 -0.18981501 0.06717364 -0.14504713 0.068019785 -0.08475337 0.056279022 -0.040000442 0.055163957 0.5000923 0.2843226 -0.12167382 0.2336505 0.19806595 -0.14423151 0.019423367 -0.20455633 -0.045858875 0.094683774 -0.033282116 -0.33615664 0.25456014 0.044288516 0.011996439 0.26118764 -0.38628855 -0.26707673 0.08576695 -0.0324697 0.10752132 0.043168735 0.038131166 -0.1923984 0.060119078 -0.2334701 -0.16034205 -0.33109018 -0.050096456 -0.31965908 0.14451014 0.17965136 0.26740488 -0.3125655 0.015415417 0.23138979 0.31857696 0.048714582
14 0.42399392 0.10512533 0.24883309 0.5061103 0.06504456 -0.17969148 -0.60924673 0.333642 0.5437371 0.26987803 -0.24085328 0.6728878 -0.14874591 -0.102832176 -0.40985078 0.2949566 0.008371154 0.10282355 0.1972385 0.103116155 -0.2973389 0.62517375 -0.3389915 0.05103918 -0.05958788 0.51532507 -0.18613197 -0.40656906 -0.101588294 0.36384887 -0.14680825 0.7520122 -0.10444666 -0.1436132 0.14361958 0.17264701 0.89374834 -0.1579608 0.31463045 0.35939732 0.07029673 0.26375788 0.04033954 0.41484395 -0.7259654 0.19236706 0.25716904 0.58303064 -0.3317281 0.055777136 -0.022395965 -0.23370212 -0.2065632 -0.5351953 -0.57760805 -0.29981628 0.63757604 0.19793308 0.4256535 -0.4940643 0.12894449 0.08232983 -0.0060989135 -0.042225286 0.12680268 -0.32073894 -0.42392147 0.26506364 0.47551048 0.19745603 0.3454394 0.40911824 0.11575254 -0.059557788 -0.062210258 -0.31320444 -0.07148914 0.432922 0.15426108 0.038398787 0.5734081 0.14963768 0.18512124 -0.06885983 -0.14672887 0.47721097 0.013655581 -0.4804779 0.13490698 0.22673324 -0.5359398 0.43451425 0.35146147 -0.08435588 -0.78416926 0.094170675 -0.3771398 0.28100416 -0.16070145 -0.108639345 -0.49447215 -0.5928718 0.30836025 0.40208754 -0.5005108 0.66930115 -0.16485737 -0.073898576 0.08954694 -0.042796627 0.6377391 -0.13860773 0.17315382 0.04114414 -0.073329054 -0.77844757 0.17606544 0.25456464 0.32536283 -0.16755894 -0.22380388 0.30608636 -0.049442656 0.16738626 -0.18073872 0.2573856 0.14364138 0.18154623
330 0.015610762 -0.042598408 0.37438685 0.25961182 0.24434702 -0.32277483 -0.08107632 -0.2321664 -0.16149214 0.39841628 0.1138708 -0.012934354 0.09000166 -0.3224412 -0.015662905 0.37962055 -0.18329693 0.30765072 -0.23118503 -0.33781302 0.011539854 -0.05660479 0.06540466 -0.062125966 0.43323484 0.16675027 0.05026309 -0.33387673 0.24494937 0.09737874 -0.10278831 0.22471389 0.18492739 0.2789345 0.0699281 -0.033522412 0.12664379 -0.28435674 0.057778075 0.43535352 0.06080603 0.08529014 -0.063877024 0.30620864 -0.16952948 -0.009234053 -0.3847824 0.0020709657 -0.09900149 0.2352551 -0.18034846 -0.26046038 -0.22200592 0.054101206 -0.6625376 -0.15462264 0.034855414 -0.058252435 0.31031245 -0.41555923 -0.42037892 -0.1569357 -0.08509415 0.2442652 -0.024335997 -0.37120798 0.19563322 0.27455038 -0.30728242 0.46395636 0.3721352 -0.30547792 0.1238224 0.032354947 -0.31220633 -0.106700234 -0.13418359 -0.07010673 -0.1399154 0.20587635 0.22178619 0.0850561 0.14586738 0.26889262 -0.110911325 0.018512888 -0.14747877 -0.16282265 -0.10943998 0.111782804 -0.28764823 0.25930685 -0.2508781 -0.13903578 -0.12281545 -0.49531853 0.20436932 0.18523315 -0.11739519 -0.084681235 -0.28194463 -0.20628643 0.21919818 -0.22197771 -0.16948463 0.119742095 -0.208009 -0.05871548 0.09348593 0.085596606 0.04130287 -0.117551185 -0.19913977 -0.09831632 0.035233956 0.08436713 0.11874228 -0.22349566 -0.020748997 -0.09075405 0.17620517 0.46560594 0.027098179 -0.0061796424 0.37564442 -0.104977526 -0.048632834 0.09341331
123 0.011429261 0.13405973 0.09522155 0.08324633 -0.025610019 0.05398007 0.32090634 -0.12896577 0.104693495 0.31388035 -0.06203825 0.22719775 0.062761635 -0.35709327 -0.009453224 0.30578542 -0.039241966 0.28298208 -0.12881032 -0.10882767 0.00870581 0.10270464 0.0013520407 -0.181268 0.20347054 0.25495198 0.4058579 -0.14811715 -0.18570296 0.2261519 0.16797936 0.07059384 0.09952412 -0.31720528 -0.024558254 -0.15177013 0.041016284 -0.27643844 -0.030351786 0.42604712 -0.10574742 0.23157102 0.05555572 0.21640825 -0.34050176 0.11712812 -0.17031428 0.14220288 -0.09855549 0.05474002 -0.19282182 -0.08998931 -0.14388317 -0.17105159 -0.34263623 -0.14836764 -0.052904908 -0.40277904 0.35680425 -0.026348457 -0.04567586 0.2846744 -0.1408432 -0.27980858 0.27817756 0.05280886 0.049175657 0.22971223 0.2563212 -0.11323054 0.06274887 0.13186477 0.09994155 -0.07178071 -0.085843526 0.18661463 -0.27093592 -0.16287068 -0.14178628 0.34428465 0.23299524 0.09090657 0.138677 -0.16594666 0.11310622 0.26958483 -0.27488023 0.10143761 -0.039236724 0.18201551 -0.034498744 0.278473 0.31351137 0.15030296 -0.19097117 -0.14608225 -0.24119452 -0.08858306 -0.03681088 -0.33587706 -0.28528386 -0.2541721 -0.1573047 -0.4613948 -0.21874477 0.06587894 -0.51495886 -0.5926233 -0.22114816 -0.45897976 -0.0012157043 -0.14939854 -0.004535326 0.11275716 0.3773479 -0.6109525 -0.02314254 0.012079725 0.10510302 -0.17802395 0.0898711 0.27367666 -0.18170418 -0.3664962 -0.054133944 0.01408055 0.3842467 -0.092186466
273 0.2925207 0.014972721 -0.1781919 -0.19284216 -0.126158 0.012112146 -0.07082477 -0.046497766 0.21463832 0.12138315 -0.08832039 0.2691329 -0.0021356272 0.2594667 -0.031573094 0.23836279 0.023748819 -0.3606537 0.2077019 -0.13238408 -0.390815 0.25660416 0.119484365 -0.018854361 0.35081774 0.06993077 0.22713146 -0.20002167 0.17177027 0.11721443 0.29035854 0.43905023 -0.16278161 0.0467901 0.58225226 -0.07800932 0.02879546 -0.21850252 0.11541784 0.4745887 -0.26382485 0.32001495 0.011006697 0.14085758 -0.23083954 -0.05567521 0.05250871 -0.10997923 0.04929306 0.445103 -0.187763 -0.29406402 0.019143473 -0.06740257 -0.5194906 0.048489463 -0.046227504 -0.15309142 0.18519275 -0.24222966 0.047933545 0.061820883 0.14239815 0.013680326 0.08254495 0.13308185 0.029193278 0.20648082 -0.0048347623 -0.3847987 -0.04976908 0.07210638 -0.1080703 0.12525478 0.026772764 0.300423 0.13235839 -0.24528652 0.012613169 -0.03377177 0.12340565 -0.30861259 -0.20979494 -0.34724125 -0.013156657 0.17949401 -0.07574821 -0.07102755 -0.22097929 0.20993692 -0.2466516 -0.2446585 0.13034263 -0.033421885 -0.08238408 -0.08850332 0.17115372 -0.27112874 -0.21923669 -0.106664926 -0.5521469 -0.30075815 0.28076196 -0.110923275 0.009536813 0.14263028 -0.03401686 0.07863689 -0.119860195 0.09478976 0.5706197 -0.19667038 0.062350053 -0.3573594 0.23677538 -0.29109251 0.24194126 -0.2476379 0.15913182 -0.23993345 0.28838056 0.25778574 -0.3160354 0.14665616 0.04103052 -0.20233619 0.36139014 0.10534533
114 0.15328448 0.16015974 0.14245872 0.25920573 0.28236803 -0.34380868 -0.12832776 0.085043795 -0.16585776 0.4683025 0.14154814 0.25888896 0.20916146 -0.16169137 -0.3038707 0.050280876 0.4273324 -0.12481028 0.05870032 0.08774868 -0.2974873 0.015655052 -0.047239438 0.18583798 -0.27352732 -0.2800177 0.006668628 -0.2711429 -0.10025356 -0.062486786 -0.092028886 0.4874551 -0.12791125 -0.15097563 0.47700557 0.09261019 0.35131678 0.02615571 -0.23690304 0.03876218 -0.26554975 0.139044 0.25749013 -0.060333773 -0.50824314 -0.23073275 -0.04230166 0.18266071 0.1158177 0.07292183 0.33060756 -0.13983 0.08685247 -0.33022094 -0.3352857 -0.07699512 -0.49620363 -0.055232525 0.059243795 -0.2638966 -0.03499016 0.013957803 -0.08906799 -0.19393443 -0.09105922 -0.15655571 0.24343292 0.10131835 -0.0111033525 0.04333031 0.109946124 0.1739629 0.12114487 -0.29415348 0.19413434 0.49572784 -0.0064597074 0.102867395 0.047680173 0.22558947 0.42833295 0.17772844 -0.44661885 -0.19274397 -0.040153664 -0.03964606 -0.14481516 -0.15503305 -0.31569257 -0.014698326 0.19628468 0.16717337 0.11497833 0.1930793 -0.14591038 0.13289133 0.19362089 -0.07582545 -0.12791204 0.23411119 -0.1227789 -0.10535208 0.07317588 0.11213096 0.20724931 0.26916814 -0.38198513 -0.35179007 -0.36388007 -0.10494561 0.011505087 -0.17159578 0.24244377 -0.0658344 0.096547894 0.17088108 0.11995386 -0.31982005 -0.03451499 -0.07574261 -0.024514025 0.11049384 -0.1281946 0.15766938 -0.32866484 0.35177994 0.105668955 -0.20526083
140 0.15107155 -0.11203511 -0.019257035 0.15540679 0.45068195 0.21625777 -0.34504285 0.059876963 0.034066513 0.35917595 0.13541186 0.18897839 0.40225342 -0.41708732 -0.15303022 -0.15755458 -0.3608284 -0.033272948 0.011350556 -0.4564963 -0.042004254 -0.13027278 0.09802562 -0.07680417 0.062196076 0.0009974486 0.26270595 0.05972 0.14245577 0.3799051 0.104909964 0.33779624 -0.22282022 0.06691774 0.26306668 0.18029422 0.18698728 -0.1022807 0.23015857 0.07780703 -0.20109573 0.06325978 0.35404116 0.10868361 0.21134858 0.18204395 -0.08323111 0.2513116 0.1269318 0.16898109 0.2373434 -0.6078377 0.24751763 0.03734164 -0.5650148 -0.30579305 -0.076598294 -0.072279796 0.065183066 -0.017454835 -0.14592178 0.2827042 -0.48590696 0.35918787 0.09359874 -0.13049087 0.16463469 0.19711152 0.4646561 -0.18404123 0.040152133 0.07094947 -0.031245306 0.04061819 0.15084803 0.04179365 -0.42042917 -0.07720249 -0.09468863 -0.17453279 0.12851022 0.049285654 -0.2759791 -0.13657986 0.19977316 -0.047611676 -0.12343467 -0.14673553 -0.14851975 -0.06381649 0.54386985 0.07127068 0.18822837 -0.19260152 -0.106052384 -0.34799126 -0.08997497 0.012782925 -0.38211563 -0.13703062 -0.27772436 -0.089280725 0.1163621 -0.37538195 -0.14911531 -0.30644003 -0.022273274 -0.109256834 -0.45441207 -0.47402743 0.13442643 -0.7018716 0.024972217 0.0072020777 -0.013344868 -0.2472941 0.124690086 0.11680451 -0.022676636 0.28878778 -0.09961275 0.3088351 -0.18738572 0.16293912 0.2627818 -0.1527029 -0.10319933 0.17109348
162 0.20327517 0.31009305 0.26452085 0.11842371 0.14503206 -0.11441568 -0.029989757 -0.21660617 -0.2694094 0.29749724 -0.107450895 0.4413878 -0.05863241 0.12771785 0.033631004 -0.03996939 -0.17986119 0.14430422 -0.021776812 -0.3474466 -0.07084159 -0.04239395 0.1789512 0.037681725 0.25918865 -0.081728905 0.24703349 -0.07501122 -0.40019816 0.17196742 0.3574412 -0.15595113 -0.17004935 -0.26419452 0.26047242 0.13393576 -0.088805705 -0.20712817 0.1813675 -0.048628137 -0.35974598 0.49265182 -0.13960299 -0.10037778 -0.03298196 0.037253644 -0.54149413 -0.045156863 0.12087476 0.1743615 -0.180961 0.1994456 0.030676652 -7.1915536e-05 -0.43242055 0.0013785432 0.058103118 0.18172966 -0.10185792 -0.1162629 0.12635241 0.27403858 -0.047239456 0.020807834 -0.07881615 -0.16985178 0.030044522 0.40806985 0.16626146 0.2730305 0.36836025 0.10295299 0.25021955 0.12879004 0.1916076 0.050970264 -0.12248079 -0.1372099 0.009129453 0.26970738 0.2835814 -0.1862361 -0.19473772 -0.07502326 -0.059946634 0.09534741 0.09496574 -0.14907917 0.30385146 0.312169 0.080408 0.07350976 0.028794562 -0.1743494 0.017178645 -0.15055788 -0.18367308 0.30154532 -0.11338657 -0.1802382 -0.41284412 -0.11144016 0.042266287 -0.024021024 -0.13358155 -0.23482285 -0.00988781 0.03661205 -0.13327473 -0.124853544 0.11312766 -0.18627346 -0.09938828 -0.12913217 0.049594015 -0.3582897 -0.04377008 -0.28304526 -0.040916435 -0.13121368 0.23074795 0.04308623 -0.055660993 0.1569455 0.07025795 0.18776445 -0.13836949 -0.014765482
26 0.52845025 -0.4066698 0.27502856 0.29253405 0.84123343 -0.873007 -0.229469 -0.346578 0.33501807 0.44477978 -0.022989241 1.0177625 0.2699043 -0.16212024 0.63934094 -0.05340225 -0.07752105 -0.2028705 -0.04754312 0.066144705 -0.5215114 0.44656107 -0.10618018 0.37383276 0.9451048 0.22757743 0.26289 -0.57546514 -0.21388267 0.9620133 -0.16357288 0.3450838 0.21615937 -0.030728469 0.99731576 -0.12524472 0.04123747 0.22051413 -0.20268017 -0.23913038 -0.4070194 0.6860776 0.5317 -0.20479597 0.29949537 0.005853118 0.24220265 -0.043685783 0.08121722 0.79920006 0.84580296 -0.73991233 -0.075174645 -0.7758987 -0.4056108 0.14131874 -0.38861322 0.6668703 -0.36406487 -0.06231372 -0.5069464 -0.31048158 -0.3187856 -0.102222025 -0.27706105 -0.5584262 0.32447216 0.57858306 -0.15389639 0.072138876 0.015518294 0.5545851 0.7581939 0.22864474 -0.10436694 -0.08461584 -0.17625289 -0.16088994 -0.36625063 0.07734238 0.76924235 0.40914947 -0.5337114 -0.10775478 0.5835815 -0.002198868 0.39596838 -0.7045968 -0.18381506 0.13061157 -0.08315945 1.0315874 -0.12273467 0.047957998 0.050791323 0.036777586 -0.046087287 0.6717929 0.25958517 -0.23742557 -0.8889707 -0.22225009 0.68429613 -0.32350272 -0.2595738 0.6039965 -0.23511231 0.15356126 0.23907863 -0.8357703 0.36537105 0.0033785668 0.054259576 -0.16082425 -0.67852765 -0.35888723 -0.7547785 0.029611481 -0.098548815 0.34686214 0.6619111 0.24441604 -0.24336387 -0.086456574 0.1430577 -0.55683136 0.07473641 0.09819562
56 0.45451766 0.19188595 0.08331679 0.25716352 0.1038106 0.025584266 0.0047601527 -0.14121698 0.15594718 0.28786987 0.13446395 0.34006944 -0.04141045 -0.28586572 0.07146803 -0.046649396 0.110857874 -0.028539257 0.22459544 -0.2580342 0.21496369 0.021238457 0.17381114 0.26307532 0.47533572 0.065591164 0.040245667 -0.37470284 -0.036944415 0.35850945 -0.028628014 -0.10207895 -0.09696211 0.03867664 0.21523991 0.22952315 0.059531126 -0.09536169 0.2862292 0.35068113 -0.10921745 0.20751382 0.3538686 0.00333803 -0.1067256 0.07912226 -0.3987162 0.21810763 0.034042805 -0.2097527 -0.6500608 -0.09987226 -0.298574 0.06818639 -0.3984174 0.06940043 0.1537832 -0.2084294 -0.04630869 -0.107035294 -0.042886384 0.2948949 -0.2520111 0.14789806 -0.27814102 -0.3951166 -0.14183772 0.02882868 0.050454147 -0.033406217 0.029666105 0.38098535 0.4588927 -0.10453616 0.047648303 0.46466675 -0.2828208 -0.20502187 0.028537199 0.1358954 0.17037264 -0.15732583 -0.017503198 -0.18051259 0.07739831 0.19326317 -0.17680381 -0.39203915 0.25257978 0.066717125 0.26001713 0.39940947 -0.52378243 0.06970442 0.13959928 -0.39197192 -0.15693657 0.23101746 0.020329386 -0.03348885 -0.58015996 -0.06900032 -0.08639025 -0.24001533 -0.0094433315 0.23066072 -0.3275146 -0.13629642 0.37512308 0.16494328 0.2245991 -0.46548182 0.25130656 -0.027534457 -0.25431967 -0.1653427 0.21746045 0.13448085 0.4159967 0.21127279 0.13364303 0.16124386 0.34867644 -0.04043845 -0.28536785 0.0020222943 0.24377744 -0.04328634
59 0.4290542 -0.18945335 -0.1804844 0.34042746 -0.08621889 -0.12635072 -0.06368718 -0.16382405 0.13329597 0.21313098 -0.1576994 0.12923075 0.055452213 -0.15409726 -0.005504593 -0.2580772 0.13942218 0.09362633 -0.25411445 -0.23820303 -0.3992811 -0.1110497 0.13329755 0.06861253 -0.19016401 0.16328849 -0.10725235 -0.33871734 -0.12592815 0.18526442 -0.34579173 0.19681919 -0.18782291 -0.049191456 0.27201417 -0.12777422 0.36229193 -0.19528629 0.042630505 0.31893176 0.16562027 0.17079273 0.0041357377 0.41871634 -0.110471904 -0.3298478 0.24609004 0.03329332 0.14569256 -0.17035031 0.29733527 -0.041599214 -0.047050077 0.03461086 -0.4043325 0.002128747 -0.15992942 -0.05146249 -0.016151244 -0.12491672 -0.00036958547 0.07840433 0.011815508 0.10518048 -0.03562838 -0.3607797 -0.052475654 0.25074583 0.13169037 0.5978098 0.070433356 0.11403418 0.2670346 -0.07603827 0.3092519 0.11835351 0.32796493 -0.1389481 -0.2078978 0.47205094 0.03927446 -0.13353549 -0.15317345 -0.052398667 0.14009064 0.112330794 0.077872135 -0.13943447 0.19215807 0.00052944646 0.2900168 0.042952802 -0.028970655 -0.24747162 0.002397816 -0.27894807 0.017114222 -0.20621318 -0.04668569 -0.058583833 -0.011561003 -0.086934604 0.11623088 -0.3988917 0.23031202 -0.24302475 -0.18541837 -0.35276836 -0.22547151 -0.096528605 0.35467458 -0.03321002 0.18495747 0.3658263 -0.06909494 0.14854413 -0.33309147 -0.31059164 -0.100736305 0.3284391 0.18755573 0.3191308 -0.25103515 -0.5697904 0.1203057 -0.0838509 0.28034216 0.008078096
310 0.27982944 0.1410815 0.118561976 0.014426727 0.0003304017 -0.20903584 0.2438391 -0.00024761586 0.2654243 0.36309433 -0.4328416 0.341341 0.09358823 -0.36343214 -0.2315424 -0.09110194 -0.0008917372 -0.010404221 0.112531334 0.22264174 -0.42058417 0.41328317 -0.2973919 0.13753846 0.46496508 0.22566254 -0.24134491 0.0769374 0.016076112 0.10005119 -0.046191253 -0.17245674 -0.3650397 0.21115918 0.43342978 0.21719745 0.12980422 0.008890022 -0.057200484 -0.06257948 0.1883138 0.20618267 0.20294075 0.04157796 -0.33464172 -0.026321482 -0.007829594 0.38430786 0.14121147 0.42418382 -0.44593298 -0.08029075 0.08057862 0.085814804 -0.11950638 -0.10044676 0.0061226143 0.25301853 0.6231752 0.23372743 -0.17861505 0.49681857 0.1446356 0.13292108 -0.056961324 -0.28438252 -0.13701771 0.3118742 0.25884458 0.16618912 -0.01623297 0.12900084 0.17903873 0.01989749 -0.048200477 0.29189745 -0.021713002 0.14040904 -0.16177809 0.023195963 0.25546184 -0.12835157 0.1751037 -0.21107607 -0.30331808 0.06052273 0.06660928 0.0011613116 -0.077540144 -0.12518322 0.22543655 0.04011302 -0.027109224 -0.21719477 -0.2760797 -0.06875522 -0.44067428 -0.07369429 -0.05865723 -0.069020584 -0.2752547 -0.26832595 0.21242082 -0.31629404 -0.08940712 -0.035624336 -0.1898707 -0.023238137 -0.08270982 0.15529212 -0.01616957 -0.24879956 0.16203222 0.06670664 -0.110874824 -0.22514282 -0.58724 -0.23534697 -0.07249411 0.028492836 -0.23798038 0.19161417 -0.36978665 0.15132447 -0.41697124 -0.3072171 0.0831715 0.009089633
143 0.6773869 -0.11058814 0.120486535 -0.038289413 0.3359302 0.06439059 -0.39530548 0.036917817 0.08898621 0.14922985 0.28630626 0.34740195 0.07077833 0.06863055 -0.07381459 0.25985488 -0.026668591 0.09968189 -0.08338964 -0.22348809 0.17366688 -0.029077867 0.4239848 -0.22935992 0.21096128 -0.18298107 -0.13548209 -0.30140454 -0.19652936 0.05171338 -0.07661541 0.1141436 0.048834905 -0.27440527 0.27543315 -0.19885898 0.25974026 -0.13683046 0.16915971 -0.09050316 -0.52505624 0.050148774 -0.10332664 0.013172305 -0.13464089 -0.17161275 -0.3680699 -0.007548843 0.4751736 0.09104436 0.12436676 -0.040977497 -0.008983107 -0.088282496 -0.33448818 0.3307197 0.29893267 -0.099970326 0.1331353 0.04056321 -0.24351455 0.29472387 0.02714488 -0.13428935 0.34901878 -0.53803796 0.3758107 -0.2157977 0.16240603 0.07308377 0.07938809 0.33450004 0.35733888 -0.11574256 -0.20358309 0.51611996 -0.29786962 0.24368905 -0.022191338 0.21148543 0.0764328 0.12952746 -0.14702454 -0.1152508 -0.1322687 0.13772509 -0.32422993 -0.04825741 -0.29772028 -0.10119882 -0.27163363 -0.094787404 0.12786326 -0.18505776 -0.24132311 -0.44701695 -0.28169078 -0.104749106 0.06423941 0.08033456 -0.14149673 -0.359345 -0.10666911 -0.43669495 0.113590464 -0.11127851 -0.22087568 -0.04917186 0.16878788 -0.3039873 0.059626903 -0.31384212 -0.07250891 -0.11554277 0.17555049 -0.07217338 -0.2610823 0.046755623 0.075824015 -0.25659797 0.24191158 0.059609517 -0.14012665 -0.043144215 0.11735875 0.014865113 0.1785299 0.206429
126 0.2930329 0.09137875 0.29067537 0.38677955 0.19633888 -0.123939395 -0.10232358 -0.16724595 0.022195673 -0.041954227 -0.0030922347 0.39935073 0.06251776 -0.39797243 -0.16941284 0.08511652 0.2489901 0.0901243 0.054533266 -0.05693603 -0.08119386 0.052303396 -0.062326975 0.08910595 0.5060706 -0.26108345 0.18094184 0.044504166 0.075140886 0.1960542 -0.07482321 0.22534567 -0.40642348 -0.038890664 0.36506137 0.09749968 0.16312933 -0.1361189 -0.091841124 0.031620976 -0.2500088 0.19042659 0.23401093 -0.06389544 -0.3966637 -0.042853564 0.23228782 -0.09015973 -0.26542336 -0.3091631 -0.17541239 -0.31657386 -0.17274334 -0.39179292 -0.13477117 0.24304846 -0.022520045 0.05665115 -0.23709208 0.08423598 0.0128585715 0.20313352 -0.17852135 -0.14343415 -0.085692495 -0.22188455 0.13050309 0.028447587 -0.20467068 -0.121755764 0.38717908 -0.021758575 0.37097657 0.2206423 0.17859682 0.081471056 0.47210604 0.15621534 -0.17023109 -0.19162668 0.12250628 -0.029366385 0.098746255 -0.43068725 0.05651528 0.072348066 0.060651563 -0.041634563 -0.07036985 0.3514311 0.20991789 0.007978017 0.0225446 -0.28325328 -0.009279321 -0.039569072 0.11445432 0.24354313 -0.2802483 -0.34411615 -0.053620923 -0.23056452 0.13744883 0.15762337 -0.34176123 0.07036861 -0.3160738 -0.364224 -0.079769656 0.12125599 0.14491716 -0.40416437 0.072281346 -0.13353035 0.07999208 -0.7119743 0.1489623 0.052436434 0.058644775 -0.16590232 0.16240093 -0.08042416 -0.14727531 -0.20058118 -0.050178714 -0.08955439 0.026489759 -0.07021964
233 0.022868853 0.034170013 0.18044068 -0.21046056 -0.15226872 -0.31042224 -0.20718442 0.13370314 -0.20592347 0.30425414 -0.10652532 0.3994637 -0.079716474 -0.34070727 -0.33713663 0.25146532 0.22239144 -0.22169292 -0.08890609 0.062230173 -0.18182437 0.33736938 0.23746487 0.0005172545 0.4408623 0.12075614 -0.060773738 -0.23241189 0.08019773 0.44803005 0.049708523 0.25962147 -0.0025003639 -0.07704466 0.38889885 -0.16843064 0.45195112 -0.36496592 -0.39043683 -0.0071104662 -0.40742227 -0.07658376 0.30009618 0.099809386 0.30077657 0.009931865 -0.038900696 -0.096969225 0.20243877 0.1122895 -0.30535293 0.14268869 -0.0032813621 -0.015095475 0.0002858934 -0.30569243 0.09896336 0.043871574 0.05016485 -0.08490656 0.030740205 0.45776033 0.43597418 0.07822704 -0.094442815 -0.29627588 0.08984508 -0.19224364 0.2100946 -0.023458555 0.1186357 0.28309885 -0.0355553 -0.015858412 0.37740216 0.11834939 0.21564117 0.06082434 -0.08549236 -0.22332917 0.20946994 -0.19512635 -0.33678383 -0.18613805 -0.076090805 0.029924022 -0.050061505 -0.18258378 0.07692275 0.21538952 0.41742164 -0.048463847 -0.033340435 -0.11341315 -0.04249966 0.045510095 -0.3703092 0.06578593 -0.12601443 0.06049238 -0.11165305 -0.3250146 0.2721067 0.036138833 -0.22040315 0.019591894 -0.2892986 -0.031697143 -0.17184517 -0.33673102 -0.14259782 -0.44083863 0.045005117 0.058245555 0.051894337 -0.26000518 -0.19665582 0.063754074 0.072101004 -0.2187593 -0.11913972 0.3909152 -0.19007617 0.008135677 0.24303773 0.07351992 0.1428124 -0.048303954
117 0.2777397 0.29633692 0.04788081 0.21433002 0.1668332 -0.14615868 0.07718732 -0.008410392 0.14717998 0.57756424 0.123871915 0.24693555 0.36772296 -0.19356139 0.021599412 0.14140773 0.48928767 0.274224 0.06234186 -0.23659924 -0.43448442 -0.14676149 -0.11181364 0.20660524 0.12495521 -0.17622332 0.02747975 -0.47009337 0.09205247 -0.052309517 -0.03406146 0.29899603 -0.23429489 0.05666643 0.122520015 -0.004728094 0.24756792 0.021499902 -0.21561751 0.21555081 0.14949879 -0.10881813 0.15560272 0.08513352 0.28194937 -0.007306621 -0.39656702 0.116759636 -0.121058926 -0.020397633 0.02611341 -0.15991591 -0.12510695 -0.564089 -0.03170452 -0.39341965 -0.018926319 -0.2807908 0.31726527 -0.25299928 -0.055245727 -0.20661323 -0.25930345 0.07508283 -0.2554623 -0.37099448 0.22681716 0.022542307 -0.17363012 0.19014332 0.3331048 0.04589693 0.012257305 0.14014259 -0.049568716 0.2545304 0.16177697 0.09259571 0.03152583 0.46066728 0.39712545 -0.3207372 0.034678284 0.045467857 0.12981822 0.3261011 -0.21501891 -0.38684475 0.032336097 -0.09788256 0.18545963 -0.22751813 -0.07021216 0.008475998 -0.25278726 -0.20653531 -0.28224993 -0.35553125 -0.5396259 -0.27145058 -0.4028887 -0.2592066 -0.14805229 -0.29726976 0.04704494 0.15663803 -0.071677126 0.08965035 0.25401485 -0.17904833 0.09692275 -0.043325797 0.04772144 -0.3899449 -0.07424125 -0.4885184 0.015818669 -0.041280884 -0.02994134 -0.24121486 -0.33295926 0.30638683 0.0827545 0.109606236 -0.13212118 0.24778879 0.1909874 -0.13725653
258 0.06975548 -0.15551905 0.11034524 0.18125351 0.0632191 -0.029602462 -0.074355155 0.2189715 -0.0443455 0.25626966 -0.06001389 0.2138352 0.07596056 -0.0060739084 -0.09467808 -0.17651033 -0.02315991 -0.4088675 0.14447056 -0.44488215 -0.33848438 -0.12601504 0.07463424 0.1805923 0.42122668 0.08950402 -0.03329927 -0.4138586 0.08159533 0.14591068 0.25143924 0.1339391 -0.072846875 -0.0947097 0.22485517 0.24838418 0.21202822 0.06550258 -0.09750366 0.049756363 -0.061320692 -0.2068719 -0.0468964 0.14495446 -0.076945774 -0.0006042765 -0.1510145 -0.13237317 0.2877051 0.4728224 0.07515232 -0.18408544 -0.31110102 -0.09415846 -0.32361582 0.012270922 0.2645078 0.15763992 0.10172979 -0.25784224 -0.04801267 0.10539634 -0.2627778 -0.07734011 -0.37394306 -0.47658312 -0.16840315 -0.15306589 0.16880561 -0.11787021 0.046333533 -0.18039787 0.2984148 0.09351406 -0.31508297 0.3543245 -0.045810096 0.2561007 -0.15997137 -0.01313387 -0.0045970776 0.33327106 -0.13395093 -0.25869864 0.08576739 -0.13906367 -0.24538839 -0.35578823 0.07525727 0.21760859 0.36954817 0.04826286 0.32131824 0.08957407 0.06188685 -0.08221769 0.006591335 0.038806114 -0.0678183 -0.38985565 -0.21781427 -0.1769436 0.18823265 -0.28916928 -0.1972499 0.059994884 -0.32948643 -0.1379578 0.09811698 0.10079439 -0.048002746 -0.11440579 0.2090442 -0.2859829 0.2817116 -0.3319939 0.034658425 -0.04450424 -0.14175504 -0.3895605 0.41264352 0.4953299 -0.077688865 -0.35973832 -0.23817614 0.014183571 0.052006934 -0.1960663
129 0.5446791 0.17873661 0.53404945 0.12593202 0.11232649 -0.13299268 0.017108083 0.06503779 0.08428667 0.58142596 -0.008954056 0.16724062 0.12741978 0.077195 -0.027706474 -0.040055066 0.18255608 -0.16995429 0.084098294 -0.06425218 0.023894351 0.15860292 0.31959152 -0.2575895 0.1885246 0.14859216 -0.098860234 0.27915978 -0.012262542 -0.040043596 0.16561949 0.14394931 -0.02724935 -0.011952575 0.06156561 0.027904116 -0.06212475 -0.19583145 0.022387004 0.13055114 -0.2039328 0.29317778 0.06147526 0.1412396 -0.14642872 -0.28223544 -0.26085716 -0.27090046 -0.09667048 0.2935552 0.06744613 -0.07862761 0.10957883 -0.10739759 -0.585133 -0.1088699 0.20607112 -0.06322908 0.1294587 -0.18425848 -0.09636006 -0.14993255 -0.16583079 0.2385699 0.35924506 -0.25866717 -0.1134428 0.2679103 -0.29028302 -0.12935165 0.18310097 0.063096546 -0.23862264 -0.076160684 -0.03709887 -0.037194703 -0.32250693 -0.19640043 -0.1655077 0.1821699 0.2573642 -0.13843456 -0.25979182 -0.22305469 -0.06762662 0.043178648 0.17595792 0.054339785 -0.24548042 0.13256603 0.21849093 0.08022757 -0.06760782 0.10647276 0.00873864 -0.04424876 -0.11990621 -0.24456707 0.14246735 -0.3109285 -0.34817892 -0.34763187 0.2439185 -0.06736563 0.039305862 -0.24165525 -0.12447116 0.034821607 -0.36769655 -0.087413825 0.109215826 -0.286079 0.17185755 -0.19495155 0.19094345 -0.5114485 -0.09425204 -0.19795528 0.22166978 -0.2620307 0.06401378 0.3395781 -0.18975252 0.055759255 -0.23010099 0.06810587 -0.098080516 -0.06594527
334 0.19129445 0.047508404 0.1553651 0.12971349 0.0690256 -0.018950516 -0.32227108 0.002631548 -0.099306874 -0.012693178 0.13724639 0.114968866 -0.109313525 0.102921225 0.20267493 0.019924885 -0.029759917 0.0021735823 0.11138904 -0.3199596 -0.13946484 -0.16335954 -0.008938609 -0.096987605 0.08651028 0.07489618 0.10740693 -0.3250385 -0.056146607 0.1354148 -0.0065079117 0.0634153 -0.011647686 -0.057149176 0.07728573 0.23991284 0.10752968 0.07453681 0.36082977 0.110789835 -0.04502713 0.34704852 0.14000472 -0.19683985 -0.2845663 -0.35400465 -0.14850987 -0.012208445 0.32789642 0.33884904 -0.11043294 -0.27923185 -0.082512386 -0.3547005 -0.21951121 -0.1654107 0.306751 -0.13061485 -0.23161374 0.030981075 -0.21529022 0.3500637 -0.057309207 0.12888594 -0.1160564 -0.35912374 -0.008084133 -0.11723587 0.13632198 0.1864026 0.14127274 0.5426612 0.39517418 -0.1266203 -0.012295866 0.003927077 0.01779729 -0.17159547 0.21519531 0.2835922 0.49565887 0.26596332 -0.07960993 -0.19747916 -0.15911241 0.31624803 -0.09543319 0.11797143 0.17283162 0.16469003 0.17256935 0.13318835 -0.059397448 -0.29750142 -0.0016441545 -0.10521892 -0.27892986 -0.15060613 -0.19588566 -0.37360808 -0.10987675 -0.40932637 0.34867394 -0.004707784 0.24254413 0.032414738 -0.22843015 -0.16716112 0.17414635 0.37238225 0.18295273 -0.48676184 -0.2464148 -0.0024071115 -0.04662092 -0.5889201 -0.052407295 -0.056360327 0.21559773 0.16076863 0.18186632 0.1512685 -0.44853497 -0.15536524 0.214585 0.11809924 0.04953678 0.2452801
9 0.5079059 0.07494913 0.24501196 0.34306452 -0.019630449 -0.053254966 -0.46958143 0.5553918 0.574201 0.41982955 -0.121831216 0.62653744 0.18587852 0.08658945 -0.16186878 0.14259951 -0.16264537 0.022320077 -0.17495725 0.16959369 -0.1776365 0.57433003 0.21631706 0.336327 0.17513731 0.32867634 0.10303914 -0.35566717 -0.2230347 0.43436798 -0.14223263 0.52725565 -0.50784886 -0.2829652 0.096924715 0.082194395 0.49432388 0.0012281704 0.38571343 -0.11026251 0.06895137 -0.2561397 0.06986968 0.5817607 -0.5296901 0.1504226 0.14416273 0.49096894 -0.33392146 -0.018898036 0.18775712 -0.24627152 -0.017812315 -0.21122031 -0.5334242 -0.47335243 0.36233148 -0.03501468 0.16909567 -0.3100518 0.054615065 -4.7249778e-05 -0.37505314 0.2089973 0.052498184 -0.5346416 -0.16634798 -0.042251114 0.40234756 -0.0067041814 0.07010173 0.20220272 0.1982338 -0.02355805 -0.04193071 -0.5897325 -0.12537079 0.00585723 -0.27736482 0.24017495 0.50324345 0.14676121 0.23242927 -0.20182028 0.08970143 0.056264386 -0.3411886 -0.20873865 0.017574957 0.2332541 -0.03241003 0.44299132 0.24833542 -0.1685792 -0.64122486 -0.050566003 0.007259123 0.0253586 0.12745613 0.13422588 -0.5664516 -0.11118356 0.078258984 0.55991995 -0.18433638 0.1604965 -0.19396125 -0.29125103 0.3624593 -0.2665662 0.45127666 -0.056587156 -0.089784086 0.20507523 -0.1967055 -0.2913314 -0.14008708 0.116275236 0.3615933 -0.07008594 0.2219644 0.38971508 -0.0967531 -0.16517967 0.2303568 -0.01070315 0.17859669 -0.18639822
62 0.25045905 -0.21555719 -0.027339341 0.17469284 -0.015895672 -0.10308574 -0.114180006 -0.020945018 0.015964286 0.3254294 -0.21742411 0.29587638 0.17051037 -0.32050812 -0.057793245 0.3557129 0.25138122 -0.291427 -0.020909255 -0.048732653 -0.21295987 0.28417107 0.22219601 -0.2562398 0.5792729 -0.16445614 0.22419515 -0.042036492 0.1218827 0.40804932 -0.24967286 0.08075054 0.34221607 0.019971656 0.32156733 0.08607426 0.51966316 -0.3036512 -0.040195305 0.037481405 0.16395569 -0.09090963 -0.108815946 -0.18271786 0.021023972 -0.39761227 -0.13633583 0.29414204 -0.40048042 0.15434761 0.23990928 -0.18707685 -0.08441329 0.08895478 -0.06869779 -0.29354587 0.29998744 0.1962262 0.10607413 0.009811167 0.025628058 -0.1917445 -0.25061756 0.16146131 -0.3012161 -0.20473194 -0.061626796 -0.18950178 -0.08412613 -0.044840366 0.1359327 0.4055428 0.198211 -0.040371496 -0.38342303 0.45126486 0.28131455 -0.3464218 0.38633934 0.0528671 0.17896779 0.076658584 0.21497402 -0.014336584 0.40343788 0.0052638375 -0.10211236 -0.31353974 -0.3901129 -0.26524523 0.18946868 -0.0561366 0.30759087 -0.07520456 -0.12517092 -0.16534017 -0.14637552 -0.017237755 -0.18496029 0.11962326 -0.2229507 -0.27866924 0.22566439 -0.22451162 -0.1927322 -0.09591832 -0.17218281 -0.06320889 0.08843702 -0.0027420553 0.32396513 -0.33955592 -0.07608363 -0.165104 0.16998656 -0.39029056 -0.07920942 0.010161607 -0.18138449 -0.26946786 -0.1451161 0.069673 0.22089817 0.19921172 -0.47513878 0.011950002 0.22207198 -0.119395025
120 0.032706458 0.012672032 0.25340912 -0.14736052 0.21304376 -0.22880971 -0.16224372 -0.18989524 0.1436974 0.52533835 -0.018710569 0.24163608 0.483147 -0.14574924 0.13006037 -0.035902444 0.12943433 -0.06370197 0.23423897 0.35157302 0.29148835 -0.03447 -0.32495886 -0.09791142 0.21006244 0.1616327 0.021472447 0.039168645 -0.1783647 0.2522762 0.2791552 0.21399811 -0.16048135 -0.0017197151 0.61064667 0.21120113 0.14901145 -0.11098185 0.20533599 0.17151207 0.02292521 0.30974704 -0.11998133 -0.024955168 -0.13050169 -0.016612453 -0.17278431 0.13884667 0.15382497 0.015351646 0.08293744 0.06177095 -0.28517148 0.13414112 -0.5784687 -0.067379944 0.02556604 -0.3570071 0.2032272 0.33226594 -0.028559266 0.06139774 -0.16404618 -0.11318715 0.22829498 -0.18218987 -0.44375646 -0.18744731 0.07985758 0.17947502 0.18934774 0.22085564 0.0962143 -0.28377104 -0.04171158 0.2303785 0.03469808 -0.32237872 0.27631518 0.44787508 0.24632145 0.059070885 -0.042850956 0.08008466 0.1175816 -0.043448985 -0.1888615 -0.1855034 0.11687494 0.23496363 0.017596137 -0.14323069 0.2763831 -0.07492771 -0.25159225 -0.07400088 -0.25621164 0.021605605 -0.030813944 -0.03053711 -0.23824093 -0.013320507 0.48780492 -0.30043557 -0.15265961 -0.056912284 -0.32762814 -0.06992139 0.20956267 -0.07216788 0.268167 -0.2678791 -0.18581478 -0.18489389 0.006188665 -0.5341159 -0.01455279 -0.20053175 -0.103207536 -0.15471599 -0.13111919 0.17188597 0.17426506 0.04758668 -0.012239746 0.34740737 0.15290672 0.19710226
132 0.11098372 0.12476063 -0.094473414 0.04642271 0.29977682 0.111151256 -0.005073617 -0.1914047 0.30842444 0.19545348 0.33170977 0.16606028 0.25200856 -0.24401347 -0.22357453 0.047701064 -0.029521756 0.012043142 -0.010917449 -0.34763855 -0.15688545 -0.08870496 0.21838288 -0.12108483 0.107012235 0.13291785 0.44584575 0.067283005 0.017720666 -0.116441995 0.22647798 0.1833044 -0.1333441 -0.057449814 0.12796721 -0.03223541 0.48261818 -0.041461587 -0.0498574 0.4246537 -0.0035482838 0.01899524 0.01025631 0.3396382 -0.09828016 -0.3168031 -0.054692082 0.14938219 -0.054649606 0.19751838 0.09699156 -0.4348442 -0.28845224 -0.12624234 -0.2144575 0.09895279 0.39517236 -0.29788452 -0.0976933 0.05410416 0.08646486 -0.012319036 -0.07589835 0.20043437 -0.05739546 -0.5257591 -0.17485392 -0.11967757 0.39627346 -0.081891075 0.46464878 0.18732058 0.16309085 0.04555715 0.12757121 0.4997894 -0.062585644 -0.19824843 0.0013362957 -0.01817333 0.03830565 0.06303765 -0.27276343 -0.19630344 -0.029074326 0.14691637 -0.09643816 0.19196175 -0.11664477 -0.066546984 0.3312007 -0.1279521 0.41698143 -0.078860804 -0.15485926 -0.6430262 -0.16693303 0.3347376 -0.19373466 -0.074810006 0.10146049 0.13639551 0.15925308 -0.073786736 -0.07007274 -0.08100508 -0.10803775 0.030548139 0.5611838 -0.02539316 0.33151507 -0.5134447 -0.14458631 -0.23356664 0.08709176 -0.35668173 -0.23921119 -0.1437748 0.046033464 -0.09340409 0.07359265 0.026125608 0.15386538 -0.4123899 -0.003850077 -0.047201738 0.3324123 0.1478984
40 0.27145424 0.020329555 0.30801147 -0.38201433 0.2887589 -0.5533037 -0.28712457 -0.3792127 0.2146067 -0.21733762 0.11147927 0.654248 -0.16318868 -0.0931106 -0.2818762 -0.15973465 0.1565761 -0.26364833 -0.1348882 0.24584988 -0.05129772 -0.17778425 -0.122261845 0.3323944 0.2787792 0.3662479 0.063126594 -0.33112854 -0.08292294 0.27824584 0.22768661 -0.07581289 -0.17768253 -0.23164211 0.31373575 -0.30290952 0.115850314 -0.15782975 -0.016196446 0.77449733 -0.5011778 0.44081703 -0.15102506 0.67943287 0.13627677 0.21200424 -0.05901492 0.8324225 0.32647595 0.74438924 0.357392 -0.19816352 0.056916896 -0.37437743 -0.49120957 -0.1310931 0.15868671 -0.20865293 -0.23418501 0.32959953 -0.010859136 -0.1706342 -0.06341347 0.55465865 -0.3739752 -0.6810579 -0.32111332 -0.2303273 -0.05237544 0.19250125 0.61714816 -0.047389854 -0.51044995 -0.17501983 0.119719595 0.22798893 -0.26348856 -0.293202 0.013691253 0.23589166 0.41324726 0.15295377 -0.32167798 -0.025667863 -0.06192759 -0.22407746 0.52899134 -0.041400224 -0.0319515 0.26640993 0.21378367 0.25515345 -0.16610417 0.24819696 -0.39234358 0.10033482 0.066417865 -0.16229196 -0.3420105 0.07729074 -0.3120592 0.050642136 0.32563096 -0.27244154 -0.6803143 0.08800309 0.14598313 -0.037107397 0.27637 0.057635352 0.17517596 -0.7516127 0.13386062 -0.13223346 -0.17075333 -0.2568967 -0.470193 0.009954481 -0.10212776 0.042499762 -0.11308263 0.39324525 0.094603635 0.14490129 -0.102507584 -0.13081986 0.45020947 -0.20558451
