349 128
1 0.14567098 -0.038521245 0.04311754 -0.16113865 -0.14255235 -0.2159292 -0.09518396 0.038797542 0.18427801 0.14245827 -0.034853306 0.08758306 0.16364583 0.16523942 -0.04835714 0.3200927 0.03217555 -0.103395104 -0.071899906 -0.0727984 -0.0927274 -0.057219796 0.16659606 -0.02468958 -0.06186793 -0.15512152 -0.03274442 0.040672768 -0.17809199 -0.056355625 -0.0998108 -0.18199126 -0.09154969 -0.20018499 -0.19282568 -0.03913215 -0.06624795 0.019464198 -0.02684773 0.14141408 0.14300336 0.3987592 0.14124317 0.03881672 -0.19393896 -0.103456326 -0.075631164 0.19274603 0.21240832 0.085076846 -0.20318314 0.1368366 0.21902977 0.06509842 0.09225854 -0.22560455 -0.18584265 -0.23066635 -0.089785114 0.13043997 0.38885435 -0.054201897 0.1684951 0.06649983 -0.101960495 0.08263706 -0.09286564 -0.09663657 0.104176305 -0.05501412 0.23620974 0.13536726 -0.038592122 0.12590568 0.11372675 -0.035217512 -0.009154648 0.0029176788 0.021351159 -0.01919482 0.076124065 0.26512203 -0.15007578 0.08421759 -0.0028187688 0.08950416 -0.13417886 0.02477069 -0.0033336445 -0.05991618 0.3011012 -0.06358442 0.33638066 0.043435317 -0.1640037 -0.088896826 -0.10520875 -0.088886775 0.21973607 0.034098107 0.19694075 -0.105710015 0.00812291 -0.08440324 -0.002716038 -0.019645678 -0.02069584 0.010372528 -0.20827672 -0.09854748 0.06986245 0.15682273 0.026253702 -0.23444389 -0.061587557 0.10866443 -0.08781823 0.16728373 -0.19085306 0.051558927 0.0076872273 -0.01842438 -0.099097 -0.022190154 -0.16638494 -0.03596236 -0.11162875 0.28127047
38 0.2841354 0.15802339 0.021977138 -0.18224247 -0.10771342 -0.34070382 -0.023766188 -0.56446576 0.29455593 0.22063078 0.03504994 0.18934432 0.2253022 0.22207886 0.2689853 0.083434016 -0.08944846 -0.014014911 -0.04552833 -0.16985092 0.27139366 0.43403676 0.10305784 0.12183589 -0.24686086 -0.36127043 -0.02527265 0.36925107 0.01932629 0.14169154 0.021066293 0.15026705 -0.3739216 -0.029277641 -0.37870544 0.013850267 0.42705232 0.10355121 -0.026842264 0.43552363 -0.13724901 -0.051253058 0.22782242 0.20532903 -0.050262216 -0.20009188 0.06097276 0.054478478 0.16329613 -0.13999884 -0.5221784 0.29155043 -0.029678829 0.3081401 -0.38355598 0.005078559 -0.16812369 -0.4634567 -0.08547579 -0.060859114 0.40229335 0.14467849 0.31641042 0.1018689 0.32508785 -0.05826728 0.1389743 0.29272604 0.4082313 -0.034237996 0.39152494 0.0072854483 -0.1675782 -0.4831816 0.17201397 0.21160983 -0.25461295 0.12687194 -0.011311074 -0.010665106 -0.25099158 0.4076257 -0.18559562 0.8839824 -0.09812149 0.090545505 -0.2166007 -0.39445543 -0.007542501 0.1309169 0.26714876 0.1655329 0.3519393 0.14189364 -0.3316076 0.1045874 0.19844784 -0.13156506 -0.22322324 0.14117098 -0.0028912153 -0.0867839 -0.24055411 0.4499935 -0.47059342 0.0016998831 -0.40303108 -0.012243199 -0.25239903 -0.290398 0.3889088 0.53502667 0.036371864 0.041457493 -0.25116867 0.40350404 -0.26326337 -0.13763 0.064528644 0.011205521 -0.15978344 0.07424135 -0.19262126 0.44705603 -0.08478432 -0.18113664 0.0023345936 0.106491216
93 -0.030367335 -0.2748896 -0.0024198904 0.25736037 -0.027959183 -0.24899669 0.043113686 -0.09429617 -0.14936204 0.62148964 -0.10412218 0.053684376 0.153696 0.016570257 0.12321766 -0.050786756 0.26627684 0.17924313 0.18335691 -0.16319439 0.18951385 -0.42639935 0.06817367 -0.052349597 -0.36981386 -0.1420948 -0.07841567 -0.22110014 0.2483175 -0.26857242 0.22066993 0.11724344 0.035802383 -0.12366948 -0.29918194 0.29299226 0.27814284 -0.22413838 -0.13690656 -0.04947224 0.015470279 -0.066979624 0.39192384 -0.21021868 -0.32027328 -0.2610976 -0.0963152 0.27227893 0.37730613 -0.034740247 0.08416334 0.13036245 0.28022224 0.1742088 -0.15952156 0.049888898 0.03331927 -0.56624275 0.015576952 -0.047802467 0.883699 0.19089359 0.21252896 0.009076622 0.053332068 0.2302257 -0.3949386 0.050123677 0.14116287 -0.2565301 0.5206354 0.13167033 -0.2245948 0.025455518 0.026433133 -0.18517342 -0.08653169 0.2507153 -0.17209585 0.5723667 -0.08314111 0.19539315 -0.48356202 0.2259025 0.26490757 0.07215388 -0.13067429 0.14493845 -0.14507201 0.27753988 0.25326174 0.053076092 0.45644894 0.152903 0.093883686 0.05131454 -0.13283983 -0.0729009 0.101488665 0.17974827 0.07014949 -0.21709703 -0.72603256 0.46909183 -0.19657214 -0.38438302 0.13813984 0.1733693 0.29381424 -0.15294021 -0.08797347 0.03486958 -0.2308894 -0.17050323 -0.013362072 0.43712908 -0.38723123 -0.00032932556 0.07350557 0.24439108 -0.38183615 0.18967535 0.054799676 -0.015685506 -0.02708366 0.52242 -0.6084348 0.36373132
71 0.111599654 -0.11972409 -0.039336696 -0.2476929 -0.16886595 0.25256675 0.06741516 0.33887136 0.380319 0.04264254 -0.20643796 0.16865332 0.0025503405 0.009951357 0.20394763 0.41812336 0.11365996 -0.084154196 0.02686175 -0.21118414 0.104536876 0.3293756 0.16161048 0.03634033 -0.37309152 -0.1514106 -0.42798558 -0.19326837 0.058677334 -0.0049053137 -0.10685664 -0.07301164 -0.39382327 -0.37201202 -0.39970765 0.29658148 0.004048028 -0.0036857692 -0.31003383 -0.11328594 -0.37117767 0.025699612 -0.045811668 -0.49755627 -0.13122681 0.28731975 -0.21965192 0.19578497 0.23054166 -0.2632543 -0.22227754 -0.062040664 0.32856226 0.21249019 -0.2617501 -0.15107882 0.2651686 -0.039052576 0.2088494 -0.19598265 0.3750216 0.089429 0.18603146 0.1470705 -0.0006971054 0.061032843 -0.17926164 0.15515652 0.33802092 -0.25119835 0.13049252 0.13608356 0.4111993 0.26866513 0.16962053 0.11517727 -0.1839061 0.04784604 0.18315688 -0.03204701 0.16256995 0.40450934 -0.44329366 0.55222416 0.18106577 -0.050663058 -0.10673594 0.36579335 -0.2682206 -0.07782486 0.2050726 -0.12288637 0.23509854 0.13107444 0.21677385 0.11110663 -0.022321474 0.4728492 0.2007904 0.32311037 -0.35139692 -0.40836775 -0.047772598 0.05543591 0.085414976 0.50648355 -0.25027677 0.27262148 0.21615992 -0.45147774 -0.13419834 0.040365882 -0.023845227 0.33903214 -0.22550619 0.46248862 -0.32079512 -0.1666006 0.13865729 0.3139425 -0.6080609 0.121895716 -0.15572569 0.12990034 0.20460346 -0.004164966 -0.17679055 0.25867343
146 0.19819637 -0.202465 0.28970486 -0.081623584 0.061976515 -0.18160945 0.23578537 0.24782638 0.35156214 0.34055245 0.42439097 0.32720697 0.06861417 0.26780826 0.24453528 0.39150855 0.4909618 -0.30210164 -0.058542863 -0.02300052 -0.040638056 -0.35032937 0.009036711 -0.16174664 -0.024776973 -0.14819267 -0.38167033 -0.12984331 0.018790122 -0.21886349 -0.04359657 -0.2336154 -0.11275579 -0.23221163 -0.19531077 0.17433095 0.1438222 -0.18516041 0.01922625 0.47161198 0.28382993 0.0948527 -0.3500732 -0.19761568 -0.036557835 -0.11747084 -0.23345067 0.44432777 0.47513106 -0.32014635 -0.108328626 0.17941669 -0.07271769 -0.012896779 -0.11138596 -0.46405697 0.1611951 0.1505493 -0.014703923 -0.12326729 0.4199731 -0.025860371 -0.104257435 0.1944201 -0.10601128 -0.02122666 0.3880425 -0.19806373 -0.12122418 0.13334292 0.10313293 0.38692072 -0.098953225 0.17601751 -0.21295461 -0.05304629 -0.08616019 -0.08365624 -0.019422278 0.008317341 -0.15059887 -0.14296657 -0.048342455 0.6135546 0.15024969 0.18045385 -0.2159139 0.111647375 -0.19872813 0.0560198 0.49615106 -0.15779789 -0.39661717 -0.13213675 0.07387801 -0.23347771 -0.112637214 -0.01630586 -0.3207673 -0.4010601 0.09873687 -0.25121307 -0.12608308 0.010475985 0.09936038 -0.4124907 -0.058810078 0.17495306 -0.10758952 -0.41167703 -0.33711997 0.5834779 -0.061340686 0.12761912 -0.20273292 0.2799428 -0.5730202 0.10196377 -0.0673265 -0.08860809 0.14560965 -0.16588148 -0.06535453 0.09057785 -0.18568653 0.27328727 -0.31470636 0.061066646
304 0.10777391 -0.040677793 -0.23259288 -0.13971892 0.23061946 -0.24676341 0.020686522 0.47608748 0.20155734 0.32311678 0.0069484706 0.53598785 0.4723863 0.14285773 -0.020560035 0.46123695 0.10708913 -0.11590155 0.29782748 -0.19029823 0.10742711 0.061087683 0.63991016 -0.053419795 -0.16296478 -0.5578421 -0.053084694 0.15855649 -0.3126046 -0.21324815 -0.24831633 0.21583574 -0.098203674 -0.057168107 -0.1251758 0.16840237 -0.2661217 -0.011086163 -0.090434 0.21422191 0.6618562 -0.15300009 0.30714023 0.09150685 0.03171618 -0.08822886 0.019825734 0.09708264 0.014904459 0.12877129 -0.18795267 0.28820026 -0.028279452 0.095447674 -0.18633054 0.3248073 0.17251088 -0.41498527 0.08085657 0.23390199 0.4238448 0.33192557 0.31205964 0.17988236 0.22989383 -0.101475015 -0.2875803 -0.018005569 0.04133489 -0.46466324 0.5616203 0.11962105 0.1320828 0.20669708 0.18187262 -0.08739467 0.06885904 0.22572935 -0.08985691 -0.06805668 -0.055348612 0.36078635 0.10161704 0.3088415 0.2113679 0.051391967 0.110112764 -0.020829631 -0.1298653 -0.0546964 0.26463896 -0.19664519 0.23748857 0.15823917 0.12684068 -0.09082352 0.09248503 0.14655738 -0.15004498 0.2974427 -0.15345667 0.19655547 -0.39708516 0.27971706 -0.32759282 -0.14920257 0.651706 0.04695196 0.28739855 -0.1735426 0.06509778 0.254377 -0.19272594 0.3191475 -0.04727912 0.41224313 -0.27707443 0.043187033 -0.1065721 -0.2318753 0.031782784 0.15912716 0.21717994 0.58490926 -0.18257982 0.09926976 0.32377884 0.3850374
252 -0.066693954 -0.104545064 0.14628147 -0.268111 0.05078711 -0.16104901 -0.2013628 0.2726387 -0.028650599 0.3608058 -0.2681757 -0.11458666 0.3062489 0.28056237 -0.12066509 -0.119029246 -0.0859454 0.10870244 0.15047061 -0.7992204 0.38780773 -0.1540863 0.34098375 -0.3543837 -0.23195958 -0.3477936 -0.22358674 -0.036949873 0.018827392 -0.18649971 -0.06100811 -0.08602641 0.14613052 -0.053087614 -0.31857428 -0.2522253 0.029146876 -0.20590541 -0.032229863 -0.16622901 -0.0047432235 0.03562659 -0.32616547 -0.23350829 -0.12562473 0.08481288 -0.13932389 -0.26270014 -0.072342485 -0.0001664121 0.34713525 0.12152337 0.2107278 -0.44154382 0.108019575 -0.711709 -0.0077703125 -0.11317784 -0.121951036 -0.24411148 0.46701747 -0.30293307 0.110006265 0.1807139 0.384539 0.23901516 -0.10568367 -0.42862076 -0.039928198 -0.1479067 0.15366344 0.13142155 0.035388637 0.064849876 0.31328243 0.35681888 -0.40750447 0.012574644 -0.17293952 -0.20126773 -0.0798644 0.09725654 0.18555991 0.5932119 0.032080892 -0.030994417 0.2078752 0.14504944 -0.10306967 -0.0008576279 0.2067283 0.23279506 0.21521243 0.08436293 0.22480541 0.0065635573 0.1488716 -0.010980709 -0.037063774 -0.11150405 0.24845907 0.098598585 0.25927863 -0.25172657 -0.0019765908 0.50457954 0.3024798 0.011599156 -0.2417287 -0.42030832 -0.23193233 0.41246346 -0.2799355 -0.29889634 -0.016739627 0.63230926 -0.27407664 -0.1162771 0.013049551 0.29356843 -0.012491486 0.28926688 -0.23549408 0.41888785 0.078004256 0.1198472 0.009915542 0.18284452
65 0.023922147 0.092580654 0.079775974 -0.041751124 -0.12976547 -0.09298318 0.09559192 0.30992243 0.1962112 0.21098657 0.4461862 0.20262924 0.17729597 0.19704859 -0.24961478 0.39273295 0.06542146 -0.49695045 -0.11072121 -0.49095342 0.25330642 -0.006469983 0.31354338 -0.21199635 -0.36112672 -0.07927923 -0.110361286 -0.20800132 -0.058687553 -0.10724443 0.19696458 -0.1978204 -0.086202145 -0.27642974 -0.5214699 0.05212165 0.27204427 -0.76470786 -0.10841736 0.42964932 -0.038925312 0.42998123 -0.24955505 0.052539825 -0.271609 -0.36433038 -0.16605037 0.28991386 0.07571239 0.2652531 -0.087087564 0.28276157 0.106173396 0.021746341 0.016336061 -0.051788986 0.047198962 -0.36183822 0.23984642 0.27233234 0.15733951 0.17593522 0.2508875 0.19184881 0.4009781 0.1443518 -0.15922262 -0.085160874 0.2848562 -0.16246492 0.10320297 0.32342148 -0.1304999 -0.19759353 0.4265147 0.22511886 -0.11989074 -0.09430183 -0.021328745 0.3348578 0.2122665 0.28523323 0.002431553 0.15153824 0.20210113 0.21000847 -0.22451474 0.4470269 -0.22160822 0.1468391 0.66310227 -0.056889 0.1320027 0.09522011 0.17497538 0.15521161 0.27299887 0.012160636 -0.4252684 0.19487874 0.057834957 -0.25150502 0.19336389 -0.19364811 0.119834736 -0.044096757 0.29789296 -0.21287626 0.12502006 -0.24765389 0.10633336 0.16570432 0.11785494 0.074562915 -0.08976456 0.13842465 -0.34767544 0.28153533 -0.3428958 0.13789046 0.08301065 0.1303944 0.07822993 0.19423567 -0.063186206 0.1247843 -0.21714397 -0.108420566
214 0.27969217 0.15858726 0.013776179 -0.32470965 0.20728317 -0.1761874 -0.28787675 0.25490612 0.26931196 0.07931506 -0.031362318 0.027137866 -0.090329796 -0.012874406 0.14137179 -0.06115806 -0.2823547 -0.22382918 0.24020915 0.09055171 -0.056150153 -0.08186963 0.009777057 0.1651244 0.05380684 -0.39771155 -0.19798088 -0.10693897 -0.30522138 0.22998483 0.23566496 -0.012621478 -0.17241697 -0.2289817 -0.67224133 0.4050258 0.08512989 0.044257093 -0.12697622 0.03537668 0.24406348 -0.16948813 -0.05069421 -0.28600293 -0.38297817 0.11421593 0.4032782 0.14452858 0.47467607 0.493371 0.03212886 -0.042630818 0.12616852 0.39673424 -0.10166701 -0.046722904 0.27244172 -0.08909894 0.021376101 -0.021039318 0.24021046 0.14148107 0.14999928 0.12819359 0.43028188 0.31067878 0.1243525 0.08898863 0.2674918 0.16187905 0.32746607 0.25434265 -0.11458149 -0.091575556 0.18549472 0.09033879 0.09060937 -0.14382555 -0.12120295 0.21418867 -0.04020053 0.13937296 -0.10883682 0.5171714 0.23731518 0.1671206 -0.22807966 0.031322576 0.0035924308 0.0979047 0.13559291 -0.11278148 0.3091101 -0.04300795 -0.15875392 -0.292491 -0.21317966 0.028126784 0.3517507 -0.20731932 0.1120551 -0.12200798 0.14598563 0.13259117 -0.106512494 0.17202988 -0.08319495 -0.113589264 -0.05292861 -0.17104071 0.0040040393 0.31881875 -0.1436243 -0.26904878 -0.47302112 0.14339498 -0.15501268 0.6541742 0.39517573 0.21659137 -0.2425101 0.4060913 0.07687246 0.4441652 -0.17463234 0.073760234 0.18913493 0.21710514
209 0.15544753 -0.008447709 0.0625034 -0.24716774 -0.33294767 -0.04410023 0.2394623 0.287383 0.19331676 0.19280152 -0.20783934 0.010816106 -0.07867769 -0.029372908 0.053546187 0.111089975 0.2195677 -0.03717435 0.12506637 -0.25880024 0.49898225 0.38531306 0.28237405 -0.03148542 -0.35063377 -0.039833594 -0.2918819 -0.19423053 0.03628187 -0.290921 -0.28519627 -0.20077474 0.04509958 -0.29953194 -0.13318089 -0.03297485 -0.22614664 -0.15847233 -0.12723155 0.31644437 -0.11432935 0.14709233 -0.02082598 0.17731664 -0.15664352 0.2836319 0.1990958 0.15374134 -0.016172456 0.2224701 0.100275114 0.3198784 0.26007262 0.30999875 0.27580297 -0.09952744 -0.3232511 -0.12203202 0.15018141 0.04577536 0.037607677 -0.09567614 0.20690998 0.4861652 0.54858875 0.22262356 0.009237796 -0.5037098 -0.17051564 0.12585044 0.28347334 0.23993024 -0.02624346 0.27288985 -0.0031975172 -0.08819908 0.015632171 -0.079368256 -0.3975432 0.1415506 0.40380305 0.52270305 -0.09228107 0.2982833 0.21054254 0.10449852 -0.01873851 -0.05615665 -0.13453591 0.013225846 0.10746655 0.36069384 0.07516377 0.30868822 -0.03034162 -0.20237279 -0.061169375 0.16582437 -0.20505577 0.074708834 0.012810628 -0.12231356 -0.07540412 0.21369836 -0.33110225 0.21524903 -0.22269936 -0.26134712 0.12351183 -0.08438827 -0.15654048 -0.089042425 0.082467794 0.0791007 -0.30223477 0.5575967 -0.25976804 0.15910487 -0.08679741 0.05643789 -0.19997808 0.15129487 -0.5301993 0.22074321 -0.061007325 -0.092670344 -0.06790728 0.18666925
239 -0.054859 -0.0695029 0.2050978 -0.23691136 -0.07081264 -0.25643754 0.16384715 0.18601516 0.2803333 -0.060004614 0.29896098 0.63049775 0.1678407 -0.12048961 0.36722222 0.15097524 0.29394466 -0.032916818 0.15959826 -0.11548214 0.110457614 -0.16666734 0.1464495 -0.1365238 -0.12008443 -0.3952839 -0.09527545 -0.079701096 -0.5257809 -0.17045125 -0.26019546 -0.29829717 -0.36397827 -0.08900715 -0.34728497 -0.3270489 0.10194115 -0.10815567 -0.37912375 0.027047789 0.019791223 -0.025499748 -0.074599214 0.2519382 -0.42370152 -0.13722163 0.04463295 0.19920926 0.37345967 -0.14614561 -0.31465858 0.084905304 0.07860095 0.1173712 -0.12721452 -0.088993765 0.32962877 -0.33846682 -0.27447364 -0.12904881 0.31079206 -0.25522587 0.2209641 0.1931474 0.70490754 0.18012457 -0.24895589 0.24120557 -0.097606555 0.5800955 0.30091983 -0.18732724 -0.18829048 -0.07350649 0.27881008 -0.1559821 -0.023659403 -0.31240827 -0.2873708 -0.14205235 0.045535892 0.21833457 -0.19103092 0.31325102 0.12126935 0.2025405 0.15506265 0.063105665 -0.0120780235 0.08021414 0.29727522 0.103022724 -0.07446511 -0.04031361 -0.1281217 -0.11001345 -0.09226646 0.024901494 -0.39982072 -0.15626869 -0.14913166 0.0013715154 -0.14803785 -0.03979511 -0.34723872 -0.04035423 -0.033937607 0.14715694 0.14881392 0.025133422 -0.16099614 0.26039928 0.12535937 0.03941227 -0.01049961 0.008702718 0.0059703914 0.27740404 0.02541225 -0.06437676 0.1261627 0.256522 -0.053772636 0.08934289 0.116192155 -0.0051912153 -0.011185929 0.13531078
87 0.5388674 0.14965972 0.24522887 -0.3101419 -0.043134104 -0.35172027 -0.1409444 0.23174904 0.03680631 -0.012653121 0.03814379 0.0029061283 -0.061455168 -0.09129481 0.047984585 0.6507107 -0.09801666 0.045144703 0.019265465 -0.4871064 -0.18226913 -0.19888541 0.091819316 -0.0630845 -0.72318965 -0.21753687 -0.36009488 0.22850683 8.209035e-05 -0.29412383 -0.108812176 -0.1794859 0.14158665 -0.24623851 -0.49949652 -0.2313452 0.1813786 0.10288048 -0.41768026 0.4653976 0.061763395 -0.026309567 -0.05333288 0.31128418 -0.04848812 -0.10777369 -0.1737422 0.17165944 0.63353974 -0.09647493 0.0931168 0.04964772 0.035520222 -0.18732546 -0.37783438 -0.37272516 0.27120382 -0.05791414 0.074532785 -0.3840311 0.13826852 -0.14362007 0.368407 -0.23312259 0.1993771 0.02784768 -0.084340796 0.10775602 0.06994156 -0.1599589 0.41155007 -0.06640192 0.117502905 -0.012601893 0.067449786 0.044291113 0.033169873 -0.12972672 0.0007317143 -0.18549888 -0.06506589 0.032730654 0.021348143 0.22208387 -0.22188894 -0.14616515 -0.28186852 0.27020293 -0.01299177 -0.2640026 0.17007649 -0.05250857 -0.22495963 0.16070342 -0.29188868 -0.13992749 -0.07707768 -0.03311415 0.052861616 -0.3127408 0.16562992 -0.18240781 -0.11442939 0.063638955 -0.24098225 -0.046900295 0.06600399 0.20210586 0.22341758 0.016553732 -0.32658714 0.15754715 -0.37109867 -0.20160538 -0.33811134 0.4720855 -0.029590096 0.18595669 -0.005394406 -0.09358848 -0.18921544 0.21201222 0.25105903 0.057510357 -0.22708192 0.42711398 0.20576763 0.075989336
294 -0.07383707 -0.39440823 -0.027370049 0.12791938 0.33251792 -0.38165528 -0.06377845 0.17813832 0.07895776 0.17430834 0.25347817 0.1787819 -0.096783556 -0.0653446 -0.054703157 -0.1943883 0.2901132 0.12816529 -0.036336668 -0.07699398 0.3572496 -0.073705316 0.49018133 0.018667035 -0.18387723 0.0062380806 -0.35740262 -0.06421712 -0.036255926 -0.09598807 0.2597955 -0.016151978 -0.018092433 -0.07247162 -0.18559034 0.24535902 0.13930978 -0.054140802 -0.016134664 0.063338935 0.35146472 0.15789817 -0.22345626 0.3749773 -0.005019616 -0.21263537 -0.4491047 0.028545374 -0.2495978 -0.07086021 0.02722362 0.21097426 0.106763326 0.16342588 0.25178453 -0.16854882 0.32397422 -0.23251256 -0.27161822 0.2766259 0.49601248 0.3809977 0.043203775 -0.24975324 -0.010699128 -0.15335032 -0.3942751 0.06387408 0.26745808 -0.15884401 0.10850579 0.24195597 0.02632695 0.2734342 0.15001845 -0.036222633 0.09251317 -0.015765382 -0.12553443 0.0064685885 -0.10840919 0.32137936 -0.15968925 0.52240133 -0.18923606 -0.1772845 -0.32538092 0.20421156 -0.54936606 0.101803556 0.22967498 0.13118853 0.17579319 0.37136048 -0.060934726 -0.24369942 -0.15939708 0.082310654 0.01710495 -0.3689441 -0.11133185 -0.005251278 -0.25950947 0.30420244 -0.14408018 0.106836945 -0.08255975 0.06670778 -0.11041716 -0.057863355 -0.00016031554 0.09318134 0.2889536 0.13080055 -0.18644716 0.3620638 -0.3629798 0.6195229 0.036907144 0.21049725 -0.35288358 -0.061971646 0.069694586 0.084798835 -0.34939483 0.19493426 0.062251113 0.36666542
106 0.15329795 -0.10539483 -0.12926905 -0.3814877 -0.14362808 -0.13846196 -0.107015684 0.3013408 -0.059892673 -0.023106506 -0.20494209 0.29530543 0.38533515 0.06324304 0.13880049 0.3229609 -0.091671266 -0.1594587 -0.098491706 -0.039733298 0.23023182 -0.43454462 -0.32872373 -0.04531677 -0.48272997 -0.0937397 -0.1588781 0.32326376 -0.32301497 0.004167786 -0.103397325 -0.084171265 0.37692276 -0.120302 0.05704867 -0.014711216 0.055481613 0.18706207 0.074668966 0.09051665 0.22221284 0.07586655 0.02355075 0.23247094 -0.23064837 0.13921711 0.07853742 0.14370738 0.24155559 0.29227176 0.036807213 0.3553712 0.3587287 0.11460272 -0.22229825 -0.22422163 0.05752343 -0.12786104 -0.32527575 0.09836839 0.08613832 0.114120774 0.12843087 0.11296465 0.24912028 0.38769028 -0.3000704 -0.24333662 0.4180462 -0.23066056 0.284289 0.45646572 -0.011669464 -0.22841069 0.4338959 0.4812574 0.10588861 -0.3202779 -0.13801181 0.4175374 -0.049689118 0.077210166 0.22132513 0.50063807 -0.30054426 0.5153993 -0.41692963 0.07896611 0.020415606 0.17513934 0.051275525 -0.021479918 0.3095955 0.15340158 -0.10563667 -0.06888907 -0.22698683 0.056692827 0.011755684 -0.06903327 -0.09043007 -0.13347869 0.056150816 -0.03721329 0.076609306 0.052729603 -0.25656554 -0.08186376 -0.020668747 0.0040309606 -0.38396952 -0.087604664 -0.110917 0.07640031 0.09194333 0.23062159 -0.42006737 -0.09548639 -0.37352338 0.0519436 -0.23249339 -0.10937324 -0.53549093 -0.0024520266 -0.18999484 0.38791996 0.021463552 0.17248574
82 -0.08432725 -0.24922486 0.014390525 0.024509514 -0.31506506 -0.046889983 0.0326227 0.21207577 0.17272958 0.09500803 -0.30791906 0.13518256 0.02534147 -0.085535906 -0.029776035 -0.042543344 0.35321864 -0.24656563 0.42880356 -0.24024783 0.18070088 -0.13117577 0.01655445 -0.03071428 0.27159533 -0.3468707 -0.23156355 -0.087923385 -0.008695323 -0.46795323 0.13334933 -0.40170547 0.13858226 -0.15856265 0.1979241 0.20492077 0.16581261 -0.40957308 0.2947478 0.0013355294 0.17826936 0.16713262 -0.27152592 0.14366278 -0.017928863 -0.117189445 -0.053393703 0.072281286 0.4666507 -0.06912334 -0.029217174 0.033261728 0.16803937 0.007704018 0.022054994 -0.18457556 -0.058648355 -0.06510154 -0.032882534 0.014169004 0.39238995 -0.16840431 0.1451278 -0.03858028 0.23251349 0.014153395 0.056747913 0.06435928 0.09846131 -0.1659292 0.38090283 0.29950446 0.32096618 0.11764455 0.07599164 0.14698108 -0.16342837 -0.29519522 0.3165088 0.0744121 -0.33240297 0.30449495 -0.27274057 -0.037705407 0.09188754 -0.00529718 -0.54134214 0.12238064 -0.042986207 0.22670177 0.095870726 -0.28504756 0.14936203 0.28727803 0.045395005 -0.73895484 0.12680742 -0.1291272 -0.21645454 0.08812513 -0.09701143 -0.37784418 0.040308304 0.09518217 -0.31902117 -0.064651765 0.26021314 0.13248254 -0.022483718 0.018390656 0.112866335 0.51806486 0.079517014 0.13397361 -0.7176694 0.047574665 -0.3614235 0.34764528 -0.13435526 0.11049142 -0.4139221 0.019516248 -0.29701287 0.45402062 -0.14828494 0.31538233 0.14061351 -0.03423177
199 0.33041692 0.18846224 -0.48764247 -0.5534572 0.10222632 -0.10751196 0.3360214 -0.09967287 -0.20472823 0.12828264 -0.24850743 0.17115837 0.09042585 0.14403701 -0.48797864 0.3299466 0.0872769 -0.27245557 0.21370332 0.031661063 -0.003851189 0.02086443 0.12311427 -0.24070288 -0.28276068 -0.22842707 -0.55850804 0.10413712 -0.54000777 0.047428485 -0.1929924 0.04515594 -0.40536106 -0.2657097 -0.003216445 0.2314567 0.04896623 -0.2046911 -0.48141256 0.29105827 0.26861462 -0.026363233 0.032389805 -0.031598046 -0.25767678 0.09683391 -0.36524218 0.37472332 0.6029944 -0.18275027 0.27628994 0.06418905 -0.074132994 0.03637963 0.0035279833 -0.09093477 -0.15157343 0.07546219 -0.24857597 -0.112084866 0.08984771 -0.15278602 0.17887408 -0.33152404 0.27972904 -0.054393042 -0.36056334 0.19363745 -0.23898181 0.24202272 0.4119144 0.04824206 -0.0018005342 -0.32142505 0.17417748 -0.0025480664 0.081643134 0.110357545 -0.13692883 -0.07711847 -0.0384691 0.50037944 -0.025798263 0.43272543 0.24601212 0.16446014 -0.053656798 0.18658595 -0.47320247 0.12142054 -0.025834395 -0.13677141 0.2627327 -0.020459205 -0.17102277 -0.18178827 -0.27309436 0.24133891 -0.3094684 -0.084459655 -0.4118839 -0.029683406 -0.25156865 -0.044203255 -0.1564686 -0.01329331 -0.35811594 0.1164726 0.03506689 -0.24995764 0.19357993 0.33694273 -0.210445 0.23495437 -0.25559998 0.44269213 -0.40336952 0.15935534 0.3505807 -0.4487916 -0.06918489 -0.10040916 0.008213983 0.38252145 -0.15659344 0.092844434 -0.23579112 0.22162014
204 -0.14432517 -0.0619408 -0.24430771 -0.30651718 -0.008980329 -0.08406504 -0.21239896 -0.079648465 0.16459359 0.43581983 0.09593616 0.106125414 0.25526258 0.040410757 0.29357076 -0.22589615 0.27729782 -0.3351399 -0.0764955 0.14611118 0.26423502 -0.28122896 0.14284766 0.011218463 0.08171141 -0.1921948 -0.34755224 -0.089454964 -0.27797353 -0.37358722 0.04874939 0.053887565 0.10213103 -0.26423344 -0.31734127 -0.10552252 0.09159934 -0.37886202 0.14397293 -0.23104498 -0.0034218698 0.100675285 0.04972254 0.35813916 0.09087631 -0.13741465 -0.023947904 0.073094 0.28728715 0.00033616473 0.0970122 0.2208316 0.03923426 0.07550061 0.2459659 0.027138278 -0.32309678 0.12840876 0.02601902 0.32807204 0.2924608 -0.055211216 0.09824178 -0.09186833 -0.025307586 0.22196604 -0.029934952 -0.15944637 0.18956228 0.018934011 0.60739255 0.17684957 0.08265406 0.19710673 0.38977998 -0.025115727 0.019791821 0.4136347 -0.08153988 0.17045426 -0.1609379 0.13897626 0.09264845 0.68045354 -0.06541132 0.12533641 -0.091059715 -0.12464687 -0.0017322018 -0.13198422 0.34958592 0.0725744 0.3012737 0.41775587 0.15528968 -0.045286704 -0.06492887 -0.27310696 -0.16731569 -0.20653978 0.0003169409 0.25569692 -0.2105146 -0.08814944 0.1351488 0.37669417 -0.04305403 0.19719784 -0.1675872 -0.22401379 0.20209815 0.16182452 0.15392487 0.093926236 -0.21317568 0.54210883 -0.30790073 -0.045729615 0.35356462 0.43181795 -0.31661537 -0.30579683 -0.26956078 0.19040051 -0.36503538 0.08447229 -0.16677967 0.14893919
276 0.19835836 0.015910035 0.14931218 -0.3181619 0.39760718 -0.105740674 0.22576292 -0.15213232 -0.19843918 0.10287735 -0.19309428 0.14620452 0.3178308 -0.008058184 -0.5956024 0.18672362 0.032979894 -0.40029904 0.19700843 -0.19254345 -0.0034039575 -0.056755796 -0.018828135 -0.1432595 -0.22378542 -0.076236136 0.2508801 -0.09226634 0.012272398 -0.26679862 -0.07418885 0.14646146 -0.22573811 -0.37525806 -0.49447978 -0.307149 0.12492522 0.054457597 0.11013131 0.27884266 0.28204685 -0.055177998 -0.0051824427 0.1726713 -0.6941863 0.058787223 -0.080801114 0.13610344 0.18377374 -0.07239723 -0.14258565 0.114323 0.056622744 -0.06671854 -0.15837412 -0.04672766 0.16248418 -0.13388678 -0.29707268 -0.19104674 0.38181552 0.044100832 0.5231375 -0.2586762 0.3079522 0.26522124 0.21945614 -0.053345427 -0.44197205 -0.18444881 0.19772837 0.12990098 -0.21279739 0.2634375 0.21028072 0.1281955 -0.081849165 0.06467559 0.22288202 0.062994815 -0.16411014 0.14779146 0.13065743 0.29149038 -0.15292142 -0.09312438 -0.43357095 0.6128158 -0.017669324 0.0464836 0.7362383 0.122749634 0.027735248 -0.27126744 -0.36226875 0.06143697 -0.098020636 0.38034225 -0.21597245 0.19608532 0.21052666 -0.19798623 -0.2862075 -0.24503662 -0.12638372 0.35215548 -0.2214994 0.00900115 -0.014843449 0.003307254 0.15939799 0.113122664 -0.47125334 -0.3441349 -0.40228277 0.14389527 -0.2581292 0.018394293 0.12303809 0.042984292 -0.28816757 0.21748577 -0.33371606 0.13246398 -0.18795404 0.0953886 -0.0562641 -0.07509301
289 0.5718908 -0.028018843 -0.081984304 -0.44927657 -0.12402433 -0.24026988 0.08195525 -0.3393758 -0.1877952 0.06533083 -0.09487425 0.34138486 0.14761972 0.30673158 -0.08651468 0.1494048 0.10711086 0.025389988 -0.16241723 0.107160576 0.13653804 -0.32085684 0.17356706 -0.31886724 -0.26545012 0.12944606 -0.3035734 0.045119066 0.08562525 -0.31083903 -0.28021124 -0.22206727 0.07661141 -0.23747888 -0.20860891 0.28315124 -0.1819594 -0.5435854 -0.06967788 -0.08462769 0.104713105 -0.04751668 -0.046316225 0.037115384 -0.09885947 -0.12287862 0.0003002872 0.2606228 -0.055291474 0.09362011 -0.23147453 0.46691698 0.051686887 0.25862283 -0.42715386 -0.5153492 0.38777128 0.1546018 0.19737355 -0.27734226 0.36147678 0.012035871 0.24974859 -0.15782508 -0.06853053 0.36981013 0.09957682 -0.21873453 -0.15139769 0.19948873 0.1372967 0.30364606 -0.27900267 -0.33290878 0.004210708 0.006928343 0.5387709 0.17983198 -0.11682502 -0.09260947 0.14413676 0.5065187 -0.41835716 0.135582 0.3220153 -0.15469544 -0.30017307 0.5209459 -0.106921114 -0.36980107 0.28079525 0.41478792 0.033766802 0.016573664 0.18899733 -0.19563618 -0.22912844 0.02367602 0.14676952 0.1397511 0.17540048 -0.0047051543 0.21935965 0.1834237 -0.20822224 0.097743064 -0.20582922 0.015801577 -0.37204936 -0.058046237 -0.12955609 0.313941 0.20705774 0.13716663 -0.15441352 0.23410851 -0.3856448 0.060557872 -0.13162413 0.34746 -0.17962198 -0.27506045 0.16821264 0.36218378 -0.14319609 0.14648105 -0.18660127 0.31903806
223 0.052811548 0.032347534 -0.32740948 -0.27794638 0.33553174 -0.38187182 0.053646076 -0.12551738 -0.03877309 -0.12902585 0.22010757 0.18581161 0.25566706 0.0824329 -0.25422564 0.024277998 -0.20950484 -0.014654843 -0.24130812 0.18218529 -0.054760396 0.09151237 -0.2139181 -0.25250635 -0.033089396 0.25512606 -0.35310674 -0.09592892 -0.10970687 -0.14474924 -0.13562234 -0.15141821 0.05477877 -0.1599784 -0.50773394 0.11699119 0.17687424 0.07708471 0.16706257 -0.21203789 -0.0032989753 0.22274481 0.12227375 0.095409974 -0.54569453 -0.2369376 -0.032997444 0.32063863 0.5794187 0.20154436 0.29450256 0.01425205 0.36641762 0.28905714 0.08729421 0.031351943 0.109223954 -0.27040234 -0.2026809 0.077727705 0.27789965 0.026827265 0.36913285 -0.15027484 0.020234074 0.26724195 -0.4336412 -0.20426987 0.27772346 -0.323406 0.21760114 0.12113297 -0.050864052 0.05909491 0.21545112 -0.4150408 -0.0672777 -0.27967113 -0.102852665 0.37265876 -0.07474975 0.29748002 -0.2466512 0.2764426 -0.04570444 -0.6370499 0.057329312 0.25540018 -0.019135257 -0.38216072 0.2616372 -0.2322334 0.20891796 -0.117545635 0.18612117 -0.45974573 0.0043936362 -0.022071652 0.015657801 -0.18145095 -0.017549347 -0.43341303 0.24628009 0.16180938 -0.42047557 -0.29085234 -0.076990776 0.13489409 0.15548672 0.035353072 -0.044530854 0.41348854 -0.32125273 0.20596889 -0.13621855 0.45220903 -0.07020253 0.19727707 -0.3592349 -0.008834429 -0.48806927 -0.105330706 -0.029457083 0.46183392 -0.17117439 -0.0074286936 0.020011615 0.29921424
166 0.009822999 -0.13432805 0.14386398 -0.3762471 -0.22686493 -0.013044898 0.049816284 0.17179087 0.05662812 0.25066814 -0.04804026 0.49233449 0.122938015 0.14548077 0.19096686 -0.034690317 -0.06613954 0.35265744 -0.057749677 0.059133764 -0.18444173 -0.27654812 -0.019134171 -0.12412397 -0.20525828 -0.167834 -0.36974207 -0.15188453 -0.20651826 -0.37841097 -0.24981385 -0.3611738 -0.2648233 -0.08213833 0.030696707 -0.021672219 0.039449934 -0.14812072 -0.02795163 -0.12195541 -0.3770424 0.13716468 0.14862326 0.07072813 -0.1949312 0.19092971 0.17666256 0.3271413 0.35049298 -0.048319053 0.059798278 0.08619588 0.15692502 0.3139719 -0.32135436 -0.11868101 -0.09847952 0.4475502 0.29329184 0.24555317 0.6919792 0.105852254 0.19651884 -0.1659128 0.114805706 0.091253094 0.008800406 -0.19299982 0.39837635 -0.31164548 0.24391297 0.20064461 0.04463089 -0.09236306 0.0465494 0.109119006 -0.65849286 0.26060534 -0.30007875 0.40804204 0.17535076 0.26118636 -0.32352784 0.14748771 -0.0536984 0.0052843676 -0.15043147 -0.023390764 -0.18253264 0.18706696 0.56318873 0.15983444 -0.11566033 -0.026159799 -0.042648792 -0.29791144 0.04006081 -0.103479594 0.016945403 -0.24437776 -0.16279142 -0.14654455 -0.2665295 0.083884865 0.26922083 0.26729885 -0.08887041 0.14525329 -0.28667 -0.04100694 -0.05535719 0.28250584 -0.0036739858 -0.07049246 -0.2068955 0.03795263 -0.16272818 0.05235362 -0.16524869 0.005524962 -0.3811281 -0.041969575 0.11691144 0.18938078 0.02254944 0.4069789 0.1687089 -0.027932111
78 0.14094135 -0.20130455 0.14512637 -0.10357983 -0.0014344151 -0.3236466 0.13100661 0.096001096 0.07765553 -0.29685813 -0.032575984 0.014811102 0.12634969 -0.13095121 -0.02273105 0.021094037 0.019205272 -0.038806833 0.013240885 -0.15381251 -0.25917318 -0.04774919 -0.11486497 0.122644134 0.119083285 -0.16471148 -0.04079492 -0.12527347 -0.11155769 -0.10563587 -0.25450495 0.09856514 -0.16771036 -0.13872725 -0.22069845 -0.047997292 -0.39329875 -0.33650145 -0.11783389 0.48933238 0.20091331 -0.15315261 -0.02499068 -0.3650409 0.0818152 0.33759236 -0.128399 0.03919532 0.16213761 0.13163728 -0.24823384 0.16822079 0.54301953 0.17277357 -0.014192079 -0.31162286 0.21655484 0.144975 0.08885732 -0.25036925 0.56206816 0.03477331 0.15137954 0.19416904 -0.18897052 -0.023351517 -0.16049482 -0.4324883 -0.0075183557 0.24665321 0.45042905 0.52505434 0.06150652 -0.12953608 -0.08735729 0.19316183 -0.0036174336 -0.12324186 -0.10517768 -0.109161265 0.1867117 0.4018123 -0.26690963 0.2538292 -0.0030689633 0.18289953 -0.35520062 -0.06875462 -0.1983905 0.067566305 0.51844865 0.25586715 0.14182076 0.30657858 -0.001223906 0.039738897 -0.37217462 0.44864964 -0.3484844 -0.242716 0.18354309 -0.20966914 0.047763925 0.28395966 -0.52560407 0.089763075 -0.1277198 0.26400167 0.14510113 -0.056603916 0.072285056 0.47734404 0.25599757 0.08680275 -0.28568175 0.627508 -0.08564943 -0.09780929 -0.10172602 0.010513314 -0.035491355 -0.27913278 -0.124460995 -0.07796786 0.083007246 0.24173468 0.042243462 -0.1630627
100 0.3537529 -0.15537128 -0.0057267332 0.05607649 0.054994553 -0.36485323 -0.17896001 0.061444238 -0.15437028 -0.041656725 0.12176869 0.44828188 0.055646896 0.04014563 0.0075772214 -0.14151563 0.123242036 0.14129952 -0.34523663 0.025442349 0.10733712 -0.39508352 -0.12149367 -0.24181677 -0.16647078 -0.21094726 -0.21477701 -0.33250737 0.27532127 -0.42211175 -0.27627423 0.25243917 -0.39219603 -0.6036647 -0.16019465 0.07775379 0.2196513 0.0144128995 -0.100660436 0.036443308 -0.18286906 0.14729881 0.2559382 -0.20377351 -0.32114267 -0.37292135 0.12515168 0.1766203 0.07810387 -0.07385974 -0.1341222 0.1720976 -0.29348004 0.29045364 -0.21999905 -0.20872615 0.3464987 0.06515016 -0.38753808 -0.028791878 0.36796054 -0.110378474 0.21478572 -0.2789105 -0.08724608 0.43558437 0.034638416 -0.14919008 0.402309 0.017396761 0.2642533 0.06499036 0.13536514 0.09650746 -0.050640494 0.062318176 0.010975221 0.16481087 -0.14539976 -0.17685717 -0.062157717 0.40701514 -0.1452149 0.42167577 -0.2557201 0.24836949 0.22750336 0.32086918 -0.3695786 0.16934675 0.279098 -0.117109 -0.029285474 0.011643757 0.030230097 -0.26538923 0.05317281 0.14234143 0.26782003 -0.25299042 -0.11031255 -0.1715203 0.3730127 -0.07862496 -0.19066206 0.028371956 -0.077705316 -0.21380186 -0.035184696 -0.4271203 0.10240611 0.093326025 -0.0048321 -0.3397413 -0.21671857 0.40682304 -0.40016273 0.09804771 -0.28290105 0.23832843 0.027803784 0.33397117 0.22413735 -0.07028766 0.07919044 0.20539053 0.10255636 0.58726877
195 0.10013531 -0.32421502 0.046850488 -0.660985 -0.14885376 0.005893847 0.052925922 0.14043038 0.17060755 0.05761817 -0.08003472 0.31210077 -0.11031581 0.15377179 -0.0145692015 -0.060772885 0.083707295 -0.23165847 0.27928394 -0.5266151 -0.082214095 0.15570673 0.1760668 -0.22624862 -0.4299609 -0.13175407 -0.41916296 -0.14905599 -0.28742313 -0.02727556 0.29580402 -0.07261017 0.2287373 -0.027991178 0.02008653 -0.26144612 0.012584642 0.058077604 0.010980416 0.18457493 -0.08876321 0.005388176 0.09751115 -0.04518329 -0.12695178 0.10403309 -0.14099331 0.085887134 0.0147204045 0.09106714 0.10043808 0.03942428 0.25673378 -0.2217645 -0.41216227 -0.047474705 -0.008593877 0.1784245 -0.3258571 0.14858004 0.40539137 -0.2035796 0.32608736 0.23599052 -0.0074002137 0.14009513 -0.47481936 0.021918258 -0.02288818 -0.34363672 0.20580448 -0.17049612 0.17004594 -0.02844416 -0.013738837 0.24767755 0.1986337 0.25727934 -0.27067474 -0.35773888 0.27624136 0.19375294 -0.15210003 0.20999467 -0.042615183 0.03898065 0.2107095 0.3089664 -0.30126113 0.2621085 0.33980215 -0.2865424 -0.14370954 0.3910739 -0.113517225 -0.07187242 -0.34473467 0.0020378774 0.0019207621 0.06579931 -0.023645157 -0.22143881 0.23348236 0.03489761 -0.15359099 -0.15138169 -0.050350595 -0.12618935 0.11543536 -0.08971816 -0.3814047 0.05082063 -0.3380226 -0.57160085 -0.5375903 0.2975762 -0.7052071 -0.100644216 -0.16244146 0.1472732 -0.19102198 -0.34810463 -0.13563026 0.04766595 -0.16188885 0.5568108 -0.12207398 0.30726084
244 0.50766057 -0.28224286 -0.33302617 0.20831467 -0.055102713 -0.2995213 -0.07968744 0.1835738 -0.3776993 0.3321379 0.06750601 0.014135582 0.32788178 0.65915036 -0.38563785 -0.23323798 -0.005241486 0.0980911 0.39921102 -0.50188905 0.44433266 0.23333706 0.29026985 0.057540666 -0.2774071 -0.13268794 -0.22754522 -0.0182332 0.019084023 -0.27050185 0.24286667 -0.19965757 0.14969558 -0.6990267 -0.18903105 -0.24043578 -0.18008707 0.28225338 0.097265445 -0.03761209 0.008997216 0.14108783 0.16751961 0.13782163 -0.1078123 0.09098422 0.031261165 0.34476745 0.013905381 -0.09230677 -0.012898879 0.055526152 -0.07564097 0.20273742 -0.039182846 -0.32140258 0.24924816 -0.048711825 -0.30145445 -0.023001814 0.33234182 -0.09625143 0.2832994 0.17041466 0.06967904 0.17769392 0.014309504 0.418692 0.46893546 0.05422631 0.13303627 0.13178809 0.2960726 0.3416095 -0.0064422977 0.38479602 -0.08074936 -0.14148332 0.023860767 -0.21190386 -0.13606752 0.04597999 -0.109347 0.034346625 0.26501885 0.1851856 -0.26366502 0.2340612 -0.2765262 -0.052886177 0.39935067 -0.19053486 0.0009432952 0.2277915 0.043116126 0.03225573 0.12195447 -0.081303135 -0.1863001 -0.1129007 -0.10500822 -0.04270922 -0.1376786 -0.020092225 -0.13591272 0.08917184 0.060338967 -0.014336793 0.072918035 -0.0037139987 0.1620278 0.20846193 -0.19502765 0.28605956 -0.2500663 0.3727509 -0.4073909 0.41995597 0.22394557 0.3016353 -0.16857517 0.077242196 -0.10975645 0.09882472 -0.3221516 -0.17156243 0.33960414 0.3840086
281 0.2854858 -0.23844366 0.25732946 -0.26580772 0.33519018 -0.32148665 -0.22545892 0.08291459 0.33666623 -0.030340604 -0.5024299 0.1810914 0.49761283 -0.37586933 -0.041666325 0.24513847 0.04045186 0.07124974 -0.04488458 -0.46723697 -0.13218763 0.10113053 -0.06586409 -0.29695198 -0.4231616 -0.3375723 -0.23464681 0.08142352 0.0022943348 -0.1506586 0.06560186 0.040415246 0.30028844 -0.37840047 -0.14634764 0.32108113 -0.074114025 -0.03383358 0.050048236 0.21747738 -0.12820512 0.40265897 0.14585648 0.049307518 -0.23960938 0.13747948 0.08416637 -0.049086805 0.19173509 0.09539634 -0.3852202 0.14649336 0.6860498 0.42272446 -0.21328086 0.08122051 0.3721414 0.16116364 -0.17498209 -0.2503178 0.40519693 -0.05601559 0.21433784 0.15997013 0.19038862 0.18832996 -0.32107344 0.38070092 0.05826523 -0.28255558 0.0433269 -0.034326572 0.0892116 0.13558261 -0.04373025 -0.012644608 -0.12188068 0.19454168 -0.29001775 0.2330244 0.13653015 0.21001026 0.06359072 0.7923146 -0.3700105 0.05526199 0.09195687 0.199868 0.01529968 -0.209969 0.2543581 0.18583119 0.13000946 0.25561312 -0.32769564 0.037951507 -0.015372904 -0.26134518 -0.1006436 -0.16929547 -0.058861595 0.15087117 -0.02008147 0.32921058 -0.06278019 -0.14152637 -0.14274026 -0.008989365 0.42260692 -0.31021854 0.18408541 0.13612634 0.02738879 0.014523533 -0.12019263 0.45705488 -0.16131663 -0.29047513 -0.08939371 0.3538488 0.0154936025 0.1563364 0.24082062 0.16830976 0.019850882 -0.099336065 -0.12679869 0.15933731
264 0.27079278 -0.19945292 0.31082147 0.2196387 0.06425904 -0.13300587 0.05604703 0.14804195 -0.20275982 0.29068696 -0.061115824 0.17459418 0.115082204 0.4617181 -0.05187516 -0.2567537 0.12545218 0.15737653 0.5470781 -0.35194632 0.27205548 -0.31659642 -0.06134948 0.2068448 -0.2566367 -0.47120935 0.019612195 -0.003173075 0.14317456 0.20222892 -0.04577047 -0.12183394 0.19989337 -0.15654549 -0.41246194 -0.08151599 0.40191084 0.075280786 -0.30192164 0.1966096 0.4561192 0.075381435 -0.14856723 0.28407344 -0.032766595 -0.42012498 0.13934544 0.19139345 0.36532924 -0.064036235 0.063592665 0.22517218 -0.107297145 -0.022987567 -0.043080937 -0.10454082 0.039242737 -0.32406437 -0.22344182 -0.2752128 0.25936586 -0.14955112 0.11040739 -0.18284023 0.17859814 0.02861139 0.1844746 -0.043582745 -0.10191978 -0.17300999 0.33027276 -0.092956886 0.0071437145 0.19492133 0.24442616 0.32235488 0.096558474 0.279026 -0.2679042 0.13382469 -0.20181502 0.5191721 0.19761382 0.39954987 0.12540083 -0.26726648 -0.4530599 0.31469625 -0.19503431 -0.08170332 0.6527016 0.05415768 0.20605575 -0.012542749 -0.22653905 0.0674234 0.09912841 0.02547521 0.05305561 0.27703032 -0.30820408 -0.10274501 -0.046566974 0.04705017 -0.09401965 -0.02306313 0.1634298 0.13711669 -0.022983305 0.111405656 0.041292373 0.084394075 0.295217 0.031114439 -0.13892913 0.2310914 -0.09898399 0.033592653 -0.08679422 0.37753555 -0.46370897 0.24648003 0.035470497 -0.10428341 0.10509061 0.30542636 -0.36405337 0.24887395
338 -0.07488766 0.010888779 -0.05465795 0.052524008 0.30526382 -0.32381743 -0.13076168 -0.12571065 0.13494417 0.18194753 -0.42986456 0.14407153 0.15499383 -0.1612252 -0.06972221 -0.050401866 0.17923182 -0.48276526 -0.093964495 -0.2022004 0.10181668 -0.2166071 0.29954323 -0.17022483 0.21158302 -0.12246148 -0.43463972 -0.113797955 -0.23134652 -0.60635424 0.099236585 0.12571846 -0.34733406 -0.033698764 -0.08516234 -0.08425248 -0.22269551 0.030420193 -0.029560763 0.33073038 0.13906853 0.3004557 -0.42074552 0.100527614 -0.17121193 -0.23219202 -0.0693092 -0.14593002 -0.050227188 -0.20530869 -0.12877767 -0.21815108 0.41160664 -0.11852869 0.08390058 -0.0032794534 0.2021871 -0.15135351 -0.15751038 0.024158401 0.50320214 0.14541055 0.3718619 0.09274485 0.44685775 0.19023931 -0.03370009 0.03287378 -0.13886647 -0.12358034 0.4327382 -0.018381676 -0.04677781 -0.19714934 0.107988015 0.012342904 0.08877083 0.24329753 0.10178616 0.012680954 -0.071469896 0.36899674 -0.28992826 0.4277615 0.12970239 0.33971992 -0.04444212 0.1312078 -0.12942402 -0.20218395 0.16411892 -0.10171705 0.055503543 -0.05277362 -0.49739924 -0.24667259 0.06955097 -0.21784496 -0.16575581 -0.27583075 0.15606962 -0.3101393 0.1364433 0.2152895 0.27139854 0.058924563 -0.113765 0.026097957 0.00860809 0.07617527 0.14864501 0.49211934 -0.2857062 -0.038719095 -0.1396857 0.26579076 -0.27123147 0.10079941 -0.17238536 -0.45917538 -0.21010567 -0.06927051 -0.14967981 0.3200306 -0.09281757 0.1311927 -0.13026825 0.64286256
300 0.24340865 0.2258855 0.09859881 -0.21174818 -0.13215618 -0.14538516 -0.3052228 0.232331 0.15765919 -0.03000391 -0.04132361 0.02449244 0.18743578 0.15605323 -0.12481854 0.06290672 0.17758535 -0.2506862 -0.04975842 -0.41035825 -0.023950689 -0.30372068 -0.14844175 -0.2222612 -0.29881936 -0.2156271 -0.21916984 -0.21446334 0.16000456 -0.014169056 -0.05085728 0.30368018 -0.03521495 -0.20835869 -0.25862017 0.042183053 -0.07227644 -0.22861323 -0.043654263 0.09455738 0.32394558 0.3995591 -0.15703015 0.34637314 -0.31265384 0.000117576186 -0.03549411 -0.06343177 0.4728502 -0.031569093 -0.23834814 -0.010036997 0.33828518 0.15624699 -0.17237005 -0.6046704 0.23544474 -0.24154493 0.047376256 -0.39796442 0.69777113 -0.19164072 -0.01988064 -0.11766988 0.23558393 0.14754054 -0.006666709 0.14899641 0.0039955606 -0.17064716 0.2783782 -0.2896779 0.28989843 -0.32748678 0.37410682 -0.06958048 -0.12760305 0.25171688 -0.2879566 0.22300927 0.10764311 0.15628886 -0.08722078 0.47236794 0.015869722 0.05789651 -0.31558046 -0.23152898 -0.49942803 0.102526225 -0.012461003 0.16837564 0.42743644 0.09568392 -0.023528805 -0.18975103 0.0459758 -0.002950233 -0.15070984 0.20968236 -0.14308555 0.19554657 -0.054131307 0.23718621 -0.2362177 -0.05018534 -0.090587065 0.056455918 0.028029704 -0.06305492 0.11361872 0.24626724 -0.10955629 -0.33245647 -0.08202309 0.10785939 0.021331737 0.14431818 0.062526226 -0.22902673 0.013323106 0.6078048 -0.0041218456 -0.115755334 -0.10915135 0.48247558 -0.11905549 -0.10084069
325 -0.17507328 -0.18057545 -0.38574344 -0.48173642 0.0014980957 -0.44220892 -0.07000717 -0.2056255 0.22820948 -0.0909797 0.16095738 0.40582305 0.06791203 0.17567958 -0.07290236 -0.0063317134 -0.06551556 0.33790714 -0.28385442 -0.27055433 0.23681337 -0.18488295 -0.070965245 0.058081787 -0.16004406 -0.3095024 -0.016790805 0.14657621 -0.005917763 -0.1665637 0.107450165 0.0057669384 -0.057773903 -0.17345203 -0.31368515 -0.079552494 0.0021104012 -0.27433243 0.10655403 -0.19265135 0.23356898 0.23430312 -0.15294729 0.33413476 -0.1587801 0.042478397 0.22629733 0.3098155 0.46559575 -0.21802217 -0.18115453 0.19659154 0.20534292 -0.023668572 0.084269606 -0.3087165 0.010530668 -0.04737581 0.07088 -0.034867175 0.2554829 0.039578564 0.31794566 -0.084591806 0.5179974 0.33126512 -0.16127688 -0.16326308 0.3502105 -0.056419723 0.31032053 0.20667526 0.13772422 -0.32179886 -0.22085689 0.21090917 0.0054917494 0.26566467 -0.08057681 -0.46634057 -0.019467527 0.16560921 -0.22776216 0.36157748 -0.10675583 0.3895593 -0.089237675 0.26740685 0.2795985 0.029179476 0.29666704 0.17583254 0.042341143 0.040806018 -0.22029908 -0.3435298 -0.4133777 -0.11620583 0.27264798 0.20963289 -0.21584098 -0.34531054 -0.18988426 0.01721071 -0.49595723 -0.21771224 0.049745925 0.028394347 0.3989119 -0.17714022 0.3098472 0.071351506 -0.22278136 0.0046481215 -0.32547882 0.043906692 -0.16357692 -0.25905907 -0.21889886 0.26025656 -0.17499474 -0.21577281 0.07802167 0.00031036785 0.10324294 0.33970854 0.104699954 0.42934564
7 0.40459412 0.083291836 -0.18775357 -0.13055927 0.18360026 -0.06427841 -0.04675521 0.12538037 -0.048920486 -0.0003146458 -0.059809465 0.3027249 -0.2775628 0.17180906 -0.038571842 0.19429716 0.19905381 -0.19612919 0.071418665 0.09464331 0.24080321 0.08939373 -0.10105011 -0.2549563 -0.006036679 -0.13380979 0.21668094 -0.18907675 -0.4240393 -0.05110366 -0.15871698 -0.49756783 0.1969188 -0.048243836 -0.1486132 -0.25901094 0.24310684 -0.1790214 0.005928726 -0.07193103 -0.21284477 0.26032677 -0.029122835 -0.20382303 0.15488026 -0.06638307 -0.10935628 0.18362212 0.38785046 -0.18337274 -0.01007784 0.3749142 -0.13862449 0.11299688 -0.04310448 0.18885246 0.30811697 -0.15942061 -0.4712812 -0.26648444 0.645376 0.23356752 0.18562147 0.026418813 0.3923455 -0.047648694 0.35014197 0.24188256 -0.21106762 -0.08503794 0.367342 0.32302326 0.0969966 -0.004532814 0.16613626 -0.29068977 -0.11617761 -0.1274753 -0.007916769 0.07437482 -0.075360514 0.37395403 0.10849304 0.5368175 0.058998145 0.19086003 -0.4911039 0.2888652 0.12802382 -0.13649602 0.14475735 0.1713076 0.15428644 -0.22046915 -0.5295813 -0.5000086 0.053142723 -0.1861138 -0.067297824 0.067042395 -0.37417474 0.25886223 -0.17355168 -0.09558889 -0.23157413 -0.2708166 0.12751952 0.21704355 -0.16794604 -0.14076275 0.18966842 -0.15945382 -0.021797143 0.03938655 0.010631939 0.41790527 -0.4499466 0.020323224 -0.034327317 0.09566587 -0.32326925 -0.10452543 -0.49799284 0.40386382 -0.118330464 0.03218978 -0.3133089 0.119434744
191 0.10398122 -0.32055578 -0.25766963 -0.4380124 -0.3520464 -0.42881694 -0.2636442 -0.3556883 0.20468733 0.04227826 0.20125 0.2540422 0.15441138 0.0890358 0.048058704 0.14145811 -0.17945445 -0.1410111 0.04582543 -0.35436913 0.13203397 0.00090769696 -0.07777565 -0.13861486 0.11834035 -0.22719981 -0.20009424 -0.019630037 -0.16708286 -0.3607651 -0.1325631 0.07516937 0.20858553 -0.29933745 -0.12825362 -0.07051969 -0.08539021 0.18180758 0.26092908 0.104648404 0.23750722 0.35510913 -0.03943275 0.28088164 -0.21019319 -0.3076433 -0.41376013 -0.22017366 0.07527771 0.02588214 0.001552142 0.15828474 0.39163557 0.021287361 -0.30105683 -0.23231038 0.17075363 -0.14511709 -0.3361619 0.28870943 0.07418557 -0.013730617 0.025649387 -0.108276255 0.09691729 -0.25804657 0.23869842 -0.34180874 -0.08462706 0.21079318 0.57298696 0.027968077 -0.16385804 -0.066787645 -0.09567665 0.114631355 -0.11441598 0.12972735 -0.59268576 0.08835612 -0.051459137 0.3234198 -0.17494386 0.3854558 -0.42109036 0.19588086 -0.037554856 0.30043834 -0.16464247 0.29343906 0.3865245 0.47525665 0.19438109 -0.039097384 -0.4607749 -0.2511573 -0.14763807 0.17272334 -0.21872422 -0.107717685 0.044950306 -0.14537162 0.15669855 0.06665471 0.27915895 -0.30163178 0.13361572 -0.23485868 0.00801087 -0.094455026 -0.008548422 0.57989293 -0.09618812 0.05800576 -0.18314323 0.3280186 -0.19668312 0.03269336 -0.25484583 0.1998733 0.016038427 -0.04978748 -0.06005715 0.17147619 -0.18314226 0.48907933 -0.032752138 0.2314001
19 -0.46826974 -0.29721332 -0.090235054 -0.29049775 0.3568897 -0.15516397 -0.15378234 -0.015925115 0.34226698 0.3085817 0.13910495 0.5686465 0.09522131 0.1053378 -0.09960973 0.29067528 0.1373948 -0.27094263 0.3389442 -0.045451496 0.04941289 0.0797674 -0.13819972 -0.31568313 -0.2813168 0.0028622402 -0.050421957 -0.2278024 -0.31661502 -0.46634787 0.11209537 0.3117076 -0.16459669 0.18269214 -0.2767866 -0.1262238 -0.08872833 -0.1576589 0.73519474 -0.32170764 -0.2340613 0.29167214 -0.09671212 -0.43078476 -0.18851927 0.19999386 0.004017073 0.46797103 0.27804962 0.106911674 -0.08451393 -0.05444359 -0.055481985 -0.3026514 -0.5006019 -0.72097766 0.31836146 -0.3179954 -0.24442424 0.2635947 0.4934025 -0.06530623 0.43913954 0.1608829 -0.010543002 0.038873494 0.26047468 -0.22727521 0.33455494 0.25729734 0.18625174 0.19867562 0.12987687 0.25603658 -0.4423553 -0.19627008 -0.056515887 -0.22566643 -0.5921639 -0.03823097 0.27067602 0.56898487 0.24729867 0.790062 -0.013827413 -0.17979698 -0.23491584 0.31070194 -0.39449707 -0.0029991253 0.6419068 -0.14037167 -0.21358365 0.25109142 0.24387124 -0.11992523 0.070732646 0.014442342 -0.08874775 -0.039998956 -0.47759655 -0.22585045 -0.280777 0.13975261 -0.0192768 0.3004593 -0.11879815 0.0437447 -0.03000375 -0.0660215 -0.029697737 0.37504113 -0.0030772015 0.27623385 -0.2340103 0.40320003 -0.2867471 -0.19323123 0.1827986 -0.2817342 -0.49134922 -0.07691438 -0.3597168 0.32341287 0.20937808 0.02419831 0.45954308 0.32239178
268 -0.059982628 0.13705048 0.13551801 0.11205923 -0.20658253 -0.11153318 0.1040393 -0.012274657 -0.016376104 0.38049993 -0.21888816 0.31978825 -0.027573533 -0.022404011 -0.058063056 0.27850217 -0.19789062 0.2544643 0.21156575 -0.16617607 -0.04634796 -0.13608384 0.15629718 -0.3429445 -0.29833362 -0.50605905 -0.32100463 -0.07146706 -0.013405888 -0.08259307 0.12797037 -0.2598578 0.33406663 -0.03977757 -0.20796096 -0.015804254 0.3777914 -0.15207978 -0.33853185 0.11269596 0.33734393 0.07759783 0.052805483 -0.21979202 -0.24512891 -0.025979333 -0.0694599 0.14977513 0.30511254 0.39493585 0.17179477 0.20403476 0.093984105 0.3511093 0.050513823 0.05490003 -0.039449982 -0.29158804 -0.23849466 0.009223731 0.40828067 -0.019476194 0.07830424 0.10576576 0.1877531 0.105662644 -0.17127657 -0.37997603 -0.083472915 -0.044893287 0.15265787 0.05303673 0.10602426 -0.013343947 0.15837498 0.22198996 -0.34322768 0.13496982 -0.46623132 -0.39879286 0.12751517 0.44907337 0.13475771 0.40825415 0.2897855 0.44694525 -0.11354896 0.15243392 0.27727875 0.03253728 0.50576687 -0.010086412 0.19546409 -0.24809879 0.10689495 0.043918975 -0.3586941 -0.36584458 -0.24939601 -0.09843094 -0.09525039 0.05092817 -0.36444694 0.25313872 -0.23098594 0.04155413 -0.13663904 0.16428077 -0.15867501 -0.2944703 0.13471712 0.29179358 0.16435435 0.32120013 -0.10598527 0.22042455 -0.4013647 -0.24322438 -0.006229168 0.12752233 0.024075804 -0.14516073 -0.3315774 0.087379225 -0.23545009 -0.16179465 0.015492667 0.011078326
158 0.3262094 0.04298524 0.05894782 0.12823778 -0.17784514 -0.18094443 -0.18412744 -0.012392915 -0.2903686 -0.14257212 -0.28652394 0.1667193 0.14542067 -0.21995614 0.2984824 0.29526022 0.2901374 -0.33990335 -0.05025829 0.073030315 0.27838323 -0.029614458 -0.007533376 -0.2787376 -0.22973238 -0.41243997 -0.33653292 -0.13908881 -0.16840658 -0.16811073 0.07054569 -0.20277718 0.22967404 0.055221885 -0.31789625 -0.2776471 -0.13260952 0.08172912 -0.032265477 0.35813838 0.07880399 -0.089097135 0.31289384 0.0008306801 -0.20007555 0.10290522 -0.01616742 -0.17752282 0.052740254 -0.053625517 0.12440714 0.17527854 0.22280486 -0.07574097 -0.04547507 -0.007282044 -0.10472764 0.16955543 0.04036961 -0.195051 0.4459818 -0.4241809 0.32347292 -0.08532658 0.22363234 0.25320217 -0.29535347 0.052271903 0.27895334 0.12077354 0.504028 -0.064002536 0.1195954 -0.12924276 -0.0621942 -0.07688887 0.20256944 -0.08779415 -0.22066705 -0.2866798 -0.09061856 0.17080107 -0.42112657 0.45561874 0.053110532 -0.18102928 -0.11850572 0.30562568 -0.16915552 0.1260969 0.4753524 -0.32357872 -0.33447343 0.14228176 -0.2723692 -0.09230854 -0.14133544 -0.058214255 0.04901004 -0.3571739 0.17386326 0.07704005 -0.2158766 -0.15617377 -0.17125797 0.19890648 0.08512113 0.09878721 -0.38908374 -0.38419682 -0.23077174 0.265379 -0.20904353 -0.06600357 0.04919366 0.2165556 -0.11641228 -0.039042566 0.21923922 -0.033494636 -0.5773995 0.13451159 0.20060517 -0.11996066 -0.058929913 0.09032274 -0.037786067 0.1313995
228 0.5150694 -0.044775262 -0.19915973 -0.19558811 -0.20702246 -0.52666163 0.081583 -0.15871647 0.0091722775 0.22258946 -0.21226972 -0.11878045 0.14533398 -0.18096454 -0.120503165 0.03670463 -0.0887537 -0.3739869 0.13107245 0.00016286477 0.22076161 -0.4014935 0.475239 -0.5506341 0.10451326 0.08496313 -0.040108368 0.061751008 -0.07937611 -0.45230526 -0.07119359 -0.19880791 -0.07981021 -0.3619801 -0.60776585 0.088313326 -0.0704303 0.05363652 -0.17795375 0.16209862 0.09081692 0.25102443 -0.030583225 -0.11696807 -0.15857245 0.035238303 0.035811063 0.30238387 -0.019515762 0.24117617 0.083580896 0.10572337 -0.054839686 0.017651374 -0.06403059 -0.18679364 0.23073581 0.012458837 0.37793964 -0.033013012 0.5693864 0.25959194 -0.07896012 -0.11063945 0.14473632 -0.25926554 -0.08239695 -0.07971994 0.13591921 0.03310472 0.52520907 0.41296068 0.35952854 -0.14290361 -0.07212625 -0.0954341 -0.28490382 0.18223359 -0.07544126 0.23971541 -0.06644478 0.44710934 0.31167185 0.26743388 -0.24356909 0.44891092 -0.3622958 0.1518873 -0.24391757 -0.16614182 0.620181 0.07368902 0.026997153 0.4444248 -0.16023618 -0.23252785 -0.14427617 0.04751191 -0.12479705 -0.10395078 -0.18822092 0.0044793175 0.0674263 -0.21556456 -0.18233876 -0.07862461 -0.18961842 -0.38200983 -0.0040786546 -0.2742184 -0.0042284615 0.22466691 -0.0657348 -0.16994005 -0.44834572 0.27140176 0.0765182 -0.14038418 0.0024780047 -0.24829485 0.06476129 -0.12908803 -0.1796503 0.25140166 0.040083207 -0.4536635 0.12364094 -0.14829539
187 0.6004091 -0.21930043 0.20485832 -0.163355 0.09440809 -0.25983873 0.22608672 0.1518529 0.2738267 0.46091396 -0.08268479 0.20736353 -0.07829193 0.31341714 -0.017064124 0.393074 0.19142586 -0.2518591 0.00073224975 -0.29937956 -0.0244903 -0.26403823 0.28571117 -0.22211139 -0.1876794 -0.5482298 -0.24450555 -0.09598249 -0.44166 -0.22358015 0.099274255 0.059015207 -0.14937025 0.24133444 -0.31226245 -0.02683793 -0.4485255 0.011068065 -0.0675415 -0.1673916 0.17067029 -0.205782 0.048755758 0.05179537 -0.14074215 0.06958234 -0.2388433 0.20576915 -0.067168966 -0.02037485 0.07955801 0.01544449 0.06483849 0.4236701 -0.24410762 0.10036576 0.05157305 -0.060296133 0.19109575 -0.115849495 0.45469898 0.036499526 0.5296238 -0.17385244 -0.08677288 -0.17099091 -0.20194404 -0.28999004 0.13884802 -0.065308705 0.19319376 0.2390259 0.20151237 -0.2047977 -0.056577187 -0.10925756 0.12271485 -0.28103313 -0.178626 -0.13183516 -0.2778003 0.43578434 -0.46765348 0.0762706 0.16093314 -0.10609587 -0.41539812 -0.046307594 -0.20247807 0.07041296 0.16577932 0.04035955 0.016404625 -0.08453341 -0.22010767 0.018829273 0.060950827 0.33869767 -0.0044541606 -0.059743475 0.24782453 -0.045165583 -0.27559406 0.40397593 -0.13831654 0.3468953 -0.009216231 -0.013902034 -0.15650907 0.22179292 0.14685163 0.18910208 0.1979248 -0.026136398 -0.011596778 0.16180986 -0.26948512 -0.12261067 0.19456552 -0.013838149 -0.50173473 0.022622572 -0.43619806 -0.09423948 0.27887753 0.21408476 0.316222 0.092563204
320 0.22334903 -0.11604199 0.07099044 -0.45616245 -0.41896364 -0.3012782 0.0603107 0.044281885 0.11057789 0.14481641 -0.033731237 0.3057202 0.04119738 -0.14018239 0.1671015 0.16428575 -0.048880354 0.016489075 -0.010585663 -0.0104098115 0.036598798 -0.37414452 0.29995376 -0.21938492 -0.23075756 -0.110330164 0.021372361 -0.22193436 0.016403064 0.13597655 0.046681955 0.07681567 -0.31806466 0.13988379 -0.13714033 -0.44247013 -0.0756038 -0.14420335 0.012297169 -0.22837101 0.21464588 -0.07041715 0.038645618 -0.4093444 -0.32623655 0.31795782 -0.24867852 -0.1009325 0.044303846 -0.09990499 0.22171186 0.0013868836 -0.08342646 0.09424876 -0.3206712 -0.1825258 0.034005936 -0.399381 -0.039880756 -0.31222254 0.095702834 -0.2964444 0.2773311 -0.22739707 0.43455487 0.08075276 -0.4855497 -0.0062747407 0.20332116 0.030250717 0.20496826 0.25145495 -0.027684184 0.05377271 0.102068104 0.39116102 -0.123967335 0.08214679 -0.24676317 0.02266094 -0.40125427 0.35459745 0.095436215 0.5449041 -0.067882 0.16424462 -0.5053351 0.33702484 0.10951501 -0.0059167803 0.057559304 -0.060684856 0.40547007 -0.020622564 -0.06262419 -0.18470033 0.12848306 0.09093493 -0.20765373 0.11266428 0.100181945 -0.22647582 0.028029293 0.114807114 -0.14257331 -0.004868933 0.06458371 0.011504396 -0.032654423 -0.44788542 -0.39258575 0.42886704 0.15055768 -0.3807995 -0.23461254 -0.1650909 -0.18380186 0.14557429 -0.036743645 0.027483374 0.06332631 0.19339931 -0.131392 0.14960892 -0.04257878 0.31854957 -0.45803338 0.5734801
40 0.54682034 0.123911925 0.06929308 0.033722647 -0.019865006 -0.35093492 0.09443916 -0.48823768 0.21602719 0.2967553 0.095420055 0.0922171 0.40510044 0.23160297 0.3618775 0.26238325 -0.14327464 -0.12453396 0.081931464 -0.30451378 0.31333432 0.521853 0.09241614 0.058739617 -0.5020368 -0.400072 -0.05851234 0.37195325 0.18955554 0.24484368 0.19045141 0.1714473 -0.1738529 0.0065807076 -0.44860667 0.08217073 0.67329186 0.17775966 0.09029004 0.5093505 -0.27313095 -0.14966117 0.1356571 -0.07295305 0.0070000594 -0.2230342 -0.0034469406 0.18273309 0.18227892 0.0026660196 -0.33004692 0.20785251 -0.034959447 0.07310545 -0.65177083 -0.006487372 -0.08248546 -0.63184965 -0.22528826 -0.13751715 0.4970262 -0.0821408 0.48786753 0.21756989 0.36603135 0.0019093809 0.28015277 0.21965991 0.42919964 -0.16153745 0.4944334 0.1005509 -0.2627538 -0.41743696 0.06637657 0.3779718 -0.37622118 -0.012061166 0.04207692 -0.0071404274 -0.3487274 0.29539615 0.09152338 1.2267182 -0.031878203 -0.043643165 -0.14040075 -0.22254401 -0.14906323 -0.017915405 0.2685455 0.06258631 0.2630352 0.24805212 -0.06099983 0.21308212 0.37647414 -0.09921923 -0.35752118 0.09758059 0.105446406 -0.13000911 -0.21444109 0.57767147 -0.59956753 -0.111609936 -0.3977146 -0.26690486 -0.089838825 -0.35032836 0.23016928 0.5674903 0.15651259 0.1806275 -0.23855023 0.52384895 -0.3917432 -0.37750933 0.22811587 -0.23873243 -0.20924251 0.106083825 -0.28663772 0.75665873 -0.047812346 -0.30014166 0.05392817 0.2993621
117 -0.094317876 -0.18789433 -0.11623851 0.168049 -0.1231259 0.019805947 0.12199903 -0.06534701 0.097330324 0.21656477 -0.14920121 0.32139966 -0.052689884 0.29816815 0.15831055 -0.17449589 0.23101813 0.2249194 -0.43335527 0.1385849 0.17627817 -0.102401964 0.3151921 0.22978854 -0.040000305 -0.2990209 -0.3729464 0.01835071 0.29920372 -0.014351251 0.24167493 -0.10715007 -0.027230417 -0.10976113 -0.24221295 0.12729323 0.21296431 -0.22517055 0.017999914 -0.046116736 0.2022817 0.42802688 0.04139174 0.016719172 0.10087272 -0.21562003 0.1293015 0.14885828 0.17341973 -0.18607403 -0.06602985 0.09312574 0.04051431 0.0036303229 -0.11640399 -0.0966004 -0.08629743 0.016823865 -0.040664505 0.42326573 0.40928963 -0.1553465 0.0379272 0.27384198 0.326752 0.1733702 -0.21953726 -0.025904927 0.32668328 0.06477613 0.5128396 0.10936735 -0.13025936 0.15788613 0.1447646 0.038692225 0.04377854 0.3463258 0.061677918 -0.010794159 -0.28941956 0.1611979 -0.0007469156 0.20780921 -0.19327943 0.23278803 -0.0017263921 -0.11196276 -0.19576757 0.006530033 0.2128724 0.16480629 0.3352649 0.14044347 -0.102281176 -0.03383242 -0.05511448 0.3185759 -0.053900663 0.07117723 -0.10566802 -0.032569077 -0.21873185 0.20715265 -0.3857882 -0.094783954 -0.20648327 -0.26498005 -0.14809208 -0.30830798 -0.28770372 0.52795833 -0.39160272 0.015828647 -0.25976184 0.15198515 -0.26885688 0.2088286 -0.21335734 0.2712588 -0.24210215 0.20925061 -0.028771859 0.5504961 0.19191293 0.19459595 0.025821367 0.24848902
59 0.236143 -0.12699157 -0.15955243 -0.15192117 -0.2047829 -0.2550105 -0.16791865 0.069806926 0.22287664 0.48283947 0.11178168 0.1135624 0.36476603 -0.09220972 0.07660301 0.24110773 0.28588715 0.107008986 -0.011471823 -0.20205872 0.06161794 -0.11326388 -0.010732767 0.18272759 0.16851741 -0.27718592 -0.21298116 -0.02272879 0.02807941 0.3038022 -0.3873268 -0.0023037447 0.23806974 -0.25076678 -0.4645576 0.13669917 0.058192637 -0.08377144 0.04144385 0.12507482 -0.05372966 -0.12276265 0.09461228 0.2354871 -0.15078254 0.18384051 -0.20109126 -0.18060265 0.32742575 -0.08530136 -0.01191343 0.4004196 0.30593234 0.30558807 -0.16469188 -0.039832577 -0.13632259 0.152858 -0.15033351 0.18536074 0.25883836 -0.14474683 0.0011137516 -0.018847335 0.20885086 0.17954594 -0.09059865 -0.027995098 0.13412544 -0.07125118 0.1925343 0.19284004 -0.11626134 0.117246196 0.3796637 -0.10153942 -0.21894413 0.25982383 0.06766065 -0.4562054 0.05689447 0.24225724 0.15951653 0.04329005 0.06167764 -0.094264284 -0.30372494 0.2695799 -0.07905335 0.039264224 0.444733 -0.18320064 0.34724182 -0.10953778 -0.030934164 -0.43752214 -0.009462188 -0.3272498 -0.06664847 0.28644264 0.3025909 -0.1160913 -0.05057861 0.3195485 -0.6043944 -0.25955504 -0.082014784 -0.14540632 -0.017522905 -0.2265568 0.046614252 0.12685612 0.16069132 -0.09739906 -0.21837758 0.04535763 -0.3042156 0.48980507 0.11426852 0.10011225 -0.13609093 0.4564791 -0.29634842 -0.15082231 0.11330805 -0.0031069908 0.1483425 0.18827927
62 0.17120264 0.020194286 0.066576734 -0.39952245 -0.030615468 -0.16336645 0.16759337 -0.041730788 -0.20025115 0.33096278 -0.095048904 0.34082848 -0.13956267 0.24217735 -0.27387968 -0.02907303 -0.41025162 -0.2603938 -0.072168544 0.04833378 0.24436697 0.16975051 -0.093823776 -0.39534265 -0.44306868 -0.46379945 -0.22651674 -0.102699265 -0.19409563 -0.2943809 0.19400829 0.07211147 -0.116115555 -0.055913925 -0.41791993 0.09215211 -0.19581397 -0.18216652 -0.03878787 -0.10354923 0.1642885 0.120712996 0.1606463 -0.005327987 -0.016976116 -0.12380063 -0.06269781 0.07472419 0.29834777 -0.14365888 0.1363157 0.17561765 0.30280235 0.16491583 0.11454151 -0.0880969 -0.35130018 -0.3103624 -0.45132357 0.15453604 0.11097497 -0.23909032 0.14430149 -0.04543562 0.02040042 0.06023437 0.37756646 -0.055910103 0.18175244 -0.047208533 0.4819891 -0.085006714 -0.08721831 0.18207231 0.074334234 -0.26323453 -0.22600546 0.022518862 0.16493325 -0.00045160987 0.12841009 0.093091495 -0.3487576 0.19090788 -0.10897206 0.07623298 -0.018418355 0.014418907 -0.17502914 0.25832388 0.51227885 -0.36894667 0.16818768 0.08424182 -0.15666957 -0.11223815 -0.21925507 0.33676514 0.4437085 -0.00980999 -0.37445635 -0.113200076 -0.09994662 0.2732296 -0.45379758 -0.20805672 -0.13174054 -0.056110267 -0.3261452 0.1916768 0.18738955 0.4406173 -0.13684879 0.14066827 -0.13164613 0.44690412 -0.35281646 0.071208574 -0.10237388 -0.20231979 -0.14901344 0.26136827 -0.06156316 0.114311464 0.3061931 0.14632927 0.10032143 -0.15212287
120 0.2538001 0.07942491 0.3651365 -0.12856281 -0.34146705 -0.44207564 0.23250876 0.083248675 0.06713382 0.06379954 -0.32806793 0.21431859 -0.19326267 -0.028438179 0.23390654 0.053582266 -0.08069108 0.25584316 -0.044733264 -0.12602219 0.22668776 -0.35020852 0.3487809 -0.41614568 -0.22182311 -0.30133262 0.06611095 -0.13755222 -0.16556327 -0.22258459 0.2212711 0.3278245 0.05031898 0.0040740664 -0.2733384 0.10954527 0.12502843 0.07297939 0.0019421935 0.26445216 -0.30769056 -0.1172355 0.016494788 0.24523082 -0.25065705 -0.31312215 -0.24912284 -0.10354754 0.18781193 -0.25726795 -0.009102092 0.28107518 0.5949409 0.13484094 -0.10864648 -0.13290831 0.49082297 -0.34163752 -0.1702816 -0.21111798 0.039091516 0.099178255 0.20830579 0.12514469 0.20847087 -0.19023225 -0.2299775 -0.07214397 0.071775414 -0.056764353 0.0818204 0.26782364 0.102301866 -0.14512378 0.30734855 0.085224494 -0.14969039 -0.16111939 -0.0821502 -0.062318567 -0.10508574 0.1957612 0.1510203 0.4060116 -0.21711425 0.34904367 -0.034114692 0.21256518 0.14335074 -0.26682815 0.32323554 0.030446995 0.19031067 0.053998616 -0.125022 0.19717184 0.06109428 0.029044818 0.0052679502 0.018784892 0.3849508 -0.17140521 -0.1286979 -0.5096862 0.011894253 -0.19076212 0.18622778 -0.2748129 -0.2748839 0.0072286413 -0.088922024 0.36193725 -0.18435526 0.39294127 -0.24707994 0.29530102 -0.34503496 0.23417608 -0.051954255 0.1081028 -0.025556445 0.1838431 -0.36164597 0.4777126 -0.013739966 -0.018579708 -0.33223128 0.2356334
114 0.1599419 -0.036278073 0.25991547 -0.21161582 -0.0073176557 -0.008765761 0.3129785 0.0656849 0.060526453 0.080430344 0.037379105 0.05486331 0.29421663 -0.067144215 0.060657978 0.17203839 0.09723704 -0.12573579 0.091042235 0.054167923 -0.27199572 -0.07604609 -0.025374627 -0.50595444 -0.30027807 -0.51969576 -0.2196238 -0.31656432 -0.08764681 -0.19695918 0.068699695 -0.12194445 -0.09950951 -0.19745414 -0.30163625 0.11478299 -0.40145618 0.04726258 -0.3086316 -0.14001419 0.3160733 -0.12260046 -0.27811223 0.04075263 -0.24675317 -0.18144193 -0.43668628 0.09970403 0.31127846 -0.010337801 -0.021771232 0.13076283 -0.21306103 0.49126768 0.2467701 0.11889892 0.26157945 -0.1577712 -0.077962756 -0.21665967 0.47257474 -0.17245376 0.38658136 -0.089659736 -0.13426645 0.05200746 0.13778432 -0.17784572 0.03138237 -0.05597935 0.21026988 0.13311562 0.02228106 -0.24532138 0.22443902 -0.08621218 -0.023723416 -0.094527625 -0.31146216 -0.15678318 -0.14624973 0.494057 0.1920868 0.19888218 -0.26764414 0.18565218 -0.14338644 0.25376198 -0.19624458 -0.03983101 0.1887965 -0.19187948 0.30446824 -0.062181734 -0.2689542 -0.2628544 -0.122862674 -0.11951081 0.08704387 0.05719776 -0.09691964 -0.43566146 0.13857982 -0.038471177 -0.5256501 0.0713942 -0.10190752 -0.2308392 0.08053655 -0.09795121 -0.18446681 0.22437815 0.12956865 0.2824117 -0.37014621 0.08495202 -0.28535923 0.13142511 -0.1450959 0.5107746 -0.032229584 0.1594703 -0.22212102 -0.03699616 -0.2259647 0.21741794 -0.39003736 -0.27189913
330 0.29777533 -0.19413161 -0.2279629 0.2711348 0.079750635 -0.11742995 0.05330406 0.18348761 0.2049602 -0.08253153 0.018603034 -0.09505131 0.06666059 0.15755764 -0.0518758 0.15993635 -0.002931505 -0.29373735 -0.10586364 -0.2311533 -0.08809962 -0.29313642 -0.41259274 0.095695294 0.14750054 -0.19287162 -0.18737012 -0.15900594 -0.50454545 -0.15291435 0.15733504 -0.18777075 0.049250487 -0.3386523 0.054280836 -0.09174293 -0.015749302 0.13315892 0.1427676 0.14493826 0.27819645 -0.1503481 0.045638576 -0.0074988473 -0.4156916 -0.070974104 0.2672094 0.16171774 0.17978905 -0.1037124 -0.16583268 0.071830936 0.13394749 0.024137141 -0.26549613 0.014354369 0.14905985 -0.070076846 -0.14845105 0.2193724 0.4863936 -0.44254553 0.52951074 -0.16972409 0.68158513 -0.1503268 0.20606282 -0.28213271 0.12908578 -0.05708974 0.24977267 0.25942177 -0.14549927 -0.17186601 0.0021809677 0.060437646 0.11902423 -0.17103297 -0.13692291 0.28469336 -0.052384708 0.1943479 0.05793667 0.20746522 -0.020340648 0.1069768 -0.1962879 0.11128944 -0.06819345 0.27440184 0.5089221 -0.1324498 -0.050395217 -0.087527834 -0.18637842 -0.26432964 0.13328138 0.10048211 -0.002663957 0.3174972 0.010635145 -0.08530139 -0.04338398 0.24706423 0.010562892 -0.05226842 -0.12315792 -0.32143208 -0.20510462 0.015112649 0.022021066 -0.005874928 0.15117665 -0.051633567 -0.21695292 0.39593786 -0.22628687 0.32624432 -0.12495473 0.19995731 -0.09494183 0.3764388 -0.11072258 0.25397232 -0.101328894 -0.032853886 0.031996094 -0.00035560055
233 -0.24706836 0.1294381 -0.19864586 -0.26266804 0.01475973 -0.384687 0.15619898 -0.14465657 -0.15072195 0.029359734 -0.33174282 0.2799972 0.1568458 0.06343913 0.06802625 0.20341556 0.05765427 0.035424583 0.09829305 -0.29851276 -0.009668339 -0.11864327 0.53426075 -0.07278888 -0.08278158 -0.18608388 -0.20964853 -0.39161196 0.10335159 -0.105240054 -0.209286 -0.17450051 -0.25016382 -0.32721972 -0.42756677 0.14094774 -0.24712843 -0.19654956 0.12523855 0.008385078 0.08566575 0.07545238 0.21421918 0.1107741 -0.48421308 0.015019928 0.0028934218 -0.076475985 0.18207835 0.048666924 -0.056518484 -0.24805191 0.16360378 0.33149505 -0.3738257 -0.21920852 0.21840008 0.11281739 0.20991912 0.05055624 0.42381212 -0.13158801 0.30121398 -0.17275411 0.050651904 0.637364 0.0059457654 -0.030996703 0.031530987 -0.2303555 0.4050571 0.013170312 -0.18346162 -0.05523396 -0.097477496 0.11431507 0.05986757 0.1057293 -0.30582073 -0.14856607 -0.058172304 0.6014255 -0.14456719 0.30540395 0.15505084 0.40229353 0.40354535 0.2444322 -0.16446508 -0.17207311 0.2462237 0.29092205 0.24895862 -0.05859297 -0.14953262 0.015731113 -0.05503518 -0.13955231 -0.09170342 -0.3748484 0.13585648 -0.1108036 0.056665044 0.26679066 -0.13649142 0.3140414 -0.09500262 0.06837022 0.06783423 -0.24835691 0.33838207 0.020162253 0.08055894 -0.21623476 -0.34170064 0.25376707 -0.03203465 -0.24069771 0.0043982905 0.048105158 0.10090744 -0.24382846 -0.003021141 0.36975268 -0.15603149 0.0034786682 0.089101136 -0.16910702
314 0.13765223 0.116345875 -0.2825222 0.19249004 -0.06118315 -0.23945059 -0.11332525 0.19490243 -0.030733958 0.25471193 -0.16365752 0.32482636 0.15270628 0.24498896 -0.39318436 0.44915318 0.068150215 -0.12231525 -0.16209559 -0.155923 0.2677565 0.05800041 -0.08753018 -0.06512095 -0.027541323 -0.024093281 -0.25262678 -0.049523134 0.027196594 -0.38405815 -0.17947873 -0.034341548 -0.0034034038 -0.20886843 -0.3287589 -0.11999888 0.22186907 -0.111314684 0.0008833162 0.20132932 0.041798625 0.24690945 0.0719423 0.06497042 0.20421383 0.1024501 0.27259392 0.05364909 0.2482917 0.20714606 -0.0020329556 -0.11845424 0.051191505 -0.1688429 0.10102736 -0.1265807 0.10168306 0.25827435 -0.10913856 0.023604091 0.5896747 0.31994262 0.035033908 -0.19347557 0.25739262 0.010369322 -0.2876193 -0.0055812323 0.05038377 -0.14761 0.41320848 0.3748405 -0.020171376 -0.20188582 0.27031955 -0.075026534 0.16959538 -0.05572388 0.033073828 -0.1747656 0.33632872 0.22940196 -0.109994836 0.18729922 -0.07746785 0.31645173 -0.537057 0.061745666 0.2778422 0.26287574 0.4946963 0.121560715 -0.14125319 -0.0192033 -0.13221349 -0.14815888 0.1256336 -0.333807 -0.33505353 0.038927354 -0.29042658 -0.28244746 -0.23739366 0.116955966 -0.2703245 0.083451286 -0.15243894 0.108102955 -0.18000579 -0.010076297 0.024343181 -0.02709512 -0.51802164 0.17246614 -0.2817805 0.42540964 -0.039082628 0.29473078 0.05038422 0.050789945 -0.027771631 -0.12856628 0.15072548 -0.1274886 -0.39575407 -0.07887708 -0.11504798 0.23414244
56 -0.29172432 -0.15210101 0.15073001 -0.014542281 -0.029536482 -0.37870744 0.078559965 -0.06766652 0.32193008 0.14842193 0.049162146 -0.07296039 0.040495433 0.3907568 -0.18053417 0.39089933 0.3194757 -0.13005818 0.08329445 -0.04588227 0.19139181 -0.15574063 0.18356377 0.052391328 -0.15864566 -0.19811213 -0.052576814 -0.025836263 0.016053487 -0.0016410338 -0.039324794 -0.15492137 -0.22205131 0.27865082 -0.01904104 0.09077331 -0.08226709 -0.08081624 0.33142722 0.047454353 -0.03266736 -0.23553066 0.2694792 0.12025079 -0.33216065 0.3313852 -0.00036062027 0.13718006 0.19594294 -0.037310503 0.057929426 -0.20757093 0.017693635 0.3491214 0.076225884 -0.1544625 0.05467979 0.0064754793 -0.19076751 -0.13485023 0.24125394 -0.07091299 0.23623787 0.14206019 0.031446967 -0.006041406 -0.157136 -0.07383367 0.25570294 -0.41628066 0.20051162 -0.0090963235 -0.004785926 -0.120742574 0.1346377 -0.088321194 0.110434785 0.048243735 -0.23789021 0.3331064 0.03278194 0.51728487 -0.11875659 0.18141696 0.05754157 -0.116668366 -0.3817596 -0.022698697 -0.13806237 -0.45967084 0.77189 0.012513363 0.018083308 -0.14670962 -0.11516113 -0.010635113 0.03495115 -0.34561786 -0.18718313 -0.015656454 -0.46290684 -0.2952499 -0.1317841 0.08156447 -0.15452346 -0.029591106 -0.20089324 0.040084526 -0.05721673 -0.38142434 0.19654836 0.33349454 0.113422506 0.040347125 -0.44264707 0.13948728 -0.3289571 0.384146 -0.095688716 -0.08989721 0.12823935 -0.05692189 -0.28813887 0.26781788 -0.25680533 0.016415777 0.10844655 0.2778666
129 0.31322414 -0.20626964 -0.011885093 -0.46404156 0.013477484 0.049945746 -0.22121017 0.14268793 -0.18401039 0.24166615 -0.021382699 0.04087871 0.040321093 -0.10841792 0.360432 0.09498285 -0.06334996 -0.007454656 0.16159423 0.0611332 0.09467619 0.048313793 0.20595168 -0.27556634 -0.22212543 -0.034660388 -0.35984108 0.07034416 -0.23758797 -0.39818043 -0.13505341 -0.023195235 0.09852665 -0.13450041 -0.041819844 -0.34791484 -0.092519 -0.078569695 0.15684338 -0.046683297 0.25085825 0.027133359 0.010973203 0.07819249 -0.4814276 0.19650705 -0.34748247 0.18936029 -0.041881062 -0.07143291 -0.19144878 0.035114706 -0.10353251 0.05822243 -0.49034312 -0.03582844 0.22806236 0.21189491 0.059822984 0.001027043 0.5068383 0.26073492 0.07424198 0.089919925 0.2854908 -0.038863055 -0.1863171 0.18360773 0.15139975 -0.17433625 0.23501687 -0.17190515 -0.10267968 -0.2854741 0.07348182 -0.20919745 0.08433844 0.35686257 -0.095912844 -0.12839842 -0.22578822 0.03949296 -0.18090366 0.320164 -0.036584944 0.24150218 -0.31844905 0.05063458 0.051396653 -0.18712147 0.3224456 0.0667949 0.06646269 -0.022520289 0.37894493 -0.37741587 -0.1323259 -0.12944518 -0.028854681 0.0862397 0.33489543 0.110490814 0.088293955 -0.07120811 -0.2011721 -0.22874922 -0.09490942 0.41199085 -0.11333518 -0.28092968 0.15134081 -0.10993758 0.11514323 0.07034149 -0.09224268 0.3839455 -0.099362805 0.23318402 -0.009274799 0.047986344 -0.35753864 0.06376591 -0.3609589 -0.08237215 0.021257285 -0.1891167 0.11211328 0.18650022
14 0.53581095 -0.21991123 -0.19629234 -0.079834886 0.2022027 -0.07567988 -0.15767395 0.14343148 -0.10915843 0.12317798 0.012695161 0.5557877 -0.20916764 0.08699456 -0.09365381 0.05975476 0.43726 -0.42211363 0.1710766 0.18758434 0.6242753 0.11838803 -0.019089611 -0.42171383 -0.052230578 -0.18137623 0.17407228 -0.4594101 -0.4267814 0.10087359 -0.04775683 -0.74002874 0.3098013 -0.19550449 -0.44641355 -0.5599654 0.14069039 -0.07465203 -0.031022385 -0.019404458 -0.42056596 -0.09422992 0.010607412 -0.25136676 0.17954181 0.0033066303 -0.18361756 0.2618785 0.4098534 -0.11849377 0.22327767 0.38088867 -0.40992606 0.22669668 0.13430187 0.116683334 0.4330728 -0.0071009956 -0.3944929 -0.15951177 0.9339951 0.3292667 0.3818616 0.041619662 0.4371312 0.22284935 0.17503376 0.36012122 -0.24283329 -0.33146033 0.47177407 0.22478236 0.17063327 0.08091839 0.34559494 -0.17387946 -0.32526287 -0.6879323 -0.23303932 -0.122694194 -0.5182465 0.5347729 -0.059727408 0.8101662 -0.04959225 0.22564703 -0.5998861 0.7613679 0.25196302 0.18516785 0.24460353 0.5728272 -0.020143164 -0.35721168 -1.0995487 -0.77873355 0.09389642 -0.308389 -0.2906656 -0.18998758 -0.39947516 0.12088337 -0.10309379 0.10917168 -0.3023802 -0.36561957 -0.15192813 0.23340745 -0.19109781 -0.1967303 0.07516581 0.27300256 0.0041697635 -0.025932636 0.012513545 0.6576831 -0.8241756 -0.023567522 0.06994686 0.12239159 -0.3541216 -0.40539888 -0.6232652 0.7430284 -0.30001244 0.48622766 0.0096609 0.24507698
162 0.16957505 0.093337454 0.081673875 -0.5053238 0.025140258 -0.1659491 0.18430293 -0.0070875217 0.019597074 -0.029695505 0.15229484 0.104277916 0.17961223 -0.055717338 0.086248145 -0.089474596 -0.096515246 0.022726193 0.0070335204 0.011663629 -0.029426765 0.04542631 -0.0075836224 -0.14135571 -0.31607187 -0.27961892 0.027796032 0.13990517 -0.35274377 -0.26077637 -0.2111252 0.41823283 -0.24007885 -0.15017803 -0.31822535 0.010054253 -0.40818352 0.18280856 0.16157816 0.04409294 -0.015443829 0.21217406 -0.3183301 0.30892405 0.18617249 -0.004182924 -0.0628453 0.008716193 0.3186902 -0.44541803 -0.5690621 0.0013260324 -0.025680784 0.08625547 -0.2871117 -0.12637398 -0.20404181 -0.12672949 -0.16380836 0.059905812 0.23448335 0.05976728 0.13467978 -0.097236015 0.6555747 -0.12250182 -0.3558 -0.16288099 0.46520662 -0.1351989 0.33992526 0.09089334 0.043164425 0.08394149 0.1561678 -0.24704419 0.08708764 0.29201895 -0.01849709 -0.12355464 -0.26889738 0.54550225 -0.026800744 0.50085026 0.31400952 0.053729475 -0.085532635 0.10742486 0.19802342 0.08788419 0.11825781 -0.382895 0.04285848 0.21139392 0.21969162 0.2693337 0.06089799 0.04468597 -0.15103263 -0.13343444 0.04392071 0.08326373 -0.10204205 0.031010823 -0.29918715 0.10319493 -0.20898086 0.16528548 -0.11374813 -0.5633962 0.12851156 0.6821078 0.11110409 -0.03061279 -0.25541073 0.5949122 -0.18559271 0.25959602 0.040920354 0.19865935 -0.15220751 -0.20413385 -0.008050926 0.20114246 -0.38597843 0.003045188 -0.30704206 0.03170365
26 -0.26416948 -0.54128724 -0.055867773 -0.27441558 0.4993842 -0.3035546 -0.3405549 -0.35723948 0.37193707 0.20411162 0.064777136 0.79326624 -0.040154487 0.19929759 -0.14397499 0.38761395 0.263905 -0.23560904 0.19191024 0.012441302 0.25143325 0.10960397 -0.31597975 -0.32217026 -0.63255244 -0.02860998 0.05636698 -0.3002068 -0.2957141 -0.47491288 0.09099514 0.24525598 -0.061335195 0.2592514 -0.3630307 -0.35929912 -0.05116628 -0.49276885 0.68130124 -0.009830568 -0.13466975 0.1473664 -0.22052434 -0.27174607 -0.2278181 0.04975937 -0.08629622 1.014107 0.50265765 0.31218553 -0.14977525 0.07234195 -0.324643 -0.4461549 -0.8389516 -0.76673996 0.6496115 -0.5998423 -0.367949 0.08669816 0.6094038 0.1709649 0.6903007 0.13363568 0.36673102 0.12195032 0.42132282 -0.40543145 0.19544695 0.05892195 0.4747427 0.41248408 0.117820404 0.066150516 -0.50127506 -0.2600274 -0.17580457 -0.47224426 -0.971632 0.03307802 0.32133165 0.6760355 0.27227387 1.2877558 -0.10238175 -0.32000437 -0.15263331 0.50069255 -0.5497807 0.16621482 0.9434938 -0.047481615 -0.40322444 0.22620793 0.04321127 -0.26988408 0.45213404 -0.022566248 -0.0340197 0.23544367 -0.5481888 -0.10305368 -0.30941162 0.0378476 0.0903839 0.038717493 0.18139346 -0.024317797 -0.10321968 -0.11981215 -0.17771865 0.57212615 0.024525968 0.67151004 0.09874509 1.0131457 -0.24208115 -0.40025982 0.00063885027 -0.37457806 -0.753601 -0.10669935 -0.2789106 0.8490429 0.16174062 0.25484988 0.59396183 0.35610887
273 -0.081008546 0.19294499 -0.20506994 -0.4160972 -0.10337986 -0.24521226 0.038315903 -0.081955545 0.36155653 0.04115882 -0.20506749 0.3077576 -0.06500879 0.03009061 0.21267796 0.0051857657 -0.03583196 0.13619514 0.083356656 -0.15809774 -0.15619694 -0.059942927 0.32341477 -0.18752772 -0.35197023 0.06644792 -0.20118803 -0.38453797 -0.021241862 -0.23248677 -0.14096934 -0.09412805 -0.19491415 0.10128047 -0.12538533 -0.12766744 0.12223597 -0.056975227 -0.04842766 -0.05169581 0.24066551 0.16549888 0.024480436 -0.062183883 -0.223249 0.2893885 -0.2120244 -0.048435174 0.20721906 -0.078457035 0.15548101 0.36361486 0.0359232 -0.010269502 -0.3054168 -0.038326982 0.17044915 -0.034623794 -0.2845744 -0.31592122 0.8155598 0.08085587 0.098364584 0.21263048 0.11358113 0.108606584 0.105534 -0.08643793 0.41525295 -0.0729019 0.27700892 0.4621736 0.13611203 0.03528158 0.12433873 0.17887959 -0.38464877 0.28208295 0.017367236 0.29643542 0.2670453 0.3018658 0.27840075 0.35332125 0.118417546 0.16462502 -0.22880387 -0.22901301 -0.28505063 -0.48044458 0.25144672 -0.09224299 0.08026004 0.26438186 0.26302895 -0.24914676 0.11516611 -0.29942903 -0.018780936 -0.105993964 0.012891827 -0.21814704 0.035319645 0.33535412 -0.40710872 -0.25301552 0.013483106 0.19777292 0.06554989 -0.031275403 0.13691135 0.008408162 -0.33282584 -0.21248703 -0.43450618 0.100337885 -0.22031277 0.09202773 -0.14956369 0.012401666 -0.25178725 -0.019262167 -0.2952706 -0.0729697 -0.2713165 -0.37498403 -0.004133166 -0.06950641
132 0.24226213 0.040516697 -0.06730942 -0.1057455 0.0077494043 -0.20350337 -0.093195625 -0.020440916 0.4684211 0.24743441 0.119745195 0.035815068 0.17894559 0.11722079 -0.0944758 0.111174315 -0.25887147 -0.027399441 -0.24658296 -0.07489114 0.11511154 -0.21294448 0.24012753 -0.19375737 -0.3456911 0.15519896 -0.23400472 -0.13540258 -0.2907592 0.105994925 0.037433367 -0.027452659 0.11972782 -0.24430044 -0.21700278 0.17788751 -0.1744434 0.33657798 0.070774585 0.14429118 0.304233 -0.0003497992 -0.054503333 0.34022367 0.13826698 -0.1711688 0.10295925 0.13620791 0.13747504 -0.12272649 0.28219503 0.121798255 0.09824673 0.45040086 0.21852393 -0.38328296 0.34392563 -0.04858806 0.0076190108 -0.14858575 0.59596545 -0.12452931 0.4474234 -0.31793994 0.115551 -0.22448984 -0.24768195 0.20253865 -0.10371583 -0.023697691 0.18672642 0.008890261 0.07149836 -0.031767644 0.109518774 0.37397167 -0.015412279 0.008243764 -0.043523632 0.029221185 0.19976582 -0.09980656 -0.1382409 0.3379664 0.09036221 0.036895234 -0.48123756 0.14280535 0.055898283 -0.24672616 0.46944866 -0.13046719 -0.17635264 0.10309054 -0.092271656 -0.0033441437 -0.36707857 0.15691422 0.0060434784 0.074982084 -0.35361853 -0.009432613 -0.07055454 0.073475435 -0.09990574 0.05826581 -0.28152254 -0.09946584 -0.14937985 -0.08365252 -0.25772646 0.31713536 0.16314363 -0.22621456 -0.51726675 -0.35550937 -0.49828783 0.09067697 -0.18987161 0.06629918 -0.03576111 -0.189789 0.060878295 0.4388993 -0.40954602 0.08244065 -0.043376606 0.40106094
21 -0.474606 -0.40018332 -0.24733293 -0.29976013 0.3407145 -0.09388575 -0.20002435 0.035407368 0.12990308 0.26315233 0.13974687 0.7301387 0.23016474 0.2249207 -0.1336781 0.4604839 0.18859534 -0.2063418 0.2618023 -0.13253827 0.1822283 0.17415416 -0.3150963 -0.43336645 -0.28427187 -0.012606039 -0.37440175 0.003131875 -0.39063552 -0.6180065 0.27790517 0.43855268 -0.16725285 0.31327087 -0.005082212 -0.23160942 0.07806776 -0.32011846 0.81558937 -0.31695208 -0.23105785 0.3426873 -0.16646722 -0.3929738 -0.3316523 -0.02756156 -0.102043845 0.58894736 0.25937966 0.13832514 -0.17722608 0.040044233 -0.086149946 -0.41252673 -0.56504124 -0.7647233 0.48449552 -0.5183298 -0.3360584 0.22417018 0.5037031 0.01816966 0.54976344 0.19422199 0.030449318 0.026528517 0.2872705 -0.22725148 0.24381238 0.420062 0.28333855 0.03189244 0.11420271 0.007151088 -0.37025928 -0.13989672 0.098831445 -0.048189364 -0.65102595 -0.2627255 0.1702194 0.75356424 0.3180705 0.9150262 -0.078412935 -0.13996135 -0.40019813 0.5331243 -0.37013537 -0.06750116 0.6063327 -0.08358583 -0.017685506 0.10797678 0.3786938 -0.25008997 -0.027234202 -0.08039095 -0.36458474 0.17213038 -0.5522786 -0.41160342 -0.33863717 0.17493524 -0.25196144 0.32835644 -0.08887526 -0.12912142 0.019840008 -0.027861483 -0.07681964 0.49334398 -0.02313282 0.59777635 -0.078303345 0.5061414 -0.46072954 -0.06749814 0.13987052 -0.21475483 -0.4217982 -0.0630401 -0.49720287 0.4742052 0.14741553 0.16784532 0.31103024 0.6072413
9 0.43274572 -0.097179644 -0.19917426 -0.15887916 0.215544 -0.24962024 -0.09765819 0.18381819 -0.03191898 -0.033546504 -0.2749911 0.34742782 -0.18670088 0.08704446 -0.01473439 0.20039694 0.4597137 0.12540378 0.061630506 -0.14580277 0.25576892 -0.038012028 -0.2624964 -0.26100332 -0.1917368 -0.16134304 0.05288703 -0.20292497 -0.37673312 -0.21065886 -0.13474661 -0.54974097 0.16005781 0.043781303 0.17275773 -0.32169303 0.41398916 -0.3136016 -0.021450596 -0.009354288 -0.33219984 0.02336517 -0.06393431 -0.3793167 0.17295948 -0.10188489 -0.20030367 0.24057406 0.22250867 -0.15508519 -0.19805683 0.636251 -0.21241094 0.2548993 -0.368814 0.10016839 0.4075091 -0.32994488 -0.5742816 -0.3219134 0.6916168 0.3025395 0.30484933 -0.07809595 0.29864764 0.23802277 0.5061617 0.26310673 -0.25950357 0.12919801 0.4641954 0.52052087 0.048766863 -0.20661345 0.06255343 -0.31721187 -0.10831068 -0.17370753 -0.026501928 0.06645726 0.0376652 0.620026 -0.08750671 0.780199 0.16494168 0.27059445 -0.65736985 0.5373521 0.12690194 -0.015128498 -0.07228954 0.23971565 0.21254012 -0.05419553 -0.6290375 -0.6477869 -0.06360618 -0.2663056 -0.007003178 -0.039198115 -0.17164409 0.23237614 -0.37415385 0.090028845 -0.19672187 -0.16651316 0.24368785 0.23321846 -0.17435913 -0.04729187 0.06532706 -0.15357852 0.04464913 -0.11438701 0.23054059 0.4436756 -0.5514407 0.08818735 0.046770878 0.21376681 -0.29455793 -0.13599914 -0.55343795 0.40452626 -0.3274562 0.36864403 -0.3920821 0.1389886
143 -0.08813614 0.19797662 -0.022822991 -0.19202295 0.09392658 -0.1055385 -0.27875003 0.057694543 -0.021156156 0.2711248 0.18876462 -0.24807563 0.124245554 0.04420393 0.43746263 0.14863694 -0.06553615 -0.37788692 0.13931783 -0.25807586 0.055768903 0.060320094 0.23385394 0.29016295 -0.11758637 0.14729245 -0.17630307 -0.12888256 -0.08392149 -0.37708142 -0.24483272 0.15578744 -0.0041087987 -0.16555691 0.028476164 -0.311472 -0.18660095 0.0377863 -0.1094559 0.32447168 -0.09873154 0.38821995 0.073269345 -0.12145114 -0.06617299 0.23227206 -0.007519985 -0.1948937 0.3246159 0.050603542 0.0021863608 -0.02982531 0.028687749 -0.008453969 0.18770503 -0.06520412 0.30118057 -0.19720119 -0.11440894 -0.21615985 0.3282463 -0.25656837 0.51346034 -0.013747449 0.12620571 0.091474354 -0.113352835 0.041313387 -0.01763616 0.24916835 0.26678643 -0.34051627 -0.023862297 -0.14842366 0.005394083 0.14977041 0.050294437 -0.5142156 -0.0022797904 0.02335378 0.096600145 0.20645119 -0.073906735 0.20562576 -0.07815813 0.07060538 -0.12858847 0.26650667 0.22053137 -0.19311553 0.4780283 0.005591953 0.07045118 0.15987387 0.21867116 -0.1245039 -0.14204241 0.25092638 -0.11482647 0.038606886 -0.05384189 0.10153921 0.1314335 0.13128258 -0.23755252 0.0058477605 -0.3125705 0.5414657 0.015957613 -0.13566768 -0.0008884603 0.2974597 0.12528972 0.03822658 -0.23012526 0.67236954 -0.4717403 0.08361554 -0.4342989 0.17735519 -0.14276423 0.22233051 -0.33900636 0.18029654 -0.19686107 0.123590946 0.04452282 0.03641111
310 0.07389419 -0.08843544 -0.099375784 -0.002314685 -0.010558156 -0.52802235 -0.11075199 0.1353965 0.0693919 0.44142362 -0.10515228 0.19792354 0.5556347 0.0033362173 -0.008111535 0.23034838 0.41509944 -0.05298635 0.23951446 -0.41594753 0.11155124 -0.50644237 0.3312928 -0.22273403 -0.072658464 -0.3400302 -0.43228748 -0.16390097 -0.14366756 -0.30361968 -0.263507 -0.18667956 -0.03392931 -0.11215141 -0.036167532 -0.27539232 -0.08399385 -0.016133292 0.008951044 -0.09617164 0.031666595 -0.20015956 -0.010733648 0.16240671 -0.18286286 0.19584444 -0.0664514 -0.026670067 0.32464302 -0.22363701 0.11627186 0.34479672 0.46010166 0.23045738 0.17033291 -0.22995462 0.16517241 0.105355 -0.16898201 0.124355905 0.15686765 -0.1857622 0.20418547 -0.13632092 0.10738535 0.11483981 0.13813254 0.08549883 0.14560404 0.24611881 0.24471939 0.24271083 0.12361588 -0.12083045 -0.02946063 -0.1914134 -0.0035083385 0.11381957 0.2570273 -0.09478318 0.11833727 0.22757655 0.17408088 0.2971882 0.15476239 -0.103676 -0.40447894 0.21712133 -0.06727918 -0.23313902 0.14043461 -0.50183403 0.084878884 0.2550047 0.27041277 -0.41643944 -0.31182885 -0.05354477 0.11117076 -0.3642065 -0.058762286 -0.018725391 -0.18527742 -0.25000212 -0.2406459 0.13380578 0.123758905 0.055784963 0.09162893 0.01655772 0.046614718 0.18992168 0.0987389 0.21226597 -0.33387685 0.104429536 -0.036252465 0.051841818 0.07883111 0.08336202 -0.20424755 0.05071987 0.17467466 0.025836725 -0.029076982 -0.10407838 -0.13759787 0.32383117
126 -0.074982926 -0.13502368 -0.17544231 0.1330494 -0.13959634 -0.013158396 0.04574379 -0.029896017 0.066780366 0.34857112 0.18519682 -0.07954622 -0.20399825 0.07930907 -0.122504406 -0.14514357 -0.07426974 -0.013112626 0.038242083 -0.23354593 -0.21231943 -0.014580047 -0.059341565 0.038637277 -0.26873493 0.08413869 -0.043474887 0.23156872 -0.3518508 -0.22382915 0.12632188 -0.37972334 0.0401429 -0.367653 -0.4024858 0.042083707 0.41210613 -0.13540895 -0.0039194436 -0.114961565 0.012498467 -0.10536082 0.2762356 0.33269852 -0.11029624 -0.19004253 -0.37764326 0.44437236 0.14513339 -0.016215578 0.35734227 0.116430365 0.23186502 0.017394038 -0.3178524 -0.18223324 0.06682055 0.16717249 -0.30171746 0.14042948 0.30888593 0.23131515 0.229908 -0.37910083 0.1095493 0.09824188 -0.38837543 0.14990203 0.22559483 0.07665858 0.7194722 0.109542616 0.09146254 -0.31696686 0.3277424 -0.18581653 0.1693034 0.07023431 0.018862825 -0.39307272 0.16781613 0.46362695 -0.06720555 0.12021906 0.06386574 0.18055606 0.16747153 -0.024191193 -0.028878136 0.045819163 0.24310921 0.024069501 0.16144387 0.1271364 -0.3101644 -0.04799767 -0.2380767 -0.010561645 -0.33838528 -0.19453767 0.17570166 -0.39045256 -0.1566771 -0.107840255 -0.082417406 0.21174765 -0.14104012 -0.07728858 0.002353508 0.23263666 -0.106598936 0.21697709 -0.19946994 -0.067965835 -0.12539685 0.33814216 -0.5049291 0.0974526 -0.27550593 0.24115738 -0.51338774 -0.03654272 -0.049549773 0.44710392 -0.06601208 0.007261137 0.05266901 -0.026747199
258 0.44414335 -0.067079455 0.0368524 -0.21742873 -0.27138826 0.06387567 -0.019632395 -0.011620548 0.43163463 0.17271222 -0.019351328 0.45589602 0.28901878 0.09104594 0.058381435 0.3836176 -0.1264943 -0.032787878 0.117321536 -0.40101248 -0.22447999 -0.18402517 0.39313057 0.039354008 0.25485408 -0.1486455 -0.4631319 0.2545426 0.010299027 -0.28841242 -0.25774193 0.037507843 0.17307207 -0.067179985 -0.33903787 0.10761218 -0.2552957 0.14545083 0.058429457 0.034358244 -0.021963108 0.0631944 -0.04324246 -0.016477926 -0.16156903 -0.055027466 0.09439358 0.38884708 0.39244062 -0.31096372 -0.05672841 0.28740555 0.08313808 0.2662954 -0.057292767 -0.4405153 0.24069974 0.0001765712 -0.011850146 -0.092628434 0.20050503 -0.2557014 0.16033418 0.010832477 0.17509669 0.0827019 0.15004943 -0.2552409 0.11058567 -0.21697138 0.3591579 0.13841002 0.26351282 0.14776874 -0.26026773 -0.012747609 0.022891894 0.1412823 -0.21058112 0.17917565 -0.0963912 0.38276306 -0.021382581 0.42807448 0.19737841 0.0005610299 0.22507204 0.15452065 0.2961483 -0.14145106 0.18795033 -0.2392602 0.35387507 -0.4271093 -0.33240336 0.0011957352 0.3186702 0.030963428 0.17308204 0.021515796 0.08953649 -0.17167164 0.19242314 0.3082179 -0.39356306 0.21379133 -0.04659489 0.4889407 0.11991981 0.009331439 0.089742884 0.36699778 -0.38143155 0.010967494 -0.23162776 0.18375851 -0.30709878 -0.26743388 0.1205177 0.42229542 -0.23859689 0.29561454 -0.15805106 0.016907306 -0.12520725 -0.15169513 -0.025036993 0.096874274
286 0.14769645 -0.1256761 0.2039341 -0.116663344 -0.08280711 0.1264658 -0.078416035 -0.00032297376 0.018225035 0.24681471 -0.066550635 -0.12676007 -0.106451906 -0.12696427 -0.02057747 -0.011987903 -0.02832152 0.13162358 0.19200991 -0.22057496 0.115177125 -0.074802645 0.15405694 -0.032278374 0.14229512 -0.24397321 -0.30192485 0.0075176284 -0.061375283 0.20055856 -0.2634141 -0.4009982 -0.05668097 -0.027491378 -0.2252086 0.020992864 0.13940893 -0.1856408 0.041208215 0.19044676 0.20209484 0.121001355 -0.10919441 -0.045589004 0.0963046 -0.35019952 -0.15193279 0.23608755 0.18962646 -0.2631325 -0.09209194 0.18969212 -0.34182414 0.10203246 0.17590187 -0.026117122 0.31105155 0.047766976 -0.09729763 0.14507939 0.3716857 -0.13248527 -0.004619171 0.2266418 0.45567894 0.042009294 -0.2996901 0.039645102 0.076069966 0.10868037 0.7028111 -0.04831916 0.14083065 0.0077608717 0.21662965 -0.23198606 0.05284965 0.086752355 -0.34963697 0.04517254 0.17709066 0.51399994 -0.20758818 0.22630249 0.17776476 0.118982114 0.035607375 0.45703515 -0.010078061 -0.1948072 0.2305053 -0.2847638 0.33046478 0.24599925 -0.0014765485 0.012754871 0.03768065 -0.0821749 0.23750482 -0.37980032 -0.02393124 0.1916156 0.39448467 0.37025198 -0.2125738 0.011513498 0.20029819 0.35883635 -0.17115587 -0.36046952 -0.01513479 0.37126467 -0.38463825 -0.02286134 -0.324731 -0.02189462 -0.3587786 0.39585587 -0.13134488 0.10226492 0.03520075 -0.25564715 0.006007991 -0.10336772 -0.029193535 0.3062028 -0.057349604 0.15313591
53 0.14835717 -0.09076999 0.32804838 -0.11319546 0.38649857 -0.25886124 0.18158206 0.13658574 0.24612519 0.13640441 -0.21962792 0.3978307 0.17070259 0.1858224 -0.28106907 0.17416085 0.3426114 -0.1634594 0.048100747 -0.16798528 0.3201308 0.17622323 0.079381995 -0.4658213 -0.3266146 -0.17822194 -0.24493979 -0.26199692 0.21380107 -0.06498496 -0.106885545 -0.019837577 0.08251612 -0.09037227 -0.43465117 0.2066962 0.32492557 -0.25674412 0.045152213 -0.12037685 0.14074011 0.058945484 -0.07275172 0.043044258 0.00033466303 -0.06861635 -0.46859294 -0.07727075 0.07450865 -0.1327419 -0.06407673 0.13409689 0.2170029 0.22559565 -0.44907635 0.1517578 -0.16410732 -0.2693151 -0.3616335 0.062276788 0.13386877 -0.3056772 0.1920324 -0.24377455 -0.08427081 0.15088253 -0.39420334 -0.021315143 -0.21283491 0.2230496 0.0535119 0.25813395 -0.26854166 0.22134513 0.35209748 -0.006069118 0.05610308 -0.21529189 -0.24050173 -0.051952586 -0.0992144 0.2792686 0.23439497 0.40973392 -0.10392537 -0.21914604 -0.47263098 -0.1027985 -0.187258 -0.016223505 0.2267017 0.0093600005 0.018015599 0.3033804 0.19857116 0.15957256 0.041363124 0.13390341 -0.40988812 -0.14152674 -0.14629252 -0.062782176 0.1845882 0.08441951 -0.18326099 0.056867298 -0.07466615 -0.060676698 0.024175277 -0.3995201 -0.19872244 0.18677905 -0.10858233 0.0831084 -0.39034948 0.121105224 -0.31658718 0.19788213 0.19755675 0.07629378 -0.059541255 0.18528096 -0.14932612 0.29647395 0.0038220864 0.08218417 0.01571329 0.2482342
249 0.13007413 0.017154919 -0.027918242 -0.085454375 -0.465462 -0.12459895 0.20859085 0.23606862 -0.10114896 0.049236078 0.14202629 0.34661955 0.41276368 0.19539554 0.13018082 0.40032262 -0.13109872 -0.27706158 -0.06786655 -0.17334968 0.23339728 -0.23488146 0.16306409 -0.36378178 0.12325622 -0.31222683 -0.34317037 0.019297697 -0.35266605 0.25810602 -0.087464556 -0.06962881 0.16256006 0.09180678 -0.007791401 0.66851825 0.2243856 0.079067126 -0.13272752 0.29083902 0.15702784 0.34555122 -0.18368706 0.16640638 -0.040051714 0.12018244 0.08679407 0.08722353 0.15309978 0.21428558 -0.16500959 -0.16031069 0.18413045 -0.12156096 -0.38439608 0.031815402 -0.021240305 -0.02257134 -0.19604346 -0.090250105 0.6081148 0.12130361 0.08031812 -0.21356425 0.18699777 0.029088037 -0.12714683 0.047166906 0.15538467 -0.11529329 0.25787866 -0.02993525 -0.035751592 0.059514277 -0.34879228 0.08357933 0.23314533 0.4152564 -0.3060367 0.24838185 -0.037593238 0.28852284 -0.3309166 0.26469144 0.076970994 0.30466676 -0.32164353 0.16428253 -0.10424755 -0.05476358 0.39013472 0.20759 0.2633888 -0.11778521 0.005419062 -0.1466299 -0.15113567 -0.20374766 -0.26687217 -0.23864643 -0.4808163 -0.034681477 -0.14155562 0.11626242 -0.018984972 -0.18686663 -0.10689424 -0.0015493432 -0.27403373 -0.17575146 -0.2968876 0.2105872 0.09526482 0.12416223 0.11798552 0.24972956 -0.20050256 -0.11323342 0.055225097 -0.12748125 -0.24056153 0.18300338 -0.26915845 0.033365987 -0.3038661 -0.24316144 0.07083683 0.09172692
123 -0.062147617 0.21610485 0.1165215 -0.09846322 -0.22868085 -0.27528095 0.22794212 -0.017491192 0.12423246 0.13720478 -0.08025174 -0.02963004 0.031297695 0.22978598 -0.41306302 -0.037025724 -0.27955183 0.019004086 0.10180791 -0.23548794 -0.29197645 0.1480772 0.25630134 -0.1387114 -0.25255907 -0.13877608 0.170641 -0.11560027 -0.055156138 0.20835637 0.008693127 0.09896554 -0.081372544 -0.22266969 -0.2924232 -0.45713675 -0.10758335 -0.16621573 -0.21243879 0.2822748 0.15342559 0.4701994 -0.11032897 -0.090309694 -0.31869912 -0.1532429 -0.23653944 -0.10417729 0.4284623 -0.08846386 0.14325505 0.30453333 0.48292348 0.10696489 -0.35129228 -0.4004556 0.28253 0.23156722 -0.21052673 0.23266892 0.42051592 -0.20591146 0.40296593 0.108816 0.5336071 -0.11038725 -0.56662446 0.16220824 0.28335625 -0.1670954 0.11349795 0.16390064 0.07912636 0.081835076 0.05202771 0.07280669 -0.02534224 -0.08865522 -0.39777339 -0.043411262 -0.21372998 0.43220925 -0.047942687 0.24109311 0.2119322 0.25025672 -0.35249963 0.2400771 -0.21145862 0.35759893 0.32417008 -0.2829554 -0.005450273 -0.106172286 0.07440774 0.1457909 0.004244458 -0.21369381 -0.20106961 -0.076372206 -0.00014180232 0.24501638 -0.26414686 -0.06553021 -0.17744404 -0.112693675 -0.083704084 0.24771088 -0.25695077 -0.22474615 0.10146088 0.17434947 -0.16927625 0.06780044 -0.2088695 0.23973353 0.12067332 0.05532164 -0.0904261 0.3211687 -0.44033897 -0.008033382 0.35592568 -0.12162593 0.18697982 0.2979303 -0.24538165 -0.12721497
137 0.23104161 -0.073872134 -0.06338238 0.2737163 0.14552155 -0.26996848 -0.32377762 -0.13558334 -0.18323603 0.5513123 0.2923767 0.16907173 0.14810406 -0.29844344 0.076145686 0.26069456 0.07500283 -0.32946843 -0.35146976 0.035707764 -0.14916733 -0.6532381 0.08316222 0.035981603 -0.34565198 0.0025504322 -0.22029735 -0.027335223 -0.11948705 -0.41662621 -0.23513624 -0.22483458 -0.04255175 -0.3745428 -0.4971658 0.1395431 -0.117782295 -0.18834843 -0.23145625 -0.13887474 -0.099718824 0.08456458 -0.0086790165 -0.010480634 -0.058895115 -0.15746403 -0.17885132 -0.13732997 0.13514094 -0.08544759 0.12341161 0.018822888 0.049482167 0.38281918 0.10503381 -0.20749806 0.27490494 0.16411857 -0.06293626 0.09538651 0.58079654 -0.3628648 0.32341027 -0.18692546 0.09201737 0.12054883 -0.18909661 0.0984607 0.5996021 -0.063419886 0.11073864 0.2882537 0.015394902 -0.0039281305 0.18643326 -0.041096993 -0.030005973 0.1528126 0.27269816 -0.2808018 -0.053117935 0.10914146 -0.25897127 0.3319964 -0.37785858 0.1801287 0.0041766586 0.05041076 -0.32572794 -0.1011954 0.20635001 0.038571242 0.16018282 0.035115972 -0.13532364 -0.101686224 0.06319528 -0.21084598 -0.3368953 0.17102152 0.14792871 -0.14772731 0.14274551 0.14730963 0.0011262348 -0.016303206 -0.029979616 0.016958911 -0.21141852 -0.039218124 0.05780243 0.19179732 0.03197006 -0.08549352 -0.23392326 0.4188271 -0.08704084 0.34961516 -0.43213525 0.21428463 -0.06524046 0.18023996 -0.036114927 0.067942694 0.060477804 0.27430177 0.031130185 0.3708667
334 0.09340812 0.28051716 -0.15083787 0.23002377 0.006600992 -0.33668697 -0.09886347 0.110431634 -0.029219253 0.2062707 0.08221936 0.24634482 -0.10916138 0.17811678 0.14208396 0.49099264 -0.06490873 -0.2277179 -0.28009176 0.066273294 0.12115213 0.10975976 0.071221255 -0.06280967 -0.19299418 -0.3741174 0.07285916 -0.51515645 0.19676611 -0.3750247 -0.15536714 -0.058151543 -0.003643906 -0.27365875 -0.20945281 -0.093351915 0.08903576 -0.11851804 0.40391594 0.073069006 0.3479523 -0.06492942 0.10572622 -0.0137314405 -0.18634781 -0.17665121 -0.21011616 -0.35791236 0.41458398 -0.20462963 -0.008337597 0.15863127 0.35255474 -0.07425733 0.42153424 -0.23440737 0.26518852 0.13183926 -0.17040369 0.099005885 0.7164433 -0.038788144 0.12987407 0.0355829 0.31329095 -0.41492772 0.037048373 -0.26991585 0.25009212 -0.20866425 0.49252433 0.3480258 -0.13808766 -0.22655204 0.33784384 0.06833608 0.047282144 -0.032516 -0.1789088 -0.0024347652 0.031830378 0.067520715 -0.21555717 0.26827228 0.046668306 -0.07427958 -0.26696205 0.24554555 -0.19007953 0.21643808 0.512772 0.16342196 0.22379011 -0.31633452 0.1761613 0.0493196 0.08808558 0.46126357 0.061189648 0.08592617 0.08620012 -0.112575084 -0.046430483 -0.16130833 -0.10698716 0.1284704 -0.03900533 0.024797847 -0.11001871 -0.31975 0.4582048 0.025583709 -0.048529543 0.5170097 -0.23900466 -0.051163573 -0.25210613 -0.13916819 -0.2683253 0.016001815 -0.48460805 0.07727719 0.06262103 0.035416514 0.2195411 0.21716735 -0.2077005 0.28772104
140 0.21971484 0.02464605 -0.113680854 -0.10024499 0.026532263 -0.35632387 0.32837722 0.19851461 -0.026525993 0.4612748 -0.11104003 0.2713746 -0.13372967 0.18288593 0.03340621 0.2842383 0.055199534 -0.07754618 -0.12099331 -0.027832342 0.15484577 -0.22326466 0.1542463 0.047840204 0.14625922 0.18415783 -0.39608368 -0.0066502704 -0.04880774 -0.13790359 -0.061526194 0.098281965 -0.16364895 -0.045273464 -0.30949202 0.19830236 -0.116370566 -0.08658025 0.012211801 0.18059146 -0.36370707 -0.14634013 0.07510153 -0.040190414 0.047572173 0.119683705 0.03719805 -0.13049044 0.30727056 -0.10826948 -0.102249965 0.38809893 0.27237052 -0.19644667 -0.1883433 -0.18507262 0.24202377 0.0392605 -0.24136344 0.2907629 0.25954872 -0.25457716 0.18451352 0.026716897 0.1640083 -0.030844681 -0.080544695 -0.057158157 -0.052419193 -0.034678914 0.238013 0.08853504 0.0629869 0.3190519 0.015305218 -0.39858505 -0.050758522 -0.092578694 -0.16416042 -0.2742244 -0.089712724 0.22660726 -0.12634109 0.17811222 -0.21567771 0.005986251 -0.2855794 0.087175265 -0.21613443 -0.028428992 0.65929383 -0.101953104 0.27217862 -0.03192272 -0.4998871 0.0008147951 0.33027932 -0.45490006 -0.04171598 0.1824167 0.2600133 -0.34011188 0.045885447 0.3126286 0.08767125 0.015683483 -0.28578794 -0.30197078 -0.46365237 0.0815425 -0.25275323 0.11713666 -0.28216642 0.18892072 -0.35202178 0.1935226 -0.3455596 0.11755946 -0.03693463 -0.048469637 -0.34716478 -0.06164093 -0.2936007 -0.01878201 0.2588123 0.08119321 -0.13347524 0.39480126
