5 128
2 0.057777807 -0.03208048 0.0010775194 -0.023422508 -0.12901382 0.16016367 0.22215329 0.06565914 0.026230803 -0.05841297 0.14855386 0.065382175 0.1276384 0.11022316 0.035534706 -0.019578893 -0.10463307 0.19359218 0.11245697 0.12618898 -0.107517205 -0.17932066 -0.07526015 0.046365872 -0.023429642 -0.06791214 0.05975866 0.016558412 -0.03987457 -0.049950067 -0.110714726 -0.083142675 0.0034606785 -0.041633718 0.13026592 -0.049888037 -0.11094764 -0.074646726 0.13142887 0.018564768 -0.13469855 -0.029539617 -0.16210403 -0.1853903 -0.10615465 0.015419765 -0.004986434 0.071916685 -0.14718859 -0.1428511 0.09486063 -0.007746909 -0.032718286 0.047949627 -0.16516653 -0.06249564 -0.028223904 -0.061120015 -0.10377145 -0.18715152 -0.074860364 -0.043083962 0.09307419 0.29325274 0.03126 -0.103227995 -0.112743124 -0.12275783 0.029600132 0.066882394 0.10351263 -0.037437793 0.004908893 -0.05962424 -0.08910666 0.07871142 -0.067652605 -0.15722965 -0.09226722 -0.10235429 0.088540725 0.088102266 -0.07028726 -0.1563642 0.12570092 -0.025434578 0.061167702 0.021561403 0.043926597 -0.09283142 0.04686323 -0.027146583 -0.12930399 0.20536412 -0.07485026 0.1311002 -0.073858455 0.033322122 -0.21540356 0.05846745 0.07706516 -0.12276567 -0.07359448 0.10986018 -0.06050367 -0.10008979 -0.10159543 0.07185486 -0.14494623 -0.0709456 0.1899573 -0.15512751 0.11252212 0.045920163 -0.053722344 -0.012183147 -0.017972216 0.090515025 -0.26671416 -0.06788291 -0.04856874 -0.053468786 0.06538501 -0.07343697 0.1707088 -0.08535833 -0.10941991 -0.10374803
1 0.058502678 -0.03101761 0.0009717165 -0.024531547 -0.12737729 0.15999864 0.21692125 0.067760326 0.023433438 -0.058799487 0.1479788 0.060702085 0.123778306 0.10585688 0.032564342 -0.021472203 -0.103765346 0.18349122 0.11027617 0.12096041 -0.102266304 -0.16881151 -0.07690145 0.039827988 -0.022528289 -0.068784185 0.05602371 0.012880682 -0.034096744 -0.054625023 -0.110559754 -0.0855511 0.007225696 -0.042461064 0.12077611 -0.049786016 -0.10162685 -0.07677473 0.1279784 0.017410347 -0.13304345 -0.023200078 -0.15725818 -0.17986687 -0.10357633 0.011198995 -0.0036919988 0.07083107 -0.14324051 -0.14138423 0.08809863 -0.009520857 -0.031787407 0.045800623 -0.16172959 -0.064177305 -0.030210402 -0.05295227 -0.09564865 -0.1825731 -0.06993056 -0.039188948 0.09193135 0.28687862 0.029337525 -0.10236853 -0.10794064 -0.12055031 0.0300424 0.06296111 0.106606506 -0.034908436 0.01164016 -0.059237815 -0.085095145 0.07758347 -0.07181158 -0.16194792 -0.08504708 -0.10222225 0.08498518 0.08666824 -0.067208126 -0.14747795 0.12912591 -0.02757441 0.065696806 0.02516144 0.043527164 -0.09555917 0.047135383 -0.022533102 -0.12798701 0.2030846 -0.068216495 0.12828575 -0.06850944 0.033003643 -0.21382082 0.05938151 0.0764587 -0.116180174 -0.0745896 0.10285279 -0.060146756 -0.09440239 -0.09222219 0.073299706 -0.14857122 -0.07039257 0.18480174 -0.15137772 0.10609283 0.040614 -0.050796747 -0.013977604 -0.018034942 0.09043927 -0.2617854 -0.065870814 -0.05266129 -0.055555023 0.060761765 -0.0652727 0.17078295 -0.07820797 -0.11237513 -0.10282978
4 0.05671879 -0.030601341 -0.0056131827 -0.020275742 -0.12975991 0.16078337 0.21901394 0.06651755 0.029338803 -0.059102822 0.14668466 0.06436077 0.121806644 0.110350095 0.03577554 -0.024324005 -0.10325442 0.18995546 0.10567919 0.12238336 -0.10725239 -0.17606229 -0.07544113 0.04229348 -0.016731353 -0.063538544 0.059472412 0.014609545 -0.03797665 -0.054653447 -0.11148585 -0.08650164 0.0039957166 -0.04657555 0.1246514 -0.051802 -0.10689035 -0.07796902 0.12797548 0.012155876 -0.13198684 -0.029660052 -0.16065527 -0.18139352 -0.10096695 0.011858463 -0.008239224 0.070972756 -0.14368345 -0.14300539 0.0865709 -0.004293554 -0.031378534 0.0467996 -0.1618038 -0.06773592 -0.0277848 -0.056124352 -0.10328614 -0.1803671 -0.07407863 -0.043977924 0.09118178 0.28799716 0.028117552 -0.101902045 -0.10659762 -0.12498763 0.0341724 0.06507394 0.10484664 -0.033563018 0.009118265 -0.057266 -0.089132935 0.08164992 -0.07324381 -0.1624309 -0.0892246 -0.097874224 0.0877314 0.08427091 -0.07045081 -0.151081 0.12754063 -0.020590138 0.06178241 0.02328024 0.04033026 -0.09526105 0.047972076 -0.028877508 -0.12943119 0.20520574 -0.069398016 0.13038486 -0.071918316 0.029158365 -0.21320762 0.057263236 0.08113671 -0.11795166 -0.077979416 0.10374825 -0.05343519 -0.09741545 -0.096672714 0.073852874 -0.1493695 -0.07103294 0.18648155 -0.1513526 0.11010853 0.04674933 -0.050330132 -0.013510571 -0.022171928 0.08878617 -0.2619053 -0.066739954 -0.053086463 -0.056354795 0.06176071 -0.06787405 0.16847828 -0.0846293 -0.11369446 -0.100735486
3 0.05463655 -0.03395857 -0.0016437804 -0.02638065 -0.12356156 0.15180264 0.21265823 0.062100995 0.029069256 -0.06109359 0.13613203 0.059885163 0.1204102 0.104129806 0.028092975 -0.02371778 -0.1033314 0.18451615 0.10304927 0.121260315 -0.10323825 -0.16802913 -0.072380185 0.045257904 -0.018497495 -0.06644963 0.060335487 0.011300437 -0.037273288 -0.052183755 -0.103145026 -0.07635454 0.006484333 -0.045168705 0.124531515 -0.049458086 -0.10471924 -0.068581164 0.12005447 0.012640059 -0.12485982 -0.022223338 -0.14995742 -0.17721452 -0.102551736 0.011697835 -0.010913324 0.06920823 -0.13670234 -0.13125025 0.09036593 -0.010530198 -0.028473344 0.04688525 -0.15943307 -0.059279535 -0.027281193 -0.056549486 -0.09760549 -0.17700721 -0.06359278 -0.03857696 0.083698615 0.27914286 0.033479176 -0.094843686 -0.10688857 -0.12043662 0.032463934 0.06704386 0.09641159 -0.037216093 0.008320027 -0.05008601 -0.081728086 0.0714589 -0.065520436 -0.154853 -0.08947315 -0.0990331 0.07707521 0.08752714 -0.06073943 -0.14901854 0.12619354 -0.02256367 0.06573888 0.024506452 0.042711865 -0.08950343 0.03956785 -0.020313052 -0.12748352 0.19823971 -0.06936036 0.12339897 -0.06532556 0.025381844 -0.2031742 0.061626367 0.07255771 -0.11549349 -0.075064406 0.102353126 -0.05686835 -0.0961107 -0.09540146 0.067713015 -0.141751 -0.07106695 0.17822264 -0.14617978 0.10446548 0.047082685 -0.046689145 -0.01255307 -0.014028677 0.082390904 -0.25199983 -0.061616108 -0.0453807 -0.051572774 0.06395965 -0.069904275 0.1637349 -0.07700091 -0.104093626 -0.09747406
5 0.05918326 -0.030799925 -0.005139346 -0.019359369 -0.12426739 0.15463471 0.22106898 0.06630055 0.026943875 -0.06163433 0.15095304 0.065571174 0.11729326 0.10327291 0.041327506 -0.021738645 -0.10472136 0.18787982 0.11049409 0.12317061 -0.10928688 -0.17555375 -0.07611493 0.042614527 -0.01964787 -0.06558335 0.061715655 0.017841695 -0.03862663 -0.05816867 -0.10794871 -0.08904598 0.003269224 -0.04681731 0.12673682 -0.052633766 -0.09940063 -0.07412265 0.12798697 0.011773341 -0.13742478 -0.026306722 -0.16363133 -0.17634518 -0.094888344 0.016474264 -0.00802329 0.06425823 -0.14315465 -0.14757226 0.0918564 -0.0051727733 -0.03565812 0.045511037 -0.15810762 -0.069823876 -0.023731917 -0.058681488 -0.09997753 -0.1848018 -0.074110955 -0.046637103 0.08790898 0.28793776 0.025240155 -0.096551284 -0.10221255 -0.12476829 0.030942496 0.067639984 0.108480364 -0.037342995 0.010071988 -0.055961084 -0.09169658 0.08274494 -0.07348954 -0.16250221 -0.08729888 -0.10243674 0.08838319 0.08171372 -0.06636296 -0.15394902 0.1278613 -0.027307283 0.06527779 0.02740671 0.046706643 -0.09633669 0.05049235 -0.03113211 -0.13150786 0.20702317 -0.06675478 0.12480115 -0.07009385 0.02782859 -0.21718787 0.05947897 0.08078673 -0.11155908 -0.06875811 0.10570073 -0.056704793 -0.0933208 -0.09025556 0.07576883 -0.14982513 -0.074525215 0.18548998 -0.14487977 0.108533815 0.045503605 -0.052034568 -0.011766722 -0.02701085 0.08701749 -0.26408005 -0.062182087 -0.051554706 -0.05676177 0.06450769 -0.061760504 0.17070867 -0.085984826 -0.1173189 -0.10174425
