11 128
3 0.124620005 0.09386112 -0.089044616 -0.17202966 -0.1774378 0.015067237 -0.04997074 0.02505526 0.1308655 -0.026749536 -0.09366967 -0.08819417 0.069258235 0.021129053 0.029922552 0.11680915 -0.00225687 0.17591779 0.008509603 0.111757286 -0.056998063 0.038875133 -0.0394931 0.030912563 -0.3155126 -0.07856629 0.1712315 -0.14189759 0.18153721 0.032210257 0.020763295 -0.06067127 -0.023039408 -0.080097705 0.06255609 -0.09639528 -0.02620389 0.0045310836 0.25222543 0.073981956 -0.0382353 -0.12575266 0.101083085 0.23104405 0.16476998 0.17790529 0.12607566 -0.17137212 -0.00281178 0.0057997154 0.24519552 0.08147382 -0.09057147 0.1717739 0.03712096 0.025135273 0.0510134 0.090861514 -0.111997955 0.0690719 0.0011673715 -0.047063187 0.12661791 0.12555383 0.027594803 -0.06799716 0.028896129 -0.1892798 0.1740745 0.16790205 -0.07724844 -0.023531202 -0.07136198 -0.12148938 0.18183902 0.10040296 0.11734153 0.14405268 -0.055316582 0.14013448 -0.04210034 0.12880526 0.0446652 0.14898755 0.1509334 0.09681987 -0.05197496 0.107066885 0.22769833 0.035410836 0.13970248 -0.029627224 -0.03927763 -0.1442283 -0.2425779 0.076927744 -0.071535386 -0.07619358 0.13710622 -0.11487541 -0.0030541304 0.07250429 -0.14775863 0.05669973 -0.04833092 0.03586297 0.015212627 0.23485681 0.21704827 0.036017973 -0.13680717 -0.11563403 -0.08083257 -0.012864127 0.052387387 -0.08335527 -0.009654713 0.0063604265 -0.058354493 0.09576755 0.0052551418 0.04822604 0.011295574 -0.14620626 -0.09087363 0.049855713 -0.080148295 -0.19345641
9 0.11145484 0.08602585 -0.08043479 -0.15501843 -0.16355503 0.01710162 -0.04360916 0.02778572 0.12526265 -0.029704342 -0.0880159 -0.07978219 0.06318516 0.021510022 0.033171035 0.10758871 -0.00030550058 0.16980399 0.008147542 0.10537481 -0.053931076 0.027412798 -0.036691476 0.025942367 -0.29530826 -0.06991122 0.15857635 -0.13846712 0.16433623 0.028725365 0.019379744 -0.055242386 -0.023948291 -0.07779504 0.06366067 -0.094774984 -0.030720001 0.0010310574 0.2345441 0.06351821 -0.03457233 -0.11481835 0.10116549 0.21487838 0.15328243 0.17448075 0.119964324 -0.16296741 0.0022586707 0.008998044 0.23517677 0.07294337 -0.08396677 0.16019644 0.028532498 0.015726157 0.05282464 0.082603194 -0.10322864 0.06595724 -0.0027984714 -0.039369714 0.12469486 0.1169073 0.02728639 -0.06198532 0.023470895 -0.16729905 0.16660963 0.16112916 -0.07207469 -0.01491304 -0.06656979 -0.115229696 0.17274503 0.09850961 0.10742234 0.13083063 -0.0545155 0.13117592 -0.04087135 0.11689336 0.036738884 0.14436027 0.13462093 0.10305574 -0.055058014 0.09414048 0.21261473 0.03719869 0.13585028 -0.02860773 -0.033614103 -0.13654909 -0.22410649 0.069253154 -0.058260188 -0.07603052 0.1305178 -0.103015974 -0.005115296 0.06666434 -0.13708885 0.05648144 -0.0483851 0.03320716 0.01458424 0.22124614 0.20584609 0.038581103 -0.13058268 -0.10704253 -0.0768556 -0.011053023 0.05080614 -0.076946765 -0.011627822 0.0016279083 -0.052666523 0.08545004 0.011279167 0.04837353 0.0155456215 -0.14222991 -0.08574483 0.048616115 -0.07495879 -0.18458669
4 0.12100438 0.073421545 -0.0832254 -0.15806726 -0.16775015 0.020165512 -0.042283945 0.031754978 0.12777539 -0.018675664 -0.08690458 -0.070610024 0.06510362 0.0061134542 0.041050203 0.10327471 0.015525778 0.1588257 0.017848663 0.10312105 -0.053765394 0.04936304 -0.032041352 0.035136346 -0.29012594 -0.06764436 0.17981865 -0.12760128 0.17016812 0.03761474 0.01222442 -0.06660471 0.0033024936 -0.06415483 0.048967898 -0.08114684 -0.03387332 0.014743113 0.22764304 0.06836238 -0.029316016 -0.11457231 0.07104308 0.19839416 0.14341083 0.15233652 0.12478585 -0.1379457 0.0004824671 0.0014260707 0.21902743 0.07659953 -0.08150225 0.14984469 0.038619827 0.03657147 0.025835693 0.06869755 -0.10397307 0.0478452 0.017880354 -0.053526383 0.120066926 0.11843936 0.028496236 -0.068807095 0.029156685 -0.17819485 0.16135664 0.15090878 -0.08076288 -0.028434357 -0.06408095 -0.13095702 0.14679597 0.0852264 0.10777272 0.14050059 -0.037413515 0.11652116 -0.03484057 0.13682929 0.04601179 0.13037947 0.14363335 0.06991527 -0.03883325 0.10352471 0.21116887 0.031522077 0.09896811 -0.020359963 -0.039349105 -0.12790957 -0.2225743 0.08629045 -0.069013424 -0.062653705 0.12252355 -0.119109236 -0.016454212 0.056919772 -0.13778521 0.06801247 -0.029097265 0.02633993 0.014855819 0.22491343 0.19138452 0.033071075 -0.10534629 -0.1158483 -0.055699486 -0.003837947 0.057413522 -0.07103554 0.0037188062 0.013497058 -0.05580138 0.08159931 -0.0003384163 0.03447211 0.00015042591 -0.12980959 -0.08734006 0.03552183 -0.07487747 -0.1863712
2 0.12160325 0.09761685 -0.08837527 -0.16719542 -0.17373554 0.012393902 -0.047018666 0.02214864 0.12966734 -0.031131882 -0.09174495 -0.0874113 0.06893542 0.026155546 0.028244287 0.11125571 -0.006496759 0.17831257 0.006140103 0.1140427 -0.058072098 0.02971782 -0.043860752 0.029687183 -0.3096616 -0.07706509 0.16579004 -0.14636713 0.17199516 0.028853955 0.021641236 -0.057223376 -0.028220978 -0.08017911 0.06724923 -0.103216134 -0.024630865 -0.0007580487 0.24660611 0.07104639 -0.040196124 -0.121182315 0.11099333 0.23186426 0.16291806 0.18628906 0.119185574 -0.17467484 0.00078156864 0.011044873 0.2488111 0.08094271 -0.08904875 0.17043431 0.032788184 0.0210945 0.062587455 0.08763786 -0.10868058 0.0748026 0.00090959395 -0.03672039 0.12962817 0.120948546 0.029286101 -0.069783896 0.021285575 -0.17997468 0.17632511 0.16947384 -0.07285692 -0.015826236 -0.065762766 -0.11323029 0.18524164 0.11054481 0.10923466 0.1331569 -0.05913182 0.13534509 -0.042560212 0.11773521 0.039912514 0.15370415 0.13817242 0.11260011 -0.061281223 0.097745754 0.21937722 0.0382111 0.1483012 -0.030903859 -0.033471815 -0.14337362 -0.2401604 0.06851305 -0.067464896 -0.07984156 0.1374474 -0.109373115 0.0018296563 0.07345057 -0.14653693 0.05228571 -0.048643798 0.038676117 0.01699418 0.2310665 0.21810973 0.041114226 -0.1400075 -0.10927966 -0.08252433 -0.012913204 0.0519562 -0.08307494 -0.015653804 -0.0026643176 -0.051670685 0.09821378 0.012524519 0.057622366 0.014576478 -0.15168062 -0.090514034 0.048352856 -0.08183931 -0.195132
5 0.124613635 0.08190978 -0.08653836 -0.1692045 -0.17273556 0.019081699 -0.04543213 0.035236314 0.13181806 -0.013006985 -0.08051073 -0.07049665 0.0690676 -0.011919685 0.03635281 0.10462657 0.021232259 0.17000557 0.019266982 0.1026238 -0.05629783 0.06389776 -0.029471936 0.03514802 -0.29308844 -0.079664566 0.1976326 -0.12660763 0.18534604 0.043207858 -0.0050248774 -0.06368049 0.017475845 -0.053271417 0.041200213 -0.07084382 -0.03591132 0.0146649275 0.23283246 0.070469715 -0.038118742 -0.1202205 0.05355215 0.20370403 0.13562058 0.1396746 0.12310368 -0.13062665 0.0026799876 0.0016664469 0.21217905 0.0752594 -0.085678875 0.1512275 0.039945405 0.045590233 0.016249856 0.05964948 -0.10800421 0.03765024 0.024959007 -0.058170486 0.11254918 0.116748855 0.023037275 -0.06759609 0.02217687 -0.19634038 0.16402133 0.1460831 -0.09006043 -0.033033628 -0.06323096 -0.13763176 0.14341052 0.07926953 0.10488328 0.14598215 -0.031697407 0.11967979 -0.031764533 0.14758949 0.05316697 0.13438582 0.14852266 0.054667003 -0.03844944 0.11303561 0.21081087 0.032842908 0.08325806 -0.002232106 -0.039785996 -0.12430414 -0.23237638 0.09638485 -0.075139634 -0.054804828 0.122697406 -0.12534009 -0.025414879 0.061585724 -0.1409736 0.07935149 -0.025746621 0.020654432 0.017171815 0.2313291 0.1840749 0.026951967 -0.099798985 -0.120961905 -0.04545388 0.0013060822 0.057300884 -0.07494258 0.0076763052 0.013668699 -0.065821394 0.08048161 -0.011150455 0.03172704 -0.012804946 -0.12773682 -0.0880082 0.029905643 -0.066671185 -0.19704646
6 0.12335457 0.07720157 -0.08074926 -0.16272637 -0.16580679 0.021569835 -0.04938242 0.029134471 0.11798968 -0.012168988 -0.077183865 -0.06097506 0.0626902 -0.015152525 0.035954986 0.09820316 0.019640025 0.15832236 0.017342232 0.10315075 -0.05335147 0.06926529 -0.028002769 0.033462033 -0.27556258 -0.0791226 0.19453405 -0.117606744 0.18153343 0.04588134 -0.008000203 -0.06474423 0.02758445 -0.043427818 0.039782573 -0.07177846 -0.02905581 0.022364913 0.22552049 0.07036251 -0.037419714 -0.12226767 0.045408655 0.19119275 0.13024607 0.12328273 0.12544543 -0.11349754 -0.00059115473 -0.0009011032 0.19824018 0.07914962 -0.089026615 0.14781174 0.04391747 0.057808798 0.0075179706 0.054721124 -0.09677358 0.03229771 0.02818749 -0.066058025 0.10569546 0.11070006 0.021026036 -0.06256973 0.021243433 -0.1951013 0.15478317 0.13518259 -0.08772841 -0.03296155 -0.062315814 -0.13630804 0.13800529 0.067227826 0.0976512 0.14098725 -0.029242815 0.1173527 -0.031202218 0.14799942 0.055664606 0.12137636 0.14634968 0.04094279 -0.030096358 0.108356796 0.20797229 0.030381301 0.07337125 -9.83263e-05 -0.035582516 -0.12032028 -0.22000669 0.09624974 -0.07184279 -0.04426611 0.10791761 -0.12438632 -0.027012225 0.055648424 -0.13126923 0.07229429 -0.021968517 0.018581707 0.017984925 0.22472304 0.17411084 0.02713335 -0.0877918 -0.11260165 -0.037980445 0.007092048 0.052100778 -0.06981939 0.01657458 0.023554849 -0.06606554 0.0734793 -0.01504003 0.02280127 -0.024121666 -0.121200666 -0.08274352 0.027366674 -0.05956323 -0.18926704
11 0.112097986 0.08793027 -0.07624925 -0.15351856 -0.16351895 0.011446494 -0.039322924 0.029506275 0.12791632 -0.02982985 -0.08604213 -0.086367905 0.061595753 0.02599485 0.030442426 0.10966028 0.001207304 0.17018454 0.0139090475 0.10046372 -0.050398264 0.02382085 -0.03659868 0.021455856 -0.29658803 -0.070498966 0.15437922 -0.13575208 0.15621406 0.032984175 0.029315187 -0.059392713 -0.032930057 -0.0818987 0.065572515 -0.092315815 -0.030178046 0.002458541 0.2321917 0.059439924 -0.02848483 -0.10661345 0.1061633 0.21714312 0.14941594 0.17976154 0.11621378 -0.167917 0.002421183 0.007100538 0.23532939 0.06859354 -0.082199916 0.16091171 0.026580226 0.010070256 0.057650503 0.09029894 -0.10556556 0.0719244 -0.0060477066 -0.03202108 0.12534985 0.11541717 0.02453038 -0.064798616 0.028847111 -0.15977539 0.16509059 0.15917942 -0.07127398 -0.013889244 -0.06330856 -0.111950144 0.17557141 0.10567067 0.111686505 0.127099 -0.05148721 0.13303468 -0.03713283 0.11204909 0.035225842 0.14435552 0.13180688 0.10889972 -0.058607705 0.09368968 0.20983589 0.034709245 0.14139493 -0.033098392 -0.02900015 -0.13405615 -0.22420019 0.06969757 -0.05403717 -0.081011765 0.13513593 -0.107322484 0.0016074557 0.07100604 -0.13830921 0.04708751 -0.045569368 0.028763307 0.015264171 0.21601053 0.20509282 0.039910063 -0.13477255 -0.10624169 -0.07943414 -0.012748965 0.051018722 -0.081671916 -0.018198047 1.2252858e-06 -0.05053804 0.08829544 0.015807075 0.052448392 0.01986083 -0.1430466 -0.08157657 0.05216671 -0.080256715 -0.17886999
8 0.12416714 0.079497546 -0.085087106 -0.16039476 -0.16890521 0.019005053 -0.041905526 0.032359865 0.13039279 -0.016237527 -0.08739432 -0.07353002 0.066635236 0.00010228224 0.039763816 0.10448792 0.013255058 0.16638598 0.016133483 0.102699175 -0.057162736 0.053135395 -0.030326301 0.032241665 -0.29328948 -0.07634501 0.18362482 -0.131413 0.17632338 0.037363734 0.0058861324 -0.064720266 0.0041815755 -0.05836039 0.051499154 -0.07659254 -0.031417962 0.010358562 0.23231082 0.06781855 -0.03356952 -0.11506411 0.0672326 0.20227663 0.14407367 0.15134728 0.124643356 -0.14374535 -0.00027516406 -0.0015579223 0.22274026 0.07612189 -0.08737407 0.15181892 0.03800858 0.03754234 0.024292964 0.07111616 -0.1061573 0.052993584 0.011551354 -0.051091485 0.12105651 0.11534025 0.021483224 -0.062327508 0.029022098 -0.18603279 0.1598059 0.1495898 -0.084321156 -0.026250951 -0.0651724 -0.13182935 0.15545718 0.08488137 0.10678364 0.14231867 -0.03985357 0.12286667 -0.031238338 0.13578686 0.04769829 0.1324182 0.14293303 0.0680987 -0.04043711 0.10823789 0.20906422 0.035887916 0.10122572 -0.01175495 -0.034563426 -0.12439563 -0.22678839 0.08720245 -0.06719843 -0.063396014 0.118311346 -0.11666534 -0.020450791 0.060826674 -0.13306074 0.06947855 -0.033355344 0.024344541 0.011864157 0.2288007 0.1933591 0.03115162 -0.11245587 -0.116363026 -0.055977345 0.00034311836 0.056518793 -0.07599847 0.0022617767 0.015268805 -0.05670722 0.07832397 -0.002896618 0.03304622 -0.0063219466 -0.13071425 -0.090145186 0.035132114 -0.073553346 -0.19054745
10 0.11308543 0.08496122 -0.07664913 -0.15861425 -0.16399862 0.017533423 -0.04079531 0.030546045 0.12934041 -0.024109546 -0.08348516 -0.08368885 0.059760872 0.017227175 0.031340733 0.10387614 0.0030567136 0.16747665 0.0122969095 0.10521738 -0.051236935 0.032893926 -0.037819006 0.028305044 -0.29247886 -0.06617601 0.16340761 -0.13784601 0.16667083 0.031385656 0.022421801 -0.062166356 -0.022624915 -0.07486406 0.06055592 -0.0914389 -0.026157366 0.007169597 0.23313163 0.061276805 -0.030491732 -0.109859064 0.09448858 0.2122363 0.15136951 0.17239001 0.11858472 -0.16046563 -0.0017546355 0.0020748097 0.23107992 0.0758326 -0.07744152 0.1589778 0.03332801 0.01866788 0.046234045 0.08251073 -0.10747345 0.05964914 0.0037769664 -0.036921136 0.12264428 0.114827126 0.030892057 -0.061128438 0.026549146 -0.17105386 0.16472353 0.15517268 -0.073444284 -0.020263731 -0.059666544 -0.11466441 0.16994163 0.1007815 0.10775445 0.1295376 -0.050776847 0.12582135 -0.03854802 0.12100095 0.040833466 0.14016056 0.1348248 0.09931809 -0.054884966 0.09871942 0.20592311 0.034017928 0.12985893 -0.029563557 -0.032687802 -0.1343665 -0.22200875 0.07134421 -0.05789051 -0.07472252 0.12870826 -0.1082876 -0.0013378368 0.06560862 -0.1341863 0.055229556 -0.046270594 0.030810546 0.012892811 0.22008254 0.19724603 0.04030958 -0.12392302 -0.108736426 -0.07563212 -0.0054877037 0.051841576 -0.0769147 -0.009779739 0.0005566733 -0.04683746 0.08425264 0.0070715975 0.047765702 0.012114039 -0.13822883 -0.089102924 0.043572765 -0.07952073 -0.18307644
7 0.1253859 0.08134037 -0.086823344 -0.17220198 -0.17827728 0.015967235 -0.049509704 0.036555506 0.13304627 -0.018363016 -0.083084114 -0.066339925 0.0710141 -0.009136369 0.036413077 0.10412146 0.017866695 0.1710496 0.016630923 0.103681095 -0.05770847 0.061641097 -0.030920686 0.031973667 -0.30002522 -0.08010612 0.19747408 -0.13173163 0.1849301 0.04295465 -0.0028064656 -0.064037 0.016598092 -0.059958253 0.04629489 -0.07502929 -0.029791476 0.015231921 0.24012059 0.07640392 -0.03539916 -0.12564024 0.05895569 0.20781885 0.13977216 0.14488657 0.1271559 -0.13209417 0.0016205959 -0.0010682471 0.22451624 0.080878064 -0.09288818 0.16047768 0.0375161 0.04937056 0.015283591 0.06279657 -0.10814436 0.042715494 0.024068894 -0.060441665 0.11904259 0.118752465 0.021785852 -0.07135846 0.021599011 -0.20000838 0.16930746 0.14577131 -0.083243705 -0.028007021 -0.061459765 -0.13917829 0.14912505 0.07814085 0.10975437 0.14797182 -0.03874073 0.12861955 -0.03861706 0.14874974 0.05607622 0.13743687 0.1518767 0.057662483 -0.03367126 0.114473164 0.22156532 0.032110155 0.08955959 -0.0057381457 -0.039446566 -0.13187405 -0.23751885 0.092655495 -0.07293579 -0.053211696 0.12327604 -0.12395906 -0.02744195 0.05811823 -0.14328715 0.07788992 -0.024740221 0.023698362 0.016198669 0.23434092 0.19213776 0.031733867 -0.10797885 -0.11996549 -0.04755229 6.178637e-05 0.058809128 -0.078583635 0.008299829 0.014562231 -0.067464165 0.08388311 -0.0111410115 0.035039794 -0.016916081 -0.12697646 -0.08923296 0.034170322 -0.06913965 -0.19477102
1 0.115285404 0.09107498 -0.08468156 -0.16091354 -0.17189167 0.01708271 -0.04726308 0.026173247 0.12789336 -0.025990374 -0.08355473 -0.07664415 0.061215326 0.017302716 0.031913895 0.10839457 -0.0010847694 0.1665412 0.009106104 0.105020575 -0.05798535 0.036561925 -0.040288962 0.0350211 -0.29107466 -0.06937363 0.1659503 -0.13625938 0.17496203 0.03319721 0.011930956 -0.05558737 -0.0132238995 -0.06658925 0.057444744 -0.093948655 -0.02630076 0.010150824 0.23396745 0.07291831 -0.03343027 -0.11524161 0.08805631 0.21468273 0.1544831 0.16790894 0.11820828 -0.15441492 -0.0004780543 0.0059516886 0.23004779 0.08054888 -0.084509484 0.15826946 0.034311935 0.034179326 0.041958686 0.08198333 -0.1058704 0.06098847 0.0038229353 -0.04223327 0.11677276 0.119405486 0.026005154 -0.069785245 0.024145575 -0.18301779 0.16887674 0.1569991 -0.073833324 -0.026183112 -0.062293433 -0.11730336 0.16978349 0.09496646 0.103454806 0.13380492 -0.05089928 0.12684973 -0.038829576 0.12547855 0.04642872 0.14203942 0.14253785 0.09079103 -0.052600387 0.09763336 0.21017417 0.034265604 0.12311345 -0.018739566 -0.037092157 -0.13340941 -0.22794856 0.07752222 -0.0704011 -0.06972706 0.12159405 -0.10947226 -0.009601648 0.06136103 -0.134183 0.05748216 -0.040902697 0.026482787 0.013080941 0.2282471 0.20127 0.037437916 -0.123704694 -0.109343976 -0.069510125 -0.007015485 0.05522046 -0.07881964 -0.007410205 0.0065539707 -0.055599764 0.08699036 0.0042855972 0.046042327 0.0035154163 -0.14024064 -0.0904376 0.03937236 -0.070946515 -0.18912421
