351 128
1 -0.016253293 0.041265223 0.1277259 -0.037812028 0.19108671 0.169042 -0.18349348 0.19683827 0.030496234 0.12410597 0.1157836 -0.12121454 0.13701843 0.2231982 0.18154189 0.14950521 0.020866789 -0.07270095 0.016682317 0.2887305 -0.15827298 0.13018098 0.08470925 0.030908301 -0.19194545 -0.15740572 0.07983223 0.1781319 0.13135841 0.22837223 -0.06811353 0.21741086 -0.13738032 -0.1856976 0.06392956 0.07617564 -0.17120843 0.23828965 0.16679497 -0.12553468 0.2468464 0.061362106 -0.041639604 0.07289332 -0.061957132 0.0710328 0.14240052 0.04312395 0.034061827 -0.17546177 0.14096594 -0.08576561 -0.27183256 0.11008534 0.050306283 -0.06949733 0.0049991594 0.02835698 0.010594282 0.014788933 -0.14552155 0.058230724 0.11027965 -0.0348046 -0.07378564 -0.1266447 -0.026813526 -0.11584103 0.25844145 0.21071967 0.10495347 0.24019313 -0.086612344 -0.06247733 -0.10751461 0.1530233 0.030499134 0.0888087 -0.068670295 -0.05886696 -0.030055212 0.13644311 -0.02240813 -0.15802464 -0.1283953 0.10539044 0.016900333 0.24572122 0.1940717 0.12515506 -0.004464521 0.12076965 0.05050457 -0.095767714 -0.09638591 -0.11536383 -0.016788999 0.014475297 0.26844177 -0.18445529 -0.05620625 -0.13303381 0.34560043 -0.027995886 0.17170453 0.10013244 -0.047742385 0.09862519 -0.06548523 0.25709468 0.13059226 -0.02712149 -0.023345638 -0.24999005 0.2007672 -0.22352101 0.0014391406 0.091809645 -0.24340478 -0.22457753 -0.10646368 0.03927185 0.29251248 -0.12300803 0.18530665 0.035004728 -0.007923569 -2.4597044e-05
38 -0.42713517 0.73146945 0.15928428 -0.15866797 -0.058814846 0.11311437 -0.4803241 0.37412652 -0.034474302 0.28981477 -0.39164436 -0.3099886 0.08727391 -0.0120522855 -0.28063864 -0.110907525 0.32750058 0.120767064 0.11400851 0.15083477 0.11251445 0.13460833 0.13594219 -0.17978776 -4.960697e-05 7.635119e-05 0.16270779 -0.035803907 0.42880547 0.25658134 -0.12267322 0.27543932 -0.22099146 0.23957817 0.23311561 -0.12482237 -0.025558751 -0.13234499 0.0985318 -0.22664028 0.52004486 0.3352543 -0.13870811 -0.05064169 -0.0134212915 -0.28909618 0.03506232 0.029771326 -0.37830064 -0.2814817 0.3081516 -0.15659334 -0.15630305 0.35676548 0.3482443 0.2229968 0.23534836 0.27029297 0.09196653 0.0037618706 -0.00465533 0.06746066 0.32032984 -0.16620949 0.25176048 0.00853722 -0.061213803 -0.19227503 0.14861646 0.013077159 0.18537626 -0.131406 0.016483132 0.0019686304 0.026014697 -0.23953922 -0.20891397 -0.096261516 0.2730316 0.018643301 0.22763836 -0.052805834 0.1417402 -0.41499 0.22698705 0.07608922 0.15513176 0.36539087 -0.13603 0.15089333 0.113937475 0.5526234 -0.11526756 0.065464064 0.11995637 -0.28964686 0.14351611 -0.27268243 0.33731952 0.05809105 0.6741447 0.25750914 0.29071715 0.20091537 0.12494788 0.17520638 -0.565904 0.37412494 -0.032131996 -0.048573613 0.36274058 0.13788655 0.25183803 -0.0970001 -0.1213945 -0.3306575 -0.26570344 0.059274413 -0.195817 0.05075944 -0.21033639 0.34957173 0.16516823 0.14770001 0.026304498 0.33878794 -0.16361679 -0.32369313
71 -0.120081216 -0.23039898 -0.25539845 0.11926454 -0.47639054 0.42979768 -0.047330778 -0.052354228 0.041895624 0.10540738 -0.18836494 -0.054149132 0.15977263 0.34073618 0.03043506 0.20525926 -0.12742454 -0.46521807 0.0034035516 0.14884946 -0.09795945 0.32916805 -0.11111594 0.19713211 0.12156622 -0.4305822 -0.0011744485 0.18342641 -0.030836865 0.10392145 -0.06223337 0.17018545 -0.045626402 0.07092925 0.43383536 0.51318264 -0.11202471 0.2754263 0.25950557 0.31652486 0.48770103 0.18179047 0.36619845 -0.09819098 -0.11246364 0.09517668 0.3806346 0.2267301 -0.11669186 -0.20649266 0.062515445 0.032504626 0.24326657 -0.2192067 0.07342555 0.05918274 -0.41367742 0.3878914 -0.115838036 0.08216964 0.153048 0.36967507 -0.6441842 -0.39161912 -0.17824592 0.2892938 0.060798455 -0.540274 0.27026963 -0.27691472 -0.12952547 0.23308583 -0.05410387 -0.16603091 0.19802114 0.3807836 0.050726485 0.09571782 -0.13080806 -0.025257012 -0.03790562 -0.07711423 0.18203449 -0.43832922 -0.18665485 0.11055033 0.4001033 0.37227598 -0.19616692 0.17101197 0.11496972 0.16793907 0.116267696 0.21844015 0.15932365 -0.55912197 -0.11315041 -0.19733298 0.07919915 0.13565168 0.35863894 0.13011989 0.26719725 -0.329056 0.09522091 0.45844924 -0.45953074 0.24310015 -0.034202337 0.3746533 -0.16139686 0.24840194 0.3395855 -0.32773402 -0.08023717 -0.1707768 0.20368493 0.011632343 0.035307486 0.06409558 -0.41862848 0.35913748 0.45396465 0.35330045 -0.23936611 0.04041054 -0.34349328 -0.038120847
252 0.28891107 0.19507739 0.23930773 -0.3402922 -0.20129868 -0.13464318 -0.4218462 0.20571452 0.14884408 0.59943944 0.479323 -0.44353262 0.28589362 0.122102536 0.34257805 0.04678071 -0.0117582865 0.111250974 0.2997479 -0.0124009065 -0.038540896 0.20130548 -0.09966527 0.10020891 -0.12669517 -0.32927266 0.25808036 0.16500184 0.1685804 0.35597724 -0.10805415 0.10573415 0.036678575 -0.4603572 0.4119983 0.5700216 -0.06626696 0.033741783 -0.13034306 0.24474902 0.2551359 0.36511612 -0.05554069 -0.3317196 -0.07003398 -0.06717903 0.032349855 -0.12098364 -0.027744273 -0.8182691 0.35009065 -0.36395478 -0.40777564 0.18115601 -0.16208422 -0.001978241 0.09840321 0.13617928 -0.018044772 0.2787119 -0.07313853 0.05426816 -0.071445554 -0.074564435 -0.23255657 -0.3617632 0.1271441 -0.22612944 0.08767345 -0.44144073 0.16788544 -0.18437308 -0.15145229 -0.036140226 -0.022324104 0.20584859 0.49622783 -0.30114058 0.37019634 -0.23715214 0.06476839 0.15487587 -0.23047344 -0.5047316 0.42060718 0.03758839 0.10565141 0.28053832 0.03831453 -0.17616117 -0.19286129 0.23020789 -0.19155613 0.049205624 0.15769252 0.06922169 0.41779765 -0.045086414 0.40230837 -0.046996977 0.16620302 -0.27075702 0.1695969 -0.08184268 0.21170104 0.1294134 -0.36294276 0.06612936 -0.059505768 -0.20876017 -0.07837955 0.15350986 -0.29934782 0.051398046 0.047742687 -0.26394016 0.20873316 -0.31651437 -0.24522251 -0.33067527 0.19040284 0.0679319 0.08943405 0.11529757 0.067870475 -0.39150435 0.012986307 -0.19369486
93 0.10289731 -0.00092459447 0.2230141 0.10446495 -0.04874399 -0.0642093 -0.028834583 0.26199055 -0.20656665 0.24078812 -0.16866821 -0.35493034 0.39274046 -0.26692772 0.19688839 0.07389354 0.10512952 -0.111798994 0.25293913 0.40293476 -0.114604145 0.12922102 -0.09529878 -0.32743979 -0.1824066 0.004010118 -0.31201223 -0.115886115 0.27334118 -0.10106828 -0.096672945 0.016812077 0.031970765 -0.37077013 0.26639628 0.1370187 -0.11621449 0.2104305 0.33419147 -0.17625679 0.6093424 -0.11985599 -0.5148779 -0.20181428 -0.33834577 -0.08659896 0.16382888 -0.011694659 -0.3379189 -0.3397477 0.448301 -0.12013638 0.2637412 0.14727443 -0.018584369 -0.0037807254 -0.18891753 -0.04755656 0.14101698 0.53015924 0.30903047 0.0745535 -0.14517887 0.32695267 -0.03740837 -0.15098952 0.13547546 -0.25374123 -0.24156868 0.009828365 -0.16165808 -0.33108523 -0.007916476 0.045354176 0.25562894 0.480707 0.339727 0.35925367 0.32628998 -0.08566929 0.03272558 -0.24296947 -0.25605837 -0.39925703 0.24169336 -0.25978762 -0.1185561 -0.1017652 -0.2942188 -0.13353518 -0.2854564 0.43926805 -0.046136208 -1.6769347e-05 -0.015288146 0.039591465 -0.22484353 -0.52020705 0.34556183 -0.28631064 -0.025008518 -0.13049577 0.2097375 -0.1469802 0.31985337 0.29208642 -0.3774477 -0.022557357 -0.27938038 0.24151395 -0.0054129693 0.06535279 0.3720633 -0.5053687 0.14693622 -0.23349063 -0.0699925 0.18631257 -0.43393305 0.076427914 -0.28755233 0.46319354 -0.058095712 -0.25391504 0.0697885 0.27853534 -0.24399532 0.12703112
304 0.050127376 -0.09450265 -0.14515156 0.009396219 -0.10818279 0.16535443 -0.042837955 0.55889076 0.23483281 0.33616784 -0.14166987 0.116155036 0.39356625 0.08113274 0.18557042 0.027026337 0.36353636 -0.17624317 -0.13226889 -0.057444077 -0.16362368 0.2483622 -0.37829453 0.072401226 0.08665333 0.17427635 -0.35694942 0.028256077 0.39841464 0.16160458 -0.020015847 0.25364843 -0.014400559 -0.22461024 0.14890519 0.3765345 -0.09663465 -0.18540251 0.0030509438 -0.3004301 0.26447687 -0.09880491 0.021125477 0.06467134 -0.015740776 0.06846812 0.118234344 0.31946892 -0.031406462 -0.23805743 0.21054326 -0.1382184 -0.17873377 0.18533039 -0.16546734 0.10596282 -0.028839255 0.28777605 -0.08296048 0.02233146 0.11673453 0.10933988 -0.027191602 -0.18177299 -0.18072015 -0.26154023 -0.29772738 0.046336558 0.23702331 0.15721914 -0.2642174 0.1429638 -0.3389169 -0.262353 0.07837469 0.22413002 0.1672787 0.014806139 -0.08852957 0.23040155 -0.06661138 -0.04193941 0.09963832 -0.12029234 0.48817596 0.06809658 0.05249306 0.16083057 0.4637326 0.22487219 -0.18676189 0.46163484 -0.2266895 -0.053329922 0.005833398 -0.29402876 -0.11686687 -0.5167508 0.20213895 -0.023378603 0.61700135 -0.04799869 0.311629 -0.26691 -0.06806906 0.25241336 -0.013145633 0.3717282 -0.06413137 0.0073833778 -0.06505207 0.062718876 0.0062128697 -0.22174405 0.3027676 0.38151932 -0.25753877 0.06592474 -0.42557746 -0.1988175 -0.008052672 0.2789557 0.5426217 0.19029392 0.06330793 -0.18822385 0.5676622 -0.26502797
146 -0.026414962 -0.012204055 0.051380273 0.09455132 -0.76243997 -0.09687393 0.16177318 0.56724966 0.60510314 0.21978714 0.19972704 0.31358546 0.080001794 0.23158957 0.107338406 0.4469662 0.27040654 0.16522244 -0.0062781814 0.27316317 0.28002343 0.19604337 0.028823208 -0.22788864 -0.007992953 -0.20073563 0.063320965 0.01958775 0.5528958 0.26808798 0.05113122 0.21761696 -0.18063085 -0.14907247 0.14394046 0.49289662 -0.36610067 -0.002249558 0.10783827 -0.27674088 0.28426254 0.041776426 -0.26340508 -0.158128 0.0058234683 0.07451542 -0.03904209 0.07494608 -0.0653978 -0.465643 0.14978486 -0.63055956 -0.1382494 0.3941604 -0.31337383 0.107614435 0.039175447 0.15937021 -0.12327461 -0.072400615 0.24884856 0.51395535 -0.2571144 0.14790687 -0.36650613 -0.0069001215 0.20095147 -0.2748509 0.5447584 -0.07185005 -0.2210285 -0.12432539 -0.20028132 0.05125509 0.103843026 0.27251357 -0.17466447 -0.0739125 -0.0006425659 -0.2520805 0.21761121 -0.13476291 0.07980538 -0.18173426 -0.26370087 -0.11301765 0.471068 -0.105246805 0.104550995 0.0371034 -0.049214937 -0.010580314 -0.16829681 -0.26009324 -0.0880201 -0.09360256 0.20624524 -0.2189619 0.4768164 -0.12266978 -0.07655757 -0.41293973 0.45623592 -0.124540634 0.21766062 -0.028505368 0.028462922 0.00046397938 -0.049978368 0.17467928 -0.059054073 -0.4434641 -0.0008062474 -0.08245993 0.28866655 -0.09709544 -0.06601331 0.028048212 -0.56982416 -0.07458589 0.088447556 0.41079327 0.017050669 -0.11588332 0.11807981 0.31167218 0.22814801 -0.13457558
214 0.017764468 0.32110116 0.069107175 0.15097664 -0.007605002 -0.036044616 0.11047019 0.35265464 0.0927838 0.6019133 0.21995208 0.11333075 0.34463167 0.19152844 0.2673393 0.141024 0.23207083 -0.055013034 0.17348048 0.015659265 -0.19335769 -0.1258692 0.27830637 0.17490874 -0.05204023 -0.053365327 -0.3152774 0.04745946 -0.10117956 0.060766093 -0.04342392 -0.18385178 -0.11975688 -0.22432497 0.15530218 0.32540146 -0.44922912 0.14175083 -0.012892719 -0.25396028 0.3304332 -0.3071634 -0.11019475 -0.012788606 -0.3899397 -0.31896976 0.15463933 -0.04719197 -0.24210048 -0.558352 0.6632954 0.13712332 -0.0759326 -0.106422335 -0.32192376 0.088818856 -0.041542307 -0.08352915 0.2349368 0.42702064 0.17205599 -0.24984673 0.0011234859 -0.3127439 0.10183659 -0.16180186 0.166858 -0.0489965 -0.05524939 -0.6134407 -0.10190418 0.09912414 -0.1276252 -0.045437504 0.3749202 -0.19110629 -0.1331445 0.25272653 0.08339815 -0.07863467 0.22240247 0.14701907 0.36910772 -0.491106 -0.19893253 0.040645797 0.1476037 0.44535512 -0.13784766 -0.0056059766 -0.04841589 0.491785 0.10288763 -0.0045583174 0.061368562 -0.22150217 0.068656765 -0.28410363 0.16343504 -0.18974833 -0.021723418 -0.35442275 0.18861873 -0.25669554 -0.20496036 0.09137819 -0.46494192 0.11483871 -0.0841728 -0.16657522 0.054713514 -0.13356414 0.07140886 0.18026763 0.18456224 -0.2670537 0.370086 -0.1978384 -0.2482412 -0.19159468 -0.15661763 0.09293565 0.0555828 -0.18493243 0.01771514 0.12963954 -0.15283759 -0.4099011
65 -0.072801575 0.057253122 0.04693843 -0.2757248 -0.48329347 0.58333963 -0.25952226 0.34552696 -0.20378268 0.2777503 0.011018075 0.29488277 -0.09888701 0.23931317 -0.16435432 0.078000806 0.16043217 -0.43965796 0.41469172 0.42028192 -0.5155983 0.059550878 -0.036912866 0.46252844 -0.11634514 0.09002547 -0.38191983 -0.07057066 0.3135069 -0.4090393 -0.016084647 -0.114231296 -0.065758474 -0.3761925 0.42208746 0.2232399 -0.33060664 0.1138886 -0.067908 0.014840489 -0.068701066 -0.15334952 0.2926729 -0.4939444 -0.32280794 -0.11982913 -0.1483272 -0.25208092 -0.2514879 -0.3202157 0.44409508 -0.21155033 -0.2331984 0.1084823 0.042682115 0.031456023 0.5232169 0.19119447 0.23067951 -0.20088916 0.2710369 0.025005003 0.18201688 0.03334383 -0.013652284 0.03356533 -0.34245452 -0.057402283 0.30063918 0.0061873198 -0.10282578 0.08735482 -0.06633911 -0.0069242483 -0.05960821 0.016061647 -0.24291673 0.11027496 0.10938416 -0.45975202 0.17562936 -0.19102363 -0.37950942 -0.19222759 0.0022297767 -0.00033216836 0.5220278 0.32588452 0.24055007 0.00803516 0.12492488 0.45045242 0.22917719 0.15805143 0.40909314 -0.36043364 -0.02500871 -0.38595545 -0.008159865 0.01747572 0.09180678 -0.08427623 -0.0967962 -0.14183474 0.09022497 0.15508921 -0.24659234 0.0678587 0.20854172 0.25045288 0.03399785 -0.15517478 0.27912286 -0.11935818 0.24789849 0.17930943 -0.17799182 0.06944855 -0.25883895 -0.30296996 -0.43334764 0.3322679 -0.061178643 0.09019375 0.2702948 0.048206247 -0.1679959 0.17120266
223 0.13096124 -0.21635222 0.11997953 0.20310035 -0.45820916 -0.21317115 -0.23046255 0.27099937 0.52277696 0.3425689 0.15465114 -0.10432756 0.14992492 0.20194504 -0.029210743 -0.099064894 -0.17965952 -0.15010022 0.24766006 0.4543565 -0.014152291 0.24967788 0.08050726 -0.19955459 0.24015051 0.05366801 -0.08373973 0.11622248 0.43620315 -0.07279186 0.14594164 0.13983524 -0.027696796 -0.4217187 0.124402486 0.32641262 -0.04281329 0.0093003735 0.1551733 0.023724765 -0.03472059 0.38250995 0.37115544 -0.15336505 -0.46204892 -0.20917283 -0.17042479 0.2736199 0.05450088 -0.10902355 0.405053 0.17240076 -0.3565247 0.000811397 -0.21791516 0.3299599 -0.033225164 0.09588859 -0.07231735 0.2555765 0.037675478 -0.04088454 0.044798095 0.2570385 -0.07787907 -0.20195624 0.21768814 0.09760769 0.23060818 0.15721938 -0.06796616 -0.0040278714 -0.18797363 -0.3597789 0.049002808 -0.109074 0.043408144 -0.62590075 -0.11479064 -0.26538813 0.06297795 -0.14928947 -0.032336414 -0.10305436 -0.6274285 -0.2173584 0.30279392 0.14919488 -0.060041003 -0.0426703 0.087806076 0.4185083 0.010773878 -0.1119249 -0.6310638 0.052203942 0.042531572 -0.037333265 0.025073206 -0.2646469 -0.13982886 -0.12664537 0.13955878 0.13185753 0.09116209 0.39088908 -0.47041702 0.03974864 -0.48143068 0.39052343 0.01743398 0.30434775 0.38075826 -0.09134786 0.16655919 -0.4605999 0.06912003 -0.039690606 -0.2764789 -0.06740589 -0.23204634 0.1633231 0.0752582 0.09845636 -0.19610535 -0.020944472 0.17950612 -0.25156465
199 -0.2642471 0.27786914 0.16615866 -0.08702608 -0.05126256 0.3154748 0.060995504 0.11401052 0.1966394 0.31932607 0.2189996 0.0377483 0.27037776 -0.11601269 0.061679155 0.14844538 -0.09812141 -0.19318976 -0.2677327 0.19479556 -0.26002738 0.21484223 0.22680555 0.20406853 0.099361114 0.040796515 0.25993654 0.19900852 0.4808405 -0.043639764 -0.24444984 -0.024108928 0.3019639 -0.20059197 0.48051578 0.5424103 0.045770735 0.07988152 0.4594899 -0.3564182 0.17298767 0.22877504 -0.0140696755 0.012308653 0.08980222 -0.113198385 -0.0062003206 0.22774674 0.08349273 -0.0048731053 0.047262687 0.09446425 -0.0722541 0.037872914 -0.15655886 0.21449558 0.23723266 0.057185926 0.32947224 0.053541753 0.6399537 0.17916064 0.17216161 -0.41157886 0.20855941 0.11330527 -0.48496002 -0.14166565 0.33432385 0.05424273 0.15717441 -0.080419 -0.52642703 -0.08989399 0.10044827 0.16627708 -0.34291005 0.037149984 0.037118282 -0.2108673 0.13477494 -0.00883584 0.09839161 -0.20616531 -0.05592005 -0.4398167 0.5158449 0.13415326 0.1014857 0.14118437 -0.36385316 0.35622147 0.25040767 0.10506283 -0.21046616 0.029817747 -0.41280112 -0.32407495 0.52055025 0.2203817 0.2441644 0.14009593 0.069537275 -0.1449108 0.28760612 0.28411588 -0.023411691 0.4470265 0.15016843 0.4409673 -0.10731528 -0.3180004 0.044374485 0.00053176255 -0.13062514 -0.23435642 0.17122878 -0.044174038 -0.09629728 -0.14294945 0.05884611 0.097785875 0.44762558 -0.21768431 0.21007442 0.08169758 -0.39557564 -0.22138195
204 -0.29292473 -0.1966513 0.28975162 -0.15022038 -0.08459455 0.41025007 -0.3362745 0.26176223 -0.49079958 0.28270045 0.02779092 -0.26525667 0.19422065 0.3758291 -0.06617417 -0.25117484 0.18367179 0.031489644 0.099334344 -0.14675136 -0.14724545 0.2076729 -0.5238496 0.08826151 -0.100949414 0.049019046 -0.37975103 0.09117012 0.0656858 0.36392087 0.15635987 0.071495526 0.023323275 0.040678963 0.23101752 0.48253107 -0.287649 0.100958705 0.24057563 0.5056736 0.09153775 -0.0067674806 -0.5538212 0.17694513 0.08116428 -0.3390457 0.08739104 0.3537089 -0.14880599 -0.37620327 0.33000842 0.291979 0.007103058 -0.10381799 -0.018886669 0.238846 -0.13403937 0.39594105 0.07963117 -0.29990262 0.062477116 0.122361325 -0.063523516 -0.1093621 -0.00549386 0.121481836 -0.27791116 -0.33615634 0.34469634 -0.061898753 -0.0068091303 -0.07797474 -0.38346377 0.35798976 0.005466184 0.12740779 0.11721686 -0.14136565 0.3869377 0.08308786 0.18144886 -0.33369187 -0.27261993 -0.35180813 0.092061654 -3.464036e-05 0.2503561 0.3623041 0.3155489 -0.011592701 0.08277747 0.1319083 -0.17425744 0.06301676 -0.041929007 -0.25610226 -0.57460433 -0.267305 0.07415515 -0.17221941 0.11030333 -0.41945365 0.28218663 -0.15965238 0.04218451 0.3910045 0.071077526 0.13450024 -0.14973381 0.27126026 0.1394287 0.09193751 -0.21986644 -0.27523813 0.4557687 -0.40974975 0.16622569 -0.35375056 -0.13716185 -0.27409315 -0.10892241 0.08726139 0.23766463 -0.07794024 0.32468036 0.02472565 0.045528665 0.041763622
82 0.34263033 0.23733413 -0.22520055 -0.42790663 -0.2619699 -0.222886 -0.3660528 0.58127594 -0.22296497 0.33821467 0.18413116 -0.06301937 -0.067012966 -0.2444449 -0.08322658 -0.10486616 -0.0010906087 -0.3274409 -0.33308193 0.097055614 -0.095840394 0.26099417 0.0083778165 0.092634924 -0.20637383 -0.37053934 -0.13197793 0.44878203 0.30479288 0.16103882 -0.004183206 0.343302 -0.19783072 -0.3140953 0.037093174 0.08825683 -0.1641681 0.15367511 0.48486888 -0.117555365 0.29656258 0.31995207 -0.12963237 -0.015691856 -0.03612882 0.0140797375 0.20580944 0.11013738 0.20065638 -0.37205195 0.6126766 0.19656546 -0.046039633 0.027052999 0.0060516335 0.30605787 -0.31580952 -0.16360107 0.105687015 0.1452627 0.14247909 0.008523532 -0.027743153 -0.1145881 -0.080985785 0.006385554 -0.026179537 0.09315383 0.1915244 0.1506496 0.32396144 0.00123365 -0.20478335 0.19573046 0.39593017 0.119523 -0.02976238 -0.02449891 0.030863678 -0.22349428 0.2697157 0.15073666 -0.16518438 -0.18238711 0.021661174 -0.0593773 0.07990002 0.50803006 -0.071169674 -0.061312053 -0.019531975 0.016735582 -0.12713325 -0.0796677 -0.0291561 -0.015814506 -0.26863948 0.010771741 0.06468592 0.1632882 0.20023587 -0.08564834 -0.13135314 -0.2687342 0.013113095 0.28820372 -0.21254693 0.16818134 0.24068229 -0.09196463 0.2833482 0.41686144 -0.15937291 -0.017443595 0.001603508 -0.050893962 -0.14412306 0.022030072 -0.29649878 -0.39562008 -0.49819472 0.34311643 0.0015940997 -0.20274158 0.25649506 0.18343335 -0.2078509 -0.221963
239 -0.2648856 0.070522085 -0.03964565 -0.06178984 -0.008990514 -0.23764431 0.052219298 -0.1148618 0.061484527 0.17223422 0.2755497 0.10089173 -0.296607 0.22918427 -0.037443943 0.12393086 0.10195203 0.13642807 -0.01360484 0.1899717 0.0027770586 0.039189603 -0.22639583 0.16520631 0.15405698 0.07492175 0.21169691 0.42430726 0.503459 0.24593185 -0.13072027 -0.07698652 0.14199759 -0.22017618 0.12817489 0.36536244 -0.26669478 0.02273109 0.1564188 0.61513245 0.39432982 0.08703253 -0.51457065 0.13010448 -0.27147764 -0.17346297 0.34688824 0.0917121 -0.5896135 -0.38892317 0.82723963 -0.012894357 -0.38077283 -0.16256805 -0.27842852 0.35579458 0.24540421 0.13694365 0.22311606 -0.049040798 0.10253113 0.6708417 0.20583919 -0.35184848 0.24459907 0.06066853 0.06920919 -0.0577146 0.3840279 -0.19841473 0.24781927 0.27644512 -0.28270054 -0.24974623 0.07721316 0.041827932 -0.23236728 -0.19572099 0.019756053 0.10351732 -0.05985249 -0.043257374 -0.102872215 -0.42776954 -0.021335104 0.02373687 -0.05796151 0.3390491 0.31967452 -0.04629367 0.004893361 -0.22371924 -0.23108403 -0.17541775 -0.27107623 -0.42298415 0.1099078 -0.16408959 0.041979685 -0.27442396 0.2101257 0.1840641 0.25173414 0.05717367 0.6152583 0.71788937 -0.18649574 0.09677839 0.019934153 0.24060984 0.14749327 -0.18933503 0.22810313 -0.08917544 0.07149837 -0.1777132 -0.2978863 -0.21231842 -0.2501274 -0.24747634 -0.2112984 0.12194051 0.3003357 -0.22187667 -0.19398914 -0.18384348 -0.16930446 0.17250186
106 -0.44606185 -0.10884767 0.030739823 0.077085465 -0.1298753 -0.114950195 0.0010050943 0.27185598 0.114682734 0.6648934 0.004035522 -0.13150114 0.028579924 0.2686728 0.268722 -0.12028546 0.03069484 -0.17554975 0.41287816 0.13819282 -0.020907661 0.11667376 -0.042048693 0.058753856 -0.07416468 -0.43455222 -0.08987228 -0.018943232 0.22700445 0.06157701 -0.4430576 0.042301513 -0.24160025 -0.15085126 0.37805465 0.25400797 -0.4017815 0.29034632 0.41669783 0.40098456 0.3965216 -0.04442749 -0.3458523 0.076366805 0.08015282 -0.014925748 0.21511906 0.12475489 0.03162861 -0.5465629 0.41372693 -0.26789334 -0.33729073 -0.12617804 0.024736496 0.39179677 -0.021498056 0.089816645 0.2192676 0.3012125 -0.16177765 -0.036257125 0.23737207 -0.16967155 0.35955092 0.4006463 -0.051588356 -0.02399343 0.48556012 -0.22662707 -0.17818828 0.017895509 -0.07991957 0.057074107 -0.1334983 0.06080161 0.08966167 0.32140025 0.23863125 0.14456534 -0.113776825 -0.007411879 -0.022464652 -0.18616906 0.23075059 -0.18287402 -0.0140400175 0.10012523 -0.0004180858 -0.089035176 -0.18313205 0.42095113 0.09368316 0.2005971 0.018864105 0.09600263 0.16463922 -0.5182495 -0.08281312 0.22405528 0.030473465 -0.14292237 0.54645807 0.2623628 0.15675823 -0.065934435 0.025199302 0.10916636 -0.015019166 0.18069279 -0.4335186 -0.06423703 0.21036363 -0.31305158 0.5468713 -0.1680974 -0.27432153 0.05718798 -0.0061251083 0.034183905 -0.17738715 0.13883597 0.08233354 0.054486327 0.16623561 0.117532864 0.23175861 0.19843705
209 -0.028436203 0.11036128 -0.05039963 0.25832114 -0.16857678 -0.057187542 -0.4470248 0.41146863 -0.025673727 0.11260511 -0.07430515 0.058103457 0.31625137 0.25040397 0.53850967 0.1721545 -0.008299673 -0.51868457 0.09355059 0.21376169 -0.008607436 -0.077214085 0.004091686 0.117342114 -0.12937173 -0.4522201 0.12045647 -0.037043888 0.20812993 -0.021999467 0.06608624 0.36875144 0.057080436 -0.061776727 0.22254485 0.2270636 -0.013898485 0.10429446 0.013108739 -0.26019004 -0.036575764 -0.073984824 -0.4665235 -0.12369739 -0.14407998 -0.09790027 0.14920002 0.1930134 -0.39995793 -0.14357777 0.23552871 -0.012020503 -0.23296188 0.15910462 -0.14919531 0.0016783492 -0.010802096 0.26384965 0.2616587 -0.20298249 0.13039714 0.17634927 0.34395728 0.32877973 0.119144335 0.2689117 -0.024873225 -0.35796377 0.20941831 0.2525572 -0.18956728 -0.087336354 -0.055798568 -0.18750732 0.21255861 -0.040085033 -0.2542196 -0.31273758 -0.03961872 0.13039967 -0.18392782 -0.002979579 0.093105055 -0.6304409 -0.21235205 -0.1285998 0.502784 0.15338841 0.06279088 -0.07022656 0.2560666 0.18031916 -0.024217699 -0.4321955 -0.44451597 0.16178282 0.06004519 -0.36967298 -0.0913375 0.06817496 -0.076454744 0.119739376 0.3971057 0.13886684 0.1737793 0.1647209 -0.4318773 -0.037860926 0.09120492 0.13255346 -0.37240905 0.07884805 0.039296716 -0.06490351 -0.11454889 -0.0022575352 -0.27690575 0.07638558 -0.2515833 -0.007997634 -0.4103528 -0.06273502 0.015057919 0.14685145 -0.1424708 0.19452536 -0.49490732 0.017598487
87 -0.036758393 -0.016088998 -0.20665549 -0.030716727 -0.58531076 0.12970644 0.047217336 0.06173188 -0.13450834 0.2568455 -0.46056753 -0.02702471 -0.048178248 0.20509833 0.1303416 -0.054964334 0.26671982 0.22004618 -0.049711812 -0.060695797 -0.12751111 0.14495672 0.053810272 -0.077547744 -0.005482505 0.03283949 -0.054761622 -0.17993578 0.19229592 0.006318113 0.25482273 0.21958716 -0.20420349 -0.17518279 0.81511307 0.39687157 0.17594889 -0.17922504 0.37380338 -0.25438368 0.0475057 -0.13309808 -0.28347856 0.0573775 -0.11530677 -0.28355065 0.031719774 -0.2734212 0.056092374 -0.21241912 0.48527572 -0.06194745 0.071007386 -0.008190909 0.11711275 -0.11565728 0.19130026 0.112742886 -0.6283949 0.15878944 0.57159954 0.07663399 -0.009565294 -0.15087192 -0.050906766 0.036849536 0.19759043 -0.32081965 0.45244056 0.04299804 0.10201014 0.27179587 -0.17675923 -0.23305322 0.28429264 -0.25505728 -0.16281183 -0.005169027 0.17663614 -0.0002840393 0.36031944 0.052747507 0.18029398 -0.08839119 0.23382778 0.18128012 0.45593834 0.27201647 0.14955376 -0.21963462 -0.15956268 0.11949683 0.011257107 -0.1293503 -0.2778203 -0.07721088 -0.032549296 -0.06026718 0.10729339 0.21776408 -0.17812203 -0.15524663 0.42618912 -0.32375386 0.28900993 -0.20830207 -0.364694 -0.059394546 -0.28173468 0.3708664 0.26961166 0.012882781 0.32729986 0.1563147 -0.08982086 -0.35137838 -0.004979096 0.026723519 -0.14190666 -0.17111573 -0.15246604 0.32691017 0.21813901 0.17665781 0.32271898 0.24405652 -0.2718618 -0.47569004
294 0.04915908 -0.16758868 -0.3547213 -0.13706124 -0.052081946 -0.09166953 0.3721853 -0.010403804 0.3258041 0.026737273 -0.16862273 -0.6667969 -0.11402014 0.34107944 -0.15195546 -0.06926545 0.1065546 -0.17099752 0.24164322 -0.052211195 0.11000753 -0.07810472 0.026461601 -0.12032607 0.03205845 -0.1499984 -0.10333643 0.04637028 0.39649484 0.1601018 0.16690722 -0.0941107 -0.10963657 -0.4478189 0.20322879 0.27869207 -0.18445157 0.06935941 0.27109027 0.06075316 0.103297874 0.10477719 -0.017099677 -0.41918847 -0.47185186 -0.14921619 0.053908784 -0.25192454 0.117412545 -0.22392915 0.25235566 -0.32311663 -0.18237565 0.15749314 -0.22781985 -0.028430898 0.0057689864 0.5984758 0.33673233 0.10641218 0.26384008 0.055029593 -0.12559904 -0.2146559 -0.08103661 -0.020978635 0.08051553 -0.4197355 0.5097884 0.40490136 -0.11218701 0.10090952 0.15452513 -0.39060086 0.36624536 -0.21736184 -0.30607495 0.2534071 0.2510155 -0.275918 0.28173482 -0.1528396 -0.22594665 -0.29308197 -0.20755756 -0.6758045 0.052167196 0.26735651 -0.16411757 0.049510896 0.050884914 0.37276754 0.16405778 -0.39674824 0.13313861 -0.22447334 0.022320122 -0.18065129 0.31292093 0.25383124 0.18028745 -0.110237546 0.2104136 0.15134539 0.34024137 0.34242266 -0.27218655 -0.18481769 -0.18104814 0.004918323 -0.18750896 0.10365174 0.2926802 0.13793251 0.11193221 0.107812 -0.41580942 0.09280288 -0.31465903 -0.33677673 -0.13368066 0.14043914 0.44706172 0.0394208 0.2582294 -0.23608856 -0.2244776 -0.19349134
276 0.10909215 -0.014496335 -0.13245225 0.24236836 -0.12566328 -0.059354413 0.14824024 0.17675535 0.4522691 0.24007046 -0.050847124 -0.18949394 0.16519298 0.098735206 0.48983353 0.11843918 -0.115754455 -0.1433182 0.32232308 -0.0710517 -0.17653914 0.22709876 -0.07770761 0.05367901 -0.17557494 -0.17331459 -0.058367852 -0.18089995 -0.057346337 -0.06758916 0.061352726 0.49514663 0.014827088 -0.07385345 0.026236324 0.23130229 0.029108249 -0.25171137 0.4323554 -0.30904838 0.25934762 -0.1446365 0.010176451 -0.2868192 -0.27796897 -0.33090442 0.07820583 -0.14853986 0.039856702 -0.32881114 0.27879342 0.070728876 -0.36158353 -0.14623176 0.043034133 -0.206075 0.07834438 0.044908207 -0.051365763 0.14389856 0.19633368 0.02157544 0.16291077 0.24410023 0.3523243 -0.11025432 -0.120077685 -0.13284746 -0.020579956 0.011854049 -0.4047746 0.01572643 -0.36974683 -0.32078514 -0.101192 0.14710696 -0.3902948 0.1576645 0.14716321 -0.17021036 -0.0829957 0.03784851 -0.44463205 -0.29890445 -0.064045236 -0.3545235 0.6049095 0.5073835 0.028352618 -0.10386797 -0.432242 -0.29415214 -0.091531396 -0.2801522 0.066358306 -0.10907439 -0.16508864 -0.31186935 0.43271148 0.10446722 0.0350604 -0.007933184 0.30542853 0.11808691 0.32666996 0.06142376 0.08754589 0.060909882 -0.030213874 -0.07539132 -0.3218673 0.2118779 0.07640197 0.08633404 0.15140547 0.2176944 -0.24294402 -0.1821572 -0.33896217 -0.045065448 0.05076526 0.113070704 0.49172172 0.07417102 0.17913742 0.12182892 0.046990678 -0.17359415
289 -0.04981216 0.111790374 0.13873811 -0.09525122 0.35817263 0.022423988 0.028916314 0.25705656 -0.20773661 0.023486162 -0.19335154 0.0888126 0.46126515 0.005269699 -0.1403324 0.19487551 0.018541563 0.104213275 0.13433085 0.433525 0.24475834 -0.014543765 0.011707532 -0.1559999 -0.08994258 -0.25133917 0.075430825 0.026687156 0.42724293 -0.24315791 -0.17063253 0.2972577 0.16554359 -0.37020987 -0.078842305 0.1329623 -0.17658961 -0.11373342 0.23538952 -0.06647854 0.1641994 -0.15588643 0.09852805 0.0877144 -0.50293994 -0.2023009 -0.22067061 -0.057660908 0.13322665 -0.32878685 0.6265666 0.11135515 -0.06307027 -0.14727715 -0.19183016 0.10954649 0.11214727 0.2246486 0.15585758 -0.027279763 -0.24785145 0.031348623 0.29595158 -0.16057555 0.15913996 0.082061805 -0.4040898 -0.5436771 -0.150559 -0.2819842 0.12483451 -0.07780174 -0.46526724 0.00016567427 -0.16028287 0.3882733 -0.060470626 0.2648219 0.007732887 0.12372749 0.41825694 -0.06973761 -0.1340268 0.014267748 -0.09979286 0.13092242 0.41591954 0.29803222 -0.33077386 -0.21803087 -0.12687567 0.5754032 -0.28139675 -0.0003235821 -0.013084461 -0.39042482 0.046767786 0.29869372 0.023231281 -0.32516244 0.38025242 -0.16168888 0.4322668 0.16338369 0.39962736 0.254145 -0.35360864 0.0217534 -0.03630736 0.30940306 0.117118396 0.35380372 0.3590868 -0.15517703 0.062384035 0.051579088 -0.13468985 0.057620488 -0.5295008 -0.27201337 -0.2889683 0.25335938 0.36636278 0.46774837 0.19050965 -0.19138935 -0.5427771 -0.1165693
281 0.3616586 0.25249502 -0.056045517 0.013028172 0.09115262 -0.033255503 0.11195428 -0.055714004 -0.13394928 -0.019898515 -0.29186872 -0.09573165 -0.031040195 0.40481862 -0.0027624127 0.103468694 -0.15870729 -0.032675546 -0.048566993 0.20927045 -0.100716546 0.22661482 -0.26107293 0.15762752 -0.1772679 0.17820227 -0.18791631 -0.060571823 0.6902365 0.0070128124 -0.21337098 0.067861825 0.12407027 -0.17642318 0.22385387 0.21520676 -0.43396637 -0.4119994 0.07345227 -0.0077535897 0.14046875 0.18572551 0.01715593 0.029532807 -0.28270695 0.120693706 -0.120940454 0.008659472 -0.11952778 -0.25178233 0.5480197 0.050497264 -0.033902884 0.043380775 0.13557416 0.21735352 0.004203927 0.28906286 -0.0035075922 0.19658265 -0.20885906 0.23711929 -0.42546713 -0.106121086 -0.014776795 0.10557529 0.028306888 -0.2144278 0.26781914 -0.12550287 -0.25101057 -0.022385934 -0.11348628 0.4581343 0.15659092 0.0857836 -0.17814828 0.32996076 -0.07662082 -0.16627425 0.16806059 -0.23391928 0.028657077 -0.4897549 0.11123931 -0.17886467 -0.03988472 0.63533115 0.0023872086 0.40798602 -0.41881102 0.43968827 0.18577814 0.16387841 0.23541823 -0.16271368 0.13456638 0.09547003 0.1629927 -0.028605022 0.23356217 -0.5288009 0.43887383 -0.087489456 0.28481832 0.24860527 -0.19161108 0.4136797 -0.17343342 -0.05845367 -0.15449174 0.19570038 -0.008672138 -0.19241826 0.03312466 -0.4487267 -0.1793977 0.14109191 -0.27048907 0.23933859 -0.25297952 0.054237943 0.024848891 0.034607172 0.058318418 -0.023970205 -0.044680636 0.04347271
338 -0.16250873 -0.07930235 0.09689358 -0.3819276 0.1751158 0.17454235 -0.1219197 -0.22009276 0.04552598 0.31997383 0.080135256 -0.085729465 0.30719623 0.4259608 0.0014175064 0.06640451 -0.013811408 -0.17912877 -0.18101805 0.16015965 0.19210178 0.109376125 -0.40938035 -0.12603796 0.039574277 -0.26999 -0.109730035 -0.03210355 0.5313422 0.10285556 -0.096580334 0.16429447 0.3061298 -0.2021112 0.36220986 0.24892813 -0.18379834 0.3204085 -0.12236163 0.14028607 0.31830823 0.10676703 -0.06958765 -0.021216182 -0.4362418 0.15685487 0.3554563 0.03532283 -0.072655685 -0.23551415 0.57900816 -0.31317854 0.10249937 0.26307458 0.06335893 0.28445804 -0.26869494 -0.010344754 0.06417795 -0.21262673 -0.08660888 -0.17045635 0.29062194 0.107048005 0.08221 -0.15403992 0.020370524 -0.12164073 0.22864315 -0.4061717 0.05222039 0.33969438 0.10688261 0.19284658 0.27345812 0.021476775 0.07402984 -0.083841175 0.14706947 -0.28900874 0.0027642627 -0.07390952 -0.2594436 0.14025293 0.26216695 0.088219635 0.13648275 0.13569088 -0.144784 0.019896822 -0.13726772 0.06949184 -0.25049064 -0.4536972 -0.18728444 0.103822775 0.22666983 -0.02475748 0.13678974 -0.07521457 -0.199494 0.011214477 0.29292586 -0.119890295 -0.13582818 -0.0065026707 -0.17507344 0.28304368 0.09656152 0.08636033 -0.011467045 -0.046087034 0.28892204 -0.28786725 0.34789816 -0.2508115 -0.17614616 0.38495234 -0.51972026 -0.31843612 0.08261969 -0.06738068 -0.061778318 0.050682772 0.28244692 0.121782854 -0.2063795 -0.18891613
158 -0.19542746 0.0049888566 0.10925741 -0.01399195 -0.24462777 0.093135744 -0.30727008 0.15444525 0.04058431 0.23072433 0.2860557 0.20404273 -0.110217944 -0.0033251948 0.2028097 0.27222514 -0.29709446 0.050920635 -0.096417546 0.32871106 -0.25169376 0.022560656 0.0624192 0.37285462 0.013294932 -0.6907619 0.16491807 -0.0292315 0.42292827 -0.00075841876 -0.027119922 0.17958634 0.30642197 -0.26091206 0.2941933 0.3461936 0.19848146 -0.07956562 0.09363544 -0.24069491 0.15631008 -0.28083402 -0.40674305 -0.086724855 -0.4799114 -0.17477643 -0.0017048541 -0.37081072 0.06827644 -0.35984668 0.32671493 -0.23869145 -0.2532645 -0.28060544 -0.18042952 -0.32578388 0.18112963 -0.054694384 0.29883716 0.056791008 0.20793653 0.07508911 0.008893666 -0.18071312 -0.18077353 0.48055086 -0.10465131 0.012961188 0.31679413 0.04359418 0.015646279 -0.07519457 0.0012490108 0.098694995 0.12968323 0.45668152 0.16769733 0.16372293 0.22417895 -0.040794794 -0.006225093 -0.17345847 0.14398426 -0.11002291 0.05918177 -0.19730403 -0.09881141 0.4639493 -0.1908343 -0.15794894 -0.46769205 0.39571747 -0.045663066 -0.13116072 -0.112116136 -0.21678868 -0.037492517 -0.4167829 0.5002738 0.034074783 -0.0721451 -0.10651481 -0.15715204 -0.33320814 0.13647956 0.08867168 0.035462476 0.56210285 0.02332627 0.50491697 -0.24642135 -0.085862696 0.054548517 -0.13983051 0.26460823 -0.32934305 0.39654315 0.22902915 0.089757904 -0.0655103 -0.23051827 -0.115076594 -0.36259866 0.4218094 0.066990286 -0.44593686 -0.4445908 0.057980333
195 0.24409513 0.16851068 -0.12143377 0.18073946 -0.26091123 0.26571846 -0.2624723 0.24137132 -0.1252884 0.11840147 -0.19346724 0.005257952 0.2800968 0.5508052 0.16957444 0.05210653 0.10379414 0.09628347 0.4816402 -0.013541104 -0.30492142 0.044344388 0.04575096 -0.21729566 -0.12985344 0.11824863 0.25391534 0.21869695 -0.20319273 0.03380717 -0.16996966 0.020696884 0.14444992 0.1893129 0.34285957 0.019758573 -0.06844587 -0.32639232 -0.27513307 0.1769138 0.44933355 0.7247963 -0.22855327 -0.17869233 -0.09219284 -0.25792542 0.014436673 -0.27271658 -0.17882682 -0.3791234 0.23361972 -0.083051264 -0.35326022 0.26380742 -0.16753858 0.4429376 0.052295797 0.15876214 -0.052948557 0.071603164 0.074039 0.04068119 0.19549866 -0.23433064 -0.21617097 -0.15167755 0.057698898 -0.47453102 0.47098836 -0.18212333 0.06699554 0.23826306 0.17166363 0.025395157 0.19941202 0.06967876 -0.14027189 -0.15316635 0.320182 -0.0442172 0.07351675 -0.063710704 -0.07184386 -0.13127632 0.24603793 0.17361009 0.11155686 0.35527456 -0.08198116 0.074020796 -0.2493586 0.13158925 0.23645632 0.086391166 0.19390784 -0.19515257 0.00021623069 -0.18428776 0.09176998 -0.13241298 -0.07831839 -0.42589596 0.35751495 -0.23314899 -0.08605714 0.20510358 0.066043735 0.14948429 -0.13633215 0.118541926 -0.15847713 -0.15461612 0.19354863 -0.32690683 0.026785625 0.05479536 -0.008448082 0.0635149 -0.32589734 -0.1294949 0.12894155 0.29362625 0.10295198 0.041814405 0.50024956 -0.10781601 -0.059972946 -0.12552513
19 0.0959167 0.37974402 -0.25644854 -0.10674623 -0.2907753 0.18453501 -0.110267445 0.32112432 -0.009019031 0.75331765 -0.23205467 -0.14022045 0.09193665 -0.04594354 -0.09772717 0.37077323 0.1765673 -0.570198 -0.025121048 0.23184624 -0.4397828 0.20342779 -0.29115373 -0.232567 -0.09254307 -0.7272715 -0.47024918 -0.17861669 0.5843351 0.08133121 0.35961953 0.15339217 -0.2592668 -0.088125266 -0.119233355 0.54040617 0.041869797 -0.0057738423 -0.053574342 0.17151998 0.26494285 0.07780431 0.004962814 -0.07292328 0.22809754 -0.0092411 -0.38438708 -0.25802898 -0.29536426 -0.53623253 0.22398648 -0.06534939 -0.017929286 -0.009731728 0.01937755 0.085094005 -0.053817783 0.30533767 -0.32459724 -0.2261533 0.394583 0.37843075 0.15127067 -0.027190898 -0.38467053 0.032184444 0.26190734 -0.38472778 0.014590518 -0.2415702 0.010032808 -0.24296841 -0.31973475 -0.27230647 0.10241551 0.1750696 -0.035628553 -0.35222107 -0.26638055 -0.06803604 0.18535817 -0.39123023 -0.14786455 0.15901531 0.5336593 -0.15386629 0.06407103 0.41020906 -0.18228993 -0.03271676 0.23652482 0.5705697 0.14464529 -0.6169875 -0.4954625 0.10512947 0.2047609 -0.44620118 0.17443031 0.33665597 0.52117676 0.26402065 0.4637464 -0.38458425 0.23911245 0.3465171 -0.31203622 -0.060254004 0.034321036 0.19019772 0.14264043 -0.40650594 -0.07548019 -0.21352687 0.27912498 -0.2465472 -0.14705797 -0.24753049 -0.38883775 -0.3355273 -0.25951362 0.12273591 0.09377044 -0.34923482 0.22195853 -0.05991759 0.12118187 -0.2077799
264 -0.2160591 0.14658149 0.26739582 -0.19382955 -0.25916505 0.21788791 -0.058174815 0.21058787 0.11686303 0.08410724 -0.029955078 0.0225039 0.18039235 0.1243711 -0.004027113 -0.19253613 0.014388433 -0.22631775 0.03374675 0.017818188 -0.101866074 -0.057156157 -0.10521625 -0.09925414 -0.33113596 0.1268691 0.082060635 0.203007 0.54982716 -0.13726032 -0.08411832 0.19549385 0.08527794 -0.47719973 0.207858 0.25983053 -0.54136604 -0.06802431 0.09042938 0.25773257 0.3517479 0.15232658 -0.24177599 -0.06635221 -0.24826951 -0.6580399 0.327269 -0.12115842 0.21338609 -0.4397196 0.2350979 -0.15288007 -0.2662606 0.066685654 0.0012966628 -0.17102519 0.092316456 0.29845196 -0.23918627 0.11281166 -0.27910602 -0.0011194578 -0.0043552145 -0.2846643 -0.114416 0.11214764 -0.016126838 0.10622886 0.25745478 0.06434045 -0.3986923 0.09499668 -0.019625215 -0.11411671 -0.06645543 0.06548407 -0.2804749 0.0184214 -0.04057212 0.036545 0.13440293 0.49171662 -0.24803528 -0.68995297 0.11735822 -0.015103574 0.13617988 -0.14544329 -0.48573694 -0.08850664 -0.11456295 0.22376595 0.38333973 -0.16042094 0.039567567 0.17782126 -0.1590377 -0.44165182 -0.02681668 0.07092592 -0.02970106 -0.0906488 0.36701956 -0.31305224 0.015543648 0.27620998 0.062389694 0.12703115 -0.16262165 0.54681706 0.14705649 0.07971296 0.38883805 -0.14171878 0.45263487 -0.29315147 -0.5655964 0.19589183 -0.42307496 0.059973475 -0.2606578 -0.011851614 0.17975065 0.17807972 0.57740015 -0.13968231 -0.3911941 -0.03423168
166 -0.28975815 0.041559633 0.49570042 0.060084164 0.17170563 -0.19836168 -0.08080468 0.49412525 0.16538854 0.12930796 -0.15302143 0.072237834 0.25244272 0.0009260841 0.56945115 -0.03364157 -0.037245743 -0.1580331 0.28610766 0.2581975 -0.046897203 0.19193316 0.20528069 0.030736566 -0.35343787 0.10782749 0.26993603 0.057772394 -0.18372025 0.1494404 -0.070278265 0.33413255 0.054746497 0.065689765 0.23626448 0.044892654 -0.061281685 0.1723731 0.35990578 -0.27987555 0.3363004 -0.09550328 -0.019560771 -0.2675102 -0.17902601 0.06971664 0.16969065 0.005902684 -0.2899151 -0.22592129 0.32616007 -0.5070741 0.11240958 -0.08368914 0.08079037 0.534909 0.12710176 0.21385676 0.2405969 -0.10230259 0.2095418 -0.25045246 0.07509785 -0.08655662 -0.13750108 -0.03239953 -0.07533763 -0.49707934 -0.2039169 -0.20306545 0.17277738 0.29312393 -0.33281693 -0.087789394 0.2634317 -0.2545343 -0.12999472 -0.15501402 0.22897036 -0.16617534 0.05154246 -0.12384529 -0.38015702 -0.22875023 -0.3165148 0.08060004 0.09852955 0.36711058 0.2956626 0.28422126 -0.03396116 0.19520181 -0.1462263 0.109516904 0.23689644 0.23100182 0.0009223799 -0.11772052 0.26466644 0.19602668 0.111057304 0.3691842 0.30091417 -0.26526728 -0.0545368 0.44787958 -0.28670642 0.089825995 -0.007964908 0.28130654 0.35000375 0.44131678 -0.17614886 -0.26974112 0.08776228 -0.3483271 -0.088946156 0.15943019 -0.100559816 -0.365485 -0.1486859 0.008637873 0.33820608 0.04869103 0.020585062 0.020403266 -0.4774497 -0.42258263
268 0.20308132 0.11206784 -0.23203884 0.122907855 -0.18254653 0.18333614 -0.25931248 0.53794676 0.18602937 0.088822894 -0.047028244 -0.007247896 0.18085515 0.05136897 0.20838954 0.17665511 0.17219678 -0.078543596 0.14102918 0.0910858 0.0148882 0.20197731 0.21418804 -0.23275441 0.40214327 -0.025262425 0.19463824 0.07044879 0.1758985 -0.24052577 -0.14877135 0.193469 -0.14239436 -0.24210589 0.20205775 0.15440829 0.0004394356 0.52433145 0.070249386 0.053178966 0.45182768 0.032119147 -0.09316904 -0.1701635 -0.13553537 -0.23456946 0.28429568 -0.07561214 0.2297948 -0.5554362 0.32786626 0.39915657 0.021390812 0.14656904 0.09592938 0.30250996 -0.35926133 0.2700124 0.01251722 -0.1395499 -0.0019742006 -0.28402928 0.2611084 -0.22421473 0.20355283 0.06735048 0.34298518 -0.18653351 0.27029473 -0.22655521 0.056085296 0.22954386 -0.51212543 0.0965533 0.33003476 0.09065971 -0.3718546 0.17852749 -0.019277155 0.2728789 -0.04944501 -0.100752674 -0.118875496 -0.033772424 0.045921493 -0.12174194 0.40299156 0.49897158 0.19576854 -0.05550455 -0.3276701 0.055101473 0.05190151 -0.03965548 -0.17148325 -0.40218973 0.4623485 -0.3321177 -0.020822642 -0.19285049 0.19510876 -0.25822282 0.44313213 -0.06520653 -0.07479273 0.057715338 -0.30494833 0.077828005 -0.31599385 0.18978927 0.20301187 -0.026163006 -0.10434694 0.148159 -0.053962708 -0.23636155 -0.055006586 0.09942779 -0.19473913 -0.48904705 -0.08033464 0.104161985 0.46239 0.32299525 0.15186931 -0.34280828 0.20230071 -0.33273342
320 -0.10704961 -0.04974322 0.14152904 -0.22625121 -0.122240625 0.30107743 0.13965121 0.19402269 -0.02100275 0.52557695 0.024535947 -0.24278453 0.2126026 0.56539595 -0.0460809 0.015062831 -0.026151417 -0.19170843 0.17530218 0.34882993 0.12511471 -0.1075265 -0.19595928 -0.13100503 0.106530756 0.4513792 0.15205686 0.17146742 0.14474888 -0.0890098 0.113164015 0.32086945 -0.35988656 -0.16706938 0.81569964 0.25113216 0.009194827 -0.401791 0.33673108 0.16120431 0.5549808 -0.15456253 -0.0042438502 -0.30587035 -0.27599323 -0.047557063 0.23096325 -0.13841605 -0.49841815 -0.1606327 0.5935923 0.12546495 -0.09876096 -0.09923408 -0.27168977 -0.031499274 0.18906651 0.014019886 -0.071933165 0.1553689 0.028104512 0.016407637 -0.016875707 0.14347497 0.24330746 -0.027513068 -0.072984 -0.049956415 0.21737356 -0.098518334 -0.51631624 -0.20469943 -0.12165027 -0.13214992 0.15285718 -0.0396745 0.05155209 0.15990539 -0.062250912 0.106491715 -0.13510267 -0.054034088 -0.044919107 -0.29728162 -0.035630673 0.16326122 0.11904587 0.32204652 0.11204133 0.043547023 -0.32483634 0.30487174 -0.0118166935 0.15315825 0.09408615 0.13546205 0.008045865 -0.40925714 0.25032958 -0.327183 0.24623644 0.1738551 0.157466 -0.39004514 0.32064515 0.50854963 -0.014362339 0.056001823 0.17728828 0.1983164 -0.18625721 -0.12585399 0.10205805 -0.3654468 0.050783142 0.1465774 0.21347237 -0.0111918105 -0.22644484 -0.18136978 -0.44160864 -0.20041977 0.24864669 0.22122298 0.26058438 0.19513656 -0.20094006 -0.42746636
100 -0.34661663 0.25980642 -0.035217892 0.23171225 -0.49692306 0.12641509 0.10120767 0.20926513 0.37218168 0.37275502 -0.2928112 -0.15028705 0.056933444 0.52222264 0.23769727 -0.13940258 -0.16942646 0.26979074 0.18076937 0.017325262 0.41061002 0.074721076 -0.32414445 0.17453176 -0.12242272 -0.090887085 0.15013091 -0.22784919 0.20460853 0.22601046 -0.18873316 0.24731928 0.16203539 -0.30181637 0.7544574 0.11347222 -0.39200932 -0.29803452 0.22150041 -0.042486697 0.13243133 -0.004864108 0.16300611 -0.04911478 -0.37966707 -0.19470532 0.035561584 -0.010489193 0.03922714 -0.59295666 0.18765058 -0.20044237 -0.6157258 0.07787976 -0.2939422 -0.2068979 0.13555066 0.031315774 0.12526026 0.1697651 -0.28523088 0.18002908 0.48604715 -0.36382148 0.00046119973 0.10789268 0.10538968 -0.22087307 0.26519483 -0.07077355 0.15646502 -0.12769827 -0.07790668 -0.006072516 -0.113384366 -0.42549637 0.10306978 -0.22770804 0.12997824 -0.20199066 0.39213997 0.1813259 0.19182576 -0.46643654 -0.08478454 -0.10208193 0.10689192 0.16065909 0.31665626 -0.037261683 0.07160193 0.24760623 0.052088145 -0.1699815 -0.12392355 0.019893147 -0.08318795 0.05917857 0.05828822 0.2699454 0.21662872 0.00984023 0.54134864 0.11054343 0.23439421 0.06952568 -0.05755908 0.3054169 -0.013039027 -0.014018872 -0.04201437 0.1834745 0.14644623 -0.0761377 0.36458534 -0.26969764 -0.20047076 0.11276076 -0.28320524 0.068643354 -0.44133392 -0.19577771 0.07298421 -0.06245611 0.13769351 -0.25458354 -0.012604981 -0.003149636
325 -0.036804643 -0.0015108108 -0.076561004 -0.19539247 -0.29716733 -0.048437286 -0.38735625 0.54070187 -0.07147122 0.19326727 -0.27924097 -0.07214625 0.2388429 0.30312988 0.41497585 0.15123302 0.182886 -0.24241568 0.3178867 0.21919169 0.0040681367 -0.14413968 0.14207269 0.19120993 -0.06403331 -0.038656063 -0.22490531 -0.18393622 0.101519056 0.38827044 -0.081313625 0.27191457 0.24663216 -0.64416385 0.105410755 -0.043702185 0.03761156 -0.57053334 -0.22554545 0.08391168 0.08658393 0.065373726 0.055690486 -0.1694726 -0.32200497 -0.059474695 0.2378816 0.25181952 -0.12466572 -0.63906777 0.31274322 -0.021356182 -0.3127856 0.016818605 0.32225904 -0.06933696 0.026836116 0.075833715 0.07253796 -0.090823695 -0.19339162 0.17210749 0.24699305 -0.17948377 0.08205473 0.15560095 -0.023415437 -0.21287163 0.21780285 0.056060307 0.08686777 0.43751144 -0.31636718 -0.08082264 0.07859036 0.05595842 -0.21492502 -0.5084034 0.14145248 0.17954424 -0.10730161 -0.502241 0.106150925 -0.2514641 -0.125631 0.17067523 -0.05584034 0.42240244 0.06429111 0.11332469 -0.3528809 0.26293924 0.11091654 0.00020588368 -0.023340303 -0.025663927 -0.1507214 -0.06366957 -0.04615756 -0.094881095 -0.2407648 -0.030384194 -0.007202569 -0.52889955 0.10227 0.05940595 -0.524228 0.2518623 0.31004506 -0.033603597 -0.003690827 -0.1940209 0.11835669 -0.21464731 0.30694377 -0.23676121 -0.05141677 0.2436399 -0.07722608 -0.35260108 -0.35390085 -0.22067156 0.5472817 -0.082371965 -0.005665891 0.044104014 -0.154282 -0.22859098
7 0.04172263 0.3161872 -0.30471456 0.16028371 -0.29720905 0.28335595 -0.39462236 0.16748865 -0.15636696 0.4488824 0.065745436 -0.20395914 0.10932848 -0.0903921 0.07374996 -0.066800654 -0.16860762 -0.15075491 0.07475824 -0.12774006 -0.15481637 0.13371691 0.12066092 -0.08047385 -0.3554831 -0.10138518 0.15901877 0.2014263 0.21679766 0.4317764 -0.23068103 0.12512307 0.15784654 0.014970812 0.19868085 -0.035589803 0.08120126 -0.056503925 0.19024463 0.2467262 0.33983037 -0.43184963 -0.340986 0.16510306 -0.40944248 -0.0050882124 0.08082593 -0.12786104 -0.029556874 -0.320226 0.1959713 0.09114027 -0.4951328 0.298174 -0.14325257 -0.13688968 0.074736066 0.31857765 0.41824433 0.07015456 -0.14678094 0.016733302 0.029418029 -0.24988127 0.06844591 -0.28293917 0.21566191 0.023169452 0.105773196 -0.094959915 -0.038225275 0.11775684 -0.2761951 -0.42062598 -0.051285893 -0.18566625 0.10319348 0.092957914 0.034424335 -0.022878975 0.11719275 -0.14485338 0.31586775 -0.33487502 -0.03540415 -0.07048891 -0.0069781304 0.28556713 0.09502573 0.28856012 -0.071642205 0.31232464 0.13010576 -0.2062739 -0.2814678 0.002114815 0.14360066 -0.3228374 -0.09465303 0.28502035 -0.058969 0.12744948 0.28219944 -0.4669729 0.18340746 0.3761892 -0.20062022 0.39222655 -0.2030107 -0.08288799 0.23744674 0.15701528 0.1342446 0.19952346 0.008470026 -0.054685727 0.08302127 0.037995104 0.06686806 0.019076856 -0.088731654 0.24841832 0.16271932 0.44362438 0.19797185 0.06036233 -0.18927896 -0.13659318
187 0.251556 0.13036278 0.4417943 -0.28345066 0.2714206 -0.0065527335 -0.20940457 0.22052716 -0.23890877 0.34707054 0.20731941 -0.4836329 0.6385814 0.06602562 -0.119860195 -0.021388827 0.0113898115 -0.37447807 0.35651758 0.051534332 0.07344783 0.17936157 -0.40715584 0.114351265 -0.06327536 -0.41645178 -0.042951435 -0.014602363 0.3161411 0.0022818297 -0.10801078 0.13421986 -0.17384733 -0.033300087 0.26123142 0.40183106 0.12626468 0.3452046 0.09908047 -0.078030646 0.13609314 0.019345649 -0.37443152 -0.36821386 0.09878528 -0.28726146 0.17474991 0.31253856 0.046609964 -0.3291304 0.13008034 -0.06285788 -0.019896744 0.32294083 -0.040418528 -0.017654622 -0.06605782 0.16600876 -0.07483421 0.3884873 0.14597955 0.056795362 0.299338 -0.037678134 0.30655262 0.14442486 -0.13321818 -0.122066215 0.23415768 0.1962735 0.25633132 -0.04683106 -0.29618892 0.12042108 0.266801 -0.13074228 -0.1849326 0.07114929 -0.34681976 -0.12579404 -0.064809225 -0.1936932 0.02768777 -0.34943667 -0.23710588 -0.10727678 0.2842656 0.37668794 0.24242646 0.1223979 -0.02394403 0.5359932 -0.28783682 0.12249899 -0.19832845 -0.19055797 0.115072146 -0.43678063 0.31312287 -0.074466884 -0.10231573 -0.2450055 0.065851934 0.323006 -0.0762117 0.20371173 -0.5785447 0.20007041 -0.06642815 0.0145314345 -0.11847147 -0.0049343333 0.2582273 0.11377791 -0.33825123 -0.39953357 -0.16034347 0.036469657 -0.055231854 -0.1478858 0.018792862 0.34165654 0.2027516 -0.053112105 0.024869483 -0.4227584 -0.23467176 -0.124445386
244 -0.27880326 0.029708039 -0.12954159 0.31428996 -0.030044848 0.33739188 0.05352192 -0.037039217 -0.25099793 0.3706234 0.281224 0.23987666 0.040990658 0.42994913 -0.11535459 -0.016680054 0.5905894 -0.06117025 -0.14225584 0.22346136 0.09551652 0.38326302 0.133408 -0.14996606 -0.20552152 -0.19460447 0.06943717 0.025899976 0.010249846 0.18288581 -0.5138532 0.31148842 0.46111897 -0.1906057 0.16652785 0.31960216 0.073651135 -0.21162535 0.39859432 0.21824701 0.05606701 -0.06021115 -0.20609349 0.05434578 -0.386219 0.092353694 0.3190847 -0.13290185 -0.18685538 -0.029182201 0.21903625 0.10276544 0.08801614 0.04562075 0.048195254 0.32208842 0.16309367 0.20098159 -0.20666173 0.18720788 -0.17629336 -0.18695474 0.11685641 -0.04528543 -0.3104001 0.15799269 0.042803325 -0.15457939 0.26610738 -0.042953413 -0.36256644 -0.090977184 -0.2178379 -0.02364673 0.06841692 0.45275167 -0.25628322 -0.08417529 0.23022391 -0.23029767 -0.098911956 -0.032821897 -0.23827878 -0.060372733 0.05108296 -0.29926765 0.32675955 0.5132999 0.02021346 0.391922 -0.34672895 0.25210786 -0.116395734 -0.024030514 -0.049445346 -0.05992617 -0.18416274 -0.053101182 -0.06165378 -0.117617846 0.15264823 -0.109644055 0.5052098 -0.02833437 0.3231411 0.31488034 0.015386835 0.2886741 0.28032318 0.59045804 -0.11433247 0.081045486 0.047769688 0.0030360913 -0.10021599 -0.13477103 0.14418074 -0.054784942 -0.48660007 -0.44691128 -0.337313 0.1504941 -0.0010763323 0.4128409 -0.1146972 -0.033769548 -0.25000906 -0.35353932
300 -0.23836136 0.15301763 -0.062336084 0.06780465 0.053335097 0.18226446 0.1388204 0.49416786 -0.1557373 0.2774409 0.5639184 -0.10959879 0.29648578 0.35401723 0.004179041 0.34828982 0.083504446 0.17711541 -0.116415955 0.37134433 0.10381447 0.22302718 -0.1926973 0.004694167 -0.046958745 -0.042448867 -0.036132894 0.1696167 0.36439973 0.14000924 -0.055108767 0.48608392 0.21502827 -0.24015841 0.18437457 0.23060988 -0.010590484 0.018967617 0.050449472 0.015379917 0.15556829 -0.13317509 -0.23022123 -0.12993838 -0.30580893 -0.19583093 -0.014975256 -0.05893473 -0.16721475 -0.4113175 0.17430651 -0.26577744 0.033530034 -0.35549453 -0.25702906 0.21529762 0.34708023 -0.050294712 0.036699954 0.19383113 0.12821977 0.20757703 -0.17771654 -0.08979319 0.07274947 0.0127725685 0.1402311 -0.41116652 -0.26892412 0.24020854 0.27300522 0.13823998 -0.065946065 -0.23514038 0.21424201 0.14817461 0.015255833 0.43251055 -0.02875425 -0.3169797 0.23146652 -0.2902567 0.26634997 -0.5744305 -0.26919684 0.07533528 -0.3507104 0.13390413 0.3084551 0.09699439 -0.3184995 0.15278824 -0.107660726 -0.26297826 0.23168723 0.12216258 0.14611591 -0.19754994 0.3357478 -0.15117718 -0.21979657 -0.089641996 0.16022663 -0.28742975 -0.077860944 0.45806554 0.014323958 -0.22443335 -0.12592882 0.34525615 0.077555545 0.14754875 0.014423449 -0.18773879 0.11297743 -0.20406657 -0.20555763 -0.16019595 -0.3471846 0.13368337 -0.016351672 0.14925192 0.17566769 0.07542613 -0.13823904 0.003578568 -0.35037932 0.033335656
78 -0.45336962 -0.10748008 -0.2340076 0.12879184 -0.21802527 0.13464496 -0.41148457 0.3337792 0.029949786 0.1369202 0.20739622 0.13498046 -0.27690873 0.10604419 0.08762263 0.026731344 0.14922746 -0.23386855 -0.41725805 0.50066555 -0.36691353 0.009041789 -0.028134916 0.10976637 -0.0024091592 -0.5245854 0.103704445 0.08135534 0.018931834 -0.30672213 0.02654628 0.37040886 -0.06683096 -0.24793519 0.39851686 0.21255763 0.17574207 -0.3405505 0.22148122 -0.14365922 0.5261381 -0.060007066 -0.22941788 -0.17443904 -0.2617232 0.090121716 0.14003187 0.07629158 0.1564179 -0.38499892 0.23029993 -0.2682592 -0.20303136 0.22423081 0.0038673936 0.05541986 0.11904487 0.22069266 -0.088081144 -0.041849863 0.167645 0.29898062 -0.051589467 -0.30135122 0.1661101 0.022123458 0.1732303 -0.19984111 0.16505547 -0.04923284 -0.14754379 0.22456759 0.065493986 -0.31478512 -0.1007375 0.08279208 0.116846606 0.105238244 -0.005539351 -0.062221102 -0.4054237 -0.13665557 0.0807032 -0.15790947 -0.45089766 -0.45439485 0.4185726 -0.013250135 -0.5241194 -0.08364087 -0.2004113 -0.06875699 0.29771322 0.2536263 0.030636434 -0.09745078 0.11937801 -0.042461548 0.13266006 -0.08682266 0.30835313 -0.22422615 -0.1579788 -0.09164289 0.25266314 0.20978439 0.3007497 0.2177047 -0.3710779 0.38732547 -0.011230865 0.06655314 -0.14717397 -0.1857046 0.12904087 -0.22177608 -0.24731691 0.16889581 -0.6064886 -0.13159852 -0.040395543 0.2001909 0.23737001 -0.20913915 0.3344246 0.41784233 -0.15743351 -0.48726928
228 0.28589794 0.28363395 0.18386208 0.0677069 0.018647833 -0.10210996 -0.5279557 0.10872945 0.027281234 0.40648592 -0.27088156 0.15216039 -0.019430911 0.47435725 0.19877501 0.008637154 -0.12864171 -0.053791806 0.43715355 0.09383971 0.08277839 0.11145435 -0.30717596 -0.3345431 -0.32887 -0.16965179 -0.23875599 -0.021328669 0.16089486 0.14519851 0.18719637 0.34032622 0.061505806 0.14722155 0.09227985 0.044010706 0.12517987 0.06746441 0.032205835 -0.00502443 0.17456353 -0.27467176 0.18991685 -0.05099502 -0.4885119 -0.44208118 0.22159271 0.23058608 -0.5603597 0.13854487 0.39493266 -0.26229563 0.18458827 0.19234993 -0.070772335 -0.21035996 0.20205085 0.008888421 -0.046230186 0.2525102 0.067674264 0.31407648 -0.15968792 -0.20391935 0.087234735 0.13238308 -0.13628857 0.019985447 0.50335115 -0.19566956 0.14973056 0.24520355 -0.27802655 0.057898175 0.19520128 -0.29365334 -0.33917493 0.19226272 0.28978965 -0.15548812 0.04466957 -0.041526638 -0.14159487 -0.024756577 -0.0974896 -0.11294544 0.262801 0.5633247 -0.3249442 0.30578548 -0.28119135 0.44352135 0.09670282 -0.0015054266 -0.107533075 0.30613926 0.12919272 -0.03199062 0.3005793 -0.16577432 0.27810767 -0.23870054 0.12602748 -0.26876345 0.16883804 -0.0054893037 -0.057347164 0.35784033 0.0375937 0.19899741 -0.11851327 0.06728689 0.25687188 0.03664841 -0.19438715 -0.30655614 0.4383711 -0.1999004 -0.30395645 0.019151686 -0.4245027 -0.09092765 -0.06597128 0.1965621 -0.021918662 0.076548226 -0.1313486 -0.1495981
191 0.15936148 0.1462163 -0.19045107 0.28886783 0.045894183 0.037598822 -0.10957054 0.24727273 0.41090837 0.24738772 0.05260089 -0.15208817 0.26854604 -0.04020955 -0.07982736 0.28396675 -0.3333312 -0.036216076 0.23919785 0.21153854 -0.36367697 0.34751397 0.107320644 0.06423904 0.09246571 -0.21195167 -0.3721144 0.47244984 -0.09301225 0.12908348 0.2510743 0.42407575 0.3507102 -0.19205782 0.40228763 0.081178956 -0.19710483 -0.07631045 -0.16588567 -0.06936207 0.15766667 0.06510414 -0.08121533 -0.0902969 -0.09615907 -0.2493726 0.16780898 -0.03773036 0.06557521 -0.28343835 0.26220024 -0.33340216 0.0791298 -0.038724042 -0.14149968 0.2291269 -0.13737129 0.30804822 -0.07227747 0.6013078 -0.0454932 -0.09706235 -0.114332005 -0.24409428 -0.10180062 -0.108366296 -0.24062812 -0.42858058 0.20003037 -0.31650043 -0.31296957 -0.01607743 -0.25547725 -0.122716956 -0.29086307 -0.12440578 0.09749706 0.26058042 0.07622717 -0.40892938 0.09640732 -0.25090986 0.001241231 -0.19760986 0.056986213 0.1860383 0.37616265 0.22082525 -0.20060317 -0.15338017 -0.06685578 0.30418715 -0.3677271 0.18023355 -0.1873927 -0.12373539 -0.066274025 -0.32870016 0.026095243 -0.04823175 0.18085994 -0.3371148 0.085247874 -0.13396144 -0.010407281 0.32081056 -0.27144858 0.5216495 -0.09332626 0.40891457 0.22703506 0.13979408 0.33234143 -0.09716227 -0.4462732 -0.17348596 -0.22857691 -0.1736823 -0.35419986 0.19780773 -0.16378456 0.2883602 0.20437387 -0.124485336 -0.4390052 0.26508686 0.018152624 -0.09858
347 0.0033370592 -0.39459717 -0.12296494 0.14780663 -0.4051881 0.057656143 -0.08049109 0.40960708 0.28321695 0.2598425 -0.078484125 -0.4710982 -0.35273486 0.25853312 -0.06001858 -0.25165403 -0.21988408 -0.33163884 0.26208198 -0.034469068 -0.05279052 0.031394135 -0.5200451 -0.1423987 -0.17906362 0.2811837 -0.29917365 -0.056126382 -0.11290912 0.45421463 0.18270151 0.19160713 -0.10276324 0.10059628 0.766019 0.09710872 0.26316595 0.2545723 0.23382849 -0.15169033 0.68935895 0.2780014 -0.105411224 -0.4093776 -0.2542245 -0.25792128 0.09487875 -0.41931608 -0.18622349 -0.61062175 0.21659318 -0.107220665 -0.5834192 -0.0018284431 -0.09229248 0.07794273 -0.050673015 -0.061343532 -0.15507048 0.1363552 0.0379317 -0.08968705 -0.22904629 0.117988035 0.20950104 0.23779333 -0.11128198 -0.16844812 0.1270428 -0.14575443 -0.04658876 0.0752719 -0.113715045 -0.04178267 0.4406224 0.25339368 -0.05851504 0.17763947 -0.079209074 0.2773633 0.13772158 -0.31454808 -0.10396734 -0.04765809 -0.27721164 -0.06948523 0.32860154 0.25872272 0.16867338 0.78537357 -0.418491 0.4882037 0.083743475 -0.2598661 -0.17266452 0.13354707 0.22904316 -0.25938943 0.17287365 -0.25329238 0.21464777 0.16250998 0.047403608 0.16233066 -0.28269807 0.45175758 -0.35009283 0.1355119 -0.06126737 0.4028501 0.4436681 0.032970626 0.2042305 -0.17648081 0.45095938 0.027520817 -0.060680564 0.08821131 -0.50921154 -0.45860735 -0.21750043 -0.07972274 0.29818097 0.14489128 0.075106576 -0.1302906 0.12270428 0.101355396
162 0.16223267 0.19959714 -0.52475685 0.09045862 -0.019972641 -0.10498664 -0.14079605 0.16365324 0.07041276 0.11914476 -0.08183911 0.061722413 0.049336147 0.24163416 0.117377006 0.4073738 0.2281269 -0.50795245 0.3234148 0.44861445 -0.27493396 -0.049425375 -0.1567823 0.15097725 -0.48335475 -0.032383446 -0.34450993 0.26536617 0.5328453 -0.055308077 -0.07722543 0.21626306 -0.007504679 -0.35188535 0.20633276 0.24552679 0.10104264 -0.18085189 -0.031261567 -0.035636254 0.15007026 0.07961582 -0.07952157 0.00066665467 0.06558431 -0.083858475 0.019383587 -0.12832764 -0.44988587 -0.37415865 0.37100118 -0.28302842 0.029657241 -0.2719041 0.099138185 0.09683478 -0.06091319 0.055052802 0.07901832 0.28928775 0.3357833 0.105841234 0.2850684 -0.043824613 -0.07288167 0.02312152 -0.07540113 -0.07145623 0.25162175 -0.16111818 -0.001772497 0.027375195 -0.008579164 -0.19640727 0.3634683 0.26410812 -0.22885743 0.33898437 0.30889368 0.052307196 -0.13907388 0.21422116 -0.1038982 -0.11590028 -0.1330252 -0.09992297 -0.05245627 -0.04594823 -0.06458945 0.016242761 -0.0062312935 0.114116475 0.033031765 -0.09409923 0.24121416 0.071518384 0.231914 -0.049661513 -0.18712914 0.07033476 0.10532009 -0.022834526 0.43255374 -0.15625063 0.037297897 0.073385574 -0.2035338 0.24091944 -0.06773958 0.2886479 0.13242306 0.18383789 -0.0870783 -0.02592876 -0.11918763 -0.05066729 0.054734234 0.24212933 -0.35777777 -0.089163385 -0.06381148 -0.16575444 0.17084685 0.06645667 0.16821946 -0.35463554 -0.06811472 -0.062357917
348 0.10129769 -0.4482924 -0.038121756 0.07457305 -0.781134 0.10641212 -0.311714 0.67977875 0.25652316 0.48297495 -0.108275004 -0.47450513 -0.35337684 0.030596476 -0.085089624 -0.29591516 -0.38832036 -0.55167145 0.137186 -0.008395904 -0.1296113 0.2533021 -0.67850906 -0.24269971 -0.38266453 0.18517306 -0.289119 -0.058053687 0.016718652 0.41569418 0.05762937 0.28637156 -0.05284869 0.16317816 0.9826636 0.13863203 0.3084021 0.23712464 0.27886412 -0.15913719 0.98993856 0.39630407 -0.15681784 -0.59296745 -0.28593022 -0.20101653 0.0058325976 -0.3431512 -0.1134363 -0.8177501 0.17376365 -0.1967108 -0.66777986 -0.045429405 -0.11818745 0.06493659 0.0018739116 -0.08871565 -0.30515867 0.2208951 0.0546266 0.076602854 -0.36147127 0.14232251 0.15878975 0.17861053 -0.30408415 -0.31190884 -0.010391484 -0.30568418 0.18083817 0.013010912 -0.22504349 -0.16562347 0.47517145 0.34874442 0.13240987 0.34350148 -0.38590515 0.28275847 0.410281 -0.40430978 -0.16815846 0.008134262 -0.24857162 -0.047682986 0.4241962 0.3878068 0.10185794 0.82934487 -0.54230356 0.5217856 -0.012100436 -0.24322625 -0.23057555 0.15983722 0.32868376 -0.4811511 0.26401708 -0.19568741 0.32620853 0.3324082 -0.016218998 0.042807043 -0.25758454 0.6136525 -0.44111913 0.15730603 -0.05966378 0.320633 0.600384 0.16208726 0.32066402 -0.23904508 0.6601509 0.21694855 -0.35873717 0.071063586 -0.68667984 -0.23807819 -0.33680293 0.22463608 0.39710307 0.24109973 0.011661328 -0.21978916 0.05990088 0.22319499
120 -0.21756086 0.013716848 -0.03642919 0.1081022 -0.2200717 -0.002166356 -0.299787 0.069924094 -0.06636882 0.0629683 -0.0084665865 -0.039592717 -0.14427592 0.02255147 0.28203174 -0.08684828 0.12968068 -0.44411263 -0.07151205 0.21294272 -0.084274374 -0.053181905 -0.2947381 -0.08017947 -0.28768343 -0.024606902 -0.029513905 0.22525091 0.3199989 -0.13095094 -0.02609093 -0.21123838 0.28945798 -0.06904941 0.0022465815 0.08597478 -0.2759796 0.08538505 -0.020711206 0.077589706 0.4132416 0.31708142 -0.21229845 -0.00067773927 -0.29981026 0.054441176 0.1869074 0.3184824 -0.63114846 -0.3220756 0.14784275 -0.20731796 0.04770843 0.016259737 -0.15647428 -0.15426196 -0.18005876 0.08295736 0.05578764 -0.24934871 0.13819735 0.13403419 0.046991505 -0.3859005 0.15847202 -0.12769367 -0.22398487 -0.21619639 0.3588692 -0.39813247 0.13904083 0.21774176 -0.12316074 -0.48155022 0.052023225 0.0111435745 0.100874424 -0.0018753487 0.09262364 0.07223886 0.09866222 -0.0030042853 -0.14343745 -0.07914449 -0.12115369 -0.12348875 0.107429005 0.44440615 -0.16913556 0.24741188 -0.45918673 0.39722753 -0.059299674 -0.38188046 -0.16631451 -0.21945854 -0.014148682 0.021220425 0.34531677 0.052622877 0.0552714 -0.17832646 0.2895863 -0.2608063 0.287775 -0.18042302 -0.035980556 -0.03215919 -0.13590655 0.26117286 0.100841165 -0.1675255 -0.010450224 -0.10344229 0.2584338 -0.15019286 0.22362466 -0.15134598 -0.3967609 -0.068289846 0.13282636 -0.38432193 0.202511 -0.2984358 0.02554271 -0.30451018 0.06283949 -0.09014447
14 0.15990375 0.6668001 -0.44368303 0.19882812 -0.42767093 0.45133784 -0.6845146 0.12581393 -0.18130128 0.5748678 0.10303784 0.16269252 0.1092825 -0.11758952 0.22522122 0.08733276 -0.38872913 -0.28944597 -0.00948369 0.22096914 -0.31847563 0.17013079 0.16533877 -0.16084634 -0.6016466 -0.20948221 0.051187515 0.15368418 0.7214189 0.27497736 -0.41600087 -0.089487314 0.3277128 -0.0600597 0.355742 0.30119404 0.17869726 -0.3892974 0.33907682 0.29123122 0.5441255 -0.33875856 -0.2798021 0.22343588 -0.69630826 0.04508899 0.24452214 -0.107208215 -0.0046671154 -0.4629417 0.32037285 0.015800986 -0.6034768 0.30831045 -0.25674295 0.16564012 -0.0066786483 0.54005563 0.52857167 0.072845876 -0.09616215 0.32275826 0.03405522 -0.22920704 0.09316539 -0.4654212 0.054014836 -0.14532995 -0.21031594 -0.30557477 0.16222775 0.26462775 -0.36602014 -0.44741896 -0.18709865 0.019392397 -0.16936532 0.113436945 0.041153584 -0.11503575 0.26808685 -0.4270209 0.3151188 -0.57423747 -0.23629971 -0.39547437 0.3119955 0.31456485 0.0065368186 0.4186504 -0.3180442 0.17712022 -0.35897163 -0.6184287 -0.6659164 -0.33521757 0.6282935 -0.7921066 -0.2916924 0.23548196 -0.08886606 0.36451468 0.47879785 -0.45218873 0.16743664 0.48609903 -0.50812334 0.6630366 -0.5122514 -0.16893631 0.306508 0.010432238 0.29063943 0.19280605 0.3129319 -0.21957302 0.04533697 0.03699359 0.084953904 0.023357276 -0.18133447 0.67934227 0.16124462 0.7202137 0.254124 -0.080752246 -0.39420086 -0.29903904
53 -0.47587317 -0.048324633 0.1846525 0.08860289 -0.040033605 0.25585276 -0.10799728 0.034774862 -0.3868708 0.24770303 -0.28711978 -0.27209115 0.3097579 0.4480344 -0.16626447 0.012972736 0.08630725 -0.25722352 -0.14927933 0.15022308 -0.3328128 0.17306231 0.101068005 0.15860218 -0.24986017 -0.11733702 -0.44274673 -0.1216847 0.15944678 -0.13416278 -0.03406997 0.19810179 -0.110142894 -0.06273111 0.1401655 0.002621087 -0.34636846 -0.29060015 -0.006533619 0.028575007 0.018412322 -0.061467893 -0.108806245 -0.07634973 -0.12178253 -0.04894231 0.30253553 0.2819351 0.1700847 -0.11595618 0.39988348 0.09545175 0.03319084 0.33173743 -0.37138906 -0.39375228 0.3260053 0.12400126 0.04344092 0.09873474 0.18549305 -0.07712676 0.2331984 -0.060859244 0.033744976 0.23102969 0.3815604 -0.38927543 -0.05852085 0.09751362 -0.041079834 -0.14455347 -0.24258137 -0.07901831 0.0645234 0.33331266 -0.14013577 0.23673116 -0.081162445 0.18716733 0.12001571 0.15620472 -0.21933053 -0.31428656 -0.17766649 0.092641905 0.19329481 0.2713213 -0.25729236 -0.3216442 -0.22487046 0.37401035 0.14978737 -0.083446935 -0.27912456 -0.1309681 0.110670954 -0.23542604 0.25138795 0.068773 0.3613874 0.026109718 0.04591156 0.15091826 -0.025685133 -0.037448354 -0.17582509 0.3225346 -0.24929461 0.22110218 0.0028362349 0.041115228 0.12474709 -0.12557454 0.056167945 -0.20476615 -0.14683186 0.17018199 -0.4293291 -0.08939411 -0.092320815 0.017893497 0.30985296 0.1711455 0.1574015 0.10836114 0.3712925 -0.120315775
286 -0.05417177 -0.061609045 0.071820855 -0.011297161 0.22732984 0.023588993 -0.22936368 0.24755166 0.16400273 0.116064146 -0.12071083 -0.26608217 0.081711486 0.2729915 0.10977295 0.39930472 -0.29447448 -0.07439479 -0.010258257 0.42724785 0.1386843 0.2158822 -0.23094101 -0.14322886 0.047119364 -0.15868548 0.005265928 0.24703911 0.2494315 0.44914767 -0.14736229 0.17243715 0.09537043 -0.032165166 0.1224069 0.02611038 -0.037495762 0.03999842 -0.018630097 -0.028973479 0.76507163 0.18899417 -0.15429865 -0.10971305 -0.34887165 -0.26665133 -0.063797206 0.047221262 -0.10130594 -0.3020139 0.23371859 -0.2567651 -0.43626392 0.18010753 -0.38360417 0.116747245 -0.11264799 0.006126785 0.25359428 -0.027912373 -0.13688406 0.05825239 0.33585566 0.19200264 0.0626266 -0.07217003 0.27989239 0.023305662 0.2585396 -0.04673711 -0.2772487 -0.09506302 -0.0161068 0.28203192 0.07876344 0.13742769 0.1660015 0.08008112 0.28944045 -0.04466999 -0.07148061 -0.0693204 -0.011802131 0.025650192 0.18193565 -0.015666401 0.16460684 -0.00065467885 -0.026076261 0.21501537 0.049096804 0.1378031 0.10713804 0.37218928 -0.17180921 -0.056114115 -0.039837584 -0.14807679 0.24732423 0.27907056 0.21545732 -0.025946612 0.34727648 0.01679745 -0.018749 0.10451237 0.31588465 0.46776843 0.008100171 0.048492547 0.03204008 0.1605302 -0.34657836 -0.32636592 0.4303518 -0.18528554 -0.14958934 0.18207364 -0.2682466 -0.024291273 -0.5617878 -0.09376252 0.07017354 -0.088186815 0.20483908 -0.36993748 0.026182696 -0.2606477
140 -0.118718036 -0.25234893 0.13889061 0.029074594 -0.009765703 0.072353594 0.025844555 0.12530965 -0.17516063 0.37139896 0.2677357 0.044330914 0.2538115 0.38524112 0.0029873715 -0.06685574 -0.13320048 -0.10502462 0.24968462 -0.16758886 -0.26923653 0.15170522 -0.33063227 0.15509218 -0.06881682 -0.31800818 -0.06605344 0.014059316 0.29771292 -0.1088939 -0.03479214 0.10272524 0.034177233 0.09027549 0.0633779 0.43286487 0.23163785 0.2731788 0.11595888 0.1999365 -0.015655432 0.1536191 -0.04999955 -0.04493769 -0.07531413 0.048795693 0.25935793 0.058026526 0.30156213 -0.025943356 0.36699206 -0.31976503 -0.27957836 0.051229473 -0.18701951 0.1888428 0.014372892 0.11457125 -0.41795155 0.43894017 0.39805573 0.13687764 0.26480561 -0.5505104 -0.08321412 -0.04762986 0.38182187 -0.17463326 0.524962 0.016882326 -0.18406725 0.028760234 -0.053176638 0.1788432 0.14262077 -0.08976065 -0.07645252 0.116398655 0.12590303 -0.050253693 -0.100396454 0.2051418 -0.24516182 -0.06924995 -0.026818871 -0.2383299 0.12098136 0.18046953 0.061570793 -0.02868431 -0.038927473 -0.09406713 -0.08594978 -0.336027 0.26186562 -0.22832994 0.15048625 -0.5876232 0.3152887 -0.3049615 0.103440456 0.055438597 0.17187701 -0.01851127 0.021366773 0.48547292 0.09868547 0.22207853 -0.10432831 -0.02850749 0.13906875 0.2999552 -0.18805774 -0.06691647 -0.13559046 -0.23504457 -0.25086445 -0.25830954 -0.5720169 -0.39733496 0.28945172 0.21217752 0.13307194 -0.092638806 0.043638304 -0.24163525 -0.06790056 -0.18218115
40 -0.3941458 0.89576644 0.17917266 -0.14632574 -0.35978234 0.2813853 -0.42862162 0.32385707 0.07229892 0.36194208 -0.32574338 -0.29836673 0.09061812 0.12671551 -0.3810406 0.0069057927 0.54466265 0.03911489 -0.19170922 0.26833335 -0.0030238703 0.14662923 0.2465467 -0.18141979 0.19675376 -0.10781408 0.1939437 0.15674675 0.79734373 0.1921802 0.13971357 0.35245505 -0.27333522 0.36826685 0.03395455 -0.10682724 -0.12189779 -0.09712511 -0.06255916 -0.14974077 0.8354094 0.3341008 -0.12945314 -0.2871879 -0.16957036 -0.47122848 0.17229764 -0.13528174 -0.56672275 -0.33792627 0.25949556 -0.32924795 -0.17853743 0.082966946 0.16230485 0.23622613 0.38327593 0.43072966 0.05460646 -0.14730352 0.09222559 0.03786273 0.17728241 -0.21769656 0.2193132 -0.0060333256 -0.00067790406 -0.18092436 0.26060116 0.012532662 0.14671172 0.07576283 -0.13294233 0.08963141 0.071248695 -0.2752126 -0.42951038 -0.02649792 0.463939 0.16249636 0.28509417 0.040668026 0.09996019 -0.23961751 0.35516763 0.109593496 0.33768418 0.6176912 -0.6234131 0.09374196 0.19628961 0.5939666 -0.08261071 -0.19446436 0.3824536 -0.59479386 0.6536808 -0.5139204 0.5292611 0.21082993 0.4875193 0.44679564 0.5050313 0.1781144 0.10158934 0.22534803 -0.3786821 0.4281425 0.17546293 -0.08615536 0.23614855 -0.048341975 0.32087663 -0.37230045 -0.0135264965 -0.21314222 -0.16167106 0.043787774 -0.254069 0.024190273 -0.25990185 0.27503917 0.1448037 0.044500716 0.17858906 0.32023203 -0.14373167 -0.5094595
143 -0.074257836 0.00480028 0.33517665 0.14940508 -0.037682753 -0.14038798 -0.25717443 0.2731067 0.52848923 0.26965705 0.09490437 -0.008626071 0.17336807 0.10135439 0.12878437 -0.113503 0.23450446 -0.35484928 0.10295317 -0.06468919 0.15681714 0.056841798 -0.1237365 0.20998268 -0.3048041 0.31941655 -0.0062558423 0.10494417 0.2623074 0.10166087 0.34408313 0.22254618 0.10549834 -0.2622771 -0.029388621 0.087149136 0.05704287 -0.0039525777 0.37315333 -0.13533784 0.072115 0.056509912 -0.16358215 0.047169678 -0.136207 0.034534264 0.6528417 -0.23730558 -0.19641578 -0.117943205 0.49008042 -0.4281804 -0.3028811 0.20421793 -0.17463009 -0.33248746 -0.1120743 0.23966442 0.006362967 0.0067548803 0.017311351 0.2602794 -0.08346603 -0.0035777967 -0.54268646 0.023336623 0.15513831 -0.12578814 0.08009476 -0.16898425 -0.11783178 0.16753924 -0.1713649 -0.2420147 -0.04905054 -0.24144511 -0.27468625 -0.0048005222 0.17236982 -0.22911952 0.022484884 0.23933461 -0.14846618 -0.035241738 0.009937848 0.26238972 0.12360693 -0.015144843 -0.030352687 0.11026529 -0.23059057 0.17614198 0.28771377 -0.079852365 0.18051581 -0.05047989 -0.05351062 -0.21394804 0.17559972 -0.19146578 0.09029497 0.1311437 -0.11551541 -0.06740572 0.19162491 0.27221176 -0.263946 0.14733182 -0.0839931 0.23180047 0.19569695 -0.16226068 0.38214317 -0.34689572 0.039762177 -0.26307955 -0.12504993 -0.2240675 -0.4902744 0.09230674 -0.18425944 -0.09243064 -0.18053709 0.27097932 -0.15071586 -0.29134488 -0.39535055 -0.26401868
126 -0.21263409 0.034356985 0.33629623 0.24443966 0.044150464 0.12742531 0.17052968 0.30244312 -0.09004035 0.35921365 -0.026363913 0.011905869 0.0825173 0.35265383 -0.023932733 0.4498491 -0.054763142 -0.16048579 -0.1633373 0.12023705 0.027131345 0.22895916 -0.22807458 0.2587709 0.006506691 -0.18205759 -0.015819624 0.23586488 0.0582297 -0.2027525 -0.28413668 0.24454916 0.20415562 0.03694464 -0.10876491 -0.011870426 -0.5644663 -0.024039514 0.30279723 -0.2856917 -0.034738246 0.0836545 -0.4375414 -0.24559608 0.021912005 0.22640596 0.30950603 -0.19791174 -0.23031124 -0.35727835 0.26439297 -0.53372777 -0.5699135 0.28221998 0.05513575 0.14839973 0.08883826 0.043036666 -0.083566956 0.046229754 0.3829934 0.20346381 0.26993218 -0.22599351 -0.15611331 -0.04897696 -0.26793584 -0.034862306 0.30329934 -0.112097085 -0.038901255 0.050155457 -0.11529582 0.020612448 0.21194671 0.018394457 -0.07685848 -0.035188865 -0.12611856 0.12876387 0.0026870093 0.033834886 -0.37855947 -0.1849303 -0.11708218 -0.16702819 0.04981484 0.134403 0.36364153 -0.21752267 -0.019124558 0.26933676 -0.049823057 -0.3756015 -0.081664756 -0.09257619 0.21860251 0.24988405 -0.048137818 -0.09867096 0.0018566607 0.059619524 0.19127469 -0.28083593 -0.011776657 0.27697873 -0.07261292 0.2829466 -0.16593541 -0.0065680263 -0.038309142 0.21455388 -0.014644723 0.2214829 -0.046263706 -0.3770235 -0.16018988 0.1245763 -0.37086222 -0.07104844 0.37703887 0.10713625 0.5059686 0.0136348205 0.19604534 -0.26803824 -0.46472794 -0.29125944
117 0.16352025 -0.25965652 0.011330132 -0.05318948 -0.13352558 0.15053673 -0.38000026 0.649765 -0.26171556 0.28754115 0.26531443 -0.05245211 0.18480538 0.31781626 -0.2232928 0.110259116 0.23928708 -0.31844324 -0.28512388 0.07014832 -0.037821975 0.19621755 -0.18389252 0.18222634 0.3129879 -0.026075333 -0.09988404 0.50923413 0.16629966 0.19055124 0.33138868 0.5304103 -0.10103274 -0.00090925494 0.01923862 0.060702365 -0.19791774 -0.12426923 0.5695029 -0.13120481 -0.04664131 0.23365991 -0.3551825 -0.019489571 -0.3813733 -0.24330755 0.2006484 0.11117785 -0.12830387 -0.48233426 0.25718364 -0.02530454 0.24933639 0.30495825 -0.03135439 -0.024102498 0.093124494 0.3270027 0.0060075214 0.07875726 -0.06267028 -0.37053335 0.007947092 0.0607468 -0.04143965 0.06983969 0.15753636 0.22093618 0.1601977 -0.33366665 0.10820538 0.18005863 -0.2973801 -0.11923887 0.016637295 0.111221366 0.12188463 0.27367118 0.23499596 -0.03144446 0.09874254 -0.10379967 -0.004178232 -0.1995346 -0.32810628 0.03235541 0.30270237 0.5623092 -0.011828866 -0.25451136 -0.33302557 0.41754073 0.1215392 0.03282371 0.16601714 0.014362791 0.038339414 0.17078388 -0.004668977 0.060227394 0.15336479 -0.34282324 0.32007244 -0.17465416 0.04279501 0.24695083 -0.30801833 -0.05773803 -0.2987651 0.4056574 0.17637712 0.2505043 -0.10709403 -0.026640065 0.101058245 -0.02974854 0.02083675 0.042102266 0.030664235 -0.08234043 -0.05140442 0.083275124 0.10232282 -0.023364041 -0.098997295 -0.16899028 -0.060318198 -0.10239869
123 0.33382976 -0.058996912 0.1468687 -0.2492607 -0.27899027 -0.22514106 -0.292206 0.16915388 0.029672327 0.30911732 0.042341087 0.24661377 0.35691318 0.16306497 -0.25751275 -0.02512732 0.20059794 -0.20810676 0.27817357 0.30616927 -0.0017227455 0.06950167 0.018685203 0.1662669 -0.20494458 -0.18222405 0.20383513 0.043108534 0.06754355 0.12921521 -0.017201046 -0.086363435 0.059365578 0.039450034 -0.119070075 0.112004444 -0.23024106 -0.010068068 0.38462415 0.32142645 -0.15352501 0.32444718 -0.34487346 -0.015254298 -0.13352185 0.020916438 -0.092136525 -0.072004996 -0.05046835 -0.3965141 0.4365845 -0.37521765 -0.16530988 -0.30856353 -0.34365138 -0.25611645 -0.10767151 0.34383747 -0.3292916 0.04568604 -0.03318804 -0.26930168 0.33910152 -0.24535649 0.2636642 0.18696837 0.069259234 -0.11136566 0.23350926 0.38742596 0.012155377 -0.0048010554 0.10244176 -0.08828297 0.20467836 -0.18384291 0.035178702 0.1055687 0.13364974 -0.17957914 0.19643258 -0.03347672 -0.040215388 -0.11795158 -0.2761332 -0.06797915 -0.0005492719 0.5298757 0.16218342 0.11479489 0.31692964 0.15717524 0.19498684 -0.19990082 0.06547198 0.17623259 0.32170624 -0.41063675 0.3963994 0.14595124 -0.037322916 -0.024483649 0.39208013 -0.10393673 0.22507042 0.49687245 -0.2162359 0.3755391 -0.07941818 0.23325367 -0.026243953 0.045831684 -0.1653083 -0.04400231 0.0011996541 -0.28298953 -0.08680191 -0.111938044 -0.44195345 0.11891737 -0.08502234 0.1863422 0.23757418 0.04747143 -0.07794637 -0.32019314 -0.07893199 0.07004251
129 -0.018215043 0.08236996 0.19731444 -0.1335443 -0.039181005 0.34248313 -0.12443225 0.24023944 0.06203001 0.03203375 0.16522937 0.0668594 0.14771658 0.33132437 -0.13098133 0.12188646 -0.119965695 0.06002909 -0.30313727 -0.08126415 0.25712278 0.0446905 0.0049806824 0.19866621 -0.20416564 -0.088097095 0.109942906 0.0357104 0.28173718 0.07713162 0.2080423 0.0072468454 0.07086579 0.12532748 0.049697764 0.026963918 0.20190816 0.22732958 0.31334782 0.059731167 0.38330314 -0.17857036 -0.14553651 -0.23116016 -0.5798616 0.0070143105 0.2378009 0.010082344 -0.06633066 -0.018992843 0.32408842 0.015801026 -0.20838699 0.1592768 0.010207431 -0.17495196 0.13675019 0.3373175 0.22650678 0.1356586 0.1378636 0.115017645 -0.44193003 -0.16083898 0.212065 0.19545309 0.40517578 -0.18102422 0.07754792 -0.0019781168 -0.07430998 0.03540978 -0.08906062 0.051361658 0.4612125 0.16049731 0.20337379 -0.060528968 -0.074881606 -0.16814741 -0.07682791 -0.32279065 0.23248376 -0.3289524 -0.15088038 -0.008566648 0.26162428 0.19423684 0.18445322 0.32627454 -0.4490179 0.1754164 0.4202565 0.09525903 0.024383573 0.23735675 -0.07250753 -0.11578216 0.23401713 0.2687378 0.47561327 -0.04641639 0.19019459 -0.15396886 0.039803747 0.60234773 -0.01959464 0.22940183 0.16338992 0.24811868 -0.2373024 -0.21968244 0.1019574 0.1612982 -0.059514176 -0.39815786 -0.034831468 -0.08672205 -0.42303354 0.06010637 -0.020499542 0.3250827 0.4016114 -0.05274185 0.13678488 -0.06693124 -0.057179596 0.15917724
114 0.39447197 0.06329692 -0.12396889 -0.052713603 0.04779305 0.15631996 0.050475236 0.26050898 0.16910377 -0.038255494 0.44257185 0.05553898 -0.0073417583 0.3813228 0.31024832 -0.13207524 -0.038491126 0.014353544 -0.02587088 -0.0697663 0.006958907 0.28226015 -0.23857126 0.20187396 0.022665316 -0.11485551 -0.20554751 -0.07520015 0.2181773 0.038016062 -0.062509514 0.2301466 0.18228038 -0.06486663 0.18349774 0.27516836 0.11707894 -0.20451728 0.3565628 -0.34932253 0.0381325 0.11926459 0.06032336 0.13957936 -0.13584882 -0.20317733 -0.14445898 -0.00777213 0.22124548 -0.5532019 0.57961047 -0.30498374 -0.49585646 -0.1368614 -0.17072555 0.5092279 0.241419 0.106019326 -0.36181688 -0.24656056 0.27328742 0.053603068 0.061635837 0.050898086 0.08485785 0.25878382 -0.16461101 -0.3168992 0.3384604 0.08733202 0.44539163 0.3241857 -0.2220202 0.09855518 0.39452773 0.057181578 -0.58482957 0.032179605 -0.03569504 0.069718435 0.32262707 0.042954896 -0.13273923 -0.14706182 -0.08132274 0.14928421 0.035667203 0.41098133 0.12592526 0.18701284 -0.25281236 0.275241 0.27349743 -0.08574407 0.13891946 0.037817366 0.19247742 0.10393968 0.10861122 0.22775172 0.19988514 0.22027072 0.2702128 0.026382605 0.093814716 -0.054135054 -0.27955616 0.08457338 -0.0025649674 0.30889112 -0.006548254 0.0030086942 0.20595488 -0.27892658 -0.06025325 -0.03242609 0.01571333 -0.22389017 -0.2533798 -0.16988836 0.13902433 0.19523117 0.2637532 0.21098082 0.31640857 0.015118536 0.26147914 -0.09632762
233 -0.098223805 0.06471066 0.07947082 -0.21746399 -0.023784362 -0.01274617 -0.19590847 0.16359381 -0.053061455 0.5290782 0.10031248 -0.04714027 0.37948114 0.19971476 0.07724079 0.24730705 0.05929842 0.018522518 -0.05282774 0.2738444 0.23601303 0.16514416 -0.1713768 0.42206973 0.14064178 -0.033023108 0.062205244 0.121696 0.051662944 0.31501946 -0.1837237 0.052770723 0.0039535174 -0.07336153 -0.052970372 0.3083761 0.05428051 -0.17021564 0.3365495 -0.12506062 0.29007268 0.28885874 -0.24124123 -0.29608577 -0.07572197 0.22990923 -0.10449282 0.16791238 0.12098785 -0.21928264 0.47327235 -0.14443494 -0.35907733 -0.08315881 -0.12710746 -0.050655518 -0.23416983 0.30263647 -0.23396552 0.0104150465 0.3016904 0.27702174 0.17766704 0.059591595 0.144045 0.12877235 -0.12557611 -0.44727144 0.37361217 0.0080574 -0.002388688 0.31840923 0.22308354 -0.15959881 0.23512757 -0.084804654 -0.15590784 0.14161986 0.46526214 -0.38043398 0.072108515 -0.30975032 -0.1066717 -0.013987796 -0.19166255 0.045342516 0.345724 0.07660574 0.1291018 0.16140302 -0.11298728 -0.21764137 0.06821909 0.06983755 0.0071642534 -0.14118777 -0.058257606 0.01643369 0.11359275 0.3050907 -0.1286236 -0.37752777 0.16585128 0.106324896 0.049603466 0.075198546 -0.041384768 0.18933389 -0.008352087 -0.05992327 -0.13018548 -0.13508777 -0.26349828 0.012649588 0.4104009 -0.5221043 -0.011914298 0.10533695 -0.17662513 -0.09877694 -0.11114114 0.1937077 0.24579518 -0.31734547 0.029513195 0.03053251 -0.4281625 -0.36547595
137 0.016669823 -0.23858345 0.23572393 -0.39370435 -0.13868119 0.27909285 -0.48579174 0.12095815 -0.33210322 0.274257 0.16251898 -0.22337317 0.587499 -0.028634677 0.15381005 -0.048619233 -0.22837129 -0.44834283 0.198151 0.19603825 -0.20809524 0.3960442 -0.28911933 -0.18829335 -0.21393967 0.08207595 0.15551966 0.20156503 0.1956251 0.10016318 0.026623767 0.16546834 0.05064658 0.269014 -0.124362774 -0.12481645 -0.39913884 -0.1033165 0.19237791 0.28727496 0.4320486 0.14944407 -0.1832914 0.042498056 -0.35623753 -0.35087907 -0.05732536 0.23936635 -0.27543482 -0.6814824 0.29617575 -0.18553711 -0.45121384 0.0640656 -0.12153389 -0.18666342 -0.1496019 0.25487745 -0.09114045 0.31035763 -0.11599895 0.31623384 0.0301781 -0.02467891 0.061298456 -0.015885906 -0.12082627 -0.15885799 0.30902138 -0.37675667 0.19710666 0.25563022 -0.21285354 0.023689648 0.1575736 0.10028559 -0.17891848 0.4067356 -0.07307447 -0.18456411 0.062201824 0.07449041 0.02517212 -0.18567759 -0.28477994 -0.09988161 -0.025294693 0.10073876 -0.34472606 -0.13962227 -0.13835724 -0.030674292 -0.28746748 -0.18353705 0.046299152 -0.15468542 -0.28813386 -0.26146793 -0.11110634 -0.01097047 -0.021217484 0.4035373 -0.06805957 -0.014504222 -0.0065545617 0.2792069 -0.054326158 0.09631821 0.10669404 0.3460729 0.2875832 0.03211238 0.27366012 -0.027250307 -0.038230475 -0.089768015 0.04022432 0.3046513 -0.41768464 -0.2375862 -0.109782696 0.109884165 -0.023374937 -0.27182335 0.31426838 -0.10030373 -0.25824824 -0.291849
21 0.037065785 0.29849032 -0.28587106 0.0010842554 -0.37632155 0.20766199 -0.19189735 0.33627185 0.07504358 1.073084 -0.453478 -0.26800904 0.18857892 -0.018573258 0.070764564 0.38571826 0.24696586 -0.78436196 0.034885522 0.21166153 -0.54456824 0.26076084 -0.6955065 -0.22590746 -0.27573547 -0.7537005 -0.6322089 -0.48332205 0.68089354 0.11033093 0.24481249 0.2937376 -0.21308684 0.042394094 0.15075 0.8226273 0.18615386 -0.04065044 -0.036162674 -0.042398617 0.3901121 0.046180367 -0.0108421715 -0.09684714 0.28987592 0.04731827 -0.5378218 -0.32870805 -0.5246138 -0.5076393 0.3244047 -0.0060896575 -0.018232556 -0.14086458 0.18141066 -0.024925262 -0.19344114 0.3582855 -0.622699 -0.17862085 0.43699038 0.433866 -0.04823737 0.17986272 -0.4980248 -0.045917507 0.33664033 -0.6378916 -0.13236907 -0.39878204 -0.21340618 -0.3389123 -0.3127648 -0.3375486 0.1871941 0.22120483 0.017459517 -0.33937424 -0.26084346 -0.059616223 0.18597642 -0.42296717 -0.14063309 -0.025769338 0.6282605 -0.11364921 0.08270579 0.656365 -0.18586709 0.2527311 0.261947 0.7974346 0.14576517 -0.6769302 -0.43907535 0.17192996 0.37440035 -0.51796883 0.25665238 0.3036399 0.6629826 0.29556876 0.6014695 -0.58715004 0.1384017 0.46975258 -0.4396227 -0.057095386 -0.09937385 0.11492081 0.08090704 -0.24026702 -0.18815252 -0.2589313 0.41484097 -0.3540261 -0.15641811 -0.3760848 -0.4638984 -0.15372145 -0.17678593 0.031471886 0.020506287 -0.1877801 0.1599089 -0.17142102 -0.027142663 -0.33081672
258 -0.078119755 -0.32877055 -0.040815223 0.05705241 -0.20649363 -0.12746444 -0.13998167 0.15737954 0.17352924 0.28343004 0.1191813 0.037126318 -0.019646602 0.039874986 0.056416254 0.5354049 0.08381544 -0.01251002 0.20604543 -0.10718248 -0.46344617 0.34735376 -0.032165024 0.323595 -0.10464486 -0.17695805 -0.0057809246 -0.080441356 0.26809648 0.070113115 -0.22405295 0.3213615 0.12137804 0.044232022 0.22582057 0.091748856 -0.23063652 -0.10953961 0.32920575 0.01888668 0.19726777 -0.09276231 0.019455824 -0.34583646 -0.08556481 -0.41202167 0.023109328 0.39318693 0.07975587 -0.44209436 0.5133161 0.053183615 -0.01430287 0.15172762 -0.048334725 0.21662568 0.5017755 -0.054522205 -0.07082351 0.074976526 -0.015820028 -0.039735876 -0.15970261 0.032443028 -0.073438056 -0.06041511 0.2964973 -0.08002515 0.23721483 -0.21675646 -0.08583794 0.11320456 -0.17222713 0.11408628 0.094501 0.166577 -0.1241147 -0.0025119989 0.40881044 -0.30449882 -0.2651649 0.100031875 0.031082427 -0.11494144 -0.6588086 -0.2850777 0.4029711 0.44014695 0.10017866 0.1657353 0.17655994 0.36620355 -0.40336192 -0.22365479 -0.31009397 -0.1610883 0.264845 -0.083720855 0.49686727 -0.03836457 -0.045639627 -0.037266664 0.21859555 0.117594354 0.103838965 0.22151494 -0.28923243 0.115213476 -0.10300983 0.2627969 -0.04281164 0.08094991 -0.08696716 0.37405547 -0.18197945 -0.064044505 0.05356415 0.10515892 -0.35852584 -0.16083972 -0.06291795 0.26766154 -0.10295286 0.14459199 -0.06966484 0.2407542 -0.025709977 0.028793283
334 0.13680804 0.07053617 -0.15934975 0.107682995 -0.23624465 0.06629096 -0.336253 0.21459353 0.03607073 0.057672437 0.16442241 -0.32026964 -0.01536841 0.0747673 -0.019934438 0.5745641 0.1505393 0.20218614 -0.22850738 0.17912422 0.08447759 0.21483643 0.06625418 0.25210944 -0.026023934 -0.07894645 -0.34872743 0.33922336 0.22153337 0.17637658 0.30592632 0.2767646 0.5337474 0.0020366267 0.18167911 0.3097796 0.14457744 0.29045033 0.46872893 0.2999023 0.38813263 -0.26213196 -0.04936005 -0.08067714 -0.12467868 -0.29017222 -0.025377693 0.10462768 -0.106221125 -0.55427563 0.64452744 0.012547804 -0.1577425 0.082993075 0.05391868 0.1549723 -0.018255752 0.13866125 0.049149994 -0.3514485 0.4003418 0.0029359409 0.47401944 0.052252296 -0.23225993 -0.22791682 0.0702016 0.12158406 -0.0860585 0.033626202 0.21214269 -0.17499979 -0.3090379 0.05606359 0.12648043 0.070668906 0.2436852 0.15138325 -0.0027717287 0.0024961918 0.10953471 0.26626667 -0.082988776 0.02510337 -0.0059379083 -0.27227512 0.38245103 0.15818715 -0.15050171 0.2068994 -0.11690561 -0.026884565 -0.153575 -0.18869044 0.053970467 -0.14312069 -0.061643284 0.06536171 0.23045784 0.17391382 0.10718257 -0.24812646 0.461127 0.074661724 0.20254304 0.07035679 -0.39980498 0.26540783 0.3716878 0.2958785 0.12834506 0.3316753 -0.08964452 -0.041348148 0.32222402 -0.23244172 -0.25835615 -0.0640766 -0.3273313 -0.1457128 -0.0491953 -0.056656484 0.29110837 0.0036579024 0.30467048 0.06912863 -0.201717 -0.319591
310 -0.047082845 0.33712804 0.0863055 0.089157335 0.2671866 0.03262317 0.27933234 0.39023438 0.2211242 0.24144222 0.048844922 -0.07659031 0.22336629 0.2515398 -0.14290309 0.20382799 -0.082293585 0.3022359 0.28321818 0.1463375 0.1640791 0.11382465 -0.012914572 0.10269558 0.043297138 -0.1920859 -0.031778637 0.16382581 0.07043405 -0.033442777 0.23306656 0.1339929 0.17085198 0.036313478 0.5503859 0.03428725 -0.008248221 -0.039040376 0.25609094 -0.049995407 0.3126015 -0.15474704 -0.034160394 -0.25316432 -0.19897203 -0.40498534 -0.072341196 -0.3156299 -0.13297933 -0.43705755 0.114500515 0.00076377107 -0.23277451 0.25850564 0.10382268 -0.0067353677 0.035732623 0.27462193 0.06454181 0.037945043 0.4272056 0.25725245 -0.053149343 -0.018137846 0.08991904 0.07997712 0.25150713 -0.05953512 -0.033409294 0.03533031 -0.043610223 0.29669544 -0.14266787 -0.17226554 0.30445227 -0.1585199 -0.26632985 0.2547599 0.11627602 0.0707105 0.1954677 0.32313046 0.04031087 -0.02703361 -0.11919742 0.47479594 0.35087824 0.34044003 0.029470311 -0.07969463 -0.463075 0.015733777 0.18011121 -0.17384133 -0.3262762 -0.31261805 0.48511562 -0.29949665 0.4165628 0.20937376 -0.0149130775 -0.0031704 0.0849039 -0.04817015 -0.15827084 0.13808279 0.017018145 0.12653165 -0.1280477 0.23343258 0.047587033 0.113657616 0.38337913 -0.018680122 -0.038916625 0.0721693 -0.18719323 0.2251901 -0.25937307 -0.15785432 -0.44345534 0.025790818 0.12139991 -0.3824589 0.31214797 -0.036072332 -0.15681759 -0.014329069
9 0.05007026 0.27694225 -0.18354961 0.55369234 -0.28846142 0.2253226 -0.3096182 0.20262448 -0.21001978 0.64963526 0.11631863 -0.19744934 0.20841168 -0.051175017 0.0939256 0.05718587 -0.13245833 -0.2929323 0.028855693 -0.16893405 -0.28220722 0.38501352 0.0455189 0.055015292 -0.2947981 -0.112642676 0.022721155 0.34120703 0.4837794 0.4797191 -0.3504645 0.12191473 0.3340361 0.17020711 0.009939437 0.037740592 0.038440198 -0.15397532 0.2188748 0.19059484 0.3703865 -0.39046755 -0.45835027 0.046677396 -0.5295534 -0.18156487 0.009978494 -0.26525432 -0.13697374 -0.48000467 0.24361198 0.34030783 -0.5554638 0.09501198 -0.16101229 0.09191776 0.24003816 0.50042504 0.55541635 0.086203195 0.041326117 0.008962653 -0.19440229 -0.43386075 -0.100256495 -0.26317993 0.35114515 0.03913776 -0.07497659 -0.3628896 -0.062157378 0.30400854 -0.2703175 -0.5623671 0.14164798 -0.1644501 -0.038900286 0.17592075 0.04050529 0.032583874 0.09377994 -0.14013837 0.22495104 -0.208428 0.0098467935 0.026511287 -0.02935272 0.3377293 0.021574577 0.3333567 -0.19325194 0.6609966 0.39959377 -0.24638188 -0.50889635 -0.10871388 0.08555303 -0.29722616 -0.06852991 0.43857405 -0.1721798 0.20742764 0.41949698 -0.54896003 0.10903143 0.6411808 -0.3104997 0.41003054 -0.43550488 -0.051168613 0.28160736 0.25518626 0.37358013 0.2882434 -0.02269592 -0.18267518 0.21368827 0.23361635 0.13570815 0.15405041 -0.08666782 0.3248769 0.24476391 0.6146467 0.15627223 -0.19236983 -0.45008898 -0.042969014
26 0.25153968 0.61881375 -0.21680386 0.15349358 -0.3033979 0.2473682 -0.33592692 0.81002635 -0.2976962 1.2669821 -0.15614668 -0.2947746 0.28395307 0.0765894 -0.121677525 0.43098208 0.20987321 -0.78800935 -0.02318703 0.024062011 -0.62301534 0.23817547 -0.5950741 -0.02856291 -0.17305426 -0.9968866 -0.73608744 -0.11863133 0.8662413 0.26508924 0.61929417 0.5114708 -0.20880875 -0.012156936 -0.3096988 0.76035357 0.37455645 -0.29348034 0.10848157 0.0515915 0.3619139 -0.2456655 0.04983297 -0.1804746 -0.025814032 0.0646406 -0.5227316 -0.60703045 -0.26364663 -0.92449856 0.3412977 0.05071304 -0.26870513 -0.39173913 -0.04709088 0.19469151 0.08484252 0.61759967 -0.18603516 -0.19553915 0.46482292 0.45174423 -0.29503807 -0.040479727 -0.47486994 0.22232403 -0.0005774596 -0.7598738 -0.28047916 -0.601887 -0.00863647 -0.17495249 -0.31180972 -0.2794678 0.13573031 0.07214855 -0.15818572 -0.31933773 -0.05674608 0.006041624 0.22654006 -0.70141006 0.010727197 0.10377808 0.4820173 -0.35286012 0.2445859 0.5440721 -0.2682333 0.09548299 -0.017239278 0.81606525 -0.14103624 -1.0929937 -0.44953433 0.24692926 0.42995602 -0.6563009 0.064823255 0.4956263 0.8409457 0.47557485 0.5725966 -0.07689591 0.2526252 0.64431363 -0.53383195 -0.019446827 0.1472379 0.14827672 0.21264909 -0.38523537 0.14341359 -0.3593111 0.6058749 -0.2608567 0.14670932 -0.33510658 -0.67192626 -0.5517422 -0.37392724 0.32361653 0.053468082 0.012352212 -0.054815862 0.12509447 -0.23217353 -0.28565174
249 -0.2252845 -0.062223688 0.15318702 -0.15206596 -0.10901073 0.09248496 -0.26977682 0.28042743 -0.05803565 0.23497105 -0.22996555 -0.09994707 0.2660413 0.4101451 0.18054958 0.2775272 0.12216552 0.19549847 0.37949497 0.4485769 0.11268685 0.3390589 -0.095958255 0.37767544 0.29661262 -0.15492243 -0.21391767 -0.06366692 0.01576194 0.16205843 0.15903987 0.044607587 0.07250989 -0.088303864 -0.07112152 0.24534619 -0.05609287 -0.20060737 0.093610056 0.17225796 0.18467848 0.26693708 -0.1648684 0.1250226 -0.13939066 0.04376296 -0.20804253 0.018691396 -0.09750979 -0.5290277 0.3828666 -0.36957964 -0.07869027 0.01883989 0.12856518 0.14594868 -0.41295817 0.5268551 -0.18354791 0.049408447 0.4104444 0.21924853 -0.29037306 0.12991166 0.06165405 0.113423295 0.15370125 -0.14306557 0.12654857 0.16496232 -0.26344225 0.12744477 -0.18460347 -0.14823149 0.16174567 0.09092319 0.1609293 -0.47578093 0.21153112 0.024026442 -0.030013349 -0.15654702 0.034191005 -0.2544512 0.14956048 0.11273996 0.09315744 0.13407603 0.007925622 0.032507785 -0.12853144 0.3706088 -0.11972634 -0.12147363 0.08833484 0.21741115 -0.21314193 -0.12725718 0.35458842 -0.13499181 -0.12734279 -0.22315295 -0.07715032 -0.2661429 0.3043641 0.029995902 0.13790727 0.20139204 -0.04051019 0.5142789 -0.059376877 0.23146552 0.03167645 -0.3380987 0.22491561 -0.26599482 0.186007 0.15755983 -0.4958838 -0.5389917 -0.12528154 -0.0853899 0.42049626 -0.22827569 -0.010546444 0.2579707 -0.08395487 -0.52573
59 -0.24203497 0.2934406 -0.20314248 -0.035944175 -0.124178186 -0.042217787 -0.49446076 0.41966963 0.19978213 0.31334358 0.5035503 -0.029305603 0.12943691 0.30709437 0.016367508 -0.30270293 0.14230856 -0.14996229 -0.13029093 0.4714857 -0.034259338 0.08739185 -0.07975077 0.18470635 -0.20120421 -0.06786602 -0.13577913 0.26265243 0.27995968 0.0273912 -0.14712319 0.022133633 0.21390477 -0.11643048 0.5381587 0.23586622 0.19916247 0.3571964 0.16721258 -0.08310761 -0.1862205 0.101117685 0.04377559 0.1759237 -0.090942316 0.20524655 0.07219369 0.16865279 -0.10092543 -0.305424 0.5731568 0.13042869 -0.20036556 -0.014891952 -0.12571277 0.07271372 -0.08932275 0.1292469 0.33244082 -0.0020943691 0.22941335 0.33973342 0.033031065 -0.050605483 0.13906054 0.14488198 0.027241949 -0.36475652 -0.07584434 -0.15393043 0.16562572 0.017379083 -0.16390087 0.12876068 0.0049169245 -0.2574305 -0.24524249 0.25845647 0.09707331 -0.30917802 0.35361564 0.1486943 -0.07929515 0.19336519 0.21360798 -0.11675751 0.37841335 0.18345876 -0.008643544 -0.038168844 -0.38593033 -0.06350849 0.019992504 -0.27883416 0.04338365 -0.10190778 -0.10332585 -0.05860412 0.017103013 -0.15150458 0.19274035 0.062295735 0.10598762 -0.030557826 0.35478345 0.35321763 0.07167135 0.3651298 -0.04501022 0.06378563 -0.031631 0.18692887 0.2971246 -0.04643504 -0.14366831 0.06507101 -0.22544093 0.01019474 -0.4318621 -0.06952845 0.13539632 -0.025804812 -0.07151117 -0.120650515 0.2153015 -0.20679635 -0.07502081 0.06995229
314 0.008834006 0.093146384 0.50606775 -0.06259332 0.047459066 -0.032496605 -0.29954743 0.37325552 0.08018423 0.27977562 -0.23926465 -0.04736208 0.31137446 -0.078021154 -0.010569638 0.07155225 0.08201094 -0.21911104 0.19252887 0.08669665 0.014235947 0.15064064 -0.34606522 -0.23758264 -0.15800734 -0.35411927 -0.0604256 0.07614323 0.14806746 -0.40946874 -0.1153243 0.35827032 0.15808338 -0.046175368 0.28592458 0.5079999 0.17809597 -0.25580052 0.024311593 0.017898805 -0.03525527 -0.11673628 0.24253562 -0.16311029 -0.2813564 -0.20559295 0.007933492 0.45094004 -0.016013373 -0.3619909 0.30702937 -0.093505435 -0.06699093 -0.024358835 -0.11442826 -0.22559065 -0.044037927 0.4959337 -0.32706597 0.14683245 0.14235993 -0.15477094 0.21659382 -0.27451232 0.13293275 0.3229525 0.21043006 -0.3709373 0.14608015 0.012329928 0.422921 0.007724627 -0.12174312 0.107818425 0.035490125 -0.041806407 0.03900378 0.0537155 0.032864142 -0.2708157 -0.118838295 -0.32056293 -0.083001204 -0.32679996 -0.053401336 0.11446424 0.11300196 0.1564524 -0.1547861 0.21506761 0.13036574 -0.15009917 -0.18485282 -0.034833603 0.0935999 0.14862385 -0.14343022 -0.10687038 0.2453566 -0.1097741 0.30557814 -0.3406283 0.21430993 -0.0944675 0.20186864 0.1455596 0.14582461 0.3252653 0.026188338 0.4211344 0.0878294 -0.24161176 0.06638676 -0.264542 -0.04529698 -0.21360528 -0.012493198 0.20012662 -0.18446988 -0.06004828 -0.08275355 -0.07033034 0.29171884 -0.14797486 0.14442635 -0.038183764 0.067836896 -0.02932345
62 -0.14426237 -0.12135175 0.026534934 0.10222633 -0.16731888 -0.1351474 -0.3883894 0.017853793 0.30979905 0.26016137 -0.2375353 -0.15518148 0.19829105 -0.10997907 0.0499951 -0.1130332 0.5290911 -0.036003333 0.011163041 0.22502108 -0.18364689 0.1749126 0.10723456 0.31754276 -0.119864196 -0.14260274 -0.31244457 0.06412779 0.027806688 0.29200584 -0.004976698 -0.3256198 0.26165468 -0.04192824 0.15566905 0.28741205 -0.02851541 -0.07869877 0.09091965 0.119548984 0.20123129 0.047764137 -0.07399403 0.23533474 -0.32118297 0.10629424 -0.025508648 0.14677699 -0.26514146 -0.15826473 0.46464008 -0.35480598 0.029334206 -0.07388267 -0.15336338 -0.17459519 0.12678048 0.12201896 -0.27130923 0.44847476 0.14770919 0.15743144 0.20272814 -0.13961415 -0.14305061 -0.15289088 0.35870802 -0.10356741 0.112838805 0.18634413 -0.13818398 -0.3591182 0.06341227 -0.18056403 0.09747461 -0.029473318 -0.07869145 0.2809693 0.3681312 -0.3380535 0.14413229 -0.06804702 -0.20024918 -0.0059935134 0.024035161 -0.12399421 0.3315267 0.44636065 0.32659474 -0.021515274 -0.116777845 -0.064236656 -0.10269588 0.006881167 0.10711422 -0.0770242 0.12259833 -0.16676943 -0.212048 -0.13695267 0.113854334 -0.02400855 0.4755729 -0.32148457 0.1949591 0.09029741 0.10911594 0.25706607 0.06358019 0.33194694 -0.006556177 -0.0751629 0.18367925 0.11024956 0.27481228 -0.16337979 -0.01882943 -0.13510135 -0.2601844 -0.15864083 0.044360254 0.36391008 0.1896167 -0.066851355 0.179691 0.08050144 0.051795106 -0.17231919
56 0.031834237 -0.34983042 0.16290602 -0.16008349 0.05667261 0.20675036 -0.15531385 0.5280355 0.20450093 0.33658832 0.0009225336 -0.00017796381 -0.00020985045 0.43279192 -0.031011779 -0.11094151 -0.17356323 -0.1712077 -0.072471455 0.19229665 0.07628011 0.32021502 0.089100145 0.07256402 -0.07461653 -0.2080047 0.18885215 -0.08372766 0.23124906 0.04703567 -0.03946773 -0.08903127 -0.03905557 -0.28484866 0.12723874 0.13218142 0.064711176 0.16632996 -0.11502432 -0.03852825 0.2611285 -0.15750866 -0.31981972 -0.15579009 -0.20548362 0.08608526 0.17035733 0.40482563 -0.12096105 -0.5560389 0.551466 -0.3818013 -0.015145698 0.38839686 0.23790494 0.1527097 0.1236265 0.3005784 -0.26504648 -0.3017707 0.13402596 0.0009883018 0.116244845 0.112981685 0.26749462 -0.019461272 -0.070608206 0.100859106 0.072907925 -0.19962801 -0.34840575 -0.12568301 -0.25299805 -0.06838995 0.40252188 0.30565184 0.18912306 -0.058086794 -0.007788135 0.02245727 0.24698068 -0.0011523023 0.046907704 -0.05760466 -0.09071697 -0.13634063 0.13798884 0.36885294 0.16929743 -0.20064615 -0.0413117 0.22536029 0.16651098 0.09723215 -0.091555044 -0.18846166 0.07543205 -0.23248312 0.67406917 -0.31395018 0.054494236 -0.2829185 0.046772316 -0.2241801 0.0021859417 0.1275469 -0.17820548 0.14793834 -0.018690377 0.07111435 0.38064623 -0.2740173 0.15356378 0.22191589 -0.056935996 -0.13115549 -0.1095682 -0.14368749 0.04491956 -0.11563909 -0.2512271 0.1254735 0.13630237 -0.1640562 0.05198742 0.06398131 0.11287668 -0.04416759
330 -0.010521711 -0.14743625 -0.16986583 0.028772462 -0.414022 0.4181249 0.010720771 0.064628854 0.032916952 0.28969845 0.21777727 -0.2882157 0.07036601 0.21500681 0.06843991 -0.11300447 -0.005206714 -0.07838778 0.2826213 0.04213375 0.08589109 0.19937232 -0.10334422 0.36729336 0.05896841 -0.25040215 -0.102307685 -0.05436336 0.10946088 0.19798097 -0.102800794 0.25649726 0.03444897 -0.19373636 0.15242237 -0.013790951 0.3017488 -0.23499405 0.3913151 0.16740912 0.2781141 -0.044824198 -0.53200233 -0.04760218 -0.2892833 -0.39757985 0.13687694 0.040715035 0.16781153 -0.3234907 0.05380234 0.087248035 -0.14326082 -0.21051352 -0.06487862 -0.19606091 0.35086745 -0.007854973 -0.4036772 0.18590769 0.25936514 0.23548242 0.14098953 -0.19794309 0.15025474 0.007862314 0.07621274 -0.19762443 0.37002108 0.24216558 -0.27009478 0.16795087 -0.39401504 -0.37375993 0.041951727 0.30899388 0.043112613 0.124657355 0.5000816 0.10480376 0.18241698 -0.18653423 -0.09911074 0.23873198 -0.265359 -0.12991956 0.33359867 0.3310764 -0.23716256 -0.14174825 0.23294748 0.28595963 0.15072599 -0.030013373 0.17427379 -0.31346035 0.079951994 -0.23352613 0.38054594 0.3248171 -0.007033712 0.05511914 0.42209706 -0.015708134 0.49784604 -0.17744923 -0.03014387 0.17606942 0.1011666 0.2611089 -0.17079543 -0.18315311 0.3088359 -0.15062724 -0.07347138 -0.14897196 0.12032549 -0.372651 -0.19021201 -0.21004619 -0.034697067 0.18389413 0.26695213 -0.116672166 0.17905504 0.088810235 0.008842803 0.012800089
