356 128
1 -0.01050903 -0.12939896 0.124492355 -0.15554804 -0.04325386 -0.0960958 0.37321284 0.12064674 0.24422488 0.07051515 -0.257777 0.11573905 0.07214195 0.040614445 0.13728312 0.01383896 -0.052841935 0.120105594 0.007979243 0.22987126 0.03813767 -0.13020083 0.0367439 0.05810675 0.08627038 -0.1309969 -0.1203956 0.18199918 -0.041191287 -0.11725322 0.1269961 0.004966363 0.103695914 0.06619189 -0.028663008 -0.0018141788 -0.080276184 -0.013073437 -0.05653561 -0.07986769 -0.006267327 0.08641811 -0.18446063 -0.10334224 0.093649976 -0.0011229437 0.20629469 -0.2749467 0.087984644 0.29331505 -0.07460712 -0.15873487 -0.2615457 0.21653901 -0.15209328 -0.019156942 0.156725 -0.045901824 0.102123655 0.103141986 -0.03872196 0.18011495 -0.052995272 0.007818596 0.059974913 0.029866131 0.25119063 -0.01858091 0.039281372 -0.0015386317 0.2504175 0.18673094 0.028478106 -0.017480295 0.13105984 0.13152927 -0.1526162 -0.046833634 -0.04453698 0.18720874 0.04455705 -0.17854321 0.14246397 0.16399573 -0.10978897 0.25350645 0.13887335 -0.042225137 0.008321044 -0.12526867 -0.13958393 0.039225515 -0.08648717 0.0872045 0.08286152 0.14741564 -0.17265363 0.07720931 0.038928278 0.10662616 0.012659784 -0.35313767 0.030799517 0.31983536 0.09027879 -0.08821606 0.053610362 0.06240703 0.17216273 -0.007766474 0.10610144 0.05202774 0.0050289063 -0.068942316 -0.008881523 -0.030456318 0.127976 0.004013289 0.069655165 0.24466807 0.09421062 0.089997865 0.13702846 -0.088832796 0.07533271 0.23067737 -0.21128412 0.14027861
38 0.47974122 -0.12021897 0.25563428 -0.21776016 0.08342844 0.07805272 0.2460886 0.28274855 0.06948276 0.107070945 -0.28679398 0.23095381 0.082032084 0.2002974 0.109587096 0.32973653 -0.18707097 -0.16669239 0.09539083 0.0062299063 0.3330517 -0.43257055 -0.32976004 0.07374572 0.6282537 0.06539058 0.10311722 0.33326933 -0.021393696 -0.23286684 -0.14012504 -0.057353918 0.2461832 0.0636366 0.48537895 0.56474787 -0.2357482 -0.15093331 -0.08909112 0.052834228 0.020201044 -0.4291229 -0.14257285 0.42060345 0.4760448 -0.19132772 0.2872491 -0.33956924 0.5524629 0.27261424 -0.115125336 -0.6426028 -0.47012457 0.7076211 0.44213176 0.071295865 0.39545253 -0.3505532 0.049433064 -0.22059229 0.062741496 -0.0066525787 -0.14496216 0.24847348 0.28378338 -0.0017814474 0.13702422 -0.373712 0.1559144 -0.28049523 0.15326382 0.2923504 0.012907025 0.0066037397 0.008385407 0.5933396 0.13786414 0.09745447 0.09852708 0.09947209 -0.06229916 -0.423355 0.41080245 0.10811762 -0.3773618 0.027328173 0.3991465 0.18361849 0.33111417 0.13135363 -0.07020914 -0.01870678 0.065997735 0.089721486 0.19372056 0.12337586 0.06650143 -0.022760693 0.26731956 0.0356135 0.3785317 0.013147933 -0.3123035 0.23960927 0.06425142 0.07231835 -0.42220065 0.07241122 0.037081797 -0.13107616 -0.20326217 -0.040693015 0.049228143 -0.3676682 0.33934543 -0.13609686 0.12538446 -0.14615975 0.23318622 -0.20589125 0.14289956 -0.19426292 0.12697545 -0.08948502 0.03938388 0.50565875 -0.25961593 0.14984772
93 -0.02965607 0.27629846 0.16808122 0.5241717 0.041410744 -0.4512596 0.037327275 0.27638948 -0.010266447 -0.051541477 0.041424893 -0.1470732 -0.21999075 0.36795878 -0.12342242 -0.010081361 -0.043584976 -0.07568395 0.06206635 0.47203848 0.32136452 -0.14898428 -0.2765225 0.24568199 0.39238617 -0.1844815 -0.15211056 0.42454475 0.071915135 -0.16360728 0.24759725 0.38173968 0.3145336 0.1237832 0.009274442 0.2574482 -0.18499383 -0.37728843 0.18999267 0.6028101 -0.21771531 -0.2235622 0.113503575 -0.020557113 0.24280189 -0.16389327 0.17096215 -0.34134176 -0.17298912 0.3223622 0.3217733 -0.048683375 -0.5025216 0.33258107 -0.22416767 0.27853745 0.2880965 0.3378527 0.26948196 0.1712416 0.3572805 0.07903879 -0.20536493 -0.02802491 -0.0756508 -0.049451537 0.34919718 -0.022402892 -0.09695964 0.15515701 -0.10121575 0.21068887 -0.13447781 0.1357296 -0.13274564 -0.06109584 -0.0924924 0.237424 -0.0067315074 0.15441094 -0.551935 -0.04757367 0.043637708 -0.3110797 -0.17521083 0.39447454 0.117661625 -0.0026273024 0.47318092 0.25023755 -0.6236054 0.010746863 -0.051203143 0.07189068 0.23822913 -0.11734055 -0.4841815 -0.29038855 -0.012572664 0.20594749 0.026998134 -0.14701931 -0.116223246 0.64341944 0.31814492 0.16438802 0.6569864 0.11478044 -0.04405771 0.06291707 0.11852013 -0.447202 -0.17118993 0.08518276 -0.03792081 -0.13627996 0.13618352 -0.07658483 0.044046286 -0.1905278 0.33769643 -0.47317722 -0.25804964 -0.055618852 -0.3993333 0.19811033 0.20752758 0.29007927
71 0.2987106 0.07761877 -0.083914 -0.014778378 -0.052711386 0.38957822 -0.12473645 -0.30467147 0.1702985 0.12666671 -0.0010849264 0.23922113 0.17670152 -0.07114723 0.04437393 0.3987306 0.0335775 -0.068047136 -0.08288118 0.41227612 0.13049424 0.04865826 -0.16109148 0.06634612 -0.097835205 0.08538377 -0.0036165407 0.5923668 -0.23294403 -0.006257273 0.32615653 0.065816104 0.2706287 0.13215454 -0.31935975 0.23568168 0.2407392 0.034104932 0.24938276 0.57967836 -0.05457512 -0.076026626 -0.5154405 -0.023141395 0.35919514 0.099283345 -0.3137549 -0.30638412 0.011492321 0.33028573 0.06196908 -0.17079099 -0.7372742 0.39634222 -0.051272508 -0.5107361 0.23924297 0.028570468 -0.011305911 -0.3397851 0.30714667 -0.3610616 -0.035749435 0.026033659 -0.029645426 -0.3438147 0.17116106 -0.05158389 0.26544517 0.20816174 0.31760958 0.25340417 0.18673033 0.0054444303 0.1869842 0.16676399 -0.0055312244 -0.06169869 0.38294503 -0.07941562 -0.16581468 -0.17483471 0.3096891 -0.1407983 -0.12598106 0.013905305 0.03626635 -0.40379205 0.5232503 -0.30103946 0.024622912 -0.056542512 -0.08957137 -0.10294453 0.2732363 0.17048223 -0.42377394 -0.31054357 -0.24727853 0.27635103 -0.15259908 -0.30007175 -0.031324625 0.6756633 0.072539374 0.20211346 0.15510485 0.014467709 0.117275305 -0.07098306 -0.1707805 -0.24277344 0.11193122 -0.37455142 0.1740798 -0.10980958 0.2613741 -0.38272837 -0.02734389 -0.007970503 -0.046059694 0.21606582 -0.20297515 -0.195157 -0.28747872 0.002521601 0.17862932 -0.0066659446
65 -0.15089414 -0.10791756 -0.100538984 -0.080903985 -0.0903392 -0.32968462 0.110274106 0.10767993 -0.2657723 -0.45992205 -0.057748165 0.23721185 -0.08405175 0.079548925 0.15156117 0.42801854 0.066909015 -0.13108736 0.12542173 0.13095735 0.09908998 0.0021826387 -0.0607515 0.27729642 0.19922605 0.06879473 -0.03168795 0.5464659 0.18290623 0.387982 0.19189058 0.07540378 0.3467342 0.13243847 0.3770165 -0.0054682973 0.1518677 -0.60505486 0.18451154 -0.22449744 0.0231356 -0.051738583 -0.5233711 -0.08932764 -0.08976063 -0.25087345 -0.2675736 -0.6868146 0.37038487 0.643507 0.29058728 -0.10722063 0.01848219 -0.0019119149 -0.06442702 -0.28654432 0.256273 0.2581589 0.24057682 -0.029386362 0.044849522 0.1501181 0.006288372 0.28632692 0.18148954 -0.38471332 -0.012925358 0.05152793 0.14767948 0.029427161 -0.082022205 0.4647892 0.24964394 -0.11866866 0.26272056 0.14947341 0.1189724 0.20680138 -0.26622972 -0.1087086 0.016164582 -0.4976298 0.39704782 -0.42053464 0.41395864 0.23620008 -0.050616186 -0.15761854 -0.03839523 0.2059666 -0.19397162 0.34502625 -0.086363584 0.1798642 0.2552796 0.2883963 -0.43461525 -0.11238527 -0.10246297 0.2908802 0.48390687 0.08117077 0.1401303 0.2700802 -0.013415265 0.49846607 0.009100518 0.06929122 0.33732176 0.019273018 0.34674233 -0.12551738 -0.34745353 -0.16010894 0.3088089 -0.1198534 0.2466928 -0.29269475 0.23843728 0.001754376 0.09594421 0.03840653 0.26803654 0.0197175 0.15817118 0.30689278 -0.17510226 0.018565994
146 0.08795504 0.0739733 -0.123521656 0.042657584 -0.05204165 -0.3286824 0.017208578 0.117926925 0.10512429 -0.24249752 0.18053925 -0.09832862 0.08964262 -0.019946096 -0.03997256 0.33758754 -0.45515183 0.11814886 0.05915867 0.23775513 0.313935 -0.14091915 0.5122669 -0.23408253 0.025066605 -0.23950832 -0.0030589239 0.50478494 -0.17499615 -0.40038562 0.08538136 -0.22274752 -0.036033757 0.15803206 -0.07326707 0.35772905 0.01845938 0.0161823 0.22119445 0.063826256 -0.33144554 -0.06414337 -0.2140069 -0.06544524 0.073634796 0.1921147 0.14394847 -0.5147284 -0.2152253 0.06969612 0.32077795 0.20524772 -0.34324965 0.1808161 0.0678602 -0.031548914 0.16025504 -0.30623507 0.49055403 0.039944097 0.4599735 -0.086548954 -0.20474212 0.06387682 -0.014042299 -0.03324505 0.12480022 -0.38621083 0.15723044 -0.06518584 -0.09724009 0.09738387 -0.3042554 0.12887256 0.29658797 0.3117063 0.35153973 0.10713767 0.13163233 0.4040664 0.2597842 -0.3136463 0.2907293 0.07543236 0.004708719 0.12254288 0.38371572 0.275207 -0.011000348 0.060165953 -0.36089996 0.6174032 -0.32326436 0.22673056 -0.008182522 0.16606945 -0.29719487 0.14498655 0.0639897 -0.04533527 -0.022563115 -0.4050305 0.3930422 0.336619 -0.13843367 0.4276616 0.45970982 -0.0019268965 0.0025133318 -0.16275455 0.07527161 -0.13735639 -0.14382811 -0.12539719 -0.31454006 -0.2804748 -0.12989673 -0.09303099 -0.215574 0.108679414 -0.23442529 -0.039341457 -0.19682947 -0.19051126 -0.30083355 0.074321404 -0.17115675 0.28145498
304 0.24962935 -0.10276399 -0.11596626 -0.07389804 -0.36290672 -0.13324185 0.11696211 -0.0236196 0.2618088 -0.0046264553 -0.087611035 0.4154867 0.06372539 0.3748953 0.29148766 0.121943414 -0.2762186 -0.01967155 0.5511483 0.26726905 -0.06252637 0.061956167 -0.113458 0.27187988 0.2280606 0.1167259 0.20631942 0.012961139 -0.07790381 -0.1499165 -0.16968963 0.32037768 0.038024344 -0.068659216 0.093196675 0.04762293 -0.034391627 -0.31256855 0.015547894 0.09125079 -0.17056386 0.25653327 0.12746288 -0.012289764 0.29466864 0.11455485 0.12021699 -0.35735202 0.24993628 0.1990395 0.19138984 -0.048765697 -0.2717054 0.6700981 -0.076608784 -0.1696519 0.21325232 0.28563946 0.1166964 -0.5100369 -0.07150733 -0.2777747 0.112469606 0.13695394 0.11384049 -0.08565468 0.1363336 0.10115725 0.17623463 0.25681037 0.4557446 0.17215951 -0.14370465 0.12296315 0.065243855 -0.091776505 -0.1971192 0.2595931 -0.17019126 0.1338137 -0.21363436 0.03511389 0.474149 0.31852907 0.10389727 0.32873026 0.071109615 -0.27317482 0.12574475 -0.4124129 -0.08924276 0.14602417 -0.17782268 0.0108436225 -0.0349978 -0.22212741 -0.4352064 -0.026800383 -0.3192779 0.27411088 -0.121213235 -0.74689615 -0.35716808 0.26944014 0.03343813 0.39829177 -0.030995237 -0.002575182 0.104025684 -0.33654463 -0.0158834 -0.2297257 0.050390925 -0.39926302 0.68752855 -0.025419313 0.22439066 -0.36603302 -0.15213464 -0.12575577 0.32165572 0.16634828 0.050849725 -0.14270964 -0.0607681 -0.19719926 0.111874744 -0.3395718
252 0.12888639 -0.11317027 0.11110919 -0.13027324 -0.28743207 -0.22538549 -0.08733651 -0.022917243 0.24649289 0.16546467 -0.34721875 0.1386918 -0.13489522 0.24995282 0.05962378 0.06776043 -0.028197164 0.010567649 0.14947127 0.42930385 0.12227402 -0.007082682 -0.19844596 -0.046246342 -0.1021904 -0.13031116 -0.10104877 0.21987942 -0.16189733 0.045007188 -0.00039608454 -0.026365126 0.23976868 0.4568351 -0.22295383 -0.016667362 0.30760655 -0.28115803 -0.06582895 0.06730087 -0.121379726 0.013578109 -0.049765237 -0.15472916 0.10384715 0.063970044 -0.14933987 -0.44793877 0.21108177 0.32150638 0.14625183 0.2014464 -0.39458105 0.73160326 -0.09112415 -0.24872419 0.3770473 0.097700834 0.52853477 0.22712623 -0.24752808 -0.058522616 -0.23161815 0.6947968 -0.10458215 -0.2700066 0.2516266 -0.3836563 0.105679475 -0.114076994 0.07607335 0.1482306 -0.36121768 0.44423196 -0.035172127 0.3617718 0.47500798 0.010365515 -0.108391024 -0.3742011 -0.04543566 -0.37763202 0.15004131 0.011518064 -0.2291991 0.105296545 0.15882039 -0.1158615 0.26222682 0.21862587 -0.0718717 0.091458604 -0.06457296 0.123457044 -0.26306552 -0.29979092 -0.15868375 -0.32870367 0.1491595 -0.14512132 0.20255022 -0.21403812 0.112367 0.09766769 0.34028873 0.17072277 0.4273287 0.21179108 0.08736128 0.113353394 0.5460532 -0.14808273 -0.10220753 -0.10843991 0.071664594 -5.464873e-05 -0.06655953 0.07284499 0.15762834 0.13548905 0.02090633 -0.1715892 0.4034425 0.06253452 0.19969872 0.05372497 -0.5247999 0.11335343
204 0.018534193 -0.28296614 -0.09570514 -0.07349432 0.10454592 0.035874348 0.4764594 0.05091952 -0.031172415 -0.06952616 0.022559727 -0.30961758 -0.13033903 0.0136254 0.08464868 -0.25481805 0.2398305 -0.1619637 0.20894791 0.265453 -0.015876817 -0.2937686 0.03181948 0.19519956 0.33542794 0.15097949 0.059882246 0.017638007 0.19536072 -0.19250801 -0.30593485 0.3805922 0.13611527 0.092412084 -0.015514734 -0.17900608 -0.35474473 -0.16462156 0.011647698 -0.12910925 0.13600491 -0.11439244 -0.40608498 -0.12386169 0.14438155 0.18421 0.47592524 -0.26171142 0.16631669 0.16595352 0.29891372 -0.4993797 -0.33156905 0.66695094 -0.023585044 0.19059604 0.07641952 0.015632244 0.2804512 -0.12482443 0.43026578 -0.1787631 0.22257125 0.18405284 0.07670373 0.116036735 -0.09120923 0.32140732 0.5046601 0.060308922 -0.043536194 0.6958656 0.17453785 -0.043197595 0.28435782 0.039166365 0.42391166 0.07673495 0.115154356 0.20381097 -0.27653486 -0.5977927 0.015507258 0.17822596 -0.044188898 0.107558906 0.39547935 0.3835788 0.4521809 -0.36208588 0.009985049 -0.012051132 -0.1042848 -0.19198821 0.09649736 0.02335698 -0.23248625 -0.11271801 0.16771325 0.07533095 0.16205162 -0.2965815 0.41393045 0.41050798 -0.18614106 0.108201474 -0.40196052 0.15072003 0.022996213 0.17509814 0.018117856 0.03642618 -0.05643042 -0.11806838 0.1942885 -0.19873223 0.12698546 -0.33208042 -0.032665253 0.27379882 0.5934006 0.006055033 -0.15167207 -0.0051873242 0.1633839 0.03728203 -0.09105506 0.37517726
199 0.2306617 0.01466663 0.11309378 0.3609377 0.28221068 -0.0006608473 0.09532594 -0.10699799 0.33805722 -0.22091585 -0.16001575 0.3132287 0.059048478 0.12300879 0.1276035 0.38942948 -0.19725136 0.22920361 0.17652363 0.19501744 0.18453315 -0.029848794 0.0076457276 0.15944149 -0.049658243 -0.13653196 0.5189178 0.34946784 0.5387126 -0.12553233 0.4197884 0.22837998 0.017702702 0.24477653 0.058950167 0.2367866 -0.13899368 0.034247275 0.12108681 -0.32202998 -0.016076121 -0.5644998 -0.15193458 -0.185604 0.31076002 -0.24759819 0.060297467 -0.39927855 0.2613157 0.00368355 -0.056657944 -0.10005388 -0.188835 0.5340491 0.19238144 0.04792359 0.15074937 0.19020158 0.27995217 0.36469212 0.61602354 0.23297743 -0.11643395 -0.21070974 -0.28677854 -0.09511936 0.16399264 -0.22139959 0.05171612 0.21217114 0.017126229 0.107717946 -0.24078077 -0.26114818 0.0104068 -0.006826673 0.16412076 -0.051367622 -0.22198524 -0.012488984 -0.30507472 -0.5854146 -0.17098561 0.061024748 -0.13923965 0.043244828 0.46002048 -0.24591534 0.10626009 0.038715523 -0.196229 0.20941342 -0.4166748 -0.13735601 0.252118 -0.03391356 -0.01752109 0.057037804 -0.041246306 0.24675602 -0.111552835 -0.15517986 -0.3624065 0.6266542 -0.037781775 0.0004461857 -0.04519903 -0.142834 0.2757761 -0.091844626 0.25843588 -0.32406896 0.2663912 0.015320843 -0.057352595 -0.038550366 -0.1845278 -0.10620084 -0.008112579 0.13105516 0.51236403 -0.37630108 0.12085318 -0.12265532 -0.10738518 -0.124000244 0.01889795 0.07744579
87 0.10770787 0.103893794 -0.085199356 -0.09408814 0.24792798 -0.4407753 0.040286887 0.06516545 0.19988815 -0.08789879 -0.098039344 -0.14823076 -0.21963085 0.5503997 0.053448033 -0.29107523 -0.36858714 -0.11450791 0.005669392 0.39688924 -0.11632208 -0.47377604 0.09088483 0.43305773 -0.08470655 -0.13182117 -0.01571695 0.07046404 -0.11436169 0.04611638 -0.44397387 0.07886909 0.2329601 -0.059851367 -0.13840425 -0.011101177 0.034760244 0.09813823 -0.18238577 -0.1598111 -0.49084428 -0.15337346 0.03652712 -0.057330184 -0.08045177 0.18940489 0.11864796 -0.055433642 -0.2534804 0.36057577 0.28153723 -0.32993734 -0.56333464 0.105413735 -0.22405294 -0.22020169 0.25504205 -0.0073191575 -0.0091953995 -0.13817585 -0.1885405 -0.17243181 -0.07701734 0.2980721 0.22855602 -0.15466167 -0.1387468 -0.29262516 0.58653045 0.13190281 0.4618014 0.09861957 -0.2420085 0.22085139 0.1105652 0.3054012 -0.042028654 0.077674486 -0.29585308 0.11588669 -0.2992281 -0.52569896 0.24618141 -0.0681941 -0.24740954 0.35041675 0.3670603 0.22232391 0.07596719 -0.12029163 -0.12401895 -0.15394323 -0.5050787 0.3517908 0.31149065 -0.21291648 -0.006508824 0.2702959 -0.2523381 0.46763238 0.0031419878 -0.40985647 -0.2196711 0.05071566 0.30404052 0.6394266 -0.24738342 -0.13216919 0.10461943 0.14791086 0.36771178 -0.06548408 -0.28720918 0.1786107 -0.21067818 -0.16577774 -0.0013898722 0.041135076 0.00982545 -0.23923394 0.5481838 -0.2555592 -0.05278441 -0.055472113 -0.19090937 -0.09659924 -0.41932806 -0.056312818
106 0.3284575 0.054486558 -0.08594583 0.3671181 0.13593213 -0.38816974 1.0160031 0.2347928 0.28370297 -0.55411345 0.050215714 0.3533283 -0.16207625 0.19427149 -0.1907952 0.34646794 -0.051001996 -0.010534186 0.22919944 0.10700329 0.028001716 0.019225884 -0.0036953397 -0.14499937 0.3082242 0.013159849 -0.056916237 0.33575767 -0.05469894 0.19372882 -0.025517449 -0.16175391 0.039587956 0.08978879 -0.07433117 -0.10644027 0.35789675 -0.0330388 0.13291873 0.21753015 -0.32359132 0.06310219 -0.3992649 0.0065660086 0.2425448 -0.021482244 -0.19927655 -0.24641973 0.001045838 -0.017978493 0.1337575 -0.24030478 -0.39807224 0.16160858 -0.0740563 -0.278442 0.060035255 0.024931375 0.30478764 -0.034995865 0.116365016 0.28476688 -0.16221015 0.102975376 0.124158524 -0.07473846 0.32199028 -0.61009014 0.007843384 -0.022758644 0.37660024 0.14902902 0.021886615 -0.00060834165 -0.20902976 0.077809945 0.3029481 -0.14220811 -0.041680016 0.22089924 -0.04388822 -0.46906564 0.2521819 -0.36892307 -0.065655984 0.20420195 0.23312464 -0.20942816 0.28815013 0.22070402 -0.27922076 0.17803636 -0.3064321 -0.05902022 -0.033972792 0.56656283 -0.19706006 0.20230854 0.005954808 0.2835408 -0.096931204 -0.229783 -0.26662636 0.24319619 0.29396564 0.5715196 0.08578815 -0.08590836 0.0038949929 0.14205083 -0.028777352 -0.08295062 -0.21656002 0.006982599 -0.14920457 -0.20083377 0.09613589 -0.43313268 -0.06092682 -0.2768361 0.23928206 -0.13415185 -0.2342041 -0.1495158 0.25077024 -0.07365387 -0.01233308 0.118439496
276 0.09261706 -0.425991 -0.0944964 -0.08716225 -0.2365246 -0.27493626 0.06255851 -0.10285319 0.18836948 -0.15469313 -0.26056203 0.24861115 0.11263098 0.13280289 0.17147534 0.13642502 0.03255535 -0.13467947 -0.121600956 0.39545342 0.4310135 -0.099198654 -0.12324278 0.483436 0.18882032 -0.025587685 0.23864447 0.418756 0.24552171 -0.524804 -0.04451836 0.2933187 -0.10712751 0.16838899 -0.06705257 0.1728489 -0.14974129 0.014143176 0.33898258 -0.3475934 -0.12243886 -0.14112456 -0.31542414 0.12510708 -0.015852688 0.047791388 0.34319595 -0.35663077 -0.0327223 -0.1515353 0.41541627 -0.06932232 -0.030852348 0.43073595 -0.15507242 -0.48395547 0.119721755 -0.019554311 0.16148087 0.10852194 -0.007735501 -0.4778794 0.016124683 0.019657262 0.015617435 0.282826 -0.10126884 -0.19043478 -0.06317755 0.22871004 0.42297566 0.24701212 0.064130634 0.105779134 -0.008360357 0.06843697 0.19168442 0.11404181 -0.37076622 -0.089697264 0.06488456 -0.3842994 0.107062355 -0.4498936 0.4290069 0.012233548 0.21921818 0.077421054 0.27974302 -0.0411117 -0.1652394 -0.4345041 -0.036166146 -0.05594407 0.087275505 0.08305609 -0.2075784 0.03312881 0.13710678 0.04634566 -0.271178 -0.28169522 0.32277748 0.26813263 -0.02547392 0.17199126 -0.00028626257 -0.17757906 -0.5104787 -0.24994074 0.061281968 0.10051947 0.0075756 -0.20007518 0.061047908 0.048179608 0.20951892 -0.29705718 -0.16913529 0.07477456 0.32183546 -0.118026 -0.11874887 0.0932995 0.07595066 0.26538053 0.111440875 0.111718915
214 -0.09287222 -0.15664697 -0.22810473 -0.31035534 -0.19144414 -0.43928006 0.43574852 0.029946493 0.3374718 0.2743058 -0.13667321 -0.44593194 0.19429362 0.24363396 0.14518741 0.3959521 0.083814815 0.49523258 -0.08895013 0.33103263 0.38778684 -0.43613327 -0.14970203 0.19809082 -0.114433 -0.087164015 0.0075123967 0.078778 0.24708584 -0.13906403 -0.32901773 -0.10574444 -0.07979209 0.22402652 0.1123589 0.10891497 -0.013812082 0.03531801 -0.32160878 -0.15343976 -0.029542979 -0.012296133 -0.11724839 -0.19132334 0.23923622 0.031964347 0.42518562 -0.71778506 0.02181253 0.18711944 0.21592416 -0.19552323 0.015778812 0.28563523 -0.48977503 0.056672163 -0.31548634 -0.0015883751 0.576649 0.07239949 0.019178119 -0.51980203 -0.176083 0.16160962 0.11160736 0.24344054 0.15453525 -0.32959786 0.16940762 -0.1681575 0.08398215 0.35147488 0.19768335 -0.46730444 0.19887313 0.010776697 0.15834294 0.3794663 -0.104836985 0.3643966 0.17003627 -0.0988768 0.2750096 -0.3221159 -0.18837544 -0.037243452 0.1635646 -0.11352302 0.018851679 0.2058918 -0.3082274 0.12296258 -0.14320189 0.18764016 0.39746642 -0.10314948 -0.036361985 -0.21904834 0.00084567594 0.28318787 0.14820972 -0.16991596 -0.6333845 0.102293774 -0.14283988 0.046194766 0.057282284 0.1320511 0.2151448 -0.2715317 0.36775604 -0.21219347 0.15946925 -0.23773107 0.046654437 -0.07520871 -0.22248754 -0.13284916 -0.0599576 -0.0052920943 0.31789598 0.032567006 0.014892209 -0.08714915 -0.34333995 0.2407316 -0.28727913 -0.26188344
294 0.3079408 0.07797959 0.26630226 0.14685754 -0.07598722 -0.020469591 0.45058239 0.26387984 0.39086038 0.2960962 -0.13611582 -0.36769927 0.09015646 0.5717567 -0.1523462 -0.05518685 -0.06963754 0.26031327 0.020281741 0.43251407 0.22523892 -0.33272764 -0.026463704 -0.23782545 -0.2707025 -0.25873134 -0.3374418 -0.15104508 0.29261208 -0.34785968 -0.18596034 0.12842172 -0.09289437 0.16540584 -0.25779086 -0.18757719 0.072510734 0.06563077 0.12976664 -0.27938452 -0.26848003 -0.042718332 -0.47150588 0.088196464 0.27181563 -0.43911132 -0.020194076 -0.45638865 -0.3667929 0.47493154 0.23903474 -0.065128185 -0.32864562 0.3981831 -0.39525995 -0.07115557 -0.07330327 0.066643454 0.14698817 0.017055202 -0.018661892 -0.29956046 0.11966798 0.32952195 -0.045846898 -0.22298208 0.2800052 0.10122492 -0.030544268 0.24223897 0.035630107 0.38887435 -0.04649569 0.021989668 0.5307138 0.4774193 0.025319701 0.28048915 -0.47416654 -0.2801221 0.20486723 -0.34177336 0.3016654 0.11546991 -0.12034126 0.15723948 0.014343735 -0.06833341 0.110366866 -0.11552912 -0.18522081 -0.20929039 -0.41916427 -0.19627427 -0.051205482 0.5509421 -0.13472745 -0.091270775 0.15008466 0.5079145 0.2665 -0.15669303 -0.18376607 0.19083123 0.3746654 0.52727604 -0.05131083 -0.025852557 0.23924363 -0.25330994 0.14431441 0.23702261 -0.16691536 -0.013465688 0.015620004 -0.026097296 -0.028726168 0.09513179 0.274629 -0.16245003 0.42528987 -0.30616698 -0.13499008 0.11570321 0.024867563 0.20704451 -0.046222392 -0.1782942
239 -0.08534318 0.24860689 0.16723773 0.24838796 -0.1048674 -0.047640946 0.101489544 0.18937868 -0.105549835 0.063901395 -0.14974098 0.030880198 0.10581156 0.21177667 0.12264545 0.034744423 -0.35732105 0.005272432 0.18089959 0.27532429 0.4693349 0.10317507 0.17013033 0.60460794 -0.022183664 0.040455256 0.2310205 0.023948211 0.13078307 -0.15030858 0.038783565 -0.11328262 0.14810418 0.029920261 0.057293147 0.36045867 -0.36365902 -0.06320121 0.20085178 -0.15959825 -0.14649732 -0.49925908 -0.33494952 -0.11565398 0.5445673 0.109979674 -0.4497162 -0.5399213 0.42294732 0.45520124 0.039468262 0.0853837 -0.7179524 -0.098072916 -0.27300295 -0.1100763 -0.07021961 -0.19451576 0.101563126 -0.009713971 0.13473436 -0.12626462 -0.3125845 -0.25900704 -0.18019588 -0.16176361 0.056770295 0.047499083 0.52555317 0.16408315 0.44188142 0.29334703 -0.082909025 0.18342814 0.116920434 0.44142306 -0.114861175 -0.026412107 -0.35098228 0.37807918 0.060967095 -0.2900399 0.16916291 0.106675096 0.22968765 0.12174595 -0.02630361 0.09802927 0.18853274 0.06291115 0.06938693 -0.03102214 -0.09206434 -0.3464135 0.12904881 0.14141104 -0.11327275 0.072181806 0.06893383 0.20893697 -0.13118678 -0.13950807 -0.58212775 0.3702885 0.19605544 0.12853183 -0.10210577 -0.15081692 0.24524948 -0.19288969 0.19639437 -0.3517979 0.021465749 0.12049717 0.28437525 -0.41065264 0.3418357 0.39538398 -0.25258088 -0.30899987 0.49766082 0.101228885 0.17853154 -0.17523976 -0.17174877 0.023819506 -0.20579168 0.103615515
289 0.38307372 0.008690297 0.10686966 -0.09036748 -0.052125048 -0.3159987 0.51635975 -0.00066683337 0.093011506 -0.23644617 -0.16427214 0.46522602 0.10043488 0.5316566 0.23698737 -0.11941016 -0.27735224 0.0115375295 -0.20933424 0.13209479 0.17802216 0.020788504 0.12915725 0.2872241 -0.15678522 -0.055012077 0.5861488 0.24776424 -0.24259332 -0.066194244 -0.12198012 0.22655812 0.20168664 -0.019391505 -0.13134246 0.3177731 0.05722259 0.13807043 0.17562115 0.17631291 -0.061274137 0.0326314 -0.20087157 -0.45963708 0.073682025 -0.051529914 0.11325386 -0.7036366 -0.35494232 0.25562862 0.020765914 -0.18404141 -0.36516467 0.2923064 -0.22501814 -0.18117465 0.278239 0.2758956 -0.3155629 0.23694661 0.19600278 0.036482826 -0.274169 0.22912253 -0.06751455 -0.36683196 0.07274608 -0.16722782 0.13029736 -0.17344122 0.27357402 0.27875382 0.0688527 0.28776062 0.31182122 0.45675012 -0.02041802 -0.091299005 0.017641034 -0.01697789 -0.12010983 -0.33067837 -0.107549526 -0.2752829 -0.031201132 -0.020545248 -0.14848644 0.22359475 0.46903142 0.23201267 0.24966025 0.36369044 -0.67568564 -0.55416095 0.53048635 -0.01153831 -0.24437277 -0.10895991 -0.12804897 0.049889244 -0.090365246 -0.05081074 -0.13144575 0.14937434 -0.03802898 0.23161057 0.16806611 -0.2704038 0.38143942 -0.32383817 0.4060289 -0.03993452 0.010200734 0.049951795 0.020974675 0.1622974 -0.10648429 -0.2315192 0.046892326 0.15032303 0.10585937 0.0319215 0.053125817 -0.10018271 -0.48524007 -7.5575794e-05 -0.102348216 0.27624023
209 -0.15300328 -0.6611219 -0.15881436 0.048110418 -0.0515112 -0.4284537 0.2596123 0.14069836 0.1614267 0.055723313 0.07238581 0.31450382 0.17071398 0.009758795 -0.20472468 0.33775365 -0.021200601 0.16375145 0.026983539 0.63975465 0.02927131 -0.081268474 -0.5563158 0.075782284 0.01289436 0.11779964 0.053843968 0.1451399 -0.04358664 -0.06127409 0.22898892 0.019223219 0.4268177 -0.1535047 -0.2521271 0.198737 0.0048197624 -0.40550727 0.1155502 0.02960318 -0.33626285 0.19647071 -0.476623 -0.36393628 0.41803744 0.25505227 -0.29019544 -0.17016119 -0.032515176 -0.08213391 0.22993775 0.230509 -0.35595763 0.36437038 -0.30606082 0.015123291 0.2611023 -0.15031597 0.32964987 -0.15635581 -0.043560993 -0.20236225 -0.17306419 0.24007623 0.052146297 -0.035908137 0.29431573 -0.026798649 0.3496189 -0.09832362 0.5827044 -0.014333092 0.054804616 0.14821737 0.17084 -0.07951263 0.45682332 -0.040790264 0.040266328 0.16595358 -0.061886225 -0.19835642 0.12775153 0.026809862 -0.22182338 0.3571377 0.23656876 -0.35167244 0.36846256 0.041088272 0.082896374 0.6002497 0.2021555 -0.15415551 0.6219576 -0.02467619 -0.055053942 0.12373379 -0.004798729 0.36578962 0.46032983 -0.37633768 0.041547664 0.017432984 -0.0010576851 0.20674066 0.09988576 -0.110054545 0.67943573 0.051549006 0.041095678 -0.03149974 -0.009700035 -0.11003015 -0.042033553 0.040558796 -0.24278796 -0.22202758 0.4101937 0.4342898 -0.08329335 -0.15685593 0.1604235 0.13358957 0.1696582 0.1346446 -0.092790976 -0.08426858
223 0.056376334 -0.2218346 -0.26672527 -0.118602276 -0.19511172 0.22249542 0.27135846 0.11496709 0.27716628 -0.342134 -0.2217825 0.09188848 0.111547455 0.23092544 -0.08998953 0.2041619 -0.6417339 0.2347356 0.11162408 0.06559832 0.21523969 0.1654329 0.17800288 0.12191711 -0.48127085 0.051039048 -0.09321138 0.61040324 0.108913325 0.1751576 -0.31937656 0.3539853 0.04924274 0.20268734 0.21096088 0.2684518 -0.32276702 -0.19207647 0.07426547 -0.233278 -0.04728273 0.20947519 0.05265945 0.27428767 0.14782083 -0.2189179 -0.05605247 0.032442138 0.02306369 -0.083234675 0.077738084 -0.14099212 -0.34491372 0.4330564 0.1179993 -0.25273094 -0.008445447 0.0965446 0.2463434 -0.14602432 -0.11230421 -0.4751363 -0.3653566 0.324991 0.08971541 0.11593104 0.23600182 -0.11632572 0.2853946 0.25131732 0.40731773 0.3470352 0.13768822 -0.049515884 0.2243674 0.10743563 -0.12361069 -0.057717375 0.23069228 0.15077986 -0.3153604 -0.25221136 -0.12800285 -0.0014104252 0.1635579 0.09263841 0.5204088 0.056012895 0.09675502 0.07437556 -0.38710728 0.33648258 -0.49821326 -0.41997397 0.15817785 0.2316202 0.016931957 -0.081497826 0.07791885 0.14842494 0.1511531 -0.1721253 0.048308436 0.2252221 0.13854319 0.22827925 -0.14772195 -0.12133604 0.22443701 -0.07046258 0.34321147 0.2760086 0.07031565 -0.22878817 0.50929916 0.35957178 -0.061164707 0.21413316 0.16950154 0.03635726 0.12838005 0.121336006 0.24478008 -0.35865673 -0.04822775 -0.08868383 -0.2683049 0.20054999
82 -0.14631951 0.24509212 -0.050659284 0.16727066 0.013959792 0.163203 -0.15034786 -0.2545061 0.2402013 -0.23121293 0.11090142 -0.11945264 -0.021682493 -0.22131404 -0.17876814 0.15983018 -0.20396444 -0.26576585 -0.46945497 0.28816307 0.42373383 0.11682613 0.21068048 0.32903683 0.1292222 -0.034245376 0.14453408 0.17734317 0.13716726 -0.10611635 -0.33255902 0.11097932 0.4120794 0.41808504 -0.11156616 0.30358452 -0.25974864 0.03793142 -0.18367994 -0.2543592 -0.22871163 -0.30101606 -0.2532071 0.05105288 0.16478729 0.20013404 -0.12337703 -0.23708779 0.25202435 0.24977621 -0.003636917 0.08231008 -0.40145892 0.39734745 -0.037629556 -0.36426398 0.2689766 -0.16333501 0.27976507 0.06696969 0.004009468 0.020933915 0.18991925 0.03221319 0.5285334 -0.14989069 -0.10195694 -0.0009024922 0.41009802 0.37746507 -0.12530969 0.2765145 0.18529929 0.044244077 -0.17895201 0.33806595 -0.2028354 0.31316823 0.27548173 0.20151758 0.024104271 -0.42935175 0.18509315 -0.08657846 -0.18327108 0.08392176 0.24536462 -0.19689517 0.41401583 0.2870484 -0.42637697 -0.28679478 -0.29325825 -0.23855479 0.36794633 0.24427566 -0.39468285 -0.02288741 -0.43756124 0.33435106 -0.38699812 -0.454113 0.07151796 0.058695383 0.12379453 0.058233473 0.102632225 0.075614356 -0.04215412 -0.03265131 0.08372068 0.077650264 0.20425205 -0.3483696 0.014976919 -0.025699668 0.064817734 0.14665107 0.1310207 0.275402 -0.0056143254 0.28569013 0.120684855 -0.13404028 0.086521246 0.44261435 -0.16494626 0.5910746
264 -0.25266218 -0.34712046 -0.05264422 -0.20440249 0.17635904 0.029481346 -0.1406629 0.1928155 -0.11403859 -0.16023153 -0.10925741 0.33001828 -0.17942506 0.039106112 0.26805463 0.12534566 -0.06833409 0.14279449 0.14463748 0.3620854 -0.10951143 -0.26173514 0.5016979 0.25886428 -0.19828767 -0.35926157 0.20677415 0.22551782 0.16519009 -0.27811942 0.21394968 -0.07295505 0.1837917 0.09349269 -0.16138087 0.16538367 0.34381488 -0.397127 0.20065823 -0.08210345 0.16581145 -0.08634006 -0.1114656 -0.08724196 0.24229445 -0.25041562 -0.26203483 -0.3629361 0.38265717 0.19164759 0.21027377 -0.3576665 -0.3935688 0.63692236 -0.033050377 -0.009482158 -0.13572091 0.26323208 -0.22723246 0.25460052 0.116013154 0.1135187 -0.16046545 -0.034964945 -0.2808095 -0.42052445 -0.19689047 -0.53337336 0.14508943 -0.12241481 0.24455726 0.19532536 -0.15331921 0.1780803 0.071220286 0.01898728 -0.082469486 0.044863757 0.0932852 0.08687232 0.12167228 -0.4443205 0.42425326 0.26100352 0.21074705 -0.008143151 0.2177795 -0.2260214 0.4177673 0.08191985 -0.1490246 0.15056477 -0.3030284 -0.23355167 0.28806493 -0.085752785 -0.080420695 -0.19604303 0.45155936 0.49333975 0.11931642 0.021616574 -0.10224245 0.33490935 0.0684513 0.25958323 0.24032502 -0.1428147 -0.2291921 0.071634464 0.115979485 -0.2847123 0.2974578 -0.3739899 0.010284094 -0.17614676 -0.32602093 -0.1793451 -0.16164939 0.02115283 0.26753572 0.34139648 -0.17148732 -0.1455907 0.15266126 0.46253785 -0.18030028 0.14775446
191 -0.048591413 0.05701298 0.03636305 -0.09978454 -0.20971268 -0.14422292 0.038532663 0.003957634 0.21712132 -0.019059548 0.11795851 -0.06582553 0.6765693 0.08483097 0.40875766 0.035412744 -0.20212536 0.12168512 -0.1590267 0.44051427 0.69317454 0.028569413 0.34678766 0.20383425 0.15728167 0.31061244 -0.19875549 0.4447513 -0.10061082 -0.47010186 -0.30159077 0.014110929 -0.121647045 -0.16804418 0.19524051 -0.029182015 -0.17460614 0.103040755 0.26433536 -0.05093021 -0.121600695 -0.22735952 -0.14766826 -0.035383113 0.32576922 0.095980175 -0.08097166 -0.35878357 0.14228646 0.41759673 0.30101773 -0.09200881 -0.23343365 0.031068524 0.041764658 -0.3618326 0.032290265 0.3687878 0.23957698 0.18130341 0.06359132 -0.19203047 -0.18230656 -0.22141172 0.20818458 0.08680846 0.23817609 0.028778868 -0.09642231 0.30448115 0.5855504 0.31100857 -0.2361638 -0.102623425 0.28856033 -0.08044785 0.22989817 0.15085837 0.27214116 0.2413185 -0.14634678 -0.31883582 0.15776303 0.26379454 -0.34967414 -0.021273911 -0.30351245 0.14268312 0.5505414 0.02253266 0.061528374 0.40931603 -0.11322869 -0.34632766 0.34763154 0.2651647 -0.21468908 0.39277396 0.11617898 0.20517673 -0.009057309 -0.19197133 0.06011385 -0.10344131 -0.110597245 0.125033 -0.16507061 -0.21109769 0.11971289 0.071259886 0.34222567 0.278678 -0.30753314 -0.23559335 -0.34670305 0.026641563 0.02036882 -0.19960758 0.056745406 -0.12879777 0.19704966 0.28486234 -0.02937214 -0.2831666 0.21736886 0.3751681 -0.0059361164 -0.034437522
166 -0.01608424 -0.20916946 -0.004007099 -0.26973784 -0.30215535 0.14175189 0.088058226 0.19291404 -0.015725028 -0.31161276 0.051481243 0.19485204 0.08187013 -0.05095208 0.10162476 -0.2553328 -0.13784604 -0.23212412 0.108545676 0.39572424 0.52802175 -0.121672705 0.34996006 -0.13450687 0.3410053 0.3146974 -0.5227922 0.14236182 -0.30128217 -0.27753448 -0.030932004 0.28124696 0.26457164 -0.12054511 -0.043963514 0.11832184 0.15168199 0.05268152 0.07394934 -0.2225192 0.092055686 0.050589975 -0.15340924 0.0028129634 -0.12719451 -0.23456243 0.24221544 -0.26884192 -0.2918971 0.35919642 0.47647613 -0.1799097 -0.3617648 -0.019484248 0.16009715 -0.07868898 0.54871875 0.41738737 0.3868531 0.107788205 0.1119094 -0.22174615 -0.01058653 -0.023060668 0.0676067 -0.43603614 -0.08653587 -0.27178657 0.20876881 0.09066388 0.26181844 0.16539021 0.23898035 0.26635978 -0.09173533 0.24929729 0.06459487 0.110083506 0.10002948 0.26521617 -0.3690683 -0.39504838 0.54395986 -0.17274652 -0.38631198 -0.01455884 -0.011382822 -0.0842632 0.339647 0.390433 -0.5912299 0.1516793 -0.26441476 -0.13495032 0.36513215 0.021719916 -0.016528895 0.13955775 0.23363976 0.013938301 0.1264403 -0.03807254 -0.058834955 0.030159874 0.2132223 0.33965328 -0.22578366 -0.35367098 0.41481262 -0.11747881 0.14681499 -0.114435904 0.006567003 -0.32334244 -0.12372512 0.23091389 0.21446787 -0.15406002 0.051990602 0.069226116 0.46067443 -0.2508956 0.0530588 -0.0153812645 0.004353551 -0.029050922 -0.1397341 -0.13934247
158 -0.4099178 0.15164366 0.20017241 0.21531576 -0.27273828 -0.18667533 0.34154075 -0.16014305 0.050392818 -0.060621485 0.0064811073 -0.2388143 0.054165997 0.08755658 0.056190908 -0.020442916 0.08822738 0.057055894 -0.18146221 0.3516013 0.09335098 0.044606175 -0.45055357 0.2173455 0.23074722 -0.17698725 0.020063002 0.35362312 -0.027155941 -0.26527599 -0.10186076 0.14344627 0.1165736 0.07379717 0.08250897 0.12544739 0.054784633 -0.068238 0.03346084 0.0757694 -0.20089549 0.15157016 -0.14985389 -0.18237461 0.36181605 -0.063065946 -0.08610285 -0.30600622 0.48245838 0.07596885 -0.22426413 0.034993593 -0.14780112 0.00078622345 -0.25796166 -0.086161725 -0.2848524 0.069425434 0.22465275 0.2539223 0.28668335 -0.21317658 0.11295197 0.110265926 0.13174371 -0.25568554 0.1995936 -0.048008118 0.34814095 0.15004398 0.17702714 0.57632405 0.3270034 0.110825665 -0.0794172 0.086645365 0.022155525 0.08414657 -0.0009435178 0.47405565 -0.16272902 -0.30039623 -0.16468686 0.0018673206 -0.2747027 0.11339939 0.111084595 -0.18322818 0.19903213 0.27679247 -0.008302764 -0.43528995 -0.0946533 -0.24166758 0.08954298 -0.011906722 -0.065061875 -0.18017292 -0.052273683 0.33437854 0.34789142 -0.40014955 -0.25658947 0.53870577 0.019382786 0.6799473 0.36947197 0.023002649 0.17790733 0.18489338 0.39598748 0.09668875 -0.14920284 -0.06816328 0.066099785 0.34601772 0.1483239 -0.27967215 -0.012396309 -0.046355788 0.22724575 -0.24810821 0.35753107 -0.041352715 -0.3301623 -0.033649527 0.09686969 0.60753477
300 -0.045757063 -0.057612404 -0.30624142 0.09757206 -0.3610952 -0.10341298 0.4238371 0.17056465 -0.10459668 0.1623563 -0.30652338 0.061149985 -0.13240895 0.3179831 0.26801422 -0.081810646 -0.30023018 0.34672698 0.011639046 0.27089843 0.20162502 -0.54744667 0.3034617 0.12379134 0.25700256 0.058415573 -0.10600207 0.07708301 0.034115136 -0.30610037 -0.10511266 0.13383225 0.14971095 0.041219123 -0.21037039 -0.02942292 0.034501553 -0.31229815 -0.111925274 -0.08452089 -0.19850104 0.1014586 -0.41128185 0.23375006 0.40269446 -0.0022931455 -0.0010406643 -0.29320806 0.39045346 0.26933882 0.18625796 0.11768789 -0.3410046 0.68122923 0.060121026 0.04463373 -0.12218561 -0.08452143 -0.06580184 -0.17618196 0.28808603 -0.28239906 0.22509757 0.17328726 -0.054929655 -0.40878528 -0.043186102 -0.08728043 0.42419052 -0.14007819 0.24415657 0.18181428 -0.03377696 -0.05783995 -0.20451315 -0.16187213 -0.27393842 0.14762694 -0.24930154 0.35883245 0.07204292 -0.20999202 0.14727187 0.04321095 0.14135751 0.26883572 0.23233667 -0.100788735 0.20335345 0.39774108 0.097225346 0.32437703 -0.44162548 -0.21509856 0.33136156 0.15408583 0.19625995 -0.06898496 0.20759729 0.040759355 0.3424175 -0.16673073 0.17429675 0.086547665 0.11772316 0.23374654 0.18364272 -0.026051786 -0.012829766 -0.2618329 0.20360883 -0.41850185 0.009178188 -0.14470711 0.23182414 -0.25828323 0.19347024 0.036369994 -0.16908573 0.002192293 -0.14936244 0.00970882 -0.042624153 0.39886713 0.076304145 -0.006772637 0.0011406348 0.08406951
78 0.19950835 -0.0008213969 -0.2693598 0.3493744 -0.07395743 -0.17133935 0.14501256 0.028304376 0.10323393 -0.089413896 -0.08975689 -0.3320191 -0.13836244 0.11809627 -0.12848715 0.3400618 -0.36154026 0.25479966 -0.01770873 0.5494612 0.39886856 -0.188788 -0.29083934 0.4175349 0.033389945 0.08311921 -0.27235934 0.44396234 0.25824758 -0.16207121 -0.32660025 0.07798641 0.08828128 -0.19779055 0.07275592 0.05961129 -0.13211703 -0.027819151 -0.16112216 -0.31556168 0.117459945 0.09080948 -0.13088457 -0.17132966 -0.21710637 0.13892245 -0.39720294 -0.19877395 0.17047225 0.33991075 -0.23995982 0.07668801 -0.19262807 0.33296075 -0.28131485 -0.12836452 0.008801072 0.25577712 0.3352343 0.330618 -0.021230493 -0.16557139 0.34005356 0.23187652 0.21959344 0.06611447 0.20943624 0.114500724 0.08089607 0.26437685 0.16854247 0.29003477 0.06556363 0.042912174 -0.009583793 0.056284994 -0.014173785 -0.030163122 0.14655879 -0.06270448 -0.6748871 -0.29310256 0.46801215 0.059516225 0.244684 0.16286848 0.072035015 -0.05969418 -0.0020229942 0.23455158 -0.15834735 0.082823075 -0.24679287 0.10160414 0.14896677 0.3821259 -0.17400816 0.060009997 -0.16250332 0.0030154956 0.14932036 -0.18600115 -0.017545573 0.35287115 0.37240562 -0.0048297253 -0.16091925 0.028371535 0.27301365 0.11397856 0.035122838 0.17935877 0.15138604 -0.36823282 -0.08844606 0.07464862 0.07077144 -0.21994764 0.20884238 -0.11157778 -0.00027627574 -0.08566074 -0.3410074 -0.13203332 -0.2257685 0.0425098 -0.059884608 -0.24644415
268 0.24310134 -0.14112206 0.08554634 -0.08997778 -0.059533063 0.008658447 0.25719315 0.1962675 0.094853975 -0.26071528 -0.41135606 -0.16224597 0.12680827 0.5979763 0.04936027 0.021548428 -0.20696563 -0.018830817 -0.20065393 0.44905654 0.41169327 -0.06482303 -0.48568076 0.18929026 -0.14427532 -0.31911546 -0.21814078 0.46830043 0.012387644 -0.16118309 0.09100836 0.12376431 -0.174232 0.53556716 0.11388267 0.25162244 -0.20288754 -0.07941693 0.09858614 -0.32366538 0.046707638 0.27123713 0.017922876 -0.046521813 0.3302677 0.028636346 -0.46347827 -0.34841684 0.38820568 0.23843007 0.23255105 -0.34247622 -0.10447998 0.37091666 -0.057324145 0.19169648 0.07994599 0.21513467 0.026687695 -0.024242895 0.37768653 0.38069603 -0.13856377 0.20981115 0.11432575 0.009215809 0.21097374 0.15337232 0.114153564 -0.26651144 0.15527917 0.19027916 -0.022466509 0.17428027 -0.19284211 0.021014081 -0.075070605 -0.16225508 -0.1717004 -0.14208208 -0.031992037 -0.28852704 0.00723707 -0.075874016 -0.054146245 0.42393208 0.0872162 0.08084079 0.5228224 0.21777971 -0.23460753 0.25192565 -0.0031846643 -0.06363281 0.099520504 0.01654822 -0.27364883 -0.37205148 -0.4215587 -0.01471894 0.07590245 -0.040866528 0.2718844 0.3700875 -0.12135473 0.1274123 -0.24326329 0.12538318 -0.17725383 -0.256211 0.24238814 0.2643199 -0.4847842 0.033498142 -0.13994369 0.079752736 0.04205303 0.031749863 -0.25324818 -0.38218385 0.23620391 0.10661381 0.0628791 0.19481894 -0.13583027 0.10649838 -0.06393156 0.09486328
195 0.13792692 0.39290068 -0.055515744 -0.069019176 -0.46820274 0.15393275 0.31570885 0.23990102 0.37913373 -0.13996458 0.009102069 0.40283197 -0.1580395 0.15287866 -0.0506058 -0.03344802 -0.15906781 0.07717937 -0.10451702 -0.18471953 0.23538782 -0.019667627 0.3404295 0.19819991 0.23051254 -0.01723552 0.36231166 0.071956195 0.13837084 -0.55656016 -0.18775924 0.08003816 -0.014553861 -0.22192581 0.29150096 0.12865132 -0.036538355 -0.12657861 0.07902075 -0.33745834 -0.40799838 -0.030231291 -0.23853527 -0.123144746 -0.05952423 0.13949266 -0.08294261 0.01738215 -0.11972749 0.3481485 0.1535345 -0.3539879 -0.4565526 0.2282373 0.15282999 -0.22073904 0.5251946 0.0046279314 0.010736525 -0.09630987 0.08133137 0.08892689 0.0024947294 -0.08005523 0.07513107 -0.074682675 0.26043057 0.28139073 0.19516836 0.12976685 0.075365014 0.061047707 -0.45489258 0.35968092 -0.19100715 0.18402651 0.1426403 0.17888771 0.08816859 0.15599029 -0.010571014 -0.07000861 -0.008749816 0.011193534 -0.09574318 0.3096712 0.34139898 -0.23039739 0.31364965 0.08377977 -0.2508937 0.24749838 -0.08574324 0.24220546 0.10976182 -0.16248111 -0.08246834 0.027420089 -0.19405317 0.27732486 0.118083745 -0.5600083 -0.10531558 0.34284925 0.1825054 0.18892984 0.022727828 0.38395175 -0.11773032 -0.10695715 0.2918025 -0.003507708 -0.10425595 -0.2323162 0.0991842 -0.05581395 0.32648998 -0.10096994 -0.036027133 0.25653267 0.41963288 0.11221617 0.11347368 0.099019006 -0.056953587 -0.10450186 0.21429004 0.16424078
320 0.39987624 0.057691135 -0.51676613 0.119700685 -0.12666443 -0.0020818708 -0.03597175 0.098168455 0.007360652 -0.21250607 -0.33492464 0.030151 0.34574068 0.0028385385 0.16720356 0.03609473 -0.6351055 0.21351133 0.18685594 0.30993465 0.11117137 -0.29018572 -0.29153875 -0.020414004 -0.34550476 0.072039485 0.088406295 -0.0072198194 0.12797809 0.12480618 0.17823994 0.21995126 0.20922373 -0.11567889 -0.015077964 0.11809376 -0.18111724 0.22565281 -0.07790533 0.23346491 0.09639538 -0.16814055 -0.51008 -0.121108815 0.4385328 0.08460172 0.08324968 -0.15423653 0.5334317 -0.18636155 0.29702228 -0.07335127 -0.51542616 0.41064274 -0.13265476 -0.076740146 0.42761657 0.16874188 0.06679269 0.08860875 0.15834339 0.009057975 0.36286697 -0.36296844 0.067258194 -0.22649023 0.41498366 0.041850917 -0.107062064 -0.47996217 0.1557631 0.3010546 -0.46542513 0.03402698 0.43177322 0.03630266 0.5260323 -0.0045475382 -0.17082374 0.043299768 -0.11498722 -0.3138597 0.23145196 -0.22993365 -0.54498756 -0.037946135 -0.049828075 0.124002606 0.22794779 0.0018927301 -0.27949792 0.38706076 -0.2186074 -0.08342845 0.11731408 -0.22164068 0.05619251 -0.22709171 0.16193303 0.37060615 0.33043876 -0.43653816 0.28334582 0.3263629 -0.042733617 -0.1846987 0.16649048 -0.00021443234 0.051160272 0.022937423 0.19206882 -0.17685375 -0.1549793 -0.062949166 0.5028412 0.114464134 0.02901577 -0.26687786 0.2525005 0.042196367 0.49791732 0.046564166 0.18668553 0.044695694 -0.026073974 0.07548183 -0.09339206 0.18431711
281 -0.18062195 0.09945794 -0.11483709 -0.24556464 0.07872419 -0.1589767 0.29220808 -0.3895188 0.33641398 0.39506942 -0.08089986 -0.22483395 0.0312942 0.36947897 0.056074783 0.39197 -0.08214881 0.22688831 -0.035963997 0.58963394 0.14690475 -0.10681947 0.09849373 0.16451868 0.18140326 0.34066266 0.056833763 0.34030998 0.082191885 -0.31368783 -0.23314561 0.41908875 -0.03604942 -0.079014644 0.3246923 0.62061983 -0.28314286 -0.13763286 -0.12059124 -0.17248195 -0.21706271 -0.1933169 -0.19078721 0.2906177 0.35749793 0.19006357 -0.14890383 -0.4882783 -0.0049579637 0.3237365 0.043588523 -0.124234155 -0.100085564 0.53064907 -0.013007883 0.10881913 0.088514626 -0.033366457 0.42278814 0.40224615 0.093854636 -0.21671502 -0.004711907 0.13104719 0.382034 0.36675167 0.07028017 0.15471627 0.20611173 0.4144549 0.10993026 0.1345164 -0.100074396 0.24196531 0.46474913 -0.18576433 0.0336399 -0.10713205 -0.030543728 -0.005640964 -0.04587318 -0.45659935 0.3560644 0.108702816 0.070859574 -0.14632642 0.15398818 -0.23912904 0.23967196 -0.09338305 -0.15603098 0.26889783 0.013972606 -0.087797 0.14978825 -0.27373865 0.07770111 -0.16750526 0.07015206 -0.040012408 0.09426861 -0.19930175 0.1822291 0.18091676 0.31150764 -0.07721387 0.05196825 0.18756619 -0.13764405 0.2552914 0.5968355 -0.110141166 0.095897235 -0.29971018 0.1272633 -0.34474334 -0.23499507 -0.096971996 -0.006771176 0.18414712 0.09894089 -0.20173363 -0.08487272 -0.08953795 -0.080423355 0.25464854 -0.14895754 -0.11967171
100 0.40591255 -0.18252818 0.0063418006 0.24297206 -0.42854208 -0.10359949 0.059498638 -0.025379585 0.113048 -0.13911836 -0.029642679 0.334876 0.013267017 0.38623837 0.15636753 -0.109207 0.14016567 -0.2649666 -0.16665758 0.16169652 0.41585526 0.09523436 -0.3474503 0.29003754 0.15487027 -0.13950711 -0.039586704 0.23638263 0.42329454 -0.11025573 0.23070653 0.035760507 -0.16978447 -0.0030931805 -0.5220551 0.097841896 0.14718196 -0.13978337 -0.11343262 -0.35923523 -0.07516057 0.027885467 -0.37685743 0.08411216 0.4241592 -0.06992472 0.09584041 -0.31762594 0.13204715 0.16527876 0.10306304 -0.21736051 -0.040129833 0.2587323 -0.14566635 0.1351294 0.21377139 0.10401961 0.2742799 -0.024515474 0.021667337 -0.19581935 -0.14540334 -0.077412724 -0.04779182 -0.2403089 -0.27001575 -0.39256448 0.15698177 0.051674213 0.19343609 0.1626968 -0.18139037 -0.04429179 0.048913628 0.1415252 0.00092978263 -0.20940255 -0.06628473 -0.25298506 0.0070078163 -0.51130223 0.2388878 0.5127035 -0.044685658 -0.2531106 0.25394735 0.03130161 -0.030120457 -0.4626874 -0.2663413 -0.05549632 -0.26116514 -0.498771 0.37695017 -0.17827299 -0.12893078 0.057916198 -0.09828768 0.17681105 0.0075857653 -0.2753459 -0.017874246 0.26925373 0.5151194 0.21710499 0.06360041 0.2848131 0.14352652 -0.26783043 0.2308199 -0.2611066 0.1608551 -0.4892454 -0.22167261 -0.13233581 0.2424382 0.0034604005 -0.49146616 0.112322874 0.2881518 0.1340663 0.040871862 -0.0017879514 -0.22287576 0.11252824 -0.03865161 0.08366854
244 -0.1651324 0.4117495 -0.16195959 0.13891278 0.017566351 0.110180445 0.66259307 0.10463184 0.1305695 -0.10136305 -0.121756 0.12063996 -0.06536931 0.5840375 0.08466191 0.014589821 -0.41793478 -0.061904058 0.22617838 0.018190116 0.4412325 0.3863923 -0.029013941 0.029178226 -0.031490237 0.16033962 -0.4297796 0.17762892 0.092159376 0.09686622 0.30347982 0.27383313 -0.10174926 0.06926765 -0.10326033 0.048224196 -0.36503062 -0.14335951 -0.20656976 0.12578058 -0.4261779 -0.194056 0.06468237 0.10338466 0.31558102 -0.022941638 0.005454982 -0.15710093 -0.13773292 0.29184774 -0.28458077 -0.120071106 -0.43615854 0.41199163 -0.3174574 0.0493937 0.08099995 -0.1667472 -0.03268473 -0.20358407 0.38077834 -0.10231896 -0.0174507 -0.2542902 0.24935931 -0.3088514 -0.03693541 -0.03712102 0.08728158 -0.15485567 -0.073402554 0.37202433 -0.14635938 0.15042517 0.043976706 0.22129323 -0.047588874 0.020771842 -0.20880765 0.14955932 -0.083553374 -0.59521157 0.39938742 0.10404408 -0.14945954 -0.2812697 0.040359408 0.17690647 0.18690498 0.029805198 0.027499726 0.38990346 -0.40179127 -0.02359868 0.18940078 0.27014357 -0.23266527 0.04592434 -0.30551592 0.26584548 0.2667655 -0.07798559 -0.055960942 -0.17427017 0.24211746 0.42125458 -0.10652622 -0.053751092 0.17122348 -0.31877932 0.010472406 -0.14535592 -0.16529708 0.12945005 0.15168694 0.18750206 0.26164308 -0.24548188 0.04224475 0.1952265 0.19158812 -0.37770185 0.15633748 0.06790176 0.0066742054 -0.08462042 -0.17963412 0.016161084
228 -0.12303947 0.20062408 -0.11342167 -0.092835195 -0.28555986 -0.19562873 0.12475743 -0.15200388 -0.038475208 0.02954427 -0.10391605 0.09231337 -0.045324445 0.12512149 0.34198025 0.38512334 -0.2137984 0.44157523 0.14515767 0.014538959 0.31975508 0.071738206 0.12624049 -0.052029412 -0.11565214 -0.26645416 0.08981106 0.222692 0.10215783 -0.31115627 0.025357148 -0.123705134 0.02825733 -0.04719691 0.17943762 0.44841254 -0.14779764 -0.114531636 -0.2306963 -0.13465664 0.14675249 -0.17740731 0.14427693 -0.11261133 0.3277491 -0.21498491 -0.20534383 0.088737056 0.042450655 0.5476492 0.3351721 -0.2828703 -0.15691228 0.515926 -0.21851875 -0.036241334 -0.0035660581 0.19020353 0.40531987 0.22146785 0.26443726 -0.13381012 -0.042033236 0.014818561 -0.15838917 -0.21865834 -0.23603135 0.019896412 0.04297812 -0.08933974 0.34768045 0.30143958 -0.05789299 -0.37321678 -0.038227633 0.3026237 0.58100384 -0.19619454 -0.265104 0.016493028 -0.23393923 -0.3376416 0.1461759 0.1748848 -0.24891639 0.20958473 0.13652544 -0.27839297 -0.06525066 -0.15733126 -0.32544047 0.110031255 0.13046877 -0.27137518 0.610655 0.24026196 -0.51294476 0.044239633 -0.19051543 0.1514624 -0.017759165 -0.32839337 -0.049712367 0.21967986 -0.12177732 0.32541472 0.5258194 0.0254686 0.07837195 -0.16593955 0.50539875 0.046141155 -0.19356385 -0.13177596 0.06151119 0.07918165 0.17692252 0.00081274344 -0.062195364 -0.3155546 -0.07385026 0.16773266 0.31556922 0.045786988 0.36985955 -0.06603214 -0.34328318 0.29025602
7 -0.007126428 -0.27241582 -0.2333973 -0.059188668 -0.108597875 -0.22004482 0.21679084 -0.16269782 0.21364109 0.077434815 0.16362482 -0.008178989 0.25378436 0.21749912 0.08139126 -0.11679209 -0.34865692 0.23988937 0.25330827 0.5800038 0.5766503 -0.19183679 0.09292665 0.08347056 0.286916 0.22310396 0.095426016 0.31076112 0.058844108 0.14585075 0.10626986 0.2790293 0.0061166957 0.1975706 0.0550635 -0.04283366 -0.5411196 -0.13120621 0.38614643 -0.11797122 -0.21222517 0.39313594 -0.16415405 -0.18737282 0.1813643 -0.3713079 0.00542937 -0.042385932 -0.03248017 0.3245542 -0.028358346 0.046650045 -0.50491965 0.3483475 -0.007076819 0.07705745 -0.19393134 0.43835673 0.40833595 0.22713563 -0.042304933 -0.22296712 -0.13488638 -0.22941275 0.32840782 -0.043542605 0.1449733 0.19937196 -0.20890726 -0.060800917 0.0847189 0.11684983 0.27705353 -0.14762594 -0.29766962 0.3238038 0.117949225 -0.10621726 -0.09276746 0.25029963 -0.24512777 -0.39789423 0.14276241 -0.04667681 -0.10646845 -0.017251961 0.04121308 -0.19188671 0.1972508 0.13392456 -0.3494577 -0.28333858 -0.245743 0.19564308 0.16821511 -0.11718899 -0.124915645 -0.18605688 -0.3516679 -0.008758192 -0.39221433 -0.054873604 -0.019723441 0.23132116 0.10057225 0.30227745 -0.26859865 -0.1728367 0.037296608 -0.034908745 0.057239078 -0.110312805 -0.34960246 0.08777053 0.2117987 -0.16120605 -0.07399914 -0.32519874 0.0045589735 -0.11075467 0.0125314 0.2232334 -0.032756772 0.1178035 -0.073624454 -0.091840364 -0.017532114 -0.07850886
338 -0.31839022 -0.07644607 -0.26249322 -0.12386401 -0.04909057 -0.41826364 0.36773068 0.01341666 0.13043359 -0.22619061 0.017007798 0.2984241 0.5617147 0.14890924 -0.3098558 -0.29876408 -0.20991363 0.3909617 -0.09898856 0.15057339 0.132896 -0.2811176 0.03088072 -0.10055163 0.029449232 -0.1693903 0.24402559 0.5539135 0.22860134 -0.023138551 -0.1198893 0.29876882 -0.012117633 0.058621865 0.0060587334 -0.03652112 -0.075270526 -0.24917904 0.11872251 -0.0075450456 -0.40811253 0.1843365 0.1027145 0.25332534 0.3278395 -0.052646704 0.09488954 -0.31528378 0.3824084 0.035172835 0.32887042 -0.3105454 -0.25904417 0.28993666 -0.27882552 -0.13736607 0.069093585 -0.2714105 0.15215123 -0.020083038 -0.24161127 0.03900027 -0.084303215 0.39903864 -0.094635606 0.19892566 0.3167794 -0.16997904 0.29451206 0.2914145 0.016266381 0.011715199 0.1238917 -0.15951729 -0.110035814 0.3829355 0.3229578 -0.10659621 0.048563335 -0.21641304 -0.29603973 -0.6274203 0.28181008 0.25169453 -0.11974151 0.09358113 0.14893638 -0.29692197 -0.027798206 0.15759006 -0.67083305 0.19635013 0.032628596 0.21263534 0.03643075 -0.3089378 -0.08867077 -0.27762038 0.17326297 0.040882338 0.072519325 -0.7316464 -0.02574697 0.1847073 0.123576775 0.31722227 -0.1474786 0.002460746 0.1485497 0.45877534 0.17947993 -0.085298724 -0.12703763 -0.32067055 -0.13338895 -0.11281515 -0.2382325 -0.01973116 -0.026519198 -0.1089326 0.2017876 0.2197703 -0.119790256 -0.3551693 0.12683555 0.29794934 -0.062093537 0.012782109
19 -0.44078442 -0.16091801 0.14272779 -0.20413998 -0.089442514 -0.33471036 0.066069305 -0.020778315 0.7444058 -0.53836113 -0.12389722 0.11048747 0.29966992 -0.020145813 0.22489771 0.24700895 0.07295798 0.15142581 -0.108901046 0.42141375 0.5561519 -0.29001483 0.07508214 0.62623584 0.14464691 -0.08396698 -0.38904727 -0.13532068 0.32199672 -0.2714264 -0.13540922 0.031436402 0.21657214 -0.017179716 0.25661612 0.030960198 -0.14023903 -0.38720512 0.2317247 -0.19245768 -0.0060648755 0.074531615 -0.119737975 -0.5291062 0.2292153 0.14502633 -0.11057734 0.05348008 -0.112624526 -0.15481944 -0.2697969 0.113818206 -0.14684942 0.43546858 0.35737237 -0.22163196 0.34588084 0.06148741 0.07261846 -0.11996043 0.15572551 -0.18004996 -0.23503414 0.17832384 0.020008553 -0.25784144 0.120757364 -0.08264877 0.06380878 -0.1782106 0.15567067 0.84057707 -0.35448825 -0.17497946 0.037740324 -0.21246575 0.1581967 0.18855213 0.089254364 0.01541675 -0.21375093 -0.20349276 0.7567842 -0.0061196326 -0.54586816 -0.02123292 0.41157305 0.16735622 0.22662975 0.32243577 -0.10596795 -0.22397035 0.46119893 0.24778461 0.20162214 0.22865471 -0.27976686 0.04368713 -0.13890171 0.6793322 0.12006578 -0.45920554 0.15709804 0.4730294 0.21493 0.4658666 0.10768525 0.053178962 0.26542804 -0.11061884 0.5226875 -0.23918769 0.06662108 -0.16367035 0.24862997 0.18881352 0.10048939 0.038707055 0.32342803 -0.20264159 0.12530352 0.019586146 -0.089016184 0.31016725 0.008311875 0.073547095 0.122117534 -0.23001108
325 0.10203199 -0.026248213 0.26836047 0.21253535 -0.0010627242 0.12863755 0.3942806 0.15159571 -0.08659384 0.07648107 -0.3153935 -0.15017667 -0.0370735 0.21402809 0.23757249 0.23058935 -0.46087024 0.35454652 -0.018053396 0.46076143 0.4146836 -0.12731059 0.19577311 0.4375094 -0.4306216 -0.094702534 0.16852516 0.47622395 0.30652288 -0.06478224 0.13677086 0.0014246838 -0.30817062 -0.3381954 0.0325996 0.3499789 -0.3334855 0.024821954 0.18419476 0.14063229 0.25059062 -0.07264277 -0.13469656 -0.0655305 0.2362682 -0.101956934 -0.06674657 -0.08361046 0.24265687 0.11115578 0.16977216 -0.2570448 -0.48555475 0.22803186 -0.1303535 -0.4127742 0.29045555 -0.0031865072 0.19292252 0.2814324 0.23750481 -0.17547843 0.14970951 0.28900206 0.03823346 0.07620102 -0.20246598 -0.1446041 -0.07070656 -0.025693284 0.51021785 0.07907401 0.26318166 0.28032324 0.09285551 0.11107443 0.18238726 -0.18202534 0.11045098 0.28784862 0.10712529 -0.088486955 0.25496998 0.13498548 0.64595574 0.035561237 0.33347297 -0.10372489 0.23825209 -0.17045851 0.014627618 0.027608674 0.09766065 0.071226045 0.4546149 0.39233547 -0.03704075 -0.07896591 0.050303478 0.23746087 0.24329995 -0.06407745 0.092706524 0.38478267 0.26691893 0.4511412 -0.009904204 0.22912729 -0.33099177 0.198859 0.36390635 0.108129755 -0.25747117 -0.1849714 0.43690863 -0.12687662 -0.0011272798 0.029474836 0.4160408 -0.26542765 0.18919225 0.053606693 0.29454634 0.25702178 0.13399103 0.26027614 0.17212728 0.1618269
187 0.44168767 -0.19145805 -0.090659864 0.2395786 -0.2777588 0.49678865 0.28759617 0.16700946 -0.030498326 -0.15801492 0.040181402 0.17875049 -0.28535926 0.20208368 -0.15333635 0.24105597 -0.55458885 0.27955922 0.34929788 0.43748075 0.26679468 -0.25258636 0.049802624 0.42707005 0.080939636 -0.20699145 -0.14490947 0.121196456 0.028781567 -0.2388556 -0.09392011 0.18597811 -0.12791024 0.42406064 -0.2775552 0.14653637 -0.041577697 -0.13435973 -0.50086945 -0.28839004 -0.122215316 0.09504096 -0.23740283 0.084056266 0.25395 0.25468457 -0.025178863 -0.22706702 0.23201993 0.10939606 0.22026923 -0.027732339 -0.38586947 0.22598982 -0.26995546 -0.15248923 0.2759756 -0.02638858 0.26357773 0.10894063 -0.1754471 -0.118111864 0.17559576 0.21982838 0.092024826 -0.1312145 -0.14573401 0.2190081 0.052955076 -0.20807932 0.5253552 0.34154865 0.019076297 -0.13873897 -0.0019952573 -0.041883588 0.06571754 -0.046843678 -0.12024001 0.022370042 -0.10331386 -0.107206516 0.15302648 0.14181839 -0.028600406 -0.16725773 0.18093817 -0.08494543 0.10416921 -0.041712157 -0.39341974 0.105565615 -0.33899108 0.06881641 0.22358288 -0.058379315 -0.4048586 -0.18599969 0.31267372 0.419061 -0.10290731 -0.14100258 -0.3004902 0.164713 0.66524404 0.23355132 -0.32438558 0.01083443 -0.09765401 -0.25519976 0.018509056 -0.17818692 0.023329578 0.17484882 -0.17134938 0.07589659 0.18157955 -0.21398117 -0.43128124 -0.14070116 0.24994852 0.27847764 0.051645767 0.5885477 0.014720168 -0.007993736 -0.013161277 0.05097245
352 0.3623031 0.33292514 -0.40735516 0.019889506 -0.14182892 0.19347815 -0.0035421741 0.19187672 0.44387737 -0.24581493 -0.31547853 -0.20056784 0.46793643 0.26484922 0.20472668 -0.25197122 0.29593483 0.09193322 -0.015878532 0.68016654 0.6812984 -0.09299808 -0.019273961 -0.007886155 0.05238273 0.07700064 0.37789857 0.33148074 0.03987059 -0.2987627 -0.1573242 0.46446046 -0.4002708 -0.13805299 0.2368837 -0.264826 0.06916837 0.043206632 0.28826034 -0.25914082 -0.18773395 0.4386484 -0.10485322 0.018334176 0.30000514 -0.24407448 0.000488078 -0.27972752 0.1343979 0.10453796 0.43725348 -0.1520033 -0.4818687 0.5746446 -0.077988245 -0.5491204 0.013916483 -0.11213799 0.46007544 0.18427156 0.16425565 0.026931195 -0.2334427 -0.15252572 -0.5888002 -0.5636992 0.40398824 -0.13941936 0.55844945 0.03596279 -0.1350773 0.21528223 0.36350384 0.30508414 0.38574985 0.65671825 0.6322271 0.16438799 -0.23941718 0.6721 0.13808553 -0.40619472 0.97639996 0.4608347 0.018564876 -0.0011697124 0.18399934 0.08661711 0.34326875 0.16144139 -0.02580943 -0.16219324 -0.47249025 -0.11476732 -0.09617754 0.0046503544 -0.64671195 -0.41510883 -0.006822692 0.09332935 0.35647812 -0.11361551 -0.3586554 0.2066222 0.0577272 0.72658193 -0.158693 0.028867897 -0.04816356 -0.25436416 0.117343135 -0.5435723 -0.021259485 -0.14588928 -0.14048949 -0.17148207 0.0049087415 -0.13796353 0.49046782 0.3646111 0.45873898 -0.083870076 0.13822731 -0.003726067 0.100854486 0.55005103 0.08382845 -0.6577364
286 -0.048458192 -0.19050965 0.07107296 -0.1148299 -0.13511741 0.024593614 0.20453627 0.07309826 -0.25525656 0.11225267 -0.023680257 0.03727773 -0.1334851 0.4352164 0.16228527 0.14928827 0.05341879 0.20244253 0.15734111 0.22896601 0.052923247 0.18054374 -0.13840725 0.14949416 0.11390451 0.08173995 -0.2878812 0.1479941 -0.14643459 -0.12225019 -0.040592674 0.08982012 -0.08696869 0.04882651 -0.10368184 0.21672837 -0.12025273 0.122075014 0.032065775 -0.34271896 -0.5890449 -0.04148063 -0.13668817 -0.21768026 0.23175861 -0.1907132 -0.17114808 0.21839872 0.0016565765 0.32718256 -0.013771246 -0.19299631 -0.38948753 0.2870224 -0.07325937 -0.30175307 0.032902665 -0.012426467 0.2323316 0.26880893 -0.1570259 -0.27358314 -0.36744255 0.2410817 -0.11402457 -0.25709543 0.07845337 -0.32184675 0.12987773 0.10946013 0.32262483 0.2411317 0.19793752 0.15850894 0.19209704 0.008296907 0.14727758 -0.11285699 0.009203428 0.010066483 -0.18918322 -0.4127955 0.11884256 0.07621364 -0.2662886 0.20898187 0.10724468 0.024074417 0.18156904 0.09530349 -0.31032363 0.20149542 -0.3834723 0.3488995 0.032960374 0.029165743 -0.1588524 0.014386979 -0.18435237 0.34871918 0.18173876 -0.11562331 0.071500026 0.70795107 -0.3835773 0.09307884 -0.16516021 -0.44083735 0.0857846 -0.4562701 0.20717344 0.12913103 -0.07804481 -0.043262992 0.029052073 0.11896377 -0.3657633 0.090763204 -0.10900521 -0.28112435 0.21852054 -0.34752545 0.26324058 -0.20304982 -0.15882769 -0.2569616 -0.31313482 0.042757794
143 -0.06527288 -0.13105704 0.20099606 0.015327524 -0.40438434 -0.23926705 0.29752576 0.05383628 -0.11848527 -0.017267276 0.109494895 0.34602675 0.07631846 0.0042681755 0.20536079 -0.20003143 -0.20675142 0.27689096 0.08802998 0.09768915 0.35216883 -0.028504366 -0.1881699 0.031209195 0.25807187 -0.16279897 -0.2848065 0.4072797 0.019863859 -0.32134512 0.11065777 0.1223951 -0.29726234 -0.15109432 -0.15854518 0.2324227 -0.4833839 -0.109380506 0.23179172 -0.11651082 -0.37161908 -0.22944133 -0.16624431 -0.053357296 0.07433117 0.43597895 -0.21628395 -0.18172196 0.087012574 0.09402628 0.46262503 -0.39253488 -0.3535412 0.45563513 -0.16061181 -0.071628414 -0.13365471 0.21600991 0.39638537 -0.05806428 0.009203939 0.057318576 0.1828937 0.36564845 0.09067725 -0.24105594 0.10908622 0.14001898 -0.25296342 0.21496812 -0.007215009 0.3976859 0.06466342 -0.4194422 0.28883108 0.15060523 0.06268327 0.15862788 -0.15040307 -0.027448187 0.062376052 -0.44535846 -0.023328964 0.13243578 -0.10756487 0.2133752 0.006840512 0.14014104 0.26665342 0.32707918 -0.39645514 -0.18108873 -0.28268516 -0.18645927 0.24695297 -0.083305515 -0.24425481 -0.21155135 -0.028150996 0.18700774 0.14593408 -0.16786878 0.121207625 0.37054065 -0.16830617 0.104353525 0.018554881 -0.15467794 -0.023686843 -0.37857527 0.048205014 0.08275912 0.20421016 -0.23158126 0.2765931 -0.4063108 -0.17766574 -0.09500938 0.20731445 0.3942536 0.14060137 -0.09614344 -0.029375944 -0.34348977 -0.10922332 0.19326998 -0.11305573 -0.12358141
114 -0.15021509 0.010809013 -0.06877951 -0.034575447 -0.4195727 -0.0042117164 0.13328451 -0.10014893 0.059420038 -0.048070926 0.043901153 0.046053473 -0.029893395 0.49220103 0.19800054 -0.049725063 -0.12605076 0.049734574 0.1672946 0.08630173 0.26978356 -0.12435125 0.11924793 0.21550873 -0.08850764 0.079388015 -0.3524906 -0.030551704 0.20464312 -0.09427789 0.08280692 0.2743907 0.2914234 -0.25024492 -0.17930125 -0.048491564 0.016459236 0.03502765 -0.18236856 0.042425 -0.13430373 -0.47965464 0.013914615 -0.10182381 0.31466177 0.18574122 -0.10421706 -0.2816577 -0.2808706 0.04888592 0.32469872 -0.40074426 -0.46136105 0.59343714 -0.38495332 0.029611323 0.43966308 0.19335487 0.23097703 0.3743568 -0.10492142 -0.026980009 -0.00028327963 0.30482298 0.015595696 0.041288603 -0.09554502 -0.04137394 0.009553604 0.012746587 0.27494553 0.23607206 -0.10055871 0.27586162 0.019386377 -0.1987517 0.36730874 -0.22253501 0.20879908 -0.0018657891 -0.0028792096 -0.39729744 0.109558515 -0.26745766 -0.27407935 -0.18408565 0.047907617 -0.161555 0.16155368 0.012934539 -0.005680777 0.2938904 -0.020530807 0.015058485 0.18416968 0.119689316 -0.030870128 -0.4206056 -0.24780005 0.23602638 -0.117496215 -0.046878967 0.17250727 0.2771653 0.27429622 -0.1354446 0.092875145 -0.069710724 -0.00731094 -0.23426862 0.18320534 0.0010116652 -0.10050436 -0.32872108 0.23220691 0.08376257 -0.17211272 -0.11627686 0.1498776 0.15565623 0.32891724 -0.013398842 0.4146999 -0.010914559 0.38565114 0.15181294 -0.21409588 -0.30891085
40 0.602309 -0.040331203 0.34771356 0.10012864 0.46891588 0.08892774 0.14759319 0.7166634 -0.0005819224 -0.07425971 -0.17053387 -0.31606945 -0.08026282 0.16233894 0.016341275 0.39339426 -0.2687977 -0.22517188 -0.05937529 0.27907303 0.70669425 -0.4947923 -0.24848524 0.054607786 0.51290464 0.23281145 0.25249618 0.5366397 0.040295083 -0.20764147 -0.40404886 0.050655268 0.12510921 0.24456955 0.2479247 0.29288146 -0.40069887 -0.41399816 -0.009864377 -0.15331493 0.18352646 -0.39131308 -0.14147301 0.2789966 0.6283429 -0.15683173 0.3042735 -0.4329172 0.43151096 0.25278333 -0.010240342 -0.26859236 -0.45057067 0.8773794 0.56118727 -0.11985295 0.32557863 -0.34036204 0.33377072 -0.29931766 0.05630228 -0.18406416 -0.31560883 0.5852509 0.095145024 0.11016717 0.25905702 -0.47027716 -0.14609551 -0.29798266 0.275578 0.46064165 0.05101765 -0.22580324 -6.534241e-05 0.72495574 0.21674259 0.12952852 0.46514526 0.1656371 -0.31537747 -0.519632 0.3359187 0.3000793 -0.24084753 -0.027863547 0.34455335 0.19024745 0.4144832 0.23663545 -0.06102689 0.03783306 -0.11290216 0.019908233 0.15208678 0.11347762 0.1133677 0.14188866 0.21454622 -0.0475626 0.3863888 0.046353355 -0.21785785 0.29601756 -0.002570173 0.32663608 -0.41392112 -0.008466332 0.19143942 -0.19126622 -0.06680433 -0.1314817 0.14251634 -0.32043958 0.47703657 -0.1740409 0.04390016 0.05447792 0.17949429 -0.07062876 0.11916453 -0.5074414 0.16982417 -0.2124415 0.034153163 0.294944 -0.26957694 0.35920435
53 -0.12358031 -0.33644262 0.13190158 -0.038909916 0.30006745 -0.47596866 0.24837284 -0.10420401 -0.24303782 -0.5926991 -0.0037679924 -0.16406032 0.036049202 0.44551027 0.15440555 -0.11656076 -0.24163502 -0.0029536688 0.26772705 0.2932901 0.20492765 0.2800204 0.11922723 -0.038244836 -0.038658004 0.28348464 0.023518857 -0.08746196 0.07638456 -0.33702484 0.017317763 0.27880275 0.13705672 0.21188612 -0.3083247 0.15575093 -0.15678835 0.09348566 -0.07818466 -0.39239305 -0.3759058 0.145505 -0.18598133 0.03745426 -0.07221675 0.051374372 -0.39610863 -0.16064617 0.078217685 0.089957 0.13507001 -0.22894412 -0.25738245 0.64695776 -0.37845513 -0.114700556 0.28417516 0.23962137 0.13990943 0.04098199 -0.397889 -0.056514975 -0.13801965 0.06974166 -0.15755948 0.11538773 -0.082274996 -0.06990085 -0.0028754107 -0.031005915 0.07906161 0.06954331 -0.008433512 0.054972798 0.052282877 -0.02681754 0.12420779 -0.336903 0.14723648 0.06303012 -0.096243724 -0.17968866 0.0892837 -0.0075991866 -0.102423705 0.20082304 -0.124768496 0.11751322 0.086629234 0.15066531 -0.33165014 0.3618204 -0.020797573 -0.10089427 0.42741898 0.00046080106 -0.4132164 -0.22457176 0.21262497 0.2874136 0.16183726 -0.4940374 -0.092415825 0.3152404 -0.09839642 0.057081558 -0.107520305 0.038390703 -0.0039538043 -0.12775065 -0.038161 0.060487825 -0.32901156 -0.41539928 0.16723137 -0.42297682 0.050477486 -0.12480512 -0.06223372 -0.1290764 0.2586749 0.51438385 0.08472965 -0.04757551 -0.24591543 0.072201915 0.077275604 -0.07571351
273 -0.03186235 0.48059306 -0.049277566 0.13972075 0.17642164 0.039690517 0.24327418 0.37001577 -0.093301065 -0.43362263 0.07927866 0.12537782 0.018545454 0.20099154 -0.0051529794 0.08306049 -0.09468791 -0.116965316 -0.27267817 0.019605197 0.30594108 -0.28238872 0.12068741 0.33308032 0.028950883 -0.029985728 -0.022955954 0.15237276 -0.18298565 -0.3445018 -0.066381685 0.20455374 -0.13353796 -0.019537311 0.12887079 -0.21095303 -0.3326315 -0.045078643 -0.071571685 0.3079433 -0.11965005 0.087787956 -0.09741336 0.08721445 0.4398737 0.4212004 0.04428155 -0.48649508 -0.06690804 -0.02739659 0.117606066 -0.034641575 -0.3063087 0.34031066 0.008837455 -0.2690766 -0.48857746 0.37136087 -0.05108566 0.14048602 0.24488105 -0.20850164 -0.29264465 0.16621076 0.18064421 0.14452393 0.06382248 0.015866991 0.22217382 0.001278946 0.021342173 -0.25709468 0.41511574 0.047631808 -0.063501805 0.23550868 0.04853285 0.3958824 0.12670325 -0.14034481 0.053881045 -0.21647508 0.37606433 -0.1759442 -0.041217174 0.2425283 0.094262525 0.008951826 0.313856 -0.29988438 -0.051697835 0.23421632 -0.20917785 -0.0093763415 0.012777563 0.0695101 -0.2622045 -0.217155 0.41011906 -0.16694982 -0.1240556 -0.592125 -0.3165722 0.4105303 0.18938203 0.28764182 -0.023224814 0.034918364 0.15001316 -0.12640989 0.046547387 -0.12356171 -0.16101578 -0.19692558 -0.09863209 0.043709643 -0.17635216 -0.16504966 0.2471064 -0.11535322 0.20554818 -0.0129400445 0.2297474 0.109764285 0.22104041 0.096232265 -0.30585426 -0.0155429505
14 0.21043542 -0.4977489 -0.30634072 -0.28056613 -0.22951248 -0.42568606 -0.1273738 -0.1707976 0.5454769 0.02248897 0.31401327 0.052379254 0.1227133 0.4804543 0.23490614 0.09721464 -0.3628256 0.38682845 0.21819752 0.9038553 0.628308 -0.10691623 0.00552963 0.46928728 0.51584285 0.16292046 0.20517384 0.55189234 0.28754848 0.271298 0.022381512 0.1762523 0.047357246 0.25350076 0.09400615 -0.20991394 -0.5095867 -0.24619304 0.76466405 -0.39724234 -0.31758824 0.58692724 -0.1505129 -0.115595326 0.62444276 -0.48488575 -0.14216356 -0.10865779 -0.021307547 0.51199496 0.007713711 0.21482274 -0.76751125 0.57225573 -0.03767276 0.038673185 -0.23576096 0.3499128 0.48647314 0.0959446 0.17311917 -0.31340045 -0.44116324 -0.2816043 0.3010721 -0.29150692 0.2601581 0.18805185 -0.4107812 -0.30278105 0.70928884 0.577982 -0.10823732 -0.34797046 0.01944326 0.8150881 0.23039824 -0.18784228 -0.13231818 0.40169492 -0.1713538 -0.93072116 0.24001749 0.11652313 -0.16013479 -0.057832994 0.100787714 -0.23160331 0.57548845 -0.12995902 -0.2177502 -0.3897225 -0.34930736 0.12481868 0.5059714 -0.09490121 -0.19255348 -0.14174567 -0.23492795 0.16929792 -0.5079534 -0.16179298 -0.023365738 0.111063994 0.11681947 0.99885184 -0.09325491 -0.07989449 0.11637287 0.14431764 0.3048142 -0.27449262 -0.51018 -0.06789766 0.3703415 -0.032801587 -0.22173114 -0.20204334 0.086758 0.011523375 -0.39645168 0.3204166 0.01562569 0.332487 -0.10336771 0.027929883 0.1673921 0.1055748
233 -0.30382314 0.022898072 -0.03919539 -0.26700312 0.040877894 -0.4560891 0.6168567 0.04887659 -0.1444557 -0.14990954 -0.26627707 0.020350996 0.37221342 0.17671731 -0.051241927 0.1410001 -0.28843245 0.14655286 -0.2850228 0.10124526 0.4583538 -0.00027384868 -0.13819024 0.03247951 -0.11056175 -0.15129024 0.11841415 -0.08902118 0.48531923 -0.015477216 -0.15996614 0.46927238 0.23379213 -0.1693437 -0.011148547 0.27596447 -0.3062421 -0.11510466 -0.09832296 -0.20286556 -0.0692426 -0.032430034 -0.03731961 -0.11996556 -0.0720584 0.09099846 -0.14943165 -0.37378332 -0.119914025 0.08437129 -0.27636868 -0.2295225 -0.19325155 0.27130067 0.03807702 0.08931499 0.09742516 -0.022024767 0.0106599135 0.22734118 0.27619648 -0.3241371 -0.117229894 -0.2188012 0.24110018 0.017045956 -0.054100167 -0.22255588 0.35545617 0.30421087 -0.22897725 0.1650464 0.03517664 -0.106201656 0.22011536 0.27467632 -0.065247975 -0.027091011 -0.07745015 0.33212417 -0.11953743 -0.3846583 0.26912126 -0.19254671 -0.4093478 0.37957257 0.31637812 -0.15471587 0.21275805 -0.09443308 -0.49740422 0.269795 -0.09268768 0.24718022 0.18841237 0.07947112 0.0807184 -0.043151036 0.05111523 0.07317165 0.28421152 -0.24377792 -0.12744401 0.20077832 0.08324047 0.28501803 0.2253405 -0.35814106 0.055277187 -0.22630359 0.10674576 -0.28023943 0.121296704 -0.47641096 0.02876876 0.0061889305 -0.37700284 -0.025664378 0.15850945 -0.03312541 0.27553874 0.2365121 -0.2802595 -0.0339123 -0.005839965 -0.036373086 0.2483064 0.4141937
351 0.39664647 0.31840628 -0.36132178 0.15721604 -0.18128201 0.15298067 0.0060048434 0.25843677 0.3616755 -0.0392942 -0.4182317 -0.07557472 0.3854992 0.28591692 0.012426235 -0.17162827 0.18514001 0.08989289 -0.07867428 0.54249096 0.55929726 -0.06398967 -0.09244561 0.047062054 0.14613444 -0.03871951 0.34396505 0.14858052 0.1197138 -0.2845451 -0.035509173 0.3656742 -0.31178448 -0.1142141 0.08422576 -0.114752635 0.08029814 0.0461981 0.12560733 -0.16633509 -0.28798288 0.3346819 -0.16683447 0.0112664085 0.21101916 -0.22238208 0.005096857 -0.15127587 0.17162554 0.12989922 0.3486351 -0.033640027 -0.43884766 0.4157771 -0.11052776 -0.38673705 0.114177026 -0.20423156 0.3489616 0.18418616 -0.011819571 0.17179005 -0.06816006 -0.049743403 -0.5187204 -0.5902548 0.37730438 -0.17792872 0.46827522 0.07646361 -0.2501389 0.109178625 0.18451095 0.36698696 0.2394339 0.48510948 0.39316523 0.12644155 -0.35020623 0.46193865 0.22611833 -0.30337116 0.7087891 0.4670523 0.029712068 0.04780503 0.21987307 0.109682195 0.25707313 0.27527487 -0.08418587 -0.06735966 -0.40360883 -0.10399044 -0.13044271 -0.08937534 -0.51957434 -0.28247228 0.09890213 0.08908311 0.3946024 -0.08061215 -0.37217468 0.091472775 0.14877658 0.3815335 -0.09662866 0.09942018 -0.18628582 -0.17879146 0.011061946 -0.5707152 -0.012678152 -0.12626965 -0.2650741 -0.12651077 0.09038833 -0.039844077 0.39818197 0.3745513 0.40120393 -0.10944806 0.17276908 0.08498858 0.031208128 0.5462045 0.072740555 -0.50287354
162 0.126718 -0.04384881 -0.18647851 -0.17253876 -0.10714192 -0.04848127 -0.03530235 -0.104188375 0.02023432 -0.014594929 0.22444381 0.29337972 0.016893316 -0.009822756 0.03424462 0.055303488 -0.18386082 0.13163239 -0.5287445 0.54865897 0.17178985 -0.035013597 0.11119894 -0.13190745 0.058405843 0.14808719 0.13312666 0.16058631 0.10769657 0.039743952 -0.042188868 -0.15805224 0.104756735 -0.114900164 0.14473839 0.30038786 -0.02336454 0.24255523 -0.3610864 -0.038407523 -0.22243316 -0.3656147 -0.19617094 0.09148739 0.20360786 -0.03825395 0.540761 -0.519602 -0.054659743 -0.100999825 -0.19801843 0.026155539 -0.47715318 0.09516306 -0.2506859 -0.07714045 0.04030445 0.13100861 0.13063 0.009224512 0.1663136 0.08431153 -0.18938524 0.207266 0.05786801 0.06467811 0.007183145 0.18818554 0.47582185 -0.21745595 0.30735406 -0.070086144 0.10287972 0.30573016 -0.047482226 0.19746809 0.3325317 0.18538848 -0.2605892 0.09798612 -0.030122817 -0.20327038 0.3182156 0.31358606 -0.3232457 0.4344509 0.22652273 0.039425287 0.3100645 -0.27453464 -0.36719596 0.36909944 -0.15468194 0.25022995 0.159846 -0.086068414 -0.3278901 0.040296473 0.032558806 0.016226295 0.10967246 -0.5239731 -0.053967826 0.2743079 0.46229514 0.23562309 -0.26640892 0.08207412 0.15056136 0.06350564 0.0033938256 -0.070791855 -0.13956834 0.010452941 -0.15399082 -0.022597095 -0.12198189 -0.2931493 0.06578956 -0.35653836 0.14588244 0.06091939 0.064139366 0.105466664 0.056237612 -0.014735748 -0.16322395 0.18955728
21 -0.3605218 -0.08607315 0.025873907 -0.2804802 -0.0762742 -0.25730434 0.08105421 -0.2267442 0.924135 -0.7133289 -0.15226643 0.044166222 0.38246202 0.101244606 0.12768851 0.2697002 -0.07202411 0.017000454 -0.19061479 0.50342333 0.43836838 -0.4644457 -0.03698467 0.87083215 0.25419572 -0.24410981 -0.41159812 0.107780166 0.43898454 -0.21524204 -0.18167166 0.14526601 0.3980685 -0.0980167 0.4846124 0.024140181 -0.15356591 -0.58479667 0.3311555 -0.20066154 0.0056227446 0.11605417 -0.08056688 -0.50599265 0.21745625 0.18704063 -0.18530318 -0.09043203 -0.10005278 -0.25243115 -0.3275099 0.15536508 -0.3979246 0.38910776 0.27693713 -0.10497941 0.20080385 -0.07624283 0.19397435 -0.09205581 0.41088876 -0.21780716 -0.4810397 0.24023345 0.07577818 -0.35193476 -0.005682046 -0.23567434 0.11084282 -0.24413514 0.09708139 1.2272214 -0.38112614 -0.3055233 0.21995789 -0.14662758 0.10914968 0.2265016 -0.066038966 -0.08904388 -0.13547854 -0.34093583 1.0321748 -0.06684417 -0.6455881 0.00018279169 0.50382614 0.22182545 0.41313905 0.20723997 -0.28758234 -0.40546584 0.3021957 0.17556503 0.090714455 0.22079885 -0.41660595 -0.30125377 -0.2830839 0.49640593 -0.04695557 -0.52868867 0.28720635 0.4705351 0.37451923 0.67672455 0.14094605 0.112402536 0.24646401 -0.05162043 0.41109148 -0.46446422 -0.15323143 -0.29498678 0.11931086 0.14604582 0.10835243 0.11076163 0.22766005 -0.48758107 -0.053413205 0.11239115 -0.17874838 0.43745098 -0.18687826 -0.005422235 0.15712227 -0.19400789
330 0.09798932 -0.20469514 0.092972904 0.104029804 -0.09876791 -0.24992295 -0.09343532 -0.03476671 -0.1319344 -0.02432314 0.1518167 0.07650561 0.26232147 0.22406664 -0.034098513 0.11577907 -0.11793695 -0.07970327 0.2366688 0.093506776 0.08922872 -0.36333063 0.14816105 0.1978375 0.2845647 0.15876459 -0.22418194 -0.16448726 -0.014046343 -0.3303621 0.052388582 -0.25457063 -0.020579133 0.05112265 0.10288851 0.21820927 -0.310525 -0.14319873 -0.12817444 0.1400871 -0.39597225 0.09658038 -0.49952903 -0.29657874 0.31322247 0.026818892 0.32946485 -0.046235874 0.4215054 0.2174663 0.16519935 0.014865644 -0.49372497 0.119451046 0.0027561807 -0.08035501 0.13518208 -0.02956578 -0.13204354 0.15584266 0.09837132 -0.08172752 -0.23148833 0.20764862 0.1879259 -0.15408704 -0.08823314 -0.12596564 0.12823726 0.1225063 0.018032461 -0.15314303 0.12107271 0.36729205 -0.10756377 0.17835018 0.29837054 0.36672708 -0.059997283 -0.09927883 -0.055505153 -0.25969183 0.40088665 -0.0072088502 0.006934372 -0.2371485 0.14629106 0.30014536 0.2619927 -0.18715413 -0.57210094 0.104284145 -0.010934849 -0.35821146 0.15092506 -0.035283647 -0.23806748 -0.0012544118 0.049453404 0.12582539 0.26383787 -0.38887545 -0.069249086 0.50119793 -0.034008723 0.29627773 0.0019233947 0.0070420965 0.06484556 -0.13819385 0.116794854 0.2046442 -0.2432709 -0.063106835 -0.090544604 0.25147325 0.36159787 -0.17921248 -0.09562923 -0.049472395 0.3312668 -0.182129 0.1298637 0.16490072 -0.1269337 0.18970093 -0.6724107 -0.052432984
249 -0.096751034 0.020561753 -0.14279805 0.11238727 -0.2703362 -0.27229884 0.11295154 0.021292627 -0.054252297 0.1684704 -0.33600703 0.16303338 -0.27298245 0.103271395 0.099696204 0.14569218 0.006167837 0.18402113 0.049274456 0.39070195 0.3598313 -0.22350429 0.34699568 0.13217348 0.06349906 0.06785275 0.3440524 0.25938922 0.14466941 -0.37751332 0.13660191 0.31875914 -0.06775211 0.16302286 -0.14477326 0.21747275 -0.068505175 -0.63716865 -0.23265773 -0.31673622 -0.38321397 0.3590211 -0.49118647 0.35465786 -0.09523917 0.1491124 0.10036459 -0.15286411 0.027389046 0.25704184 0.35231236 -0.069535926 -0.6212599 0.2229393 -0.111540794 0.1782847 -0.036694538 0.0047610383 -0.072877124 -0.07962648 0.18164952 -0.15151776 -0.08868121 -0.091044135 0.14724976 0.17753232 0.0378206 -0.3636054 -0.02470967 -0.092310324 0.117664784 -0.059876837 0.41614 0.12741049 -0.11645316 0.2774215 -0.30225787 0.13810207 -0.38653454 -0.021308964 -0.17997508 -0.20899662 0.3634813 -0.18732369 -0.32381493 0.05442824 -0.04036437 0.10710144 0.09614094 -0.087542646 -0.070943914 -0.00024573784 -0.14888258 -0.09615779 0.268376 0.2110679 -0.0018364299 0.0136775905 0.20956182 0.21114056 -0.13554007 -0.15725318 -0.09638463 0.2556929 0.110410914 0.3468204 0.107528575 -0.38967052 -0.1683337 -0.12498011 0.4129273 -0.061382007 -0.24537587 0.10055709 0.09398 0.025618065 0.5106948 0.12907985 -0.081387974 0.2030727 0.42787328 0.13992986 0.39525098 -0.14742318 -0.3373501 -0.089023456 -0.04424858 0.42011222
59 0.05144711 0.074822254 0.28536615 -0.17860147 -0.0566987 0.072818466 0.49024156 -0.28196272 -0.02476598 -0.16094092 0.030222848 0.23533331 0.028514488 0.10241626 0.032077245 -0.036333196 -0.31758085 0.060198728 -0.27419147 0.0029411796 0.32816684 0.0020800899 0.0739675 -0.0083832145 0.030894486 -0.18030733 0.07383926 0.069650814 -0.15755448 -0.49489263 0.18767937 0.14319916 0.31621832 0.06969923 0.047474336 0.4307876 -0.011557514 -0.066127285 0.13448642 0.103322886 0.08301292 -0.2570406 -0.20094717 -0.09507711 0.2320968 0.20924164 0.35374713 -0.3984725 -0.1883046 0.15660517 0.4190503 -0.18033513 -0.112416744 0.37179184 -0.09900834 0.2196842 -0.072864674 0.022243163 0.023877373 0.10004644 -0.005424322 0.3202052 0.15477529 0.34319437 0.09836019 0.014718714 -0.1257117 -0.2228606 0.102715336 -0.07147844 -0.10894201 0.14312005 0.3991858 0.24765351 -0.16056922 0.1765696 -0.014408798 0.30988201 -0.3388931 0.107714765 -0.22090763 -0.675608 0.31577712 0.081252955 -0.22309639 0.3829442 0.45847023 0.10664871 0.32874408 0.26556802 -0.27067527 0.29371393 0.38726288 -0.08234936 0.25022686 0.16395228 -0.6507142 0.03892725 0.063975014 0.34004802 0.1894761 -0.026711695 -0.20720223 0.21444136 -0.25942388 0.23121804 0.12706506 -0.119668454 -0.17949168 0.30808067 0.25785857 -0.15527683 0.12695631 -0.20713419 -0.008257917 -0.0642431 -0.09990846 -0.1948207 0.22870836 0.2066691 0.12830354 -0.1684533 0.15542391 -0.18919463 0.09596036 0.43470076 -0.048455026 0.29213655
140 -0.12194233 0.006639827 0.114986144 0.118986405 -0.1409366 0.017770357 0.17103365 0.15974875 0.10903265 -0.066213325 -0.09071142 0.3886516 0.08339111 0.03155725 -0.024308573 -0.275934 -0.32427958 0.16609496 0.15467478 0.40601465 0.36836848 0.06981341 0.05522551 -0.084775776 0.0631509 0.02515733 -0.15630573 0.34687054 -0.097436115 -0.029429002 -0.19520603 0.04770595 -0.12772724 0.22974291 -0.004746486 0.29761738 -0.17665045 -0.032513887 0.17973231 0.27591822 0.06426197 0.34156847 0.20166045 0.21035993 0.23083302 -0.062085923 -0.24437626 -0.40899163 0.19489901 0.25308618 0.46849293 -0.17359358 0.16111737 0.20311315 -0.04437419 -0.08864027 0.12837543 0.016514478 -0.16107528 0.05119293 0.2754993 -0.23146795 0.29187474 0.1466861 0.33859167 -0.36387104 -0.04559673 -0.084651805 0.24631153 0.009732768 0.3031263 0.116373986 -0.11379311 0.2241415 0.4264561 0.23393181 0.271718 0.11099453 -0.08171354 0.0016927429 0.13867241 -0.49325827 0.41325325 -0.06752507 0.11907786 0.10811372 0.13322425 -0.49823594 -0.20908764 -0.24625286 -0.41022402 -0.0153932795 -0.077582575 -0.17805655 0.40822345 0.2970319 -0.25141668 -0.40500125 0.14585502 -0.024592362 0.06603968 -0.473075 -0.070921496 0.20802957 -0.18156016 0.31074825 -0.006778343 0.035158332 0.15310502 -0.267608 -0.17571409 0.20559846 0.13659051 -0.589782 0.11436928 -0.1944667 0.1500036 -0.2950219 -0.09636311 0.17781025 -0.09580899 0.010326777 -0.12605678 0.27663395 -0.14855787 0.034914475 0.024273783 0.1652215
56 0.037434556 0.0133893825 -0.25892636 0.18750063 -0.01869275 -0.124431424 0.16116208 0.049839202 -0.17052294 -0.17622885 0.13602844 0.15705557 0.353734 0.004870817 0.084783785 -0.12832569 -0.044842195 -0.06400533 -0.19478367 0.07114188 0.28357255 0.0092083635 0.18987639 0.06570873 0.2673758 0.60020864 -0.15858415 0.21695557 -0.02900248 -0.06631412 0.20648386 0.02700594 0.032335848 -0.045780238 0.048927136 -0.16590141 -0.034381937 -0.005601221 -0.10374439 -0.015824463 0.19067769 0.21408083 -0.27278644 -0.05950956 0.32212347 0.27413112 0.02804515 0.0949278 0.2269997 0.057409935 0.00013370282 -0.15811136 -0.33916348 0.28141224 -0.13379934 -0.049641162 0.0796738 0.14443578 0.36237553 0.030615218 0.14494278 0.23787168 0.21412057 0.11697117 0.031837035 -0.13431542 0.16735922 0.040349234 -0.052117642 0.23278728 0.6137409 0.16119169 0.20216455 0.5196658 0.08842141 -0.12683608 0.35755828 -0.09798149 0.21368055 0.23697062 -0.118726976 -0.5353146 0.2973648 0.07263246 0.26034626 0.2834185 0.33925477 -0.23461188 0.39869824 0.036167957 -0.56401765 0.11987332 -0.3394105 -0.22207676 0.039277628 -0.2972655 -0.14628068 0.07405513 -0.1743143 0.49493247 -0.063566945 -0.2228196 0.05143747 0.19417189 -0.12786455 -0.04975896 -0.20258167 0.32901877 0.11998509 0.45604748 0.41398036 -0.34588835 -0.048432816 -0.23901786 0.10598333 0.20007275 0.13381205 -0.12224305 -0.13329844 0.13456494 0.20938289 0.21167082 -0.040569644 -0.06760251 0.0645529 0.025159877 -0.25527093 0.2321214
62 -0.03314731 -0.14701734 0.23123021 -0.0477949 -0.27792192 -0.19264947 0.20306788 -0.22266005 0.06552749 -0.27474645 -0.26374125 0.2355488 -0.056891456 0.4137962 0.20056789 -0.22091655 0.044553135 -0.033788003 0.07873272 0.19335258 0.13666867 -0.28372633 -0.12198747 -0.12757608 0.31792 -0.1289595 -0.3026744 -0.07583409 -0.0010999491 0.054111507 -0.2800769 0.0045083514 -0.37494883 -0.020693058 0.28613877 -0.0343449 -0.017436188 -0.22299807 -0.09783673 -0.098939314 -0.3192082 0.174023 0.14164749 0.15081012 0.061316863 0.06411655 0.07121198 -0.48661634 0.23468779 0.06839393 0.057178736 -0.17117052 -0.45211455 0.39728904 -0.065808 -0.0079816785 0.19409789 0.053985234 0.37988555 0.19919138 -0.123259984 -0.19507103 -0.27588478 -0.28968132 0.17391555 0.3539613 -0.11947028 -0.02346988 -0.017298825 0.21675509 -0.0025959995 -0.07086728 0.19968796 0.11711691 0.23702584 0.5827293 0.12539683 0.2945557 0.21917373 0.046037503 0.26079893 -0.025275182 0.6152219 -0.17935567 -0.21050483 -0.12630846 0.40233508 0.10281133 0.6003374 -0.06306488 -0.07116649 -0.064659566 -0.47209993 -0.19359972 0.2904652 0.02553991 0.009522842 -0.012914026 0.014387972 0.0064996565 0.24482177 -0.30752543 0.26420784 0.17023051 0.3537367 0.27594626 0.07029351 0.109195724 0.22032823 -0.350786 0.41537875 0.07934501 -0.4484916 -0.06435566 -0.22157401 -0.10064684 -0.032746293 -0.06602309 -0.0779932 -0.03812238 0.15616024 0.28928566 -0.22876157 0.17973399 -0.21020004 0.48541027 -0.067848854 0.027731454
120 0.3071329 -0.16062026 0.073159605 -0.026640378 -0.03630107 -0.003812962 0.33722425 0.017344875 0.30387473 0.0052633034 -0.048857536 0.2508869 0.32441506 0.046824533 0.09572658 -0.2454222 0.09586705 0.0016184367 0.21182674 0.07814106 0.3810519 -0.102252066 0.21411043 0.34056604 0.32379502 -0.19778326 -0.3080909 0.27471364 -0.21033978 -0.36077514 -0.20715362 0.09097251 -0.05300259 0.15579385 -0.052053977 0.20956522 0.29297757 -0.29906172 0.3032423 -0.0075073335 -0.031083502 0.10156145 -0.2717584 -0.18718547 0.21891138 0.010469339 -0.44484574 -0.29891145 0.2974887 0.069595896 0.14431788 -0.50814426 -0.17867339 0.22147626 -0.12442862 -0.12645312 0.08589117 -0.13648473 0.45022482 0.19523913 0.16856499 0.3174168 0.027397674 0.17340223 0.4709806 -0.25147673 -0.08742567 -0.33447284 -0.08554718 -0.2895185 -0.074832715 0.24486452 0.34511134 0.32629266 0.18208665 -0.15127814 -0.08568086 0.051955994 0.24229154 0.32838452 0.0740452 0.013504285 0.28710577 0.26278043 -0.11004599 0.2665878 -0.028531872 -0.44462752 0.14887962 0.3014634 -0.013581555 0.0894869 -0.06362487 -0.13886942 0.2913467 -0.24357723 -0.30304512 0.024387017 0.098551705 0.24535888 -0.13318467 -0.19856699 -0.31843758 0.095327064 0.23339087 0.17621171 0.23771156 0.22668256 0.3092616 0.13490689 0.08155209 -0.3170654 -0.06906889 -0.116451964 0.05295875 0.010338746 -0.0994866 -0.24412803 -0.09416531 -0.30761784 0.18163213 -0.19056821 0.4169012 -0.21656466 -0.21614364 0.16316245 0.05137678 -0.062115766
334 0.2367065 0.10752075 -0.19973542 0.03504637 0.017786203 -0.21878722 0.3250716 -0.09586358 0.13527486 -0.14966498 -0.0323556 0.25049442 0.0007717884 -0.04034234 -0.12198345 -0.06801144 0.054273065 -0.06471562 -0.14055602 0.2449505 0.46451834 -0.1639593 -0.0028147104 0.29848278 0.16964161 0.12112949 0.10818622 0.11448152 0.19691533 -0.07412945 0.036826767 -0.15599461 0.32596278 0.26128736 0.1295125 0.03312456 -0.028901076 -0.5030133 0.34270966 -0.19925283 0.11193206 -0.091680445 -0.27439237 0.21431272 0.14857066 -0.07148651 0.11110987 -0.07553674 0.005888903 0.3438568 0.22741067 -0.029085714 -0.28753948 0.5633031 -0.2303972 0.23044632 -0.24993931 0.11295656 0.1007116 0.68636304 -0.19856164 -0.14912641 -0.09064086 0.040638514 0.52663285 0.108766854 0.05408626 -0.30930114 0.11260411 -0.41586187 -0.19778664 -0.06526978 -0.009678231 -0.13375553 0.17760758 0.015382582 0.21462427 0.07375727 0.024633894 0.08472485 -0.1962005 -0.49520347 0.041467927 0.107868575 -0.3173302 -0.05261127 0.25908372 -0.09519406 -0.10188557 -0.38337725 -0.22449575 0.030688953 0.10624022 -0.046434097 0.18794604 0.13711175 -0.22755435 -0.1652574 -0.06409742 0.34733614 -0.099906355 -0.45110047 0.047011275 0.29984903 0.29192185 0.035400428 -0.298385 0.106635846 -0.16732663 0.05468877 0.13526121 -0.291511 -0.21114786 -0.29941487 0.13042876 -0.30567303 -0.21574609 -0.3357135 0.19467413 0.31337035 0.21137853 -0.12951404 0.39408204 0.18209702 0.07673885 -0.0003770279 0.068970725 0.20736305
9 0.10457831 -0.2431725 -0.28648368 -0.3304131 0.06639989 -0.30800477 0.2592532 -0.21470991 0.22490597 -0.035960518 0.28394073 -0.069213904 0.4001748 0.3043267 -0.085319914 0.108594745 -0.42949596 0.18976115 0.39379185 0.5883386 0.3256081 -0.36822623 0.11013198 -0.06501463 0.29552943 0.26440677 0.15808986 0.3309697 -0.17765819 0.2075839 0.2670397 0.16705698 0.17859684 0.29831904 0.13504851 -0.06537928 -0.4902216 -0.38545185 0.68977565 -0.052147243 -0.3272511 0.33418277 -0.265424 -0.18953776 0.17564532 -0.45142522 -0.19153234 -0.0647313 -0.15069011 0.6103243 0.24234068 0.042290557 -0.8175461 0.32152066 0.114787236 0.16138658 -0.16239786 0.5257396 0.46998775 0.26635098 0.043706857 -0.2135738 -0.2809226 -0.14620541 0.40467754 -0.23859869 0.37568545 0.15189385 -0.27694446 -0.12514183 -0.031898323 0.04239329 0.12917264 -0.19261622 -0.23466592 0.411723 0.28706583 -0.008736648 -0.065088846 0.36859572 -0.24058941 -0.41360638 0.14606553 -0.27431783 -0.076243535 0.10357251 -0.057111494 -0.22379014 0.25665438 0.06246687 -0.32957014 -0.33676016 -0.21668355 0.11233563 0.39408424 -0.09160242 -0.027764944 -0.08953855 -0.48042768 0.08285248 -0.17747152 -0.10533433 0.09897114 0.5846547 0.09195206 0.5568777 -0.28973895 -0.030349037 0.1646678 -0.07365991 0.04396992 -0.139107 -0.59128594 -0.011835806 0.22921552 -0.22402017 -0.16650356 -0.28430188 0.046169013 -0.083008386 0.03323294 0.15632127 -0.18463548 0.0713698 -0.07333636 -0.03920064 -0.09189127 -0.12998196
132 -0.047845732 -0.44612217 0.13801722 0.35777238 -0.15316327 0.087206535 0.23370913 -0.029573686 -0.1443079 0.037208866 0.010313856 0.018645842 -0.27471113 0.34506536 0.1362707 -0.023102656 -0.3182817 0.08795693 -0.10921106 0.15931565 0.3387944 -0.003321437 -0.098442875 0.102027476 -0.1364302 -0.15758777 0.05235176 0.4997284 -0.37083885 -0.36246535 -0.051729243 -0.18280122 0.28999898 -0.04287253 0.12904537 0.32442972 -0.3698748 -0.1701317 0.15491669 -0.065012746 -0.2680544 -0.076139934 -0.4051544 0.031641558 0.054375798 0.30722612 -0.11935414 -0.19137008 0.22406022 0.14539425 -0.02662027 0.11254824 -0.37724242 0.22963049 -0.04695509 -0.07788276 -0.1975973 -0.123142764 0.10478846 0.21363667 -0.23722816 -0.22617283 -0.19060612 -0.09602437 0.09121322 -0.1364326 0.21537249 0.12344569 0.028742911 -0.10538043 0.36549985 0.30959037 0.0009781746 0.20474829 -0.085923515 0.20793352 0.2827442 0.20701241 0.057037458 -0.32181883 -0.057805203 -0.4478305 0.41206437 0.15135705 -0.38616198 0.10421582 0.44411668 -0.23022793 -0.09502933 -0.016406864 -0.3845185 0.063503295 -0.43993267 0.18260491 0.0013569447 -0.22525749 -0.18909043 -0.28273296 -0.20505394 0.26393285 0.09160419 -0.04801976 -0.31601158 0.14588726 0.10523697 -0.17711744 0.07867479 0.07858127 0.10257197 0.042019926 -0.056345187 0.074417435 -0.23098667 -0.1868271 -0.29975703 -0.48444015 -0.060575254 -0.17228757 0.34623688 0.12473076 -0.3405996 0.29382816 0.1318636 -0.032339502 -0.082097165 0.106067434 0.015208007 -0.038215883
137 -0.19746481 0.20894353 0.11015051 0.26361153 -0.32902887 -0.009826971 0.15926972 -0.0009952035 0.020655027 -0.19666584 -0.08447963 0.40853423 0.049292285 -0.13710542 0.12516727 -0.40649027 -0.16615447 -0.025024457 0.017889485 0.42419443 0.41958666 -0.4742439 0.23932725 0.27047586 0.058184754 -0.12145214 -0.33463642 0.60693157 -0.24681076 -0.5089663 -0.17279477 0.22596313 0.105235055 -0.040226262 -0.1946028 0.04788139 -0.04439113 0.078873195 0.13593051 0.009728683 -0.25216046 -0.24087937 -0.29334748 0.08655814 0.04984792 0.21638191 -0.019781377 -0.5146816 0.12966482 0.34850353 -0.07315681 -0.06860099 0.056358136 0.15588562 0.023155047 -0.20435573 -0.07713343 -0.10990927 0.11624463 0.44166383 0.075223766 -0.22122446 0.15993088 0.3825885 0.20293638 -0.15106477 0.29596153 -0.25602219 0.31754783 -0.069770485 0.13313074 0.12768435 -0.048518777 -0.049330674 -0.06253876 0.077353686 0.1282978 -0.1487415 -0.017422605 0.1131893 0.031166831 -0.5152349 0.04108048 -0.035693213 0.027421255 -0.22627446 0.1654292 -0.1239965 0.17812355 0.32573205 -0.00033280154 -0.16119252 -0.07571676 -0.10098492 0.052640248 -0.05433037 -0.11435493 -0.12181798 0.18333706 -0.021485297 -0.026494302 -0.32002467 0.012286841 0.16426076 0.0021278907 0.5030856 -0.13626605 -0.16256052 -0.32848993 -0.21824527 0.41961062 0.20436779 0.22308046 -0.26518363 0.056446683 0.017260311 -0.057081375 -0.3656548 0.103346735 0.026807532 0.09386737 -0.11668902 0.1154524 0.09347359 0.2335083 -0.17004909 -0.25223744 0.08607578
314 0.08375313 -0.09134396 -0.04038166 0.12106705 0.0048922254 -0.18433863 0.2656457 0.34216902 -0.11779327 0.034676723 -0.20791255 -0.28376344 -0.15639587 -0.08323271 0.13926703 -0.18076012 -0.15783735 0.23090199 -0.2791619 0.08930436 0.27831256 -0.22411588 0.17327155 -0.013322011 0.06906281 -0.31105763 -0.20693022 0.010382139 -0.09925234 -0.10733664 -0.28062913 -0.08339032 0.13441446 0.17741644 -0.18939048 0.2196344 0.14806904 0.08924774 0.14164218 -0.17602317 0.17225754 0.33248192 -0.407144 -0.19114551 0.23862733 0.1815759 -0.092163205 -0.37741473 0.15907449 -0.070382394 0.16125335 -0.024186337 -0.29257163 0.19105121 0.035376016 0.25090128 0.14614904 -0.27343538 -0.2128193 0.08627634 -0.10169163 -0.11374661 -0.16644791 -0.06260752 0.12892175 -0.18666412 -0.0022172078 -0.26529825 0.09771336 -0.13239199 0.2987215 0.20436099 -0.0069761486 0.18055026 -0.036455162 0.12865885 0.17834222 0.29205415 0.29055968 0.1003264 -0.05532882 -0.15923968 0.42180356 0.18776877 0.029646033 -0.16376002 0.014045492 -0.14031821 0.42276022 0.014458033 -0.20176485 0.27140868 -0.10555544 -0.30715463 0.20947704 0.07845535 -0.1566322 -0.032865353 -0.15202011 0.034569733 0.21648277 -0.24119486 0.14775293 0.19350606 0.14718804 0.11150274 0.09708491 -0.23250666 0.03244562 -0.24530506 0.45391238 -0.12347645 -0.12632471 -0.51149225 0.1329825 -0.10291973 0.28991723 -0.15713133 -0.2716092 0.16884376 0.21925052 -0.019432135 0.13063942 -0.14602423 -0.1255656 0.36961964 0.16236573 0.011397284
258 0.115085624 -0.027730962 -0.12375123 0.21622446 -0.18098675 0.12851585 -0.08788543 -0.07779908 -0.13010275 -0.2217717 -0.091932796 0.21306889 -0.21817455 0.1337437 -0.23450644 0.17189108 -0.09315729 -0.1582957 0.017905118 0.10269022 0.023253754 -0.008941092 -0.21173821 0.76197267 0.393453 -0.53244686 -0.33910066 0.11564917 -0.07760534 -0.18059878 -0.50853133 0.2770513 0.076552786 0.04734173 0.0075277262 0.19760604 -0.07574476 0.073446415 -0.11781427 -0.22875069 -0.3906858 0.10996689 -0.4015785 0.014677353 0.031057036 -0.00928345 -0.080209814 -0.16820967 -0.21315318 -0.08117729 0.13710399 -0.15260954 -0.2611659 0.53214085 -0.2009177 0.18079223 -0.0036015483 -0.20182754 0.29273152 0.12411743 -0.15924335 -0.0213008 -0.028120702 0.09055988 0.26447117 0.09455478 0.4024925 -0.14493841 -0.07318274 0.0658033 0.1902073 0.18527904 0.25984356 -0.06638159 0.06981653 -0.042244487 0.017879656 0.039193265 0.042309143 0.09847215 -0.13036121 -0.34448713 0.014183537 -0.008173033 -0.120812185 0.012541422 0.35286528 0.06509975 0.43537858 -0.10073436 -0.39361778 0.028236298 -0.3167269 -0.5394849 0.1922144 -0.18127751 -0.18593432 0.27511486 0.1791756 0.18782173 0.2609985 -0.38379174 0.10473667 0.39487132 0.36773184 0.13883065 0.26211172 0.29538494 0.0802126 -0.21475628 0.062393628 -0.060675476 -0.13976924 -0.37465283 0.27313852 0.36108702 0.11787488 -0.054238256 0.0821838 0.07618451 -0.20553033 0.15647416 0.34738052 0.106093995 0.064971305 0.24379924 0.22262447 0.008375716
26 -0.051432423 -0.13270977 -0.14692642 -0.24062611 0.026913589 -0.40305898 -0.11297261 -0.010310102 0.8071056 -0.9188545 -0.17777939 0.076687366 0.19216779 0.27942863 0.27866048 0.43064705 -0.17122892 0.4290865 -0.33009753 0.497613 0.66422236 -0.3447251 0.3161167 0.9350869 0.34669665 -0.14435467 -0.31503808 -0.059213437 0.23591672 -0.096942276 -0.2419472 0.122384205 0.49909216 0.3528365 0.2194359 -0.037223928 -0.050094265 -0.5420015 0.23736618 -0.37627983 -0.06744561 0.073305935 -0.36360893 -0.64952457 0.5387178 0.1935119 -0.2261877 -0.01950534 -0.12634163 0.06847447 -0.1286643 0.43139789 -0.37398922 0.852253 0.5828528 -0.1155456 0.4772557 -0.13524605 -0.26169258 -0.33870468 0.41298217 -0.32366055 -0.25034583 0.33413455 -0.019552633 -0.8138037 0.36533785 -0.006462782 -0.056674767 -0.27619696 -0.020344524 1.0033703 -0.40428287 -0.02083419 -0.13459596 0.19565262 0.24442166 0.60880274 0.1309705 0.26784894 -0.46606025 -0.54049855 1.1002688 0.02435428 -0.6525054 -0.165646 0.8958013 0.10746909 0.30782932 0.52907723 0.069917835 -0.29305664 0.39172575 0.24359047 0.2624659 0.42827064 -0.486762 0.024447966 -0.073069505 0.8391559 0.38181376 -0.28794947 0.18980128 0.8095898 0.042700816 0.9442517 0.24764171 0.07538054 0.22987096 -0.21292584 0.73224837 -0.58882433 0.038616113 -0.13868146 0.53154725 0.5417177 0.052410778 -0.08586151 0.30611965 -0.1661502 0.03884808 0.08887641 -0.5695031 0.60296273 0.08605182 0.26082802 -0.012223542 -0.15525253
129 -0.27896258 0.037893817 -0.22572461 -0.03840302 -0.0906932 -0.12319313 0.27125207 0.15633754 0.001875246 -0.0044854823 -0.33839604 0.034309044 -0.31551164 0.2100185 -0.014649126 0.14322409 -0.10776375 0.004131086 0.065626875 0.5268947 0.38269353 -0.13889694 -0.1574154 0.0834193 -0.13884006 -0.06256737 -0.21478637 0.016058763 -0.13276555 -0.06545034 0.1139706 -0.25784034 -0.27278513 0.14731002 -0.11223993 0.59705156 -0.025627974 0.13137722 0.10241384 0.25437665 -0.0638652 -0.035977732 0.15270208 0.13107127 0.123591274 -0.39508852 -0.15603334 -0.1506703 0.058517244 -0.09407707 -0.12635107 -0.46727145 -0.35932866 0.4130546 -0.14162377 -0.167346 -0.1107772 0.1800769 0.24110113 -0.20980772 0.037196293 0.07195121 0.18630624 0.062116485 0.13357832 -0.16888662 0.10539676 0.15621941 0.26302263 0.13069531 0.40643448 0.6713574 0.2867812 0.2605701 -0.19749479 0.28610754 0.029339094 -0.16025826 -0.04683733 -0.039799247 0.12359213 -0.4884064 0.35114908 0.14497639 -0.18368562 0.058087427 0.42327544 0.45336062 0.31762683 0.0074409307 -0.017325839 0.1255151 -0.23560672 -0.11363371 0.28931406 0.09445207 -0.0014843255 0.34511375 0.2186177 0.30692467 0.16488792 -0.09096013 -0.26940447 0.16852288 0.25091866 0.25469464 0.09487724 -0.047599252 0.23237634 0.020522578 -0.16656813 0.03010482 -0.08588873 -0.13045149 0.12692766 0.029496387 -0.17851785 -0.2256738 0.29825312 -0.15848327 0.20911743 0.04396443 -0.2290379 -0.28214252 -0.18065389 -0.012241703 -0.11837717 -0.13289286
126 -0.24136001 -0.2388749 -0.047043305 -0.21407849 -0.2238732 0.1705627 -0.012797433 0.53802806 0.12946779 0.16180283 0.046289474 -0.026578631 -0.1451726 -0.057533972 0.020110197 0.14520228 -0.19147465 0.11733251 0.050542835 0.379364 0.036128245 -0.052206863 -0.104865886 0.016469913 -0.34597206 -0.078493126 0.059198868 0.27269924 0.2036964 -0.015654592 -0.32635486 0.34119996 0.21313246 0.10861838 0.05415484 0.29151595 -0.2415107 -0.00785762 -0.08106725 -0.034409005 -0.11753218 -0.10744374 -0.27170783 -0.09831363 0.32894316 0.17387152 -0.21461198 -0.40430284 -0.005839996 -0.03464818 0.20201682 -0.06759742 -0.6508671 0.37563774 -0.109832734 0.367515 -0.015388632 -0.07319148 0.35017812 -0.2259814 -0.021194378 -0.006205767 0.19115072 0.34316653 0.28948596 0.13139369 -0.07997694 0.13466288 0.1589462 -0.14341074 0.5053142 0.25050214 0.14277843 0.31851313 0.216134 0.24000593 0.23410603 -0.06793862 -0.17067018 0.05312739 -0.14060375 -0.26237586 0.21798219 -0.15424739 -0.42860204 0.17689532 0.013647096 -0.09554948 0.3850139 -0.08654762 -0.14727056 0.015778676 -0.03265104 0.19908443 0.18813245 -0.009982425 0.12187912 0.002430691 0.15104705 0.24502838 0.06827323 -0.020398533 0.23145781 0.36961383 0.12234452 -0.07068193 -0.09981493 0.28258482 0.10193803 -0.06496469 -0.17841677 -0.024451751 -0.26127186 -0.17088923 0.12773053 0.026471913 -0.22363904 -0.097494155 -0.34790534 0.37555403 0.4243285 -0.44662538 0.34589893 -0.3030962 0.21868937 0.21809283 0.27279627 0.0760811
123 0.15535243 -0.06468543 -0.102864474 -0.4089287 -0.16348158 -0.31591928 0.23285976 0.08286802 0.2767471 -0.23869874 -0.0627793 -0.07283827 0.02794601 0.4185531 -0.031720344 0.06911224 -0.22255118 0.2737951 -0.2011208 0.59320897 0.15963964 -0.14877428 -0.0114008505 0.044748496 0.11365096 0.23670867 -0.038838793 0.3189877 0.18211436 -0.16636747 0.12908666 -0.11547478 0.25429645 0.15521632 -0.28075507 0.25234625 -0.04899982 0.073234916 -0.17139322 0.072400205 -0.14302242 -0.21437198 -0.25654048 -0.12168096 0.1349424 0.28126377 0.21927646 -0.13835041 0.12753579 0.3291558 0.27768904 0.09255203 -0.52611005 0.07261263 0.106798105 0.07614669 0.3214753 0.29107326 0.23510487 -0.18352605 0.18378839 -0.049196385 -0.15105423 0.47755256 -0.09795768 -0.37580726 0.055542815 -0.290802 0.084626004 0.1468778 0.16528046 -0.0112318145 -0.042606074 -0.03357388 -0.09913817 0.020406172 -0.18504302 -0.09223333 0.028165707 0.0693742 0.055299804 -0.0048157363 0.108127676 0.1334407 -0.11525438 0.12074547 -0.089160055 -0.08515747 0.012754762 -0.11281803 -0.28375262 0.05435869 -0.11119807 -0.23211423 0.37990683 0.14695954 -0.0034912322 -0.3379093 -0.3223632 -0.23527692 0.2869173 -0.31003234 -0.050990943 -0.0914659 0.4070197 0.20179231 -0.19381437 -0.0916421 -0.5815424 -0.2751755 -0.06076165 -0.2431354 -0.26502275 -0.273411 -0.16916749 -0.12293844 0.09552724 0.10727487 0.15984794 0.3350774 0.46255136 -0.15461303 0.32498965 0.20499134 0.13590923 -0.097901545 -0.028592173 -0.2788493
