68 128
3 -0.19909856 0.08189141 -0.1351134 0.14857696 -0.037621584 0.043658137 0.07772166 0.20512734 0.02809471 -0.15604316 0.09426115 -0.039670408 -0.09287652 -0.08599846 0.09037767 0.014839905 -0.14218554 0.065717846 0.09762068 0.118601285 -0.15175387 0.18094344 0.003920675 0.13470928 -0.013766709 -0.15938312 -0.14310305 -0.07454462 -0.073488116 -0.14559075 -0.021112664 -0.06805823 -0.06536942 -0.13451906 -0.03556381 0.055125244 0.109179094 0.18025257 -0.16759142 -0.06697532 0.071876004 0.3688377 -0.23426671 -0.15877752 0.09060678 0.12324378 -0.07269347 0.12705581 -0.003940045 0.23986433 0.28765553 0.10087755 0.16028853 -0.060634434 0.021152956 0.19645768 -0.029493082 -0.007245226 -0.07579732 0.21309921 -0.08936163 0.08131817 -0.25169775 0.015129736 -0.069385 0.17988297 -0.0017459914 0.20220931 0.26707345 -0.15848178 0.08208785 0.1247569 0.39401662 0.14705689 0.042970214 -0.066186495 -0.05963179 -0.30231598 0.013854299 -0.16358306 -0.050916035 0.1403442 -0.0973606 -0.19203937 0.121438265 -0.24412857 -0.0677009 -0.20068707 -0.06015304 -0.07086139 -0.056109585 0.0909925 0.12532574 -0.119492054 -0.22522733 -0.1343014 -0.009408158 -0.062518716 -0.010434218 0.17127343 -0.32102287 -0.14245065 0.16594197 0.09963695 -0.09679335 -0.030129619 0.124155566 0.007995948 0.02891755 -0.38726252 -0.271951 0.117113575 0.3210082 -0.033764392 -0.32355008 -0.17306831 -0.049598034 -0.11976793 0.18319327 0.13444935 0.01343221 -0.19794722 -0.07675164 0.110543035 -0.092615776 -0.041150916 0.14622065 0.04201406
14 -0.11986647 0.04754778 -0.1310886 0.21220286 -0.039437685 0.17225553 0.041224975 0.14230101 -0.01355276 0.0062647904 -0.065890655 0.1914464 -0.13354553 -0.16671017 -0.055687048 -0.13213786 0.086286195 -0.056104656 0.13857207 0.12746705 -0.18060546 -0.045676757 0.16015191 0.111803025 0.24589129 -0.17361623 -0.20011362 -0.091586374 -0.2476515 -0.10793076 -0.24592936 -0.096300825 0.12866439 -0.07031352 -0.20749576 0.14595363 0.19621418 -0.026921256 -0.35903528 -0.1455954 -0.1150592 0.23604664 -0.32076037 -0.09405205 0.17101984 0.06407876 0.0432792 0.18855292 0.13206571 0.18556474 0.041864794 0.08722496 0.10092054 -0.17321493 -0.06189579 0.13042037 -0.12388615 -0.07125271 -0.10465818 5.6679128e-05 0.0644802 0.14869328 -0.12898949 -0.09286031 -0.1349189 0.28128865 0.028274976 0.18714105 0.069696724 -0.124497265 0.20816895 -0.11753054 0.30080122 0.047146652 -0.14800127 -0.15763313 0.07794038 -0.10372698 -0.07441951 -0.011371346 -0.13611469 0.04013876 -0.12976825 -0.1663501 -0.097832076 -0.04663402 -0.116650864 -0.18855383 -0.14912237 -0.18512306 0.10189986 0.21562566 0.15001565 -0.14453998 -0.12278115 0.00079397485 -0.1763261 -0.089866415 0.25236934 0.16289577 -0.35534102 -0.17912725 0.051062822 0.24451119 -0.17473002 -0.009784916 0.10706001 0.14426121 -0.028677877 -0.3291612 -0.32420394 -0.0017689817 0.19126087 -0.10180796 -0.21790299 0.0870802 -0.050362423 -0.16444767 -0.09481266 0.27052525 0.116117 -0.28452703 -0.03163292 0.1609989 -0.26510856 -0.18772739 0.22156562 0.14227489
50 -0.062243085 -0.11290516 -0.23257309 0.09717453 -0.012659376 -0.12192639 0.12345545 0.31836563 -0.016538654 -0.17455985 -0.035943612 0.09194138 -0.066903 0.11598757 -0.019027019 -0.0065216143 -0.19018212 0.15558922 0.0407352 0.20760877 -0.11445554 -0.07627211 -0.13596267 -0.11757311 0.021336637 -0.0121553 -0.15768534 0.031254455 -0.03082798 0.0034684767 0.28104463 0.014133977 -0.36473107 0.14919126 0.42042935 0.02843776 -0.24152665 0.077846415 0.15145665 -0.05695006 0.12899101 0.025701953 -0.16185457 -0.07217098 0.045839082 0.0905571 0.29721013 -0.21609071 -0.056131415 0.2802841 0.2717703 0.15143418 0.08001355 -0.286724 0.054410104 0.31390458 0.14814654 0.18352838 -0.0014288932 0.12067466 -0.026871348 0.045127753 -0.35928872 0.17759109 -0.044894304 0.13119923 0.04289575 -0.013849501 0.24110395 -0.33104724 -0.16847439 0.29270637 -0.119288735 0.3054155 0.116376005 0.14854293 -0.12875581 -0.34347883 -0.16876794 -0.23759025 0.08900854 -0.015551825 -0.22671345 -0.11374408 0.17095117 -0.16842195 -0.04994823 -0.26406115 -0.033542886 0.33620304 -0.09030421 -0.17116235 0.08499835 -0.1312411 -0.23330845 -0.3462143 -0.10843091 0.008497359 -0.16562654 0.059483044 -0.09599671 -0.16601753 0.043192975 -0.038106326 -0.1890518 0.29252946 0.0061888197 -0.19924977 0.25027773 -0.06662443 0.025095891 0.08783564 0.26212528 -0.1427794 -0.0969017 -0.04853804 -0.07431406 -0.26712406 0.38812572 0.17188892 -0.15033932 0.1591936 -0.19019555 0.08186112 -0.020547688 -0.12371192 0.30559665 -0.0422646
21 -0.036923673 -0.07998069 -0.13141136 0.21166693 -0.035077427 0.15785961 0.08114406 0.16641583 0.08125323 -0.021154776 -0.13157228 0.3573408 -0.04872462 -0.28885832 -0.0075398795 -0.050558984 0.22589037 -0.11247204 0.074297614 0.03997964 -0.22951564 -0.024171062 0.26002395 0.071118645 0.2182184 -0.11379882 -0.09039533 -0.008860907 -0.16422193 -0.1319993 -0.15144846 -0.25690052 0.09881246 -0.05260598 -0.13419504 0.2207719 0.1776684 0.03128303 -0.3159342 -0.20832042 0.0064847376 0.2581167 -0.19973692 -0.117607184 0.2744119 -0.0052581 0.10552102 -0.022327224 0.19212301 0.036124095 0.026058948 0.10886423 0.12413974 -0.0162776 -0.020507267 0.14051948 0.076266915 -0.06932857 -0.15056808 0.04845642 0.047147766 0.1753918 -0.18515436 -0.22930181 -0.1341338 0.15112625 0.08970887 -0.07911542 0.20540056 -0.15920946 0.24778172 -0.01964298 0.2876711 -0.012551188 -0.13825805 -0.19562753 0.06593711 -0.05952832 -0.029018613 0.033320993 -0.05713645 -0.034874566 -0.2511505 -0.13843156 -0.04964049 -0.13305622 -0.129174 -0.27199948 -0.20623164 -0.23326766 0.13436839 0.07335838 0.0005354327 -0.112976246 -0.18342133 0.08780549 -0.221143 -0.08915968 0.17121203 0.12560621 -0.5140105 -0.20076978 0.18111077 0.11127587 -0.08609273 0.0016174868 0.17142554 0.058230523 -0.022695562 -0.41996276 -0.16876759 -0.006548466 0.2888701 -0.008895438 -0.27339327 0.014583749 -0.14789486 -0.10482853 -0.12005709 0.21706359 0.07995139 -0.31943202 0.12910363 0.1911049 -0.3186316 -0.19877774 0.2430544 0.06369806
29 -0.0489482 0.016299043 -0.035213377 0.32247946 0.050427865 0.2693123 0.012881649 0.22162876 -0.017138394 -0.051764958 -0.008612174 0.1992084 -0.15606605 -0.12325965 -0.019468354 0.07631479 0.09623575 -0.12052144 0.14286678 -0.114819326 -0.16782448 -0.08306462 0.029853232 0.0023799236 0.16936998 -0.19547041 -0.122784555 -0.021270465 -0.26058048 -0.0052776504 -0.07118846 -0.28870082 0.18428014 -0.05742193 -0.07924333 0.29089192 0.26533315 -0.016595269 -0.34543973 -0.15499666 -0.08053255 0.065460704 -0.16236848 -0.16168581 0.15161876 0.11356889 -0.01399178 0.10694461 -0.02632732 0.08593973 -0.056424614 0.014180927 0.08944441 -0.2721842 -0.09881731 0.20271672 -0.110447295 0.07977033 0.022005724 0.105433404 0.19868167 0.11495277 -0.15686238 -0.11603861 -0.13070953 0.2805292 0.055797763 0.27303362 0.13861586 0.028242553 0.087834395 -0.14585313 0.047399424 0.17281881 -0.096527085 0.00055564987 -0.030145299 0.05680161 0.17910972 0.024873227 -0.15718138 0.07572269 -0.24370788 -0.20686164 0.047175813 -0.008191801 -0.2263957 -0.04578345 -0.24366893 -0.3563081 0.1060751 0.18286784 0.23098852 -0.27226865 -0.10573483 -0.012326343 -0.029069576 -0.01654522 0.37591004 0.07919178 -0.38624784 -0.27655584 -0.0014829638 0.17998117 -0.1869051 0.052016098 0.1714089 0.08457698 0.10402484 -0.36784682 -0.35719338 -0.05418515 0.13909517 -0.099503756 -0.24153519 0.27570924 0.06253431 -0.033803944 -0.07332139 0.19965719 0.15356018 -0.33381826 -0.05973691 0.06305826 -0.32107446 -0.19102491 0.09830046 0.07885112
43 -0.19929403 0.019805536 -0.20367181 -0.121091045 0.00033229036 -0.08048693 0.26379946 0.1744047 -0.063515835 -0.14286932 0.12433882 0.016432136 -0.12114869 0.11791722 -0.08465951 -0.058111336 -0.17440963 0.1447479 0.036303185 0.107234746 -0.1393721 -0.056344964 -0.016456177 -0.0648103 0.12392056 0.115756296 -0.19131829 -0.11655577 0.0050208666 -0.07602035 0.024051487 -0.017804665 -0.40375686 0.051305663 0.3015935 -0.028224502 -0.09777015 0.02647711 0.08790849 0.028994326 0.07574825 0.08875062 -0.15550567 0.0494648 0.11612007 0.113218606 0.056773465 -0.11958764 -0.09453714 0.2854415 0.04000477 0.1179266 0.012244594 -0.2914035 0.06551902 0.15864016 0.06682542 0.12292781 -0.123608194 0.07253074 0.022350227 -0.010330448 -0.30040285 0.1634117 -0.05193869 0.15035824 0.07045569 -0.038271297 0.11175678 -0.3037695 -0.12566951 0.19445074 0.18844582 0.36532322 0.08373019 0.15694734 -0.035784688 -0.42635745 -0.22680417 -0.2116937 -0.06362003 0.20174594 -0.10706643 -0.054523014 0.03409992 -0.052052706 -0.08626732 -0.3002638 -0.21103762 0.15027843 -0.09907304 -0.06332273 0.05760794 -0.15602866 -0.17408532 -0.1616365 -0.09736881 -0.08157342 -0.13410178 0.20222004 -0.07210783 -0.12006304 0.15813982 0.010768132 -0.1014885 0.07732533 -0.048422873 -0.20869695 0.07798354 -0.17330149 -0.21593319 0.10026508 0.15237214 -0.04841756 -0.15522952 -0.1865014 -0.021799665 -0.2661497 0.21829836 0.11698936 -0.10557439 0.033754494 -0.15924442 0.123211704 0.055994857 -0.17949206 0.2331455 0.057671912
37 -0.090570316 0.1125716 -0.07133554 0.48316157 -0.25254005 0.18452668 0.010877705 0.22726615 -0.07488177 -0.08849606 -0.13943672 0.14623559 -0.43825492 -0.18945816 -0.010604313 -0.3008911 -0.026159257 0.11998506 0.30498827 0.2644289 -0.08416445 -0.021095255 0.29593116 0.11681213 0.22538978 -0.48672453 -0.26607242 -0.052491564 -0.3701132 -0.10031678 -0.21200411 0.10225419 0.29986525 0.12819234 -0.23011827 0.16637063 -0.023144614 0.01573386 -0.48174867 -0.16219302 -0.1273248 0.29618943 -0.46534124 -0.08910333 0.027677994 0.108922094 0.14689283 0.36150745 0.1187347 0.3050898 0.09915184 0.19815095 0.062096037 -0.26617748 -0.24733868 0.11698058 -0.10718704 -0.13104884 -0.11790186 -0.16824749 0.11439392 0.19037536 -0.14646575 -0.09334763 -0.20997757 0.5028822 0.044241432 0.35635498 0.12177874 -0.13707633 0.4407222 0.06636667 0.1915935 -0.006661258 0.039822124 -0.23855367 -0.10142281 -0.24049988 -0.09263226 -0.23025884 -0.19411464 -0.06177248 -0.17267007 -0.2352656 -0.059247803 -0.0748676 -0.11190107 -0.1927146 0.057969734 -0.024285357 0.043618582 0.49238333 0.23315893 0.006482913 -0.19012927 -0.23624814 -0.21295784 0.014826614 0.2695405 0.02520722 -0.3020055 -0.31699678 -0.03261031 0.34711877 -0.2832388 0.058891606 -0.08264811 0.31300184 0.23362142 -0.33299872 -0.2584499 -0.2308636 0.43821222 -0.25034174 -0.27065316 0.29718325 -0.05466766 -0.2948125 0.03735317 0.32588834 0.032551922 -0.34465227 0.04772252 0.19479468 -0.32090107 -0.12594773 0.12647812 0.19242679
24 0.0747318 -0.24996434 -0.24649735 0.3541889 0.0027346113 0.12614089 0.13058737 0.33230123 0.104912415 -0.10036239 -0.25342688 0.6218636 -0.05438603 -0.4150765 0.013495025 -0.0017701727 0.39593938 -0.17036684 0.05779762 -0.0075936657 -0.2808597 0.0014118055 0.36348695 0.0013518366 0.30038252 -0.13376771 -0.023653178 0.10118809 -0.13910179 -0.13652392 -0.030854788 -0.4784621 0.10118224 0.06933183 0.027644055 0.40218028 0.0990237 0.0815407 -0.30977768 -0.3134604 0.114026256 0.28788653 -0.15354514 -0.11469278 0.4353857 -0.072421774 0.3127673 -0.27369457 0.24879268 -0.0696466 0.016110525 0.18531677 0.13311778 0.059093036 -0.025710499 0.25092933 0.35313386 0.0053751366 -0.2068201 0.12455393 0.09278692 0.13263744 -0.29282784 -0.38729984 -0.17407906 0.12381694 0.23567611 -0.35126793 0.41847327 -0.30570695 0.28084958 0.08369208 0.172896 0.017121853 -0.09197063 -0.21003684 -0.010763316 -0.03823791 -0.03446654 -0.01747616 0.04128255 -0.1372982 -0.49252173 -0.14837348 0.0032220562 -0.25177205 -0.17479393 -0.36630094 -0.3124325 -0.22043875 0.15090764 -0.045960892 -0.085274704 -0.10825183 -0.29248306 0.06291244 -0.3366779 -0.0749204 0.12969019 0.068317994 -0.7267068 -0.30790523 0.34745052 -0.026779491 -0.084092565 0.05825296 0.22918284 -0.07351015 0.05905898 -0.6244858 -0.010912731 -0.056647517 0.48508528 0.04497115 -0.3827624 -0.019799547 -0.29710957 -0.112650275 -0.050274197 0.21805273 -0.014037265 -0.34258884 0.3034497 0.35669464 -0.42853728 -0.2759722 0.3734207 -0.029864581
60 -0.021677712 -0.20133054 -0.096918166 -0.015798138 -0.038880013 0.053951878 0.32429403 0.48608518 -0.09736943 -0.29394665 -0.32252228 0.32421267 -0.20905653 0.119813286 -0.25458893 0.051245093 -0.27659962 -0.018496726 0.16616747 0.21235615 -0.014071314 0.1352701 -0.20193316 -0.5506225 -0.15716548 0.12167113 -0.25418332 0.011622643 -0.045067877 0.20954867 0.29026005 0.19093321 -0.27752313 0.4256769 0.5723492 0.47135472 -0.10905767 0.28311285 0.07584235 -0.16570847 -0.18300055 -0.30489323 -0.41424528 -0.014239862 -0.055565014 0.16876034 0.65798765 -0.3647458 -0.13275144 0.11000587 -0.27553073 0.32052362 -0.029647216 -0.5617272 0.023407066 0.604444 0.25796932 0.60457593 0.019314358 0.106801614 0.11572079 0.060954228 -0.34369645 0.17715551 0.03185703 0.44097227 0.13874541 0.085987724 0.29746768 -0.25556853 -0.041137382 0.642795 -0.29755887 0.37847197 0.17802654 0.25404584 -0.019596806 -0.47913727 -0.00485557 -0.11983199 -0.114916794 -0.0129016945 -0.52603614 -0.061660655 0.42520818 0.12749417 -0.2097728 -0.38569948 -0.11873091 0.2434857 -0.048600312 -0.050647106 0.23526964 -0.2655978 -0.4649715 -0.4110287 -0.23394452 0.19145541 -0.17399822 0.0029496362 -0.054151684 -0.10285653 0.2986654 -0.05554642 0.1413301 0.13306744 -0.056870222 -0.25741294 0.28929242 -0.04676302 0.009987596 -0.12854181 0.31159166 -0.22033225 -0.1398431 0.119642854 -0.23593354 -0.049066566 0.62323487 0.25934738 0.115269706 -5.0182454e-05 -0.29174504 0.2905808 -0.07778507 -0.42813995 0.44711396 -0.06515001
64 -0.17179324 -0.23017429 -0.12491068 0.038382232 0.0056375326 -0.015113991 0.0958553 0.31067115 -0.012430223 -0.23274305 0.008882277 0.03315836 -0.033720214 0.098610856 -0.10419698 0.0101264445 -0.20969807 0.3243248 -0.06757032 0.1904059 -0.20709246 -0.11133937 -0.022507697 -0.10697327 0.18824263 0.1099534 -0.1510137 0.073283896 -0.08887862 0.0493219 0.37576798 -0.04384658 -0.5778277 -0.04614668 0.55579495 -0.20397294 -0.23008965 -0.0959601 0.2896839 -0.11814646 0.21165991 0.16330177 -0.113302745 -0.15965934 0.07557202 0.13835749 0.3247335 -0.31733814 0.025552375 0.37209553 0.45057154 0.11803258 0.11284654 -0.2843633 0.11054119 0.34190014 0.13110651 0.16798876 0.08749703 0.25881407 -0.08944302 0.14859615 -0.41883156 0.07324381 -0.16004416 -0.030581709 0.04837511 -0.013560427 0.24811636 -0.25908557 -0.18620205 0.21425663 -0.096195936 0.2579421 0.043477185 0.26179248 -0.08255611 -0.3104292 -0.23633043 -0.27280498 0.07268208 0.01078102 -0.16694015 -0.07843781 0.28812626 -0.26526418 -0.08088565 -0.3735603 -0.07564831 0.39301956 0.041310064 -0.21301278 0.10107785 -0.2837696 -0.27848744 -0.41956702 -0.24314952 -0.11717885 -0.22026685 0.06266226 -0.2658587 -0.33460435 0.11091164 -0.032502566 -0.30038276 0.39458528 -0.0792951 -0.22356902 0.35679048 -0.08276812 -0.19299583 0.195005 0.26945966 -0.1732087 -0.3269574 -0.020624278 0.05570198 -0.31316632 0.3253264 0.33293864 -0.16754073 0.27689987 -0.09219463 0.015216153 -0.07398661 -0.08981976 0.3224545 -0.06256155
52 -0.01588233 -0.10268042 -0.3985803 0.41416138 -0.03355841 -0.19173849 -0.056868583 0.35978767 0.015869616 -0.09454056 0.030797591 0.036333457 -0.06440532 0.16016865 0.14609718 -0.061732855 -0.14784539 0.28136757 0.074981436 0.30794004 -0.13760403 -0.33974707 -0.18181986 0.08959112 0.16744614 -0.27186078 -0.14041626 0.12508442 -0.16966146 -0.050636113 0.4083128 -0.12736171 -0.34365305 0.18579851 0.43933913 -0.13117518 -0.42909148 -0.07025574 0.14437245 -0.07185274 0.28831047 0.095319234 -0.060293447 -0.12890291 0.054415606 0.05844502 0.26884785 -0.16745631 -0.045846853 0.46209037 0.6444617 0.10000224 0.14126636 -0.33024168 -0.028578468 0.3032369 0.09875075 0.036509454 0.059140276 0.088572465 -0.0074685956 0.07293399 -0.45644593 0.22194202 -0.12906662 0.095301874 -0.026773477 0.053374417 0.24461181 -0.39509678 -0.23365092 0.10262774 -0.33240244 0.3476656 0.11919403 0.10881997 -0.32756674 -0.21818757 -0.26509783 -0.38005278 0.26601347 -0.14085114 -0.19956058 -0.24649765 0.06984097 -0.343015 -0.03307761 -0.15265477 0.07474389 0.5061133 -0.13645963 -0.20101042 0.10595611 -0.07190359 -0.13571478 -0.49228916 -0.06799885 -0.03046422 -0.019780261 0.033728857 -0.1456827 -0.33514482 -0.23120305 0.03938551 -0.556953 0.6123772 0.03814332 -0.13491064 0.4469279 -0.049669586 0.12903085 0.11214742 0.32785177 -0.25361225 -0.0033493526 0.1305314 0.035690825 -0.4697425 0.37373883 0.19565998 -0.36671773 0.27121973 -0.19060065 -0.06240271 -0.07862065 -0.014578233 0.28798303 -0.041208312
32 0.020729624 -0.0037354662 -0.010065675 0.49597794 0.07560938 0.37883374 0.0030034096 0.3259281 -0.10709814 -0.015838787 -0.004643961 0.30817196 -0.27417642 -0.020449681 -0.095168315 0.07391915 0.10513662 -0.14947444 0.21806273 -0.19770196 -0.2023869 -0.3384431 -0.06785361 -0.09396114 0.26097593 -0.27329856 -0.1841658 -0.004158896 -0.4210241 0.08832337 0.031608503 -0.3617709 0.20456336 0.019282967 0.05723375 0.39000323 0.29047334 -0.10109415 -0.38317376 -0.21320924 -0.18843095 -0.17861493 -0.16528577 -0.20354259 0.10723049 0.18261215 0.06198863 0.11505493 -0.13067417 0.15607111 -0.17044158 -0.011040677 0.018910445 -0.6008977 -0.19310753 0.3235787 -0.18992732 0.18377475 0.14063878 0.036456686 0.3759084 0.14002532 -0.22066045 -0.022998886 -0.19935943 0.46375868 0.09452876 0.4446508 0.059629064 0.0635565 0.034932967 -0.24422139 -0.23072213 0.33893973 -0.12287931 0.1398697 -0.09363378 0.13962077 0.2427803 0.0048474707 -0.26174998 0.07531848 -0.35010764 -0.26841784 0.06862477 0.1408296 -0.37259707 0.004942659 -0.38280225 -0.43006694 0.18246242 0.24626036 0.39160037 -0.4006815 -0.07187254 -0.09127766 -0.009273412 0.037035663 0.61306924 -0.005208403 -0.3476901 -0.46252972 -0.15906547 0.28913623 -0.3395012 0.21709234 0.111766465 0.102923505 0.32624996 -0.31162032 -0.40503463 -0.16700684 0.08943151 -0.22320297 -0.22142766 0.6341068 0.18824644 -0.1155499 -0.11517895 0.28212878 0.16521853 -0.35480362 -0.145874 -0.039374195 -0.4674101 -0.25798017 0.050686944 0.14547652
56 0.04279496 -0.19279295 -0.16206467 0.14652556 -0.07801695 -0.12730093 0.1500529 0.35890463 0.027944703 -0.24472997 -0.1178138 0.22990236 -0.08302566 0.06879235 -0.03137027 0.020713342 -0.16318904 0.076146625 0.04943583 0.17710751 -0.12678815 -0.07996544 -0.13057303 -0.2151163 -0.10025163 -0.040909715 -0.12000856 0.0663305 0.045044575 0.011667068 0.35814747 0.059544813 -0.35225618 0.2303051 0.48952505 0.16070761 -0.26208082 0.19654402 0.17604025 -0.06491125 0.1122481 -0.052446283 -0.16952322 -0.11694764 0.045268092 0.05728528 0.38281077 -0.26049104 -0.05225818 0.18662821 0.17606626 0.22295594 0.044237595 -0.30103382 0.033926368 0.3426996 0.25159827 0.17729919 -0.020779263 0.046633147 0.014143522 0.08896709 -0.40769258 0.19363381 -0.03535726 0.18782862 0.10368504 -0.09941506 0.31021163 -0.3774794 -0.121008106 0.44930482 -0.19454212 0.2921405 0.17265761 0.12779433 -0.17214516 -0.3744853 -0.09714191 -0.20136276 0.045715086 -0.051655155 -0.3272658 -0.113067575 0.20066388 -0.15738834 -0.058512304 -0.30424368 -0.08861803 0.30663505 -0.06727818 -0.19700523 0.03721695 -0.06784032 -0.29163325 -0.31579688 -0.06498418 0.08650855 -0.2031498 -0.019111242 -0.100008786 -0.15203685 0.058547463 -0.08072791 -0.11322641 0.27767318 0.008356206 -0.22499496 0.2847793 -0.040242717 0.13083394 0.021756167 0.32477608 -0.11512253 -0.11731134 -0.009218227 -0.12501037 -0.26757145 0.40917984 0.18478554 -0.11936851 0.1012319 -0.18738413 0.08982054 -0.122364104 -0.11214315 0.30947974 -0.059793957
11 -0.07854774 0.20532015 0.0062221424 0.13278832 0.004167449 0.120344006 0.13790335 0.35526678 -0.06744932 -0.22485505 0.2313041 0.09911166 -0.25914955 -0.008726383 -0.09063976 0.053125042 -0.22391944 -0.19125351 0.04784925 -0.08009271 -0.26779395 -0.036263723 -0.00753354 0.13218969 0.03647947 -0.16322955 -0.22161782 -0.24961725 -0.08072334 -0.10693162 0.017963044 -0.16974553 -0.015637774 -0.2405816 0.0049875323 0.18754947 0.2625349 0.07252469 -0.27631405 -0.08036849 0.016082395 0.35028586 -0.2666607 -0.2060316 0.09160679 0.1892171 -0.1750636 0.27810854 -0.2488007 0.23673998 0.1055302 0.01767408 0.119638264 -0.20965475 -0.03785239 0.12909922 -0.17557628 0.08346161 -0.095026605 0.17834714 0.100666285 -0.017553724 -0.28339174 0.20801476 -0.15843128 0.3612229 0.06428352 0.3838489 0.10909912 -0.195877 -0.01433606 0.011914754 0.36760002 0.40009847 0.035448343 -0.006103508 0.08637194 -0.22781925 0.06277008 -0.25967646 -0.27582198 0.24455775 -0.0776167 -0.20415787 -0.04323991 -0.003932117 -0.11681762 -0.10532562 -0.31239736 -0.25627607 -0.0010821834 0.058524504 0.2811092 -0.19396189 -0.14230199 0.017125651 0.12420322 -0.058206033 0.08248353 0.12658425 -0.21386681 -0.16736574 -0.028736843 0.26234704 -0.011312915 -0.022442633 0.25408503 -0.05715932 0.03967566 -0.48323032 -0.37784943 0.13789591 0.20024939 -0.15979697 -0.37593737 -0.091988884 0.12410053 -0.21124758 0.038391836 0.083375454 0.06316844 -0.25345346 -0.15019536 0.054352246 -0.24084939 -0.10659891 0.10667732 0.05751071
10 -0.11778954 0.14805062 -0.09151346 0.045042444 0.010811049 0.023776747 0.16081993 0.34284034 -0.047546986 -0.24642454 0.1842921 0.03654257 -0.19029589 0.009011938 -0.058906928 0.06359927 -0.27652365 -0.10256351 0.04249366 0.0155946575 -0.22031537 0.079793826 -0.057412602 0.09238543 -0.040088296 -0.09839604 -0.22512805 -0.21056738 -0.01112715 -0.107983015 0.0571265 -0.0727235 -0.12375436 -0.16913615 0.06776855 0.13009721 0.15916413 0.1349643 -0.16186866 -0.04092425 0.040295694 0.34213024 -0.2787603 -0.17897803 0.088770226 0.17216806 -0.09019045 0.18447724 -0.20973176 0.24213016 0.19227321 0.05685116 0.14034313 -0.1476128 0.038544677 0.18697062 -0.095464155 0.12210159 -0.09536507 0.22125249 0.011762493 -0.03274771 -0.28910565 0.21056944 -0.08230293 0.28417763 0.04115271 0.28990322 0.18537755 -0.24499512 -0.058416694 0.13774028 0.36883426 0.36824232 0.07767026 0.014053205 0.06069125 -0.33229065 0.0099668335 -0.26364926 -0.17282885 0.21539539 -0.07586876 -0.1781987 0.03818763 -0.08748091 -0.056705404 -0.15722929 -0.21590696 -0.096928604 -0.060212597 -0.004444908 0.22228913 -0.16729979 -0.18977088 -0.06422711 0.08981725 -0.04903899 -0.0710591 0.13136792 -0.17685369 -0.07551572 0.0643277 0.14347185 0.019167239 -0.030420797 0.21415956 -0.11342314 0.023119865 -0.43147373 -0.2776378 0.16876268 0.23960818 -0.11621918 -0.3354161 -0.23150985 0.029742932 -0.1824982 0.18942887 0.059230126 0.03043105 -0.16353533 -0.1724002 0.11865509 -0.1267783 -0.08785715 0.16948552 -0.00075698376
12 -0.118856266 0.23411381 -0.07919172 0.020593107 0.06864401 0.04853569 0.2525365 0.42625654 -0.15324998 -0.29274696 0.3495455 0.09166575 -0.30643556 0.05044253 -0.16442382 0.1208126 -0.26652026 -0.15670642 0.004829186 -0.20665619 -0.34213284 -0.13783471 0.0039796266 0.10996782 0.13750362 -0.050026674 -0.30764183 -0.32173872 -0.022869997 -0.13264179 0.052163333 -0.25576603 -0.18163884 -0.28131083 0.13398156 0.12725183 0.2189425 -0.0487768 -0.19936869 -0.016138801 0.09642427 0.37381473 -0.22843651 -0.16001509 0.16486633 0.23946017 -0.2501806 0.24347872 -0.37638167 0.31185803 0.09383762 -0.021639248 0.13024929 -0.25046158 0.0009828361 0.09272928 -0.1522642 0.1578688 -0.13774471 0.22375964 0.13724911 -0.11663613 -0.346309 0.2806543 -0.17555778 0.34162867 0.12635703 0.29950866 0.09337176 -0.32237744 -0.18637018 -0.014716645 0.39658654 0.5967968 0.07239421 0.0804488 0.13880043 -0.3240612 -0.046225663 -0.37912697 -0.3058662 0.3198378 -0.038950726 -0.1641315 -0.09985534 0.0071736537 -0.09478533 -0.1057304 -0.42738673 -0.20643012 -0.06047112 -0.048003722 0.30498308 -0.25593996 -0.117875144 0.06776356 0.13509127 -0.15653947 -0.0051188706 0.15015185 -0.14354071 -0.1671051 -0.021422602 0.21884966 -0.046402603 -0.0054061366 0.25723034 -0.20029768 0.061577834 -0.6011585 -0.41954014 0.21162395 0.16608524 -0.17634062 -0.43219435 -0.21237041 0.18324146 -0.30798578 0.052802276 -0.014222357 -0.022163888 -0.20204309 -0.16876568 0.09907335 -0.1878112 -0.12983838 0.14746083 0.0091997385
41 -0.09923871 0.119675644 -0.1416979 0.38240495 -0.26675272 0.13941275 0.04558819 0.15948933 -0.049445167 0.025414916 -0.18368289 0.19945322 -0.3637865 -0.16590153 -0.06869105 -0.413904 0.0124704875 0.079623595 0.281965 0.37555578 -0.09839929 -0.09860006 0.28073686 0.13510117 0.277899 -0.4073718 -0.30620065 -0.09307194 -0.37068206 -0.12791678 -0.3326619 0.18875797 0.23753826 0.15096854 -0.28046775 0.12872523 -0.02126277 -0.012717219 -0.46585172 -0.15581831 -0.2078808 0.2428178 -0.5215957 -0.021358306 0.040232852 0.06735667 0.18480633 0.37225407 0.19176643 0.33184212 0.03720833 0.21767375 0.03342692 -0.2992953 -0.22274196 0.0740549 -0.1344031 -0.19005924 -0.16904211 -0.2831006 0.09659897 0.21625976 -0.12507172 -0.032130323 -0.19276911 0.51259255 0.017013704 0.27463096 0.010499294 -0.20151776 0.44972524 0.017655391 0.23693994 -0.04213144 -0.049488608 -0.2861036 -0.029402746 -0.25781712 -0.22051549 -0.15525386 -0.18544294 -0.075794965 -0.13626345 -0.20356524 -0.1981565 0.005951398 -0.10461785 -0.25203013 0.03468785 0.029112471 0.069026805 0.47279483 0.18533666 0.04663755 -0.14475904 -0.16467017 -0.2827173 -0.019080143 0.2814213 0.12141299 -0.24423432 -0.25628135 -0.052049123 0.41244897 -0.28877276 0.061881144 -0.10118138 0.31821042 0.10906624 -0.21986444 -0.25976673 -0.18804601 0.34992227 -0.25501472 -0.15617616 0.26969987 -0.11513059 -0.36371225 -0.012612318 0.40725732 0.05709816 -0.29954284 -0.039943047 0.20528284 -0.29796326 -0.18295439 0.23384084 0.2745759
4 -0.15154819 0.07739497 0.047576074 0.12289055 -0.057968665 0.09406446 0.09645019 0.1745245 0.11797796 -0.20206249 0.16122775 0.011415956 -0.04462012 -0.06513511 0.10568183 -0.058907017 -0.1715001 -0.02129887 0.047638506 0.16307695 -0.19380894 0.21420598 0.019088352 0.16945468 -0.079841174 -0.13811408 -0.039666034 -0.08690799 -0.011907555 -0.15084404 0.04152943 -0.0975803 -0.13318981 -0.24474466 0.022097865 0.054757148 0.17616703 0.2906535 -0.12052046 -0.12520494 0.1132737 0.42137054 -0.2065697 -0.21279794 0.07718317 0.10837687 -0.10561662 0.07978021 -0.012116828 0.20620789 0.29820028 0.12722513 0.10791037 -0.08616676 0.020426722 0.18046935 -0.042801943 -0.07834703 -0.084360614 0.24417216 -0.110922396 0.13169113 -0.33062738 0.0567687 -0.116822004 0.16639592 0.003410601 0.2163724 0.28013968 -0.12711664 0.1547811 0.1704598 0.49291822 0.15493442 0.07480334 -0.021837244 -0.06481878 -0.27648386 0.088233635 -0.15393537 -0.11771957 0.226438 -0.11559895 -0.22279586 0.1604144 -0.22123787 -0.11487956 -0.30386165 -0.13672845 -0.14890146 0.01368196 0.070877634 0.082197554 -0.12090697 -0.25797775 -0.14570327 0.004040995 -0.005826046 -0.02616053 0.23012495 -0.42486924 -0.23740241 0.19310944 0.1967627 0.01510685 -0.04396246 0.17238261 0.010842413 -0.00035631369 -0.3269526 -0.34456092 0.14433065 0.32937315 -0.002804928 -0.37059832 -0.17583369 0.0025542378 -0.1276877 0.09434284 0.23054121 0.03724054 -0.18881187 -0.085591786 0.012185428 -0.14198603 -0.029640893 0.116031304 0.11094932
6 -0.33706912 0.103679836 -0.26477408 0.11026481 0.13609049 0.16397013 0.07418027 0.18643223 -0.078630425 -0.117019735 0.056208707 -0.08931942 -0.069326945 -0.12488661 -0.0045702 0.046692036 -0.05406695 0.10268136 0.1586726 0.08274716 -0.14396581 0.28500983 0.0025765528 0.10450937 0.22799805 -0.043677077 -0.253079 -0.1447864 -0.18487623 -0.10985606 -0.22349678 -0.17310365 0.015219904 -0.20209478 -0.14638448 0.058164924 0.23759453 0.04353416 -0.3200598 -0.09056124 -0.0044318824 0.34477872 -0.3319 -0.076011546 0.20853952 0.21617523 -0.041976348 0.0950591 0.056786653 0.23293336 0.24886961 0.047520444 0.19802086 -0.13115089 0.076912925 0.2906536 -0.1748709 0.11344447 -0.060162842 0.34724697 -0.077692576 0.033986572 -0.14389038 -0.14158323 -0.041433413 0.20016292 0.02127318 0.27726412 0.2588539 -0.10198354 0.009973848 -0.08743236 0.5036001 0.195455 -0.10482265 -0.003757378 0.08459233 -0.24846496 -0.019550603 -0.04630852 -0.09314207 0.17088147 -0.110899955 -0.18343717 0.17059667 -0.25529578 -0.11200812 -0.14822625 -0.07173761 -0.19752908 -0.050412938 0.17459193 0.23119023 -0.36874312 -0.19371851 -0.13245107 -0.14797261 -0.16268548 0.12295794 0.24489433 -0.42527995 -0.10544245 0.3123283 0.07403918 -0.16057323 -0.14871812 0.13119298 0.021925833 -0.09109571 -0.50812685 -0.5196669 0.16767435 0.21756452 0.0019168799 -0.3584014 -0.20166086 -0.0892123 0.032802083 0.15018024 0.15096876 0.09944931 -0.22591153 -0.08006276 0.26809993 -0.055473004 -0.17987797 0.27649534 0.02837222
8 -0.49674606 0.13338341 -0.38251585 0.019936722 0.25360787 0.21259148 0.07310429 0.26746812 -0.18974522 -0.15835011 0.017815655 -0.19509904 -0.04142721 -0.055758506 -0.13875876 0.10409503 -0.18393803 0.15692523 0.20607297 0.1553403 -0.16115282 0.36818483 -0.17321418 0.027374648 0.28812113 0.062456243 -0.4425921 -0.24826309 -0.25257453 -0.042130012 -0.2771905 -0.08037911 -0.059564207 -0.26850224 -0.13270657 0.030176835 0.31841725 0.008294476 -0.35136348 -0.075715184 -0.10392056 0.30464143 -0.53315145 -0.09497641 0.20804924 0.36020252 0.042780455 0.12687947 0.044287253 0.34767753 0.32139298 0.046704102 0.28752276 -0.30386174 0.17876326 0.48039818 -0.33813736 0.30552968 0.0075573446 0.48249298 -0.11658755 0.04223918 -0.14969988 -0.058184627 0.017468683 0.28869304 -0.012969947 0.4856737 0.25298145 -0.14471166 -0.16746114 -0.1291632 0.5593243 0.3261585 -0.18952636 0.100470364 0.22351712 -0.3627126 -0.080259584 -0.007868387 -0.14191161 0.21084285 -0.1026203 -0.21202663 0.27749196 -0.26435092 -0.10266554 -0.13866718 -0.04440023 -0.15970658 -0.08081011 0.18283357 0.41955537 -0.62042886 -0.24619412 -0.23371711 -0.20769942 -0.23707707 0.12500893 0.32434386 -0.401461 -0.0068153604 0.36731428 0.08100338 -0.22823319 -0.17151336 0.15310237 -0.020172698 -0.14979933 -0.5193529 -0.7486118 0.3191664 0.13106106 -0.06717572 -0.38417456 -0.26305324 -0.10103283 0.06345847 0.31979847 0.23898184 0.21366853 -0.17170906 -0.30127996 0.3526494 -0.0048151733 -0.29731035 0.48948327 0.016588526
2 -0.18422744 0.13498273 -0.21481732 0.07890123 -0.015600461 -0.0356961 0.11049172 0.23085293 0.078859575 -0.123499475 0.17941375 -0.026296673 -0.044793706 0.017305529 0.06549017 -0.06937169 -0.24347985 -0.021163303 0.04165783 0.23741242 -0.21508275 0.09737218 -0.08899128 0.23841675 -0.023652608 -0.13252267 -0.17945302 -0.14240289 -0.052367743 -0.17997177 -0.020048462 -0.04659791 -0.19678023 -0.14938064 0.0024324548 0.0033634002 0.10769613 0.19178577 -0.12779453 -0.031457793 0.056158908 0.4132969 -0.2783689 -0.17773211 0.10601936 0.09597556 -0.08010521 0.1727571 -0.03347656 0.3247877 0.3855141 0.08948033 0.15813537 -0.12084752 0.072087444 0.19777387 -0.09307447 -0.045636654 -0.115586564 0.19404693 -0.07970861 0.06391957 -0.34317836 0.20101616 -0.07285906 0.21982212 -0.059118986 0.24165127 0.20277497 -0.2486623 -0.0005223437 0.09280992 0.4567191 0.25529736 0.010046267 -0.0543002 -0.042881943 -0.3416548 -0.06208615 -0.19397293 -0.02516601 0.20300362 -0.05650991 -0.23849349 0.002941341 -0.2110494 -0.061405633 -0.2631613 -0.1473505 -0.008890882 -0.05923916 -0.003372296 0.121271715 -0.10775015 -0.18009192 -0.14334887 0.054409746 -0.049897227 -0.034731787 0.27123073 -0.27322543 -0.10035241 0.049440872 0.17191313 -0.09493375 0.03424041 0.21001847 -0.04677993 -0.05409877 -0.32819706 -0.2766728 0.23033357 0.26996034 -0.06525586 -0.24754517 -0.2658618 -0.022686398 -0.23754197 0.19717848 0.19074653 -0.010590429 -0.103716314 -0.2241391 0.06784446 -0.08549717 -0.04681077 0.22854719 0.08775927
7 -0.39154932 0.1341745 -0.31394088 0.12330784 0.16194232 0.16995727 0.0653655 0.31338897 -0.10067907 -0.19656032 0.0668333 -0.119518116 -0.06843059 -0.11962035 -0.03807937 0.109942205 -0.17874168 0.09195658 0.17189947 0.12675934 -0.19729711 0.34430507 -0.09050497 0.11665031 0.18562418 -0.06450775 -0.35014802 -0.19586699 -0.20180841 -0.102018215 -0.16939853 -0.13762431 -0.016675541 -0.27925467 -0.1330087 0.06777409 0.288831 0.08624713 -0.34685406 -0.10445821 0.0007834815 0.45112807 -0.4530448 -0.16906139 0.20457596 0.29075682 -0.02701663 0.16246213 0.0122141205 0.3196809 0.40381014 0.062894374 0.2945732 -0.15411438 0.12790278 0.4095467 -0.2324923 0.1999925 -0.03311626 0.4629546 -0.13344418 0.044477366 -0.22100893 -0.05498237 -0.033595443 0.25865805 -0.0036436617 0.42230624 0.32877737 -0.16707148 -0.062734984 -0.050717834 0.578188 0.26834884 -0.10899127 -0.006659778 0.14022082 -0.3447931 -0.020288039 -0.101923145 -0.10528316 0.18242021 -0.11420285 -0.24431063 0.23294184 -0.32616663 -0.08328041 -0.15356566 -0.04942327 -0.16666625 -0.077548705 0.14374034 0.34153268 -0.4615055 -0.26746255 -0.19095585 -0.13367537 -0.19239086 0.06636666 0.26274657 -0.4609628 -0.07142688 0.31100473 0.10216301 -0.17543267 -0.12843725 0.22449313 -0.004647788 -0.08779211 -0.6002162 -0.5909955 0.27772713 0.26928025 -0.060836934 -0.44057742 -0.28189993 -0.08303131 0.010583399 0.27818185 0.18696317 0.14301763 -0.22000384 -0.1873881 0.2932382 -0.073423676 -0.19707787 0.38291314 -0.010769535
44 -0.19464259 0.103837326 -0.27449116 -0.08474544 -0.019353611 -0.14599864 0.3532668 0.18378058 -0.13628258 -0.123797745 0.27522144 0.06609018 -0.26694557 0.16700508 -0.10309513 -0.109535605 -0.119332016 0.16633874 0.061394464 -0.0058069797 -0.2226717 -0.31901127 0.07118114 -0.021559509 0.2747309 0.08161433 -0.24858353 -0.18681028 -0.0161642 -0.15278733 -0.040394906 -0.12657984 -0.4616867 0.09294458 0.33509812 -0.045922723 -0.17994674 -0.09906532 0.059121557 0.10268929 0.12503217 0.061275546 -0.09230565 0.14170353 0.19557935 0.124433026 -0.093860514 -0.044295363 -0.20118548 0.39171982 -0.061111774 0.08322944 -0.041064896 -0.4189308 -0.009644063 0.01588326 0.054799493 0.022263732 -0.21165247 -0.06979517 0.16111661 -0.06660939 -0.35298666 0.25157848 -0.1177628 0.23673002 0.12560052 -0.10768828 0.018077686 -0.4315546 -0.18476245 0.11064202 0.19027111 0.5577351 0.13431752 0.17355384 -0.09759113 -0.48589084 -0.34610176 -0.32716015 -0.13435075 0.28831205 -0.094208784 -0.061711587 -0.17821893 0.01503602 -0.11121127 -0.29240182 -0.37723556 0.1268664 -0.14600559 -0.031669203 0.04584113 -0.13429628 -0.071406916 -0.0802661 -0.037262302 -0.12212499 -0.056850675 0.23406479 0.0086814435 -0.2044576 0.022393523 0.06989407 -0.23045059 0.12917013 -0.08981201 -0.24901862 0.14134786 -0.2336982 -0.23975618 0.041784517 0.12301801 -0.05790823 -0.10841305 -0.14224455 0.06125458 -0.4646701 0.086182885 0.05025852 -0.21893266 -0.0066442727 -0.15685996 0.09886613 0.02810098 -0.18823534 0.15697195 0.12604319
23 -0.027512608 -0.14859712 -0.23143904 0.26556256 0.025995113 0.15832962 0.13601409 0.23339425 0.060090136 -0.055344086 -0.19668607 0.4722237 -0.067631304 -0.37970197 0.0051333793 0.009527953 0.3512449 -0.12114499 0.10272057 -0.03531126 -0.24335231 0.0135663 0.3231183 -0.011720527 0.30714065 -0.10646843 -0.086008415 0.03847496 -0.16632688 -0.1426544 -0.15650399 -0.40702552 0.12663348 0.024818895 -0.08311207 0.34345222 0.17521238 0.04235999 -0.35673746 -0.2511575 0.04571424 0.24463059 -0.17822185 -0.070242085 0.38587385 -0.022331316 0.18850084 -0.1644342 0.21433242 -0.034253854 -0.048631094 0.1475613 0.12997107 0.013421439 -0.024874514 0.19859052 0.2254921 0.01596246 -0.18929423 0.09975889 0.085989565 0.1313827 -0.21526146 -0.37311137 -0.13917716 0.1462904 0.18915606 -0.23513375 0.32928318 -0.22589827 0.25505555 0.011866725 0.25459668 0.02859025 -0.118562065 -0.18497747 0.04199487 -0.0748019 -0.032824554 0.018565616 -0.02153574 -0.059734177 -0.38726783 -0.14182001 -0.015878318 -0.19400683 -0.1739039 -0.2901856 -0.27102995 -0.2741604 0.11355296 0.04958302 -0.03507071 -0.15094927 -0.23897818 0.10184865 -0.28973052 -0.10962255 0.17723036 0.11807242 -0.6222723 -0.22217073 0.33256954 -0.0067402325 -0.09172791 -0.024162218 0.18587759 -0.015677344 0.0062747486 -0.5852898 -0.13202195 -0.05219072 0.3897005 0.054540716 -0.34051365 -0.014607093 -0.24207662 -0.070078954 -0.0787567 0.17502894 0.041961826 -0.38419893 0.2353338 0.32998845 -0.34334922 -0.28045276 0.3054557 0.0127105685
45 -0.20967574 0.06398479 -0.2182663 -0.1475181 -0.046788156 -0.10181248 0.40635547 0.1793961 -0.13334368 -0.14091578 0.21308914 0.11840172 -0.29485947 0.10919745 -0.16108815 -0.14711693 -0.09282628 0.18983202 0.039807577 -0.014462409 -0.223914 -0.2834452 0.17526786 -0.07432686 0.3099063 0.14148986 -0.25579193 -0.18277463 -0.012950437 -0.13342178 -0.072940335 -0.08749973 -0.4871057 0.10120684 0.3430007 -0.029495712 -0.16520825 -0.10168116 0.06401942 0.071085915 0.09748859 0.07773442 -0.116806865 0.15808654 0.20405039 0.11951477 -0.030645588 -0.08681985 -0.15045848 0.36308017 -0.15344857 0.119971745 -0.06094537 -0.39787787 -0.0060511497 0.014532179 0.10849488 0.037328895 -0.23381639 -0.0766416 0.15308551 -0.036042508 -0.3403717 0.1765381 -0.13450688 0.22527239 0.1607458 -0.17447284 0.022237478 -0.41683683 -0.10014064 0.16523977 0.23722413 0.49071324 0.12333761 0.16855416 -0.05728011 -0.51963544 -0.36945528 -0.30561942 -0.18063164 0.28931728 -0.12176982 -0.015463277 -0.15041444 0.041269287 -0.13912834 -0.38251582 -0.39911374 0.11358952 -0.09130179 -0.0007443571 0.018374639 -0.1340646 -0.119631015 -0.06789849 -0.13207188 -0.12970541 -0.095170945 0.22469126 -0.032152425 -0.23111722 0.12673305 0.05367124 -0.17684336 0.08320516 -0.1618044 -0.24467847 0.14576226 -0.24772134 -0.27392605 0.0025933336 0.15548216 -0.050874252 -0.18386199 -0.14955813 0.023602545 -0.44710946 0.06262573 0.097120866 -0.18891126 -0.03976891 -0.07421452 0.14921373 0.010307725 -0.227266 0.17054912 0.13683361
27 0.05720497 -0.2805209 -0.2707556 0.34424418 0.015803741 0.0827674 0.18379238 0.3566806 0.06104254 -0.15623152 -0.2729413 0.5724444 -0.11789699 -0.41419572 0.021389473 0.06097149 0.39314035 -0.06305729 0.089531906 -0.07048783 -0.2237712 0.0301265 0.3847136 -0.11471657 0.29906556 -0.108793266 -0.029297898 0.13841863 -0.09458576 -0.11329791 0.02268171 -0.46092552 0.07109079 0.18034177 0.13292302 0.41426066 -0.015015497 0.06606164 -0.25980762 -0.2750048 0.16738379 0.22620061 -0.1106498 -0.036567748 0.41664416 -0.055119682 0.35460317 -0.3646717 0.20642416 -0.09741813 -0.038931087 0.20335479 0.114867 0.07205028 -0.030980255 0.24503636 0.4502881 0.09129616 -0.21272035 0.12124877 0.11264755 0.073508434 -0.27596387 -0.4393261 -0.14614868 0.094869606 0.297287 -0.44114894 0.47785792 -0.3083593 0.23683557 0.2072838 0.06564679 0.04803049 -0.008434514 -0.14885274 -0.06767794 -0.11131078 -0.039113756 -0.0760254 0.056255344 -0.15904227 -0.51278496 -0.105457 0.07742592 -0.2806632 -0.17010541 -0.34280345 -0.248398 -0.15233862 0.06199062 -0.055256605 -0.11672128 -0.09300596 -0.3065183 0.003003229 -0.33773753 -0.06558265 0.041342925 -0.009366948 -0.6404796 -0.28157252 0.40500343 -0.17059143 -0.07349303 0.055195138 0.13419907 -0.13301505 0.14573337 -0.6325347 0.074337415 -0.13530318 0.53863 0.07282865 -0.39206374 -0.032961044 -0.3203602 -0.08033923 0.055088934 0.120172955 -0.07795743 -0.31163043 0.36592415 0.40987357 -0.34812203 -0.2685553 0.32681575 -0.09538663
31 -0.05343847 0.0058783237 0.0012370754 0.3324141 0.055029806 0.29104733 0.034860324 0.23517227 -0.054723367 -0.048479464 0.020759294 0.20823559 -0.19798195 -0.08822093 -0.04091379 0.093557715 0.08014248 -0.094466686 0.15826918 -0.1606069 -0.17169651 -0.16353315 0.0152219115 -0.04424157 0.18379295 -0.1896425 -0.13383582 -0.011011354 -0.28516167 0.023341715 -0.025412316 -0.30431455 0.1431374 -0.052355796 -0.0058545033 0.2900026 0.27282566 -0.043379024 -0.30937475 -0.16945353 -0.10261732 -0.0056236694 -0.12892382 -0.17098205 0.1222675 0.13543215 -0.013420023 0.08929507 -0.07253807 0.11417874 -0.11553907 0.004842052 0.05823296 -0.3688166 -0.11634497 0.23116057 -0.10982532 0.12402559 0.063590325 0.09621249 0.24118368 0.1184382 -0.18540297 -0.08780282 -0.15043128 0.30863774 0.082608 0.30691385 0.11160232 0.04289873 0.0692968 -0.14606738 -0.02000453 0.2263769 -0.08487602 0.07125703 -0.044214588 0.044513967 0.19291133 0.00092739065 -0.20400462 0.094546355 -0.25402424 -0.20469204 0.07364518 0.04028829 -0.26707545 -0.043224502 -0.29841548 -0.36784932 0.12990627 0.19705419 0.26679102 -0.30879566 -0.10646843 -0.03426507 -0.018718293 -0.006837842 0.40810657 0.041350346 -0.348035 -0.3306955 -0.026162133 0.1854984 -0.2095133 0.088717274 0.122262426 0.078074746 0.19229078 -0.34689853 -0.3671581 -0.095757075 0.12819085 -0.12683322 -0.26027057 0.36675385 0.12475339 -0.061029885 -0.09512686 0.20061803 0.14222674 -0.33383685 -0.05725276 0.015809296 -0.33664662 -0.18910596 0.04365409 0.09094409
15 -0.036897596 0.014033791 -0.14751296 0.23337562 -0.050844125 0.109014966 0.002355644 0.17711142 0.068476245 0.044045143 -0.15312389 0.27687672 -0.03919164 -0.13321674 -0.08459159 -0.21163149 0.060501445 -0.15365122 0.097455524 0.28972578 -0.20027597 -0.05689899 0.032165293 0.1386272 0.18916373 -0.17305757 -0.1925998 -0.09896604 -0.23540235 -0.08826352 -0.19583623 -0.003928221 0.09862817 -0.05429198 -0.18552427 0.18448544 0.15765283 0.057890087 -0.3333656 -0.17423691 -0.14100322 0.19193539 -0.40669277 -0.14404751 0.14713377 0.023047296 0.19333404 0.17158887 0.19824661 0.18353035 0.13368565 0.12182369 0.12079192 -0.21338794 -0.03570265 0.19096991 -0.13959782 -0.09949114 -0.10502186 -0.053014793 0.026287425 0.19638374 -0.17370497 0.03451078 -0.11210573 0.32820246 -0.011357693 0.175787 0.054736055 -0.19986032 0.18242736 -0.08636681 0.23738249 0.025487084 -0.18909873 -0.19427188 0.09967511 -0.079086825 -0.10504879 0.049147494 -0.083942965 -0.022639357 -0.17608112 -0.19610146 -0.14045058 -0.03924758 -0.0911877 -0.24066672 -0.1125209 -0.09428807 0.13630071 0.12905914 0.12560871 -0.11518292 -0.11304048 -0.0394818 -0.16136332 -0.021924697 0.21694641 0.18718491 -0.32854164 -0.13819472 -0.038332094 0.29418764 -0.1607428 0.06620566 0.18390742 0.14508753 -0.10766483 -0.1663185 -0.22101374 0.07594047 0.15540221 -0.13734415 -0.09231641 0.08425111 -0.108161114 -0.20283149 -0.049076937 0.36112016 0.14587013 -0.18794037 -0.15645748 0.12575535 -0.29581425 -0.18974972 0.3518625 0.16787332
61 -0.06492134 -0.15567443 -0.13936342 -0.019971123 -0.006700158 0.02294576 0.28931218 0.43299472 -0.109214194 -0.26920298 -0.21551438 0.2255232 -0.18257095 0.14100148 -0.2020078 0.057436112 -0.2668852 0.06117801 0.13915713 0.1757258 -0.03249505 0.08992162 -0.18488213 -0.45483884 -0.07854626 0.12034044 -0.24114743 0.0023403456 -0.04729164 0.17044303 0.27672052 0.11180218 -0.3220929 0.34470683 0.5554492 0.3392092 -0.12579064 0.19509795 0.09605869 -0.13244963 -0.09842276 -0.22784938 -0.33345205 -0.00050941284 -0.031834986 0.17154618 0.53259224 -0.34186962 -0.14801052 0.16836931 -0.16149722 0.26184034 -0.012546557 -0.5214917 0.032004602 0.5334247 0.2106228 0.5405431 0.022984786 0.1391046 0.08552462 0.032583542 -0.34272894 0.16517557 0.014515861 0.35122728 0.11524755 0.085972875 0.2729816 -0.25530973 -0.11172733 0.5257973 -0.25243804 0.40560058 0.16131762 0.26787964 -0.046915624 -0.44918954 -0.049424734 -0.17005995 -0.070458725 0.025023071 -0.43591812 -0.06559497 0.38176316 0.06934079 -0.18291333 -0.3405721 -0.1102459 0.25172824 -0.07814926 -0.0709014 0.2216247 -0.27589476 -0.40133074 -0.40402976 -0.2061383 0.11968976 -0.16066355 0.03774124 -0.060515456 -0.13181531 0.2583207 -0.06004505 0.050570063 0.16661142 -0.05260034 -0.26133168 0.28459352 -0.082641974 -0.03660335 -0.07327812 0.2697008 -0.19361113 -0.14416157 0.07400891 -0.16271532 -0.09138315 0.5672251 0.21864724 0.04192611 0.048343066 -0.2568847 0.23993117 -0.022990378 -0.37230745 0.38935876 -0.06058297
19 0.027634135 -0.132814 -0.23541854 0.17025255 -0.044215146 0.0964142 0.040900625 0.18831146 0.2410464 0.19068515 -0.30503377 0.59682363 0.20192525 -0.10752746 -0.25162873 -0.49800122 0.13780913 -0.31097075 -0.02430402 0.65370345 -0.37345508 -0.27301073 -0.036898397 0.18789834 0.38530543 0.011169311 -0.20404615 -0.1451206 -0.30020812 -0.09723521 -0.23496462 0.034159143 -0.16994324 -0.070835255 -0.06332351 0.14623514 0.17109007 0.09825559 -0.26133025 -0.29009053 -0.23563316 0.123227485 -0.59363383 -0.17779404 0.25627297 -0.046520505 0.5285939 -0.00933697 0.44815513 0.24197984 0.21978118 0.2164921 0.11205491 -0.4401775 0.05766628 0.3081891 -0.16350563 -0.21920311 -0.20051706 -0.16484173 0.0070468066 0.4044365 -0.36064395 0.19615194 -0.15277521 0.36733449 -0.05404 0.053390548 -0.04511936 -0.39741924 0.20652795 -0.13909923 0.27088663 0.025959738 -0.4292705 -0.2174139 0.23131281 -0.046337385 -0.3400902 0.24448757 -0.034220863 -0.07174311 -0.31463388 -0.25387338 -0.26856667 0.010192888 -0.18963237 -0.5771152 -0.30259153 0.010333597 0.3304823 -0.051608365 0.04803801 -0.22479336 -0.14271547 -0.078301735 -0.3871718 -0.021102335 0.2894291 0.43224338 -0.536083 -0.21076196 -0.069892 0.4879995 -0.23564452 0.281441 0.2549014 0.102754965 -0.2633012 0.08680212 -0.32578307 0.2750475 0.08383438 -0.1982499 0.049676437 0.10498789 -0.21515687 -0.43053204 -0.13542096 0.7949866 0.22283298 -0.01285575 -0.3878577 0.0859164 -0.45918718 -0.4183665 0.7755843 0.35710785
51 -0.0754954 -0.070713714 -0.32130495 0.2210089 -0.028496334 -0.17725557 0.06875255 0.31538102 -0.010379571 -0.14410938 0.08051387 0.027375486 -0.08102799 0.17207232 0.05405394 -0.061060626 -0.19261809 0.2542289 0.05455815 0.24990843 -0.16497283 -0.25390032 -0.15287103 0.010159494 0.11583742 -0.114354216 -0.16936961 0.034721043 -0.075819984 -0.06275212 0.31763285 -0.058967672 -0.4355454 0.12652215 0.4577956 -0.106844485 -0.34653103 -0.0057350527 0.17672043 -0.029353866 0.23019777 0.07856717 -0.11083248 -0.08363729 0.07386128 0.093394965 0.20564859 -0.16066879 -0.06846894 0.42030716 0.46896735 0.12689723 0.09309705 -0.35747138 0.016011253 0.26821494 0.095211156 0.055839863 0.00022895733 0.0794534 -0.0141733745 0.05652331 -0.44505912 0.26155674 -0.10169296 0.12935522 0.012056946 0.010875119 0.21846628 -0.41144854 -0.22667612 0.19121306 -0.1449794 0.39386547 0.1283891 0.15657048 -0.23992085 -0.34880072 -0.25937206 -0.33600628 0.13594396 -0.0053070113 -0.17292531 -0.18505284 0.077832244 -0.26768097 -0.038816415 -0.23989145 -0.041487575 0.4124813 -0.13082433 -0.18485007 0.0859438 -0.112154864 -0.1673162 -0.4015991 -0.05137206 -0.041540876 -0.103188634 0.09479241 -0.09990715 -0.268783 -0.10356027 0.028170265 -0.4073779 0.4402882 -0.0016745175 -0.18631342 0.33502123 -0.067597315 0.0035073904 0.14082691 0.2726096 -0.17962545 -0.06431945 -0.0018400372 0.01363136 -0.43973762 0.34429187 0.19322762 -0.27849033 0.2160931 -0.22862549 -0.010352884 -0.044236995 -0.047736958 0.28806388 -0.0019940725
18 0.064191006 -0.124031015 -0.12686804 0.20584685 -0.07713583 0.12352715 0.04140151 0.21588539 0.22025512 0.122036465 -0.27422017 0.6015437 0.12360723 -0.1035498 -0.242831 -0.47906297 0.10005477 -0.32230008 -0.013552993 0.58840793 -0.36878806 -0.2502066 -0.0090108095 0.16721885 0.32765287 -0.033217173 -0.18687177 -0.13623105 -0.28333408 -0.08208023 -0.17242837 0.035664886 -0.13077988 -0.08812309 -0.04410402 0.1922852 0.17768335 0.12959503 -0.26643583 -0.30127937 -0.21311763 0.14753632 -0.5738948 -0.21838182 0.21564353 -0.029362692 0.4998338 0.0149968425 0.39255333 0.22755998 0.18421483 0.21816933 0.09610989 -0.43000844 0.012676343 0.2899406 -0.14513345 -0.1993261 -0.17397833 -0.16314161 0.025470434 0.38772056 -0.36567405 0.19933887 -0.18705884 0.3955128 -0.028119527 0.09744949 -0.021374442 -0.36599046 0.24258178 -0.08806833 0.25012028 0.039775956 -0.35808808 -0.19764 0.20437106 -0.055556204 -0.26683235 0.17477204 -0.0882309 -0.05083859 -0.32618892 -0.25237095 -0.2335904 0.02722804 -0.19390847 -0.5561809 -0.3081445 -0.023110965 0.34706914 -0.015811555 0.0749937 -0.19728285 -0.16977547 -0.08430251 -0.34826872 0.013428528 0.26898628 0.3617254 -0.5168835 -0.26339537 -0.07205405 0.4882106 -0.19379069 0.25387514 0.23691304 0.10584931 -0.19607343 0.051654343 -0.31320187 0.22454767 0.12752236 -0.2026095 -0.026096443 0.14542295 -0.1696809 -0.41085556 -0.12965606 0.76868194 0.21351731 -0.050475318 -0.3377621 0.07218093 -0.49222413 -0.36804992 0.68357295 0.3481682
38 -0.03057794 0.14147303 -0.045326773 0.55132836 -0.3079358 0.19246387 -0.011533984 0.26843563 -0.048371464 -0.13186695 -0.12206874 0.1883282 -0.5150331 -0.20328178 -0.009586923 -0.387576 -0.061606407 0.09283573 0.29081082 0.31609005 -0.112434134 -0.047910478 0.35022682 0.18128549 0.21718565 -0.5786948 -0.27011725 -0.06981469 -0.3769418 -0.11614128 -0.17960712 0.122419424 0.31058857 0.14881076 -0.2371159 0.17171004 -0.06861047 0.044172257 -0.5201499 -0.18606423 -0.09985384 0.3841642 -0.49880487 -0.13190116 0.009388072 0.102449715 0.16615765 0.4142898 0.11385894 0.32460585 0.16326441 0.22557293 0.0460352 -0.25086325 -0.28145987 0.07860389 -0.107730925 -0.19803534 -0.15555687 -0.20626396 0.14175087 0.20656817 -0.1779044 -0.06192824 -0.26036748 0.543244 0.041290786 0.4027368 0.1409168 -0.16951774 0.5152271 0.10556057 0.21432084 -0.01834539 0.075647816 -0.27888978 -0.13715701 -0.24394298 -0.10174351 -0.3115179 -0.21713881 -0.080147065 -0.1926324 -0.2829325 -0.09751528 -0.07987935 -0.12200906 -0.22745767 0.060974233 -0.00065220235 0.06073857 0.5150676 0.2446143 0.06826339 -0.19989416 -0.2661009 -0.19914661 0.045747973 0.26161528 0.0025528572 -0.33139572 -0.3522711 -0.07316867 0.39802313 -0.29435983 0.091838494 -0.07645177 0.33763534 0.26657104 -0.34525645 -0.24293673 -0.2313912 0.52305025 -0.28963807 -0.30520353 0.31526458 -0.05869497 -0.35939744 0.052419003 0.38984188 0.0011260768 -0.35175842 0.07207267 0.19032657 -0.38662374 -0.102362104 0.12670453 0.23022673
16 0.027093457 -0.05263849 -0.15554214 0.28112802 -0.06274207 0.11705476 -0.02325999 0.14700942 0.112934634 0.13642843 -0.23209475 0.4033503 0.0028926725 -0.13399589 -0.12867504 -0.34533402 0.16051425 -0.17825821 0.0768748 0.39494213 -0.22014989 -0.1964986 0.0650847 0.16240847 0.3030139 -0.16026871 -0.16997251 -0.06467286 -0.30903485 -0.064168766 -0.21408904 -0.018005198 0.08623945 -0.012042046 -0.15759695 0.16885316 0.11454741 0.0025073823 -0.32468012 -0.22370432 -0.1694177 0.12615213 -0.41932917 -0.132307 0.17784 -0.023017822 0.31953165 0.102184504 0.30775905 0.18868364 0.123493254 0.13928051 0.090892166 -0.29555148 -0.063325636 0.18207687 -0.13130744 -0.16204877 -0.10731371 -0.16167429 0.06614439 0.26682422 -0.19462992 0.039132815 -0.14871304 0.3261402 -0.02433497 0.118202835 -0.019399945 -0.2122161 0.2354579 -0.15717691 0.13063736 -0.025102813 -0.25847217 -0.21101947 0.10815134 0.0084198 -0.1857026 0.11619638 -0.055070035 -0.08681044 -0.22839004 -0.21061443 -0.21529904 -0.008116381 -0.12668401 -0.30301335 -0.14620125 -0.057316743 0.22815683 0.10801348 0.085615605 -0.11502198 -0.08435751 -0.063914284 -0.2725497 -0.011706692 0.31942585 0.22510904 -0.3893095 -0.22121565 -0.0907323 0.36821574 -0.25435418 0.17777443 0.15873262 0.17378452 -0.10199909 -0.04957254 -0.2224172 0.07606037 0.1209361 -0.16786014 -0.0033272328 0.20104633 -0.11554827 -0.29128453 -0.13478991 0.522053 0.14685233 -0.12885313 -0.17778422 0.1002259 -0.3759274 -0.2608265 0.4518875 0.24990824
65 -0.11112381 -0.27716768 0.080527134 -0.03336985 -0.06595463 0.030387767 0.09207094 0.27315634 0.06703597 -0.25577 -0.01000389 0.11117378 0.00042885437 0.0953009 -0.1799385 -0.09805946 -0.25498986 0.24003966 -0.15119357 0.24867624 -0.24484704 -0.12554635 0.007324507 -0.10766836 0.1424877 0.16588919 -0.09517014 0.061695646 -0.06273923 0.07771742 0.4147532 0.06832345 -0.6503319 -0.13142031 0.582677 -0.23271579 -0.16938329 -0.048436463 0.3572274 -0.15359715 0.1569808 0.18176414 -0.15041558 -0.23662426 0.013143723 0.11420999 0.3701568 -0.30386078 0.0713906 0.34577566 0.4220085 0.14545155 0.06606438 -0.2987384 0.11260653 0.3038885 0.12095836 0.08096601 0.08721882 0.20013656 -0.10303833 0.23933348 -0.4438736 0.11631702 -0.20861453 -0.03687652 0.031422984 0.013648039 0.17754816 -0.21012066 -0.0776381 0.25525966 -0.050626934 0.1508852 -0.0010923505 0.26320106 -0.03334044 -0.2703935 -0.21011892 -0.22740917 -0.009685936 0.041294675 -0.14090198 -0.053386047 0.29336458 -0.17361891 -0.11959672 -0.48930314 -0.14843303 0.38224566 0.18861052 -0.20760338 0.066623054 -0.23441903 -0.3106087 -0.40142766 -0.26940814 -0.06712449 -0.25842786 0.0706482 -0.3085948 -0.37722498 0.08529306 0.07062227 -0.20310307 0.39907864 -0.10760631 -0.19084291 0.33693707 0.058678556 -0.24529949 0.21775807 0.24416646 -0.1995414 -0.3790717 0.035404753 0.099900246 -0.35271713 0.24987479 0.48796254 -0.08922706 0.30602938 -0.11599045 -0.06731145 -0.16162409 -0.07315005 0.3100749 0.0037610247
17 0.072291195 -0.09141903 -0.13841122 0.24638899 -0.063256696 0.13262254 0.023391373 0.17147377 0.17977676 0.17239667 -0.25906622 0.5591007 0.08742162 -0.1056541 -0.19725318 -0.4338023 0.17536855 -0.30178633 0.029804345 0.48900333 -0.31892368 -0.29465142 0.00878181 0.1638911 0.33202586 -0.087564975 -0.16988476 -0.10588651 -0.3084763 -0.07068668 -0.21702424 -0.01568296 -0.02331242 -0.0377377 -0.10260124 0.21928927 0.17689419 0.06215772 -0.30684003 -0.27923837 -0.22565134 0.07512237 -0.48551905 -0.17188355 0.21483503 -0.04941436 0.40636817 0.05370983 0.35108346 0.1966212 0.09122145 0.17134695 0.072214514 -0.41302168 -0.029916335 0.23799786 -0.1495688 -0.20127723 -0.15201928 -0.20173243 0.08705757 0.34130082 -0.28927794 0.14407326 -0.16747883 0.3935007 -0.026027266 0.08463227 -0.058628373 -0.2946213 0.23965026 -0.16211125 0.16920581 0.02689152 -0.35036564 -0.20837797 0.15954468 0.010830531 -0.22544795 0.19162546 -0.08771153 -0.05554311 -0.29393134 -0.23750262 -0.2750821 0.06960141 -0.19188508 -0.44636193 -0.28997457 -0.08944779 0.3166445 0.03821524 0.065420955 -0.16431944 -0.0996786 -0.037601467 -0.3048125 0.009048212 0.35065162 0.31738612 -0.4579376 -0.2598374 -0.12089247 0.47142377 -0.23053573 0.23045225 0.21859331 0.13952745 -0.17348619 0.038319774 -0.26846078 0.14494973 0.07533345 -0.18645883 0.02464146 0.22062543 -0.14203101 -0.37476382 -0.18541653 0.6733553 0.20300996 -0.11008009 -0.29055563 0.058288418 -0.46224037 -0.34512946 0.5783712 0.33691454
46 -0.27161208 0.05769229 -0.37750304 -0.14105427 0.021549713 -0.117307365 0.47249734 0.21903087 -0.22441666 -0.11470792 0.230018 0.15346193 -0.32201236 0.18071306 -0.2233958 -0.1725946 -0.050960563 0.26674706 0.0968086 -0.003893264 -0.26003355 -0.41774487 0.14745413 -0.13961959 0.50962347 0.19919087 -0.34977382 -0.21193251 -0.08978819 -0.13235548 -0.10966973 -0.18315071 -0.58512026 0.17018369 0.46051162 -0.047312345 -0.22504482 -0.21753553 0.06205066 0.06615314 0.10835567 -0.018246831 -0.1469043 0.25194559 0.27998513 0.1786407 0.04071508 -0.19664708 -0.16162455 0.4629772 -0.1934578 0.12592305 -0.08441124 -0.60270745 -0.0072828713 0.07498347 0.10017694 0.118839204 -0.2644464 -0.09830735 0.229046 -0.06351707 -0.40926865 0.19130954 -0.15189236 0.29814965 0.21099187 -0.21285507 -0.0013642124 -0.5308664 -0.20474699 0.09886071 0.17260331 0.679522 0.09680796 0.26889926 -0.055820905 -0.58157986 -0.5091602 -0.3559645 -0.19120798 0.29736722 -0.18539639 -0.02096304 -0.17536119 0.05978523 -0.19653681 -0.41043165 -0.48640543 0.17663151 -0.13417622 -0.012619384 0.07673712 -0.2648997 -0.11157122 -0.12704122 -0.2291784 -0.19691905 -0.012595052 0.2961407 -0.04616744 -0.29392028 0.14321478 0.059714273 -0.3316585 0.16823344 -0.2069461 -0.3241948 0.19366474 -0.2872475 -0.3532361 0.014133233 0.119862445 -0.08088565 -0.15038791 -0.09982745 0.019230528 -0.54904217 0.1001578 0.13985845 -0.25487676 0.010025917 -0.14301805 0.21994929 0.030665837 -0.36283162 0.30403087 0.16619037
57 0.025336592 -0.20957245 -0.2793088 0.18574455 -0.11024425 -0.24111702 0.19291334 0.37912676 0.0020182664 -0.3052713 -0.058006864 0.24363442 -0.12097136 0.14020014 -0.008626449 -0.014573124 -0.2108935 0.1783196 0.08271617 0.19957712 -0.21945813 -0.18952997 -0.20545521 -0.24464695 -0.10112925 -0.055072404 -0.18796445 0.04190898 0.10714632 -0.0745706 0.39823303 0.12573735 -0.5388885 0.2737286 0.6225401 0.113247775 -0.39941236 0.2796061 0.26054072 0.020403527 0.1658481 -0.12412121 -0.20937926 -0.12942953 0.122274965 0.09577104 0.37895313 -0.25296935 -0.051711187 0.30703354 0.2616761 0.27872583 0.039835215 -0.47713 0.059799965 0.35923016 0.26720846 0.086969756 -0.062139563 -0.046075944 0.031277686 0.1349843 -0.5665596 0.36023524 -0.021382168 0.27029613 0.1440071 -0.18320498 0.3745648 -0.6117146 -0.24950963 0.559002 -0.14456622 0.45900732 0.23403867 0.18830547 -0.29071578 -0.5893207 -0.20401698 -0.23753294 0.018022958 0.0150375245 -0.35938174 -0.1713298 0.16953655 -0.25199816 -0.04465744 -0.39817894 -0.17569649 0.3821243 -0.1278062 -0.23381782 0.008662533 -0.082933724 -0.30995247 -0.38091367 0.016884962 0.08114131 -0.24491233 0.015601204 -0.04569342 -0.17085548 0.025466291 -0.115775466 -0.27959868 0.33399647 -0.04887782 -0.27988064 0.33045805 -0.0007578002 0.10103658 0.06597287 0.36194882 -0.08732228 -0.095042355 -0.06611307 -0.15006489 -0.47982562 0.4840812 0.24570133 -0.18787843 0.1407276 -0.33356276 0.08137431 -0.15256453 -0.076077424 0.3934941 0.016816752
25 0.07084488 -0.28605604 -0.25636443 0.43360862 0.02902103 0.18707506 0.14149623 0.3524734 0.08823952 -0.09959882 -0.25955728 0.67006546 -0.089030646 -0.46377453 0.022255313 0.050581623 0.48388672 -0.14288194 0.09323917 -0.09172623 -0.29561955 -0.034984156 0.42098475 -0.050651956 0.38378528 -0.15341732 -0.016024157 0.14896591 -0.19071756 -0.12273875 -0.026728677 -0.6035789 0.14441761 0.10619807 0.042551655 0.4405345 0.11510264 0.032409783 -0.347858 -0.35330874 0.12339195 0.25415978 -0.09699538 -0.10388667 0.479395 -0.057683572 0.32519358 -0.33750668 0.24915056 -0.090883724 -0.031027788 0.17792441 0.13336031 0.043123428 -0.054626133 0.2732211 0.40588292 0.044289786 -0.19873017 0.140422 0.16056749 0.13395405 -0.29773328 -0.5021682 -0.20099218 0.11733955 0.28885737 -0.3889695 0.45737442 -0.2735204 0.30379206 0.053876154 0.10772274 0.03459422 -0.094603024 -0.18282422 -0.046883143 -0.0046322388 -0.00086019054 -0.027246647 0.032556094 -0.14929727 -0.5532618 -0.15612747 0.041887153 -0.2760849 -0.22787592 -0.35126173 -0.35549635 -0.28683156 0.16863754 -0.013066926 -0.079073615 -0.14681058 -0.30592284 0.06302428 -0.36434048 -0.08269184 0.19787492 0.03165246 -0.8041649 -0.37618345 0.39450476 -0.0696996 -0.13899058 0.07798917 0.193561 -0.070024565 0.14598885 -0.71671236 -0.027482824 -0.13089456 0.5418062 0.06354327 -0.44793624 0.06907074 -0.2811706 -0.09086952 -0.07459316 0.20923151 -0.03053053 -0.40334687 0.39640197 0.38471472 -0.46504673 -0.30303556 0.32549453 -0.0459325
39 0.026313491 0.09554255 0.010749001 0.5928909 -0.33938023 0.20472042 -0.0143725835 0.30659544 -0.03945981 -0.19262569 -0.18394719 0.27085072 -0.5637356 -0.26662692 -0.04812359 -0.41443145 -0.014927676 0.0847802 0.2900832 0.31963435 -0.117468745 -0.02230487 0.4388053 0.14450201 0.23812573 -0.5857684 -0.24191971 -0.04301903 -0.37082553 -0.08641447 -0.14509775 0.113606915 0.35209405 0.17610426 -0.20444946 0.22319609 -0.1147735 0.053468104 -0.543539 -0.2180693 -0.0726089 0.4200201 -0.52204114 -0.14664535 0.029149616 0.103406064 0.26315916 0.36475623 0.14081058 0.2713812 0.15415815 0.2549143 0.03508313 -0.2158304 -0.29621896 0.07128115 -0.044383492 -0.20068404 -0.18763207 -0.22069575 0.152764 0.21434297 -0.17428665 -0.122990504 -0.27613258 0.53409445 0.08842741 0.3513026 0.18169963 -0.1770273 0.5788088 0.16953853 0.18858631 -0.058512386 0.1022409 -0.29860643 -0.13621409 -0.23186843 -0.09132641 -0.33389992 -0.23305637 -0.12310203 -0.24991533 -0.27990073 -0.06785788 -0.11269864 -0.10732578 -0.27431437 0.066924185 0.012304914 0.088070214 0.50877243 0.2114387 0.077398516 -0.23772712 -0.2931401 -0.249785 0.06952341 0.22569089 -0.049453136 -0.39757603 -0.37343362 -0.029443495 0.3613996 -0.2564274 0.08646925 -0.07443719 0.33373308 0.3028243 -0.3641058 -0.20527813 -0.27286756 0.58423626 -0.27923515 -0.338221 0.30935833 -0.08574109 -0.35248485 0.046031296 0.4154044 0.0030082762 -0.35273862 0.15780412 0.23707223 -0.4280145 -0.12846577 0.14651075 0.19759269
54 -0.0025254453 -0.023560956 -0.5271303 0.44916147 0.0021311636 -0.23646925 -0.0025544532 0.39023328 -0.027454505 -0.062213086 0.06256766 0.060466852 -0.105620824 0.19536732 0.17801313 -0.03921238 -0.12238708 0.22476076 0.13918126 0.2691404 -0.12841223 -0.3820528 -0.22585331 0.09273335 0.18743555 -0.3138393 -0.18373835 0.07224017 -0.16928433 -0.08646361 0.33975223 -0.20969534 -0.26862162 0.26972884 0.4091248 -0.027024705 -0.43036324 -0.06193747 0.0528976 -0.03808534 0.28484085 0.049652368 -0.07054132 -0.05276503 0.09983066 0.06685728 0.21914789 -0.14189693 -0.12177721 0.46585426 0.55429065 0.09710913 0.124988645 -0.38450292 -0.06129661 0.30112138 0.09220534 0.08408037 -0.0065906793 0.056813207 0.058545697 -0.01903058 -0.46189123 0.2724761 -0.101981774 0.19252892 -0.004239189 0.0432654 0.24665427 -0.46824944 -0.28025645 0.07750518 -0.32704902 0.48202217 0.15067239 0.094230115 -0.34630054 -0.24423958 -0.27709004 -0.41242903 0.26895574 -0.11526425 -0.2351408 -0.27700895 -0.020156562 -0.3087167 -0.04257483 -0.089481816 0.029952137 0.45571855 -0.22763258 -0.19543102 0.12855038 -0.066558406 -0.09489384 -0.4489985 -0.01605139 -0.022689229 0.045619894 0.07116752 -0.085647196 -0.29024103 -0.25250506 0.040772293 -0.56646484 0.5822583 0.09419275 -0.16668221 0.4134361 -0.1389126 0.17591062 0.08595878 0.30868205 -0.24147707 0.085256636 0.10377852 0.006357843 -0.48973027 0.38408482 0.09259886 -0.3969702 0.202541 -0.24177216 -0.0015187669 -0.045153394 -0.07401871 0.30095053 -0.03576436
33 0.03054167 -0.024621086 -0.04144207 0.50904113 0.112867676 0.3619328 0.021492781 0.35163143 -0.16263738 -0.01951373 0.029445313 0.2973786 -0.299404 0.0037275031 -0.11354877 0.11401888 0.13184269 -0.09484495 0.22361998 -0.27435043 -0.19937831 -0.41439074 -0.08374936 -0.12346066 0.3234737 -0.24523 -0.20374955 0.013943518 -0.42494053 0.10506122 0.08805786 -0.43460333 0.16146547 0.020950092 0.13631767 0.37454605 0.26086795 -0.17532961 -0.3401809 -0.22096309 -0.15404105 -0.24539612 -0.08745347 -0.1806879 0.12735084 0.20014745 0.06365459 0.049213786 -0.16691482 0.1739941 -0.19066656 -0.04102274 0.016371816 -0.6501354 -0.1878006 0.3365685 -0.15563317 0.22795092 0.17360592 0.052912377 0.41917756 0.105096385 -0.23572122 -0.027340284 -0.21806997 0.44360414 0.14376584 0.40646276 0.05856302 0.04099302 -0.039867867 -0.28232905 -0.3080897 0.42254096 -0.115935065 0.20864956 -0.11700408 0.14522783 0.22232425 -0.023321236 -0.2589828 0.08410099 -0.3481505 -0.2461838 0.06612949 0.1382889 -0.39536545 0.03264468 -0.433524 -0.4112082 0.17513567 0.2078961 0.3987441 -0.43695068 -0.039991558 -0.10186861 -0.020891929 0.012246209 0.6380662 -0.0201294 -0.3413697 -0.52350897 -0.16600029 0.24361683 -0.41695654 0.26525623 0.08119274 0.061383266 0.39555523 -0.3300371 -0.41662315 -0.16858949 0.08451482 -0.24004814 -0.23938683 0.6696302 0.23183091 -0.15301684 -0.12609324 0.25501513 0.11739543 -0.3132253 -0.13078287 -0.03098342 -0.46338928 -0.26488245 0.042026643 0.13404956
48 -0.32169414 0.01900324 -0.53697586 -0.053127754 0.07203599 -0.073918216 0.48874053 0.14617637 -0.26629895 -0.0006034395 0.183069 0.2191004 -0.3354015 0.085223906 -0.21040432 -0.25014678 0.2006541 0.39529926 0.15507627 -0.019081628 -0.27681088 -0.5302813 0.34466922 -0.103976876 0.8442496 0.20992032 -0.37347755 -0.1631756 -0.2048493 -0.16983418 -0.29060495 -0.3873565 -0.52935815 0.2252382 0.39570287 -0.102414936 -0.27696136 -0.41147164 -0.046726275 0.0223598 0.14399275 -0.015686061 -0.093451545 0.3911648 0.43491834 0.14416248 0.07557952 -0.30172226 -0.020197686 0.48578253 -0.24027126 0.12328347 -0.10267127 -0.618576 -0.049173962 0.020504614 0.1496425 0.05434279 -0.33279762 -0.14895737 0.28950334 -0.054125622 -0.37805945 -0.03689028 -0.20322496 0.24370696 0.26860467 -0.38337734 -0.014731576 -0.5560374 -0.13589193 -0.079718135 0.17377049 0.6465131 -0.012922574 0.2328628 -0.04923558 -0.4978296 -0.6616131 -0.34031603 -0.13787171 0.23848204 -0.2199514 0.0060361517 -0.2703706 -0.013480384 -0.23688555 -0.43176323 -0.5181116 0.14941515 -0.12219551 0.050213136 0.030758413 -0.30907 -0.07622988 -0.09343638 -0.4267326 -0.31514242 0.14261253 0.3494479 -0.20914826 -0.41447473 0.23392354 0.044995025 -0.5167522 0.1816064 -0.29739162 -0.28682655 0.21004558 -0.40699473 -0.41902786 -0.04755273 0.13664126 -0.042362053 -0.15692912 -0.029770473 -0.016618434 -0.58684117 -0.05579754 0.18195935 -0.34585413 -0.022053055 0.035173655 0.32238728 0.018727932 -0.44805208 0.36174017 0.20445707
67 -0.13419217 -0.30941948 0.09940452 -0.006570894 -0.062800094 0.06728735 0.14630389 0.32751447 0.026008256 -0.32034522 -0.003340713 0.10959021 -0.076603696 0.04951603 -0.17418185 -0.019898241 -0.24506855 0.3046524 -0.120020635 0.17019087 -0.23301247 -0.06798661 0.07206375 -0.1697474 0.13518386 0.15679674 -0.11347698 0.10402922 -0.053164296 0.086715296 0.452891 -0.00036212 -0.65018046 -0.11379285 0.63695157 -0.18957487 -0.17116754 -0.03552173 0.3475519 -0.18357176 0.18525088 0.19710706 -0.12200214 -0.23964451 0.021900892 0.14556694 0.38578686 -0.36496624 0.041706365 0.32092586 0.37779602 0.16237445 0.057540648 -0.2802959 0.11059394 0.3467574 0.19501263 0.1466269 0.10884222 0.2645402 -0.09013687 0.23613663 -0.46994624 0.024381224 -0.21617915 -0.043459263 0.07804752 -0.00889916 0.26656726 -0.19004928 -0.04402741 0.3503387 -0.06984773 0.16954915 0.058172718 0.29037932 -0.06524007 -0.32999733 -0.15487058 -0.2801557 -0.03410978 0.046204563 -0.20816143 -0.04650921 0.39778662 -0.22462797 -0.13104925 -0.5112621 -0.15490612 0.34837478 0.16811109 -0.1891468 0.07886347 -0.27869642 -0.3829041 -0.4346655 -0.29028693 -0.071101 -0.28520113 0.019497825 -0.36376432 -0.42913628 0.19855648 0.0029216828 -0.1756717 0.36924747 -0.13493817 -0.22282772 0.42128474 -0.057508446 -0.2634437 0.15595086 0.3473294 -0.17349 -0.48602614 0.02856656 0.09201589 -0.30911487 0.29722607 0.45209634 -0.112354055 0.25219277 -0.016343152 -0.010297694 -0.16261502 -0.075762935 0.27362671 -0.032897662
59 -0.009707271 -0.16607063 -0.25932077 0.10709138 -0.012557282 -0.10471745 0.18083254 0.41933158 -0.05363671 -0.21065308 -0.19850223 0.19452927 -0.1013908 0.1784689 -0.09435901 0.03346988 -0.2510514 0.07699099 0.13423328 0.26414332 -0.05468649 -0.02764722 -0.3001984 -0.33664903 -0.1076357 0.011075578 -0.21810187 0.029454354 -0.030655652 0.107552305 0.33989087 0.1355817 -0.3426725 0.35475513 0.5403018 0.25563368 -0.24875504 0.21647432 0.14682716 -0.076557525 -0.01864682 -0.24282788 -0.29768977 -0.047785185 -0.005704102 0.1300353 0.51495445 -0.2905372 -0.10774455 0.23305364 0.07801957 0.24190223 0.036810424 -0.5123459 0.041665666 0.51241446 0.18074965 0.3971457 0.033640105 0.08097472 0.047005948 0.056098096 -0.39213258 0.28793132 0.034626823 0.32047853 0.06961634 0.042411573 0.28347704 -0.37211692 -0.21489191 0.47315764 -0.31180516 0.41351885 0.16512033 0.2214782 -0.14036097 -0.42518148 -0.10462972 -0.16083959 0.040703207 -0.048239447 -0.39598423 -0.12845388 0.282264 -0.05491263 -0.10170959 -0.28101838 -0.037258398 0.35999873 -0.120608345 -0.16082302 0.16805315 -0.20438637 -0.3236248 -0.43536505 -0.10962147 0.12589525 -0.14677227 0.032519504 -0.0018109919 -0.10224148 0.07710517 -0.0628619 -0.11611269 0.29008064 0.0029030354 -0.24380508 0.2890711 0.029073922 0.091679275 0.0017893533 0.2514219 -0.19457856 -0.0010613257 0.061341256 -0.16943061 -0.2035041 0.5746256 0.21340688 -0.040077772 0.13624498 -0.36139566 0.1514084 -0.034914285 -0.2632493 0.4328661 -0.045561366
35 0.07255828 -0.04349045 -0.015736073 0.52729243 0.05435887 0.36467564 -0.0222064 0.31910875 -0.111448504 -0.01557299 -0.036291137 0.3561808 -0.2810209 -0.08543086 -0.080060616 0.059077423 0.17270671 -0.13798124 0.20816284 -0.21598938 -0.20003614 -0.33457354 0.013036296 -0.07791145 0.2877524 -0.2916291 -0.14914912 0.0209951 -0.40189025 0.07583056 0.03957218 -0.3983317 0.23875867 0.034337603 0.04720794 0.38353375 0.24758513 -0.10285531 -0.38439313 -0.24032965 -0.13923393 -0.14990328 -0.1248496 -0.18770297 0.13393052 0.15538903 0.09723343 0.06479875 -0.09112712 0.10057943 -0.1509412 -0.010487401 0.0177228 -0.505376 -0.19370334 0.29016942 -0.11305933 0.15191999 0.12199591 0.020181317 0.36669245 0.13391916 -0.20068322 -0.088086925 -0.20576513 0.41455185 0.12880316 0.3487312 0.081251696 0.039012935 0.086161815 -0.22934961 -0.23248336 0.27297732 -0.11050975 0.09617933 -0.09962714 0.1683358 0.22613893 -0.015585841 -0.22713338 0.023232754 -0.36298326 -0.25217468 0.049726255 0.10466404 -0.35575953 0.002183173 -0.35407758 -0.41080558 0.19925824 0.23506086 0.330647 -0.34922546 -0.06365795 -0.076802805 -0.05681725 0.033934712 0.5822247 -0.050524436 -0.38952225 -0.47203904 -0.111502245 0.24095711 -0.3400084 0.21335055 0.086323835 0.10778463 0.3468806 -0.34602007 -0.3282653 -0.18585965 0.14217748 -0.2003176 -0.24764527 0.6085607 0.14511012 -0.11877486 -0.13752271 0.26679236 0.12478673 -0.3503712 -0.034026336 -0.0024564662 -0.49100062 -0.24263231 0.03870342 0.12810813
47 -0.27492025 0.04034081 -0.5122633 -0.05117007 0.08918079 -0.08632027 0.4764178 0.21526068 -0.2783581 -0.031148592 0.19739427 0.2097598 -0.3466528 0.16431268 -0.22017913 -0.17502391 0.10264594 0.3192491 0.15933664 -0.05144317 -0.26426277 -0.54192567 0.1952571 -0.1589629 0.71850395 0.19863416 -0.3925225 -0.18204819 -0.178463 -0.124824695 -0.19549836 -0.34249648 -0.53908277 0.25262552 0.46090487 -0.024592554 -0.25978366 -0.3487774 -0.01389891 0.04610141 0.1109387 -0.121117525 -0.10661865 0.3429801 0.37300226 0.1749351 0.07513596 -0.26711324 -0.124703445 0.48119584 -0.26386657 0.11230741 -0.09931731 -0.7028088 -0.04044402 0.089045994 0.10877166 0.13726239 -0.2767646 -0.1362514 0.31708062 -0.081801005 -0.40178663 0.094266914 -0.17077854 0.31267148 0.2560729 -0.28507388 -0.012927181 -0.5528151 -0.23769177 -0.028807389 0.0722471 0.738905 0.028401861 0.28862223 -0.06996861 -0.5090773 -0.5791785 -0.3338563 -0.16468897 0.26142722 -0.24523821 -0.021388698 -0.23515634 0.049555644 -0.24194482 -0.3736549 -0.5305629 0.13653883 -0.14779752 0.009903845 0.096068576 -0.3321219 -0.070476495 -0.11185839 -0.3154605 -0.25310975 0.14113845 0.3131762 -0.10009344 -0.36615235 0.1456005 0.042707175 -0.4793562 0.20961505 -0.24699743 -0.32509667 0.23859297 -0.3529753 -0.38426742 -0.0384735 0.09638323 -0.075109236 -0.10299309 0.011486532 0.014003965 -0.57110447 0.028061805 0.14745466 -0.30379665 -0.011358331 -0.09759156 0.2751397 0.008363943 -0.44261542 0.35284066 0.18718971
22 -0.06532322 -0.12265747 -0.21227254 0.27741912 -0.04497736 0.18443626 0.0720819 0.18529387 0.04700403 -0.032287616 -0.24649194 0.4043607 -0.07395856 -0.38900554 -0.0050663906 -0.06912943 0.3099635 -0.054738145 0.13405584 0.0823516 -0.21762323 0.055293616 0.34984753 0.02971749 0.29995346 -0.15300143 -0.13390256 0.024303129 -0.2098559 -0.13394302 -0.21928462 -0.26549622 0.18466425 0.0011680694 -0.18372908 0.25950527 0.16367081 0.02836891 -0.39854866 -0.25589222 -0.0068342336 0.29962265 -0.27237087 -0.09153062 0.31587106 -0.006118086 0.21287756 -0.06550651 0.27588996 0.02459349 0.0285544 0.16584219 0.15632015 0.022244196 -0.025732305 0.19399226 0.13450254 -0.04645721 -0.179843 0.06312528 0.018613255 0.19346137 -0.15624447 -0.36245304 -0.13844004 0.16542543 0.123603255 -0.121102065 0.28645906 -0.19442336 0.32060185 -0.0019129314 0.31604883 -0.07321039 -0.15186507 -0.2610183 0.072763056 -0.086215645 -0.081990406 0.023310954 -0.035424903 -0.108081006 -0.31232923 -0.14843626 -0.011504556 -0.19966422 -0.123910375 -0.30142736 -0.14215945 -0.2113511 0.12861432 0.1377238 -0.0003102378 -0.12918764 -0.24744567 0.055938058 -0.3386844 -0.12001622 0.17205511 0.107238136 -0.605122 -0.19098155 0.2963257 0.06437006 -0.11768906 -0.039679684 0.14110829 0.09503712 -0.0075726314 -0.5148535 -0.15498053 -0.056830563 0.38861814 0.0086149005 -0.3178906 0.008844494 -0.24350293 -0.07678017 -0.077574514 0.23016499 0.079079166 -0.36993423 0.22164342 0.32241493 -0.32900912 -0.24750355 0.31771827 0.042689733
42 -0.17083228 0.18212596 -0.17034115 0.41240025 -0.2346717 0.18188702 0.059230737 0.19355859 -0.12304051 -0.015116534 -0.1105435 0.117805816 -0.43480706 -0.15905595 -0.055602185 -0.3630732 -0.03342338 0.12527232 0.3331377 0.31373084 -0.11224867 -0.06413285 0.2663541 0.15302663 0.30879882 -0.44100007 -0.37812206 -0.14168331 -0.41045377 -0.1450811 -0.35434607 0.14524254 0.26556677 0.104143105 -0.30838993 0.12870699 0.040591262 -0.0279419 -0.5326211 -0.14202794 -0.20988217 0.29349914 -0.55404174 -0.03208005 0.045570824 0.13552243 0.09064947 0.4490472 0.12519234 0.38923183 0.06438111 0.19430366 0.05806181 -0.34880924 -0.22777975 0.110495426 -0.20172174 -0.1514486 -0.1573145 -0.20759615 0.11146426 0.18658514 -0.12798636 -0.036067285 -0.2021327 0.57719564 0.026166052 0.39711693 0.03922312 -0.18956463 0.41978753 -0.020184373 0.3289783 0.045425903 -0.038576696 -0.2557265 -0.03394519 -0.3129618 -0.19546436 -0.21309468 -0.24168372 -0.0039473735 -0.112711824 -0.23887603 -0.15799019 -0.016546981 -0.12893826 -0.21282527 0.0056992136 -0.04071253 0.03390263 0.54154265 0.27735606 -0.028999943 -0.15764284 -0.1814748 -0.2394019 -0.05623054 0.32435367 0.12119311 -0.25367674 -0.28110376 -0.027890075 0.42469376 -0.32088092 0.008987168 -0.10017581 0.33261508 0.136194 -0.3466859 -0.36499405 -0.18695013 0.37678242 -0.26664743 -0.24638952 0.2539844 -0.07492774 -0.3511527 -0.00056725414 0.35685337 0.06604306 -0.36719528 -0.039324097 0.22628978 -0.29731983 -0.17227808 0.18666749 0.26964018
5 -0.21971293 0.13337927 0.104369916 0.09578937 -0.09609596 0.111462615 0.10687955 0.16082294 0.09477486 -0.23558351 0.24763234 -0.07337483 -0.11025295 -0.038969047 0.09077944 -0.10542166 -0.25852975 0.056940738 0.03469082 0.17767492 -0.22013102 0.2199737 0.07009853 0.21796298 -0.054797865 -0.14364319 -0.069331236 -0.12525353 -0.024531215 -0.1766077 0.025316862 -0.047561537 -0.19763476 -0.3168285 0.024501894 -0.044720538 0.16532443 0.25725508 -0.103515945 -0.101778015 0.1311035 0.5206215 -0.23436157 -0.22016405 0.05116707 0.15242405 -0.18118988 0.15566023 -0.03170803 0.29184198 0.35813853 0.11389462 0.10081012 -0.104001544 0.013360408 0.1273993 -0.094921954 -0.12902647 -0.09557316 0.24264695 -0.12593901 0.1357104 -0.3487806 0.079393156 -0.16955468 0.17196305 -0.013054906 0.28329477 0.25793067 -0.12428366 0.18407042 0.16967164 0.5978208 0.16723911 0.09231383 -0.004507254 -0.064318344 -0.34614176 0.054947626 -0.22764248 -0.1735815 0.291421 -0.046561882 -0.21972081 0.15900739 -0.22346555 -0.1195993 -0.3303036 -0.15268794 -0.12069804 0.020187479 0.13554764 0.1142547 -0.12358142 -0.26447248 -0.17597947 0.014558807 -0.0335897 -0.052751664 0.25027785 -0.4240311 -0.2806333 0.18398698 0.24867448 -0.0072098025 -0.06123237 0.12009518 0.03163479 0.034192346 -0.34536588 -0.45172623 0.16133647 0.34690374 -0.027267743 -0.45858634 -0.19681934 0.063040964 -0.19177863 0.08239635 0.25772056 0.01573692 -0.17417194 -0.07774406 -0.0111357095 -0.13217716 0.012758962 0.061650272 0.14138037
9 -0.43571714 0.109721586 -0.34759924 0.07824021 0.23684242 0.22326377 0.0602976 0.26754335 -0.17145173 -0.12826166 -0.025340151 -0.14225647 -0.051897965 -0.052337836 -0.11582571 0.11592479 -0.14033145 0.12838511 0.22520518 0.13068692 -0.1336803 0.3376844 -0.19109607 -0.02285497 0.25351378 0.028533028 -0.40138242 -0.19640249 -0.2653793 -0.011763434 -0.23496602 -0.088258766 0.003128226 -0.19987917 -0.11677533 0.10061662 0.29903668 0.031223804 -0.3478698 -0.09589776 -0.13013652 0.21084927 -0.49183017 -0.08833899 0.18178505 0.33205417 0.079893745 0.09388356 0.0354779 0.292718 0.25115374 0.052891452 0.25093973 -0.33206525 0.13836583 0.4920435 -0.30335453 0.31855425 0.035293225 0.43233845 -0.08376999 0.050107546 -0.14080018 -0.06325342 0.023771148 0.3114829 -0.0025723986 0.4651121 0.25095665 -0.10502093 -0.1388756 -0.115130804 0.4370632 0.30206162 -0.17438224 0.10130919 0.17247202 -0.30464214 -0.02306998 0.026745379 -0.13530031 0.17574853 -0.15331265 -0.21363544 0.285599 -0.22895618 -0.1314162 -0.104404956 -0.041928295 -0.17833138 -0.07166785 0.1982922 0.40532142 -0.5932157 -0.23834029 -0.23905934 -0.196496 -0.18179585 0.17681989 0.2745378 -0.39055178 -0.03938342 0.33780795 0.083035864 -0.22955078 -0.14083669 0.14497925 0.0007933407 -0.10508963 -0.47446534 -0.671067 0.24509507 0.1262144 -0.067457765 -0.32922646 -0.15688962 -0.10869743 0.095034614 0.3038389 0.23217858 0.22341308 -0.18555312 -0.28959152 0.32194734 -0.036569778 -0.30032778 0.452049 0.01483175
30 -0.043282364 0.036911517 0.021116024 0.35247573 -0.01174101 0.28792882 0.051948313 0.24512897 -0.032426313 -0.045355067 0.0034295078 0.24148735 -0.2501749 -0.10888391 -0.06583656 0.02554104 0.0715087 -0.12235203 0.15532178 -0.11734666 -0.19935037 -0.21780013 0.081133716 -0.0106163 0.197347 -0.23729733 -0.16415422 -0.036542445 -0.30802026 -0.0026476001 -0.08023991 -0.25378788 0.16918978 -0.03379116 -0.056885533 0.29884204 0.26204625 -0.06635631 -0.366964 -0.16738802 -0.1297401 0.045350924 -0.19059792 -0.16988836 0.12017199 0.120845936 -0.027551135 0.18442054 -0.056557864 0.14375903 -0.1482051 0.032043085 0.05256162 -0.3830643 -0.15323067 0.16734461 -0.12956013 0.054798592 0.0071202647 0.0028119273 0.2701238 0.15295696 -0.19550133 -0.06325902 -0.18626522 0.3679601 0.07369889 0.32202944 0.06922243 0.015822414 0.13148421 -0.14020027 0.015539591 0.20945118 -0.09595665 -0.0049837595 -0.035848375 0.021064565 0.15024038 -0.011742989 -0.23229216 0.087636605 -0.23656006 -0.21169063 -0.025169397 0.08230686 -0.2620745 -0.07850377 -0.3122393 -0.3532432 0.14068113 0.23539178 0.2684396 -0.2450714 -0.10405114 0.011091542 -0.011097337 -0.004476399 0.41965204 0.05420926 -0.33432296 -0.33850497 -0.09513896 0.27100068 -0.19919705 0.09898671 0.13082062 0.114059396 0.17059562 -0.3477157 -0.3710925 -0.123543814 0.14535615 -0.17671618 -0.24853155 0.39357185 0.13772799 -0.12912111 -0.14295325 0.23002233 0.15652144 -0.37688893 -0.056876145 0.006720286 -0.38180548 -0.19696297 0.04627974 0.125094
13 -0.18721466 0.2753217 -0.06826117 0.059692577 0.07818139 0.1328978 0.2472503 0.47779012 -0.1577917 -0.32814357 0.3367892 0.08067123 -0.346005 -0.0065843808 -0.18474956 0.14190397 -0.30688977 -0.19489148 0.056601185 -0.1888835 -0.37565845 -0.043786854 0.0010068303 0.124258526 0.12281927 -0.100459546 -0.36750564 -0.37676996 -0.078996755 -0.15193866 -0.017077155 -0.23968832 -0.108403966 -0.35406476 0.0319387 0.20197037 0.35332033 0.0006534235 -0.33656392 -0.061446626 0.029837517 0.46027252 -0.34920773 -0.21915342 0.17964827 0.29059866 -0.26856062 0.3460477 -0.36923176 0.34628314 0.10470306 -0.0064421254 0.18075077 -0.27907193 0.005516188 0.17177202 -0.2433829 0.18445171 -0.1303841 0.29279795 0.12988582 -0.080172285 -0.3603848 0.25641483 -0.18811236 0.441622 0.111698985 0.44801375 0.13527192 -0.3006306 -0.13721906 -0.01809259 0.5451324 0.60675764 0.026467605 0.049301554 0.1896477 -0.36712182 0.005277899 -0.3602051 -0.37636974 0.3741927 -0.054139715 -0.21242899 -0.06209769 -0.007502355 -0.12619913 -0.13082665 -0.44813216 -0.3205107 -0.04162643 0.037750952 0.39258382 -0.33525172 -0.17809358 0.07333776 0.12619604 -0.16605107 0.049236126 0.19276392 -0.24845347 -0.16758408 0.03168919 0.28116453 -0.032700524 -0.07671917 0.31357983 -0.1543943 0.01650806 -0.7158186 -0.5692598 0.23176277 0.21584876 -0.20170754 -0.5429751 -0.23043007 0.1725854 -0.28025392 0.065947846 0.04419166 0.07790939 -0.31159672 -0.20354667 0.1433053 -0.2515847 -0.17371282 0.19063301 0.029502438
1 -0.14087416 0.16550258 -0.29138455 0.09547481 -0.060677454 -0.12655756 0.13577634 0.2503202 0.13101271 -0.110687695 0.24245381 0.030398466 -0.03803465 0.0005867088 0.1169606 -0.12131221 -0.2192492 -0.06377076 0.01981738 0.26736197 -0.24920437 0.054466423 -0.052444085 0.3352913 -0.02918028 -0.16917996 -0.14796002 -0.16486719 0.006585071 -0.27894515 -0.033339944 -0.10432849 -0.22275452 -0.12491321 -0.009396342 -0.0026137396 0.049624626 0.24307078 -0.12887233 -0.009675197 0.13940409 0.507035 -0.25182083 -0.16594413 0.16130024 0.03646545 -0.12230095 0.18142097 -0.03458119 0.34674197 0.4341075 0.10089991 0.16000868 -0.047436584 0.06889064 0.13089488 -0.018072125 -0.13941363 -0.22456211 0.13965094 -0.07716078 0.037805937 -0.4079086 0.24583837 -0.07617039 0.20726211 -0.046158366 0.13737474 0.21764392 -0.37225053 0.024990393 0.13579471 0.5354055 0.27960774 0.044581313 -0.14334294 -0.08386886 -0.38271195 -0.13746955 -0.2667848 0.014432211 0.21293841 -0.06560911 -0.26895636 -0.113400474 -0.26020297 -0.038486905 -0.31083915 -0.19733307 0.014186838 -0.098952904 -0.06777803 0.041558154 0.00816332 -0.16957568 -0.10056695 0.10296016 -0.051798448 -0.083614305 0.29977873 -0.2850587 -0.088013075 0.035976578 0.16172875 -0.08781561 0.04673149 0.25131962 -0.089599386 -0.08449472 -0.39060006 -0.18614736 0.26529738 0.34172595 -0.036329273 -0.21943393 -0.37844017 -0.059313 -0.3323187 0.1854359 0.15072802 -0.09593195 -0.12259658 -0.19857498 0.08311959 -0.08722783 -0.026573008 0.23494749 0.104126185
28 0.0038591383 -0.22925782 -0.2979025 0.3762901 0.023621503 0.12524116 0.17487186 0.36088207 0.043549422 -0.1579627 -0.2361665 0.5381103 -0.1435159 -0.43810678 0.032468893 0.05816839 0.39503956 -0.047934562 0.111162394 -0.07708889 -0.23931803 0.06338543 0.41991013 -0.05182859 0.34136426 -0.14883392 -0.06095692 0.11050205 -0.13490234 -0.13951617 -0.036110714 -0.5036124 0.12135649 0.1174001 0.047967464 0.39836627 0.04141637 0.043363854 -0.34696388 -0.28973863 0.16412646 0.31413648 -0.1449169 -0.045333464 0.45155537 -0.0205921 0.28429788 -0.2922624 0.19915673 -0.05236216 0.009833602 0.1961696 0.14304462 0.08124787 -0.037169144 0.25663528 0.39332402 0.07141705 -0.22254853 0.16746992 0.09623265 0.06976758 -0.27673545 -0.47860396 -0.17037727 0.12147708 0.2839261 -0.3674363 0.49063236 -0.30250612 0.26674274 0.13747585 0.1721671 0.059267 -0.030081851 -0.1728765 -0.062700614 -0.122268446 -0.042343456 -0.094589174 0.02825181 -0.12985511 -0.4932688 -0.13119903 0.0749853 -0.31361118 -0.17731695 -0.3402148 -0.25455335 -0.21765913 0.05817404 0.0058820713 -0.07055526 -0.122832365 -0.31080642 0.011132751 -0.3451088 -0.104111336 0.09334105 0.025151417 -0.71476316 -0.31175846 0.43451247 -0.12340182 -0.11400205 0.012094257 0.16537099 -0.09964382 0.12782615 -0.73634857 -0.025086798 -0.12452465 0.56270796 0.074584916 -0.4538608 -0.053774558 -0.31111345 -0.07375858 0.029589374 0.12787296 -0.07258272 -0.36733627 0.3810892 0.44126737 -0.35013255 -0.2764358 0.32540634 -0.07418987
63 0.02600393 -0.22149982 -0.23173188 0.14628135 -0.016716154 0.0059851063 0.24017535 0.52762556 -0.081579804 -0.23668176 -0.3503734 0.33845192 -0.17043573 0.1475825 -0.17249961 0.052516792 -0.2324204 0.013740843 0.2032419 0.27402607 -0.0026174611 0.048433676 -0.28553733 -0.501469 -0.12107056 0.0129965255 -0.25499603 0.0692528 -0.101564474 0.20526035 0.3531492 0.11986853 -0.24424544 0.503212 0.5901482 0.47490326 -0.19214734 0.26198134 0.0573531 -0.18114908 -0.13404474 -0.3450725 -0.3953294 -0.025491662 -0.034471836 0.15271701 0.7174925 -0.39387977 -0.113264896 0.15547805 -0.13176398 0.31027898 0.011229492 -0.5999404 -0.0050245035 0.6662882 0.2543124 0.6003839 0.056820486 0.096265696 0.12296989 0.059540525 -0.38515034 0.19628926 0.035482205 0.44549975 0.1129813 0.09315846 0.3387663 -0.31433633 -0.11010427 0.58586013 -0.44437844 0.415307 0.1743973 0.24061456 -0.11221801 -0.42453334 -0.032736138 -0.13738032 0.005779478 -0.102674685 -0.57358885 -0.13525099 0.40023953 0.049524475 -0.1984602 -0.33361486 -0.055666905 0.32128942 -0.08602513 -0.09901136 0.24609716 -0.26485682 -0.43655083 -0.4971538 -0.21571961 0.20169978 -0.095632814 -0.009406274 -0.07223432 -0.14063004 0.19374304 -0.06869186 -0.01285861 0.2803301 -0.0053209905 -0.24264109 0.3530116 -0.03151971 0.11213934 -0.12402489 0.33068162 -0.25602433 -0.035043504 0.19907475 -0.24719805 -0.10153945 0.67604345 0.2655797 0.04551125 0.04876282 -0.33601668 0.26575464 -0.08904581 -0.4179064 0.49868625 -0.08054606
62 0.008052266 -0.17514163 -0.17858014 0.086706 -0.020148886 0.0032806697 0.24256694 0.48957017 -0.08521261 -0.24883097 -0.29822445 0.27452567 -0.1741939 0.1377707 -0.15830009 0.06717076 -0.2636736 -0.002683241 0.17738631 0.23030393 0.008471573 0.10375814 -0.2659063 -0.46174103 -0.15784895 0.021937469 -0.2264096 0.042830646 -0.06584745 0.18392643 0.33015096 0.14055079 -0.22697234 0.4382879 0.5349284 0.4404452 -0.15419091 0.269803 0.059819203 -0.15389536 -0.11985144 -0.28610235 -0.36043555 -0.025315229 -0.06357793 0.14898476 0.61644095 -0.34184316 -0.14467722 0.13779192 -0.13395403 0.2891658 0.007991117 -0.5184255 0.007054593 0.6036579 0.23477668 0.57246524 0.045816142 0.12664974 0.09446283 0.030488353 -0.3405888 0.19108917 0.04179075 0.4002834 0.10115642 0.12098215 0.31782472 -0.26202288 -0.09629224 0.5748798 -0.36039138 0.38572487 0.18988374 0.22882059 -0.09109362 -0.41824812 -0.0020553404 -0.15482524 -0.016762415 -0.061228327 -0.5027227 -0.11082441 0.39334354 0.060131792 -0.1725613 -0.29771775 -0.03631946 0.2848604 -0.10148821 -0.08330108 0.24020292 -0.22725564 -0.41726235 -0.4458602 -0.18238029 0.18954527 -0.1267616 -0.009161097 -0.040425185 -0.099515125 0.20827578 -0.0604795 0.05473329 0.21104176 0.0012627913 -0.23391388 0.3100788 -0.04541874 0.09588456 -0.10760704 0.3182038 -0.22706033 -0.063290276 0.13070689 -0.22226427 -0.059013024 0.64287144 0.20338175 0.05492212 0.03203341 -0.30139375 0.24966581 -0.05112886 -0.37587124 0.42626813 -0.088548556
20 0.06663551 -0.17821606 -0.1873041 0.18845518 -0.020057244 0.13529512 0.02419127 0.19050956 0.22228165 0.18964924 -0.31647918 0.6295591 0.20319642 -0.09264104 -0.25883013 -0.4443154 0.17134036 -0.3176475 -0.026517984 0.5692124 -0.36106938 -0.31293976 -0.052788716 0.11815031 0.38185433 0.03351042 -0.16916177 -0.098746486 -0.30059642 -0.046087675 -0.17063636 -0.010777245 -0.16407734 -0.045887824 -0.009220629 0.17831612 0.1771021 0.08220601 -0.22366926 -0.3085892 -0.23575908 0.021082293 -0.51857567 -0.19164154 0.2415237 -0.04268596 0.5513172 -0.07091555 0.43009618 0.18897617 0.15072012 0.19942397 0.08451784 -0.46035764 0.044576526 0.32506722 -0.13472563 -0.17257985 -0.14287905 -0.15887703 0.04750859 0.4020168 -0.34506282 0.16646664 -0.15898281 0.33709723 -0.03517285 0.037524477 -0.048122674 -0.33694276 0.18562546 -0.14932397 0.1489043 0.03443169 -0.4281346 -0.15873519 0.20376572 0.023447674 -0.27556905 0.26391867 -0.033938646 -0.084584266 -0.3495212 -0.23332778 -0.22030854 0.04062936 -0.22370964 -0.5396761 -0.33398378 -0.02712627 0.36161646 -0.06125117 0.05638355 -0.25061017 -0.13713226 -0.075332694 -0.37655497 0.010869206 0.31577453 0.36636138 -0.5206359 -0.24503423 -0.074701436 0.43982956 -0.23213235 0.30500892 0.22369218 0.08872277 -0.19174512 0.1231991 -0.28967923 0.22680755 0.0488587 -0.1873416 0.048406918 0.20690204 -0.18528777 -0.37963226 -0.15459724 0.77319247 0.21812026 -0.006657537 -0.35510656 0.05083299 -0.48008242 -0.40812522 0.7095537 0.33309388
66 -0.18920876 -0.23629837 0.09000706 -0.061597187 -0.061278626 0.05385897 0.110141575 0.25000867 0.043365132 -0.2819926 0.055941444 0.044971026 -0.020719664 0.07829178 -0.17247128 -0.10576215 -0.25678557 0.29760033 -0.15661581 0.22870871 -0.265862 -0.08202317 0.07242828 -0.0719259 0.19324714 0.18146011 -0.09867735 0.026690733 -0.05778842 0.039445806 0.36700797 0.030986141 -0.66389966 -0.18743065 0.5589421 -0.2862269 -0.15667535 -0.063295126 0.34124118 -0.1534486 0.19688813 0.27382135 -0.1332643 -0.20959668 0.039575595 0.13876353 0.2832656 -0.2909905 0.08038015 0.3643686 0.44403204 0.128469 0.07352443 -0.26636454 0.12847741 0.26655415 0.10954334 0.05401777 0.05651654 0.24639767 -0.12470534 0.2289131 -0.44192454 0.064701684 -0.2341329 -0.06331271 0.052349474 0.005054923 0.1880583 -0.2136015 -0.05306681 0.23084974 0.076725446 0.16214506 0.015097294 0.27477336 -0.01446534 -0.31467077 -0.23265219 -0.25226015 -0.04657691 0.088296704 -0.107166305 -0.050965242 0.30321205 -0.21423142 -0.1281922 -0.49872768 -0.15696852 0.34626862 0.18005411 -0.16858545 0.06705242 -0.26152793 -0.30741745 -0.38726673 -0.283212 -0.120385885 -0.27404964 0.10707239 -0.35029167 -0.39855385 0.15137763 0.072267026 -0.20623484 0.3336101 -0.13539433 -0.17941959 0.32079792 -0.014563997 -0.32212624 0.23462625 0.26768947 -0.16517442 -0.4559802 -0.025634153 0.10719637 -0.35548362 0.22256613 0.4728125 -0.11036095 0.2707251 -0.059024274 -0.054227013 -0.13241416 -0.0609027 0.27246845 0.008529553
49 -0.32419172 0.05241634 -0.5727169 -0.076369055 0.067167796 -0.12064478 0.5186857 0.18285301 -0.28146043 -0.035234194 0.19516829 0.19398876 -0.36308017 0.12300163 -0.20111196 -0.24202773 0.14008883 0.3990394 0.17219001 -0.0016492478 -0.27042535 -0.5092201 0.2982021 -0.12626232 0.78662354 0.20290326 -0.40400818 -0.19275066 -0.17254618 -0.17992425 -0.27582824 -0.34195578 -0.56135005 0.26860604 0.42647204 -0.07692051 -0.31090212 -0.36327156 -0.02983069 0.053208336 0.15129927 -0.030748026 -0.11863473 0.40637857 0.41403702 0.15987878 0.07055942 -0.27621868 -0.06607619 0.5067474 -0.23795968 0.13875404 -0.10155742 -0.6417881 -0.042424653 0.03775617 0.15417907 0.08253401 -0.34749943 -0.15415777 0.27751786 -0.08613786 -0.3983891 0.03512597 -0.17893565 0.27989712 0.26004595 -0.38240144 0.011474485 -0.60938126 -0.18235603 -0.0102435555 0.18563996 0.71181405 0.03805227 0.24287044 -0.07167473 -0.58740413 -0.6749017 -0.37347525 -0.13320829 0.2589232 -0.22583927 -0.0009770836 -0.2672036 -0.014354622 -0.2204762 -0.42987707 -0.50381374 0.1933215 -0.18353511 0.039712813 0.03645205 -0.28756517 -0.08606086 -0.10961199 -0.3803442 -0.29971287 0.0940591 0.3536326 -0.13763414 -0.3626879 0.22648811 0.029049333 -0.49959916 0.1726263 -0.29011834 -0.31781414 0.20129246 -0.40627283 -0.38889822 -0.037704926 0.15121076 -0.044561617 -0.12718958 -0.089215234 -0.047512364 -0.6009862 0.02457701 0.14018555 -0.3569011 -0.0147829065 -0.02168495 0.3405156 0.058444276 -0.45073798 0.37604925 0.19747493
58 0.007898724 -0.20711595 -0.26404667 0.13759723 -0.08134296 -0.19389522 0.21464902 0.39181584 5.247176e-05 -0.28977916 -0.0868529 0.24748717 -0.11913391 0.12491337 -0.038276844 0.0047372277 -0.20743328 0.13778551 0.0817549 0.194236 -0.18790634 -0.12586403 -0.20043157 -0.2735741 -0.11371184 -0.007025698 -0.19350103 0.033125408 0.08787522 -0.037189037 0.36922213 0.11845538 -0.502923 0.27912852 0.5991854 0.16751786 -0.3268452 0.27950358 0.22867945 -0.00992956 0.11871947 -0.13714269 -0.23266512 -0.117194384 0.103266045 0.11251665 0.40603995 -0.27525342 -0.062031418 0.26801428 0.18403476 0.2752161 0.033289947 -0.46530107 0.06112375 0.40137196 0.26072076 0.17159998 -0.05861111 0.004354258 0.029213147 0.11601079 -0.52568847 0.32045016 -0.014887712 0.27249217 0.14224958 -0.1471932 0.35821754 -0.5480449 -0.22726865 0.5571554 -0.13749304 0.45148364 0.21370344 0.19735387 -0.23226005 -0.5625242 -0.1616388 -0.20784365 0.0033231159 0.014422277 -0.3757298 -0.14922318 0.2080237 -0.20483002 -0.060535263 -0.40076256 -0.17714761 0.3393333 -0.11724151 -0.2206982 0.039422486 -0.124919474 -0.32235783 -0.36810702 -0.019377233 0.077938356 -0.23207387 0.03300386 -0.062095102 -0.14505675 0.0827129 -0.11085144 -0.1995317 0.28470603 -0.031756654 -0.28741002 0.2976663 -0.026867267 0.075379536 0.05701753 0.34475487 -0.08968582 -0.108532794 -0.0714784 -0.16836305 -0.39239535 0.49841195 0.23428398 -0.12919216 0.11360708 -0.3165635 0.12535977 -0.12887813 -0.13030002 0.40821862 -0.00094434095
53 0.021978864 -0.049173377 -0.44178873 0.43787485 -0.021884413 -0.21142131 0.0048452327 0.41255367 -0.0036752536 -0.10552877 0.063133 0.08489201 -0.12362173 0.15890609 0.17183219 -0.016480092 -0.13508976 0.19855809 0.11459204 0.23259085 -0.13519765 -0.33629015 -0.18472587 0.075628325 0.12630446 -0.30929828 -0.15582901 0.08956993 -0.14642224 -0.07389956 0.38651553 -0.20036365 -0.27129424 0.24959987 0.43301994 -0.009777785 -0.40587977 -0.031623434 0.072533704 -0.06871566 0.28817004 0.0778525 -0.056866743 -0.09120173 0.08431163 0.062178534 0.22843209 -0.14139903 -0.13119657 0.4313974 0.5354646 0.11333145 0.12804689 -0.33295053 -0.06021659 0.29433867 0.12881279 0.08507402 0.0017097145 0.081862904 0.054074835 -0.0024868513 -0.47485375 0.24623026 -0.11239946 0.18010049 0.013419932 0.029772071 0.27682394 -0.44244394 -0.23384324 0.14093447 -0.30925882 0.44094455 0.17509563 0.09046666 -0.33694258 -0.25170672 -0.22971013 -0.42398667 0.23598602 -0.109003 -0.2458766 -0.26592815 0.025180433 -0.30534968 -0.045277946 -0.12719978 0.018540123 0.43098053 -0.19172561 -0.19822812 0.12055214 -0.047351107 -0.14389813 -0.44174707 -0.01015675 -0.006119865 0.0016580751 0.036566775 -0.11473317 -0.31651703 -0.2222952 0.033749145 -0.495947 0.55686903 0.0850279 -0.166382 0.44075152 -0.16773881 0.18542635 0.066234514 0.36135957 -0.2390174 0.008890948 0.10460166 0.0073958156 -0.46397102 0.3821893 0.10261843 -0.37038124 0.17957623 -0.19134206 -0.0035877181 -0.082898706 -0.050345503 0.263169 -0.04604619
55 -0.002124971 -0.049325455 -0.46347502 0.43284246 0.0008792524 -0.21279098 -0.04038447 0.36558643 -0.00021884812 -0.0548243 0.06847191 0.045074083 -0.073174536 0.1821402 0.16241443 -0.05289111 -0.12217648 0.2343026 0.09790245 0.27771038 -0.13719244 -0.3815153 -0.20114826 0.1216754 0.19623354 -0.29223722 -0.14707471 0.09325947 -0.18791032 -0.07351614 0.36003688 -0.19593188 -0.293841 0.21225981 0.3997473 -0.08845115 -0.4156933 -0.09000142 0.09208564 -0.059965428 0.28218117 0.08211751 -0.04652327 -0.08632142 0.08125227 0.049843255 0.2194954 -0.14208524 -0.08483331 0.46511984 0.596861 0.08304306 0.13671234 -0.34922343 -0.051848494 0.28591394 0.08102887 0.05064001 0.032721914 0.07360816 0.035423867 0.021973634 -0.4476649 0.24422367 -0.116600536 0.13707174 -0.018703686 0.04780734 0.2219944 -0.41868582 -0.26256713 0.041157786 -0.33417547 0.40424943 0.1219721 0.09121536 -0.32894444 -0.19499901 -0.27280742 -0.392934 0.27279598 -0.11747372 -0.20962368 -0.26338577 -0.007977456 -0.3072305 -0.03825812 -0.10202856 0.04762267 0.4639027 -0.17234997 -0.20054738 0.1154097 -0.06496238 -0.09753272 -0.45424986 -0.039552614 -0.02782266 0.042677503 0.061718054 -0.11247241 -0.32959628 -0.26899254 0.061931767 -0.5677212 0.60580856 0.07569158 -0.14197807 0.42217115 -0.09225019 0.1493938 0.0977923 0.30159947 -0.25140277 0.0559407 0.12766351 0.04188145 -0.47905946 0.3441235 0.14393951 -0.38537496 0.24065901 -0.21317685 -0.05011423 -0.060944896 -0.045953333 0.28737137 -0.029154312
34 0.0798708 -0.09289002 -0.01106615 0.5362746 0.109286726 0.37544346 0.02162382 0.38105944 -0.13564272 -0.035803966 -0.0054282057 0.37515756 -0.2907111 -0.015054271 -0.116136335 0.13564518 0.16076139 -0.12274214 0.20227186 -0.29588062 -0.21736018 -0.45288068 -0.05662039 -0.16041656 0.32018644 -0.23973486 -0.16596511 0.056951966 -0.41798645 0.12752016 0.15770422 -0.48343766 0.14795445 0.050211243 0.2009158 0.40910837 0.23921397 -0.17848083 -0.31110927 -0.25218 -0.12994376 -0.26375258 -0.057350155 -0.20514639 0.14801352 0.17575176 0.11844998 -0.024308464 -0.15776376 0.13471808 -0.1997365 -0.024136374 0.010541543 -0.63821167 -0.19138876 0.35558626 -0.095185466 0.24637088 0.18430811 0.05532893 0.43878776 0.13105169 -0.26597494 -0.05350252 -0.23665915 0.4187443 0.16342026 0.3491609 0.08646888 0.04085281 -0.024460146 -0.24134316 -0.39370203 0.40673864 -0.10275633 0.22102629 -0.13130891 0.18163122 0.24603212 -0.025378019 -0.23942772 0.03992778 -0.4086606 -0.25289762 0.092771254 0.13348301 -0.411518 0.006805992 -0.46021685 -0.41117448 0.2099743 0.16276003 0.37450576 -0.43604553 -0.07375294 -0.102803014 -0.029182542 0.02460565 0.6288636 -0.067089364 -0.3817898 -0.55612904 -0.16624853 0.21697228 -0.3992823 0.31719965 0.08494942 0.035935957 0.45321095 -0.33659613 -0.35213757 -0.19933365 0.115292765 -0.24447098 -0.25202173 0.7110023 0.23053266 -0.15673408 -0.13219675 0.26968825 0.10393989 -0.3133441 -0.08564742 -0.04733664 -0.5109864 -0.2754755 0.046789866 0.104137115
26 0.08512033 -0.25282463 -0.22162293 0.42914847 0.038590536 0.19003965 0.14587429 0.3811953 0.0715891 -0.13490428 -0.19599284 0.65816975 -0.110427655 -0.43234274 0.032174114 0.08789273 0.436757 -0.18723476 0.081530236 -0.1516957 -0.3165642 -0.04014004 0.40481624 -0.03261402 0.3425049 -0.1719297 -0.0074959653 0.1261345 -0.1830964 -0.12806591 0.0068905554 -0.6376512 0.13683034 0.060144313 0.062062148 0.45610982 0.15731113 0.05053088 -0.33649763 -0.3444044 0.12687007 0.26161596 -0.07529323 -0.13857426 0.46834946 -0.04396275 0.25275108 -0.29907656 0.182788 -0.090909235 -0.038537443 0.1507515 0.12776423 0.032007273 -0.06832681 0.2602737 0.3912774 0.06494795 -0.17139001 0.17106524 0.18158132 0.11583435 -0.32043388 -0.46513143 -0.220601 0.12687986 0.281607 -0.33541116 0.46043688 -0.26816848 0.28566992 0.04059873 0.1178839 0.08098251 -0.06425294 -0.1503989 -0.047412235 0.012881925 0.049095236 -0.056181394 0.0051927106 -0.10650046 -0.54599905 -0.17869249 0.039484642 -0.2537582 -0.23503871 -0.31528842 -0.40903893 -0.32478634 0.17380796 -0.024585757 -0.05023561 -0.15521464 -0.30819306 0.08093231 -0.30739707 -0.07214347 0.20627408 0.017489582 -0.7825148 -0.38584322 0.369102 -0.05339588 -0.11028181 0.07506974 0.2199987 -0.09081679 0.1704762 -0.75093025 -0.04042179 -0.11491136 0.5251232 0.054134887 -0.4767083 0.072323814 -0.24049564 -0.0944333 -0.08630315 0.170987 -0.034825888 -0.43061924 0.38612202 0.33793244 -0.4828698 -0.26838642 0.27596527 -0.058937337
40 0.035976797 0.118693806 0.030248262 0.62511 -0.33468193 0.21736199 -0.052783508 0.28396782 -0.06346859 -0.1803278 -0.1747238 0.22062565 -0.59186816 -0.25241157 -0.028169764 -0.3985519 -0.02112255 0.0946539 0.30442002 0.2819545 -0.081435464 -0.018401 0.43012345 0.1562864 0.22919667 -0.6260251 -0.22645399 -0.036470156 -0.38629097 -0.06256373 -0.14407556 0.1115292 0.41977993 0.18955158 -0.24056894 0.22152756 -0.12269505 0.03408019 -0.5618535 -0.19456644 -0.071773864 0.39522827 -0.49248752 -0.13467024 0.0022963951 0.10857221 0.22962171 0.40207446 0.12105088 0.2501314 0.13398688 0.23002258 0.029139437 -0.2099996 -0.3241271 0.044598047 -0.0688597 -0.19539501 -0.15913424 -0.23253165 0.17628832 0.19085193 -0.12443969 -0.13792017 -0.27444962 0.5325675 0.07291595 0.40314314 0.1644012 -0.119016044 0.572128 0.13972037 0.1281946 -0.068363905 0.12251242 -0.2983748 -0.16447845 -0.1780449 -0.04891418 -0.3313495 -0.23605391 -0.1346553 -0.23262481 -0.28267655 -0.06372309 -0.09716261 -0.098977245 -0.19567727 0.1113417 -0.007874171 0.072071515 0.54780495 0.24049759 0.082889505 -0.20436426 -0.3016724 -0.21051632 0.09144158 0.25888062 -0.09021224 -0.35227326 -0.37032735 -0.0683611 0.3556471 -0.27565128 0.08042012 -0.09155963 0.3605524 0.317378 -0.34625372 -0.2034345 -0.3024254 0.55602205 -0.28717136 -0.3116571 0.36058107 -0.05287261 -0.31330732 0.04162071 0.375307 -0.003128463 -0.3579004 0.17207958 0.21256748 -0.42108625 -0.10242803 0.09036983 0.19605987
68 -0.17425199 -0.3445563 0.113685235 -0.01944645 -0.04007471 0.092464566 0.12211842 0.298804 0.014476803 -0.32923216 0.0019178814 0.07023219 -0.0501169 0.04120492 -0.17822558 0.0020299805 -0.22824565 0.38049304 -0.135674 0.16250992 -0.23739839 -0.047417097 0.10799321 -0.17453651 0.17557906 0.19386692 -0.10134362 0.13519354 -0.07346103 0.10250586 0.4701902 -0.016285935 -0.6875792 -0.17069775 0.6439906 -0.2697592 -0.18198954 -0.09570005 0.3868651 -0.18471013 0.21227752 0.23118545 -0.09299577 -0.25400943 0.027190143 0.1597654 0.39266622 -0.40738058 0.0751911 0.3396669 0.4482031 0.14469686 0.07615656 -0.2424763 0.13714644 0.3512108 0.19693932 0.1486904 0.147611 0.31607535 -0.12626204 0.25046352 -0.45569602 -0.034703694 -0.22841567 -0.12497472 0.076090105 -0.015805606 0.27832636 -0.15016298 -0.055926196 0.31544206 -0.07438692 0.12667464 0.03935134 0.32388118 -0.050068166 -0.30429447 -0.16654801 -0.27971554 -0.007514539 0.034363504 -0.17414826 -0.03503738 0.45024917 -0.27765456 -0.117864594 -0.51576865 -0.11811727 0.3755412 0.18341148 -0.20129329 0.07970251 -0.3168307 -0.38784894 -0.46245405 -0.33826298 -0.1155234 -0.29670396 0.01207117 -0.4080455 -0.4615192 0.23190379 -0.025223374 -0.21900164 0.38957497 -0.16263573 -0.21922013 0.44252723 -0.05815593 -0.31178313 0.1849636 0.3427243 -0.16426449 -0.5385231 0.02619991 0.11756248 -0.29123726 0.29036132 0.46889663 -0.11913534 0.30062243 0.028103527 -0.025864296 -0.150744 -0.05309635 0.26743296 -0.06299167
