627 128
57 0.15874527 0.34476587 -0.18551704 0.22963665 -0.12364821 -0.23196036 -0.10570259 0.10887292 0.26608327 0.34280425 0.12290566 -0.19993705 -0.24169634 0.21172802 -0.52082556 0.051031437 0.12695353 -0.122274764 0.067635424 -0.10759244 -0.22135048 0.18268406 -0.11794376 -0.19054183 -0.039705325 0.07740846 -0.22083321 0.13239796 -0.18179287 0.12971473 -0.042379778 -0.0009341035 -0.24659003 -0.06083575 -0.16457549 -0.06203746 -0.044952907 0.3021592 -0.06010195 -0.2173726 0.08259837 -0.17197806 0.12632374 0.33157575 -0.1313177 -0.023248756 0.19386218 -0.08157133 0.104965046 -0.0121032735 -0.29560572 0.14292954 0.13744295 0.008255603 0.03931504 0.0212652 -0.09791247 0.14777328 -0.098311804 -0.0022352748 -0.14687991 0.0062369574 0.056577094 -0.050936215 0.18206783 0.012019572 0.1660273 0.19610676 0.23980162 0.17795798 -0.1124277 0.061190505 -0.25032866 -0.24380833 0.23524863 -0.29743063 0.008821753 0.04892809 0.07251152 0.260281 0.086819105 -0.08885355 -0.059180565 0.073203065 -0.0059729493 -0.14206916 0.32604557 0.206571 0.03380716 0.06644349 0.09782071 0.27135164 -0.19922584 -0.11184447 -0.2515146 0.116429955 -0.08586374 0.052091394 -0.42160746 0.22456908 -0.09718461 0.08215793 -0.10797794 -0.050961573 -0.15518793 0.052489042 0.35177675 0.065290555 -0.33103144 -0.08056155 0.1250874 -0.1033924 -0.23878767 -0.15505157 -0.08823304 0.2700926 0.18197095 0.10375369 -0.024373487 0.29634988 -0.11849958 -0.15287654 0.0018152888 0.07746719 -0.19330704 -0.25751582 -0.32645702 -0.058769945
1 0.29872486 0.19032384 0.38418803 0.762866 0.22928607 -0.3992058 -0.049146336 0.62715465 0.30843115 0.47589156 0.032174334 0.022436729 -0.34041634 0.28464085 -0.11538371 -0.13160488 -0.0028153157 -0.10293903 -0.433579 -0.87802595 -0.018179426 -0.2143205 0.1275192 0.19831207 0.10185501 -0.061389145 -0.27743596 0.36455813 0.05324637 -0.26221776 -0.43213746 -0.028593585 -0.3673855 0.16745545 -0.16101581 0.336958 0.32055667 0.15065786 0.1332854 -0.24999572 0.022006331 0.09981513 0.20718403 -0.11934414 0.09112329 0.48529887 -0.19702634 -0.2860474 0.3485887 -0.26997304 -0.4158535 -0.1030217 -0.31041235 0.04534761 0.60209733 -0.06616683 -0.101407945 -0.17185496 0.27407825 -0.43042138 -0.55387104 -0.108007245 -0.018747428 -0.13455592 -0.0031388954 0.057386793 0.14617434 0.012580726 -0.24237303 0.114850976 -0.5253794 -0.08946005 0.114903264 -0.22520122 -0.07645574 0.26515517 0.0101736365 -0.4042444 0.14090055 -0.2813838 -0.3919068 0.015980963 0.3788116 -0.38476232 0.08510989 0.057864696 0.041736428 0.27031997 -0.24220589 0.046145808 -0.064365156 0.21688241 0.08676912 -0.09867662 0.022125864 -0.03385162 -0.2791834 0.2865978 -0.43005744 0.36231324 -0.11833386 -0.11086805 0.37528864 0.12687449 -0.14025387 0.028003149 -0.22130476 0.13795345 0.035848454 0.010630741 0.021238018 -0.1672416 -0.12807712 0.21675058 -0.33499846 -0.37800843 0.22700904 0.09541698 0.09961668 -0.11876192 -0.2923222 0.19608402 0.14205839 0.028246846 0.19763571 0.046917975 -0.07737708 0.042842768
587 1.032617 0.045016397 0.05375199 0.6767095 0.0076076407 -0.49173644 -0.15472274 0.3882537 -0.48441893 0.43258777 0.5646118 -0.70510036 -0.43519944 0.45745888 -0.08243635 0.05700064 -0.5604827 0.18055378 -0.8328353 -0.7294585 0.30795416 -0.26536083 0.5314089 0.40121427 0.24106528 0.33999085 -0.3266857 -0.41585305 0.27620113 -0.800279 0.17345276 -0.44684952 -0.27641156 0.18661523 -0.301489 0.0030665253 0.14558205 0.50244683 -0.020219935 -0.19955823 -0.00801624 0.26394945 0.32769263 -0.1355212 0.080688626 0.45950118 -0.47258288 0.1371442 0.07165337 -0.7367267 -0.4639839 0.13286681 0.44781843 -0.33198246 0.26628357 0.116688505 -0.42791682 -0.64099294 0.60684866 -0.69527996 0.14327075 -0.49662232 0.57077664 0.11737805 0.07131985 -0.13974573 -0.043426424 -0.05650255 -0.23042552 -0.25652018 -0.16305634 -0.09093491 0.2264157 -0.010692648 0.11574694 0.17345484 0.08701143 -0.049659435 0.2849818 -0.23620147 -0.44218418 -0.27796155 0.36201268 -0.70321673 0.6914109 0.11230159 0.03768708 0.66875607 0.18186978 0.0051113684 -0.45059654 0.09547941 0.30831024 0.37728754 0.2689501 0.17920029 0.36341944 0.4638147 -0.018774336 0.5208372 -0.16781633 0.06459522 0.26310247 0.47537318 -0.27572694 0.20148137 -0.14105192 -0.053980734 0.25279626 -0.2273674 0.2694693 -0.31151536 -0.28104267 0.03785101 -0.41478294 -0.08520677 -0.29471958 -0.30683133 -0.44714695 0.18225272 0.014088145 0.11464801 -0.15981407 -0.30739608 0.17943531 0.1757132 -0.19089688 0.12852514
280 0.031253863 0.12676778 -0.5656462 0.4742815 0.14765175 0.022158753 0.174803 -0.078563266 0.35820064 0.4455773 0.14997143 -0.27716976 -0.6108332 0.14537589 -0.15169996 0.34214553 0.060355827 0.29274055 0.5018137 -0.094049215 -0.065354116 0.26656574 0.22699821 -0.0577719 0.2629824 -0.0018088489 -0.079747535 0.110285126 -0.021422122 -0.07143675 -0.18754129 -0.06778714 -0.16477433 -0.123435244 -0.6705523 -0.022234797 0.22404934 -0.039341465 -0.27732208 -0.49002215 -0.0669333 0.052577294 0.1999583 0.39303482 -0.25094828 -0.15877752 0.007404986 0.10094478 -0.06253509 -0.07843395 -0.27263945 0.08177982 0.42176554 -0.10758873 -0.17921136 0.41577238 -0.095216386 -0.18909685 0.08688573 -0.06690389 0.1591264 0.1885298 0.06587038 -0.5505163 0.3503434 0.047330122 -0.0113575915 0.09481895 0.25338948 0.18652692 -0.13434637 0.01870488 -0.08713293 0.20107779 -0.14105399 -0.28340802 0.10201087 -0.24019806 -0.053461343 -0.2552487 -0.13130479 -0.18498573 0.12294796 -0.2219881 -0.40820622 -0.44236076 0.29781413 0.43865415 0.28804052 -0.12910432 -0.05178091 0.16830522 -0.39829242 0.21686646 0.015692664 0.27239284 -0.027824141 0.12714903 0.21297424 0.45037195 -0.14768814 0.23935273 0.086724035 0.44689056 0.060190737 0.21290576 -0.21079494 0.40007532 -0.5620478 -0.2512842 0.092263885 -0.08211537 -0.16975929 -0.40756053 0.10266026 0.093130045 -0.23520619 0.21672118 0.021197598 -0.20668437 -0.37626025 0.04700085 -0.3317401 -0.33943886 -0.13283473 0.0819831 -0.777589 -0.2690452
43 0.57374495 0.22339083 0.31502524 0.5026025 0.13539267 -0.41808143 -0.20896307 0.799354 0.20341256 0.7619431 0.18215188 0.12669612 -0.0548002 0.54946804 0.24952917 0.23000285 -0.4282065 0.29410052 -0.53096133 -1.1653154 0.1456182 -0.120913714 0.20087041 0.06980208 0.11700805 -0.19354418 -0.2712722 0.1373731 0.24146618 -0.05066902 -0.021516679 0.035406172 -0.3160731 0.24269399 -0.26144478 -0.19077264 0.4871028 0.59095395 0.21545099 -0.38090214 -0.19080918 0.3546951 0.1812515 0.06929407 -0.24617255 0.23047824 -0.09226494 -0.24701984 0.6144992 -0.41354978 -0.44759193 -0.34917313 0.3579533 -0.33305505 0.6864462 -0.1400489 -0.088430695 0.108069725 0.7209984 -0.81226754 -0.7331919 -0.3459552 0.023754673 -0.24206264 0.550299 0.11268253 -0.0041151126 -0.075115286 -0.41147822 -0.45991862 -0.073974125 -0.03692657 0.11448488 -0.41475737 -0.272858 0.11255348 -0.3882071 -0.34903124 0.12280578 -0.25215748 -0.41825214 -0.4477401 0.35101333 -0.4972997 0.07419285 -0.19780685 0.21863246 0.7869792 -0.0426683 -0.089789584 -0.17508078 0.21131095 0.2009618 0.02556799 0.14713936 0.23807809 -0.48351172 0.47613224 0.014242464 0.38662383 -0.56359655 0.2830876 0.5522283 0.37111333 -0.4951348 0.056165066 -0.20678943 0.07387002 0.14939526 -0.07889094 -0.06826294 0.08482808 -0.2337127 0.47842714 -0.59111303 -0.048157647 0.15008658 -0.05248659 -0.022951003 -0.46369466 -0.32320702 0.3298291 0.35473135 0.20832771 0.3570051 0.045584872 -0.47880986 0.20814463
270 0.24455902 0.44547287 -0.61007494 0.20368537 0.24155195 -0.17600448 -0.1797797 0.3042995 -0.06076811 0.12811892 -0.01334679 -0.31081387 -0.29726216 0.16926403 -0.11788876 -0.07828861 0.15287858 0.23031883 0.071485296 -0.51684976 -0.180445 0.6956098 0.23179321 0.1238293 0.08272206 0.24257807 0.046524785 -0.32862368 -0.049087185 -0.30373695 0.25814426 -0.09970656 -0.051690977 -0.041664578 -0.21924414 0.016736886 0.18488489 0.45055017 0.15446287 -0.3196743 -0.17408237 -0.21076359 0.46928188 -0.09708354 -0.4175561 -0.13979459 0.1664051 -0.078026064 0.35443726 0.1747023 -0.396413 -0.29293096 0.20770487 -0.17730865 0.09204796 0.046330586 -0.10896586 -0.11454695 0.1726473 -0.4995384 0.18935478 -0.23055361 -0.342582 0.068618625 0.28119382 -0.08368368 0.009242674 -0.16978502 0.1623278 -0.26438573 -0.4558934 -0.18733968 0.24771285 -0.3566324 -0.08248085 -0.30080295 0.06555107 -0.08494233 0.09106102 0.4408646 0.03652803 -0.377729 0.15090215 -0.4208546 0.0016442112 0.32336557 0.22680244 0.3467308 -0.031665277 -0.15961882 0.46239462 0.075186715 -0.43537807 0.05485796 -0.5846655 0.090857886 -0.299414 0.38703075 -0.10916521 0.18523622 0.40186808 0.3202955 -0.1617264 -0.12624867 -0.039452203 -0.20413291 0.07604563 0.38929182 0.12492866 -0.03448814 0.14755073 -0.35340008 -0.16056395 -0.46069974 -0.012075674 0.2414943 -0.074052215 0.4014086 0.12296567 -0.5467032 -0.11292025 -0.02964306 0.14421147 -0.24487045 -0.15867767 0.2166537 -0.15485375 -0.15724134
226 0.23266557 0.1345132 -0.13050787 0.33574796 -0.1797806 0.025019221 -0.21630663 0.48743495 0.48807883 0.42369175 0.16895454 -0.51031685 -0.3687577 0.13692653 -0.055081096 -0.035532873 0.246997 -0.37761065 -0.03943102 -0.009227807 0.40841413 0.061967168 0.64655 -0.068974026 0.19298652 0.7086686 0.16197492 -0.27559173 0.14783795 -0.039688244 0.17748939 -0.36227784 -0.2625644 0.0356674 -0.5786545 -0.5423993 -0.25217673 0.28355306 0.0012544498 -0.05705179 -0.5284801 0.16329166 -0.07275287 0.5760758 -0.5134986 0.28986672 0.047513735 0.07675867 0.36519912 -0.15416485 -0.115890756 0.2283578 0.2420016 0.012428428 -0.20336755 0.17362408 -0.03790193 -0.4755784 0.12509055 -0.15378693 -0.04411099 0.18272033 0.28641206 -0.12950768 -0.22076836 0.37810847 -0.1390179 -0.100815825 -0.18112877 0.14067014 -0.18244265 -0.03716 -0.18923557 -0.31050453 0.53891516 -0.35123393 0.09715238 -0.2071749 0.27284673 -0.008100547 0.4087046 -0.4792035 0.13762832 -0.106466964 -0.46126792 -0.1723205 0.6387691 0.050951928 -0.0101623945 -0.09602029 0.0014105624 0.15541823 -0.3242405 -0.07638717 -0.011098758 -0.10786379 -0.40379354 0.21870509 0.083020985 0.09513552 0.22045587 -0.056477733 -0.06076477 0.33560163 -0.09967463 -0.18637438 0.18289208 -0.034077734 -0.050831925 0.32702526 0.06622566 -0.1592993 -0.39651352 0.16121314 -0.2619125 0.33529606 -0.4016062 0.18827318 0.21228765 0.042619996 -0.12616806 -0.19444424 -0.0271899 -0.028247148 -0.047840532 -0.18566173 -0.302803 -0.2031884
567 0.05556421 0.0117944535 0.080939226 0.44401446 0.4031739 -0.086068965 0.013584076 -0.058273744 0.4749634 0.3969561 0.16143106 -0.45981586 -0.45570335 0.08196939 -0.3055636 -0.11552248 -0.16043115 0.101094745 0.31418648 -0.21446322 -0.15131554 0.2711441 0.22174437 -0.030066231 -0.08369576 0.4336026 -0.058939014 0.32697612 0.041879285 0.034836993 -0.33418378 -0.22913876 -0.5748695 0.29363793 -0.5217112 -0.40572092 0.15409885 0.1171023 -0.08780304 -0.07309602 0.049715634 0.24974549 0.29945365 0.09388686 -0.29934084 0.45337945 0.36475417 -0.2681481 6.686506e-05 0.109485365 -0.7963014 0.1477666 0.17719474 -0.12760489 0.0017247786 0.54796034 -0.18682204 0.0076200017 -0.088945255 0.09792141 0.027465424 -0.47863322 0.15383081 0.36541125 0.16241674 -0.04444378 -0.17717297 -0.20350681 -0.084745444 0.23924512 0.26760232 0.42748353 0.00069633033 0.016492374 -0.26569906 -0.26431787 0.16077489 -0.09152832 -0.14919783 0.4901155 0.18690534 -0.09608494 -0.06943307 0.02018143 0.1727492 -0.39499092 0.4654224 0.39078146 0.038740378 0.44769526 0.57365966 0.08426954 0.11978614 0.35805294 0.032821838 0.0891364 -0.17237976 0.19697475 -0.04283899 -0.1492811 -0.19995771 -0.06729702 -0.094691165 0.44269043 -0.16920714 -0.041228592 -0.24253426 0.10053399 0.17390478 0.057508226 -0.037331246 -0.2689587 0.16855761 -0.08429668 -0.165235 0.119819865 -0.2387307 0.26400173 0.045833677 -0.07269064 -0.70378417 -0.27052608 0.18953048 1.5579826e-05 -0.32849142 -0.3431745 -0.8576392 0.21540277
559 -0.2982593 0.41957277 -0.17839637 0.15737621 0.32250777 -0.22301376 -0.2997572 0.47454187 -0.060754005 0.19419578 0.12717763 -0.5156517 -0.11853337 0.404752 -0.36115032 0.06211037 0.20464417 -0.13333575 0.12533352 -0.408309 0.38331568 0.4254585 0.061018102 -0.34755123 0.2703818 0.13452408 0.19908965 0.12947595 -0.07518669 0.05335907 -0.054390725 -0.1648893 -0.551922 -0.2849318 -0.4529374 -0.54850954 -0.11795778 0.2979526 -0.029591579 0.005690376 -0.1265166 0.019494921 -0.04904904 -0.10331723 -0.122869305 -0.105506554 0.035667527 -0.07580167 0.10936919 0.014546039 0.29379994 0.10938113 0.4648943 0.082791984 0.40581048 -0.010691001 0.39289272 -0.24973427 0.089030415 -0.33536845 0.07792745 -0.06248425 0.25204113 0.01588786 0.06422868 -0.059678808 -0.08299178 0.3335865 -0.054794826 0.34261277 0.08517127 0.36644337 0.032526035 -0.19391982 0.12554127 -0.36976165 0.20350023 0.0023456952 0.07317252 0.00971893 -0.09506857 -0.082814686 -0.21527739 -0.19622879 0.116616644 -0.13826601 0.28736326 0.44504756 0.045671415 -0.5853742 0.197852 -0.06907333 -0.3619439 0.14770022 -0.3969658 0.5906218 0.0041313753 0.31535882 -0.4884334 0.4798822 -0.12892744 -0.19876672 -0.30830267 0.30958396 0.28251475 0.10708292 0.1320617 0.4498443 0.5087998 0.021371208 0.35255358 -0.024017226 -0.15326099 -0.09452626 -0.15589489 0.121911995 0.04675851 0.25989425 -0.08150728 0.18940672 -0.13834862 -0.22113466 -0.4350937 -0.39219517 0.23818058 -0.26427668 -0.5308997 -0.015499899
84 0.21442752 0.23662828 0.12572326 0.32403985 0.21303506 0.078125656 0.02589212 0.48183948 0.16855536 0.41662925 -0.04545516 -0.13009141 -0.056688134 0.2328834 -0.060460873 0.1723452 0.26792514 0.2527963 0.4019902 -0.3119245 -0.09113294 0.18234544 -0.2659475 -0.26486298 0.26828054 0.065265544 0.08404641 -0.15119655 0.40257442 -0.21039647 -0.13682652 0.32281473 -0.4251943 0.40096152 -0.8598893 -0.117330484 0.35750732 0.00913377 -0.42063314 -0.49810475 0.004993088 0.149405 0.13742858 0.36298227 -0.2953481 0.04765286 0.09976394 0.08178046 -0.35222292 -0.084000126 -0.48413187 0.26338267 0.13350002 0.169518 -0.3006582 -0.28086844 -0.2684699 -0.11118837 -0.091154695 -0.014728653 0.12912707 0.25375792 0.45000303 -0.15384133 0.0023550068 -0.25155982 0.07747099 -0.21119577 -0.22701222 0.036904924 0.15058109 -0.06744028 0.11881838 -0.33248407 -0.054608382 -0.36954346 0.18277228 -0.076833606 0.44831237 0.22134042 -0.21987326 -0.21958244 -0.0009125607 -0.4533771 -0.40748808 0.51376 0.7173396 0.84556866 -0.287122 0.05420004 0.046996593 -0.014429574 -0.007497485 0.33282593 -0.15340765 0.27464193 0.21918343 0.19215375 -0.09556794 0.42284852 -0.1328215 0.19317174 0.274503 0.40056184 -0.3830806 -0.07377185 0.26732877 0.024814345 -0.059536405 0.0042636297 0.31145304 0.29805598 -0.23331371 -0.17158838 -0.16433592 0.2871782 -0.028646827 0.12416227 0.23985547 0.14870475 -0.07485199 -0.115114085 0.13354567 -0.16534111 -0.14045832 0.008690286 -0.104955025 0.15487203
125 0.1990898 0.38268712 -0.48122796 0.6621815 0.18946894 -0.14451507 -0.33785206 0.6658377 0.12191949 0.39526516 -0.2948283 -0.12210417 0.15918621 0.07889827 0.07281654 -0.023673346 0.09645564 0.088369675 0.097122945 -0.49721017 -0.063774 0.19116504 0.092244044 -0.14154069 0.2477445 0.0010352619 0.28577945 0.03181865 -0.195617 -0.18570937 -0.056951392 -0.16953501 0.048250113 0.23160309 -0.011324367 -0.122581586 -0.005465429 0.19580618 -0.036779962 -0.42045856 0.30225277 -0.107645206 0.13974467 0.0033749084 -0.02956889 -0.14753067 -0.1790541 -0.25874662 0.07945512 -0.021789456 -0.43849665 0.00434002 0.22736037 -0.09115979 0.38782924 0.00895577 0.23423068 -0.1357739 0.15219253 -0.19042523 -0.025672158 -0.38108143 0.0014471649 -0.33243015 -0.0926862 -0.16597255 0.45876816 0.20858882 -0.2862587 0.34523478 -0.18112743 0.29194304 -0.40933153 -0.39676577 -0.02655578 0.3384561 -0.08317431 -0.11931002 -0.17925422 0.49617234 0.3491787 -0.46965337 0.050455224 -0.26424927 -0.10983292 0.24391504 0.21055536 0.20123269 0.41287705 0.07517319 0.083949566 0.043503683 -0.5652409 0.24310815 -0.124816395 0.38797987 -0.012335963 -0.04476628 -0.23283365 0.043143462 -0.15524858 0.069016054 0.058391314 0.36718863 -0.3378555 -0.34263462 0.17313017 -0.2645475 0.16389537 -0.032391056 0.36248073 -0.06395515 -0.20334868 0.0074799666 -0.33507013 0.43202734 -0.40565017 -0.3891675 0.19243474 0.20537494 -0.69406146 -0.15066473 0.083380826 -0.16699038 0.04596531 -0.4577958 -0.20077272 -0.2832457
262 0.4823191 0.70867753 -0.38021317 0.16295782 -0.04977977 0.01169919 0.24011071 0.09832073 0.23500068 0.45244125 0.19359887 -0.33346915 -0.16240492 -0.011882068 -0.5748017 0.12599796 -0.07887668 0.2768749 -0.09788912 -0.39757288 -0.1792211 0.20209424 -0.12512396 0.06567838 0.19550529 -0.054053914 0.10079705 -0.24118413 -0.3203112 -0.53779936 0.18326727 0.038676206 -0.11228439 0.121390685 -0.3904187 -0.05135539 -0.0026228097 0.30778456 0.10709178 -0.2119569 0.10875512 0.42458287 -0.19307388 0.12640427 -0.1786957 -0.110732436 0.73445636 -0.08059472 -0.15448165 0.15368678 -0.23271501 0.1582095 -0.14482069 0.05006573 -0.042845655 -0.09749448 0.085796215 -0.12513173 0.42184478 0.07739634 0.16069543 -0.317835 0.4318157 0.09586964 0.100051805 0.02452152 -0.018147677 0.12171259 -0.015681146 0.21754302 -0.26010862 0.29917842 -0.37332833 -0.3413414 0.05197788 -0.43648234 0.06437601 -0.10127481 0.47453266 0.22259486 -0.15097845 -0.4791403 0.12448588 -0.046769764 0.01491843 -0.33557 0.34444788 0.32356647 -0.255663 -0.42740783 -0.23563069 0.062205937 -0.15749201 0.6360056 -0.10435334 -0.31153524 -0.08460126 -0.40337852 -0.36467776 -0.03662127 -0.18540004 0.22529487 -0.1515058 0.73100185 -0.19835217 -0.24286436 -0.3588212 0.1795799 0.012036443 -0.26406547 -0.006772876 -0.33710188 0.01767904 0.111805275 0.040553212 -0.008775864 0.13477698 -0.34334168 -0.033438914 0.07851534 -0.063943 0.12877753 -0.28920943 0.10011672 0.28637093 -0.30398253 -0.6885015 -0.07542736
254 0.19984272 0.25191253 -0.33433396 0.3708891 0.021360058 -0.290889 0.43636227 0.26594698 -0.11195624 0.6273005 -0.039132576 0.228746 0.08998463 0.391203 -0.19683956 0.6275715 -0.09499264 -0.26016155 -0.111628406 -0.5446931 0.02361733 -0.0561381 0.12395319 0.27074882 -0.24159053 0.34980717 -0.14335857 0.043989133 0.27233794 -0.43246695 -0.08400911 -0.25615266 -0.50525326 -0.112075925 -0.399456 -0.6248789 0.42586473 0.14802897 -0.16118278 -0.21417683 0.009365565 0.17964336 0.2799902 0.41156596 -0.39572662 0.1579046 0.044705942 0.3594537 -0.55045885 -0.09898939 -0.16220024 0.48781434 0.18931864 0.10459704 0.023239993 -0.099753164 0.16960643 0.057536084 0.042805605 -0.4118989 -0.2654544 -0.22869173 -0.109393395 0.18851511 0.08101993 -0.106783174 0.0527359 0.040022302 0.49859288 0.166667 0.43119228 -0.11680043 -0.15463582 -0.19967745 -0.33410063 -0.23220299 0.10281256 -0.003179806 -0.1978273 0.34557393 -0.26713255 -0.064013444 0.22021349 -0.18097952 -0.6226457 0.048012555 0.36971444 0.31981954 -0.055115536 -0.25000066 0.029289205 0.06787714 -0.2939712 -0.24215856 -0.10988514 0.23771511 0.040995672 0.06973891 -0.2535902 -0.04775936 0.54158384 0.15176332 0.36281195 0.48687503 -0.21119642 -0.05192852 0.16298972 0.08754084 0.12829256 0.36014143 -0.00951878 -0.43612805 -0.022295898 -0.2716516 -0.28304034 -0.08210152 0.019640213 -0.03712236 -0.37032434 0.22063288 -0.24026605 -0.17338677 -0.028766552 0.3317496 0.2847664 -0.20987554 -0.46485773 -0.303939
79 0.5199746 0.50622714 -0.06568268 0.46926513 0.24070458 -0.0031127299 0.055698078 -0.09567522 0.3426954 0.5799901 -0.26483005 -0.3471387 -0.27002165 0.44396678 -0.0077737323 0.019747665 -0.15497616 -0.4964297 0.44808638 -0.07250008 -0.28902522 0.30013093 0.5915255 0.2560046 0.088704385 0.17500368 -0.13814668 -0.08808465 -0.2501713 0.096656956 -0.123645976 -0.081160866 -0.5184 -0.05518133 -0.12535647 -0.5119872 -0.09320958 0.22424155 0.3583357 0.21550545 0.023196429 -0.20323426 -0.0750599 0.30492532 -0.5729837 -0.09443532 -0.23969086 0.25950694 0.22510059 0.25806037 -0.36575073 0.04424348 -0.023473088 -0.071497284 -0.41773906 -0.07837458 0.42614418 -0.38874984 -0.020865612 -0.069996536 -0.35937196 0.17483902 0.042287596 0.05869844 0.059326105 -0.25141412 0.057409592 0.23903579 0.1328484 -0.021446869 -0.10842304 0.072183125 -0.4749591 -0.06576911 0.12313792 0.077962674 -0.010283365 -0.09849335 0.5120425 0.51149505 -0.072646946 0.13341612 0.333694 -0.11770061 0.2459004 0.067991585 0.368659 0.28211936 0.27726883 0.16330141 -0.11322906 -0.12276209 -0.43003273 0.11769489 0.17913154 -0.089839436 0.09189779 0.22214554 0.0059016077 0.07597101 0.23804186 0.029525248 0.31756926 0.2937106 -0.03719109 -0.08436404 0.0742679 0.6793766 -0.26534644 -0.087181084 0.1251729 0.0806739 -0.23651531 0.18512315 -0.23253703 0.13376291 0.27535975 -0.05820475 0.19757202 0.38047817 -0.35627195 -0.2945733 -0.03616509 -0.013435612 0.010556922 0.20557639 -0.40783343 -0.1651161
114 0.101000234 0.57310337 -0.50367415 0.28353506 0.557974 0.13953473 0.051779218 -0.11513732 -0.053663142 0.36931446 0.413201 -0.3908684 -0.036596123 -0.085174814 0.039411142 0.2745495 -0.22647193 -0.33308965 -0.11690048 -0.21873057 -0.13160567 0.122981444 0.0006720308 0.07480166 0.07839416 -0.04552871 -0.032836083 0.009742834 -0.008434511 -0.17522264 -0.37983078 -0.71145314 -0.20456722 -0.22122693 -0.25282332 -0.2005519 -0.043314233 0.14442335 -0.11874447 -0.3331084 0.18310662 0.0020994165 -0.1987067 0.38451782 -0.41417745 0.23059808 0.13378483 0.007045162 -0.19355115 0.21311289 -0.049688783 0.20749772 0.47111607 -0.478842 0.27146232 0.25384435 -0.111256614 0.0822639 0.106804624 -0.5101387 0.197738 -0.018486554 -0.00969865 -0.1370154 0.45195425 -0.273549 -0.0971887 -0.07475247 0.37533095 0.3200368 -0.0975642 0.0009594809 -0.13580073 -0.24539588 0.0018418392 -0.0013681636 -0.31571457 -0.26538008 0.13392104 0.1574169 0.082527086 -0.26442504 -0.3674488 -0.23367237 -0.22340012 0.08993532 0.25079003 0.23522945 0.08257232 0.04571213 0.30154485 0.11199333 -0.3633336 0.07403441 -0.11301101 0.11473525 -0.035088237 0.13075937 -0.105140775 -0.06408162 -0.4254127 -0.39537263 0.23383594 0.13470683 0.20611626 -0.014430571 0.25179213 0.33331388 -0.3086847 -0.080026 0.010812014 0.002611915 -0.5368771 0.310488 -0.17771713 0.20380823 0.2615985 0.29364455 0.1934187 -0.110092744 -0.65843403 -0.2718754 0.43564153 -0.17285593 0.0025786613 -0.22506826 0.09703733 0.01591536
402 0.12382209 0.33352977 0.007589247 0.22817522 0.38249993 0.32115662 0.41374522 0.57014155 0.44356555 0.24648318 -0.54671544 0.16546798 0.034112837 0.45325658 -0.4375123 0.40577012 0.04341808 0.05926552 0.25794074 -0.34217516 0.22706012 0.019832002 0.18106405 -0.11108746 -0.21767998 -0.013552761 -0.24380757 -0.1246332 -0.0900946 -0.030251933 -0.24280508 -0.13326375 0.014783744 -0.13293567 -0.037846938 -0.05062192 0.087702446 -0.10816278 -0.27437884 -0.349222 0.13338447 0.04904312 0.19499108 0.4707901 -0.21105453 -0.31769243 0.23432733 0.1729042 -0.194942 -0.39946398 -0.551986 0.30828953 0.18336096 -0.08221629 0.18143493 0.38686788 -0.13981311 0.16166033 0.028556023 -0.16154759 0.16768287 0.06130046 0.5079351 -0.036737196 -0.06308433 -0.014228033 0.08540967 -0.22547637 0.14760926 0.038251642 0.31459007 -0.015037675 -0.19834565 -0.40623105 0.031673077 0.09903944 -0.07723981 -0.20018552 0.3208425 0.17609903 0.0589625 0.1489542 0.50602454 -0.43377927 -0.2098339 0.03266757 0.47776556 0.49715263 -0.07520162 0.0507941 0.15688886 0.23931019 -0.016857548 -0.22569002 -0.17842914 -0.11026139 0.015181305 -0.26800424 0.01038946 0.43844888 -0.083564684 0.05415059 0.41737095 0.06522445 -0.22485238 0.052676648 -0.06522105 0.29839066 0.20570274 -0.032497928 -0.006454335 -0.48100433 0.049459867 -0.462548 -0.51947856 0.14531031 -0.111354895 -0.2898017 0.25817126 -0.087024756 -0.14227682 -0.20220977 -0.32875848 -0.30619255 0.22072622 0.019994186 -0.5046362 0.3650169
148 0.15009452 0.3508894 -0.38308328 0.34599853 0.40016177 -0.33199957 -0.0038560012 0.058452923 0.35890484 0.27059123 0.2376264 -0.3613004 0.10228685 0.21950415 0.029165188 -0.16329838 0.088180244 0.043308266 -0.06774951 -0.17734402 -0.08208748 0.43561062 0.3231621 -0.089997694 0.17952338 -0.041514494 -0.0029877608 -0.11847311 -0.3406925 -0.3143172 -0.20751639 -0.27593246 -0.57029945 0.08432266 -0.16519423 -0.45579422 -0.2743432 -0.009576843 0.05333135 -0.26590022 0.06365486 -0.2885344 0.056016877 0.3033297 -0.43458712 0.035027392 0.27936056 -0.15886143 -0.30753446 0.32288644 -0.05768238 0.064470224 0.50203943 -0.29818842 -0.28891185 0.18368559 0.028419197 -0.17713633 0.2579964 0.07132739 -0.11581933 -0.080381624 0.009664139 0.04379979 0.279771 -0.125543 0.35513064 -0.076541856 0.11589947 0.58611655 0.002625368 -0.31836906 0.1665755 -0.22296847 -0.028028725 -0.35312107 0.24931228 -0.21175013 0.48834112 0.16034152 0.462861 0.25142264 0.34420028 0.10757219 -0.27979678 0.15535073 0.13188964 0.24890341 0.061581314 0.017711416 0.07981236 0.110293515 -0.25310653 0.47291222 0.010081017 0.07481409 -0.29379505 0.3047939 -0.30682132 0.41440672 0.014811527 0.21804224 0.23018853 0.4774759 -0.029616144 0.22575466 0.21181189 0.55765504 -0.09725879 0.0060705664 -0.04624806 0.059912037 0.26761097 -0.08907851 0.09039511 0.07499706 0.07779702 -0.006177876 0.23599988 -0.13021915 -0.058880817 0.34957448 0.05823929 0.59227663 0.092674054 0.08015234 -0.5377679 0.080504455
351 0.03287184 0.09073898 -0.2542809 0.118088044 -0.0880225 -0.2164445 -0.26965842 0.35214752 0.33878484 0.14084263 -0.38227376 -0.12477543 -0.005293057 -0.03292875 -0.18275738 0.12813771 0.030780189 0.090700224 0.017859517 -0.35278246 -0.23810866 0.26386657 0.10672157 -0.4305932 0.34884605 -0.068719916 0.4271055 -0.1909101 -0.22469062 -0.12895449 0.31430757 -0.47889885 -0.19557132 -0.26731038 -0.14081506 0.14119393 0.30593726 0.23666847 -0.21328609 -0.1448103 0.006968962 0.09113203 0.13891834 -0.22355431 -0.3275415 0.07674705 0.32769173 0.30303475 -0.41467205 -0.5433808 -0.5005746 0.16674004 0.5664399 -0.20344622 0.40822268 0.04250815 0.15858616 0.005626674 -0.06177176 -0.2305269 -0.1883452 -0.20090313 0.0121645685 0.27088803 -0.09529723 -0.11128757 0.13664779 -0.13932681 -0.14621827 0.3094169 -0.2691039 0.025136253 0.09055705 -0.052130423 -0.16502082 -0.005369418 0.08199084 0.08804629 0.20656535 0.243771 -0.3551241 -0.50265634 0.31504205 -0.13317074 -0.226116 -0.39561996 0.21243687 0.40383834 -0.3556726 0.25372708 0.32746363 -0.019974507 -0.24265656 0.047725286 -0.39435822 -0.041278165 -0.1935722 0.26749262 -0.008142729 0.14289822 0.057026766 0.20713118 0.20276743 0.11606202 0.01023504 0.0047535882 0.7331991 0.25296733 -0.048906863 -0.14254308 0.39788088 -0.13198282 -0.2895591 -0.25980088 0.12559557 0.3082895 0.19860455 0.099817 -0.25885564 0.09162916 -0.15655038 0.111297496 0.31633005 0.2977216 0.32796508 -0.288573 -0.52654094 -0.12028682
577 0.55961853 0.049767286 0.43172106 0.53644896 0.057372108 -0.34078947 0.0526914 0.31436035 0.0180358 0.70081896 0.17882964 -0.44557697 -0.13386811 0.213266 0.016284347 -0.20008147 -0.37185237 -0.0505561 -0.6947218 -0.8082822 0.050715443 -0.29144284 0.4317343 0.058652014 -0.020732656 0.09727935 -0.12030408 0.24983744 -0.04471818 -0.5103284 -0.1608635 -0.35127404 -0.29697016 0.066308536 -0.21189846 0.043603204 0.24901585 0.18315504 0.107701935 -0.034048986 -0.038372897 0.109304875 0.17651775 -0.12661189 0.045586947 0.49728647 -0.36305487 0.11869473 0.45270228 -0.5126514 -0.5514423 0.04612941 0.14264315 -0.4031198 0.37447426 0.11320797 -0.3862768 -0.40365407 0.73088497 -0.5731 -0.2779811 -0.39166 0.27132705 -0.12712331 0.10616804 -0.09213072 -0.069192946 -0.052686 -0.2533051 -0.47653127 -0.36965886 -0.16430849 0.30180287 0.049002655 -0.015080083 0.20047544 0.047964707 -0.5147661 0.26712725 -0.3772442 -0.36011526 -0.33413982 0.15374875 -0.43276554 0.35281214 0.22798604 0.29993176 0.33402887 -0.103192136 0.14131647 -0.33959204 0.19021706 0.2934229 -0.06675265 0.24482921 0.102713846 -0.22988103 0.32047373 -0.31286934 0.49003103 -0.3467765 0.22776558 0.28387392 0.3785491 -0.29874635 0.22481804 -0.403445 0.18416363 0.536485 -0.1068493 0.06481335 0.086498246 -0.1181817 0.24026586 -0.42814636 -0.07691578 -0.009379343 -0.1754207 -0.009406224 -0.19150974 -0.21981174 -0.020242764 0.14814062 -0.3973356 0.15562776 -0.009889357 -0.288498 0.16282724
357 0.119974196 -0.0075693056 -0.34731966 0.45563585 0.086642854 -0.04765392 0.3524016 0.014174225 -0.1388353 0.26642466 0.013029698 -0.4515481 -0.30188528 0.32556096 0.08976488 0.008079116 -0.39752176 0.35828847 -0.08988912 -0.36466601 -0.08871485 0.46759617 0.0023451503 0.20822515 0.22873053 0.2012474 -0.35267296 0.07829692 -0.22977409 0.0778438 0.09787912 -0.22031854 -0.29163238 0.1920327 -0.42486563 -0.19051234 -0.04802328 -0.05158657 0.14558451 -0.3187508 -0.16886556 -0.14807288 -0.14438076 0.12605372 -0.55297303 -0.32154277 0.30740446 0.30026212 0.28384632 -0.5067792 0.095370054 0.18154193 -0.11858228 -0.18534516 -0.016247163 0.14971189 0.049238466 0.15076396 0.028270187 -0.15205617 -0.260335 -0.15786141 0.18253991 -0.0021402894 0.48757315 0.15558054 0.16858177 -0.40623003 0.004324884 0.32858527 -0.38533133 0.24058117 0.01815312 -0.0074322294 -0.24102107 0.0316151 -0.2785599 -0.15469877 0.28048775 0.34769714 0.18585002 -0.1663598 -0.10670747 0.11089032 -0.4258967 -0.07167062 0.10398921 0.46779284 0.10800876 -0.05431129 -0.19803858 -0.14933585 -0.32586578 -0.069406025 0.0017294474 0.16263428 -0.098808624 -0.21454008 -0.30255577 0.50011826 0.3080073 -0.055102408 0.57382923 0.11862874 -0.37946805 -0.19390196 0.4602977 0.7646432 0.045914903 -0.35083097 0.19612925 -0.34397137 -0.2950972 0.060630348 -0.15247206 0.15267815 -0.035698995 -0.1188195 0.34904632 -0.085404105 0.38898578 0.28743422 -0.03674611 -0.31170163 0.10100184 -0.27930006 -0.39036837 0.409533
234 0.42550159 0.10838877 0.10257227 0.41270587 0.4290924 -0.44361675 -0.07642533 0.50176686 -0.13946247 0.22066005 -0.24789779 0.078020945 -0.24159235 0.45012385 -0.5477783 -0.3026534 -0.4954977 0.03770589 0.051376786 -0.0064062513 -0.40988597 0.31441906 0.38405812 -0.51596797 0.17528713 0.03397835 -0.18267801 0.16176142 -0.37825632 0.2670409 -0.10172812 -0.60465014 -0.3940203 0.23296638 -0.26259437 -0.51726335 0.13374668 0.30983204 0.04473915 -0.058131117 -0.2996465 -0.24436925 -0.3017865 -0.00038776666 0.058428824 -0.080447525 0.050213832 0.042231303 0.16878766 -0.033536352 -0.36720592 0.2597807 -0.008030208 0.021175202 0.2967204 -0.06777237 0.47117925 -0.099122345 0.052420374 -0.14289269 0.36289352 -0.20502944 0.6598517 0.13371941 0.1796175 0.23768249 0.1442695 0.37013504 0.06506739 0.40648133 -0.023996145 0.031445324 0.1679668 0.067985214 0.14406689 -0.21196912 0.011010801 -0.0026625714 0.28798327 -0.08830823 0.20479912 -0.17842013 -0.15705827 -0.22364269 -0.21767926 -0.083511114 0.1327633 0.057080656 0.0809791 0.10449101 0.18627267 -0.05721743 -0.07965953 0.16236544 -0.047645684 -0.00092613103 -0.05413962 -0.08826508 -0.29719988 0.53451043 -0.051643666 -0.33040297 0.2735822 0.34191865 0.007430263 0.09170146 0.2104667 0.123981506 0.0026703246 0.19394653 0.29148817 0.16270874 -0.25068054 -0.35785678 0.021468887 0.33083478 -0.023322754 0.1659369 -0.47479138 -0.12365056 -0.056683656 -0.4258259 0.25685787 -0.1626402 0.010353017 0.023399422 -0.50341755 -0.11492749
599 0.5853252 -0.01635574 0.080973856 0.3176517 -0.16027826 -0.26935682 -0.06757402 0.17221452 -0.57971406 0.17901509 0.60553837 -0.4981737 -0.21066962 0.21324916 0.2208683 0.0108421445 -0.4688658 0.012554164 -0.63915384 -0.4692919 0.263819 -0.3509605 0.47904006 0.42851344 0.27844128 0.2827423 -0.26475498 -0.33397427 0.29576156 -0.5209373 0.2019502 -0.21150142 -0.3856121 0.17867935 -0.62361085 -0.031615395 0.24768284 0.37774205 0.068680905 -0.28392616 0.10178074 0.3162792 0.41320142 0.122451834 -0.18478219 0.53660053 -0.5241772 0.38203487 0.23824579 -0.9357876 -0.67921215 0.44974652 0.56756777 -0.3427019 0.3863006 0.14121382 -0.45656982 -0.7265712 0.79905176 -0.75378054 0.15669443 -0.778299 0.97279 0.15156384 0.06311298 -0.16293919 -0.024073295 -0.032231465 -0.029657466 -0.3103282 -0.04037511 0.032102484 0.17976756 -0.09207297 0.02209063 0.029975869 0.033133313 -0.056666415 0.40554416 0.04041852 -0.40899438 -0.38964742 0.5171662 -0.95619494 0.47860846 0.11621903 0.2349858 0.70312035 0.3257025 -0.21930087 -0.2598712 0.17670016 0.010027106 0.4867825 0.2929556 0.2751852 0.314744 0.59332645 -0.0020652905 0.41023538 -0.24350698 -0.027872697 0.37411442 0.7753301 -0.34904042 0.109205134 0.0018214708 0.08584052 0.43871406 -0.25033852 0.54914075 -0.58855355 -0.41845557 0.13548434 -0.4845377 0.12228232 -0.34107915 -0.2857512 -0.51210463 0.5060692 -0.33514336 -0.1274718 0.087155744 -0.3682328 0.2969366 0.23252283 -0.15112591 0.061259452
446 0.15443878 0.010602282 -0.05837128 0.025175087 0.28974092 -0.23094329 0.07631148 0.41255844 0.21916866 -0.012209463 -0.3875223 -0.12283478 -0.17920363 0.0060849744 -0.35469028 -0.12968509 -0.061992563 0.07962313 -0.03717057 -0.3192922 0.2417356 0.279322 0.12296548 -0.28167185 -0.13068852 0.06131047 -0.39780045 -0.06414459 0.29454973 0.2664756 0.020627946 -0.23254244 -0.39829627 0.0762812 0.1413225 -0.573036 -0.17982155 0.30102125 -0.14800467 -0.21293487 -0.098137535 -0.29215357 -0.1737558 0.050156273 -0.4518516 0.28063515 -0.11587736 0.033622503 -0.18499595 -0.0354659 -1.0238044 -0.08704911 0.15132286 -0.02532038 0.4712709 0.47350636 -0.23753752 0.066865005 0.32993433 -0.24283637 -0.13870472 0.07086105 0.13178647 0.2111749 0.34353554 0.47676817 0.17956015 -0.1060823 0.25468436 0.04508634 -0.18586375 -0.12260864 -0.11709181 -0.21650045 -0.05061305 -0.6188494 0.13963512 -0.16079423 0.35575947 0.30932578 0.46687287 -0.47993404 -0.3505994 0.2427243 -0.04995686 -0.0832992 0.37993097 0.40486962 0.20918176 0.076174945 0.027501715 0.12354292 -0.2633422 0.17056623 -0.3349912 -0.1863947 0.36000973 0.010998212 -0.011166608 0.16740412 0.07636917 -0.1304496 0.06820902 0.52446985 -0.07715968 -0.37357372 0.10972625 0.5333625 -0.035348307 0.022871641 0.09552047 0.051283047 -0.2157315 -0.22694616 -0.54757553 0.21448308 0.06522461 -0.41423434 -0.17627622 0.041080505 -0.2961497 0.08520976 -0.093607076 -0.025084386 -0.33514023 0.0075683715 -0.3496607 0.22663765
396 -0.2316899 0.4719369 0.07476175 0.47222337 0.5299833 -0.13226591 0.07095124 -0.05480683 0.00636382 0.45702183 0.17754817 0.13257135 -0.3198496 -0.1877969 -0.46340102 0.09325448 -0.097855546 0.21001428 0.19844903 -0.01457662 -0.26476926 0.39415577 0.42398638 -0.22338931 0.4070062 0.29853618 -0.52549934 0.4549191 -0.17577453 -0.12219838 -0.19514056 -0.089770764 -0.52662575 0.34593028 0.009269098 -0.20167272 -0.028997704 0.12462689 -0.0120817805 -0.36024398 -0.26449698 -0.0342065 -0.30544785 0.06821006 -0.39914638 0.045399323 -0.008898641 0.035818145 -0.10363829 -0.03954461 -0.45549166 -0.18430255 0.33901295 0.0870229 -0.092328 0.12339363 -0.078100935 0.08291755 0.58920145 -0.235987 -0.05742218 0.19146504 0.50364053 0.12588944 0.35619506 -0.016912153 0.07797027 0.32083434 -0.023414692 0.2411908 0.059744604 0.08713136 -0.038051326 -0.59773535 0.14202434 -0.36009485 0.062528744 0.03904652 0.096162364 0.48317283 0.12436598 0.3797058 0.016358273 -0.46685025 0.12677705 0.207875 0.28426594 0.2525327 0.3369865 -0.078484714 0.12194944 -0.0093647875 -0.62789696 0.21871965 -0.112970084 -0.2766179 0.24761541 0.14501235 -0.2516543 0.02857275 0.30865797 -0.06250504 0.2864177 0.062994495 -0.17043258 -0.22806521 0.28988463 0.050894767 0.0193205 0.061034147 0.1877729 -0.18511225 0.12479092 -0.04097835 -0.56267345 0.028978517 -0.095777154 0.3559362 0.023933811 -0.16464667 -0.2961542 -0.24298334 0.16870588 0.0971161 0.023680253 -0.23137328 -0.15033513 0.036896612
178 0.30332777 0.19496101 -0.28403544 0.32693246 0.3112851 -0.07813918 -0.30095997 0.3771184 0.21469457 0.11951704 0.066249005 -0.15543601 0.23852013 -0.11415863 -0.5908327 -0.07109087 -0.035180572 -0.11713624 0.17854936 -0.042367365 -0.14889823 0.21406236 0.3079039 0.21792695 -0.20830345 -0.20490456 -0.10357755 0.09304288 -0.059847802 -0.075648054 -0.08589572 -0.23747022 -0.77444386 -0.21447007 -0.4708999 -0.12948741 -0.24963729 0.3281765 0.107131675 -0.206136 0.043392926 0.032399394 0.22500657 -0.08590215 -0.07936781 0.3042642 0.3110926 0.37930414 -0.037943523 0.12952897 -0.25240156 0.091312855 0.2843937 0.13464887 -0.28485814 0.36198097 -0.07179186 -0.107549034 0.15738621 0.27765056 0.20350672 0.11912594 -0.17247999 0.09639544 -0.043208297 -0.2601008 0.17254445 0.018225739 -0.303923 0.21518216 -0.48112735 0.15452236 0.1756259 0.03820883 0.23825745 0.13913852 0.16060884 0.0712495 -0.29511487 0.2935523 -0.112949975 -0.27995837 0.21917431 -0.1248363 -0.25456908 0.09220719 0.38284963 0.40797204 -0.19721156 -0.28117844 0.18727623 0.07763411 -0.20748891 0.018676434 0.13349168 0.07783092 -0.12209909 0.110752076 -0.35725716 0.40324205 -0.057129025 -0.27914754 0.114821255 -0.030059967 -0.21222673 0.20862414 0.2069017 0.301402 -0.092469245 0.18592347 -0.060111772 -0.79232097 -0.07451737 -0.23696026 -0.53794855 0.33194655 -0.24013813 0.3587907 0.18852432 -0.112701036 -0.27827594 0.017235057 0.1519045 -0.067981794 -0.16770661 -0.057693206 -0.12237873 0.20668983
247 0.09503347 0.47260007 -0.04554264 0.7538405 0.65880144 -0.43644905 -0.08115493 -0.029653855 -0.007256537 0.15855995 0.10951554 -0.0096710175 -0.02114836 0.07973842 -0.44549084 0.13312103 -0.1053249 0.3392612 0.37900987 -0.7159734 0.1842065 0.31718004 0.10578104 0.06620374 0.1859988 0.05720813 -0.02014513 -0.25557163 -0.3274678 -0.25588807 -0.21824901 -0.5115946 -0.2890337 0.121331595 -0.02258241 -0.5058346 -0.041781515 0.32552 0.30997825 0.17024377 -0.14472571 0.008772203 -0.12723343 0.14005668 -0.55292267 -0.093526475 -0.086690456 0.20816684 0.67897004 0.13024545 0.08077321 0.05910299 0.5112366 -0.22245179 0.056297958 0.53493994 0.0345616 -0.3006859 0.20340584 0.20870282 0.26998138 -0.12479671 -0.045420993 0.14326343 0.2928477 -0.0009875154 0.24693954 0.100090705 0.44104332 -0.036247447 0.017946364 -0.20384355 -0.055999026 -0.16004094 -0.28465188 -0.067952044 -0.023838265 0.12736693 -0.08809378 0.36954692 -0.36497307 -0.12284506 -0.39228174 -0.07646317 -0.40768796 0.10968368 0.17408206 0.26322713 0.2638459 0.23480494 -0.2202318 0.2493914 -0.33535525 -0.16093984 -0.5565099 0.19587237 -0.09663154 0.5852113 -0.2590626 0.09160035 -0.18709773 -0.03074604 -0.079449214 0.28516284 -0.2304847 -0.16263469 0.21479389 0.16734041 0.01729669 -0.42506576 0.058232166 -0.078576826 -0.24359328 0.09304582 -0.39373848 0.07397708 0.17545642 -0.18206814 -0.36933306 -0.06500012 -0.25280836 0.10229483 0.53050095 -0.20718078 0.33822376 -0.4888762 -0.2591682 0.14630441
63 0.29357427 -0.14747173 -0.10983937 0.22704627 0.4031543 -0.23372519 -0.17382577 0.12619656 0.07463554 0.500106 -0.029496085 -0.34309173 -0.3710231 0.13523892 -0.4506544 0.2184178 0.18639393 0.26827368 0.092676304 -0.41893968 -0.32741344 0.16267556 -0.18146434 -0.25118065 0.2674798 0.27332303 -0.42683923 -0.21204185 -0.029130084 -0.098917 0.051517103 -0.14969404 -0.26385397 0.10061715 0.01936024 -0.039400164 -0.08087235 0.28904146 -0.23283727 -0.3048107 -0.13555862 -0.04876541 -0.060276814 0.044725966 -0.47183487 -0.047381263 -0.08296833 0.28695095 -0.3218923 -0.29501233 -0.38765356 -0.05086129 0.30708876 -0.03414332 -0.2342828 0.2215747 0.073277235 0.12835523 -0.10094879 -0.2519507 0.27285397 -0.10379736 0.038542777 0.0932985 -0.24371883 -0.0131321605 0.22309422 -0.09495492 -0.16135442 0.36173388 -0.06058409 0.19224526 0.053267103 0.07203608 -0.16899939 -0.18416421 -0.094564855 -0.26459014 0.56538355 -0.2931906 -0.35627648 -0.21686259 0.13928246 0.3262894 -0.24464938 0.10199664 0.7354348 0.12730108 0.090180084 0.23484462 0.03356289 0.27352503 -0.16577841 -0.3228049 0.015624183 -0.08010963 0.07558879 0.26064503 -0.20928732 0.14212285 -0.083454855 0.07047967 -0.13659306 0.0945233 -0.14911555 0.24589004 0.4789522 0.27236775 0.056262318 0.4095885 0.0070020757 0.1077289 -0.17524396 0.29531825 -0.2671494 0.4255107 -0.045266744 -0.20196529 -0.197037 -0.40013808 -0.623817 -0.17861372 0.17926706 0.1681581 0.04818879 -0.24656169 -0.30428648 0.18816672
384 0.6792965 0.365537 -0.18330914 0.3475192 0.6287108 0.27044576 -0.35384193 0.37667084 0.1385989 0.5437894 0.48237094 -0.29185215 0.15928318 0.23945855 -0.18765037 -0.28589448 -0.22466423 0.04673979 0.32694414 0.05941216 -0.0049993363 0.27775905 0.05531533 0.024254978 -0.15181932 -0.202117 -0.14592351 -0.21734686 0.07216409 0.013636324 -0.11972048 -0.27056792 0.13181636 -0.10908753 -0.2635616 0.034098208 0.14193773 -0.014752211 0.1913986 -0.21290071 -0.071830854 -0.033844724 -0.030464642 0.568275 -0.24719515 0.21425794 0.12622313 -0.38023823 0.015520234 -0.16718161 -0.3632593 0.0045748926 0.034117144 -0.07714541 -0.11614364 0.078756206 -0.2157082 -0.37703526 0.18769945 -0.09431628 -0.026624564 0.50773805 0.41306713 -0.29111272 0.04614275 -0.025284443 0.48722124 -0.13624348 0.33710197 0.21285138 0.15119213 0.45745137 0.26696056 0.0010281105 0.12968196 0.07763108 0.031046899 0.019927846 -0.041956466 0.30873415 0.111072846 -0.18676744 -0.29871866 -0.30313417 -0.29595542 -0.3162909 0.07651964 0.10350272 0.012844831 -0.35131887 -0.22443569 -0.33075997 -0.18886249 -0.21372923 -0.021579672 0.16759631 0.004092258 0.47845116 -0.23212284 0.16731769 0.013526198 -0.13876148 -0.2061288 0.13946679 -0.20159937 -0.31153584 0.38780174 0.5459971 -0.1929485 0.41250643 0.3734328 -0.29598516 -0.6146125 -0.3864216 -0.097062945 0.12925325 0.09926559 0.25553694 0.060170878 0.084348835 -0.32684687 0.030793166 0.24867877 -0.22223322 -0.03357705 -3.5412522e-06 -0.37524927 -0.13074182
363 0.25145683 0.26907927 0.18741417 0.58870834 0.012604066 -0.30616423 -0.07575635 -0.08311476 -0.0540794 0.38994163 -0.029246228 -0.29903135 0.10516521 0.19572715 -0.6697134 -0.14027843 0.01695132 0.43191344 -0.18316181 -0.32084984 -0.07343522 0.2289284 0.0035009882 -0.1206356 0.029208919 0.22164492 0.28410593 -0.36427036 -0.24185988 -0.24889292 0.17204544 -0.34710193 -0.4371193 0.102506325 0.017531656 -0.44102705 0.2888206 0.13045464 -0.18917026 -0.095131435 -0.23954953 -0.1409773 0.29281607 0.287074 -0.021513741 -0.13809298 0.43843216 0.2951558 0.33805117 0.30667156 0.021701578 0.3877336 0.066324934 0.029398575 0.1497443 0.0326881 -0.19116986 0.068057664 0.15488116 -0.16256581 0.065970436 -0.13489367 0.25035805 0.119577296 0.036323905 0.4104489 0.607414 -0.11240878 0.25782394 0.4807801 -0.2659052 0.032418434 -0.013283343 -0.102224275 -0.025636775 0.07851303 0.15502805 0.2929743 0.0093846675 0.09867225 -0.13891494 -0.25069112 0.2919684 -0.4300103 -0.1893444 0.30162373 0.40925482 -0.0273725 0.06146446 -0.1241705 0.25570837 -0.34899846 -0.2151641 0.074840344 -0.19891392 0.26402852 0.04470588 0.27411318 -0.19823666 0.4903726 -0.21693057 0.0027205923 -0.09054543 0.26010343 0.28247097 -0.2692685 0.3086694 0.13232954 -0.08343196 -0.05499075 0.18699183 -0.20990902 0.0766297 -0.27551162 -0.123645395 -0.35124198 0.025500355 0.11416369 -0.046480514 0.25992915 -0.07354526 -0.50716025 0.13378023 0.15485248 0.48671448 0.33849856 -0.83375406 0.15451814
73 0.80080056 0.5857387 -0.371455 0.3512738 0.5167917 -0.30680755 -0.37390327 0.12934743 0.07394486 0.5385292 -0.013788257 0.147584 -0.610665 0.14277592 -0.2252064 -0.013789498 0.002715142 -0.22001968 0.39052343 -0.40464723 -0.10627461 0.60112643 0.123534836 -0.13365793 -0.038165227 0.18768486 -0.31888843 -0.16760394 -0.4559771 0.14281179 0.19308986 0.0006635319 -0.1514884 -0.11489748 -0.15757652 -0.05481701 0.09290969 -0.10165056 -0.13320751 -0.09690533 -0.10501852 0.18578072 0.46107733 0.038663957 -0.42414722 -0.27449793 -0.014382542 0.18284106 -0.023566762 -0.37519628 -0.2711873 -0.20016673 0.42368135 -0.27847224 0.4537487 -0.011728712 -0.40369925 -0.21780376 -0.033657394 -0.19554202 0.2849342 -0.23758261 0.18030544 0.41832295 -0.04949709 -0.0011639735 0.22901906 0.35562956 -0.25482798 0.4101468 -0.18806021 -0.13132268 -0.2367087 -0.054394506 0.02523495 0.058172993 0.07155617 0.4257112 0.5033809 0.10369569 -0.03172787 0.1894326 -0.35691914 -0.19738685 -0.22643359 -0.08722742 0.31854022 0.38113737 0.021265717 -0.2000739 0.12772302 0.34931612 -0.31121892 0.075328454 0.0017375931 0.152906 -0.25659046 0.11475116 -0.116935804 -0.1683164 0.27738816 0.04242608 0.40643522 0.51674384 0.025429863 -0.11849641 0.3072855 -0.20482245 -0.3115918 0.12492272 0.12912947 0.002132248 -0.22330965 -0.29972365 -0.4241894 0.3219162 0.04539364 0.034270927 0.4294335 0.0452325 -0.3405012 -0.032284573 0.5485778 0.17882314 0.24295057 0.12835833 -0.26103723 0.1432602
240 0.292454 0.2547455 -0.18821798 0.21744014 0.27951172 -0.117940634 0.08741579 0.21078113 0.22368455 -0.051964022 -0.27457753 -0.5070469 -0.023802403 0.06988943 -0.1735063 0.109717496 0.007959702 0.34366262 -0.160829 -0.054455757 -0.29493132 0.03395836 -0.34439373 -0.34999037 -0.28136125 0.036211472 -0.012329309 0.03536939 0.019243784 -0.37869328 -0.054508936 -0.42433587 -0.10609411 0.008421614 -0.25445974 -0.49105123 0.51736796 -0.06274515 0.08991068 -0.3727029 -0.3505218 0.08550263 0.1049105 0.48730096 -0.6813072 -0.21941397 0.18531954 -0.23099059 0.0968362 -0.19423214 -0.08344516 0.6516177 0.32370868 0.46296415 0.086258404 0.11077132 -0.08541376 -0.5084716 0.07641655 -0.15463471 0.048589505 0.111428484 -0.070717655 0.16647679 0.28125665 0.07437874 0.40913773 0.17454556 -0.086029686 0.37287652 -0.3238896 -0.21611068 0.06293181 -0.15217888 0.22376922 -0.6170532 0.19923759 -0.25961 0.32884967 0.09162179 -0.1128897 0.047690615 -0.40026367 -0.29612872 0.42634448 0.26364833 0.07709893 -0.015980005 -0.0006294786 0.11843276 0.06262364 0.20497157 -0.4600152 0.23879705 0.063593924 0.29460797 0.09936567 0.1671971 0.025867041 -0.05601807 -0.019423148 0.10260198 0.65104234 -0.17775102 -0.1616311 -0.0070634196 0.17997542 0.26208168 0.15632558 0.20253131 0.19216214 -0.26932195 -0.04086727 -0.08215981 0.12945259 0.05366555 -0.130885 -0.15075901 -0.0023348911 0.08722511 -0.28009897 -0.05890979 0.09601524 0.044812053 0.45531288 -0.30361637 -0.5278271 0.33892864
184 0.18511458 0.61077887 -0.43017703 0.18450743 0.56254786 0.03504797 -0.25526908 -0.1559494 -0.19093712 -0.23204203 -0.05390944 -0.024804464 -0.1091841 0.010941683 -0.4134195 0.35760534 -0.15218896 -0.31685373 0.08166328 -0.55337024 -0.20287472 0.07212433 -0.15647209 0.1084649 0.36646852 0.2079404 -0.09245069 -0.27368447 -0.23939785 -0.254529 0.28720677 -0.22472689 -0.15387805 0.1262187 -0.54100883 0.09364136 -0.09088343 0.24414071 -0.1252395 -0.04714384 0.09574248 0.16431266 -0.16762179 0.133316 -0.3066687 0.29361367 0.08325713 0.29998165 0.23419866 -0.17450862 -0.5853544 0.1416154 0.07531087 0.00012819808 0.04318174 0.0047576902 -0.26118475 -0.15901992 0.18307543 -0.67266905 0.22380276 -0.14300482 -0.1038829 -0.36790463 0.2803934 -0.088568956 0.2096363 0.29114333 0.38952944 0.2739261 -0.37304178 0.5465027 -0.18118668 -0.509752 0.11578031 0.090181775 -0.00085145305 -0.39331937 -0.034748536 -0.034241132 0.01750809 -0.48124605 -0.063420296 0.49423167 0.093979 0.32427633 0.11831137 0.17711923 -0.0007602899 -0.15072058 0.13994871 0.13635732 -0.32514057 -0.0031370106 0.045180805 0.021956211 -0.18007363 0.17278953 -0.1855429 0.16159783 0.20734046 -0.106432214 -0.16777636 -0.17094062 -0.2025097 0.16235521 0.14022039 0.2062598 -0.031235313 0.31765938 0.19171615 -0.46703956 -0.13968359 -0.3261147 -0.13940494 0.32024455 0.15490748 0.10607957 -0.07894781 0.37285525 -0.32266128 0.20970532 0.11300446 0.047231626 0.118326016 0.12258272 -0.2143035 0.23726073
153 0.322802 0.4145109 -0.36035177 0.4818637 -0.23377295 0.016389173 -0.214471 0.0804652 0.49296534 0.04593618 0.016020205 -0.026491081 0.023474595 0.23077893 -0.6124461 0.13980004 0.34128746 -0.10425996 0.021733249 -0.3300506 -0.17959139 0.2971002 0.14100912 -0.3736898 0.1527038 0.08298695 -0.52007794 -0.20001675 -0.03695651 -0.36102936 -0.33654165 -0.65849495 -0.18684155 0.064770676 -0.25879368 -0.27766776 -0.20629089 0.21651867 -0.14774907 -0.4500968 0.2800227 0.06077182 -0.09676456 0.7170476 -0.06759797 0.11887404 -0.06448822 -0.023842903 -0.12144633 0.2702603 -0.032004558 0.19128117 -0.34788528 0.30637762 0.009504015 0.050336935 0.04057779 -0.038542125 0.21453549 -0.2777675 0.029748486 -0.39176944 0.13999158 0.21561271 0.283925 -0.075399354 0.21239683 -0.049665537 0.16109428 0.18432423 -0.44058558 -0.11478019 -0.054999825 -0.32370475 0.10054534 -0.07307853 0.08373078 0.3127963 -0.0063313614 0.08359427 -0.048153263 -0.2493447 0.02535629 -0.006554818 -0.47729716 -0.17724575 0.58790934 0.08534595 -0.08663083 0.15993582 0.22321047 0.2476745 0.055607084 0.37175772 0.3672573 0.25514042 0.24521264 0.2282011 0.031176561 -0.24375978 0.32060492 -0.093952045 0.39830962 0.46448046 -0.45828423 -0.29171616 0.16654827 0.21187572 0.18264122 0.28423813 -0.12496949 0.03464741 -0.19488788 -0.3932526 -0.3234766 0.48205453 0.15716574 -0.05614852 0.1033249 -0.10023904 -0.09760985 -0.084214896 0.10689686 -0.05774595 0.2855163 0.144052 -0.03417077 -0.14978193
474 0.161833 0.22117686 -0.10655971 0.03740029 0.32922825 -0.27869534 -0.015474441 0.33513436 0.040854935 -0.008856917 -0.3245565 0.041484777 -0.31731448 0.031868 -0.4260276 -0.106563315 0.021038175 0.1077798 0.10045991 -0.16691299 -0.12800612 0.4048001 -0.045849834 -0.34651074 -0.13431108 0.34450567 0.14037314 -0.17679411 -0.05701671 -0.038739394 0.036997736 -0.544793 -0.3578554 0.066297196 -0.3259922 -0.34753752 0.042179246 0.14913212 -0.001505422 0.004505032 -0.14001697 0.13687687 -0.08247585 0.3092575 -0.095966235 -0.13204372 0.61470246 0.2460427 -0.13618086 0.010901924 -0.19752492 -0.33985162 0.29029584 -0.15653399 -0.09496824 -0.09144349 -0.11923888 -0.0016997212 -0.15589996 -0.54473466 0.04135061 0.07525226 -0.030476648 -0.019597836 0.36481413 -0.10219304 0.4498376 -0.08649287 0.032486394 0.31771597 0.057692073 -0.0023132337 -0.46797404 -0.22224702 0.2853035 0.241112 -0.17121734 0.053012114 0.09600623 0.14316982 0.42938313 -0.105845585 0.08189916 -0.2061878 -0.06646189 0.10029539 0.20660023 0.4980223 0.26104698 0.0062283403 0.099332854 -0.06906981 -0.51827276 -0.11996275 0.014210146 0.2776701 0.30010217 0.37844196 -0.07559317 0.71437985 -0.301629 0.042989973 0.10999173 -0.037029818 -0.34692314 -0.25981227 0.15983437 0.32865638 0.23868467 0.3308973 -0.004043329 -0.27724507 -0.20208071 -0.32848224 -0.08061084 -0.26677403 0.05811628 -0.0022707402 0.30278897 -0.08375634 -0.3152133 0.047494784 0.05222031 -0.34532326 0.040119488 -0.4536858 -0.46189624 0.27213097
190 0.44014794 0.55324906 -0.1703585 -0.024349976 0.16007161 -0.19168553 0.14348462 0.040494435 0.06266483 0.3469459 -0.17563446 -0.12834086 -0.16090594 0.19087051 -0.30138442 0.16369589 0.004475745 -0.27097076 -0.15542217 -0.47872853 0.10340682 -0.072545305 0.41064653 -0.018026736 -0.0744211 0.23011827 -0.052420452 -0.2425928 -0.20904343 0.36589113 0.24829483 -0.24626876 -0.28326637 -0.08961542 -0.37993166 -0.40049407 0.11154307 0.1091314 0.06375056 -0.041957475 -0.030590557 -0.013022217 -0.26359403 0.13677394 -0.3887332 -0.0546747 0.30156395 -0.3099468 0.17757145 -0.51530755 -0.204309 -0.27556515 0.12740768 0.2978088 0.16342674 -0.017540086 -0.018873878 -0.37020883 -0.39390898 -0.43021166 -0.09474181 -0.20214868 0.16332427 0.053358223 -0.009206003 -0.12939622 0.13565038 0.52600205 -0.08478048 -0.049009673 -0.19035903 0.5922468 -0.20685372 -0.07788632 -0.16087338 -0.10372907 -0.12754187 -0.02940941 0.24442336 0.27630043 -0.035570126 0.2998724 -0.36747944 -0.036032103 -0.17471533 0.06541558 0.032393273 0.47546312 -0.17489558 -0.19928847 -0.03152362 0.35163847 -0.006672121 0.5317634 -0.012592524 -0.19975393 0.11369641 -0.084009565 0.07904497 0.4576204 -0.34583277 -0.37066218 -0.11396129 0.38596106 0.13582763 -0.16588172 0.21135719 0.26116058 -0.03162333 -0.06256122 0.2870233 -0.09813714 0.1382515 -0.41841227 -0.43748966 0.25822353 0.27323693 0.07565247 0.21046759 0.23274858 -0.7915565 -0.18624967 -0.16972665 0.13128908 0.063683346 -0.38217184 -0.15300527 -0.15846935
104 0.31000492 0.06921053 -0.25849107 0.75051963 0.1253755 0.04295819 -0.051689185 0.27514172 0.33909938 0.2527229 -0.10606627 -0.68620646 -0.07420498 0.31927994 -0.35407633 -0.17949167 0.07247863 0.09157184 0.08783814 -0.458043 -0.112277776 -0.2088753 0.049791336 0.06346111 -0.040964726 -0.21312366 -0.2546081 -0.01934959 -0.125675 -0.40464357 0.5118095 -0.20400158 0.015768653 -0.107638545 -0.3359656 -0.49770686 0.28859434 0.35817012 -0.017861938 -0.287715 -0.00039563418 0.015393981 0.066630445 0.36099103 -0.45498398 -0.36664858 -0.074357964 0.2200007 -0.41756478 -0.048007272 -0.38479084 0.2958076 0.5252321 0.4132124 -0.095569715 -0.09200741 0.58881116 -0.14971615 -0.040680505 -0.043766435 0.17759748 0.08325921 -0.08603587 0.51714545 0.09283409 -0.023963347 -0.044938207 -0.045097154 -0.094200514 0.051534183 0.032237604 0.12409087 -0.28780645 -0.0064923507 0.26544142 -0.026910013 -0.25188828 -0.22832327 0.10360705 0.35058448 -0.014388972 -0.42525458 -0.050110567 -0.22254843 -0.11040197 -0.07723059 0.2303521 0.6381693 0.041229613 -0.3766511 -0.009398795 -0.4061063 -0.16504957 0.16566198 -0.08630463 0.037691105 -0.0747111 0.061302427 -0.17270757 0.0036860069 -0.22468077 -0.16721533 0.103331245 -0.05177775 -0.014225035 -0.028157812 0.003628723 0.4825049 -0.3247833 0.16315107 -0.07683444 -0.3251679 -0.15480252 -0.2686294 0.21463525 -0.39388305 0.2202125 0.14223242 0.09672569 0.52768165 -0.079485156 -0.33167732 0.06971822 0.2721068 -0.13216883 -0.021011235 -0.29201156 -0.030482614
416 0.16544102 0.8082746 0.19512714 0.3079861 0.16097906 -0.20420608 -0.20737424 -0.14938858 0.14958459 0.3465984 -0.017849699 -0.22488582 -0.13338271 0.25806606 -0.2129501 0.13043776 -0.030633645 0.02095013 -0.06371425 -0.48803917 -0.2536058 0.33413625 -0.16789344 -0.28642952 -0.15447041 -0.209589 0.13666148 -0.03354664 -0.26388314 0.03818325 -0.13273133 -0.25367367 -0.4041699 0.08189762 -0.24790844 0.04331737 0.23160389 0.35888866 0.11205338 -0.12565616 0.481491 0.11947553 0.21663028 0.19357988 -0.38172302 0.2532641 0.35403252 -0.035738304 -0.1740077 -0.036431164 -0.040595654 -0.022920428 0.51696485 -0.22318818 0.07053397 -0.2818863 -0.07404869 -0.21780938 0.15117587 -0.31486347 -0.10553435 0.48142767 0.013699395 -0.08435609 0.045866027 -0.053849764 0.18440661 0.43539268 -0.083971776 0.07695031 0.35442844 0.11573963 -0.18878461 0.32757214 0.25931934 -0.43500265 -0.051976543 0.28054065 0.1656845 0.057936713 -0.09654468 -0.36940837 -0.35740533 -0.48745304 -0.42585835 -0.18856059 0.2286357 0.74459004 0.24384868 0.18522564 0.19105282 0.32106987 -0.12552366 0.51342094 -0.25734806 -0.039546948 -0.19713742 0.025293613 -0.054593667 -0.047182526 0.2655522 -0.29493174 -0.03624319 0.43266827 -0.27607736 0.30750358 0.32191223 -0.15658486 -0.0017043843 0.0057505155 0.107549295 -0.20824789 -0.19813275 0.12873943 -0.27101365 0.3129818 -0.006678065 -0.13044772 0.42027014 0.10625163 -0.13419141 0.21088392 0.063284524 0.080927305 -0.06418732 0.2826748 -0.75497013 0.12138084
379 0.31443644 0.1970344 0.053587552 0.53460044 0.2876464 0.26483402 -0.13595352 0.33019528 0.12855312 0.31599587 0.049747437 -0.09117923 0.14293537 0.20446195 -0.5007051 0.0844032 0.2511328 0.31105846 0.015383685 -0.2423639 -0.14998132 0.21580112 0.083000295 -0.22100703 0.34361815 0.43193746 -0.029588478 0.028684003 -0.43057692 0.0030805683 0.24129912 -0.22321655 -0.102068745 0.19089568 -0.44878933 -0.19479324 0.39708993 0.76329213 -0.2518854 0.1381652 0.026418155 0.03608871 -0.06721503 0.07823276 -0.19795205 -0.04294044 -0.05390182 -0.22165838 0.18235514 -0.021892132 -0.48559684 -0.35964358 0.38065076 0.049147774 -0.005722784 -0.38801882 0.42837438 0.059828423 0.079072334 -0.030370947 0.15647687 0.2847826 0.32397202 0.26178184 -0.08529659 0.35766983 -0.12859198 -0.26625717 0.092252895 0.26429495 -0.03912079 0.25124758 -0.2013836 -0.08393349 0.20802143 -0.028541958 -0.14816536 -0.2647176 0.66503865 0.077848054 0.019366646 0.2341659 0.15764414 0.159717 -0.023877285 0.043894913 0.43542624 0.35148898 -0.3480249 -0.20493913 0.30628496 -0.1871571 -0.38866612 0.18073285 -0.4241422 -0.3000856 -0.14270744 0.27078137 -0.00024165606 -0.030433455 -0.031085987 -0.10515457 0.1292949 0.45038956 -0.27064863 0.22361647 0.07526827 0.19270615 -0.27681017 0.13817237 0.16314182 0.18597724 -0.37431633 -0.22159629 0.050091352 0.15675624 0.21751067 -0.0058686174 0.21865319 -0.061865088 -0.25561798 -0.2799233 -0.20390122 -0.18774743 0.13062407 -0.05902115 -0.26662654 0.17038912
390 -0.16756612 0.28779203 -0.31116596 0.8447014 0.34211868 -0.009109364 0.21159533 -0.38554966 0.115569845 0.31692013 -0.049286403 -0.21117456 -0.09477146 0.04671908 -0.338047 0.022506056 -0.11912892 0.021179264 0.21151708 -0.34271073 -0.08248091 0.3874422 -0.5144583 -0.24291953 0.1799411 0.62635934 0.090472944 0.064699434 -0.18293996 -0.1617792 -0.080895096 0.004068425 -0.15606417 0.28170443 0.069219224 -0.40180814 -0.33706534 0.0015247151 0.2062531 -0.05701691 0.12848444 0.094030246 -0.14365092 0.20386612 -0.41767082 -0.05726029 0.0636126 -0.057596397 0.52507395 -0.24104886 -0.4285747 0.022281801 0.51805806 0.22677504 0.20459104 -0.20750964 -0.12035895 0.009971709 -0.04104671 -0.265731 -0.052690834 0.331165 -0.093372166 -0.18839519 0.25858125 -0.101305686 0.3149918 -0.07599297 -0.029158344 -0.09452656 -0.15637451 0.18367437 -0.36297002 -0.07887587 -0.31446388 0.14079262 0.2712379 0.18849836 0.317853 0.020326637 0.01613718 -0.41429344 0.08203606 0.4054147 0.13968593 -0.6975881 0.12823358 0.5393264 0.058545806 -0.16703434 0.45685977 -0.18627775 -0.34440154 0.10633838 0.07827763 0.015015987 0.024976766 -0.10876482 -0.37704226 0.24487603 0.05191593 -0.14873464 0.6360932 0.5347521 -0.11322565 -0.06602532 0.14268467 -0.087641746 0.027619267 0.009708171 0.31496838 -0.47522855 -0.43461084 0.08717425 -0.4440728 -0.26359418 -0.06320355 0.06326387 0.08578975 -0.07225798 -0.03267614 0.053007178 0.35431033 -0.083393805 0.15167658 -0.23624285 -0.10075463 0.21863979
94 0.5621967 0.37491575 -0.32486546 0.43777966 0.37973583 -0.13350998 -0.17090744 -0.030751647 0.41272148 0.19862941 -0.20114999 0.09881015 -0.11441249 0.37368727 -0.5721783 0.37833428 0.17254123 0.20188098 0.5908489 0.05125734 0.29043153 0.6429704 0.053573087 -0.43851927 -0.2152829 0.32628238 -0.04752489 -0.47817332 -0.11646148 -0.2506685 0.24849047 -0.42975378 -0.30424374 0.09286574 -0.19593278 -0.21857575 -0.16565333 0.3340922 -0.15404984 0.0067538726 0.18721575 0.09219521 0.06409087 0.23252773 -0.31621692 0.03371648 0.07277562 0.15251498 -0.08278172 -0.44352198 0.095757775 -0.02622107 0.36094147 -0.27079913 0.26795122 -0.060793497 -0.08326516 -0.45397 0.23614733 -0.2649108 0.21237677 0.31131506 -0.03185654 0.1227805 0.30496258 0.24089669 0.121490225 0.08572953 0.09236284 0.26948678 -0.3162159 0.4440893 -0.07164441 -0.024136452 -0.037889343 0.09852947 0.050945967 0.08500217 0.034255836 -0.17768054 0.060680185 -0.1922051 0.28893343 -0.16323476 -0.15478984 -0.2731558 -0.0392362 0.47480932 0.037794154 0.054202773 0.23033136 -0.14961454 0.13711828 -0.25746796 -0.4369888 -0.12038948 -0.58529395 0.33866516 -0.5985095 0.65111864 0.17182101 -0.24700922 0.23774166 0.20881668 0.079784155 -0.29388338 0.30600768 0.05031812 0.09969285 0.4899217 0.015540819 -0.23601277 -0.33724505 0.088102296 -0.30014697 0.18506624 0.32667476 0.22067906 -0.29322365 -0.2598198 -0.11852495 0.027063351 0.1829825 0.11734457 -0.05669671 0.057520825 -0.17423877 -0.18619928
201 0.033375267 0.4520492 -0.28494084 0.26429117 0.35298708 -0.32933268 -0.0012880984 0.090106905 0.8695332 0.3090102 -0.310423 -0.20020035 -0.06601228 0.24259779 -0.19390202 0.20770986 0.0889285 0.14057608 -0.18378584 -0.011420974 0.20031711 0.0720778 -0.1837646 0.044969067 0.13423751 0.20127307 -0.105596505 -0.042219583 -0.1546596 -0.19334118 -0.0065850606 -0.0028813763 0.01751199 -0.2528531 -0.2834459 -0.017335352 0.12789096 0.50503093 -0.12061814 -0.10264947 0.18284954 -0.011468317 -0.011533279 0.21677084 -0.03828631 0.4259323 0.2186867 -0.0737932 -0.19931932 -0.085098416 -0.14835677 0.17301336 0.329408 -0.5470258 0.18894972 -0.18468288 0.13883106 -0.40375137 -0.3365569 -0.46655872 0.04980162 0.28792745 0.028252885 -0.06614467 0.3185314 0.22955064 0.31435934 -0.41003266 0.17699917 0.19755875 0.039633486 -0.018902235 0.24785276 -0.08398649 -0.1086028 -0.046432827 -0.2640776 0.114705764 0.10915249 -0.11733124 0.3660278 -0.15666601 0.18378118 -0.34549364 -0.36551952 -0.17226724 0.2720681 0.3008575 0.017153552 -0.1663356 0.23904587 -0.25050977 -0.4353574 -0.18785223 -0.25706014 0.06808586 -0.15402217 0.3864473 -0.26760465 0.1000116 -0.010259287 0.07679473 0.20483762 0.23818208 -0.037754092 -0.17254509 0.18579134 0.4748745 0.011292864 0.10710292 0.04895899 -0.2323393 -0.33663782 -0.08374524 -0.26343784 -0.027293013 -0.27667457 -0.2444909 0.32225606 -0.1281047 -0.31962502 0.075810194 0.0032704154 0.025459465 0.016709503 -0.21588542 -0.262449 0.15393692
345 0.52341634 0.313182 0.031576138 0.3830187 -0.0056389915 -0.20148097 -0.19735806 -0.24282575 0.06344515 0.54928136 -0.5601693 -0.2592618 -0.801881 -0.05003052 -0.16099386 -0.13611731 -0.3388535 0.01150682 0.31418425 -0.0068351366 -0.18852723 -0.10705445 0.28311884 -0.09373624 0.02626621 0.4509088 0.057438143 0.3876274 -0.18031669 -0.29324096 0.0019199109 -0.620436 -0.44992232 -0.06839287 -0.2206182 -0.36992732 0.040987883 0.44216526 0.24601826 -0.11322743 -0.15297349 -0.23725303 -0.013959131 0.21361703 0.1091476 0.0062698512 0.29825294 -0.07210147 0.64110297 -0.22532311 0.012073106 -0.4689649 0.38786873 -0.18703383 -0.19457354 0.20888287 -0.009345341 0.05311901 0.008656815 -0.23108044 0.15520923 0.061968114 0.081874244 -0.14223716 -0.09161054 0.13113186 0.28926662 0.047207735 -0.20512003 0.060712155 0.07819061 0.016781246 -0.06684919 -0.36601552 0.22897087 -0.5209273 -0.025583167 0.16454479 0.1601649 0.461677 -0.12846869 -0.47916394 0.33796793 0.049311835 -0.15554741 -0.07366535 0.33237037 0.4141311 -0.29546747 -0.054804303 0.4101533 -0.049334526 -0.42620707 -0.20101953 -0.024379045 0.44794494 0.26742318 -0.016710946 -0.20010519 0.022556137 -0.048339494 -0.13529709 -0.058723126 -0.101852395 -0.032679543 0.02707468 -0.11886711 0.40293595 0.003015546 -0.3299823 0.14208716 -0.07834865 0.14821143 -0.26681092 -0.13527413 0.18054195 0.26004693 -0.44266725 0.13935404 0.21808298 -0.34972212 0.050110444 -0.031426944 0.062287446 -0.02725457 0.35269624 -0.2582099 -0.14349872
196 -0.07232169 0.66498065 -0.2695744 -0.04483409 -0.4350012 0.2969903 -0.03583596 0.16626006 0.13205245 0.067199916 -0.18757087 -0.56947 -0.08383906 0.22980548 0.0035607074 0.29392135 0.10684746 -0.09736395 0.15030915 -0.37461764 -0.21400246 0.19639458 -0.10444965 -0.37358457 0.07229603 -0.02384552 -0.0839987 0.015959578 -0.12559679 -0.302102 0.034779634 -0.35916287 -0.3153567 -0.102780245 -0.5102724 -0.36569625 0.019214362 0.07623678 0.040144093 -0.27620748 0.31579307 -0.4500553 -0.3469653 0.12362308 -0.34417444 -0.008600405 0.08671008 0.06838114 -0.08960352 -0.13286906 -0.25943238 0.27957025 0.33061618 -0.050677575 0.33651933 0.09824784 0.024415819 -0.5344979 0.16932309 -0.4240887 0.12888466 0.019830532 0.12587678 0.34442896 0.22086857 0.4207841 0.30589378 -0.26285324 -0.13942763 0.10814584 -0.0071504284 0.00041618242 -0.031003745 -0.31765997 0.17043786 -0.42063767 -0.18297832 0.16910368 0.21677956 0.15557855 -0.04456067 -0.31863034 0.20427878 -0.0021890614 -0.400158 0.09527687 0.5254469 0.25757554 0.21705289 -0.21364361 0.32499716 0.33045295 -0.45136797 -0.16867992 0.15274164 -0.23861668 -0.51170355 -0.12320568 0.3367267 0.17200808 -0.24672566 -0.16149665 0.43605205 0.15468346 0.052485634 -0.04844385 0.46894166 0.2887496 0.25568533 0.024432555 0.3689156 -0.5212919 -0.048666697 0.14722127 -0.021475328 0.18558739 0.04243621 -0.026683576 -0.09300148 -0.12749895 -0.020256909 -0.07745975 0.14981374 -0.29472128 0.028509397 -0.14571145 -0.36468056 -0.15586598
99 0.05509839 0.3519423 -0.05902039 0.1224983 0.28791714 0.18328765 -0.0007653684 -0.014178421 0.16602997 0.37348324 -0.1954662 0.06852636 0.21591768 0.13710245 -0.51539344 -0.2401891 -0.43538207 0.40114912 0.20932178 -0.37721604 -0.05525069 0.41456264 -0.19728671 -0.008827204 -0.021885132 -0.1793384 0.008464753 -0.05308955 0.03749787 -0.07359649 -0.22215214 -0.5299194 -0.22113602 -0.49420857 -0.2047494 -0.42616823 0.10843829 -0.15861091 -0.18890594 -0.17526217 -0.0748956 -0.40263617 -0.24795716 0.10792646 -0.37452796 -0.022039836 0.20841375 0.11738399 0.19621748 0.16056874 -0.22529182 0.2556555 0.2223239 0.1548975 0.4388648 0.07889807 -0.055008832 -0.14528891 0.14019339 -0.28922418 0.04916338 0.04175704 0.0046956013 -0.4019207 0.04082918 -0.043961372 0.12644549 0.011232336 -0.28697935 0.624271 -0.3005339 0.31531113 -0.24170548 -0.14159092 -0.021415373 -0.016972385 0.37774828 -0.095822364 -0.23650925 -0.039060466 -0.25611046 -0.24059837 0.16774581 -0.29028085 0.019508857 0.35157958 0.30990735 -0.060435146 -0.10552432 -0.10007564 -0.12206696 0.36256206 -0.18477482 -0.07377925 -0.14620997 -0.16892728 -0.25892264 0.14818276 -0.20253964 0.2805403 -0.046031486 0.1491606 0.5559393 0.46670723 -0.42579368 -0.014999565 0.6647849 0.48935997 -0.33328584 0.32297716 0.23274484 -0.2329626 -0.372716 -0.030630779 -0.30153626 0.36941466 -0.21000002 -0.3706682 -0.28446838 0.064412825 -0.2856046 -0.4952991 -0.19017778 -0.2714386 -0.43602788 -0.29579192 -0.25204453 -0.01862422
550 -0.20553619 0.3788453 -0.32760385 0.22992949 -0.17786027 0.07418911 -0.28607807 0.1488393 0.37390873 0.43486258 -0.16105053 0.008639967 -0.4728738 0.3785609 0.14295632 0.22326279 -0.2946516 0.30341375 -0.2244881 -0.26461712 0.08350849 0.15089686 -0.1675117 -0.09777759 0.21506543 0.020795144 -0.07425708 -0.23304585 0.108743094 -0.14375179 0.38859257 -0.48222497 -0.11370735 0.13530959 -0.22003591 -0.02368008 0.059390787 0.26484084 -0.44756705 -0.3425519 -0.17227213 5.5445373e-05 0.0032349976 0.28563428 -0.50785506 0.10218541 0.29018787 -0.17206399 0.36152318 -0.09367907 -0.12687278 0.28589672 0.016190553 -0.09143204 -0.09495762 0.21955957 0.15682487 -0.14714666 -0.08589624 -0.25908852 -0.018500587 0.19954552 -0.025012251 0.10741893 0.20454524 -0.1474999 0.25265175 0.005383827 -0.07438655 0.016728714 -0.17182902 0.014815034 0.11190034 -0.37978333 0.09265863 -0.24733226 0.2871308 0.067320295 0.16991973 -0.13905884 -0.16932729 -0.22107917 -0.26428765 -0.15002376 -0.14929093 -0.18911777 0.7483747 0.15895163 -0.60231054 0.15357195 0.39199427 0.023187382 -0.6220527 0.2975782 -0.14119178 -0.21450612 -0.078488685 0.20420747 -0.24304444 -0.008550252 0.46522725 -0.027881432 0.31703904 0.31903446 -0.07359289 -0.1481798 0.21577275 0.40299904 -0.33010143 -0.03472938 0.094103426 -0.0949139 0.07144831 -0.17954959 0.046879683 -0.056081325 0.28339705 0.13122714 -0.078265324 -0.029547937 -0.28214395 0.1451071 -0.004514469 0.19381098 -0.16148396 -0.05265996 -0.5028062 0.2487868
158 0.16845785 0.33004093 -0.003965298 0.35474318 0.70381355 0.09685996 -0.30300847 0.05164703 0.55734986 0.2705786 -0.4029528 0.21435268 -0.23768063 0.16834074 -0.48181137 0.3125364 0.10512404 -0.16535302 -0.1565828 -0.1416843 0.061445497 0.16181985 -0.10805181 -0.0280231 0.24660881 -0.15473786 0.1254543 -0.10623919 -0.07787733 -0.22787389 -0.15824415 0.0058483453 -0.50501466 0.055980578 -0.23500493 -0.37527043 0.26294664 0.45968682 0.15193017 0.061850704 -0.05850338 -0.28855342 -0.14586428 -0.10022561 -0.21935211 -0.097827874 -0.049980137 0.29928023 0.014157992 -0.19373284 -0.123028286 0.20886166 0.1003834 -0.06625721 0.55953866 0.25457594 -0.019000934 -0.32113445 0.1839473 0.17644987 0.45716155 -0.09147656 0.14009854 0.36288956 0.49822053 0.32084933 0.3110578 0.16547513 0.28537053 0.11183505 -0.33332425 0.152246 -0.14941347 0.06348935 -0.39200336 -0.058843322 0.48458552 -0.16792728 0.22153728 0.30876082 -0.5289171 -0.09823525 -0.40504608 0.07324591 -0.035296682 0.04002609 0.05544754 0.08213763 0.50037974 0.028137624 0.3266564 -0.15102494 -0.3688388 0.024561254 -0.09865025 0.24023819 -0.34498826 0.27879307 -0.38405034 0.25228435 -0.24711879 0.15912186 0.07600215 0.37226102 -0.0329295 -0.33851165 -0.16039076 0.028609024 -0.26716715 -0.0037222921 -0.287869 -0.058589272 -0.3785556 -0.4015845 -0.14554185 0.2765408 0.2520351 0.18698078 0.37748644 0.25518924 -0.5235867 -0.29687935 0.07666877 -0.0727665 0.067033865 -0.037306022 -0.44038647 -0.55825186
333 0.25262687 0.54115045 -0.23024939 0.14169027 0.13613631 -0.2898873 -0.3300659 0.2379615 0.3672259 0.28349498 -0.2859034 -0.36466625 -0.58530444 0.4840579 -0.34910017 -0.01844914 -0.1964991 0.0011821564 0.28289074 -0.5817993 -0.13279186 0.40020505 0.20045199 -0.33971298 0.20577483 -0.09755436 0.13048361 0.2267305 -0.000536337 0.037513733 -0.17724101 -0.2537387 -0.62176734 0.1338935 -0.3837702 -0.28921115 0.13540584 -0.077614225 0.24659374 -0.5061607 0.36766994 -0.4735146 0.11132087 -0.08871342 0.021387398 0.11909542 0.25017726 -0.035308905 0.057516433 0.070719495 -0.5527998 0.16444454 -0.008256198 -0.020707723 0.3097747 0.14119607 -0.48391688 -0.056823015 -0.22189836 -0.3675018 -0.038105268 0.050933883 -0.09737469 -0.035689138 -0.09095716 0.22344142 0.19036089 -0.10073731 0.09717982 0.5002811 0.37027678 0.0032555 -0.17534064 -0.24250066 0.3677869 -0.2446558 -0.030604886 0.15041281 -0.06648982 -0.03405102 0.0075684558 -0.12573749 0.11770758 -0.2669474 0.10308815 0.32653743 0.25520453 0.6851141 -0.42660734 0.12632734 -0.00039992167 -0.009661794 -0.24584594 -0.07376293 -0.17904554 0.20798787 0.49859262 0.330984 -0.045740474 -0.008394879 0.22394724 -0.13636664 -0.009431912 0.12893109 -0.061919216 0.06688566 0.09743714 0.35571223 -0.052115787 -0.009386183 0.047389574 -0.45874244 -0.47562376 -0.026493102 0.20994902 0.2536878 0.23607153 0.11375957 0.04407667 0.1462756 -0.25410756 -0.22010449 -0.16540186 0.27315557 0.05032825 0.18902317 0.097835824 0.16428976
484 0.6320052 0.45277554 0.022492737 0.14108564 0.20360516 0.00013987438 0.06506524 -0.02962447 0.39011902 0.05739585 -0.11844705 -0.2373771 0.05753093 -0.0046364637 -0.55325764 -0.02498898 -0.10222313 0.1918055 0.012126364 -0.17876306 -0.32195076 0.037686724 0.30004013 -0.29832444 -0.2554376 0.35101533 0.0036405849 -0.16461791 -0.08969859 0.0336779 -0.062115625 -0.0009420715 0.051882215 -0.024061475 -0.5862536 -0.43115348 -0.13366632 0.47230005 -4.410251e-05 -0.067275755 -0.1774287 0.09364491 -0.06679308 0.29608887 -0.53753954 -0.19643673 0.5287966 0.032965094 -0.17231697 0.03220731 -0.30171534 0.38825685 -0.13218884 0.0678396 0.25256366 -0.17416866 0.106375225 -0.05938844 -0.03602069 -0.015789198 0.07392187 -0.23811723 -0.22829732 -0.3633841 0.08104839 0.0008792597 0.05403509 0.071410306 -0.25913495 0.0069205775 -0.012823722 -0.23190169 -0.0017817378 0.09546628 -0.015034122 -0.23797542 0.3378356 -0.010882665 0.1892029 -0.18992102 0.1667651 -0.20258628 0.019317266 -0.09485534 0.21301231 0.11266065 0.5557668 0.48643327 -0.12166582 -0.22842145 0.02931138 0.04759177 -0.25925082 -0.10006113 0.024923638 0.16612181 0.050985143 -0.26325074 0.07641443 0.127421 -0.41342628 -0.110151485 -0.010902832 0.403526 -0.36094856 0.22190404 -0.18556015 0.49357787 -0.0740895 0.12794355 0.5671035 -0.034163985 -0.26635292 -0.025690652 -0.51477826 0.03732878 -0.19370946 0.17560875 0.007703361 -0.28453332 -0.48813996 0.10030902 0.37828836 -0.09170491 -0.16548342 0.2180929 -0.72771275 -0.2402221
309 0.39578223 0.07378684 -0.2508248 0.64463764 0.3958749 -0.11451228 -0.17318718 0.18408477 0.22444169 0.29353997 0.08140042 -0.41856796 -0.09977942 0.16578355 -0.4196605 0.04512571 -0.30740595 0.16813235 -0.09990415 -0.10709926 -0.43625438 0.16998962 0.094399475 -0.14993103 -0.38944995 0.15210536 -0.13035044 -0.008245151 -0.26066127 0.06885653 -0.23127039 0.23003963 -0.36706135 -0.37298983 -0.35686037 -0.5165818 -0.019448113 0.3362088 -0.17232603 0.3037662 -0.011775681 -0.48160857 0.18313684 -0.04260556 -0.25122806 -0.14427145 0.13522221 -0.13114834 0.17124026 -0.23235786 -0.2825158 0.54058754 0.5383667 -0.1249814 -0.2515893 -0.07482408 -0.16673905 -0.020436646 -0.031579733 -0.1392328 -0.1342594 -0.06852338 -0.07655818 0.19370507 0.07872236 0.12614077 0.47578278 -0.030640317 -0.179775 0.29353845 0.1893406 0.277568 -0.25555032 0.04225577 0.18418781 -0.19734386 0.3908267 0.13897794 -0.1253334 -0.22883765 0.44679755 -0.054125987 0.17106678 -0.46294972 -0.31583026 -0.29723394 0.05416107 0.21168648 -0.1640614 -0.15517923 0.13227762 0.16259311 -0.34541756 -0.0919228 -0.32362315 0.03084555 -0.21972364 0.026441785 -0.17929089 0.18553384 -0.2298837 -0.13424096 0.42950484 0.2665341 0.29945046 -0.0012313416 0.2835591 0.1335838 0.27362865 0.007881615 -0.115914874 -0.5166827 -0.2545224 -0.09213696 0.21553954 0.0023832184 0.37664035 0.0069998363 0.23145142 -0.20183118 -0.44960198 -0.12261308 0.007120715 -0.272983 0.2881981 -0.21048832 -0.12163659 -0.26815638
313 0.09787151 0.2944542 -0.097853936 0.36638522 0.49957997 -0.07351855 -0.14883865 -0.14545144 0.19553901 -0.054939434 0.2717282 -0.1079508 -0.13156983 -0.07129886 -0.0144659 0.040594358 -0.33605048 -0.022187497 0.25743917 -0.19611984 -0.16884917 0.43461725 0.40040618 -0.51012886 0.026370792 0.3698612 -0.16190028 -0.121895485 0.013436352 -0.36026925 0.3158037 -0.34218183 -0.22226134 0.48882687 -0.47597158 -0.32656908 0.19733287 -0.16203174 0.085020885 -0.2899832 0.20285341 0.11689126 -0.08986891 0.26202142 -0.27564543 0.015176985 0.07335953 0.018482106 0.24693204 -0.14392631 -0.18442339 0.55669266 0.036092937 -0.20326516 0.33451915 0.14618993 0.033953544 -0.119319454 0.27096015 0.01675233 0.17966776 0.18772925 -0.0062563447 -0.05292849 0.060575973 0.06821897 0.36726293 -0.41106865 0.20223299 0.38991365 -0.09255536 0.2871365 0.06551756 -0.113102295 0.44732022 0.03649177 0.0019176629 0.08237145 0.5134652 -0.12266829 0.0043193987 0.1353333 -0.16065235 -0.17116235 -0.18722098 0.01953617 0.54839516 0.0916878 -0.06762121 -0.45939586 0.2738564 0.2108343 -0.34170255 -0.026905388 -0.319202 0.27382946 -0.33331168 0.08691006 0.08697432 0.14833838 -0.045180127 -0.08097145 -0.26422986 0.1750893 0.4516814 -0.16795292 0.13239759 0.1373145 0.17674904 0.2612066 0.053765737 -0.23398064 -0.15116648 -0.102828145 -0.32145575 0.38194075 0.084568694 0.09605002 0.085184604 -0.10075101 -0.005180158 0.04842045 -0.050943144 0.1850878 -0.11030363 -0.04883619 -0.480988 -0.22237405
369 0.14190325 0.43087575 -0.6299508 0.65517807 0.30626854 -0.4021594 0.054758266 0.27746844 0.272898 0.26210234 0.089911245 -0.07650035 -0.15885398 0.3131882 -0.4605842 0.19866723 -0.14063074 0.05184844 0.09680411 0.043669846 -0.31068394 0.06439117 -0.34635285 -0.36266044 0.07431481 0.37884656 0.2768373 0.30064932 0.17642124 0.2549202 -0.14817655 0.039069187 -0.39102474 0.15781614 -0.26859513 -0.49677077 0.10129986 0.09373547 0.083645225 -0.3876551 0.081676774 -0.14676344 -0.31959993 -0.05297523 -0.0980217 0.07489249 -0.42845356 0.39318737 0.21684706 -0.1831501 -0.13477539 -0.15006918 0.1800795 0.09731273 -0.18548742 -0.123331405 0.27062798 -0.3599782 -0.038632397 -0.02351814 0.4014137 0.17911412 0.260474 -0.04023826 0.5295814 0.15608375 -0.30230057 0.34221852 0.16420642 0.024716474 -0.13622428 0.18013723 -0.057277888 -0.287147 -0.052165028 0.17964685 0.2510381 -0.15353338 0.35993746 0.24804029 -6.524527e-05 -0.09195604 -0.21857497 -0.1430165 -0.2864983 0.09515127 0.4709003 0.30822423 -0.07323938 0.103985585 -0.18151446 0.16246095 -0.21565925 -0.36935392 -0.3440313 0.18483059 0.17089888 0.19765517 -0.12546991 0.15721348 0.30223438 0.1255963 0.28813562 -0.280328 -0.2926795 -0.007567454 0.36975622 0.44291013 -0.10596523 0.1451468 -0.19059096 -0.36798772 -0.33109534 0.05002813 -0.37432757 -0.18343638 -0.13413598 0.24012445 -0.045717765 0.33929506 -0.4057105 -0.044086125 0.027283998 -0.2606284 -0.11757922 0.15038642 -0.083868675 0.17887627
24 0.6815258 -0.012113222 0.22484107 0.67147833 0.23793735 -0.06661971 0.12003856 0.7146891 0.10404891 0.6110691 0.18323512 -0.4382215 -0.6335414 0.335787 -0.15667492 -0.06193729 0.1510758 -0.056150913 -0.28611985 -0.82485443 0.04774768 -0.26386988 0.34098795 -0.027047077 0.05509486 -0.2179936 0.19360231 0.13170728 0.33742994 -0.80161 -0.31183726 -0.10353631 -0.240678 0.5624442 -0.06915044 0.070809014 0.32438803 0.3892591 0.55340403 -0.38596773 -0.42508155 0.025631424 0.21745028 0.07903642 -0.52258635 0.52293336 -0.025617108 0.18927193 0.1709076 -0.54628855 -0.38533735 0.3730964 0.09312404 -0.008569854 0.35482833 0.1580957 -0.044006698 -0.31881744 0.4244484 -0.54779947 -0.67633337 -0.3779988 0.16751884 0.21435611 0.049980585 0.13702574 0.2244671 -0.2589188 -0.14620091 -0.31735045 -0.5154161 0.11204754 0.4268398 -0.32283047 -0.18405059 0.68935144 0.24851601 -0.8074115 0.23693755 -0.5229276 -0.64054227 -0.0016200138 0.09498029 -0.7208035 -0.059542257 -0.08964479 -0.45804778 0.7176511 -0.23246515 -0.17060564 0.25018504 0.34095523 -0.05224173 0.47756252 0.16714229 0.3051052 -0.1340449 0.45967335 -0.089084715 0.2555543 -0.15515561 -0.023532143 0.4933873 0.59668547 -0.3057457 0.2668556 -0.67427003 0.29803443 0.52770156 -0.11727453 -0.24826585 0.13395283 -0.35148302 0.5836447 -0.5721265 -0.32360375 0.5077008 0.35535854 0.3199127 -0.22350731 -0.6997141 0.1721428 -0.03163339 -0.31029612 0.0013529478 -0.2933578 -0.86608803 -0.035132486
499 0.19846599 0.35630903 -0.39394027 0.13498941 0.2535658 -0.07948304 0.21321093 0.44107342 0.08954458 0.34350392 0.038935024 -0.3694707 -0.449791 0.06817855 -0.69685423 -0.030837031 0.258342 0.32383436 0.16692881 -0.3835123 0.254343 0.024857705 0.2517378 0.25862566 -0.44264078 0.0025331443 0.051862296 0.03192561 -0.09871986 -0.35081923 -0.38390005 -0.03346432 0.09204816 0.18331319 -0.36502033 -0.32057813 -0.21282972 0.3515398 0.25754562 -0.31995755 0.23887575 0.07003527 -0.27505627 -0.33632606 -0.22356711 -0.4168258 0.3423242 -0.09654172 0.21345975 -0.052254006 -0.2545981 0.21910873 0.26601213 -0.05344414 0.004907927 0.007954962 0.3504499 -0.2746737 -0.17305079 -0.19811848 -0.11283014 -0.1304654 -0.09933474 0.27074555 -0.017530119 0.020268409 -0.011223287 -0.05846002 0.11590596 0.2680979 0.0070756497 -0.046795852 -0.08997755 -0.19094692 -0.05754545 0.17901313 -0.062161393 0.2818241 0.33716044 0.38802502 0.16445015 -0.263462 -0.09703236 -0.06384196 -0.25318915 0.10164826 0.0405942 0.26734546 0.21500124 -0.11392995 0.26411447 0.24296087 -0.1161918 0.11262271 -0.12525739 0.09682128 -0.3171295 0.08925313 -0.16908674 0.4714598 0.27055648 -0.12921241 0.41632974 0.48417762 0.12713513 0.2313215 0.22672556 0.34092003 0.20173416 0.012118918 0.34117785 0.07240174 0.0048035546 0.23912007 -0.24410653 0.14623968 0.2606227 0.11625115 -0.06342764 0.38016844 -0.38653308 0.0091733625 0.37951145 0.39604223 -0.009742315 0.22560595 -0.28845906 -0.15475424
462 0.15067366 0.5023671 -0.08353892 0.5619981 0.12498043 0.18854052 -0.24560508 0.12794502 0.29376295 0.3281661 -0.21175076 0.029960722 -0.32707423 -0.037517313 -0.29518035 0.17254396 -0.16651294 0.07360363 -0.10488421 0.0068968544 -0.077606805 0.27000144 0.63146174 -0.18133777 0.21941262 0.16413316 0.2075932 -0.15551545 0.00430317 -0.16006362 -0.19698688 -0.2351076 -0.30335808 -0.114816874 -0.18674661 -0.13860293 0.18742904 0.17830284 -0.11696212 0.262961 -0.22553408 -0.10883057 -0.19238421 0.33465907 0.19296111 0.05396117 0.14193086 -0.009375416 -0.09258718 -0.25169384 -0.6518349 0.16981463 0.3041459 -0.051816013 0.11858639 -0.2472205 0.16021319 -0.21702817 0.0050772578 -0.23695411 0.30104923 0.07664318 0.16747288 0.067983195 0.3953959 0.15318663 -0.11523386 0.1810676 0.39938718 0.05703267 -0.08664314 -0.0074025355 -0.6606572 -0.11035328 0.24801886 -0.35719538 0.008423291 0.114410326 0.06295765 0.07477303 0.61587614 0.23975877 -0.07974905 -0.17951356 0.0858962 -0.08544914 0.31704068 0.20852138 -0.46563518 -0.17037867 -0.23320456 0.24888727 -0.24124737 0.51483005 -0.16099425 0.1151399 -0.114975296 -0.13224748 0.20196064 -0.052487116 -0.13956381 0.42703322 -0.066616386 0.34357965 -0.23809762 0.02078512 0.37474766 0.11196464 0.08277341 0.12582034 0.36678982 -0.6899436 -0.35717875 -0.094304144 -0.15258075 -0.032364964 0.10913107 0.17247522 -0.028420096 0.3690208 -0.48786947 0.01829323 0.061906423 0.34772956 0.028394375 -0.20678107 -0.4238984 0.06615517
470 0.08276646 0.35768682 -0.25064138 0.46940807 0.32300517 -0.18381172 -0.23827754 -0.014892415 0.2305315 -0.39850375 -0.6338771 -0.20273574 -0.08670133 0.35272205 -0.19170292 0.009631329 0.24143997 0.04720151 0.19242594 -0.37759244 -0.10537557 0.037264064 0.13346219 -0.38981175 -0.24390537 0.24098001 0.06802228 0.20783816 0.15074265 0.12511082 0.057439372 -0.33834404 -0.38821 0.18599784 -0.51509666 0.09473827 0.18127841 0.006726208 0.44851595 -0.5679822 0.05954536 -0.18504255 0.46870583 -0.14668427 -0.26919416 0.11727416 -0.04299649 0.17951185 -0.2913133 0.15923998 -0.0825675 0.48798215 0.20363925 -0.3072731 0.055322297 0.5150155 -0.13138787 -0.10779496 0.3891169 -0.3936754 -0.06631352 -0.015638473 0.35666844 -0.17768542 -0.15732259 -0.1899865 -0.0683821 -0.05763482 0.47810012 0.18982236 -0.46030596 -0.14777374 -0.08566295 -0.078563295 0.0065969364 -0.042443663 -0.2326113 -0.09873792 0.1410685 0.1679233 -0.011116058 -0.19985573 0.2281268 0.49216855 -0.12312492 -0.024434408 0.38176015 0.12619092 0.04117217 -0.26626062 0.14827251 0.41118288 -0.4674211 0.218282 -0.2782534 0.08197684 -0.21333681 0.1254947 -0.30691805 0.0439568 0.03439972 0.11665211 0.18399605 0.3759626 0.0032447977 -0.05092118 0.24997772 0.45018756 0.1920868 -0.11850618 0.15526639 -0.046819795 -0.31957766 0.2570074 -0.18454841 0.4517237 0.0031100125 0.3084901 0.33505476 0.31421533 -0.6901678 0.033792194 -0.011364181 -0.08098988 0.08383325 0.21392088 -0.17189085 -0.17622694
69 0.5576733 0.16815798 0.16199546 0.2581046 0.36244413 0.15423347 -0.24433929 0.22398743 0.022232631 0.22814304 -0.15047273 -0.062690645 -0.0038631363 -0.3578662 -0.23549493 0.015213696 -0.09496448 0.0809503 0.31886762 -0.1611104 -0.34325066 -0.020749683 -0.016021147 -0.08253619 0.09397825 0.3925313 0.28538013 0.07158646 -0.18571736 -0.3813312 0.26063958 -0.27978554 -0.26361862 0.23340254 -0.5660065 -0.37159032 -0.14631496 0.3044996 0.38431007 -0.16660847 0.23417968 -0.07588347 0.030460522 0.13364075 -0.30758107 0.27766803 0.26360312 -0.0687829 0.19778433 0.16133296 -0.11077559 0.19980898 0.35210323 -0.17317085 0.28801993 0.22803469 -0.06805738 0.22787762 -0.1470411 -0.26227322 -0.046551034 0.31375065 0.007873262 -0.16929032 -0.010680739 0.02079613 0.16715825 0.011730105 -0.006125109 0.40872195 -0.44461262 0.39751303 -0.06864717 -0.38901064 -0.31040624 -0.35815185 0.12382194 -0.30081916 0.07896479 0.13990474 0.00998997 -0.24137038 0.2532576 0.14865859 -0.034501567 -0.058604028 0.42037037 0.30799118 0.057311356 0.038877822 -0.257904 0.5032384 -0.41892287 -0.30936962 -0.040197518 -0.40842912 0.0051347674 0.22781411 -0.037658732 -0.076077394 0.1803634 0.038228694 0.20113236 0.093768045 0.22389549 -0.2295148 0.5883511 0.09045786 0.29121056 0.050931167 0.36300802 -0.5837477 -0.28119928 -0.41507813 -0.13730416 0.10390465 0.14164089 -0.08556727 -0.29316854 -0.0013691112 -0.30673048 -0.27261707 0.13071764 -0.011413448 0.11664768 -0.3965084 -0.45031106 0.0048003653
211 0.5716981 0.6973229 -0.036968853 0.1477511 0.19845848 -0.20500816 -0.004198826 0.21054363 0.14238341 0.36928895 -0.10958557 -0.11396983 -0.4819338 -0.019419935 -0.26734608 -0.15803325 0.065407954 -0.20798846 -0.051532585 -0.5796343 0.15360889 0.21574318 -0.04223529 -0.14254496 -0.025073037 0.2588465 0.3594499 0.1253456 -0.11059635 0.16182931 -0.09448761 -0.50300336 -0.07373632 -0.2865954 -0.30472118 -0.20445426 -0.29755977 -0.15145881 0.20420654 0.23664448 0.09991999 -0.42238066 0.29502162 0.28944388 -0.15809451 0.21235397 0.16480906 0.34334382 -0.2144869 -0.11770954 -0.12210738 0.30634978 0.29103193 0.0038604122 0.14317787 -0.11902354 0.06766334 -0.70133597 0.3458529 0.24563816 0.008158158 0.06096391 0.10203691 0.020969521 0.14330462 0.276997 0.275315 -0.29418716 0.17213972 0.3889513 -0.39110202 0.13679199 -0.20440486 -0.03406425 0.015135764 -0.019828811 0.20862456 0.07031096 -0.004735875 0.51204413 -0.19631653 -0.2560995 0.2855192 -0.06298508 0.07509321 -0.14424615 0.40576124 0.4168584 -0.22250487 -0.14878754 0.11505632 0.1905948 0.049644925 0.14646704 0.30246666 -0.3670641 0.117304906 -0.13288927 0.113809615 0.15574862 -0.0961709 0.06538199 0.083195165 0.002554215 -0.2930461 0.13574351 0.36664313 0.029045977 0.124005884 0.4416957 0.12112078 -0.0497986 -0.23707205 -0.21148507 -0.28948098 0.1862515 -0.11502506 -0.05875486 -0.009180064 0.11300878 -0.22447455 -0.15145908 0.37810567 0.029828737 0.08005224 -0.17071725 -0.010611867 0.098535165
325 0.296164 0.74279517 -0.05580569 0.19021596 0.044479586 -0.15703508 0.22596905 -0.14984247 0.33153316 0.3946402 -0.071578234 -0.38531837 -0.34103456 0.24484223 -0.170324 0.16184866 0.2601941 0.17131084 0.18215322 -0.30491266 0.08131561 0.14804417 -0.06172557 -0.20883206 -0.22313614 0.20828618 -0.17779082 -0.07664631 -0.14458479 0.21947996 0.2012418 -0.2556989 -0.6784057 -0.0679373 -0.3451693 -0.0733149 0.23125243 -0.28370884 -0.13064532 -0.2229357 -0.032947112 0.04467137 0.26429796 0.09874479 -0.20125654 0.15256934 0.053803243 0.22391735 -0.14224264 0.15754233 -0.3784344 -0.0057976935 0.024173275 -0.044358034 0.10887164 0.31566447 0.05062083 -0.20805478 0.2251679 -0.10496705 0.055280298 0.045425907 -0.3656586 -0.107118286 -0.0021837587 0.21290362 0.07242208 0.3546007 0.18395336 0.04899619 -0.06349396 -0.38847226 -0.16827849 0.16950881 -0.32416862 -0.2606661 -0.10539316 0.20706454 -0.19008642 0.18700348 -0.21014118 -0.06478306 -0.288591 -0.06504257 -0.11987734 0.35636598 0.31736556 0.6381488 0.09146044 0.20664759 0.06507563 0.18227269 -0.11156938 -0.29312027 0.11285911 0.18097804 -0.28173935 -0.33127174 -0.43094155 0.27817425 0.23092073 0.20335005 0.14869092 0.26070994 0.35012951 0.4789892 0.5588709 0.17381243 0.19079085 -0.10248881 0.25696924 -0.4643897 -0.14762153 -0.116184175 -0.39528194 0.26421103 0.3707688 -0.14712092 0.22118956 0.2195556 -0.1856175 -0.03980538 0.20671675 -0.1605581 0.26825252 0.014595384 -0.46875313 0.14959647
521 0.07391298 0.56700754 -0.2586808 -0.10447306 0.21091974 -0.50815994 -0.35200694 0.019028528 0.017791452 0.2266664 0.2131846 -0.23024695 -0.18668626 0.22088061 -0.19674373 -0.0083517535 0.19393794 -0.029009653 0.020493103 0.10396631 -0.08537834 0.37802365 0.1805842 -0.034508802 0.14328659 0.24915335 0.04785244 0.34288433 -0.34633246 -0.17151721 -0.1947128 -0.27718523 -0.1547458 0.055086646 -0.20929606 -0.23303778 0.07547659 0.46780697 0.22723016 -0.49427432 -0.079430714 0.06274485 -0.15378256 0.6590699 -0.2209233 -0.1014386 0.22781427 -0.18930785 0.26622942 0.16470098 -0.38274541 -0.023849107 0.506511 0.24051799 0.4062881 0.017055707 -0.0026377642 -0.07404318 0.28233692 -0.2659491 -0.011332385 0.11275672 -0.20807424 0.1694899 0.18651669 -0.35413215 -0.0021122477 0.35055146 -0.23585854 0.24261087 -0.34072518 0.34918553 -0.2838909 -0.31302 -0.11830147 0.28312486 -0.07972884 0.02401734 0.39792687 0.27794716 0.15448028 -0.10506518 -0.12581888 -0.040426046 -0.109431714 -0.13620578 0.16896786 0.6296617 0.03544904 -0.37335426 -0.36084434 0.45606753 -0.080082335 0.19166936 -0.12282887 -0.10320607 -0.20042077 0.33468854 0.21986368 0.3897342 -0.026268594 -0.086244434 0.6306029 0.34407037 0.045259036 0.18891771 -0.19722937 0.16387686 -0.12547576 -0.32479662 -0.28143457 -0.14181663 0.012508777 -0.39618054 -0.12323319 0.19371712 -0.64643145 -0.007458058 0.13025367 -0.26267055 -0.3250605 -0.6844519 0.01267429 -0.11080565 -0.2764551 -0.13373126 -0.19902667 0.24483587
504 0.6926774 0.41502938 -0.05384847 0.0026740122 0.09768377 -0.12058194 0.08296385 0.05636406 0.39209938 0.40375337 0.2249793 -0.5627419 -0.21877068 0.31656623 -0.07350772 0.2910879 -0.32326 -0.07478157 0.0425427 0.017378531 -0.34088904 0.6574789 0.13752137 -0.28785813 0.08118338 0.05783865 0.02607923 0.21454069 -0.27582178 0.11534947 0.08421804 0.0054176436 -0.443042 -0.16013981 -0.048765615 0.118895866 -0.13696036 0.12081454 0.40547973 0.018472467 0.12032685 0.08977243 0.25439686 0.11358099 -0.13466819 0.33078656 0.27150562 -0.15742686 -0.052739862 -0.15537591 0.0045205397 0.21866818 0.09146638 -0.24020861 0.21870196 -0.19778058 0.21907793 -0.46378314 0.13792916 -0.26707673 -0.42920107 -0.1620225 0.013986288 0.30357325 -0.23399898 0.23927866 0.19777036 -0.22507422 0.11688972 0.030626362 -0.50038034 0.08015113 0.19171394 0.17839639 0.07488696 -0.4676646 0.12769234 0.09400106 -0.009750776 0.23896064 0.32534632 -0.065132365 -0.1607851 0.17673603 0.0501298 0.0060195397 0.5589053 0.11426317 -0.1418381 -0.11060118 -0.033963084 0.2584337 -0.6586544 -0.078574724 0.12011815 -0.11761306 -0.018771395 0.05978696 -0.33179793 0.4222747 -0.32994682 -0.14257869 0.07900969 0.26689178 -0.34786478 -0.004366173 0.20233463 0.060140416 0.14793658 -0.2317434 0.26678714 -0.16364674 -0.03288111 0.044851832 0.18486284 0.04368314 -0.10132983 -0.021889064 -0.0568803 0.128207 -0.6741224 -0.37592497 0.31254137 0.16962036 0.10947673 0.17998742 -0.5526077 0.27206385
317 0.2095078 0.10281543 0.012827654 0.100670695 -0.014070181 -0.1927548 -0.1253444 0.330607 0.022448145 0.46470904 -0.28009203 -0.2809683 -0.5179786 0.14201224 -0.53987044 -0.14675231 0.293862 0.19336638 0.074877314 -0.19823946 -0.25053725 0.0032361962 -0.05529893 -0.33000708 -0.091224946 -0.01714417 0.10989578 0.17346446 0.00465144 0.13379262 -0.27743858 -0.4612258 -0.12052649 0.00885707 -0.18077247 -0.06405825 0.24305959 -0.009103405 -0.04305736 0.12103191 0.13381416 -0.28174353 -0.4062827 0.02795939 -0.22626224 0.07940033 0.5268402 0.18773879 -0.008833814 -0.097325705 -0.059153188 0.027578197 0.34714586 -0.20987855 0.15918048 -0.33424366 0.118184984 -0.11718656 0.05749514 0.018174576 0.38556468 -0.06411561 -0.071292266 0.008776728 0.4132965 -0.18265525 0.26681235 0.2846186 0.10628469 0.2790549 -0.09414506 -0.0059587182 0.036748018 -0.35310018 0.029571645 0.02807171 0.047460783 -0.18081656 0.24923937 0.1425882 -0.11556781 -0.07758621 0.13683735 -0.37186718 0.20405835 -0.011603794 0.66634536 0.43217897 0.057067055 -0.152916 0.18203191 -0.1117435 -0.059492048 -0.016730508 -0.24042884 -0.31536105 -0.397682 -0.13960992 -0.094512016 0.047349326 0.12629129 0.10203931 -0.5838833 0.2936103 -0.050601326 0.027038895 0.29927298 0.22651939 0.09927025 -0.16827877 0.01573251 -0.60919034 -0.23458649 0.044009577 -0.015613496 0.10833547 -0.18985972 -0.008858612 -0.24430865 0.2999356 -0.15339759 -0.2488564 0.0688172 -0.17168723 0.106990166 0.29181984 -0.35723794 0.24867004
436 0.25135866 0.22273253 0.2962567 0.37113848 0.3494685 0.30237386 0.21820973 0.025728224 -0.04495 0.21842054 0.16235097 0.1512595 -0.16133209 -0.050156098 -0.3595604 0.07891216 -0.20170549 -0.03736846 -0.059319608 -0.12965651 -0.1702279 -0.13992661 0.17981529 -0.20514892 0.31749445 -0.100446664 0.11373815 -0.09429792 -0.38783348 0.13371874 -0.35555443 -0.24203062 -0.5989233 -0.33190602 -0.368336 -0.2672448 0.45982262 0.3511486 0.07231811 -0.08239367 -0.019145546 -0.1324627 0.038676627 -0.0326145 -0.31600386 0.11528641 0.13888602 0.082034595 -0.20020148 0.089022115 -0.45737886 -0.08198304 0.20213653 0.18860184 0.45398298 0.18787609 -0.112862356 0.13686828 -0.24679725 -0.15822451 -0.2493083 0.23238769 0.15310618 0.06887545 0.16371405 0.078578874 0.2527694 0.12284567 -0.08814694 0.14854245 0.12646317 -0.047986116 -0.36217633 -0.08318374 0.115013115 -0.28208068 -0.05408678 0.24122503 0.09538872 0.20640184 -0.19894096 -0.22309074 -0.0605498 -0.13772134 0.17183277 0.32857114 0.09343548 0.43631074 -0.21828915 0.041417655 0.50135714 0.16548713 -0.4933543 0.23132697 0.11440008 0.082046546 -0.241245 0.2796287 -0.29127967 0.15185477 -0.13744713 0.32309976 0.114617884 0.6380706 -0.44839948 -0.065818064 0.55261624 -0.120048955 -0.119502276 0.0761048 0.059614122 -0.46357584 -0.7134071 -0.04933542 -0.22391406 -0.28742355 0.023474574 -0.16229878 0.23904796 0.074036874 0.08335955 0.052525904 -0.13544565 0.05434528 -0.18904364 0.10524859 -0.02624238 -0.113374114
305 -0.1660433 0.3432832 -0.38678893 0.45023385 0.49826512 -0.09553006 0.0089912005 -0.27697405 0.25246996 0.06386899 0.19582231 -0.58781654 -0.17086652 -0.040767726 -0.55671364 0.22008322 0.1789394 0.13735813 0.11692914 -0.067167334 -0.10716329 -0.11312521 0.14239511 -0.41973358 0.42623788 0.27596778 0.062151752 -0.0022644831 -0.0036888658 -0.23757869 -0.14717825 -0.026851142 -0.24740022 0.27196693 -0.01380137 -0.28977954 0.0527629 0.04547859 0.20853172 -0.18693928 0.06923049 -0.22114569 0.3465399 0.18651803 -0.09469687 -0.06842186 0.05158269 0.14696102 -0.11388114 -0.16695271 -0.3817604 0.28965485 0.060834754 0.08821678 0.2638454 0.095048346 0.42370695 0.051106554 0.13026913 -0.026708307 -0.13444538 -0.086701676 -0.017085709 0.14773177 -0.20229417 0.12066574 0.35134396 0.3660476 -0.053770624 0.0736606 -0.19819298 0.3724675 -0.17442462 -0.061719075 0.22181384 -0.37585488 0.4456996 -0.37767437 0.26084954 0.3904056 -0.062138468 -0.5677718 -0.31050974 -0.4996999 0.14375997 0.29887915 0.38240233 0.17679529 0.3033463 0.055250686 -0.055842686 0.28196594 -0.44095987 -0.03338982 -0.13518277 0.18755925 -0.00020162362 -0.14542988 0.017033106 0.33881643 0.29139215 0.03833336 0.18154325 0.016967084 0.04545993 -0.25650007 0.23390868 0.21243382 0.0120354155 0.05972877 -0.17269492 -0.39741024 -0.11057802 0.30177957 0.24257149 -0.025654707 0.28380582 -0.13325007 0.081944734 0.077472106 -0.2767001 0.053231437 -0.014987073 0.016082648 -0.17423727 -0.43994066 -0.28637958 0.1266744
120 0.2978598 0.3692924 -0.28312656 0.4525053 -0.0629181 -0.051850643 -0.24892269 0.06628591 -0.040938985 0.37820792 0.07439978 -0.2580396 0.1618834 -0.34860903 -0.4947238 0.3100802 0.21546926 0.07909003 0.4879434 -0.21906088 -0.11884522 0.13603793 0.019001435 -0.2185285 -0.15399124 -0.044976383 0.059971325 0.339617 -0.12588042 -0.1702852 -0.07053483 -0.21892425 -0.36365137 0.042796563 -0.29793376 -0.09409173 0.093752325 -0.08972451 0.13092773 -0.16374102 0.430659 -0.3662278 0.009753655 0.33848378 -0.123070195 0.35641292 0.39274368 -0.045956258 -0.04955986 -0.29113713 -0.35675758 -0.50466025 -0.06324085 -0.41718847 0.017090928 0.15098664 0.19227642 -0.15530908 0.21827802 -0.28956622 -0.11109037 0.19772528 0.16287427 0.2696734 0.22674122 0.38326505 0.34193355 0.10158603 -0.1676191 0.21565281 -0.29150307 0.27354077 -0.14264785 0.2165628 0.047875017 0.15375482 0.095819324 -0.06399228 0.3053801 -0.055203836 0.13680413 -0.37974864 0.2642997 0.0040057865 0.0030682792 0.050995283 -0.17041355 0.112317264 0.10992306 -0.052794512 -0.07188238 0.007538563 -0.012729468 0.27780282 -0.24711882 0.43381628 0.3691842 0.07994602 -0.005582945 0.20328908 -0.12902528 0.19614454 0.38083443 0.17719755 0.043996878 -0.39855424 0.30397743 0.12685938 -0.26264948 0.27756882 0.17004356 -0.6596993 -0.3746947 -0.00019919651 -0.14599727 -0.1538352 0.15126146 0.14924958 0.10695698 0.19047867 -0.21071804 0.24223965 0.061825965 0.43140158 0.056737065 0.12233062 -0.48649082 0.18199334
59 0.17713097 0.79131126 -0.10183464 0.5681253 0.30907443 0.20769684 0.13170476 -0.051044427 0.25930417 0.13689724 -0.3865734 -0.24201347 -0.06881776 0.15763359 -0.62024355 -0.19893853 -0.20281865 0.094130896 -0.0026034105 -0.3797534 -0.25415996 0.26305163 -0.15903889 -0.27668193 0.3932608 0.11966812 0.046145573 0.1517498 0.18515433 0.17318408 0.3356446 -0.009079083 -0.37736923 -0.0068649673 -0.036085818 -0.34072864 -0.07672653 -0.09590977 -0.07055285 -0.12156423 -0.25376248 -0.40606162 -0.30759194 -0.05021855 -0.4828339 0.51252604 0.091728985 0.058856394 0.16322036 -0.10202746 -0.16967599 0.23288156 0.025837883 -0.27273923 -0.24393527 0.076112606 0.03456762 -0.12276845 0.45654526 -0.12560107 -0.13230385 -0.07948199 0.13540903 0.12328667 0.21112895 -0.03241215 0.21523461 -0.072949655 0.04009003 0.3409449 -0.12732466 -0.05758784 -0.2807804 -0.08892695 0.03274208 -0.21267961 0.30824125 -0.41161922 -0.20637967 0.26248655 0.13357638 -0.4672005 0.07540716 -0.010650667 -0.09244945 0.15827724 -0.036336474 0.0468016 -0.12421535 -0.10756142 0.12200282 0.3605372 -0.22285275 0.25556004 -0.30099845 -0.13421935 -0.17549992 -0.1270541 0.027307019 0.4503171 -0.11501383 0.05428935 -0.058151025 0.059770092 -0.032204807 0.15490386 -0.2743712 0.24754119 0.11174821 0.47562376 0.46447557 -0.28631014 -0.1578883 -0.6643494 -0.32271034 0.05542085 0.053347148 0.24941167 0.14828697 0.10381467 0.0030295954 -0.16846482 0.18759471 -0.4392839 -0.08198355 0.19799078 -0.354102 -0.012189366
140 -0.289573 0.66446877 -0.19874397 0.20255564 0.14027898 -0.1935435 0.41754726 0.09188652 -0.013142182 0.27863383 0.103018425 -0.30133188 -0.29791346 0.35064217 -0.6391028 0.19350436 0.20080237 -0.14894412 -0.17614186 -0.07010966 -0.35664222 0.16124159 -0.03581001 0.23119515 -0.033062015 -0.29077435 -0.12746994 0.171429 -0.3081883 -0.09374064 -0.28364107 -0.1690725 -0.09066529 0.016414665 -0.3820483 -0.39238873 0.27938196 0.22551712 0.12610614 -0.13520035 0.029460615 0.10512713 -0.30159214 -0.013172283 -0.4500627 0.15781057 -0.1440188 0.45605326 -0.10916753 0.06682533 -0.68060553 0.29925552 0.03001651 0.048651874 -0.3430603 0.2145408 -0.09670791 -0.2441376 -0.2851818 0.110807955 0.27723283 0.008014593 0.36185098 -0.11591654 0.045937806 0.025161153 0.24911891 0.16925523 -0.16123371 0.14342715 -0.19919372 0.37272212 -0.1425279 0.010401072 -0.4116285 -0.20006384 0.021039143 -0.20592685 0.34943616 0.21664454 -0.094135456 -0.55315876 0.32783136 -0.072325505 -0.58923036 0.00021001074 0.4862565 0.23808858 0.051163703 -0.22829585 0.102709964 0.066469856 -0.28972915 -0.09583296 -0.09857037 0.0552797 0.023574121 0.19504066 -0.07905298 -0.018300982 0.041262463 0.15566963 0.30429804 0.48419645 -0.0055133915 0.048318706 0.507011 -0.058248535 0.15348108 -0.35377786 0.08913701 -0.21573639 -0.09943775 -0.1337045 -0.15228218 -0.132473 -0.3575484 -0.024055745 -0.1259684 0.34812543 -0.073189415 0.085929126 -0.34713006 0.21442345 -0.098906614 0.09702427 -0.3566351 -0.054872997
321 0.22371176 0.44980296 -0.1592603 0.37092173 0.05300661 0.18896347 -0.15996554 0.018933244 0.47899958 0.2009359 0.047946423 -0.1696281 0.087508254 0.28444263 -0.15099464 0.23487212 -0.28839824 -0.07986518 0.4063921 -0.12273371 0.11147848 0.53803265 -0.10563926 0.0004920346 0.14488745 0.23372374 -0.287584 -0.5011411 -0.1093836 -0.22556134 0.022448802 -0.30667025 -0.28569576 -0.19176556 -0.3152472 -0.39427975 -0.03634401 0.33179265 0.32365966 -0.02059478 0.18700711 -0.44766435 -0.48831913 0.04290591 -0.41243488 0.048045736 0.31311685 -0.14170258 0.13447364 -0.025921673 -0.041590486 -0.038024127 0.09166721 -0.56343496 0.22172089 0.5216725 -0.22526155 -0.17658444 -0.048452467 -0.48627928 0.15163952 -0.12235418 0.26140803 0.026234312 0.15944964 -0.060780156 -0.3513635 0.21328382 -0.33687449 0.32321718 -0.18022017 0.13010103 0.18663427 -0.11364284 0.03726567 0.14637451 -0.3353552 0.27910677 0.26332214 -0.17883444 0.012811406 -0.09958384 -0.1338557 0.12206581 0.055562202 0.10721357 0.6632396 0.42150536 0.004588498 -0.002936469 0.5194823 0.023993395 -0.2190342 -0.1256479 -0.49511048 -0.15803543 -0.08011084 -0.13946895 -0.6286633 0.1745615 -0.29081962 -0.2181581 -0.05050556 0.29301077 -0.27662268 0.101570785 0.14436132 -0.08511114 0.18272823 0.174807 0.02129486 -0.45663607 -0.5668153 -0.23836344 0.06563543 -0.043536976 -0.17224771 0.13574375 0.31107983 0.1376261 -0.48479775 0.104452424 0.07436604 0.031191243 0.17111671 0.074141435 -0.25756392 -0.0497819
