46 128
15 -0.10564049 0.05407498 -0.1505581 0.006601483 -0.2738939 -0.16999345 0.0848672 0.06675523 -0.21148816 0.04627219 -0.035876688 0.025774946 -0.0033510106 0.015357376 0.023677608 -0.1791809 -0.05044993 -0.042217284 0.06537906 0.09516736 0.013136181 -0.23835316 -0.00060521124 -0.09702348 0.11732819 0.19660755 0.04147567 0.016543146 -0.042375647 -0.09640756 -0.058038276 -0.12826224 0.12998287 -0.083138324 -0.019430887 0.103176855 -0.13763955 -0.046986725 -0.09592511 -0.033221122 -0.05415017 -0.17136255 -0.001284871 -0.010334991 -0.07156604 -0.03442425 -0.1950953 -0.0631155 -0.034374814 -0.051443618 -0.058277354 0.19208188 -0.04277446 0.15902428 0.057209667 0.13372768 -0.24726254 -0.026213245 -0.009653416 0.14482519 -0.10943669 0.19541135 0.0019595837 0.12919451 0.020577332 -0.050936997 0.00647101 -0.2712884 0.15533808 -0.19859588 -0.09198367 0.010715051 0.23439892 0.0744722 0.102374226 -0.073134914 0.06261392 -0.074124545 -0.09061743 -0.16641073 -0.006056953 -0.15279578 -0.13161276 -0.14272502 -0.0953922 -0.045198925 -0.0031089264 0.02529182 0.0679888 0.06603592 0.28780976 0.1391367 0.11495535 -0.12429805 0.08165393 -0.2028948 0.077404454 0.019234046 -0.051201005 0.13509619 0.14746247 0.011672334 -0.20644188 -0.079342626 -0.1212445 -0.038550805 0.11638808 -0.0077724606 0.06944217 0.15899418 0.018374523 0.14084268 -0.045384962 0.119045705 0.043699585 0.1410521 0.1920592 0.046687417 0.08052613 -0.04466138 -0.046456844 -0.032452483 -0.13318928 0.012910182 -0.042112015 -0.1564705 -0.1122484 0.060861286
21 -0.058748625 0.010885107 -0.026547061 -0.084337965 -0.26720554 -0.19353142 0.18862754 0.26101238 -0.025032615 0.0038900054 0.18640286 0.18139647 -0.04044643 -0.13561724 -0.08039385 -0.09144206 -0.16439417 -0.121226475 0.16261955 -0.0045467485 0.00021913752 -0.35298827 0.07449771 -0.07084508 0.078205876 0.40530762 0.052008875 -0.07996402 -0.17625664 0.015703727 0.078398235 -0.13447347 0.08113102 0.13888256 -0.034730714 0.32269594 0.050013844 0.12828112 -0.04860596 -0.29803982 0.12808393 -0.12297943 -0.19641176 0.18087596 -0.23975793 -0.16193113 -0.39622396 -0.24237397 0.10108009 -0.2635161 -0.19613816 0.09853412 -0.17699029 0.32810497 -0.077002965 0.07567175 -0.3354173 -0.10616975 0.028106064 0.10345234 -0.16704887 0.18084843 0.026317038 0.3253343 -0.06548675 -0.090752564 0.15868929 -0.3157989 0.040697422 0.031418335 0.1454292 0.043053333 -0.06553503 0.06829613 0.086177915 0.16023357 0.01767197 -0.046305973 -0.099900335 -0.10477123 0.04123948 -0.22456892 -0.06614684 -0.19202696 -0.03898145 -0.30855352 -0.0990123 0.07262009 -0.019200485 -0.021027178 0.28745452 0.24302456 0.018206446 -0.20494191 -0.029196965 -0.17347424 0.09646455 -0.077842005 -0.13331562 0.19095199 0.017651718 0.10836809 -0.14857318 -0.11849003 -0.024017073 -0.07142945 0.28650337 -0.05468903 -0.14485723 0.0737897 0.18489464 0.058649987 -0.0660476 0.31520987 0.10112061 0.024898851 0.22517258 -0.097519115 0.0384154 0.047814056 -0.024903893 0.011878448 -0.09763256 -0.168012 -0.043804746 -0.19784759 -0.0057225474 0.06575853
5 -0.23644148 0.13941707 -0.1685982 0.03307628 -0.28759724 -0.17884834 0.019393854 0.09990628 -0.16721182 -0.0092905285 -0.10574344 -0.07422942 -0.09425725 0.0022153645 -0.004229607 -0.039458103 -0.08440489 0.011417283 0.26920086 -0.016215561 -0.05926356 -0.2023713 0.03976416 -0.17086107 0.11021752 0.25264436 0.05115486 0.06446745 -0.020986766 0.07328458 -0.19152685 -0.26290384 0.2323075 -0.30263007 0.029060144 0.045313343 -0.34151316 -0.074190974 -0.07964821 0.024317006 -0.18856618 -0.29588324 0.16830687 0.050094984 0.045912854 0.15374278 -0.008517919 0.01882527 0.025611125 -0.121396236 0.13190076 0.18742463 -0.15142153 0.2793775 0.16123135 0.03465037 -0.19074467 -0.06735997 -0.015289722 0.18303353 -0.21239232 0.17158963 -0.091087475 0.14326067 -0.08064935 0.0798834 0.04904368 -0.27301174 0.18034296 -0.17598656 -0.3226518 -0.010662445 0.10181639 0.012057403 0.12410965 -0.23369454 0.022413256 -0.26735854 -0.18853642 -0.08543389 -0.11287682 -0.09896721 -0.092627704 -0.1255646 -0.09223487 0.1988119 0.024141809 0.16229114 0.16552451 0.16629964 0.2542974 -0.012200015 0.14978428 0.030367823 0.18628466 -0.16162649 0.025693754 0.013450131 -0.05810795 0.11025891 0.2261416 -0.034220625 -0.13020228 0.04039538 0.110194586 0.030604297 0.038133778 -0.045303192 0.12747526 0.19042614 -0.061113175 0.33392185 0.017714795 -0.043923322 0.027204137 0.06692915 0.1343996 -0.10257101 0.17398268 0.0840109 0.04411626 -0.06111583 -0.18411234 0.121053055 -0.25787172 -0.24880481 -0.14290115 0.13491851
42 -0.104666464 0.13144314 -0.25271627 0.0784561 -0.32473397 -0.18216735 0.14797275 -0.020006154 -0.36597672 -0.03659135 -0.0766053 0.087074816 0.020423297 -0.019685578 -0.024225418 -0.38989425 -0.0057434943 -0.041280184 -0.10741457 0.17192093 0.09741446 -0.2466142 -0.065013655 -0.20702517 0.16820624 0.22434166 0.09650387 0.08564892 -0.02131615 -0.21859056 -0.117307894 -0.1311557 0.21630406 -0.047247387 -0.053363435 0.1462014 -0.15159892 -0.08401624 -0.14333251 0.0034718278 -0.053967785 -0.23123185 0.051621143 -0.019186636 -0.09207692 -0.09629987 -0.3464545 0.026810419 -0.1762093 0.0218648 -0.13929015 0.2827915 0.016408555 0.21038258 0.049269278 0.21911803 -0.33427995 -0.031980865 0.004517458 0.12719628 -0.12042328 0.30767637 -0.12527426 0.13451317 0.12935543 -0.20675255 -0.03284563 -0.2722334 0.1508275 -0.38107407 -0.20673764 0.07147934 0.39120618 0.084733464 0.07457401 -0.14478944 0.14735197 -0.07904912 -0.03194944 -0.2764577 0.05519253 -0.2606915 -0.21584702 -0.19938637 -0.15006632 -0.038580824 0.033140637 -0.051071376 -0.056922935 0.0924458 0.3385983 0.2726103 0.13708216 -0.14884362 0.11260437 -0.33453104 0.1777202 0.058187254 -0.08685498 0.15678616 0.26079166 0.044305295 -0.3267108 -0.21954152 -0.29093182 -0.14535505 0.17704107 -0.0509451 0.12903798 0.2355999 0.018984511 0.13239682 -0.09310716 0.10397519 0.02562915 0.22553526 0.18539992 0.093879335 0.17099452 -0.15873837 -0.03240742 -0.07545224 -0.1661615 0.034753308 0.031635262 -0.1581762 -0.23833784 0.0710403
17 -0.07083115 0.037546203 -0.14276782 -0.16200428 -0.5908489 -0.13892105 -0.13903688 0.1567317 -0.04002097 0.15289506 0.093887545 0.14803502 0.08823171 0.09140298 -0.04690885 -0.24412358 -0.19698037 -0.103649765 0.05054093 0.1131807 0.02560704 -0.34436193 0.25613257 -0.13390422 0.2217723 0.24410911 0.04593892 -0.0370925 -0.088727824 -0.13854937 -0.02724072 -0.17766273 0.2305675 -0.16318938 -0.096768625 0.24292682 -0.20867957 -0.08068482 0.05158162 -0.10855581 0.07097801 -0.53222233 0.008553406 0.14344727 -0.22934116 -0.32029423 -0.3856235 -0.12128239 -0.2251267 -0.22944504 -0.05834143 0.30072448 0.07350121 0.3411223 0.09704673 0.19179653 -0.39038786 -0.104429275 0.050772846 0.34459636 -0.18328965 0.0013816124 0.00066623784 0.36668304 0.08717435 -0.063812576 -0.19666654 -0.5045968 0.12690923 -0.033490647 -0.17177701 -0.091236725 0.08730875 0.3214172 0.24530503 0.18159537 0.12721963 -0.084851995 -0.08148493 -0.17918986 0.09795131 -0.43925822 -0.41669556 -0.29066053 -0.2020389 -0.3748632 0.033248357 0.06552107 -0.019181754 0.1649134 0.48386043 0.1742497 0.08474589 -0.3115764 0.1714828 -0.43072608 -0.11615185 -0.014687557 -0.31469658 0.20232737 0.16328134 0.10319968 -0.10481233 -0.07870875 -0.12453802 0.18294258 0.10885854 -0.10214807 -0.0026394574 0.0839569 0.08989962 0.20118007 -0.027116936 0.19190097 -0.13386796 0.23906685 0.31341714 0.32908493 -0.0026150835 0.03606379 -0.09442481 -0.009576743 -0.16888888 -0.1709736 0.11750816 -0.46916136 0.1111979 0.25778955
30 -0.035269912 0.02516874 0.035163432 0.07221413 -0.06010519 -0.2796462 0.35007975 0.26698592 -0.13504782 -0.0904062 0.24630441 0.21525885 0.12640937 -0.24862829 -0.0024119369 0.0018993348 -0.19852254 -0.06658429 0.21632028 0.013886928 0.058307357 -0.524145 -0.023406932 0.105755776 0.023169624 0.55181247 0.11506702 -0.08973074 -0.25542247 0.0028758342 0.13059638 -0.21366768 0.12722939 0.16326709 0.05524865 0.3372504 0.0331488 0.2278527 -0.07903887 -0.3554582 0.043059766 0.07362971 -0.15923788 0.17713071 -0.22497867 -0.18105634 -0.2996923 -0.2096941 0.2668566 -0.3042797 0.0034628902 0.046615507 -0.29818997 0.4205678 -0.07364815 0.034829635 -0.15642726 -0.07969171 0.04503044 0.06362903 -0.19655257 0.33511207 0.12120275 0.44553906 -0.06457685 0.10523896 0.3172775 -0.21786794 0.05134037 0.025052408 0.29350165 -0.052142255 -0.051094115 -0.07998046 -0.0251485 0.109752126 -0.07071381 -0.09384903 -0.23620102 -0.044639226 -0.11404311 -0.21588647 0.16252418 -0.2091333 0.03782223 -0.19932647 -0.30026373 0.005784446 0.14013876 -0.056677934 0.25852722 0.25480744 0.00035819272 -0.09214638 -0.06075728 -0.017405245 0.23394297 0.026865976 -0.06399467 0.21057075 0.087605104 0.00061622704 -0.10574703 -0.16306885 -0.023175258 -0.12911128 0.28312194 -0.082627505 -0.17575237 0.08315515 0.13191327 0.09908961 -0.12263569 0.36245635 0.12912986 -0.034721248 0.31388065 -0.22969945 -0.019581169 0.10655904 -0.016057197 0.05702473 -0.14253649 -0.22278652 -0.23384081 0.010044831 0.09251448 -0.008619287
8 -0.2785548 0.15721242 -0.075092405 0.051837116 -0.15807599 -0.21789035 0.122966245 0.1397392 -0.1607336 -0.105656296 -0.048513554 -0.08567089 -0.03697072 -0.07937368 0.04776934 -0.09717586 0.002191424 -0.018932173 0.20993721 0.03080541 -0.11120303 -0.23445646 0.009697767 -0.03814385 0.17960176 0.2331879 0.10479418 0.06606279 -0.1453853 0.09698731 -0.2299116 -0.31003675 0.29633513 -0.4203304 0.09969819 0.0060980795 -0.49437153 0.006130088 -0.06861643 -0.014243991 -0.3567096 -0.20806898 0.2224165 0.019104334 -0.042263296 0.14756864 0.03003469 0.11128564 0.008810316 -0.04634962 0.36704326 0.13370343 -0.14589551 0.42469823 0.24760532 0.11795848 -0.0059908247 0.031409573 0.038790334 0.2431612 -0.16815045 0.26948842 -0.14993611 0.24625176 0.056483418 0.25949976 0.037241608 -0.15955648 0.22973223 -0.22605726 -0.290907 -0.08742234 0.26884153 0.013823574 0.064275034 -0.2024077 0.07062624 -0.35339898 -0.29162198 0.070954695 -0.16015393 -0.035237346 -0.031708166 -0.0027180188 -0.021256436 0.37862185 -0.04700346 0.10155292 0.23768762 0.24775708 0.27450463 -0.15402956 0.09049651 0.17385425 0.30148673 -0.011168136 -0.023634596 0.079581805 -0.08061249 0.19583644 0.3104204 -0.113688864 -0.061121557 0.050083622 0.13349304 0.114122145 0.0015736436 -0.04840549 0.22718269 0.16224036 -0.15367097 0.33177546 -0.081948265 -0.104085505 -0.071297415 0.087862715 0.28314874 -0.037317466 0.16323614 0.074907675 -0.019746348 -0.085511506 -0.24715649 0.12345035 -0.31623152 -0.13261689 -0.07644132 0.09606559
34 -0.095416345 -0.03829526 -0.1512715 -0.038072255 -0.33069083 -0.27143803 0.09017106 0.10215188 -0.3468374 0.27751148 -0.053308565 -0.057413485 0.040030498 0.13302207 0.16964242 -0.12891987 -0.11251949 -0.046473105 0.16841775 0.27497247 0.01421567 -0.34545037 -0.047347225 0.034024794 0.15520665 0.1824863 -0.0077508464 -0.10183254 -0.06531873 -0.14735709 0.056579646 -0.16393533 -0.00095274945 -0.08258988 -0.04740771 0.0037288906 -0.011017701 -0.12406601 -0.081853315 -0.055515897 -0.064212546 -0.06664731 -0.13078316 -0.20561884 -0.045158397 -0.0746942 -0.14227414 -0.17046742 0.015444372 0.027592044 -0.095611855 0.24768144 -0.0114408815 -0.048240945 0.047501452 0.21107213 -0.2644666 -0.002783623 -0.050769486 0.2545795 -0.09084615 0.20701915 0.2796981 0.032006934 -0.03220513 0.0076662977 -0.03866728 -0.33183348 0.27765453 -0.26470074 0.02498319 -0.043267485 0.3753408 0.11598414 0.18617502 -0.07285639 -0.037854195 0.093033224 -0.10017998 -0.22245897 -0.02764175 -0.046157002 -0.09828032 -0.15112735 -0.13890848 -0.12897195 -0.02845229 0.03944382 0.21493445 -0.005063155 0.40549892 0.15915097 0.123375796 -0.23047075 0.030747192 -0.18300383 0.103415646 0.034842707 0.0125386575 0.13286433 0.076479964 -0.019504737 -0.21919028 -0.012981845 -0.24047753 -0.013378456 0.044840135 0.12844121 0.09807544 0.1653301 0.008836175 0.11795159 -0.009820564 0.24970162 0.14757192 0.2205228 0.3290671 0.22044285 -0.05342608 -0.07379435 -0.14763016 0.0010394676 -0.087294884 -0.015528153 -0.00067352084 -0.117668055 -0.02965272 -0.019974886
10 -0.27670524 0.15735787 0.04148873 0.03319071 -0.08081493 -0.22330023 0.1848687 0.18648888 -0.06242135 -0.21808435 0.05687311 -0.024195958 0.02509736 -0.16770019 0.0406926 -0.18102418 0.085196786 -0.07106668 0.11722746 0.032644518 -0.16745766 -0.2630627 0.042305928 0.05038679 0.23463525 0.22711402 0.15536506 0.08622691 -0.26520038 0.12432066 -0.24787419 -0.31830478 0.36612847 -0.47723868 0.14729546 0.04600659 -0.60915524 0.125702 -0.04500686 -0.07700131 -0.45232028 -0.18627837 0.25634968 0.07840878 -0.19567612 0.070922986 -0.005220413 0.17041916 -0.02940808 -0.033079654 0.54196846 0.06746992 -0.13342525 0.6032541 0.29213342 0.18013337 0.11699861 0.11285171 0.10682404 0.29405364 -0.11554094 0.31696624 -0.23982799 0.3994804 0.18920809 0.38530985 0.01869809 -0.09358094 0.2307009 -0.18917409 -0.22104612 -0.15695445 0.34977502 0.061720904 0.024121841 -0.07077973 0.14062715 -0.4413902 -0.3703534 0.223216 -0.15492909 -0.058512494 -0.03285468 0.079931006 0.05244294 0.43506193 -0.11212754 0.044369493 0.2388493 0.32474726 0.27768523 -0.25390625 0.0065677916 0.25423458 0.3961068 0.09409394 -0.12525353 0.11634053 -0.15149005 0.28861687 0.36587992 -0.14967456 0.005920346 0.026300473 0.16463093 0.22128192 0.0066656247 -0.077375054 0.26249146 0.10397813 -0.17376731 0.29891667 -0.18704778 -0.130927 -0.20538838 0.098451786 0.405854 0.04331586 0.13585961 0.07064663 -0.07549965 -0.10659687 -0.3077168 0.089502305 -0.3062046 -0.07923181 0.006581027 0.1067736
38 -0.13504675 -0.21338542 -0.02164039 -0.012252956 -0.36198193 -0.35989764 0.24041179 0.15177569 -0.5196972 0.29339513 0.057245266 -0.08204532 0.16081765 0.17313388 0.30519468 -0.08012599 -0.14534096 -0.07014572 0.09615846 0.47325101 -0.0005837513 -0.48694262 -0.14204164 0.10301551 0.1649286 0.16074294 0.053722374 -0.20490178 -0.13210785 -0.21515828 0.15212376 -0.13310033 0.02357882 -0.20125832 -0.151612 -0.0058866017 -0.09417957 -0.11533101 0.0047680084 -0.166416 -0.2271745 0.039883688 -0.13056093 -0.37062916 -0.047462303 -0.22986186 -0.015583696 -0.09932 0.10212454 0.19154233 0.027743801 0.23604041 -0.08398716 -0.050049756 0.11697271 0.3097065 -0.18001601 0.043332566 0.01832611 0.33492053 0.029070966 0.34847075 0.45827028 0.017990498 0.035270613 0.018442735 -0.034837373 -0.30123356 0.45308027 -0.35908753 0.14219444 -0.090926625 0.4813092 0.15980765 0.2553328 0.012625457 -0.14973617 0.0670924 -0.27631307 -0.11645917 -0.10128364 0.07227274 -0.015616158 -0.18314725 -0.12877135 -0.022861352 -0.21632664 -0.08068772 0.31165412 -0.001935587 0.43055794 0.06937794 0.13691582 -0.15955004 0.08411558 -0.033657942 0.097646475 0.107118696 0.023598937 0.07465766 0.24993579 -0.14224778 -0.31489706 -0.083521724 -0.30697128 0.07390801 -0.090938956 0.30015594 0.087655745 0.0792591 -0.013099119 0.047911767 -0.07022223 0.2658884 0.14052212 0.25798675 0.5094774 0.3516362 -0.14459394 -0.14527404 -0.22378553 -0.064273074 -0.09312765 -0.06348783 0.08054832 -0.15007897 0.08427737 0.034295995
28 -0.045086242 -0.21388721 -0.046700813 0.011710441 -0.36601758 -0.1857836 0.3853166 0.25905836 -0.05318797 -0.21948202 0.203086 0.1828856 -0.16139024 -0.021738099 -0.1265833 -0.2581587 0.10041633 -0.32413593 0.20692922 -0.047874883 -0.0953396 -0.40727586 0.1412852 -0.16971125 0.24345395 0.28949726 -0.05109271 0.031136928 -0.059662867 0.044464987 0.051815134 -0.0046093185 0.041130472 0.090895236 0.03293947 0.4741456 -0.056964755 0.30942535 -0.20848109 -0.14363363 0.026049547 -0.17235543 -0.2739185 0.24437842 -0.22560622 -0.06224253 -0.47665527 -0.2373813 0.24315311 -0.2510531 -0.3605861 -0.08782551 -0.13427733 0.34527087 -0.044785075 0.08356622 -0.43293574 0.013357367 -0.04938502 0.07211745 -0.08700006 0.2983284 0.05525092 0.30586734 -0.002592133 -0.16268076 0.2635349 -0.44441655 0.011505706 -0.019285018 0.3222461 0.1520367 0.06465251 0.12689607 0.042948984 0.21463594 0.07251868 -0.20284103 -0.068380535 -0.17408293 0.036766913 -0.36410043 -0.079793535 -0.3130794 0.081754506 -0.26131585 -0.22384942 -0.03234237 -0.035850663 0.11298247 0.20658761 0.21764089 0.17456228 -0.24444796 -0.059820745 -0.15114237 0.018224929 -0.09259334 0.0023688225 0.14104752 0.0798878 0.062029585 -0.37053892 -0.26493764 0.027996806 -0.096317306 0.37242538 -4.7060952e-05 -0.1917938 -0.016657984 0.28179196 0.102569595 -0.057102166 0.21131122 0.17448011 0.11188812 0.10439232 -0.20573725 0.1075893 -0.10197286 0.00044276327 -0.024920028 -0.21343388 -0.002533956 0.009069611 -0.15074778 -0.273175 0.07333266
27 -0.058613505 -0.13427956 -0.051111326 0.011704374 -0.3076562 -0.18176799 0.33051357 0.20643309 -0.099281155 -0.16595308 0.16804151 0.15743734 -0.10634246 -0.04896486 -0.100626156 -0.24935235 0.061003286 -0.24767254 0.116461255 0.0127855195 -0.04651049 -0.35133207 0.07362147 -0.14671358 0.20393577 0.26738256 -0.0025399989 0.007964032 -0.08038737 0.005325676 0.03760788 -0.031950556 0.06896035 0.069597505 -0.00048967294 0.3762779 -0.059499428 0.22373751 -0.15373427 -0.14450905 0.00887796 -0.14039437 -0.19957644 0.16838077 -0.20154293 -0.09334866 -0.4194534 -0.16935845 0.14645521 -0.17520325 -0.27240643 -0.016186487 -0.11092322 0.3064728 -0.024864066 0.11239391 -0.36928537 -0.004042712 -0.01748811 0.079454176 -0.078627765 0.2886362 0.015536409 0.26186517 0.02934681 -0.1479422 0.18589923 -0.3516691 0.0453245 -0.07733062 0.2143513 0.113585696 0.1065235 0.111615926 0.049157105 0.15544 0.06877025 -0.14918552 -0.069163874 -0.14056325 0.043990035 -0.28602326 -0.08567406 -0.24369508 0.028169202 -0.19266653 -0.17572768 -0.035974465 -0.04988634 0.0897574 0.21474752 0.20526434 0.12521702 -0.18578418 -0.0139426775 -0.14086755 0.048726205 -0.05704128 -0.03261722 0.14478305 0.10336428 0.055459097 -0.31462935 -0.23569281 -0.036478866 -0.08669847 0.30313215 0.0018687942 -0.12163427 0.016967794 0.2147346 0.07309055 -0.07141162 0.19026622 0.12372276 0.113669574 0.14493348 -0.11545793 0.09738937 -0.101574704 -0.009270343 -0.040308207 -0.17391004 -0.01695614 0.027843602 -0.14127298 -0.20385368 0.06702411
45 -0.105008475 0.13400316 -0.22870883 0.10073574 -0.24882515 -0.19454369 0.18101995 -0.028953068 -0.3832632 -0.042142335 -0.07532764 0.078924626 0.055189773 -0.050367977 0.0021959054 -0.36191866 0.0021376722 -0.024638973 -0.12676048 0.19643807 0.11576716 -0.24963678 -0.108470954 -0.15688494 0.14546457 0.21775131 0.11842568 0.07384294 -0.039706424 -0.2224531 -0.09983847 -0.14357486 0.21352126 -0.03708846 -0.041392226 0.11304434 -0.14693162 -0.07546914 -0.13452795 -0.009093931 -0.08973372 -0.159194 0.05206573 -0.055507496 -0.0815607 -0.10358681 -0.307079 0.040916968 -0.15382072 0.048890144 -0.08661955 0.27367622 -0.006074627 0.19643347 0.04535052 0.22187284 -0.27177572 -0.020927727 0.020591766 0.11264033 -0.1031784 0.33816442 -0.10469189 0.13409527 0.14161532 -0.16740935 -0.025103606 -0.21191727 0.16345386 -0.39587712 -0.18552451 0.05742588 0.41685763 0.04614404 0.051337503 -0.16006543 0.12518166 -0.07304693 -0.05822439 -0.24221887 0.029965661 -0.20982592 -0.15923741 -0.1671721 -0.13281594 0.015286458 0.0066871103 -0.07346014 -0.0253154 0.07274934 0.3154357 0.24896272 0.12205033 -0.10400748 0.115730494 -0.28368664 0.20450395 0.088834934 -0.07082765 0.15058964 0.2684165 0.014302169 -0.30987275 -0.21755014 -0.30937627 -0.15204307 0.1634032 -0.037024096 0.1404856 0.22846457 -0.0085901 0.11714371 -0.10567896 0.1002386 0.030189838 0.20292325 0.19791853 0.08946538 0.1522975 -0.15690875 -0.035450794 -0.07492313 -0.15717837 0.028773718 0.015238785 -0.097605996 -0.21293727 0.03433198
6 -0.1871146 0.15405776 -0.13495137 0.08329079 -0.16542272 -0.18346414 0.08865638 0.08279681 -0.15690184 -0.045992706 -0.09882108 -0.06974037 -0.07055473 -0.053037126 -0.0031563854 -0.06856433 -0.047308907 -0.0036830187 0.28326154 0.0058179367 -0.03331929 -0.20356981 0.024608033 -0.10168473 0.15199919 0.24405271 0.050691236 0.071375854 -0.039353702 0.10096857 -0.15550286 -0.29480717 0.19763966 -0.24015653 0.09716899 0.04075993 -0.28328925 -0.030089796 -0.09424748 0.016773134 -0.19232853 -0.21712205 0.13099407 0.053763937 0.02575215 0.1437174 -0.055309635 0.01766976 0.03521522 -0.121388026 0.13073586 0.14943278 -0.13818665 0.2818076 0.12974024 0.046100758 -0.14360313 -0.033168383 -0.042458493 0.18056288 -0.24137865 0.21248035 -0.08088438 0.17949857 -0.058925066 0.12754034 0.07219753 -0.21246767 0.09956334 -0.19898883 -0.26395354 -0.008876657 0.14357448 -0.023588855 0.06066026 -0.24287072 0.01943938 -0.23574656 -0.13423914 -0.081674695 -0.13325621 -0.10120874 -0.02572584 -0.11068678 -0.050733007 0.21359378 -0.011340178 0.1252897 0.16251114 0.16026327 0.23743737 0.0063224602 0.1079211 0.05491498 0.1625431 -0.10953184 0.08738619 0.029992985 -0.035698403 0.117242135 0.18819524 -0.049054842 -0.09691299 0.015332675 0.08702531 -0.031011038 0.06307315 -0.08428216 0.1272265 0.16232651 -0.06525022 0.32713652 0.017210284 -0.024378583 0.062695086 0.07038005 0.143606 -0.11765988 0.1699748 0.056250684 0.055525802 -0.031201227 -0.19159213 0.09843101 -0.30505857 -0.1200715 -0.15074176 0.07325247
16 -0.076781124 -0.021509629 -0.13937485 -0.12116248 -0.50627375 -0.13007814 -0.12334746 0.11145454 -0.108454674 0.19013679 0.02981661 0.05613445 0.040486313 0.14670135 0.005237821 -0.13046028 -0.17037061 -0.06734468 0.091722004 0.12511699 -0.0012034609 -0.26926577 0.17334701 -0.12496055 0.15678447 0.16475882 -0.0017903819 -0.052713748 -0.021967743 -0.11401366 -0.0077589783 -0.1184105 0.1376282 -0.15880448 -0.11094304 0.13940002 -0.1442016 -0.1170272 0.030973595 -0.04508835 0.033900384 -0.39591604 -0.01582081 0.023416527 -0.0986967 -0.20107684 -0.21500911 -0.11079031 -0.118578255 -0.12620787 -0.08486099 0.24724269 0.04271287 0.14961891 0.088114545 0.14059518 -0.32595056 -0.086741865 0.015480477 0.27032197 -0.115948245 0.002302484 0.090719454 0.17961729 0.010576456 -0.08059465 -0.14621666 -0.42024276 0.17229061 -0.064453 -0.13439633 -0.053225547 0.08735647 0.23772973 0.232739 0.08884404 0.044813585 -0.042107012 -0.07604314 -0.17666365 0.06236942 -0.27558792 -0.30604514 -0.23872475 -0.17896204 -0.2651201 0.029970963 0.070065364 0.03517006 0.10103381 0.37591434 0.122682266 0.11646897 -0.2532189 0.11101201 -0.33022168 -0.08030407 -0.023798773 -0.18433899 0.11111291 0.1235374 0.06048523 -0.13704033 -0.030171655 -0.1033337 0.13931677 0.033132937 0.0015645706 0.0007042499 0.081758015 0.066526815 0.15411866 0.019699346 0.14500628 -0.03909019 0.1914475 0.22103906 0.25782675 -0.02011946 0.012488723 -0.08635533 -0.019569322 -0.10220808 -0.086250685 0.09669703 -0.3919634 0.05375048 0.19523524
19 -0.05603227 0.00077723735 -0.14112446 -0.17389672 -0.63369346 -0.12715258 -0.16704452 0.15931661 -0.039582565 0.14640366 0.12469661 0.1936067 0.09667109 0.11168941 -0.067419045 -0.22279257 -0.2202845 -0.10498558 0.010348202 0.08991558 0.02644205 -0.34774375 0.27128732 -0.17219718 0.19070762 0.24255303 0.02765481 -0.054393888 -0.066028796 -0.16544636 -0.013196217 -0.11402808 0.22988015 -0.12513676 -0.14265724 0.28598952 -0.18106379 -0.08519932 0.064411774 -0.11701213 0.12407073 -0.54764426 -0.010424157 0.16186863 -0.21886067 -0.36252904 -0.3901592 -0.13254634 -0.20784742 -0.241795 -0.1162121 0.29245293 0.06313992 0.32208928 0.08224098 0.1711557 -0.42810902 -0.12834844 0.07254352 0.31273896 -0.1477263 -0.01840157 0.006480711 0.35204658 0.08210745 -0.14073566 -0.19320083 -0.52453786 0.13695891 -0.0011889569 -0.13285787 -0.0725339 0.019712297 0.33745918 0.25646633 0.2321997 0.11162561 -0.08036468 -0.07229764 -0.19404699 0.1334166 -0.47010586 -0.44200635 -0.32485983 -0.20948115 -0.43796802 0.021033207 0.04958871 -0.07450964 0.14638783 0.4700174 0.20208266 0.08931958 -0.3393877 0.14762771 -0.45103747 -0.12686878 -0.044702876 -0.32113978 0.17836146 0.15936694 0.120265745 -0.13232923 -0.10627601 -0.13712762 0.18427563 0.11183959 -0.080860525 -0.066424526 0.06547735 0.1396014 0.1602559 -0.020909142 0.2109523 -0.13017064 0.22252107 0.27824357 0.32155615 -0.018096209 0.033450328 -0.0978701 -0.027389606 -0.14430673 -0.18614502 0.17623587 -0.52434975 0.12353898 0.2888382
22 -0.10608553 0.073089615 0.033235453 -0.0647947 -0.11858035 -0.23312669 0.34000567 0.3122462 -0.017298562 -0.07605016 0.1691195 0.14571443 -0.12660287 -0.27901793 -0.06591481 -0.092824854 -0.11619205 -0.12210695 0.25100043 -0.060927834 -0.05491238 -0.33075225 -0.026687376 -0.04543218 0.059514154 0.4692381 0.08540569 -0.06053532 -0.24893035 0.14643411 0.04828093 -0.19588047 0.06161787 0.16755256 0.025358925 0.29226026 0.03062555 0.20249303 -0.10829024 -0.38064492 0.04127638 0.03066931 -0.20108677 0.18241091 -0.2816929 -0.037586313 -0.39288065 -0.25586343 0.20041072 -0.25759616 -0.16827548 0.034269296 -0.30150458 0.40776443 -0.091793574 0.053994715 -0.2936523 -0.075466126 0.021603603 0.06503013 -0.20338278 0.2955723 -0.028848192 0.3224556 -0.11020383 -0.015409597 0.26878563 -0.23221727 0.0218699 -0.020343041 0.17404321 0.10966735 -0.016840803 -0.0427937 0.037789114 0.07261122 0.017774273 -0.11085096 -0.15692057 -0.029460166 -0.016224718 -0.07909393 0.07484964 -0.08483374 0.05032122 -0.12399178 -0.10743803 0.09099425 0.021705283 -0.039541755 0.25022694 0.19902225 -0.040139336 -0.095601544 -0.01662971 -0.034564506 0.16093583 -0.09466256 -0.081454754 0.2224166 0.0022582677 0.0787142 -0.15913014 -0.11065355 0.061523847 -0.16467722 0.36441863 -0.054598358 -0.09682253 0.11666223 0.17458339 0.07322269 -0.09791581 0.3153824 0.15035896 -0.05177684 0.25469306 -0.26955205 0.13614626 0.02618647 -0.0024181928 -0.0042483797 -0.129037 -0.13004714 -0.18783262 -0.076130845 -0.11787033 0.012350857
35 -0.12843703 0.016527833 -0.20241775 0.01877687 -0.3047195 -0.2893046 0.11179921 0.054268435 -0.40620738 0.24897668 -0.14065342 -0.107236564 0.016921775 0.14094777 0.19968839 -0.2273314 -0.03407615 -0.052900318 0.19722301 0.2833005 -0.0073492997 -0.34935912 -0.0755985 0.038942643 0.20573719 0.15422189 -0.01855666 -0.03296547 -0.049554117 -0.13900003 -0.013668897 -0.19697924 0.009409802 -0.14944987 0.021539275 -0.054968476 -0.08024619 -0.13250461 -0.1518767 0.044552624 -0.14212443 -0.063137725 -0.07353042 -0.23290825 -0.024751864 0.020969005 -0.12437717 -0.13276927 -0.0063866386 0.06645976 -0.04294008 0.2605514 0.028694792 -0.050572004 0.09348248 0.23950076 -0.24867857 0.051898748 -0.093978025 0.27730283 -0.10435236 0.25356546 0.24318522 0.010629785 0.0014864751 0.06915157 -0.05558808 -0.33113873 0.2809181 -0.3606024 -0.03879498 -0.0520729 0.5299203 0.1002356 0.16184556 -0.16982128 0.0060043014 0.052283373 -0.09082379 -0.2527709 -0.056684524 -0.04458045 -0.10090622 -0.120675795 -0.11722077 -0.012869221 0.0013937533 0.031056762 0.26844874 0.05810541 0.42116812 0.12723523 0.14966682 -0.19765028 0.06960756 -0.17863642 0.11503907 0.06493077 0.050157193 0.16467854 0.10471395 -0.050197735 -0.25179526 0.0014829285 -0.24058917 -0.039107405 0.03941714 0.109693125 0.20091185 0.2189156 -0.047024377 0.18961655 -0.013128696 0.20015272 0.14415847 0.27453053 0.34003553 0.21346901 -0.0042891493 -0.11111276 -0.15600432 -0.005364257 -0.14769025 0.07013597 -0.07270875 -0.0394997 -0.12589255 -0.053496517
4 -0.29661936 0.097473875 -0.1827346 0.083142735 -0.28661555 -0.23203354 0.04220975 0.11680946 -0.29263654 0.007146509 -0.10679374 -0.09406677 -0.041561484 0.035118 0.06392755 0.112201035 -0.15245599 0.08384651 0.27346352 -0.008283054 -0.061133895 -0.2684733 -0.047338217 -0.14799836 0.0073551023 0.3179498 0.07879781 0.033507667 -0.01432791 0.025835106 -0.20280136 -0.25278816 0.26767772 -0.36969423 -0.018700738 0.020423153 -0.41497952 -0.09546829 -0.07954506 0.004670336 -0.26668227 -0.2259235 0.21422012 -0.02426726 0.15285318 0.20480822 0.17821044 0.055421274 0.15053383 -0.07958882 0.236063 0.1986357 -0.2779227 0.26325518 0.20389615 -0.0079993345 -0.1235548 -0.08414712 0.018949196 0.14214581 -0.15914182 0.23366533 -0.013504102 0.08872155 -0.13876298 0.10253396 0.14165564 -0.25175658 0.3226605 -0.1931361 -0.29795524 -0.052603424 0.07275445 -0.06937921 0.13215305 -0.2816323 -0.064201854 -0.33215946 -0.33681077 -0.044867773 -0.20061862 -0.0077356054 0.0014342888 -0.14618441 -0.109427005 0.2972195 -0.06451313 0.1626258 0.29233587 0.11608851 0.22222288 -0.062210683 0.23153155 0.097910576 0.16414016 -0.10193217 0.059847485 0.045831166 0.004292938 0.07237144 0.32107034 -0.11074926 -0.18113253 0.065007955 0.12709804 0.04966378 -0.044142626 0.03643013 0.106492065 0.22798868 -0.10702721 0.34424376 -0.0030964392 -0.06920242 0.04928569 0.003490542 0.14758751 -0.19197492 0.14025964 0.1306254 0.043250185 -0.09070258 -0.16753371 0.15773638 -0.32461464 -0.27225265 -0.09204912 0.15286736
24 -0.15279281 0.0017144163 -0.016415143 -0.046160623 -0.19723473 -0.26808396 0.3690575 0.28810295 -0.15772508 -0.02757562 0.15159295 0.10882037 -0.12315871 -0.18798797 -0.03982704 -0.07814687 -0.1102309 -0.123316176 0.16483092 0.056746118 -0.030444656 -0.33621782 -0.0881755 -0.09880463 0.06993075 0.4200597 0.09060902 -0.10114029 -0.21104693 0.057725433 0.058446467 -0.15509015 0.07683733 0.12334006 -0.046895742 0.2680065 0.029710494 0.14511228 -0.10280447 -0.34762025 0.009674658 0.033376794 -0.23161638 0.05807303 -0.20474502 -0.04005105 -0.350762 -0.22779213 0.17892909 -0.13981299 -0.2127786 0.090265386 -0.2909996 0.3125783 -0.06944588 0.12561715 -0.32884514 -0.08251953 0.019746885 0.070257686 -0.13217506 0.36741453 0.019516619 0.23024447 -0.08752012 -0.1254776 0.24993433 -0.23922329 0.14270177 -0.12137742 0.14916578 0.1222868 0.06756431 -0.010017362 0.07541258 0.050038908 -0.02430744 -0.06989419 -0.16066757 -0.071897045 0.0036055294 -0.033343688 0.05281869 -0.11147012 -0.021746436 -0.099547535 -0.13460346 0.06898987 0.008272797 -0.05778638 0.2737976 0.21492854 0.03850027 -0.11348783 -0.016334537 -0.07759703 0.18287691 -0.06634468 -0.054259546 0.19680175 0.073338106 0.075438194 -0.26046005 -0.14086363 -0.049124878 -0.15506041 0.30808586 0.045187395 -0.07706492 0.11637852 0.15265687 0.024466576 -0.09769495 0.29788294 0.20010734 -0.001403021 0.2642012 -0.18553998 0.11635082 -0.012600968 -0.021040266 -0.06116623 -0.084768504 -0.08087752 -0.095727734 -0.13861671 -0.11959506 -0.0009742334
25 -0.15474239 0.014966431 0.011141357 -0.09794532 -0.1962958 -0.33577642 0.4169774 0.36600226 -0.16059695 0.05353898 0.20996526 0.12433066 -0.10502845 -0.24005167 -0.0076331617 -0.054980908 -0.1859581 -0.12163977 0.21659622 0.10955887 -0.026598843 -0.41688207 -0.108909264 -0.026179526 0.06984777 0.5145662 0.10601892 -0.17952755 -0.3068996 0.062517986 0.11916609 -0.2042196 0.040603645 0.18239126 -0.056645293 0.2788998 0.10818326 0.15838796 -0.07821482 -0.45868856 0.05451704 0.09715089 -0.32291466 0.03937713 -0.2711741 -0.093673095 -0.4167179 -0.32059795 0.1975795 -0.1681711 -0.22239041 0.121349856 -0.33462185 0.3325837 -0.102704 0.15525523 -0.35342297 -0.10438788 0.025516624 0.118111104 -0.15195265 0.39664936 0.09655569 0.28397214 -0.10898748 -0.0930399 0.2767447 -0.26412454 0.17611305 -0.09515764 0.23648362 0.102009 0.070835456 0.00081164995 0.09519864 0.096337296 -0.05595007 0.0010288672 -0.18844423 -0.05724024 0.012749559 -0.00051380205 0.08045682 -0.0939726 -0.039878268 -0.19352634 -0.16091761 0.08991635 0.044093803 -0.10956706 0.3678851 0.25713265 -0.0069597657 -0.1624484 -0.03580179 -0.059520632 0.21634412 -0.0710746 -0.07944976 0.2593423 0.01995231 0.09819025 -0.23088562 -0.11542872 -0.080101125 -0.16089606 0.35023272 0.06584283 -0.10111538 0.12252151 0.17664428 -0.007169066 -0.11956297 0.42982787 0.24458277 0.0044579175 0.37672266 -0.14780061 0.06380907 0.01471167 -0.067340896 -0.036400624 -0.06541127 -0.15596104 -0.1065277 -0.13626955 -0.033349346 -0.043200675
43 -0.09335124 0.17425638 -0.21823582 0.10983864 -0.21989399 -0.16666318 0.17150663 -0.039349835 -0.318444 -0.09057526 -0.07555257 0.08927155 0.027494902 -0.0912951 -0.038151447 -0.4027173 0.029731065 -0.03522202 -0.11603407 0.13532056 0.098846324 -0.21705541 -0.07574633 -0.1833618 0.17299388 0.21786334 0.1071877 0.093519434 -0.048032142 -0.17569697 -0.13313866 -0.13150387 0.22977951 -0.036109205 0.0007727241 0.13852814 -0.16548966 -0.058876373 -0.14035204 0.00820094 -0.05937756 -0.18144523 0.07694909 0.009214954 -0.113056265 -0.077970505 -0.3490312 0.042737532 -0.1812537 0.010853629 -0.077487215 0.24606365 0.021560922 0.24548575 0.04593407 0.2104506 -0.26958635 -0.015353956 0.006159836 0.10512467 -0.12744081 0.31749123 -0.18435156 0.1678967 0.16170782 -0.1494878 -0.028344952 -0.20870647 0.093307555 -0.36291596 -0.20301677 0.06374308 0.38386387 0.054805852 0.019638274 -0.15239953 0.14767298 -0.10362175 -0.030215397 -0.23628329 0.033448998 -0.24534893 -0.18696748 -0.15924183 -0.11117076 0.02351197 0.024489162 -0.06576804 -0.07703586 0.11196501 0.302405 0.24917857 0.086244404 -0.09540883 0.11963215 -0.27743998 0.17325059 0.07379363 -0.0801295 0.1599032 0.24479435 0.027234405 -0.27844936 -0.21708995 -0.26003072 -0.15840773 0.19305205 -0.091215 0.143571 0.2175227 -0.0043188767 0.13276173 -0.111073576 0.08786421 0.0049410365 0.21247499 0.17200528 0.061571855 0.1894468 -0.13261776 -0.017619204 -0.06436421 -0.18035421 0.036708683 -0.011989692 -0.089149475 -0.23225333 0.051367655
1 -0.32243446 0.072749205 -0.22410557 0.059858076 -0.38378596 -0.24249345 0.020030955 0.1562165 -0.30970478 0.013172959 -0.09731401 -0.07270352 -0.06554492 0.064191855 0.04653576 0.1855614 -0.21279751 0.09402617 0.3053603 -0.06546948 -0.06262348 -0.30962917 -0.033563327 -0.2248299 -0.050588064 0.39518708 0.065932736 0.016925206 0.009821395 0.023138687 -0.20644622 -0.23081996 0.28562465 -0.35949567 -0.0656139 0.07128613 -0.42027602 -0.10686774 -0.08682243 -0.012535052 -0.21656482 -0.27744928 0.2055205 0.008731099 0.1931808 0.22970991 0.19115125 0.020389337 0.21551569 -0.13732682 0.17464583 0.21595757 -0.3485211 0.2686978 0.19232492 -0.06172043 -0.19361939 -0.14194565 0.022649914 0.099373974 -0.15688454 0.22198534 0.0065663005 0.07945354 -0.20682798 0.027091514 0.19829892 -0.32502225 0.36862755 -0.14565594 -0.30446142 -0.02657481 -0.044771276 -0.08338166 0.16656059 -0.27091897 -0.09745333 -0.36221784 -0.3799673 -0.083203696 -0.19900267 -0.031599462 -0.017877469 -0.21069905 -0.13534068 0.23793614 -0.071527205 0.20184326 0.2938995 0.09463122 0.22635658 -0.032082465 0.29499212 0.056982927 0.11826219 -0.16002783 0.06438981 0.014168344 0.0074281464 0.042149797 0.3325696 -0.088773936 -0.23484266 0.05804813 0.16814253 0.042712647 -0.02868629 0.052357253 0.041072857 0.25340652 -0.06682191 0.35629985 0.0077921255 -0.058034733 0.079917274 -0.03954453 0.094853684 -0.27546412 0.14786352 0.17366688 0.06858074 -0.10258734 -0.15099192 0.16543072 -0.31853044 -0.37700206 -0.0961761 0.19940531
11 -0.31293967 0.15464982 0.043397173 0.012373161 -0.1185085 -0.2534486 0.1639249 0.23001686 -0.071750976 -0.16362318 0.06452034 -0.04618655 0.03181147 -0.14532866 0.06289253 -0.1152715 0.033727173 -0.057306223 0.17610025 0.028205775 -0.18515666 -0.31058702 0.04658013 0.06051513 0.21549119 0.27484336 0.15728018 0.05271849 -0.2778806 0.13086438 -0.24565837 -0.34951958 0.37451467 -0.5149832 0.13110207 0.04140957 -0.6359993 0.10901972 -0.034342363 -0.10237416 -0.46500763 -0.20517662 0.26034307 0.06157177 -0.18295863 0.08632579 0.039312214 0.1399765 0.011245625 -0.060437437 0.57714325 0.084243126 -0.17683198 0.62193984 0.3079487 0.17543812 0.11070376 0.09247155 0.11156522 0.31768465 -0.13281031 0.308845 -0.19572324 0.41304508 0.1513044 0.41744104 0.025032451 -0.13364322 0.28427884 -0.16645674 -0.22652034 -0.1822792 0.3246429 0.06614042 0.05221705 -0.072565585 0.10956709 -0.4610166 -0.43043488 0.23385555 -0.17800727 -0.03763554 -0.024822446 0.0708842 0.031886242 0.43383157 -0.12975776 0.07870163 0.30135772 0.31739348 0.32129017 -0.27829862 0.028142963 0.24950369 0.39634526 0.09439959 -0.13943972 0.11344488 -0.16023476 0.29679748 0.37591425 -0.16250281 0.016169649 0.06559012 0.20109507 0.25443694 -0.016702967 -0.06158152 0.25763062 0.12222835 -0.18471639 0.3353633 -0.18212387 -0.10467636 -0.20299886 0.08706196 0.4390299 0.03058653 0.11639676 0.113941625 -0.08561501 -0.10819123 -0.31712893 0.08733834 -0.34582543 -0.122534886 0.050223637 0.12252317
37 -0.10902241 -0.15751272 -0.0010351143 -0.032729458 -0.28806317 -0.3283493 0.18226506 0.17073807 -0.39358744 0.2902875 0.056363933 -0.08350837 0.16045383 0.14024554 0.28824115 -0.050884 -0.13846393 -0.06742721 0.16681589 0.39270422 -0.03160392 -0.4578853 -0.07112114 0.17390253 0.16521437 0.16563705 0.03321632 -0.18404487 -0.15576258 -0.14428948 0.13695818 -0.16757552 0.015803104 -0.20056683 -0.069752686 -0.026642073 -0.08934952 -0.07952005 0.0019793313 -0.1503567 -0.20514885 0.036952224 -0.12903008 -0.2947811 -0.07626284 -0.18627006 -0.004964104 -0.13018613 0.10084344 0.10403873 0.094001226 0.19876951 -0.059012253 -0.014907245 0.11707245 0.265531 -0.113009006 0.059873108 0.0059621357 0.34202582 -0.010571034 0.26666892 0.42660132 0.082300305 0.016518123 0.1464792 -0.03375969 -0.283974 0.38021106 -0.25687313 0.15574552 -0.14528859 0.4315641 0.14293109 0.21770751 0.026832566 -0.11939402 0.065207556 -0.25697008 -0.07774117 -0.112718485 0.050548576 -0.00029965077 -0.12711708 -0.08631671 -0.035075568 -0.18581116 -0.029795608 0.34562942 0.018843198 0.41681203 0.026916806 0.09292095 -0.13813443 0.08774508 -0.0050814273 0.04896388 0.09386997 0.010456987 0.112488225 0.1694593 -0.13269657 -0.18662144 -0.004773656 -0.21521683 0.1075968 -0.0804731 0.22638719 0.098792635 0.07188991 -0.028720686 0.08890462 -0.06371142 0.2622553 0.100554004 0.22844042 0.49262094 0.3299664 -0.16781504 -0.07089788 -0.22313496 -0.01692432 -0.10343709 -0.07795524 2.4403154e-05 -0.08564267 0.13767666 0.00022926752
13 -0.31621042 0.17976503 0.054330733 0.015534659 -0.10672275 -0.22014563 0.1495367 0.2137449 -0.02665488 -0.23027034 0.067135744 -0.027000738 0.038127456 -0.1784136 0.026009582 -0.09561631 0.031880673 -0.040524855 0.1473236 -0.013624634 -0.18674238 -0.27638787 0.068532236 0.049957618 0.19689497 0.27411148 0.172058 0.088376515 -0.27942535 0.1595788 -0.27068084 -0.3425656 0.42028013 -0.5342959 0.14130843 0.0483547 -0.6699826 0.12783287 -0.025113953 -0.110586114 -0.47637135 -0.2306864 0.30753103 0.111122005 -0.17608386 0.09492466 0.05910453 0.18324612 0.010862021 -0.07697056 0.624583 0.061963603 -0.19608456 0.6702883 0.3171906 0.1414861 0.14088051 0.08812873 0.12859118 0.2960152 -0.12626234 0.29190144 -0.2584898 0.43924618 0.15095004 0.42333677 0.045358557 -0.09846373 0.25134325 -0.13312782 -0.260606 -0.19019017 0.25308585 0.04145634 0.038683258 -0.06288284 0.114400566 -0.50186825 -0.43711197 0.27490103 -0.17796959 -0.053784195 -0.011480596 0.0760805 0.049955282 0.4707735 -0.12196546 0.088842675 0.2752523 0.32585436 0.26765573 -0.30881462 0.01333919 0.2865946 0.41359937 0.1064869 -0.15676823 0.10275618 -0.18206474 0.28177628 0.40310764 -0.16625543 0.04134163 0.06374572 0.24612924 0.27403146 -0.01757774 -0.09175221 0.24877392 0.10485368 -0.19233336 0.33107373 -0.18542998 -0.16054079 -0.23849128 0.053509496 0.40674016 -0.0042632 0.13731581 0.13837494 -0.061527923 -0.11777678 -0.31523642 0.0925876 -0.36520487 -0.12780076 0.049298365 0.15271647
31 -0.020486694 0.005707855 0.038820196 0.068247505 -0.09326485 -0.2969433 0.38851073 0.30243653 -0.10520796 -0.1272412 0.28442013 0.25588024 0.10966704 -0.26513296 -0.029147027 -0.0413043 -0.18018556 -0.12198641 0.2324141 -0.010658639 0.04868037 -0.56547576 0.020001885 0.09783016 0.059697382 0.5877709 0.10704262 -0.08220379 -0.26811558 0.021578375 0.13395682 -0.21847357 0.12749852 0.19635357 0.07796918 0.39998648 0.035064045 0.28729415 -0.105543606 -0.37171867 0.060960975 0.046638712 -0.20762275 0.234816 -0.27555454 -0.199385 -0.3888985 -0.25397968 0.2865915 -0.35325456 -0.048616804 0.026770145 -0.3009909 0.48246637 -0.08823076 0.046407767 -0.20379804 -0.07414263 0.036632918 0.07035388 -0.22080487 0.3630892 0.11150122 0.51031613 -0.056481913 0.095382504 0.34222892 -0.2612541 0.020805843 0.04475698 0.34466064 -0.038811684 -0.04838641 -0.060278926 -0.036346078 0.15834516 -0.051891346 -0.12161305 -0.22437441 -0.05742518 -0.101182796 -0.2851506 0.15043268 -0.24393319 0.062158372 -0.25810286 -0.31833535 0.0032733055 0.12674059 -0.042668656 0.2869627 0.29011747 0.0073116925 -0.1309947 -0.07076683 -0.04347061 0.22923452 0.0065369247 -0.08025867 0.24348508 0.06976918 0.020113898 -0.1383805 -0.20158835 -0.015425971 -0.14027353 0.35161978 -0.11020725 -0.20356233 0.07210051 0.17487253 0.11263459 -0.1351636 0.39344004 0.14214645 -0.023367982 0.3276717 -0.25443026 -0.00500884 0.10116426 -0.019966118 0.060945723 -0.17392817 -0.2410578 -0.23638555 0.009726167 0.060345575 -0.009264292
2 -0.35932437 0.064183645 -0.27921864 0.09223949 -0.47729224 -0.27332112 -0.015745973 0.17131461 -0.36925668 0.03326033 -0.10112837 -0.05584293 -0.04974721 0.09964673 0.04700672 0.29332656 -0.30757016 0.14574017 0.34569123 -0.107974395 -0.046866648 -0.38096076 -0.042235628 -0.2767394 -0.13570869 0.49980628 0.077272005 0.01586403 0.04560014 -0.015749557 -0.2168279 -0.23276995 0.32947865 -0.38750097 -0.11947684 0.122526385 -0.45452604 -0.11790421 -0.08693398 -0.025710408 -0.20889804 -0.31957948 0.24518327 0.018811064 0.27114046 0.254952 0.27453834 0.0049331 0.30602008 -0.19211185 0.17732963 0.24703799 -0.4482284 0.2928602 0.20100492 -0.123425856 -0.23975974 -0.20393619 0.03173275 0.066938505 -0.1628547 0.23122285 0.040710058 0.072665304 -0.2928652 -0.013553882 0.2782927 -0.3935136 0.44813117 -0.108672366 -0.3180025 -0.04841217 -0.15494062 -0.119753085 0.19468683 -0.29296237 -0.15939608 -0.42409405 -0.47054142 -0.11404204 -0.24201423 -0.06824103 -0.0040190136 -0.30387098 -0.17613193 0.218409 -0.12576503 0.24489537 0.3519197 0.061377764 0.2255223 -0.0045188097 0.38095778 0.043089654 0.07827379 -0.20448971 0.07977027 0.0111070005 0.024475064 0.011868751 0.39179018 -0.101040445 -0.29374316 0.06241059 0.20498699 0.05559767 -0.04979165 0.0717141 -0.018995747 0.29769525 -0.051719375 0.41245335 0.025011403 -0.048236996 0.106882535 -0.07774483 0.06707471 -0.3698954 0.14152156 0.23733902 0.09336819 -0.119678095 -0.15024684 0.18448675 -0.3725961 -0.47664648 -0.07202833 0.2650779
39 -0.1939584 -0.32635817 0.082144655 -0.025469046 -0.4283467 -0.46242014 0.33167034 0.2495531 -0.6162504 0.3307509 0.15564929 -0.104969576 0.24264358 0.18995999 0.40603238 -0.02194772 -0.21414892 -0.10115572 0.13039948 0.6065065 -0.04238089 -0.64279354 -0.15815985 0.16844718 0.19293995 0.20320655 0.100753464 -0.3014501 -0.2214005 -0.21938574 0.21877547 -0.17811458 0.07721483 -0.33065587 -0.20463891 -0.0034377268 -0.20904677 -0.09694513 0.071297884 -0.29251766 -0.36256203 0.058997266 -0.14195463 -0.4608239 -0.07597902 -0.34675583 0.06307256 -0.07840976 0.18743712 0.24574257 0.16825904 0.24642168 -0.1764488 0.018586753 0.18782008 0.38237664 -0.14383271 0.058050845 0.07882553 0.45952126 0.059676472 0.4494971 0.60541767 0.08678415 0.047926985 0.11094147 -0.016922029 -0.3490654 0.60960495 -0.41062775 0.21407527 -0.17018645 0.55072117 0.20413992 0.3351137 0.0836021 -0.23202705 0.016925886 -0.46063986 -0.028881522 -0.18210979 0.14689659 0.026249858 -0.20896114 -0.12818637 0.04676173 -0.35081065 -0.110530764 0.44681096 0.02156085 0.5225774 -0.017745873 0.14941476 -0.11757205 0.1570199 0.063254505 0.06011298 0.14983606 -0.0070232595 0.06998058 0.3810344 -0.22771424 -0.3436344 -0.08884639 -0.30262148 0.18668658 -0.18547623 0.41128674 0.08162624 0.03014506 -0.027220057 0.061308354 -0.115346186 0.30536762 0.12542318 0.28085327 0.7061868 0.45840117 -0.22811304 -0.14537254 -0.2912242 -0.10073172 -0.12921591 -0.11762821 0.08343091 -0.22550009 0.21186551 0.09009884
29 -0.10980208 -0.19386147 -0.063851275 0.048105802 -0.3592485 -0.22191244 0.484227 0.28754854 -0.09950023 -0.31859854 0.19950989 0.16795175 -0.22232658 -0.06697252 -0.158044 -0.28880978 0.15981139 -0.34530634 0.21807896 -0.07689943 -0.12673092 -0.4261438 0.0978271 -0.21823883 0.26214376 0.3414164 -0.028183164 0.06557971 -0.0751633 0.087746695 -0.0032488613 -0.03310013 0.084517375 0.054501638 0.046146154 0.50571007 -0.13302846 0.36079025 -0.2632146 -0.14245257 -0.05690332 -0.16212061 -0.2509943 0.2545183 -0.22458844 0.030988779 -0.4879735 -0.20650704 0.28641757 -0.23555727 -0.34232062 -0.10628517 -0.19419287 0.4311355 -0.018407535 0.088937506 -0.45109525 0.03095891 -0.039928548 0.04461956 -0.083562754 0.41231957 -0.027611516 0.31399935 0.006336112 -0.17159505 0.34170276 -0.4360764 0.048654463 -0.0788585 0.29370052 0.19387089 0.112038285 0.08543979 0.021091 0.161165 0.090196036 -0.29588953 -0.11109908 -0.15479 0.020617506 -0.33516553 -0.041521516 -0.29644197 0.10055339 -0.1388462 -0.2458941 -0.019362949 -0.034471102 0.14852214 0.19739613 0.20269586 0.20926519 -0.17995046 -0.029915549 -0.12059374 0.041669663 -0.095451936 0.02575287 0.175855 0.13918173 0.047790762 -0.44034016 -0.28753486 0.06468912 -0.13655214 0.41425073 0.0004623852 -0.15740651 0.018975865 0.27364203 0.12995288 -0.091998346 0.16820364 0.19666949 0.09166599 0.10817415 -0.3088804 0.18471584 -0.11689999 0.027394578 -0.06489479 -0.24484748 0.07490467 -0.051041175 -0.13210784 -0.36863223 0.05975811
18 -0.05992179 0.0023145855 -0.13471514 -0.17274666 -0.6195418 -0.121308036 -0.16996972 0.1668965 -0.0069622425 0.14630958 0.11556255 0.17011426 0.05794571 0.1114235 -0.07348728 -0.20888545 -0.2014468 -0.11107735 0.08050798 0.07005837 -0.0002742832 -0.32859758 0.295789 -0.16787641 0.20667101 0.24241553 0.006404704 -0.041762307 -0.063930474 -0.11557344 -0.012860557 -0.13806266 0.204248 -0.14070281 -0.11463303 0.27983403 -0.17846665 -0.07161908 0.044588245 -0.10203546 0.11692843 -0.55475175 -0.01995241 0.17251393 -0.21436882 -0.32136127 -0.3871093 -0.14790812 -0.18230128 -0.26549527 -0.11323283 0.26975477 0.06305126 0.3238984 0.08690558 0.15619148 -0.4218716 -0.122435994 0.051350903 0.31619704 -0.17279533 -0.032957487 0.0093991645 0.3473383 0.055820625 -0.10696216 -0.17113863 -0.53257376 0.117193006 0.016280428 -0.13947684 -0.072225496 0.00105638 0.3294228 0.25567403 0.21390648 0.11378612 -0.086273536 -0.06813989 -0.1887333 0.1240635 -0.46406388 -0.4281169 -0.31545275 -0.19429116 -0.41707522 0.028341176 0.07645396 -0.052943755 0.15713744 0.45808166 0.1861909 0.0934764 -0.3302672 0.15116885 -0.43553922 -0.13970202 -0.061074354 -0.30134264 0.18372749 0.12771353 0.11920662 -0.111857936 -0.07482044 -0.087686166 0.19036001 0.11273477 -0.09525077 -0.06569068 0.056667574 0.13287538 0.18014461 0.003167544 0.19964808 -0.11701064 0.21906894 0.25828433 0.28985116 -0.011631524 0.038570084 -0.08916511 -0.014474871 -0.1539666 -0.16897884 0.13193552 -0.5103545 0.09821879 0.27891153
7 -0.22231999 0.11369112 -0.090074494 0.0055797235 -0.21532154 -0.2070372 0.072690666 0.14832903 -0.124919005 0.028014513 -0.07068846 -0.104836784 -0.0788545 -0.009641673 0.037549973 -0.0339236 -0.060748518 -0.026074719 0.3296217 0.03833505 -0.09242373 -0.230796 0.03810863 -0.053132284 0.16997078 0.22432663 0.039699122 0.017093454 -0.0910103 0.12890488 -0.13893977 -0.30694196 0.16753834 -0.30618143 0.07647597 0.021335948 -0.30619267 -0.033190403 -0.059385803 -0.020932052 -0.22132261 -0.21837567 0.10535762 0.0076836715 -0.010023634 0.13397412 -0.012748368 -0.01578978 0.053412106 -0.108818986 0.17232133 0.14581591 -0.14206839 0.27118656 0.16045131 0.07783979 -0.13161859 -0.014741753 -0.029788606 0.24912944 -0.20421211 0.1889313 -0.02202196 0.17558248 -0.06629095 0.17986293 0.04177357 -0.24603544 0.16302536 -0.1655871 -0.22681111 -0.04955735 0.1655402 0.026602281 0.11656499 -0.18143877 0.0005491525 -0.22768356 -0.17954868 -0.024153464 -0.13208283 -0.037970915 -0.032799818 -0.075504325 -0.05560686 0.20255177 -0.018007642 0.15545963 0.22097711 0.17263402 0.27975738 -0.068743266 0.09893848 0.041804723 0.19101472 -0.06833135 0.009851878 0.017256442 -0.050459392 0.14063147 0.1739424 -0.052379724 -0.06524486 0.07465298 0.1145346 0.064604476 0.018370029 -0.02398252 0.13911743 0.14072077 -0.074841134 0.3177233 0.013939824 -0.0030689072 0.045498095 0.0769442 0.22018574 -0.036466815 0.117761366 0.07551798 0.0018698693 -0.045272384 -0.18631312 0.08320345 -0.28114167 -0.15888155 -0.08489933 0.079025425
33 -0.02857273 0.014437635 0.026992291 0.019030947 -0.121197045 -0.24417666 0.31021234 0.28181046 -0.047162693 -0.10736517 0.25224042 0.2280503 0.051816635 -0.23539352 -0.060479354 -0.044507507 -0.16593449 -0.1151259 0.21377963 -0.032710157 0.030279018 -0.47286025 0.042566575 0.045059588 0.05585431 0.5153253 0.08372376 -0.06983697 -0.23232593 0.04063541 0.11115766 -0.18567161 0.113791786 0.17386866 0.04904892 0.3704824 0.036607713 0.24852788 -0.0884172 -0.33770168 0.08134932 0.0012441988 -0.19348273 0.23207738 -0.25556004 -0.16809201 -0.3685355 -0.23493664 0.22843748 -0.3356249 -0.08302359 0.030993322 -0.25909075 0.4340202 -0.08410195 0.0330838 -0.22940633 -0.08165333 0.030864486 0.0655133 -0.20068504 0.29023528 0.06524878 0.447166 -0.060226083 0.04458047 0.2888371 -0.25704217 0.004989806 0.060503677 0.27778572 -0.0053408276 -0.07861516 -0.031255078 -0.011395732 0.15626666 -0.032075997 -0.10842233 -0.17838523 -0.059944566 -0.05414739 -0.25559267 0.09477988 -0.21050692 0.039388373 -0.2511695 -0.24543425 0.030595753 0.07539832 -0.026323792 0.25842643 0.25481823 0.002143475 -0.12972333 -0.060190562 -0.06491345 0.17290203 -0.020002129 -0.09341493 0.21434085 0.047287233 0.044373512 -0.11703873 -0.16406693 0.010572696 -0.113187104 0.3262145 -0.09673072 -0.18184985 0.061744925 0.17430387 0.1001248 -0.108277775 0.3500522 0.1198025 -0.018925741 0.2678481 -0.22482714 0.01555571 0.09175255 -0.010489177 0.045662258 -0.1433123 -0.2102873 -0.19096684 -0.040798854 0.040335443 0.012953216
46 -0.114002876 0.13473624 -0.2709336 0.14276405 -0.27717164 -0.20276426 0.266163 -0.04223942 -0.43197334 -0.13530596 -0.064960495 0.12571436 0.024424648 -0.08172069 -0.047046423 -0.45501497 0.046554156 -0.050886016 -0.1954561 0.17788753 0.12799004 -0.26363236 -0.12998831 -0.24887699 0.14854565 0.25892356 0.14154774 0.11778237 -0.019728906 -0.25387543 -0.13140553 -0.10812467 0.24595262 0.01742363 -0.058939613 0.19600922 -0.15818776 -0.038830288 -0.19351436 -0.014522515 -0.08026266 -0.1688149 0.050054662 -0.016763411 -0.11091511 -0.09998939 -0.39991376 0.061942633 -0.15985313 0.06309429 -0.17263778 0.27038187 -0.021851819 0.25038704 0.018194536 0.23518085 -0.3420764 -0.030695204 0.025305107 0.062393237 -0.098401934 0.41643974 -0.18064448 0.14640832 0.16841474 -0.2737525 0.024723053 -0.22646812 0.15229908 -0.450751 -0.1765213 0.1289175 0.4481186 0.03507573 0.029693302 -0.16589734 0.16850205 -0.11191345 -0.044900637 -0.28642836 0.05504267 -0.26718566 -0.18275201 -0.21041553 -0.125564 0.003676344 -0.0078563895 -0.11446627 -0.09719577 0.06942259 0.30860117 0.31776926 0.15389217 -0.12519765 0.103016645 -0.32892302 0.24556723 0.079765186 -0.059514787 0.15941241 0.31565407 0.0415369 -0.41271943 -0.30906925 -0.34865066 -0.22007276 0.24050789 -0.05265671 0.12371452 0.25707233 0.036842376 0.10163543 -0.13404107 0.10338834 0.042434882 0.21594164 0.16371772 0.015234784 0.22132355 -0.21504873 -0.019218417 -0.09828205 -0.17880619 0.05083548 0.042082947 -0.11016054 -0.32385108 0.049330994
36 -0.15692262 -0.041236456 -0.2229708 0.024026567 -0.34983736 -0.33704868 0.13838243 0.0743931 -0.48550454 0.30368316 -0.15605158 -0.15270956 0.006867828 0.18927687 0.24736245 -0.14868332 -0.06447567 -0.030943545 0.2490665 0.30588347 -0.012526624 -0.3840703 -0.10878848 0.0360331 0.17798235 0.17383248 -0.034558613 -0.06867333 -0.027558299 -0.15418519 0.0036981953 -0.18558739 -0.013012379 -0.16682185 -0.01118223 -0.07277423 -0.07293272 -0.16153978 -0.16684256 0.04351653 -0.16151819 -0.02895064 -0.10251746 -0.2963989 0.035916854 0.0669272 -0.05545943 -0.16527618 0.07705685 0.090184785 -0.073013246 0.2722969 -0.028144436 -0.12469005 0.09702804 0.22259082 -0.27371803 0.04095203 -0.1089199 0.27179638 -0.080023594 0.2927804 0.33675653 -0.05492762 -0.06291246 0.054682463 -0.0068367776 -0.371201 0.35835525 -0.378577 0.0017136065 -0.04279802 0.53386194 0.07619701 0.19202438 -0.20987934 -0.049812473 0.06618233 -0.13821818 -0.27943513 -0.08974195 0.019823382 -0.064116046 -0.14794289 -0.13374123 0.008793991 -0.027656268 0.053045377 0.33796522 0.018575842 0.43438312 0.12846583 0.21130055 -0.21067294 0.041045666 -0.16450004 0.1418504 0.06793599 0.117324755 0.13334934 0.11230089 -0.07496054 -0.3069687 0.02142159 -0.2489079 -0.044933714 0.021448547 0.17774498 0.18619452 0.24064887 -0.04614691 0.18958037 0.0028414414 0.22411463 0.21442564 0.26351947 0.3417573 0.18189672 -0.026586417 -0.11103816 -0.15762235 -0.008429771 -0.13320795 0.09935864 -0.08633913 -0.05920643 -0.13529895 -0.060888276
9 -0.22752409 0.14830744 -0.05473314 0.016917812 -0.15389197 -0.17403759 0.052642822 0.14805171 -0.07432984 -0.071307324 -0.02614858 -0.05181506 -0.03302801 -0.07362269 0.022768201 -0.05072218 -0.03418408 -0.009800431 0.21909031 -0.015959088 -0.111878015 -0.20001927 0.055900272 -0.0352621 0.13733335 0.22340925 0.07998267 0.049185667 -0.13308787 0.11092936 -0.19269702 -0.2826963 0.2535796 -0.358529 0.08105214 0.023854973 -0.42179474 0.010159114 -0.037572056 -0.029206352 -0.27334765 -0.21779552 0.18891416 0.06607551 -0.050061528 0.11397573 0.018586056 0.061832134 0.0074784383 -0.10679242 0.31713137 0.1140883 -0.13584861 0.39633605 0.20847553 0.07307193 -0.0150752105 0.0033154644 0.04500321 0.21286643 -0.17281266 0.17964657 -0.13452946 0.24768177 0.02327961 0.23931605 0.027154531 -0.16792873 0.17778213 -0.13269293 -0.25548977 -0.088823944 0.15441805 0.02434165 0.07143753 -0.14647365 0.056080144 -0.3156506 -0.25526592 0.07172864 -0.12877323 -0.054377977 -0.04458378 -0.0061855223 -0.020236097 0.27619997 -0.029926965 0.11176072 0.20510647 0.2068183 0.24128884 -0.13653187 0.06053641 0.13403764 0.26008382 -0.02062916 -0.045420703 0.04537303 -0.09541179 0.17084181 0.23421516 -0.07638292 -0.014205678 0.07098813 0.16190866 0.12667218 0.003532229 -0.06264317 0.16359746 0.13725322 -0.11978672 0.29954392 -0.058035567 -0.07817356 -0.07468931 0.049576137 0.23081656 -0.042934388 0.13371348 0.1058589 -0.0063573006 -0.06429516 -0.21488608 0.07305511 -0.2838723 -0.15426165 -0.033928864 0.1042879
23 -0.08974598 0.14788221 -0.023528716 -0.026502924 -0.10283415 -0.20619512 0.27346233 0.2626359 -0.0011396767 -0.113826126 0.13751714 0.1673875 -0.097556576 -0.28180104 -0.09337413 -0.10314748 -0.12615848 -0.08008704 0.24011447 -0.11844519 -0.023797294 -0.32172877 -0.0010846542 -0.06342581 0.04066241 0.4935201 0.0917331 -0.0026324133 -0.21494311 0.12570462 0.0012082582 -0.21312672 0.104726255 0.15595755 0.06016589 0.29997414 0.003209264 0.18362866 -0.12340918 -0.31537563 0.063519485 -0.026280802 -0.12571366 0.2441199 -0.2532007 -0.01826103 -0.38456967 -0.21816021 0.16802995 -0.30660576 -0.12159076 0.056300204 -0.27778658 0.43549946 -0.07909326 0.012454127 -0.2798723 -0.09554801 0.016894743 0.039961178 -0.23195828 0.2572695 -0.09334412 0.35665408 -0.105534784 0.003196273 0.270471 -0.22603369 -0.02475948 -0.0016838749 0.10348094 0.08103232 -0.051673714 -0.06870564 0.0046355417 0.032495167 0.046221096 -0.14359845 -0.13616571 -0.058534727 -0.023566047 -0.15684816 0.04931617 -0.10814447 0.041650973 -0.12992306 -0.07962422 0.10744952 0.019933306 -0.020209124 0.23621662 0.21949476 -0.027406286 -0.0909533 -0.008331128 -0.08527692 0.16804929 -0.079997316 -0.09240835 0.2220253 0.015708333 0.08367421 -0.123150565 -0.09947204 0.078885905 -0.16830248 0.36027744 -0.13012755 -0.085363545 0.15147786 0.1457475 0.12607776 -0.09638912 0.2803571 0.116905645 -0.05929756 0.19758667 -0.30373645 0.15700415 0.06837261 0.0297058 0.022091597 -0.14822935 -0.117454864 -0.23283021 -0.068031594 -0.122470394 0.026813727
20 -0.074037224 0.029805215 -0.14368394 -0.20946646 -0.6708954 -0.1270385 -0.19344041 0.19727825 0.008685036 0.16153222 0.14051923 0.2018683 0.07611159 0.09442343 -0.09039011 -0.1983619 -0.26336387 -0.10338325 0.053423736 0.06132775 0.015804164 -0.36236376 0.30376968 -0.18372668 0.19636476 0.28754318 0.042832147 -0.06373572 -0.09380042 -0.13173775 -0.016565397 -0.15387696 0.25161186 -0.14351581 -0.1399544 0.30346757 -0.20017965 -0.083215825 0.08464106 -0.16053149 0.1326006 -0.59600955 -0.005144713 0.2010781 -0.2452618 -0.35939115 -0.4133605 -0.15530188 -0.20752065 -0.29879516 -0.108752675 0.31141165 0.035534784 0.3875301 0.08807718 0.15853819 -0.45694163 -0.16190676 0.0752993 0.3345168 -0.18705916 -0.034491286 -0.008134796 0.39848024 0.051278733 -0.1325488 -0.19144166 -0.5588487 0.13539901 0.03613558 -0.17077002 -0.078204915 -0.03376572 0.34489065 0.2834937 0.24655099 0.11205282 -0.10097261 -0.094643265 -0.17683041 0.12909354 -0.4927923 -0.45618042 -0.33811185 -0.22346936 -0.46219763 0.035455726 0.094870925 -0.06946867 0.14910156 0.50176007 0.20241603 0.08144642 -0.34909377 0.16420723 -0.47383708 -0.14761567 -0.055876262 -0.36299297 0.19515043 0.15094408 0.13321523 -0.10700368 -0.08058677 -0.08890886 0.207499 0.12883063 -0.10456739 -0.0723436 0.075418405 0.1468978 0.19320512 -0.012421136 0.22129653 -0.13994521 0.2048787 0.29392928 0.31071293 -0.0017297844 0.078330606 -0.09069006 -0.02141835 -0.14715248 -0.20363826 0.15204558 -0.5850948 0.15087962 0.32011825
26 -0.121490926 -0.002375779 0.024528062 -0.080467895 -0.20371716 -0.30544826 0.4587618 0.37517047 -0.096594475 -0.06528773 0.2636337 0.20571966 -0.110163204 -0.27929255 -0.08606493 -0.11848301 -0.1273268 -0.18121193 0.17263459 0.04484869 -0.023741644 -0.43238392 -0.055738278 -0.054146215 0.10071981 0.5350959 0.10667282 -0.1420164 -0.3103004 0.06469775 0.11203251 -0.17997175 0.07716237 0.2322138 -0.031481624 0.38877067 0.10758658 0.23890187 -0.106427185 -0.46515897 0.084275596 0.06019472 -0.34027117 0.14391579 -0.3342863 -0.13117278 -0.51721203 -0.32176057 0.19620751 -0.23001292 -0.26709118 0.06439243 -0.316557 0.42306906 -0.12580587 0.15291314 -0.37260994 -0.09607333 0.039672617 0.07678887 -0.16240187 0.4097802 0.0162251 0.37222263 -0.06615217 -0.121857435 0.3039076 -0.28069633 0.10070913 -0.044256777 0.2775065 0.1255986 0.025404032 0.017644893 0.052600216 0.17294434 -0.008383777 -0.047705747 -0.14896207 -0.064168066 0.043083016 -0.11442628 0.06477372 -0.12961762 -0.0029649492 -0.24303839 -0.18914674 0.06170692 -0.037496116 -0.08149862 0.34026268 0.29106513 -0.004919701 -0.17197774 -0.05379701 -0.08517305 0.20650929 -0.084596165 -0.10321304 0.28266233 0.02159133 0.12384834 -0.24520223 -0.19050604 -0.06653298 -0.17824848 0.42280516 0.0090615535 -0.14966671 0.09517989 0.22198823 -0.015411711 -0.13955769 0.41982952 0.21754299 -0.0063101337 0.34180063 -0.19938706 0.09174476 0.010982387 -0.04056782 -0.03342931 -0.09381397 -0.17845567 -0.08217232 -0.12588026 -0.062777296 -0.024221886
12 -0.3258098 0.14491445 0.03931759 0.009055355 -0.12764056 -0.26382673 0.164984 0.23378406 -0.08632142 -0.15018788 0.05678159 -0.068876594 0.024721283 -0.13127217 0.07259063 -0.09317184 0.030831447 -0.050667364 0.2146721 0.038301684 -0.1904085 -0.32285076 0.043958876 0.068073384 0.21569547 0.27689344 0.14158785 0.053664904 -0.2768332 0.14860645 -0.24205995 -0.36070368 0.36444187 -0.53649837 0.13818741 0.027440831 -0.6498399 0.1056524 -0.03566193 -0.099532954 -0.48787782 -0.20811638 0.2566722 0.047594152 -0.16390508 0.11147287 0.07237727 0.13972853 0.03328199 -0.06237273 0.5831345 0.07872494 -0.18591534 0.6067244 0.3191714 0.17226054 0.113853134 0.0938207 0.10832287 0.33584398 -0.13242608 0.31468925 -0.16472524 0.3926594 0.12625408 0.4310651 0.034164328 -0.14558876 0.30111203 -0.17714405 -0.22719495 -0.19147786 0.32424635 0.06273479 0.064775184 -0.08674055 0.08837474 -0.46942195 -0.43940145 0.23105669 -0.19092144 -0.0142626045 -0.009086936 0.063560046 0.034010142 0.45925355 -0.13747528 0.094329625 0.32842472 0.32598647 0.323984 -0.29532352 0.042827673 0.25893894 0.39368862 0.10402253 -0.14215483 0.11101451 -0.14314169 0.28900898 0.37179637 -0.18080959 0.006390659 0.08000751 0.21618365 0.25886902 -0.03829507 -0.044573188 0.25436327 0.11773756 -0.19125983 0.35114285 -0.1717649 -0.109378524 -0.18783458 0.08595032 0.44175544 0.029487746 0.115019076 0.121289685 -0.08090345 -0.11242198 -0.31807458 0.100040525 -0.36262187 -0.12884407 0.045865834 0.121690355
14 -0.34713125 0.15876903 0.0033312514 0.03332 -0.16786636 -0.24714667 0.1542807 0.22606955 -0.09057761 -0.22819154 0.053963576 -0.017249709 0.009621968 -0.15440726 0.028456252 -0.044292733 -0.0034450893 -0.01789934 0.17444293 -0.054623198 -0.18473575 -0.30302703 0.03765105 -0.014753571 0.13009186 0.33490783 0.1772229 0.08560518 -0.24032626 0.13813724 -0.2842404 -0.32180643 0.43481454 -0.5241518 0.104159646 0.078266524 -0.6783429 0.11690411 -0.053424887 -0.10230354 -0.4595884 -0.23959474 0.31162888 0.11713503 -0.11825435 0.13720925 0.09772511 0.17222461 0.074783504 -0.094672136 0.5766149 0.08582406 -0.260143 0.6621729 0.31529394 0.09171153 0.084989876 0.04485952 0.13332653 0.24118972 -0.12597309 0.31865144 -0.24465095 0.39925548 0.087612115 0.36064193 0.11202328 -0.14047927 0.30150345 -0.13097516 -0.27106667 -0.1607391 0.19536236 0.009799304 0.058467947 -0.0951868 0.092793524 -0.529862 -0.4837029 0.23371358 -0.20237072 -0.06063563 -0.0023259295 0.021146018 0.028465569 0.46217164 -0.14130674 0.11148232 0.2901509 0.2976611 0.2552421 -0.27087328 0.08171137 0.27071026 0.3724451 0.07046258 -0.12104179 0.09026426 -0.14228751 0.26296306 0.43028027 -0.15419969 -0.031817 0.052892033 0.25976446 0.24077988 -0.0044349283 -0.0692584 0.20777175 0.15277289 -0.17061342 0.35299385 -0.17109223 -0.15903358 -0.19349062 0.013033267 0.36044464 -0.10068233 0.15808077 0.15709478 -0.037907228 -0.13711269 -0.30138373 0.1181728 -0.38539866 -0.19423342 0.012042809 0.17593439
44 -0.08848468 0.16644856 -0.19592255 0.10096071 -0.22090666 -0.15458205 0.14991724 -0.04565905 -0.31284887 -0.07271658 -0.059199326 0.08340171 0.047693092 -0.08357142 -0.03118203 -0.37797856 0.008462256 -0.0272151 -0.13540396 0.15638877 0.10927275 -0.20530953 -0.07215211 -0.17086802 0.15636095 0.2016829 0.10707454 0.07756164 -0.05430586 -0.18914704 -0.11420678 -0.12439509 0.22840099 -0.044057857 -0.021524219 0.125436 -0.160899 -0.06976162 -0.11152557 6.7418674e-05 -0.05662191 -0.17772889 0.086726464 0.002848339 -0.108643256 -0.106045134 -0.32152343 0.060004026 -0.19103706 0.026959859 -0.052580144 0.25188562 0.029034752 0.23329501 0.047736123 0.21045734 -0.24717875 -0.017490994 0.017355176 0.1201409 -0.11383989 0.29347882 -0.16417563 0.15914197 0.15923707 -0.13541311 -0.044563733 -0.19207677 0.09769487 -0.35114902 -0.19571885 0.0463755 0.3643147 0.06882095 0.028851673 -0.1373778 0.13440685 -0.09192026 -0.038893115 -0.21945502 0.03123213 -0.22565264 -0.19101621 -0.15721337 -0.11261757 0.01516196 0.015661694 -0.069984876 -0.07375467 0.103091076 0.29777625 0.23713619 0.07089302 -0.09054749 0.12956943 -0.270209 0.15772577 0.07767189 -0.095422655 0.14980222 0.2500586 0.025994547 -0.25194332 -0.21307616 -0.258535 -0.13567904 0.16059534 -0.085095815 0.13561293 0.1953544 -5.0730305e-06 0.11874949 -0.11100947 0.08860038 -0.013479885 0.20738885 0.18619092 0.09369622 0.16527139 -0.12920079 -0.02954954 -0.061350223 -0.1632917 0.009478757 0.003069885 -0.099538 -0.18353951 0.06508859
41 -0.16913663 -0.3090469 0.05766413 -0.044499792 -0.42348343 -0.4325791 0.29481456 0.24089065 -0.57581466 0.3529163 0.1431715 -0.10091273 0.21846192 0.19743529 0.38581637 -0.03331516 -0.20349401 -0.1000874 0.1327405 0.57462996 -0.047523253 -0.6102936 -0.13969491 0.17706978 0.19082494 0.18712586 0.07317108 -0.29002094 -0.2058222 -0.22236386 0.21265118 -0.16768207 0.045487393 -0.2978775 -0.18934676 -0.008117421 -0.15607965 -0.10656958 0.066133894 -0.26517677 -0.31269774 0.05167425 -0.16025272 -0.44153196 -0.08746459 -0.3253647 0.04079362 -0.107081614 0.15768133 0.22508311 0.12770915 0.23922083 -0.13564208 -0.009395575 0.16166364 0.37310424 -0.14595807 0.05676768 0.06364147 0.44363624 0.057402052 0.39923143 0.59013265 0.06452116 0.042688042 0.101712964 -0.044831626 -0.34360075 0.56749606 -0.37462375 0.2159464 -0.15435676 0.53412306 0.21072103 0.32948044 0.09603344 -0.21135919 0.054205745 -0.40762416 -0.04593136 -0.14734326 0.12461738 0.0072151395 -0.19018471 -0.12298523 -0.010124075 -0.30939546 -0.096031025 0.41494137 0.010530472 0.5075145 0.0005189773 0.13253154 -0.14607656 0.1326729 0.038539015 0.04905883 0.12934113 -6.6356326e-05 0.078354895 0.31830055 -0.2005914 -0.31450087 -0.0713793 -0.30121174 0.18104936 -0.16229689 0.3908755 0.078323655 0.032476556 -0.013332557 0.049005713 -0.103397764 0.30895567 0.12205502 0.28601137 0.662874 0.4617731 -0.227393 -0.13946989 -0.2953794 -0.08142362 -0.113683455 -0.10834481 0.09322554 -0.20640229 0.20402072 0.064039886
32 -0.015837446 0.014563492 0.07061141 0.048465647 -0.06390857 -0.31517112 0.40374613 0.32771415 -0.09191953 -0.10035604 0.3102002 0.25579703 0.1323917 -0.28363687 -0.008106488 -0.040102817 -0.1958121 -0.11956168 0.2582134 0.017459746 0.047352094 -0.5930059 0.015705772 0.16423132 0.076439545 0.5967295 0.116197854 -0.109214276 -0.3211156 0.034111902 0.16251695 -0.24474408 0.10859515 0.20025916 0.094380066 0.3894039 0.06867439 0.2982954 -0.086140156 -0.409258 0.056275036 0.08788035 -0.23571824 0.2181349 -0.31588304 -0.22692929 -0.39638084 -0.27655792 0.27962413 -0.3593528 -0.009881103 0.027338088 -0.2938199 0.48243296 -0.08701793 0.06845438 -0.17189579 -0.06002748 0.044021115 0.10632223 -0.22749096 0.3583836 0.13860595 0.5386641 -0.04575122 0.1547673 0.33344695 -0.25206313 0.026223684 0.058525015 0.3856193 -0.06995864 -0.023325888 -0.052935787 -0.03844509 0.18400718 -0.057988297 -0.07697312 -0.22849534 -0.03261377 -0.10133283 -0.26085904 0.16945837 -0.20713739 0.0692543 -0.2688573 -0.33260116 0.0081531005 0.15178658 -0.050173406 0.3176979 0.27787203 -0.032634158 -0.13333052 -0.067010134 -0.007802209 0.23108533 0.014160921 -0.08822809 0.27457267 0.043416165 0.013182735 -0.08967946 -0.17496227 -0.017225347 -0.12340984 0.3411317 -0.10490289 -0.1929093 0.068440445 0.15962447 0.09820405 -0.14259613 0.4403378 0.13858657 -0.01638606 0.383932 -0.21348317 -0.0347254 0.11473322 -0.051125582 0.07765843 -0.17021658 -0.27378425 -0.24793729 0.050868858 0.116013445 -0.03741744
3 -0.4012294 0.089267395 -0.28239378 0.06218148 -0.5150545 -0.273076 -0.05917772 0.17702363 -0.36077407 0.025137812 -0.109322965 -0.06937564 -0.03774145 0.10938738 0.044933412 0.2764875 -0.30229428 0.15412594 0.32720742 -0.10689701 -0.0763688 -0.37854543 -0.011465969 -0.28824526 -0.11165187 0.4895991 0.09718321 0.023098992 0.019350948 -0.011614067 -0.27717295 -0.2630054 0.39566812 -0.49052957 -0.12349048 0.10174972 -0.56562585 -0.14810953 -0.06956719 -0.01050888 -0.25970435 -0.4003357 0.3158552 0.025759326 0.2548786 0.25803998 0.2975854 0.06103373 0.2516945 -0.16859762 0.2677333 0.27552727 -0.43532696 0.3543078 0.26374716 -0.10055288 -0.21332546 -0.19607937 0.060249034 0.11676422 -0.15609133 0.22450085 -0.00931612 0.102450095 -0.25340706 0.021550866 0.21858571 -0.4041176 0.4847325 -0.1311537 -0.40840787 -0.07546182 -0.119406246 -0.086483605 0.2217449 -0.28590602 -0.12522507 -0.48702633 -0.5133844 -0.06923587 -0.23508027 -0.068964414 -0.056306865 -0.27896237 -0.18961848 0.27694562 -0.093012616 0.25896403 0.36066142 0.11661061 0.25674108 -0.07409672 0.38101363 0.07792499 0.15448073 -0.21474935 0.016130809 0.020308211 -0.021561095 0.03982658 0.44099772 -0.12121738 -0.26078767 0.08213805 0.22615911 0.12443769 -0.094664626 0.06765624 0.026841803 0.3076999 -0.086869515 0.4459701 0.0037586014 -0.101161465 0.033411328 -0.06579668 0.0983904 -0.31772578 0.1592673 0.25276393 0.075132996 -0.14245214 -0.16903397 0.20250791 -0.37821504 -0.5289061 -0.044070277 0.30294394
40 -0.17859665 -0.33557677 0.07494624 -0.053807423 -0.4702603 -0.43928975 0.30246916 0.26678622 -0.58254707 0.34054297 0.18404678 -0.066146836 0.22928786 0.19207263 0.3688761 -0.021947356 -0.23501259 -0.11017865 0.11310565 0.5934706 -0.027280865 -0.63782173 -0.13607669 0.1454097 0.19454382 0.21085516 0.099427216 -0.31035808 -0.21071246 -0.23021843 0.23175552 -0.16197024 0.06922663 -0.2932638 -0.2294258 0.03602689 -0.17117104 -0.09217446 0.08900137 -0.31406102 -0.3037316 0.0250472 -0.17003721 -0.4260741 -0.09723996 -0.3885361 0.017316427 -0.10104231 0.16927086 0.21336764 0.102244385 0.24443056 -0.16849555 0.022680484 0.16281909 0.370901 -0.18977433 0.030878458 0.08186239 0.45043007 0.054637466 0.41491264 0.5944965 0.09486503 0.043782275 0.048548758 -0.029507015 -0.3691669 0.5826891 -0.36886117 0.22187671 -0.15462439 0.49218044 0.22606581 0.3482206 0.13598622 -0.22485414 0.03262439 -0.42082295 -0.04197461 -0.14320545 0.10418651 -0.003907892 -0.2411996 -0.13541064 -0.03981795 -0.33737057 -0.10539719 0.394723 0.007894033 0.517539 0.01864205 0.1423062 -0.15786466 0.14358672 0.022100592 0.054246206 0.12540008 -0.040679254 0.06998951 0.35327086 -0.20039618 -0.3476654 -0.110389754 -0.30957323 0.19079915 -0.16318543 0.40017834 0.04832024 0.012768144 0.008009587 0.0422148 -0.10212296 0.32193124 0.12076328 0.28025287 0.683759 0.4677895 -0.2279857 -0.1354669 -0.28233358 -0.10142347 -0.10876898 -0.15052338 0.1262903 -0.26076266 0.22584885 0.10470829
