28 128
6 0.03485353 0.0400644 -0.16177195 -0.012348689 -0.055858437 0.0121058095 -0.05841451 -0.013636059 0.16275251 -0.042927694 -0.09223938 -0.10292109 -0.046948 0.066577606 -0.041576397 0.05382896 0.058268365 0.031901784 -0.11313342 -0.13732165 0.09666592 0.10006463 -0.0025813903 0.15407516 0.009466844 -0.024015032 -0.16263832 0.037582792 -0.03743393 0.17863303 -0.16843112 -0.063396566 -0.10293312 -0.14256924 0.02069157 0.14451008 0.14966707 -0.094950214 0.04857208 0.14711697 0.035698455 -0.0885879 -0.039992996 -0.008343134 -0.001060484 0.07387298 -0.00435384 -0.09911202 0.06383801 -0.020073118 -0.056596477 0.0421396 0.2974968 0.070327185 0.085467346 0.029018374 0.037410803 -0.07418845 0.017234586 0.038973138 -0.029311351 0.052823227 -0.0018064507 0.10208373 0.22416814 -0.06668086 -0.052269123 -0.123667896 -0.18987608 -0.022228194 0.015431972 0.19263032 -0.16301091 -0.048265282 0.032833718 0.20549269 -0.11424733 0.040432468 -0.048557304 -0.16302551 -0.14001915 0.08150806 0.22602697 -0.07499008 0.015544961 -0.13969475 -0.017727327 -0.14355318 0.021452054 0.016004074 -0.138452 0.031835992 0.014385305 0.034767497 -0.12193588 -0.08649245 -0.21866055 -0.17937833 0.030909345 -0.050454043 0.060306232 -0.19517373 0.12272307 -0.14825831 -0.1756111 0.07581175 0.26830342 0.1051171 0.0284011 0.019529613 0.075484045 0.16130121 0.10351523 -0.034310065 0.04125162 -0.10849338 0.019834436 0.12866737 0.026427522 0.04665448 0.12077282 0.15594164 -0.004383056 -0.103847384 0.06084231 -0.00088423386 -0.037290193 -0.018898264
2 -0.105378106 -0.055396155 -0.2962522 -0.19608405 0.13026136 0.03350286 0.015248524 0.029921154 0.12990604 -0.048604865 -0.30692163 -0.052043535 0.033194974 -0.049986772 -0.08501788 -0.24215616 0.34433317 -0.11689391 0.049746178 0.014414944 0.20054403 -0.011605509 0.06288894 0.112121105 -0.15922827 -0.11684828 -0.16475452 -0.09489971 -0.07043502 0.33806902 0.06308894 0.21619645 -0.21685171 -0.13748638 0.00044313725 0.029329788 -0.19381277 0.0029001103 0.17037426 0.1376215 -0.003619236 -0.30792588 0.08174883 0.16350342 -0.16999514 0.035275362 0.28404534 0.20879371 -0.11029543 -0.053039383 -0.053831123 -0.22770008 0.29491064 0.075490706 0.025679542 0.048276585 -0.08001043 -0.09778325 0.24724954 -0.13130027 0.004383588 0.20632306 0.09470509 -0.052385636 0.123936266 -0.16188575 0.19828013 -0.00023185265 -0.13444577 -0.023134472 0.23375493 -0.07770805 -0.32813737 -0.057643205 -0.061353557 -0.09293325 -0.0052718506 0.24409764 -0.29135308 -0.05451373 -0.15516804 0.11539813 0.2659978 -0.05546024 0.25342885 -0.10881495 0.05552938 -0.42147312 -0.00018036342 -0.31389767 -0.11041933 0.2721111 0.11921286 0.29274207 0.002312215 -0.24748084 -0.5564026 -0.11920252 0.24007502 -0.14703928 0.04486572 -0.30323708 0.034298908 -0.25132182 0.03570195 0.08132525 0.10715715 0.31624016 0.18697956 -0.07577487 0.023106607 0.11929912 0.06920203 0.13527346 0.12428733 -0.3144158 -0.11041035 0.17534404 0.30051157 -0.010525604 0.24150425 0.20839877 -0.05501444 -0.30631652 -0.05544482 0.06847834 -0.015871068 -0.008163892
24 0.09962941 0.08016325 -0.14154942 0.0692628 -0.056577466 0.08112759 -0.14301427 -0.12046884 0.15359512 0.103887185 0.13985905 -0.16200656 -0.09082293 0.1358877 -0.08197562 0.021800105 0.14669389 -0.014882324 -0.095673986 -0.06924506 0.17465295 0.01980983 0.072482824 0.2747699 0.18288013 0.051329624 -0.2669669 -0.101055406 -0.06813399 0.1251261 -0.26191914 -0.1886123 -0.09803023 -0.22000517 0.0609554 0.27611256 0.23254761 0.007886758 -0.008282995 0.19026208 0.032006286 -0.12267481 -0.057062533 0.042567972 0.04382238 0.1441148 0.022216314 -0.0743453 -0.027271139 -0.12698393 0.005044835 0.16271372 0.34972396 0.08025204 0.1451041 0.15536585 0.010278384 -0.13349137 -0.14680322 0.011590365 -0.10903297 0.06053757 -0.007668704 0.20172684 0.21052763 -0.17190391 -0.21575333 -0.2287637 -0.039597675 -0.022476774 -0.061287064 0.19362384 -0.10891259 0.034793932 0.0979151 0.14918984 -0.1327183 -0.009589123 -0.041205592 -0.20390932 -0.075015984 0.02080053 0.20276932 -0.1423423 -0.018334487 -0.16633563 -0.03482629 -0.25839308 0.0011146258 0.02578002 -0.06927778 0.0504301 -0.02486398 0.08305734 -0.16596083 -0.048612855 -0.17515045 -0.19248025 0.0133349 0.10486804 0.07918479 -0.16014436 0.10436103 -0.30021513 -0.21952017 0.049825035 0.32122093 0.18265736 -0.03900784 0.12273621 0.13424715 0.18644936 0.08917241 -0.09210907 0.14435726 -0.20079383 0.020821547 0.124446444 0.0056652357 0.0035523665 0.17182647 0.17491375 -0.116130695 -0.04058429 0.056698132 -0.057072327 -0.24952362 0.017234141
18 -0.06656345 0.03842328 -0.3852283 -0.032479197 0.041447956 -0.012181321 -0.021008413 0.016207026 0.04271917 -0.2102867 -0.32540202 0.09547664 0.17005104 0.2130858 -0.14681591 -0.15453036 0.33894676 0.008909891 -0.066145554 -0.06192739 -0.09344542 0.13290198 -0.11242237 0.017890353 -0.16139908 0.0008087193 0.07878665 0.078591645 -0.07369905 0.31744492 -0.112900525 -0.076347694 -0.18314768 -0.33975658 -0.010324468 -0.013461925 0.37019822 -0.10692915 -0.11417891 0.014334712 0.1319983 -0.079617605 -0.06240005 -0.10866294 -0.0729564 0.116574906 0.041415032 -0.21242283 0.23986784 0.14514871 -0.35549775 -0.067645155 0.47211042 0.16099295 -0.1057063 0.283689 -0.026789824 -0.026041495 0.14711012 0.14170639 -0.032750614 0.13509233 0.13591474 0.029761007 0.36950338 0.03879502 0.3064219 -0.055589378 -0.4963569 -0.08061452 0.126782 0.20242864 -0.36349037 -0.2522574 -0.0740221 0.10199367 -0.013678884 0.16710842 -0.16846038 -0.11751715 -0.080786936 0.18557143 0.37799138 -0.07839997 0.15319543 -0.27439448 0.01524942 -0.115832016 -0.12654798 -0.2733304 -0.00047637307 0.038448956 -0.04634073 0.28099725 -0.08412955 -0.070721366 -0.3432025 -0.012452891 0.023824431 -0.23611416 0.016030515 -0.1824144 -0.008334248 0.06136406 -0.048762996 0.16058859 0.3419638 0.18068728 -0.061132193 -0.13133544 0.077439345 0.19434133 0.13328004 -0.10065872 -0.08350302 -0.18498202 -0.04127924 0.08407318 0.13347739 0.22289382 0.27222097 0.13968003 0.16380349 -0.050219167 0.11107783 0.2167327 -0.0021495179 0.02895579
17 -0.016652688 0.045827735 -0.33186373 -0.022384671 -0.0068642865 -0.010255395 -0.059492502 -0.041239366 0.08452567 -0.13665047 -0.2074014 0.01811798 0.13899267 0.217235 -0.13849358 -0.09728107 0.26168722 -0.004531895 -0.08355059 -0.092616 -0.030385457 0.12427517 -0.06876981 0.06122781 -0.046872504 0.035562526 0.020047083 0.063462466 -0.055928707 0.25180706 -0.19015469 -0.13246927 -0.120169796 -0.2936297 0.024334827 0.079938285 0.35466158 -0.094644465 -0.07893174 0.05122172 0.12441325 -0.052851524 -0.061288107 -0.08963272 -0.037560042 0.09747198 0.012224323 -0.21415165 0.16018127 0.084131524 -0.2960632 0.013991428 0.43642768 0.117536955 -0.039083008 0.24674629 9.071376e-05 -0.05519715 0.045566674 0.1008591 -0.057063147 0.09194893 0.09101903 0.071033835 0.3500215 -0.006997868 0.1687962 -0.14327283 -0.40803474 -0.058791693 0.023756681 0.21511376 -0.26080498 -0.17657448 -0.051436845 0.15069972 -0.07207292 0.13989644 -0.12727645 -0.12961921 -0.04200892 0.11844963 0.3133531 -0.11295635 0.08997803 -0.24247059 -0.019132996 -0.10276322 -0.054296713 -0.17944953 0.025855577 -0.002917176 -0.05697591 0.21568456 -0.10245207 -0.002092281 -0.22518103 -0.039653216 0.017311396 -0.15584813 0.061879184 -0.16236061 0.030449193 0.008911449 -0.10860504 0.09129825 0.3134974 0.16352049 -0.090173125 -0.033830855 0.097435825 0.1782529 0.13114253 -0.13009736 -0.050797448 -0.16076957 0.012139202 0.061028764 0.06864908 0.15845811 0.24305072 0.11428335 0.09098724 -0.0047352333 0.13313965 0.14815965 -0.050628457 0.029996552
12 0.051251665 0.027121156 -0.0941721 -0.053932462 -0.07974292 0.016011905 -0.015102976 0.0942952 0.23422512 -0.12577379 -0.17830805 -0.17015663 -0.1335077 -0.044252507 0.029620733 0.21118952 -0.1254861 0.13091508 -0.16958123 -0.23091154 0.11112565 0.18026267 -0.063899845 0.120014645 -0.09267817 -0.10983992 -0.22590977 0.1431227 -0.011106682 0.19232431 -0.08845372 0.023567326 -0.11710146 -0.020298619 -0.012293028 0.0740578 0.06103161 -0.15679705 0.14691219 0.17113873 -0.03689269 -0.0829015 -0.045070246 -0.047833994 0.026085665 0.034952343 -0.05826299 -0.111993715 0.11489277 0.038746417 0.0084612705 -0.027381675 0.23481093 0.07707543 0.10029938 -0.13282715 0.07690383 -0.059766043 0.12667176 0.03423736 0.027313069 0.00091439346 -0.02439638 0.06599476 0.19607915 -0.018354883 -0.07291696 -0.02736365 -0.19565734 -0.046071116 0.07145831 0.26979855 -0.18119645 -0.036349688 0.034306712 0.29807913 -0.09402952 -0.023452777 0.0101194475 -0.20177 -0.24053553 0.13890156 0.22743122 0.016379796 -0.0056112567 -0.065603375 -0.020453317 -0.073449165 0.06868856 0.13378097 -0.29463124 0.03387314 0.07256127 -0.13696983 -0.10552129 -0.19555973 -0.29314935 -0.26716945 0.04311112 -0.108175546 0.03614672 -0.2655196 0.20236713 -0.14502913 -0.2294647 0.14953063 0.2479991 0.015695598 0.14289795 -0.04941264 0.066429436 0.1695581 0.1147032 0.09196345 0.00040388462 -0.011931334 0.004913808 0.18871236 0.02277043 0.013230004 -0.013456064 0.20571907 0.049770355 -0.23884258 0.029596603 -0.07430798 0.11671222 -0.09624906
25 0.124637984 0.067714155 -0.08442119 0.07543384 -0.069569245 0.09700991 -0.13891178 -0.08900606 0.17849894 0.12925394 0.171047 -0.2023203 -0.16444159 0.09050111 -0.045821715 0.086448655 0.07972226 0.010503201 -0.10738142 -0.070951365 0.20607492 0.018750275 0.08006781 0.31351033 0.17173485 0.012476883 -0.34444678 -0.095643565 -0.06709367 0.11580062 -0.23855937 -0.15546787 -0.10777296 -0.17148076 0.049840014 0.26713246 0.17721209 0.010139413 0.030826861 0.22523439 -0.0059112334 -0.14357074 -0.05972308 0.05249368 0.066546045 0.13786615 0.01742496 -0.032245018 -0.03267463 -0.15402323 0.07917064 0.15789153 0.3152455 0.07966943 0.17865536 0.09101408 0.01820387 -0.1398278 -0.13344069 0.0068670055 -0.09718615 0.05819345 -0.03636686 0.21737264 0.16335365 -0.19427757 -0.28819692 -0.18982707 0.02854283 -0.014392706 -0.05158948 0.19328165 -0.09825788 0.06845504 0.12915161 0.14770819 -0.13021435 -0.06864534 -0.009216604 -0.22286601 -0.1186677 0.022356447 0.18447313 -0.12222315 -0.036671303 -0.1296552 -0.027744679 -0.27400818 0.021056354 0.08295964 -0.14786212 0.059933435 -0.0034337924 0.019149693 -0.16516407 -0.104277186 -0.20635448 -0.23755087 0.01722388 0.13803649 0.06555026 -0.1953501 0.12532079 -0.3559412 -0.25536704 0.07434418 0.3217147 0.14831112 0.011459436 0.11180764 0.11988743 0.19465946 0.090254195 -0.03399326 0.1713615 -0.18308055 0.01739907 0.16686226 0.003908837 -0.023747832 0.115461 0.20780241 -0.12538683 -0.088709064 0.03387323 -0.10974896 -0.24394612 -0.0029765
3 -0.11374709 -0.080244936 -0.3093027 -0.23118228 0.14496216 0.061684422 0.006646932 0.028623223 0.17292048 -0.001868268 -0.31129885 -0.109109744 0.0011890436 -0.08339417 -0.08963529 -0.27139744 0.39037102 -0.13862388 0.06217736 0.020325549 0.28941017 -0.022146607 0.105075315 0.1780364 -0.15996441 -0.15139997 -0.2654391 -0.1414868 -0.0816151 0.3793629 0.072863884 0.2617616 -0.2567573 -0.13495785 0.013794222 0.06645897 -0.27644938 0.026507095 0.22836961 0.1869729 -0.02517621 -0.3842992 0.10408829 0.22416618 -0.18666245 0.03171408 0.3471458 0.28644663 -0.17990978 -0.10663465 -0.0005051651 -0.25437605 0.3355793 0.07789322 0.060450085 0.031320952 -0.09983133 -0.13492031 0.27032968 -0.1838688 -0.010346529 0.24091512 0.093917824 -0.049797244 0.1107058 -0.23338825 0.15500022 -0.005497735 -0.080466874 -0.02126816 0.25707442 -0.10970516 -0.35143384 -0.020505967 -0.048386455 -0.12514359 -0.015132076 0.26723513 -0.33081916 -0.080968276 -0.19050384 0.115805835 0.2869755 -0.06984682 0.28244686 -0.110849835 0.060302828 -0.54064876 0.020798812 -0.344139 -0.15125467 0.34155992 0.15802853 0.32054093 -0.0031021172 -0.30900028 -0.6565595 -0.17245942 0.30078715 -0.13409808 0.058017887 -0.36779743 0.058602 -0.35923898 0.02870385 0.08390281 0.11778846 0.36667436 0.25366905 -0.06827557 0.03048568 0.1379781 0.08125712 0.17459935 0.1778404 -0.3809504 -0.118874416 0.22895657 0.34704578 -0.051819272 0.2625834 0.2645583 -0.11239732 -0.38806346 -0.08482486 0.036295254 -0.05183436 -0.023422359
7 0.012935316 0.032644108 -0.15610152 -0.033369128 -0.037308745 0.027496984 -0.054151263 -0.048833255 0.16008747 0.023475468 -0.068444945 -0.1287596 -0.077449515 0.0150673725 -0.04432826 -0.0075768502 0.09329095 -0.030666096 -0.073431686 -0.102164745 0.1751028 0.0393611 0.07238049 0.19187315 0.044206414 -0.03908365 -0.20891222 -0.05418563 -0.04812885 0.16975798 -0.14679553 -0.0013498547 -0.11558661 -0.11707531 0.029885445 0.20069553 0.012822075 -0.05495163 0.099396236 0.17673138 0.01924759 -0.15942097 -0.01058375 0.09680696 -0.038696036 0.070858106 0.072489366 0.024430502 -0.06595422 -0.114411205 0.034479212 0.031370103 0.26967564 0.04495776 0.1328506 -0.007805715 0.00791233 -0.099689476 0.013593368 -0.04709458 -0.029220182 0.09339972 -0.006703816 0.097483 0.18110034 -0.14625344 -0.09779055 -0.15717986 -0.09910412 0.0034133825 0.039340883 0.11413242 -0.15917604 0.00094686553 0.05603068 0.16023584 -0.13649306 0.08397318 -0.09703101 -0.16361716 -0.15904284 0.06778926 0.21397285 -0.09060241 0.036923245 -0.1283445 -0.0035115648 -0.2616019 0.050189495 -0.01012828 -0.15192987 0.10761273 0.04979353 0.09228609 -0.10711102 -0.11185491 -0.2710791 -0.22166443 0.09857575 -0.019040108 0.08183435 -0.23412716 0.14959876 -0.2727697 -0.13416182 0.03494165 0.2393758 0.18970014 0.07409416 0.07631833 0.069413066 0.15694828 0.08190003 -0.014050921 0.117717564 -0.1693241 -0.01255628 0.13803379 0.08412989 -0.01971163 0.16126701 0.17306155 -0.100908585 -0.15687558 0.01301243 -0.014182449 -0.07326376 0.0058583673
27 0.09606904 0.07961966 -0.14196603 0.07593733 -0.043436103 0.09894266 -0.150132 -0.109002955 0.15595628 0.12082784 0.14669934 -0.16673362 -0.11328056 0.11217283 -0.07460755 0.0063433293 0.16842459 -0.0155244265 -0.08596857 -0.05159322 0.19224247 0.00966209 0.08299436 0.28584215 0.17663486 0.035864376 -0.27463776 -0.11889897 -0.08666647 0.14383 -0.24223636 -0.17012054 -0.12126018 -0.22673035 0.051933628 0.28046352 0.21463075 0.027031047 -0.006692674 0.18887225 0.016461615 -0.14211096 -0.05997347 0.050547153 0.032378536 0.15011695 0.03433491 -0.052443136 -0.044078987 -0.14206125 0.02475289 0.16804194 0.3517541 0.085799865 0.1510841 0.15533197 -0.004078921 -0.14587615 -0.13493781 0.0039278204 -0.11432785 0.076134585 -0.0029118913 0.21051084 0.19590299 -0.19121979 -0.22930212 -0.21348639 -0.01520206 -0.02303174 -0.039257385 0.17545165 -0.13104533 0.03729704 0.10735133 0.12718587 -0.11735634 -0.013942639 -0.04965156 -0.21282093 -0.08573245 0.018335085 0.21730703 -0.13311875 -0.014300832 -0.15898997 -0.024374032 -0.28953058 -0.0019731002 0.013798067 -0.084798686 0.07403348 -0.019530816 0.0929302 -0.1599235 -0.06024331 -0.21179228 -0.19596246 0.025239192 0.10972528 0.062264845 -0.16599962 0.099217504 -0.33661944 -0.21421866 0.06570969 0.32785046 0.19711201 -0.030087981 0.11363957 0.13569453 0.18539867 0.090465754 -0.07226069 0.16271272 -0.22060902 0.0012773478 0.13027014 0.01677789 -0.011092826 0.17989434 0.19348031 -0.12414319 -0.05696388 0.038711574 -0.0652295 -0.2577332 0.0060645486
22 -0.039600804 0.010835169 -0.37607217 -0.087871626 0.007245806 -0.02528386 -0.055501662 -0.031837363 0.10219633 -0.18228531 -0.28448275 0.027089396 0.19817819 0.22339624 -0.16496934 -0.13266669 0.3030843 -0.016088855 -0.07226376 -0.12605253 -0.035893288 0.15601824 -0.08988587 0.01301391 -0.09524764 0.02467771 0.056114096 0.093924776 -0.033225358 0.2988422 -0.17648117 -0.11315349 -0.13356382 -0.28293186 0.031467687 0.06262211 0.34406048 -0.100824475 -0.044011235 0.041144323 0.14107181 -0.0557491 -0.056688786 -0.10397213 -0.06524685 0.07186051 0.04128431 -0.22540376 0.16128775 0.13326497 -0.35335675 -0.03592452 0.463673 0.12276511 -0.06986218 0.2514179 -0.0019248129 -0.054206572 0.096361846 0.07491422 -0.0517874 0.10121921 0.11314491 0.029105315 0.37118456 0.0033129966 0.25184235 -0.14425719 -0.4656686 -0.06876156 0.029241504 0.20488441 -0.28102702 -0.19975466 -0.10428758 0.15876907 -0.07899347 0.19968243 -0.17137076 -0.107148826 -0.015859539 0.11628484 0.32740292 -0.110922426 0.13290597 -0.23059422 -0.032012947 -0.090189286 -0.028321143 -0.23448743 0.05868736 -0.002251269 -0.04980131 0.23474313 -0.07815537 0.010669482 -0.24064526 -0.015474027 0.050956983 -0.21412459 0.0793014 -0.16974857 0.028810686 0.06596849 -0.08334893 0.089508384 0.28659704 0.16925663 -0.08763837 -0.054223217 0.10142308 0.16845858 0.14542465 -0.12616606 -0.08964896 -0.16090582 0.027425429 0.049174655 0.09019281 0.15392095 0.25158003 0.10591275 0.11714496 -0.005617736 0.14492847 0.17334944 0.0033946645 0.017896824
5 -0.016532656 -0.0021573214 -0.18205315 -0.09964123 0.019884361 0.03308692 -0.02368738 0.0023420085 0.16138218 -0.012883071 -0.15127634 -0.1165499 -0.051527333 -0.02914038 -0.037950415 -0.056891814 0.1409258 -0.03363407 -0.04016232 -0.074864484 0.18450029 0.031270687 0.055424053 0.15869151 -0.041241176 -0.07021261 -0.2079127 -0.048426352 -0.045701284 0.2213675 -0.054571047 0.08335462 -0.14677605 -0.10281149 0.018353404 0.123553075 -0.06601489 -0.039556567 0.13820654 0.16476403 -0.00063911505 -0.1984432 0.019225687 0.10470947 -0.07308543 0.050443735 0.13323542 0.08146174 -0.062120005 -0.073378354 0.014878595 -0.06885882 0.26436064 0.055125985 0.090441205 -0.0069479584 -0.01705368 -0.09234104 0.108801074 -0.07349436 -0.012842454 0.11523463 0.019583626 0.042761154 0.14388132 -0.13853925 0.0018428809 -0.073380366 -0.09720027 -0.014912828 0.10824053 0.054575317 -0.2104796 -0.013804026 0.010880303 0.0739844 -0.07728788 0.11384356 -0.14404497 -0.124914415 -0.16670556 0.08175872 0.22100395 -0.055822883 0.107339814 -0.09837207 0.0122268405 -0.2953559 0.03361269 -0.09295945 -0.15645976 0.16101839 0.08267092 0.123628706 -0.067253664 -0.17766428 -0.37029755 -0.19278114 0.13783857 -0.061622094 0.06357248 -0.25584945 0.11291981 -0.25195745 -0.08304256 0.06338731 0.17876764 0.20447822 0.13053529 0.004480502 0.05399014 0.13890663 0.07533632 0.06395359 0.112019755 -0.19495998 -0.045223378 0.16019554 0.1492299 -0.013468343 0.15342784 0.18966581 -0.07154668 -0.2256677 -0.015936738 -0.010069118 -0.03534783 -0.013854409
19 -0.05555209 0.0525269 -0.40379867 -0.009720476 0.03998726 -0.0115862405 -0.016902398 0.028424468 0.025072766 -0.23324454 -0.3214494 0.1066407 0.17573002 0.23552018 -0.15315457 -0.1410641 0.3538078 0.022027124 -0.07943121 -0.06410686 -0.12853707 0.14620556 -0.14103517 0.021424033 -0.17169821 0.0008134942 0.08793029 0.088747315 -0.088671625 0.32781124 -0.121414624 -0.110157244 -0.19385447 -0.37973487 -0.018152716 -0.032843433 0.4476513 -0.111418955 -0.15469056 -0.0009310262 0.13561776 -0.06636551 -0.09196655 -0.1474384 -0.062802285 0.1450917 0.0056414297 -0.25703582 0.2957083 0.17238823 -0.3953095 -0.055582397 0.50678736 0.18401836 -0.12127362 0.32164004 -0.020713205 -0.02221188 0.14097896 0.18673186 -0.036600348 0.13356973 0.14839458 0.044141214 0.39863268 0.059315212 0.31991953 -0.048684154 -0.5472173 -0.09411921 0.1322487 0.24640939 -0.39539447 -0.27246338 -0.075808875 0.109908774 -0.004076343 0.14061324 -0.15552656 -0.13318615 -0.08619719 0.20088725 0.40753993 -0.081569076 0.14856872 -0.2960421 0.020848677 -0.08479806 -0.15194356 -0.27256972 -0.008749905 0.021216035 -0.059793282 0.28013936 -0.09240965 -0.06473715 -0.34986517 -0.00043060048 -0.007957128 -0.23776713 -0.0016847635 -0.17681468 -0.014197224 0.076704696 -0.07203515 0.19250706 0.38908163 0.16621964 -0.07836303 -0.15437873 0.088007495 0.2156344 0.14259444 -0.10824308 -0.103405826 -0.18274128 -0.049334608 0.09099841 0.12567091 0.25759986 0.28065646 0.14428592 0.20029268 -0.037059993 0.12571152 0.23399399 -0.014037285 0.02446374
9 0.041291777 0.061756738 -0.15383068 0.007700179 -0.0731439 -0.0036730245 -0.05994046 -0.017860284 0.16900045 -0.042719357 -0.096580334 -0.100777015 -0.040064912 0.08356123 -0.031068537 0.06564033 0.036824185 0.03816508 -0.12939946 -0.15354821 0.09800541 0.11065067 0.008643424 0.17560405 0.022152677 -0.02924963 -0.17163286 0.044114433 -0.04097718 0.165634 -0.19952911 -0.07336788 -0.08014665 -0.14060718 0.031068295 0.16928717 0.14375392 -0.119832925 0.039669372 0.1584771 0.070428714 -0.08244805 -0.04261955 0.0024970428 0.0005365197 0.060133267 -0.011099416 -0.10750807 0.051766396 -0.035341803 -0.058604673 0.03846348 0.29202616 0.06892147 0.10146565 0.015326213 0.04766294 -0.06455417 0.01242885 0.046387292 -0.020517135 0.064365074 -0.0058958973 0.10124957 0.24619769 -0.06882993 -0.06254382 -0.14107668 -0.21383066 -0.019885873 0.009166946 0.20718795 -0.16446729 -0.05751114 0.03354984 0.24290429 -0.14793839 0.04721801 -0.040863268 -0.17327362 -0.17290246 0.09176263 0.23670876 -0.077922724 -0.014974794 -0.15600222 -0.0137619255 -0.14699654 0.02457417 0.045270905 -0.1480978 0.022203693 0.021655222 0.0427654 -0.14657906 -0.084452175 -0.2050577 -0.20350915 0.0405224 -0.054804355 0.086628854 -0.22545311 0.14598215 -0.15932107 -0.18524179 0.048818823 0.2866038 0.10669863 0.040121716 0.030620914 0.05394849 0.18041529 0.10710637 -0.06248885 0.03802435 -0.11369706 0.037938755 0.13608363 0.016469982 0.061182734 0.15092187 0.16373445 -0.012743546 -0.10493744 0.07854604 0.010746699 -0.0460525 0.004196107
14 0.09954765 0.03721288 -0.05109423 -0.02212441 -0.12292193 0.036992654 -0.041814655 0.1108715 0.2865446 -0.12626532 -0.11642611 -0.22829384 -0.1877227 -0.038812034 0.03971449 0.31665316 -0.1965697 0.1935836 -0.2258733 -0.28444675 0.12366605 0.21558475 -0.084685646 0.16579229 -0.059305206 -0.120568626 -0.2949357 0.18510269 -0.014269128 0.18918426 -0.13973077 -0.044978388 -0.11928108 -0.023981888 -0.011226393 0.10811563 0.14782035 -0.17882843 0.15398122 0.208476 -0.05439254 -0.06058369 -0.07180189 -0.096353784 0.078460455 0.053075913 -0.122068845 -0.18098152 0.1551005 0.04491939 0.02166413 0.036294006 0.28251946 0.092239015 0.13294126 -0.14024346 0.11205081 -0.08998154 0.08983054 0.07138259 0.01502669 -0.033007987 -0.044975128 0.12441644 0.22297807 -0.021714212 -0.18123868 -0.04350199 -0.18588056 -0.063806616 0.027770454 0.3698387 -0.17400646 -0.01845587 0.06604829 0.37979496 -0.116771996 -0.097206585 0.07276301 -0.2653191 -0.26919004 0.14684771 0.2525901 0.018103614 -0.053505756 -0.067165814 -0.03669569 -0.045419954 0.08743598 0.22810543 -0.3610165 -0.00909669 0.060375802 -0.23041472 -0.14448829 -0.20777985 -0.2899137 -0.33174762 0.0052286508 -0.07729584 0.033639424 -0.28804442 0.24514113 -0.17824675 -0.33028004 0.19270654 0.31880057 -0.030349756 0.1482904 -0.048731897 0.098961785 0.20709172 0.14483659 0.103161335 0.0065039303 0.015358512 0.030225767 0.22479588 -0.03386608 0.016079009 -0.055844434 0.24499936 0.05895792 -0.24899803 0.044307772 -0.13408153 0.10088192 -0.13426466
15 0.10877155 0.02969559 -0.057218082 -0.037621014 -0.1288383 0.038109478 -0.036775935 0.14403206 0.3190905 -0.15689158 -0.16787596 -0.24902594 -0.20042439 -0.055135693 0.061004724 0.356495 -0.23211883 0.21977657 -0.25227305 -0.32419586 0.13561904 0.2562629 -0.09940257 0.17062144 -0.10261424 -0.15669568 -0.32091197 0.22538537 -0.014730253 0.21325533 -0.12751554 -0.022467002 -0.13537565 0.0037725228 -0.026650446 0.09075689 0.12503327 -0.21078518 0.18525246 0.22543633 -0.062941335 -0.069975376 -0.078271024 -0.10883121 0.081498615 0.039561573 -0.13387924 -0.1899124 0.18204051 0.066432655 0.02660946 0.014023089 0.29218683 0.102456234 0.13858871 -0.19280975 0.12879127 -0.09092302 0.12931708 0.081433505 0.03942596 -0.029229987 -0.051615983 0.12098875 0.23641728 -0.018341042 -0.18135928 -0.016198253 -0.21766654 -0.069452085 0.050614197 0.40237993 -0.19630516 -0.0256278 0.054761402 0.42229098 -0.12745224 -0.10520736 0.08427604 -0.2856786 -0.31409314 0.17318457 0.2775988 0.037563257 -0.054271296 -0.06443713 -0.04368289 -0.040715333 0.10287155 0.26001832 -0.41867298 -0.012730729 0.08289275 -0.27190667 -0.14385767 -0.2393299 -0.33093238 -0.36780444 0.022223832 -0.103589766 0.025583154 -0.32823595 0.27604696 -0.18360977 -0.3600235 0.21916921 0.3365854 -0.043145847 0.18888092 -0.0781303 0.09829497 0.22103617 0.16080196 0.13885266 -0.009513969 0.027459044 0.031318936 0.2512528 -0.029211188 0.01386594 -0.07405224 0.27162096 0.07924607 -0.30154803 0.042298134 -0.14491242 0.14476314 -0.16008244
10 0.041446157 0.058099356 -0.13360974 0.0016387075 -0.08170698 -0.020382158 -0.05073172 0.006347441 0.1948686 -0.046596035 -0.12219899 -0.11922766 -0.06823757 0.06289699 -0.003142081 0.1001392 -0.006828538 0.05192456 -0.14068644 -0.17523645 0.11134903 0.11803143 0.015788453 0.19623266 0.009581656 -0.04848919 -0.21025978 0.05961732 -0.033704977 0.15389566 -0.19708703 -0.049091127 -0.06750569 -0.112001605 0.029623434 0.17177688 0.097511 -0.14342383 0.06742973 0.17910032 0.06869703 -0.08779935 -0.033400208 0.019066073 0.00806569 0.04085061 -0.020045679 -0.09294627 0.04729093 -0.04610263 -0.03371823 0.012614687 0.25780028 0.06966498 0.121846065 -0.044778187 0.060639754 -0.063929036 0.032035064 0.042465102 0.0019504508 0.059459716 -0.0285973 0.08940403 0.23621547 -0.06705521 -0.08635221 -0.12040632 -0.21141802 -0.020162508 0.0097771045 0.20499241 -0.15754344 -0.04883625 0.045649417 0.26351786 -0.16254908 0.040488806 -0.021335313 -0.18288884 -0.21112847 0.10180002 0.22725311 -0.06709601 -0.028751021 -0.14939018 -0.0052245464 -0.14192434 0.038164392 0.07937406 -0.18398525 0.028695768 0.04479089 0.015386829 -0.15849826 -0.11121272 -0.20965473 -0.23735856 0.04413682 -0.058787636 0.09198377 -0.25345743 0.1734318 -0.17262143 -0.19584529 0.042934462 0.27626786 0.08477841 0.0744833 0.024132852 0.03058445 0.18981169 0.11134306 -0.04652325 0.03790756 -0.09779805 0.04382437 0.16263488 0.012591151 0.060805656 0.13163269 0.16945049 -0.017852616 -0.13902397 0.07857354 -0.00054400356 -0.025970943 -0.0005964234
26 0.110872746 0.06402348 -0.116022706 0.059741814 -0.05596635 0.09390407 -0.13372411 -0.1022728 0.17791536 0.12192399 0.14123577 -0.19800973 -0.13574633 0.100514375 -0.0579286 0.04188415 0.11508827 -0.006884575 -0.097017296 -0.0683283 0.21839684 0.01790047 0.0805856 0.30987573 0.1694573 0.01171349 -0.3349942 -0.10840234 -0.07453464 0.1321195 -0.23781541 -0.15101504 -0.110542625 -0.19430074 0.056606714 0.2759235 0.16842194 0.0055609886 0.028391123 0.22441788 0.013255593 -0.15914871 -0.04824908 0.07108801 0.045082394 0.13234374 0.037503198 -0.023232002 -0.051982123 -0.15168136 0.05694747 0.13789527 0.33995676 0.08101162 0.17430504 0.10849019 0.0052388515 -0.13801609 -0.122308746 -0.0014521701 -0.096607134 0.07920704 -0.024556765 0.20092633 0.18224676 -0.20338525 -0.25160718 -0.20191348 -0.003315381 -0.014328276 -0.03765535 0.18715744 -0.12495582 0.059659485 0.11076385 0.1428502 -0.13383137 -0.02651501 -0.037716214 -0.219855 -0.120493665 0.022177596 0.20154797 -0.13172969 -0.022451254 -0.14207731 -0.021918792 -0.30201665 0.016005706 0.046416804 -0.12315093 0.07709027 -0.002292762 0.060216933 -0.16611621 -0.09553845 -0.22519027 -0.22848563 0.034542546 0.11914747 0.076429434 -0.20847616 0.1195638 -0.35576034 -0.24087825 0.06564496 0.3230667 0.18068865 0.016498182 0.111412615 0.12004645 0.20276593 0.096558385 -0.04711736 0.17468137 -0.20714822 0.016489327 0.16630597 0.022397693 -0.016185623 0.15027516 0.21320939 -0.1297273 -0.09685461 0.032600287 -0.084589496 -0.24869025 0.0033817696
23 -0.044187155 0.015733711 -0.37780002 -0.06981895 0.010647175 -0.016575173 -0.04962107 -0.032640394 0.081275724 -0.1745239 -0.27441528 0.048341278 0.19742925 0.23617685 -0.16364712 -0.1444106 0.3153137 -0.015149147 -0.07095 -0.102936834 -0.043754492 0.14112444 -0.086246274 0.023438048 -0.09781493 0.023755522 0.061199628 0.08469248 -0.047659524 0.2991145 -0.17810304 -0.120655775 -0.14174499 -0.31332952 0.024348535 0.049408745 0.36531356 -0.09359643 -0.06931053 0.032750256 0.13768926 -0.059678566 -0.05501517 -0.100246295 -0.062669136 0.08394324 0.03687272 -0.21840906 0.17736788 0.1291487 -0.36209038 -0.025429565 0.47243857 0.12562607 -0.0784217 0.27315027 -0.0031744863 -0.05760416 0.08760911 0.094723724 -0.060371123 0.114472784 0.1123167 0.04241655 0.37195396 0.004069551 0.24938062 -0.13490888 -0.46466038 -0.06451139 0.035664015 0.20193216 -0.29232258 -0.20897533 -0.096289024 0.12963697 -0.06248582 0.18655686 -0.17322981 -0.11549592 -0.01972308 0.12703237 0.33822352 -0.11638076 0.13736205 -0.24553612 -0.024626002 -0.10032295 -0.053068344 -0.24497531 0.056987084 -0.003588913 -0.06176958 0.25677285 -0.085073955 0.004627599 -0.25787005 -0.00580276 0.037350688 -0.2029388 0.06826283 -0.1640471 0.014798197 0.0582117 -0.084412746 0.098479174 0.30801725 0.17541382 -0.09523679 -0.06472725 0.099002495 0.17392679 0.14431386 -0.13362485 -0.07790595 -0.17104727 0.014743073 0.051315214 0.099501394 0.17541394 0.26792383 0.11809878 0.12279868 -0.0030164062 0.14343399 0.18754075 -0.018149134 0.028353175
4 -0.109142624 -0.08474363 -0.3103274 -0.23341566 0.15991244 0.08601163 -0.0006872462 0.016294869 0.17240876 0.017678918 -0.28469107 -0.12335034 -0.0014927736 -0.0812936 -0.09341258 -0.2805395 0.4148918 -0.14837767 0.065951325 0.03637799 0.3104743 -0.03636689 0.11841592 0.18465002 -0.14127849 -0.14734587 -0.2848348 -0.16246423 -0.083002314 0.38350403 0.079536825 0.25965336 -0.2685877 -0.14236061 0.011987128 0.075994715 -0.278983 0.054979686 0.22851405 0.19265416 -0.03290622 -0.40048254 0.10452948 0.23745827 -0.18753122 0.040409934 0.36384338 0.3085537 -0.19960096 -0.120343275 0.014340156 -0.2470918 0.34061956 0.08120269 0.063606836 0.05586432 -0.113347076 -0.14802404 0.2530577 -0.20529531 -0.02116476 0.24168767 0.094894566 -0.039407536 0.09472938 -0.2566311 0.14366731 -0.009686449 -0.04937941 -0.027865509 0.25297436 -0.120701015 -0.3501526 -0.008112149 -0.04101849 -0.14954261 -0.01099527 0.26429102 -0.33556098 -0.08078849 -0.17097746 0.102732055 0.2857573 -0.07375165 0.29743633 -0.0996039 0.059569906 -0.5694021 0.020403946 -0.35974163 -0.13962357 0.35610676 0.1551833 0.3241743 0.002372955 -0.31031194 -0.6690121 -0.17679133 0.3091966 -0.11374882 0.05766296 -0.36833507 0.05368366 -0.38869515 0.029614873 0.0912513 0.1104101 0.38734502 0.2509329 -0.056428853 0.050743822 0.1402032 0.0768444 0.19154245 0.20494705 -0.39544106 -0.13132705 0.22993563 0.35741422 -0.067343496 0.26305926 0.26529256 -0.1291876 -0.3909737 -0.0958392 0.018551178 -0.078456685 -0.02666376
8 0.028439708 0.036987007 -0.14308625 -0.017083148 -0.030676492 0.03889456 -0.06276174 -0.03480143 0.14926627 0.018017102 -0.047941145 -0.11617874 -0.08742109 0.013901331 -0.04561515 0.0025699032 0.094550885 -0.012418421 -0.07002866 -0.08822132 0.15231659 0.037314277 0.057223853 0.1821998 0.039319962 -0.035868097 -0.20614666 -0.050145403 -0.049322065 0.16307838 -0.13134702 -0.02174533 -0.12969339 -0.13528417 0.023787342 0.17799276 0.048952103 -0.052509822 0.07453088 0.16412227 0.011974875 -0.15468511 -0.022777889 0.06927539 -0.025276054 0.08679544 0.06393944 0.005497199 -0.031588536 -0.095853165 0.028153984 0.040562704 0.2774143 0.062451795 0.12345128 0.020948589 0.006740612 -0.09872133 0.009806027 -0.019323327 -0.035207648 0.08883924 1.990491e-06 0.10998837 0.18096434 -0.13032787 -0.098244786 -0.13462551 -0.096693 -0.01016288 0.041274644 0.12904063 -0.16057993 -0.006395371 0.059345428 0.14632662 -0.11052771 0.05725753 -0.08555234 -0.1701728 -0.15093309 0.07309051 0.21926206 -0.07541979 0.034168154 -0.12908271 -0.00775787 -0.25103542 0.03129989 -0.008211153 -0.15131477 0.104870446 0.03460253 0.07247463 -0.10834716 -0.11899213 -0.274237 -0.21039198 0.0748406 -0.010029982 0.06071002 -0.21403766 0.13285115 -0.26011643 -0.14426003 0.055888522 0.2508223 0.17244077 0.066582166 0.05234415 0.07413773 0.1544876 0.08011417 -0.0032168305 0.11083957 -0.16357292 -0.020847885 0.14029308 0.07037791 -0.010931969 0.14324743 0.17480004 -0.07937622 -0.15244 0.00948131 -0.019793967 -0.08424989 -0.0042912955
28 0.08969726 0.07000311 -0.14106801 0.050328612 -0.044870798 0.09259361 -0.14039975 -0.0851684 0.17112154 0.08845261 0.10674475 -0.1702359 -0.107348844 0.096375994 -0.07158758 0.03870254 0.139235 0.004934259 -0.10272921 -0.074964434 0.18025 0.03833248 0.06097128 0.25999263 0.1377131 0.019455703 -0.27017027 -0.08158023 -0.07130399 0.15542014 -0.22802494 -0.15216932 -0.12701385 -0.19607061 0.040956866 0.2523106 0.21231923 0.004904599 0.020247387 0.18583243 0.003329175 -0.13263255 -0.058706425 0.027283853 0.040420134 0.13957267 0.029463846 -0.06763097 -0.017009446 -0.10812355 0.01085074 0.1466825 0.3492706 0.08861403 0.13531 0.13010757 0.011712299 -0.14122371 -0.09776644 0.0071601043 -0.10553005 0.059743166 -0.0045412164 0.1977376 0.20028262 -0.16840446 -0.21095805 -0.18873997 -0.03361582 -0.032265842 -0.035951674 0.19751315 -0.13852854 0.027979046 0.09026726 0.1477383 -0.10867555 -0.022006573 -0.03896288 -0.2055985 -0.09731627 0.0321569 0.22413056 -0.117479324 -0.0034995792 -0.14557141 -0.030950487 -0.25778103 0.0055712066 0.026371878 -0.1090886 0.061980996 -0.008010341 0.055109337 -0.14696993 -0.07718234 -0.22409248 -0.20609356 0.030404484 0.08497096 0.060241796 -0.17483993 0.10832056 -0.30570126 -0.22104873 0.08590084 0.31697834 0.16999501 -0.013148707 0.08973913 0.1358131 0.1805144 0.098040625 -0.053059213 0.1368688 -0.19791844 0.00075090275 0.14055008 0.021258498 -0.011992553 0.1492802 0.19246414 -0.096313715 -0.07930935 0.046813753 -0.073262304 -0.21306652 -0.01559755
1 -0.076960675 -0.04726794 -0.23180714 -0.1835708 0.088702984 0.05014464 -0.001554492 0.02149068 0.16980432 -0.005665904 -0.24357788 -0.115666226 -0.036447342 -0.086062685 -0.05638296 -0.16456515 0.25116095 -0.093637414 0.018606067 -0.031572144 0.25772712 -0.0034648445 0.0919614 0.16382581 -0.10900683 -0.12745129 -0.24483876 -0.09461694 -0.059068803 0.30686486 0.026734652 0.2021989 -0.20171228 -0.100130975 0.008826248 0.09897334 -0.22572477 -0.00978266 0.21014419 0.18232098 -0.026244972 -0.30834088 0.07211477 0.1866029 -0.13962387 0.03235745 0.25839218 0.21895233 -0.1479085 -0.10737052 0.029801108 -0.17935322 0.27917728 0.06174114 0.090204805 -0.020422097 -0.057092674 -0.11419983 0.20603961 -0.15371694 0.002015881 0.1808648 0.053261187 -0.015769243 0.11440782 -0.1934287 0.0721429 -0.037896756 -0.075539544 -0.0095921885 0.19613111 -0.04632299 -0.2846963 -0.00923502 -0.021660365 -0.021827172 -0.047220383 0.20052363 -0.24837446 -0.10051456 -0.18505655 0.09521942 0.25246987 -0.054980926 0.20077331 -0.08686525 0.039206553 -0.4384247 0.042010404 -0.21794839 -0.16432501 0.26967785 0.12982243 0.21951397 -0.021992862 -0.25313833 -0.53076583 -0.1947672 0.24078268 -0.09658516 0.067008376 -0.32623297 0.09654148 -0.3219931 -0.020759113 0.06478191 0.1260783 0.29361713 0.2163426 -0.024090506 0.034228455 0.13006262 0.07700305 0.14286458 0.16192892 -0.28723285 -0.08826442 0.20263527 0.26547995 -0.055393457 0.20373702 0.22903305 -0.102835186 -0.33336735 -0.060341693 0.00782794 -0.029448027 -0.021660596
20 -0.044933986 0.059234377 -0.37463844 -0.003330198 0.020943664 -0.012466802 -0.011138622 0.063338704 0.05116792 -0.25493395 -0.3471081 0.09281348 0.13022938 0.21027073 -0.1198788 -0.07906723 0.27944177 0.06764746 -0.10944424 -0.0881389 -0.12780964 0.17163658 -0.15833998 0.015000053 -0.19741724 -0.020086922 0.076950446 0.12455652 -0.08056214 0.31192926 -0.1076815 -0.092282705 -0.1892324 -0.34250325 -0.029921854 -0.047310743 0.4296136 -0.14358743 -0.13297392 0.010852707 0.117368154 -0.052081548 -0.098389044 -0.15837982 -0.042178076 0.13326432 -0.027068695 -0.2759232 0.3188145 0.17480434 -0.36931607 -0.060203955 0.47598258 0.17910229 -0.10514961 0.26284936 -0.0070634573 -0.007039775 0.15630822 0.20232806 -0.006134473 0.11606592 0.12951784 0.0506955 0.39118588 0.07897734 0.29250672 -0.026390608 -0.5504645 -0.09930006 0.13929795 0.27069306 -0.39135963 -0.27268198 -0.06178175 0.15327823 -0.009339339 0.11245231 -0.11597392 -0.14842495 -0.124516904 0.22299793 0.40807548 -0.048637502 0.12408716 -0.28082004 0.01322228 -0.056812923 -0.14169835 -0.21220241 -0.058520406 -0.0014864488 -0.042383596 0.2155758 -0.08960742 -0.09430698 -0.35626885 -0.030938907 -0.008027509 -0.25161585 -0.004992269 -0.20035715 0.015937783 0.085506015 -0.09065571 0.21103145 0.3928236 0.13420627 -0.05419592 -0.1619893 0.0772584 0.22305506 0.15147568 -0.08807124 -0.119804956 -0.14821275 -0.048261996 0.10739101 0.11030506 0.25087863 0.24083929 0.15376052 0.21505545 -0.06283039 0.118872285 0.20799623 0.037215225 0.009744646
21 -0.040019486 0.044172388 -0.33805394 -0.020718953 0.030162461 -0.0079594245 -0.024253737 0.016787522 0.04636526 -0.18892714 -0.2734714 0.07818718 0.13958496 0.1953512 -0.12779212 -0.11541712 0.29453352 0.019532038 -0.07444598 -0.064263105 -0.08524154 0.12507312 -0.10696281 0.0329182 -0.14284395 -0.00011017587 0.05718186 0.07424328 -0.068182796 0.28370735 -0.108876884 -0.08465705 -0.16913019 -0.31310898 -0.006650897 -0.013000576 0.3624322 -0.09537411 -0.11073718 0.013131977 0.11398187 -0.06853926 -0.07193425 -0.11578913 -0.05275485 0.11735255 0.018393984 -0.20938931 0.23464116 0.13579407 -0.31860828 -0.04119459 0.43442833 0.15170774 -0.08985871 0.25591874 -0.01746985 -0.02281791 0.12217387 0.14172626 -0.030740522 0.109477505 0.113690294 0.038830083 0.33348733 0.037583075 0.2548659 -0.05339102 -0.45234123 -0.07391926 0.10775768 0.2052162 -0.3319802 -0.22348629 -0.060885806 0.104111135 -0.018086458 0.12145444 -0.13347918 -0.11739788 -0.08544935 0.16724683 0.35043648 -0.06992611 0.124521606 -0.2525927 0.011167757 -0.09139101 -0.11593706 -0.22328517 -0.016135316 0.023281844 -0.040656622 0.23320362 -0.08702354 -0.06278488 -0.31553134 -0.02288474 0.0073175486 -0.20213164 0.010919237 -0.16709746 0.002781437 0.04762772 -0.06974378 0.16039616 0.33526462 0.14926198 -0.052712213 -0.12237013 0.0756932 0.18309183 0.13238497 -0.0888201 -0.0745094 -0.16329736 -0.036458317 0.085325025 0.10654816 0.20448168 0.2365515 0.13668536 0.15704493 -0.048407994 0.10520004 0.18163109 -0.010966921 0.01981676
11 0.046162315 0.06437631 -0.12838516 0.014102151 -0.07684299 -2.9257266e-05 -0.07247035 -0.022806026 0.19299695 0.0021869866 -0.06629068 -0.1317206 -0.08014193 0.0688956 -0.015788995 0.07606666 0.02481098 0.02647127 -0.12747994 -0.14544345 0.14847559 0.09265304 0.045536716 0.23145151 0.053141225 -0.03768764 -0.23471905 0.01608865 -0.048759494 0.15129392 -0.20846075 -0.06604302 -0.07885949 -0.12711014 0.039761174 0.20882502 0.09259535 -0.10671942 0.06371067 0.19086306 0.065188274 -0.11138275 -0.03559738 0.05041531 -0.0007238362 0.058463868 0.0050560976 -0.06440043 0.0033099474 -0.08345209 -0.007397415 0.036421016 0.2709228 0.06606871 0.14489157 -0.022273948 0.042206846 -0.0802188 -0.003609875 0.022914141 -0.022848023 0.07353329 -0.027805569 0.107784495 0.2254144 -0.1078554 -0.118800156 -0.14425029 -0.16234012 -0.011867788 0.005068156 0.18335389 -0.14790435 -0.024041286 0.05616808 0.24277899 -0.17193954 0.041438527 -0.036373857 -0.19213061 -0.20322567 0.08561114 0.22386844 -0.08878148 -0.028267395 -0.15039223 -0.011638414 -0.19513954 0.035003863 0.07258014 -0.17317642 0.055019043 0.035650715 0.042935237 -0.16189265 -0.10758819 -0.22123942 -0.24166995 0.05899679 -0.025454024 0.09739023 -0.2539899 0.17396572 -0.23005183 -0.20164317 0.03072391 0.2918237 0.119371004 0.067617364 0.050194114 0.045647513 0.18851753 0.10249394 -0.055901904 0.08116405 -0.13378355 0.041149963 0.1623491 0.017866885 0.03407894 0.15814331 0.18711486 -0.05833724 -0.1304976 0.07134258 -0.011382929 -0.07439985 0.00480005
13 0.060308076 0.028217088 -0.07642641 -0.033797126 -0.06744671 0.038253598 -0.039786786 0.05541853 0.22921906 -0.053305384 -0.08641139 -0.18733072 -0.15246078 -0.034835167 0.017028356 0.17188779 -0.08107302 0.09517435 -0.15053189 -0.19216245 0.15670243 0.13164715 -0.012807407 0.16970347 -0.026768057 -0.088471875 -0.26969194 0.07328639 -0.02736782 0.1699467 -0.10921745 -0.0032858085 -0.11852927 -0.047346614 0.0060806945 0.122574255 0.05368756 -0.114934914 0.14098884 0.19639882 -0.038149714 -0.115019254 -0.03537538 -0.005647546 0.025134405 0.057235282 -0.02996461 -0.06155287 0.057434008 -0.024826257 0.04790614 0.010825867 0.2530967 0.07343347 0.12495408 -0.09814823 0.06323831 -0.0880009 0.069227405 0.01694453 -0.0017222126 0.02130518 -0.033302944 0.10187619 0.16927224 -0.07272451 -0.14001521 -0.06394511 -0.1115951 -0.03308916 0.04659576 0.23386668 -0.16062032 0.0037792348 0.058113147 0.24944513 -0.1004729 -0.026337393 0.002051776 -0.20580316 -0.21486385 0.10230215 0.20672254 -0.018463353 -0.0072305454 -0.06976593 -0.015423153 -0.14512506 0.06828758 0.11732969 -0.2703695 0.053025134 0.064060256 -0.101220295 -0.11451858 -0.17885865 -0.28531083 -0.27327317 0.044056106 -0.040854983 0.042541288 -0.24916732 0.18808286 -0.21821214 -0.22968218 0.12793462 0.2524053 0.054479133 0.13541034 -0.009359002 0.075145185 0.17252705 0.108684115 0.08324455 0.05990345 -0.059585772 0.009842125 0.19182861 0.02262378 -0.0077995267 0.012242746 0.20984682 -0.010812108 -0.21983454 0.012882665 -0.092947245 0.025150424 -0.07655332
16 0.11833851 0.038028475 -0.029522214 -0.033024896 -0.14836746 0.03472406 -0.02906096 0.17393766 0.33615646 -0.18738365 -0.18136457 -0.25955966 -0.22518179 -0.08056285 0.07176878 0.41376504 -0.2940304 0.25406858 -0.277222 -0.35264552 0.12092126 0.28592575 -0.1313538 0.15253429 -0.12006693 -0.1669888 -0.3178229 0.2668927 -0.0026488537 0.2123684 -0.11754505 -0.015225459 -0.13417765 0.033478748 -0.034527086 0.07002904 0.1410249 -0.23635457 0.19239639 0.22183324 -0.085113466 -0.045416873 -0.0830502 -0.14142263 0.09603902 0.03740047 -0.17334825 -0.2216519 0.21911328 0.09545311 0.038829103 0.014507359 0.2791995 0.10647544 0.13867587 -0.22582155 0.14448354 -0.07640591 0.14628963 0.09588786 0.05181583 -0.05226285 -0.061317757 0.115259334 0.24162312 0.0093585355 -0.18434921 0.0029236325 -0.23414467 -0.079502806 0.053884678 0.44315544 -0.18874116 -0.03317461 0.05985154 0.46380234 -0.123459436 -0.13849926 0.11502402 -0.300392 -0.33226016 0.18402818 0.2799065 0.063819796 -0.067772046 -0.04613867 -0.049811672 -0.0011746151 0.105737746 0.30459923 -0.45747796 -0.02337125 0.08019454 -0.3314195 -0.14915417 -0.2616165 -0.33282858 -0.3868161 0.0054987003 -0.11319441 0.01784823 -0.3369033 0.29014754 -0.16102038 -0.38501084 0.24229403 0.34362933 -0.08851436 0.20047645 -0.09640567 0.098575704 0.22144 0.15971966 0.15969686 -0.025484513 0.06775825 0.037956823 0.26493713 -0.051189408 0.011410295 -0.11384939 0.27370802 0.10390378 -0.31847572 0.042057294 -0.16746104 0.18928736 -0.18060175
