107 128
81 -0.10645557 -0.19316536 0.25407463 0.14681077 0.42737058 0.35543185 0.30768508 -0.14771177 -0.06277932 0.29650104 -0.31826627 -0.085856296 0.42080298 -0.04493358 0.24081303 0.07601749 0.10676787 0.2663375 -0.014868883 0.10656 0.22196838 0.3629295 -0.30039018 -0.0811678 -0.21737812 0.0737773 0.04502158 0.037492495 -0.2561729 0.06747642 0.2708762 0.099418454 0.048963133 0.24393103 0.07389588 -0.3587382 -0.20951366 -0.1887774 0.24108993 -0.024191322 -0.00721866 -0.2640848 0.004605223 -0.08196493 -0.21345145 -0.1384477 0.20964296 0.13454822 0.21378821 0.18603283 0.14922787 -0.2614323 0.11685958 -0.029173631 -0.21926834 -0.0028414086 -0.025329443 -0.059098773 0.006245672 -0.44023925 0.05202785 0.1331803 0.24987091 -0.19161992 -0.34843174 0.001168598 0.18852738 0.22000384 -0.18361045 -0.08082326 0.10020373 -0.038595166 0.20552985 -0.058883507 -0.21794751 0.15518446 -0.41953415 0.14142095 0.32381296 -0.20686248 0.1767049 -0.10096978 0.15329571 -0.31369627 0.13622694 0.38972455 0.25837678 -0.09387163 0.07478063 0.12010816 0.014119994 0.03009993 -0.109410755 0.2700651 0.15231112 -0.04531381 0.14384446 0.12778184 0.28094527 -0.23903367 -0.121638194 0.22724612 0.12766534 0.14180332 0.2783787 0.43453214 0.110311024 -0.47259018 -0.31006002 0.27496356 0.0011272136 0.33149585 0.110876866 0.10926703 0.057440024 -0.023898942 0.048446808 -0.007949265 0.37716073 -0.10563302 -0.40040964 0.17043614 0.02118702 -0.13563491 0.006140654 0.3398834 0.106986836 -0.13660344
55 -0.20726913 -0.18007968 0.084264725 0.0527999 0.37878233 0.35643706 0.2863947 -0.091576226 -0.00017604942 0.16375798 -0.17367 -0.11686472 0.2953397 -0.03864566 0.20407091 0.142291 0.11062718 0.21574204 -0.0064559076 0.1878353 0.27295753 0.39212847 -0.24051747 -0.07252881 -0.18587486 0.24096824 0.10893375 0.022689227 -0.16236354 0.027021455 0.37209123 -0.038984664 0.019980023 0.33695307 0.13848896 -0.40340093 -0.21988074 -0.22763582 0.22526178 0.010322846 0.008859271 -0.12602349 0.035535045 -0.24430418 -0.14086911 -0.20802219 0.20398232 0.1789252 0.22749905 0.18770613 0.13712755 -0.39958358 0.09662205 -0.005664734 -0.2727805 -0.02420969 -0.20458876 -0.08225229 -0.037102897 -0.41240528 0.12062683 0.07018982 0.24656792 -0.3341906 -0.28439894 0.015407893 0.1018346 0.17507133 -0.15811953 -0.15961927 0.02682011 -0.09815338 0.18248959 -0.0154702775 -0.22434536 0.13585201 -0.44637695 0.08172929 0.26147056 -0.2194436 0.27049473 -0.12517291 0.16026737 -0.18526195 0.17975016 0.33225483 0.1492851 -0.07694928 -0.10979029 0.104287386 -0.065207124 -0.03155554 0.021844491 0.14488488 0.18009801 -0.07537552 0.14216626 0.091053136 0.18446024 -0.27748996 -0.080113776 0.27778593 0.17288326 0.07500775 0.2046273 0.34975192 0.12184412 -0.28710437 -0.28143242 0.27112103 0.0138609065 0.24554783 0.16034235 0.07413937 -0.14875531 -0.015826244 -0.03188118 0.016271189 0.32060483 -0.16965525 -0.39344338 0.14705084 0.1372582 -0.053718112 0.020399444 0.35238713 -0.0030360045 -0.19260675
6 -0.18991809 0.032123785 0.32308787 0.40633783 0.032766923 0.077846564 0.0033452874 0.022970276 -0.17879778 -0.017086323 0.022771992 -0.009005146 0.10852914 0.18257631 0.4508537 0.29890734 -0.08871417 -0.2252546 0.09479189 0.032273266 0.20939194 0.0342149 0.12730728 -0.019805208 -0.35929605 -0.0639466 -0.2675101 0.042811166 0.3652272 -0.19019817 0.12484465 -0.13973029 0.24772415 0.30767232 0.13829204 -0.21152633 -0.15331727 -0.027035136 0.123711236 0.12235286 0.06763338 0.081106946 0.17341192 -0.20629127 -0.10158041 0.31697762 -0.07925179 0.13000248 0.33108205 0.18283182 0.008098295 -0.052108437 -0.2305456 -0.14066935 -0.30813664 -0.26150104 0.2038659 -0.09450198 -0.028691981 -0.12520564 -0.1978903 0.028447393 -0.29928133 -0.20502068 -0.033987876 -0.2650906 0.03118799 -0.065757826 -0.09967335 -0.0457903 0.066648684 -0.1965314 0.15463762 0.15323354 -0.14561413 0.45250726 -0.06850158 -0.14186402 -0.07313921 0.1562945 -0.1161613 -0.3172223 -0.16889606 0.36159903 0.22796075 -0.34248605 0.002586649 0.27062657 -0.16080353 -0.368115 -0.07042068 -0.31248787 -0.01803385 -0.0114128515 0.27705798 -0.031105816 0.28189096 0.09977325 0.16658075 0.27248085 -0.15716617 -0.066789284 -0.08941768 0.003078688 -0.019872215 0.15253356 0.07532185 0.48953474 -0.03188873 0.1013117 0.034760084 0.27758694 0.37195137 0.009797132 0.11620601 0.3780527 -0.21119717 0.27176192 -0.13612247 -0.1671615 0.030271152 0.012359829 -0.010255294 0.14712395 0.23102929 0.24785323 -0.14216125 -0.058887277
35 -0.20684962 -0.08925204 0.20320496 0.35155973 0.043980468 0.009927724 0.09487275 0.17531514 -0.15531851 0.36455014 0.035877712 -0.07521792 0.21979596 0.1978513 0.3077485 0.09409142 0.18666409 -0.03880395 -0.005605903 -0.02427169 0.025042526 -0.021626595 -0.10708503 -0.037441365 -0.4328946 0.0475661 -0.1475191 0.098400176 0.18491358 -0.22321244 0.008326189 -0.20480646 0.22923769 0.06534541 0.043823 -0.47592017 0.06622072 -0.26655436 -0.0013462678 0.20649193 0.07667676 -0.17854431 0.3516686 0.022388594 -0.16623273 0.20722951 -0.20752947 0.3043461 0.29308227 0.339324 -0.028671734 0.14466155 -0.21994226 -0.24678747 -0.09054568 -0.40531516 0.14104693 -0.14402169 0.41435942 0.07797768 -0.035989136 0.015149294 -0.1370786 -0.062221665 -0.44425812 -0.2286234 -0.16314204 -0.0029090424 -0.015861966 0.019973438 0.2073354 -0.052200105 0.4125688 -0.030052807 -0.4712744 0.24126653 -0.013282252 -0.22658513 0.10945614 0.011765453 -0.04001624 -0.35196128 -0.076571696 0.10256916 0.05971512 -0.25766778 0.06673003 0.2564095 -0.0726285 -0.17130294 0.09944542 -0.23215342 -0.075536296 -0.17413843 0.39554033 0.08837762 0.25233522 -0.07292828 0.56041944 0.034487315 -0.31217095 0.14908212 -0.070203036 0.22670881 -0.07612668 0.04436268 -0.05100907 0.16407289 -0.26426172 -0.12696004 0.20088069 0.35833088 0.48981348 0.20017925 0.33367062 0.24067879 -0.17476392 -0.03722574 -0.06675602 -0.18058027 -0.04926155 -0.06898018 0.12034603 -0.007884951 0.074704126 0.024359766 0.041486282 -0.05672905
3 -0.2986317 -0.014143756 0.23684572 0.32472655 -0.062428694 -0.08310698 -0.0044744806 0.08915403 -0.14459752 0.1776994 -0.06465013 -0.08186822 0.19172953 0.19499667 0.20314327 0.16033895 -0.015138844 -0.1910043 0.014219223 0.019402783 0.010259304 0.00034098196 0.008219866 -0.015876288 -0.33002073 -0.011680331 -0.19546749 0.048531655 0.07534091 -0.141397 0.02134568 -0.25943744 -0.010010632 0.17610104 -0.015689226 -0.2688596 -0.07578179 0.02586904 0.028383186 0.08560379 0.12445064 -0.06757566 0.12510279 -0.1240515 -0.1968638 0.19620007 -0.01029585 0.17445105 0.21028163 0.29471433 0.12859365 -0.046246238 -0.17268467 -0.1534962 -0.29960597 -0.17347392 0.12194283 -0.1049597 -0.00037759554 -0.17101511 -0.035894718 0.047070842 -0.20619851 -0.21692318 -0.06636793 -0.1361784 -0.08047975 0.0570416 -0.105127856 -0.027216654 0.14718692 -0.17959265 0.17960303 0.055128902 -0.25383145 0.21672854 -0.09087513 -0.1949525 0.015259123 0.06418328 0.055220224 -0.38606736 -0.14730035 0.16347924 0.16034546 -0.18370837 0.08607714 0.20287244 -0.039921902 -0.20435208 -0.16167885 -0.108806536 0.0022657982 0.016623316 0.2240805 0.010708348 0.2287238 0.0687444 0.29752433 0.089750536 -0.13462773 0.0013446183 0.006162038 0.07112472 -0.043062158 0.21781349 0.11596468 0.32594702 -0.095970206 0.21071191 0.037297804 0.2717852 0.29493588 0.17401923 0.03512751 0.23099963 -0.18272078 0.1514981 -0.10352495 -0.12085906 -0.15244357 0.044030793 0.13976471 0.09052437 0.17904477 0.10527409 -0.17058606 -0.03441284
73 -0.4115256 -0.2811668 0.07553379 -0.12758186 0.3853417 0.18443377 0.6372909 -0.15818328 0.18050529 0.18561053 -0.2522306 -0.022264516 0.07482263 0.00036073852 -0.13121879 0.10315027 0.1228589 0.28127354 -0.23530512 0.23499708 0.32094952 0.4447715 0.027544541 -0.2470285 -0.058779128 0.30645832 0.27283624 0.24722533 -0.19701836 -0.1407561 0.63812006 -0.46023768 0.13858686 0.33256623 0.43797725 -0.52638257 -0.49693316 -0.4822715 0.40402058 -0.30571455 -0.32797343 0.12805887 -0.096844174 -0.22013551 -0.043373547 -0.31965265 0.23870759 0.23522636 0.1085365 0.59021634 -0.020705286 -0.53937656 0.34734258 0.014229864 -0.052484598 -0.39689696 -0.41097525 -0.18825275 -0.15625261 -0.2669569 0.030425644 -0.23297162 0.31420767 -0.25602815 -0.38195887 0.026290087 0.12512787 -0.11500099 0.20267896 -0.29907385 0.30385047 0.113416485 0.50575006 -0.17566027 -0.13525915 -0.056246895 -0.33048618 0.30603498 0.2913536 -0.30799657 0.27010533 0.3221474 0.32335833 0.1089715 0.11564694 0.23278384 -0.044511743 0.09625149 -0.04855264 0.007937957 0.1757782 -0.11989708 0.103744864 0.32956854 0.20473285 0.045369413 0.34569627 0.13539103 -0.09579829 -0.12630023 -0.0045695435 0.2070916 0.43262884 0.07011678 -0.23590139 0.26925543 -0.03747009 -0.26438004 -0.11381426 0.3215544 0.29300484 -0.031361565 0.24445057 -0.12686443 -0.5102599 -0.36502635 0.07833346 -0.1955396 0.10687488 -0.4705942 -0.27437574 0.09206394 0.17176665 0.040765915 -0.012861027 0.32511833 0.1783714 -0.015741806
30 -0.042954467 0.030279532 0.55317193 0.2513601 0.2571931 0.044375863 0.069012836 -0.19247827 -0.29606295 -0.046662312 -0.27705956 0.21188763 0.19841671 0.5089489 0.5331587 0.32794964 -0.24190436 -0.004029543 0.2463482 0.058237206 0.48095253 -0.0069819093 0.39307296 0.036504745 -0.37587115 -0.23985921 -0.12899369 -0.032617174 0.008371188 -0.24789575 0.2236323 0.07937724 0.3759739 0.37101242 0.21339698 -0.43974575 -0.5263744 -0.12388271 0.023046723 0.065430105 -0.4162362 0.21470724 -0.09867714 -0.56006545 -0.10813754 0.3342838 -0.09539686 0.080185495 0.29180562 0.21986681 -0.005546367 -0.09274235 0.18041013 -0.1281056 -0.10946505 -0.37311956 0.31778178 -0.019135574 -0.47487116 -0.061907653 -0.4066221 0.012607887 -0.36484265 -0.025065882 -0.11242181 -0.039059073 0.21462288 0.048523746 0.114646375 -0.0011443906 0.33820185 -0.21832804 0.31239134 0.109946795 -0.04326325 0.32237568 0.024574313 0.21038446 -0.28559464 0.29981402 -0.21205837 -0.15320873 -0.34114802 0.5625086 0.09066679 -0.44305035 -0.07120463 0.37369865 0.096164614 -0.45021108 0.45161587 -0.65111023 -0.21585329 0.46748087 0.15906562 -0.036257327 0.30489364 0.34509876 -0.025088489 0.3924663 -0.24751559 -0.06797136 0.111953326 -0.015990948 0.43173423 0.36748073 -0.06006135 0.45259297 0.21506803 0.2867725 0.109215 0.27174136 0.03382282 0.030885238 0.027340405 0.082030274 -0.034708995 0.43547493 0.17583852 -0.18639295 -0.066759 0.22258243 -0.22628345 0.08336794 0.23241533 0.40385664 0.099277854 -0.14329134
23 -0.119574994 -0.08181789 0.59329146 0.016571704 -0.0025659879 -0.16870554 0.33549148 -0.2744997 -0.2095334 0.7089987 -0.49093103 -0.1707549 0.1404101 0.12401164 0.18879387 0.5042828 -0.03728519 0.15146604 0.2251368 0.50032985 0.39030927 -0.31360993 0.5184888 -0.0021281806 -0.6197213 0.0025764 0.022048065 0.2448194 -0.12877828 -0.37864563 0.32881302 -0.358559 0.30354518 0.014910985 0.18173574 -0.27464542 -0.13438328 0.21570367 0.57284504 -0.048726823 -0.009987587 0.33818236 -0.34482077 -0.018697988 -0.5569782 -0.08093563 0.117904775 0.0256394 0.19159278 0.5873473 0.14363092 0.31342468 0.07294597 -0.4805991 -0.20787658 -0.043357324 0.2844027 -0.37817073 -0.18883392 -0.11319742 -0.5504531 -0.48346207 -0.30772924 0.2520115 -0.02373401 -0.37171367 0.1537632 0.41839013 0.1286355 -0.3052783 0.52838016 -0.15580593 0.30376828 -0.15976663 0.12974945 0.36915597 -0.06695085 -0.15218572 -0.1465413 -0.055609055 -0.18520355 0.103847 -0.34365025 0.51554227 0.30357978 -0.23088709 -0.2991246 0.084888294 0.055608317 -0.19591582 -0.23457722 -0.5614664 -0.5929791 0.6741312 0.045421522 -0.040203873 0.14113168 0.27067894 0.17155877 0.25708485 -0.38527158 0.044254534 0.027564375 -0.1708952 0.35946375 0.412315 0.30604464 0.5125817 0.0014327613 0.55624276 0.6327732 0.47262278 0.3512032 0.18686756 -0.0003196795 0.14596426 0.15193784 0.3371537 -0.2618229 -0.022696532 -0.344764 0.08527726 -0.1313359 -0.14084196 0.15996057 0.2830308 -0.14113082 0.055089623
91 -0.1553245 -0.04136378 0.65186334 -0.29625824 0.7433073 0.44087264 0.326377 -0.27734956 -0.08994888 0.43753925 -0.3508211 0.022701988 0.13166416 -0.2864827 0.36082998 0.29921514 0.36124125 0.29793465 0.4948418 0.33038864 0.56062114 0.5334879 -0.44588688 0.24409907 -0.19998293 0.42385036 0.13718611 0.38065028 -0.14008254 -0.054318614 0.66849566 -0.059752487 0.31578732 0.3485827 0.27866775 -0.4555296 -0.40403786 -0.3535761 -0.059397742 -0.10159017 0.0019658026 -0.37471157 -0.03235944 0.24767311 -0.49376488 -0.1422713 0.1543037 -0.16693263 0.68482196 -0.018194383 0.07023303 -0.2561925 0.21514812 -0.106056586 -0.0363461 0.11948571 -0.20157014 -0.6665761 -0.011770629 -0.07698414 -0.21601099 -0.28044558 -0.0444363 0.12631175 -0.6877378 -0.16917963 0.42230812 0.27951568 -0.13545561 -0.06849822 0.10193004 0.08127823 0.37694976 -0.020987043 -0.059183232 0.6638332 -0.18119156 0.22477537 0.1585232 -0.029750815 0.01539731 0.048680916 -0.14573456 -0.1609421 0.27105996 0.5192167 0.0068222242 -0.11009534 -0.30316702 -0.08726935 0.07706456 -0.43048123 -0.10715868 0.5061554 -0.014691407 0.050190523 0.16347793 0.04074787 0.24410632 -0.31944957 -0.11462739 0.37641126 -0.083388336 -0.18816781 0.6028074 0.098800585 0.11544599 -0.6425282 0.04963803 0.011408401 0.47632682 0.34567887 0.07731129 0.07242403 0.22674885 0.22590742 0.18600081 0.30822718 0.43428046 0.31075227 -0.22097239 0.12318261 -0.27581757 -0.38767532 0.42119324 0.50800276 0.05128646 -0.2174129
69 -0.2335659 -0.1607927 0.026323143 0.08606737 0.3501487 -0.09530166 0.7000479 -0.1345149 -0.057123426 -0.039631136 -0.17688093 0.173323 -0.034985267 0.47246027 0.11974665 0.355889 -0.11907526 0.2222681 -0.15658747 0.46254733 0.52090764 -0.08589175 0.10741531 -0.33062008 -0.34227383 0.062077537 0.37931898 0.0011088034 -0.031057354 -0.33714676 0.626463 -0.43655527 0.42960653 0.48220497 0.55344766 -0.582058 -0.17276557 -0.57291186 0.20885944 -0.27813107 -0.29545978 0.17775074 -0.18417862 -0.23611134 -0.086081825 -0.45772782 -0.21761787 0.58182436 -0.05306725 0.29523626 0.12174984 -0.5202929 0.2390649 -0.2601638 0.14540981 -0.4160709 -0.24739894 -0.31750306 -0.109011374 0.008964248 -0.26893032 -0.09662329 0.6179791 -0.18605338 -0.22760639 0.069309525 0.47996038 -0.38944948 0.2719854 -0.20925038 0.40916905 0.26999986 0.58103526 0.022426266 -0.33319816 -0.09320195 -0.002694631 0.11205618 0.2282458 0.025294937 0.39568388 0.4953398 -0.14269367 0.09930891 0.16802633 0.11606636 0.006016566 -0.0763766 -0.05692487 -0.06146669 0.30285633 -0.4620945 -0.426536 0.22483177 0.21103984 -0.39548954 0.24979033 -0.16766444 -0.26514328 0.13224055 -0.15218303 0.12812565 0.36741796 0.17156863 -0.14540215 0.020503746 -0.17164478 -0.03208224 -0.07149246 0.6408161 0.59497374 0.18373148 0.4920503 0.027219158 -0.18111005 -0.14684734 -0.026462968 -0.28826806 -0.28412685 -0.30076918 -0.6116296 -0.29247195 -0.17915651 -0.0010600773 -0.2857288 0.4894279 0.021985445 -0.07784348
66 -0.2024586 -0.20499194 0.055962007 0.13022974 0.36226845 -0.09777378 0.6186232 -0.089159094 -0.07102569 -0.048974156 -0.20734863 0.12278547 -0.009990129 0.46488518 0.1727532 0.33365417 -0.1409857 0.20818663 -0.12542433 0.4707849 0.52940786 -0.09838451 0.046420667 -0.34516203 -0.36514035 0.047824413 0.35490313 -0.036445495 -0.03845036 -0.25211236 0.6423476 -0.34110025 0.38393912 0.5473077 0.5396974 -0.5626791 -0.130018 -0.5335 0.11762359 -0.2534294 -0.23461884 0.11414206 -0.16909626 -0.2175321 -0.12896802 -0.48203674 -0.16566889 0.57382876 -0.060669407 0.2926945 0.1884513 -0.5098192 0.23492616 -0.21602178 0.16769478 -0.38254607 -0.16262029 -0.27072692 -0.10331153 -0.04563876 -0.1831311 -0.03538432 0.63157713 -0.25645456 -0.26350224 0.09364113 0.48248735 -0.39340082 0.24533227 -0.14318527 0.37239084 0.27662903 0.6060386 0.060538363 -0.32915944 -0.11821895 -0.053201873 0.16311476 0.22193342 0.021362241 0.43198267 0.39906564 -0.17127779 0.007881095 0.22129616 0.13072385 0.12594251 -0.07974237 -0.035195358 -0.03661213 0.32553375 -0.38708043 -0.40223008 0.19177154 0.18525489 -0.3986715 0.23371036 -0.20692044 -0.20225224 0.13136122 -0.1591456 0.14245936 0.32972437 0.1859419 -0.057859745 0.10642221 -0.18325579 -0.14286861 -0.1222075 0.63678145 0.5271434 0.22831555 0.45584202 0.07015895 -0.16002648 -0.1031213 0.0010541884 -0.23236085 -0.24091962 -0.24588881 -0.6749872 -0.26910245 -0.09968196 0.022034906 -0.2782395 0.47378746 0.0132659245 -0.12117737
62 -0.29730606 -0.18844575 0.042741828 -0.053570233 0.41510874 0.13397804 0.56083596 -0.1579758 0.0799107 0.07976397 -0.2117007 -0.0012695728 0.14184953 0.06691995 -0.029273855 0.11588455 0.015270351 0.22769976 -0.1569659 0.22422801 0.30106652 0.28393644 -0.052710418 -0.1856496 -0.10083994 0.23872603 0.25771642 0.07884136 -0.21490519 -0.056244988 0.49197793 -0.31716806 0.10530032 0.31650525 0.30914208 -0.44382593 -0.3321222 -0.40832353 0.25091523 -0.18713658 -0.2563905 0.09695236 -0.08884197 -0.25738522 -0.046972018 -0.3350274 0.11884181 0.26656786 0.05008288 0.42000785 0.07080225 -0.50397515 0.26648232 -0.023419723 -0.045266356 -0.24395429 -0.34870613 -0.12718895 -0.14073634 -0.23112105 0.04806757 -0.0783725 0.39402315 -0.25453883 -0.34006763 0.09097842 0.19100478 -0.05421881 0.09229105 -0.2631501 0.21167679 0.095977195 0.3699397 -0.111220896 -0.18624294 -0.019744689 -0.2708234 0.23244357 0.21535093 -0.2282347 0.279094 0.21522664 0.16537747 0.02194458 0.09012727 0.23977953 0.036703467 -0.009821795 -0.018082684 0.06652946 0.13968213 -0.11422366 -0.026578633 0.2653349 0.14120106 -0.099560216 0.2685204 0.0654039 -0.07889439 -0.17302844 0.0060092425 0.21756047 0.32678732 0.11753909 -0.04446967 0.21774301 -0.014412452 -0.27649683 -0.15752754 0.32908323 0.25348938 0.055946346 0.24670771 -0.042817377 -0.3563957 -0.24508728 0.00948549 -0.15376304 0.10604185 -0.32341903 -0.40577343 0.025904963 0.13693398 -0.024545543 -0.07917258 0.33916247 0.09468155 -0.1146259
49 -0.18726358 -0.26302317 0.235984 0.34100246 0.12681264 0.1973731 0.19707705 0.19615512 -0.17649111 0.5735004 0.15299237 -0.055154648 0.16941343 0.233008 0.41276598 0.13951446 0.22922124 0.07218706 0.016615134 0.099893734 0.25997883 -0.08324617 -0.08838752 -0.07224377 -0.48208022 0.019021047 -0.08760442 0.14547026 0.41452822 -0.36983216 0.15017895 -0.22772272 0.37196612 0.11001876 0.08724691 -0.5067271 0.13175897 -0.26722473 0.20898451 0.15635796 0.04767249 -0.195459 0.42655778 0.019547796 -0.07352322 0.26054344 -0.29481226 0.3078174 0.41828838 0.21790254 -0.11059915 0.22692381 -0.22616792 -0.3222438 -0.043913025 -0.54355055 0.13810569 -0.14221309 0.5980326 0.08995815 -0.12704067 -0.10926192 -0.09245978 -0.043744102 -0.36383325 -0.35560682 -0.18338467 -0.05927411 -0.02806132 0.0749702 0.20373778 -0.09224298 0.42839196 -0.04703092 -0.3877474 0.27386218 0.02829551 -0.21781242 0.2047942 -0.0127837695 -0.12325682 -0.35406402 0.053426184 0.092456035 0.18265133 -0.17995396 -0.04250767 0.3001829 -0.29038435 -0.16789962 0.20097195 -0.33586586 -0.0465888 -0.24633874 0.41100657 -0.010643192 0.17732204 0.00048260036 0.4683573 0.047028672 -0.37809655 0.09767549 -0.08427126 0.15615016 -0.035834342 0.0170998 -0.17537753 0.23220974 -0.24864805 -0.11821318 0.28606763 0.38969252 0.5396532 0.18035863 0.4955102 0.24640784 -0.1819551 0.029922362 -0.06085174 -0.14290723 0.04354449 -0.0864276 -0.041098524 0.060334183 0.13144705 -0.016689312 0.09988621 -0.05663026
76 -0.40302008 -0.23673373 0.14835419 -0.19932799 0.2828429 0.1384594 0.61996394 -0.18369508 0.20153704 0.25396076 -0.28170997 -0.022865228 0.07478092 -0.109641485 -0.14548497 0.119580224 0.21096002 0.21657893 -0.15286282 0.11798279 0.25323826 0.47597715 0.21088338 -0.1478029 -0.036002576 0.4167249 0.13907932 0.39732015 -0.14473972 -0.16621375 0.5673195 -0.61212564 0.24485692 0.23190998 0.426713 -0.56047696 -0.61059916 -0.5108681 0.49094978 -0.23843847 -0.4147369 0.30499342 -0.021907499 -0.21099359 -0.11279591 -0.13123725 0.2716719 0.10071498 0.18242395 0.80887884 -0.18469492 -0.35407603 0.28515485 0.018772706 -0.035630647 -0.4794934 -0.37040135 -0.13890159 -0.11775232 -0.16154131 -0.03188861 -0.37525767 0.009420555 -0.07625794 -0.5188103 -0.07462826 -0.010556012 0.02309257 0.2634675 -0.36197796 0.3449105 0.12545209 0.51289386 -0.272496 -0.09647289 0.10878132 -0.23411714 0.3242107 0.06735535 -0.30453166 0.013397612 0.32917923 0.30678016 0.4102013 -0.053255547 -0.13962805 -0.21566175 0.27241555 0.002550609 -0.13427399 0.14698328 -0.2292469 0.17830727 0.3949382 0.23529825 0.23636691 0.46270785 0.22878206 -0.025669593 -0.13955843 -0.0047647613 0.27113912 0.3455086 0.08180823 -0.200417 0.17304571 0.063208394 -0.03825852 -0.028229302 0.024045952 0.3277895 -0.099410474 0.25365415 -0.19057703 -0.5351515 -0.32500774 0.105229676 -0.103610836 0.11603682 -0.52348524 -0.0077788844 0.17605966 0.25911993 0.005551145 0.10855974 0.25683078 0.2113699 0.045650415
95 -0.16126405 -0.21745373 0.4575764 0.26251724 0.48712534 0.41285616 0.41354543 -0.21904771 -0.048466302 0.44725126 -0.45048627 0.03872349 0.42202082 -0.15973485 0.20037024 -0.05093968 0.2429503 0.3743628 -0.059387524 -0.01570371 0.16450123 0.5699777 -0.35324824 -0.10632917 -0.20048471 -0.06718119 -0.0995514 0.16106236 -0.2874781 0.016423851 0.28903875 0.15309012 0.1355903 0.15920787 0.10581524 -0.26094723 -0.41711745 -0.20736362 0.37907413 -0.112808324 -0.07943019 -0.39274582 0.012298148 0.16551675 -0.22799495 0.029127197 0.25645688 0.04910478 0.26212418 0.24452855 0.0023552657 -0.1148103 0.17593756 -0.08747696 -0.21810097 -0.19003445 0.07666441 -0.07420525 0.033660214 -0.47150335 -0.11646104 0.15112016 0.12394126 -0.040266637 -0.45343757 -0.12530527 0.2291378 0.13753255 -0.13272744 -0.07337447 0.19947582 0.119132556 0.23362674 -0.12991643 -0.16501527 0.2357568 -0.32235643 0.21840827 0.4483191 -0.13713382 0.011415147 0.027802693 0.23421873 -0.27899098 0.069466665 0.4516194 0.32662392 0.0200806 0.13933645 -0.0017185751 0.13568628 0.051531333 -0.055679593 0.35283953 0.17192869 0.12435661 0.18141338 0.20562334 0.30538872 -0.23237327 -0.12382775 0.070038676 0.099943295 0.12048996 0.13772579 0.4827179 0.12178515 -0.59576094 -0.21373361 0.19366309 -0.00084033946 0.38050458 0.098293446 -0.0038658772 0.21801858 -0.030752704 0.18326283 -0.045874078 0.4133154 -0.11524277 -0.23840512 0.17901248 -0.1856361 -0.23116809 0.10142468 0.3998716 0.20749928 0.021407807
20 -0.1223606 -0.019862775 0.5653347 0.09219641 -0.025382 -0.15204583 0.29784048 -0.25456148 -0.25045013 0.5219139 -0.42209464 -0.07199164 0.12870847 0.06868867 0.22264661 0.50486827 -0.079441674 0.07799973 0.2008613 0.38350555 0.41167444 -0.25407112 0.5047708 -0.0007768032 -0.5602728 -0.022102429 -0.10601729 0.20302121 -0.082874976 -0.37228492 0.29764554 -0.33162454 0.2822222 0.071037956 0.16899961 -0.26133686 -0.1758543 0.1775219 0.509863 -0.062319446 -0.018039035 0.31068096 -0.31284007 -0.09508223 -0.45953012 0.014528854 0.07975804 0.033379983 0.24561888 0.48191062 0.125366 0.24571003 0.018866044 -0.41302493 -0.2956145 -0.05456076 0.29474744 -0.2897839 -0.24858718 -0.15952608 -0.54733557 -0.3495994 -0.3788101 0.21170647 -0.014709335 -0.3309063 0.1946219 0.38640884 0.07340296 -0.30227745 0.5119763 -0.17781202 0.2725832 -0.09879803 0.060008176 0.41426012 -0.06719732 -0.119631395 -0.15980782 0.057535637 -0.20774516 0.028885119 -0.39684704 0.5190252 0.26654088 -0.26995984 -0.27402705 0.13270538 0.042638067 -0.2861634 -0.21556525 -0.58280534 -0.4978445 0.59558314 0.05531603 -0.052362356 0.20204906 0.3349239 0.17343882 0.23936664 -0.3279732 -0.02147771 0.06277941 -0.102795 0.33461186 0.3906001 0.28907657 0.5927438 0.082184896 0.50960493 0.49655163 0.45778757 0.32608628 0.15358154 0.038657382 0.19702514 0.05366299 0.40361446 -0.19615595 -0.0297126 -0.24591458 0.12623899 -0.14817283 -0.09030462 0.2307212 0.32165864 -0.18505445 0.024132164
63 -0.34277603 -0.23398438 0.09759127 -0.0072923913 0.47942302 0.0790194 0.5975403 -0.13919213 0.0044272933 0.110417 -0.21681342 0.047426715 0.11420706 0.13885124 0.017665263 0.17623548 -0.008434164 0.3039528 -0.15247625 0.31306466 0.4174308 0.29935274 -0.106083 -0.25057393 -0.13374631 0.18991767 0.2798333 0.07150235 -0.21467184 -0.09833678 0.6062571 -0.31731567 0.11729478 0.44113776 0.41295063 -0.51677793 -0.3456251 -0.45961812 0.18655689 -0.281662 -0.27498367 0.00540657 -0.13975327 -0.20093688 -0.10350781 -0.41835278 0.06530489 0.34114712 0.046155553 0.3675545 0.12435287 -0.5793564 0.3725117 -0.06226937 0.011004765 -0.27290663 -0.30710104 -0.20676391 -0.17237262 -0.21838318 0.0064898417 -0.10845809 0.5129731 -0.31804922 -0.3279589 0.10966487 0.2610853 -0.22636093 0.10026552 -0.20945005 0.3150497 0.14036581 0.45904636 -0.075628474 -0.22286008 -0.080686435 -0.23610355 0.21375075 0.32963327 -0.14480028 0.365063 0.23930089 0.13640663 -0.076208696 0.18511423 0.35573083 0.103570394 -0.06644618 -0.02767879 0.082806565 0.1920729 -0.10133229 -0.11854159 0.24097955 0.14279847 -0.19163384 0.23186535 -0.060675412 -0.110593736 -0.09713661 -0.030229557 0.20206885 0.37925142 0.120925024 -0.09614169 0.23066309 -0.09218717 -0.37792426 -0.14288782 0.45946893 0.344715 0.12488659 0.29204482 -0.012511907 -0.3363058 -0.26332876 -0.015081294 -0.20587127 0.06688871 -0.29127085 -0.48036122 -0.03145133 0.047145944 -0.016270936 -0.10143543 0.38733214 0.06972661 -0.12890658
27 -0.16311477 0.0047228117 0.48429173 0.3889405 0.06363892 -0.014731234 0.051187575 -0.06507177 -0.28475565 0.046928894 -0.15869308 0.13286786 0.1850082 0.38829747 0.5187463 0.34888205 -0.15083267 -0.13425338 0.24559711 0.016917601 0.3901023 -0.009363133 0.29363516 0.05385676 -0.41580215 -0.18436344 -0.29692152 -0.011521049 0.11310989 -0.25924683 0.14999782 -0.0793466 0.29330721 0.34352356 0.11931678 -0.3816374 -0.37422475 -0.0048543336 0.06280231 0.11715595 -0.20569035 0.12712055 0.022653671 -0.3739013 -0.16271444 0.38301164 -0.075420864 0.11229266 0.32606485 0.16723464 -0.04168543 -0.0061674225 -0.06373527 -0.2068347 -0.2403754 -0.30917957 0.3129072 -0.045259103 -0.26060736 -0.06609545 -0.35500303 0.028378315 -0.4524228 -0.09370365 -0.06417313 -0.1419462 0.07461598 0.0276901 -0.022420874 -0.021482326 0.30426332 -0.2723457 0.27260733 0.15003702 -0.16822709 0.4007774 0.0061974023 -0.016844023 -0.22216871 0.29494923 -0.1988274 -0.27768877 -0.32570446 0.5106177 0.14919081 -0.49247617 -0.019330507 0.3697985 -0.049030915 -0.4799765 0.19227251 -0.5806587 -0.09580485 0.257103 0.28249702 0.0028047878 0.26893008 0.28569126 0.15924469 0.30149227 -0.24449897 -0.09258152 0.030661022 0.039270207 0.28649548 0.30506042 0.023816079 0.60774267 0.17610753 0.24838597 0.04266188 0.35488433 0.16717967 0.09266666 0.13443266 0.25117382 -0.13790154 0.4383351 0.04188582 -0.120825656 0.009412207 0.19655158 -0.14336853 0.1407269 0.27195525 0.36549565 -0.0694727 -0.11612173
45 -0.18926087 0.08697464 0.6687503 0.2652148 0.19296452 0.017406998 -0.1303055 0.09411423 -0.17468426 0.28505683 -0.1898509 -0.119047016 0.06864502 0.3567881 0.49622673 0.033107027 0.24643187 -0.018472215 0.12438937 0.11186347 -0.16788074 -0.06380532 -0.053589687 -0.18974647 -0.6727646 0.114622 0.11630548 0.510226 0.41115028 -0.26759312 0.1217492 -0.24067624 0.6155194 0.15466373 0.3954051 -0.435073 -0.119852245 -0.4548864 -0.26957953 0.038855422 0.31912175 -0.24732167 0.30319023 0.35119835 -0.20010869 0.20184328 -0.24635707 0.38406524 0.45535684 0.6834199 0.28323224 -0.014902988 -0.15441741 -0.15248676 -0.00078120444 -0.5974166 0.29652765 -0.50009423 0.30304658 0.2761017 -0.17903851 -0.17808585 0.04443517 0.15496303 -0.78696364 -0.4270189 0.32255226 0.046087265 0.35790643 0.0732751 0.096687 0.35851508 0.6794848 -0.121782415 -0.2831193 0.37280717 0.22647107 -0.007192991 -0.06950516 0.0067051705 -0.0250112 -0.2757497 -0.15642014 0.18861146 0.086735025 -0.22024137 -0.012247137 0.40916657 0.16075554 -0.15828636 0.28565308 -0.31922156 -0.38536072 0.14545882 0.30813497 0.121555366 0.5672532 -0.36175188 0.461168 0.37379125 -0.36969587 0.26346913 -0.106806576 -0.07997111 -0.20258656 -0.012831385 -0.08437128 -0.372176 -0.40316358 0.0072850017 0.6075834 0.2534393 0.6322319 0.14704007 0.29542416 0.505406 0.16470514 -0.052129343 -0.2175487 -0.37390235 -0.2806 -0.5264259 0.02585792 -0.19695199 0.020878391 0.005197973 0.10260144 0.010699139
58 -0.29520136 -0.21463348 0.13696432 -0.0646569 0.39210454 0.17201453 0.3776186 -0.07675775 0.05675994 0.19122551 -0.14506444 -0.11195615 0.19854392 0.055379 0.06868251 0.19857115 0.010177113 0.107124805 -0.07740733 0.29161218 0.30714253 0.1759015 -0.20385075 -0.08534738 -0.15317045 0.25680003 0.26996848 0.11018971 -0.14864624 -0.028621264 0.4552118 -0.33584902 -0.0031695093 0.4070844 0.16817746 -0.4997749 -0.16765252 -0.28585058 0.1598538 -0.12282339 -0.056409944 -0.113905124 0.014916496 -0.24054831 -0.16548063 -0.29746723 0.10212674 0.21218896 0.18079199 0.32628214 0.18170276 -0.46507517 0.12289807 -0.0034711328 -0.08746332 -0.07531383 -0.31396705 -0.2501589 -0.016095983 -0.2946947 0.13954443 -0.095513746 0.3224707 -0.3435805 -0.22184393 0.09475915 0.14345483 -0.006807307 -0.08945441 -0.07890443 0.17092387 -0.06534373 0.3561494 -0.034968972 -0.25913614 0.08317837 -0.31954402 0.095066145 0.24848114 -0.2548567 0.35972917 -0.051082313 0.1193102 -0.19857831 0.2360442 0.3191587 0.10907833 -0.043930955 -0.14666542 0.09357036 0.01228197 -0.056954846 0.03468878 0.20149015 0.124532774 -0.15175997 0.24906777 0.0798807 0.061478667 -0.1892965 0.015809167 0.25733435 0.25031352 0.098948725 0.09286029 0.2475833 -0.031843994 -0.2549092 -0.1973278 0.3627723 0.18058056 0.10413068 0.22842643 0.11979884 -0.19809744 -0.109968446 -0.10837316 -0.05108822 0.12008829 -0.16751485 -0.4476966 0.08339186 0.24681425 0.038417153 0.01680459 0.22280052 0.056250125 -0.14146642
11 -0.26911977 -0.09009751 0.21671253 0.47854593 -0.045573138 0.014041362 0.28162318 0.17366661 -0.141041 -0.34040067 -0.15088376 0.22014228 0.2409813 0.22909333 0.31750804 0.38246033 -0.16228245 -0.34594527 0.24349661 0.10272022 0.2639972 0.103262104 -0.14199089 -0.0058490555 -0.25348106 0.1874882 -0.32566822 0.2519198 0.39541525 -0.23224366 0.45369413 -0.5322159 0.6124651 0.5992923 0.33012 -0.21877235 -0.31776497 -0.21739015 0.22553834 0.05390151 0.14416103 0.13760401 0.03775567 0.015691863 -0.19087526 0.16111252 0.050225887 0.13385817 0.44487014 0.4406543 -0.11248986 -0.29074708 -0.31811017 -0.028165737 -0.37044585 -0.38712493 -0.0067768963 -0.16788898 0.1963168 0.04903939 -0.3589585 -0.13477986 -0.48984376 -0.26702836 -0.20457502 -0.072191946 0.38080084 -0.25222874 -0.094297364 -0.13066012 -0.036115404 0.078159384 0.12685251 0.24207874 -0.30920687 0.55830127 0.17086846 -0.03189344 -0.0745145 0.27359557 -0.028727954 0.0271034 -0.19136782 0.34999764 0.3764433 -0.47131932 0.10365937 0.2604661 -0.35776454 -0.36670986 -0.0949142 -0.5263283 0.21070245 0.024159165 0.38910705 0.02816791 0.31137833 -0.059894294 -0.01171226 0.033687584 -0.24391624 -0.045576908 0.12684739 0.03327682 -0.068556584 0.073245265 0.19695766 0.48890132 -0.08180996 0.115260206 0.037955333 0.35877123 0.38586965 -0.029096972 0.2023241 0.45356283 -0.23000029 0.34436563 -0.037761364 0.070935175 -0.032127906 0.059902713 -0.09928699 0.11678233 0.40286577 0.60411453 -0.20841968 -0.074993595
101 -0.29819617 0.059864108 0.22204709 0.2523038 0.28429422 -0.18070017 0.47227722 -0.1173799 -0.23478702 0.31298393 -0.10418301 0.03101158 0.53146404 0.04560906 0.05786143 0.1662409 -0.048633393 -0.013946095 -0.13760391 -0.14707375 0.04507502 0.089595795 -0.1964207 -0.0024856012 -0.3164326 0.061707992 -0.09865688 -0.17188983 -0.379638 0.08586232 -0.050539188 -0.3331349 -0.08913983 0.049791902 -0.10870106 -0.6109801 -0.14732692 -0.25596857 0.15540315 0.15479548 -0.1966738 -0.038384963 0.08123416 -0.33081684 -0.31521264 -0.06659081 -0.06562354 0.3096203 0.013085119 0.6102124 0.029382974 -0.12760751 -0.062492367 -0.16334936 -0.19752178 -0.12017512 -0.09689785 0.044106804 0.08070757 -0.23983242 0.14947765 0.18822095 0.040270153 -0.16370675 -0.3873515 0.15303035 -0.13613243 0.15087433 -0.21149495 -0.23455682 0.30724132 -0.16193274 0.21522278 -0.20405298 -0.50883985 0.2597541 -0.2715065 -0.14606191 0.041180108 -0.13765159 0.038808916 -0.2619449 -0.14093892 0.08086333 -0.09415695 -0.09016978 0.2116172 0.060697813 0.18632255 -0.057144117 -0.063953586 0.032298204 -0.056131504 0.12724608 0.2443128 -0.081276126 0.33981442 0.17591855 0.43588856 -0.34076306 -0.011058377 0.22192407 0.086709596 0.4325625 0.062336933 0.25294718 0.13852905 0.074962296 -0.2447291 0.11561077 0.09833461 0.27914423 0.44938898 0.26250672 -0.059900228 -0.009250597 -0.35299724 -0.034262937 0.118201196 -0.20997447 -0.29541466 0.14340897 0.3997669 -0.13800627 0.038230337 0.22356926 -0.037958212 -0.20195168
37 -0.31207472 -0.31074995 0.040865473 0.3952541 -0.027160054 0.015082419 0.24237458 0.29299778 0.11223216 0.4758728 -0.13146864 -0.19029307 0.14551689 0.19002205 0.2996851 0.042781413 0.4936131 -0.09790832 -0.026866278 0.07475305 0.18231894 0.15701856 -0.1455967 0.074870445 -0.3857466 0.075794816 -0.34572673 0.20032574 0.047157485 -0.36184874 0.30301693 -0.16405763 0.2216651 0.23246156 0.15226342 -0.72996277 0.026200956 -0.47258908 -0.15438853 0.20481849 -0.13253133 -0.29011133 0.50437766 0.22818421 -0.37511814 0.28117204 -0.1462155 0.30727503 0.31932768 -0.006960693 -0.15712786 0.23377639 -0.22501692 -0.33807963 0.13183206 -0.45619115 0.12081106 -0.2372725 0.44147387 0.104122505 -0.059434384 0.03336333 -0.29743868 -0.092038624 -0.6113204 -0.25043982 -0.3725642 -0.16685334 0.025553457 0.055924073 0.48957825 -0.05056541 0.73564065 0.1581036 -0.63254786 0.06521235 -0.13145165 -0.13955954 0.309282 0.028386902 0.14856397 -0.16515055 -0.15155518 0.066850476 0.07737009 -0.36758208 0.17030787 0.2903998 -0.09866714 -0.4291619 0.18329936 -0.43275994 -0.0036816543 -0.15187292 0.5847226 0.31733114 0.30844805 -0.10424702 0.79450977 0.11333769 -0.4084718 0.18393934 -0.09675195 0.35696876 -0.0035144882 0.043961506 -0.049416162 0.20844205 -0.14371057 -0.16127795 0.20444222 0.5229162 0.46216223 0.13736686 0.38679177 0.120500416 -0.022552392 -0.16520274 -0.15889324 -0.14462715 -0.07661325 0.146622 0.057081517 0.15258011 0.10738167 0.21355021 0.21886097 -0.038365103
83 0.17373185 -0.30749163 0.023694497 0.1660285 0.3760935 0.45984253 0.2781845 -0.19481553 0.008044006 0.13308561 -0.4422294 -0.22780025 0.48709753 0.10364383 0.41584912 0.061508812 0.087003164 0.35883948 0.114047736 0.2263588 0.28206462 0.17282732 -0.16189046 -0.09257472 -0.4768828 0.23431478 0.14298253 -0.015303045 -0.23883489 0.052241616 0.34920263 0.24363546 0.35009024 0.2763278 0.1408321 -0.36172932 -0.023775367 -0.27452347 0.4157649 0.2261295 0.07332616 -0.014317139 0.022160662 -0.18180795 -0.2373138 -0.31347173 0.2545102 0.25325817 0.16634579 0.2731239 0.20333919 -0.18468629 0.008680127 -0.027805226 -0.19777668 -0.026914522 0.03924126 0.11914646 0.1588009 -0.43752152 0.022030665 0.24295884 0.2696121 -0.12129057 -0.61863697 -0.017005492 0.38636753 0.5296091 -0.006409434 -0.20389257 -0.13742474 0.035935737 0.19636475 -0.021151537 -0.21114488 0.13841733 -0.49554372 0.30995348 0.1580557 -0.25276792 0.1549147 0.016897546 0.032446668 -0.22756068 0.09000643 0.16750318 0.24120194 -0.043298624 0.09166913 0.23103663 0.10876957 -0.2538501 -0.31297103 0.32756692 0.1849021 -0.04328562 0.14659888 0.10699102 0.3142921 -0.28026417 -0.3815381 0.33476597 0.08858515 0.14162844 0.6142229 0.51285857 0.24015819 -0.43068385 -0.5492908 0.29957062 -0.029842509 0.50226223 0.118731245 0.11394493 0.14323126 0.12660915 0.27142504 0.05729972 0.41644493 -0.14105226 -0.70149267 0.109298244 0.059562907 -0.24166979 -0.19774151 0.4817692 0.097225815 -0.19716653
41 -0.27443728 0.052247774 0.437604 0.3628468 0.1666859 -0.06405312 0.07161721 0.14639658 -0.093179934 0.16532345 0.028984418 -0.028068073 0.08289186 0.20154345 0.43433157 0.06087665 0.28092375 -0.08268114 0.047644883 -0.0015517286 -0.124180116 0.063033834 -0.19644897 -0.058406584 -0.47991407 0.09797748 -0.080583245 0.3140323 0.3078496 -0.122176774 0.051204093 -0.17725675 0.4576036 0.2576033 0.2881073 -0.50233287 -0.19016685 -0.44872132 -0.2386743 0.13011652 0.19065501 -0.23596986 0.36452925 0.21310703 -0.18166573 0.2031295 -0.2736086 0.29820925 0.32268637 0.50542885 0.043379404 -0.076120436 -0.20936103 -0.07305441 0.038755525 -0.50481457 0.16830428 -0.30039883 0.31851164 0.16721699 -0.10274059 -0.06084429 -0.0344826 0.020130016 -0.6459715 -0.22165924 0.07655731 -0.19805305 0.13269162 0.04189427 0.12733257 0.23579536 0.53475714 -0.06813225 -0.39667293 0.33238745 0.16649836 -0.1173875 -0.05045691 0.008991387 0.020697838 -0.22097635 -0.1485435 0.15457435 0.02703367 -0.2714559 0.116513215 0.30943382 0.03468813 -0.18529081 0.26294762 -0.20274249 -0.16868502 -0.06764411 0.43001983 0.15589102 0.43905059 -0.32077774 0.46565068 0.21918552 -0.2135799 0.23142715 -0.12466508 0.08209106 -0.18734688 -0.12474265 -0.07736183 -0.1781426 -0.31860587 -0.13443346 0.37214422 0.22554545 0.5910932 0.05674995 0.2638973 0.43401614 -0.060143232 -0.09070116 -0.1764068 -0.29935762 -0.062113762 -0.3561469 0.11926222 -0.088144496 0.02322077 0.12656172 0.10690647 -0.06531294
87 -0.089166254 -0.08666406 0.44929817 0.101465434 0.57434607 0.5029334 0.23109299 -0.11386649 -0.12887569 0.28733093 -0.34033048 -0.044629835 0.423463 -0.19358498 0.4205063 0.21385165 0.17958593 0.27470836 0.19054785 0.27155963 0.4294007 0.46329084 -0.4151325 0.0008660328 -0.1326965 0.14090446 0.050560184 0.20995833 -0.15417168 0.063914984 0.47412643 0.15289715 0.18133461 0.39516795 0.18482894 -0.36584958 -0.3442856 -0.212008 0.042392235 -0.07897109 0.012954304 -0.33674106 -0.03455463 -0.009783197 -0.2573625 -0.0900877 0.18573198 -0.00081025984 0.50659066 -0.029280651 0.19333144 -0.30548295 0.13969387 -0.05043638 -0.27726385 0.13934396 -0.018188033 -0.32388434 -0.06069193 -0.35585117 -0.10004863 -0.05429836 0.180341 -0.18103643 -0.39098808 -0.06981524 0.2834546 0.2661502 -0.37098822 -0.10290926 0.110519685 -0.038982626 0.21678552 0.026710195 -0.18746278 0.34060398 -0.32696435 0.07471135 0.2535207 -0.15552339 0.1298442 -0.2010381 0.07686304 -0.35661197 0.30759415 0.5093538 0.13239905 -0.20497938 -0.09415344 0.038033403 -0.07413774 -0.15158807 -0.16550928 0.40070873 0.13451383 -0.06091526 0.09688757 0.02285263 0.29142526 -0.27045172 -0.079723306 0.3473049 0.016535738 -0.056012616 0.53659505 0.37235495 0.11280938 -0.5263325 -0.2588941 0.1954864 0.23050421 0.43278173 0.09221946 0.055861253 0.16205317 0.12608878 0.045785807 0.1791326 0.4746905 0.1461902 -0.30090034 0.20585617 -0.175799 -0.17238745 0.2534639 0.4510082 0.106142 -0.30033302
16 -0.17592798 -0.05967168 0.41352153 0.3277898 -0.012624935 -0.03912759 0.10296011 -0.047602825 -0.21956052 0.19258387 -0.1829619 0.04152648 0.18021956 0.25417602 0.3591591 0.33004904 -0.10250111 -0.100185394 0.1855877 0.11118731 0.31546128 -0.051006116 0.24306162 0.037995245 -0.3745402 -0.11852852 -0.23641342 0.04637252 0.073177084 -0.26267406 0.16041648 -0.16335873 0.21681665 0.2511335 0.07281294 -0.28430724 -0.21985048 0.09160115 0.20787744 0.08461216 -0.060229328 0.11873144 -0.00374341 -0.21603788 -0.23342359 0.26578435 -0.004779985 0.07408258 0.27289557 0.22387902 -0.017732978 0.06753714 -0.09505535 -0.24100901 -0.2630789 -0.20817257 0.26139262 -0.08460527 -0.118999064 -0.12199772 -0.32185033 -0.055456482 -0.40051675 -0.06800919 0.0034692446 -0.18368417 0.037984602 0.07578748 -0.06051398 -0.059114132 0.292585 -0.23042722 0.20641254 0.09458943 -0.11375786 0.33798212 -0.016789742 -0.104760475 -0.12725285 0.18386586 -0.15448791 -0.21897218 -0.24637337 0.3942256 0.20902878 -0.3749092 -0.027996048 0.25664017 -0.089519896 -0.35319778 -0.0065212958 -0.45490515 -0.08713407 0.21143115 0.21786976 -0.0055289264 0.18344867 0.25253248 0.16284394 0.21862994 -0.2123548 -0.08606644 0.023920644 0.016317364 0.2146064 0.2844964 0.08565635 0.5720159 0.099814735 0.2580177 0.08105051 0.3534905 0.19990472 0.121869296 0.15690896 0.24158202 -0.11954322 0.380868 -0.04975008 -0.036391165 -0.017672345 0.17590137 -0.09511166 0.114576526 0.25490335 0.27821323 -0.12233799 -0.046856064
17 -0.10000011 -0.021177894 0.5064645 0.22617301 0.0009943611 -0.08982666 0.18788332 -0.17870122 -0.28324348 0.3350379 -0.2397673 0.035048388 0.10683301 0.19298075 0.3640284 0.4656529 -0.123843774 -0.008587544 0.20150833 0.22605151 0.46079442 -0.19233628 0.4678526 0.0073092002 -0.48829293 -0.1262858 -0.1859701 0.081207454 0.08139841 -0.38044742 0.23201881 -0.21104175 0.30540568 0.14178836 0.14838398 -0.27666524 -0.2001476 0.106874496 0.35678142 0.014659541 -0.11881305 0.28728232 -0.15551476 -0.23117614 -0.29622725 0.1905099 -0.053388152 0.062160335 0.27639708 0.31396246 0.017128045 0.20509121 -0.024310108 -0.3772034 -0.25812405 -0.17739955 0.33697772 -0.1905403 -0.2171736 -0.09945573 -0.49217448 -0.19943877 -0.41219944 0.108042516 0.01056002 -0.30533293 0.11455685 0.22275314 0.026402093 -0.18295698 0.4408187 -0.23602557 0.26264027 -0.0031365866 0.008065564 0.40177816 -0.027569106 -0.114245385 -0.19394751 0.17804942 -0.26555607 -0.106000125 -0.35741043 0.563641 0.2206184 -0.38863054 -0.22335069 0.23509827 -0.027685003 -0.37955585 -0.061887164 -0.6221757 -0.3428268 0.39789778 0.13077739 -0.071993746 0.20748343 0.34617212 0.14455457 0.31016195 -0.2861988 -0.09198243 0.024045004 -0.03759005 0.29874286 0.32469523 0.13540775 0.714931 0.15104066 0.36281765 0.34571123 0.40706402 0.2964684 0.12113231 0.14157557 0.24377921 -0.05851926 0.43556792 -0.16423452 -0.0674747 -0.064952426 0.14338677 -0.1786626 0.03793137 0.26229274 0.2986306 -0.15252037 -0.004411726
1 -0.26577014 -0.10010658 0.15713076 0.26762542 0.2618134 0.16819572 0.22281899 -0.02443309 -0.12666516 0.2575519 -0.058403555 -0.052464794 0.35613668 0.06566571 0.22178459 0.10478318 0.05707784 0.057638105 -0.09541242 -0.025339488 0.14396131 0.26428393 -0.20999113 -0.03357292 -0.22578038 0.004764512 -0.09876239 -0.1225248 -0.15053062 0.012956772 0.092119776 -0.015535347 -0.10570289 0.22281598 -0.05322151 -0.44421113 -0.12522238 -0.121055715 0.11133475 0.10035244 -0.032882687 -0.22666737 0.17685048 -0.2563412 -0.1552747 0.042324964 0.051457252 0.2193999 0.15334396 0.15283813 0.070202254 -0.19322848 -0.020643143 -0.07749045 -0.24140978 -0.10316713 -0.04079905 0.029613402 0.036173657 -0.35752848 0.14038111 0.21502228 0.09753078 -0.31284764 -0.21161282 0.030373313 -0.11642797 0.07534302 -0.2242877 -0.043314565 0.15804963 -0.20705666 0.20660421 0.00022989194 -0.36414728 0.15662624 -0.37464532 -0.07363392 0.25291723 -0.115446664 0.16701496 -0.34547055 0.051003765 -0.1323532 0.0957311 0.13080312 0.24305126 0.039627742 -0.0061241123 -0.059411615 -0.021996072 0.05889178 0.054345496 -0.009898835 0.2490885 -0.06965686 0.18126127 0.14624989 0.36980283 -0.15837763 -0.06516679 0.15547514 0.077799626 0.24576457 0.07335779 0.31675512 0.031318847 -0.07883482 -0.20103028 0.182273 -0.093315125 0.297887 0.25082567 0.18419571 0.015059174 0.023353321 -0.20549348 0.0023196766 0.20623933 -0.18902835 -0.25222492 0.15534547 0.18759045 0.039001428 0.030711569 0.2095055 0.009671367 -0.1571678
31 0.01824194 0.018992236 0.6072563 0.19363916 0.34404877 0.059649196 0.10159268 -0.2598627 -0.29078823 -0.10851537 -0.37193838 0.26196796 0.17708394 0.5782856 0.57058454 0.35415927 -0.27562344 0.039022043 0.28040504 0.1268727 0.5685179 0.0034154349 0.456844 0.03473808 -0.38860577 -0.23614757 -0.058055796 -0.00149612 -0.013790336 -0.2823878 0.3248407 0.11529987 0.48178652 0.42330214 0.31542802 -0.45717594 -0.64659494 -0.18793723 0.038399085 0.027885979 -0.5144833 0.29641372 -0.17611802 -0.6039724 -0.11396099 0.30819416 -0.07422107 0.050454807 0.27100214 0.25811923 -0.01745084 -0.1421999 0.28613594 -0.10099436 -0.046091612 -0.41098157 0.30732322 -0.045612253 -0.5868808 -0.02902375 -0.4989017 -0.036676873 -0.3557237 0.02335187 -0.15580526 -0.017542947 0.33132452 0.062057354 0.20662907 -0.01826237 0.35609937 -0.14604934 0.34580496 0.11084713 0.034762546 0.31635988 0.039364368 0.34312564 -0.31828815 0.30814192 -0.21394214 -0.03398154 -0.3618578 0.636399 0.079155035 -0.45111668 -0.10268289 0.37949005 0.14287141 -0.45855543 0.5661544 -0.74580526 -0.27958706 0.604248 0.12269753 -0.028518513 0.3327097 0.36726293 -0.13220102 0.45170903 -0.28280747 -0.053812582 0.14140335 -0.07800402 0.5046377 0.39254642 -0.08198782 0.39594764 0.24648567 0.32075366 0.18056564 0.24579942 -0.040575825 -0.022628037 -0.025396334 0.026436556 0.068491146 0.45364287 0.19270608 -0.1883705 -0.10396988 0.2314465 -0.3012944 0.057015084 0.22516966 0.47683382 0.1591455 -0.14376007
70 -0.20433347 -0.10327127 0.02379768 0.14292578 0.33111855 -0.08565431 0.7068677 -0.14397252 -0.08463656 -0.0546282 -0.15648864 0.20471367 0.0108528 0.5736236 0.15041104 0.3706556 -0.13907394 0.20697498 -0.18222605 0.46883306 0.48729026 -0.18248717 0.081122585 -0.3196582 -0.41808218 -0.020893712 0.41168362 -0.022604259 -0.036231376 -0.40855578 0.55664176 -0.4107979 0.4952259 0.44626853 0.50707257 -0.6175434 -0.11559857 -0.56471163 0.24224272 -0.23453394 -0.26780835 0.13930996 -0.18258177 -0.25162733 -0.07162253 -0.42405918 -0.3155097 0.65459985 -0.034087505 0.22273597 0.13164951 -0.4902624 0.16202334 -0.33049116 0.09109453 -0.40361246 -0.22641894 -0.35564035 -0.059332155 0.03304662 -0.36855778 -0.030212091 0.6211729 -0.13447078 -0.15603043 0.05521685 0.5329104 -0.34368834 0.25716105 -0.19285986 0.3998901 0.23705961 0.54510725 0.040820666 -0.37989888 -0.06865951 0.038932785 0.025288828 0.23952436 0.053859565 0.41035497 0.47965184 -0.19803253 0.061730683 0.15003917 0.13325107 -0.004827127 -0.10793685 -0.044696797 -0.060381245 0.3041419 -0.535543 -0.5249232 0.24017304 0.2538132 -0.44442222 0.25732467 -0.15015559 -0.23727706 0.17116438 -0.2099949 0.099773176 0.35927603 0.17169748 -0.14079414 0.006270604 -0.16277178 0.036597162 -0.10349507 0.72257763 0.6024124 0.23634022 0.54065186 0.067482315 -0.055733215 -0.08904247 -0.06365253 -0.31314632 -0.30983 -0.3017517 -0.6614863 -0.3383205 -0.27057013 -0.025948657 -0.32252038 0.5191816 0.026019957 -0.07450194
77 -0.44008148 -0.2951249 0.18937092 -0.18558522 0.2680581 0.17159458 0.626936 -0.17738953 0.22129084 0.29044837 -0.33001804 -0.04535379 0.08212837 -0.08770136 -0.11851893 0.13054435 0.22828268 0.20615944 -0.15853968 0.12338647 0.23525429 0.49052808 0.2393362 -0.14094432 -0.02262121 0.42364195 0.13516772 0.4575178 -0.113867335 -0.1925733 0.5754976 -0.65521544 0.20860264 0.26704615 0.42399675 -0.5442991 -0.64520156 -0.49139285 0.5283874 -0.26913717 -0.39221233 0.29122192 -0.0030337088 -0.20775089 -0.11739512 -0.0992734 0.30961078 0.054281257 0.21241009 0.8638243 -0.189244 -0.3672548 0.30115867 0.040055618 -0.045657653 -0.5115097 -0.35626903 -0.15113968 -0.12898561 -0.20398667 -0.031710893 -0.409641 -0.026894553 -0.09639017 -0.4979355 -0.114900194 -0.020065 0.032055974 0.26715857 -0.31805587 0.3696284 0.119013466 0.54107535 -0.2805548 -0.097935066 0.12946627 -0.24401815 0.344353 0.09128687 -0.32486817 0.025204916 0.30569717 0.366463 0.40776122 -0.06415251 -0.17996088 -0.22566454 0.3200151 0.009076181 -0.16100015 0.12976187 -0.21880345 0.23721431 0.42361283 0.24843767 0.2884992 0.5117884 0.26442006 -0.001692311 -0.10023033 -0.017054765 0.2815178 0.35561374 0.084491625 -0.18290691 0.21494058 0.084133744 -0.013610727 -0.026546061 0.01110922 0.282405 -0.113836244 0.24936743 -0.19278471 -0.5294269 -0.32900414 0.12557945 -0.096903875 0.14395258 -0.5702201 0.0061201556 0.22876316 0.27969435 0.034344062 0.13914321 0.25688016 0.23158492 0.09441472
29 -0.10717198 0.06749501 0.5396323 0.36940825 0.1881847 0.027056014 -0.022268 -0.11147467 -0.31033304 -0.05631019 -0.19093549 0.18607545 0.20139201 0.5120752 0.5873565 0.28502652 -0.1816961 -0.10407316 0.24985974 -0.03538776 0.38119102 0.041247305 0.31173393 0.061946888 -0.4011582 -0.24278642 -0.2449071 -0.043943707 0.08070116 -0.23461576 0.13332523 0.07659152 0.32967585 0.35949135 0.15953386 -0.44102776 -0.47439426 -0.11390949 -0.0819625 0.11726735 -0.3266574 0.110461235 0.03788398 -0.48949152 -0.10996069 0.44776314 -0.12889098 0.11629597 0.3300719 0.1712643 -0.014757809 -0.07956597 0.043044668 -0.1391941 -0.15002064 -0.39682147 0.33714357 -0.02093844 -0.35999012 -0.052360024 -0.34123793 0.0989987 -0.40233323 -0.07469459 -0.16531058 -0.091998614 0.12227492 0.02045402 0.055616695 0.029300006 0.29199132 -0.23727113 0.34084615 0.15491192 -0.15696299 0.3619561 0.023994569 0.10835747 -0.24664582 0.313597 -0.19929898 -0.2912602 -0.35851812 0.5345381 0.07561253 -0.49196216 -0.0066507766 0.42084336 0.065424405 -0.5140355 0.39488003 -0.5989863 -0.1480692 0.33489272 0.24412425 0.003341656 0.32382742 0.2808188 0.118895516 0.3925906 -0.24104229 -0.06607428 0.0290751 0.033320438 0.3381332 0.3096945 -0.046848647 0.465748 0.18927217 0.20672438 0.039940476 0.30114004 0.098420784 0.056388542 0.10065132 0.18361609 -0.08442003 0.4157608 0.13134019 -0.17919442 -0.0026380077 0.17241324 -0.18821868 0.11344185 0.25249258 0.3560855 0.044156007 -0.1523805
60 -0.3112733 -0.43028966 0.33872268 -0.01726488 0.32177776 0.21827109 0.24431626 -0.002978158 0.21972297 0.33429214 -0.343986 -0.39547735 0.27602956 0.16680533 0.17059274 0.22646655 -0.046467103 -0.07916019 -0.1558034 0.4663979 0.24339134 -0.04801459 -0.16186236 -0.11193641 -0.2648659 0.17986105 0.34314296 0.32439107 -0.077895544 -0.044567484 0.5324809 -0.4323791 -0.080163345 0.6022871 0.106997415 -0.5136951 -0.03362533 -0.11936413 0.19276464 -0.14335874 0.11698999 -0.26684278 0.12556376 -0.18080342 -0.27427232 -0.25084972 0.20900327 0.16775034 0.21202755 0.5026488 0.4021649 -0.4023843 -0.010177955 0.082566254 -0.02917742 -0.047209244 -0.14746839 -0.33241588 0.06310251 -0.4571144 0.21999143 -0.16596186 0.27569738 -0.45340008 -0.14410186 0.046008926 0.15973969 -0.023672936 -0.10377173 0.16410245 0.30023825 -0.1781237 0.57952917 0.045032848 -0.2868639 0.06408719 -0.40797868 0.17993455 0.33644825 -0.4377042 0.5423143 -0.23888442 0.17674753 -0.3995003 0.446093 0.2799303 0.24924928 0.089821264 -0.09167973 0.09127027 0.020839127 -0.00061525975 0.057052903 0.34884644 0.13577685 -0.13152437 0.45100686 0.21643107 0.18072474 0.019730091 0.009651264 0.25896317 0.29847962 0.09749883 0.20555101 0.5079178 -0.06689849 -0.33614713 -0.33640537 0.60905397 0.07471475 0.12434575 0.23950356 0.23545775 -0.08955426 -0.069282316 -0.045100797 0.0039258823 0.06598157 -0.26862338 -0.7172075 0.22025205 0.5449657 0.2519036 0.030384384 0.09131624 0.22308709 -0.05320931
24 -0.07098772 -0.124224864 0.6070344 -0.04104757 0.03609968 -0.15680182 0.34272748 -0.28106984 -0.20150277 0.7355275 -0.529079 -0.16579807 0.14700282 0.20101915 0.20119804 0.4853276 -0.032332934 0.2194632 0.23564747 0.52901524 0.42179266 -0.34149438 0.554305 -0.0041292207 -0.6342045 -0.012884724 0.09144429 0.23937778 -0.16588391 -0.4017579 0.34597325 -0.32658476 0.34498 0.014262528 0.20926572 -0.31444275 -0.1647397 0.17114711 0.55789113 -0.043023556 -0.08573536 0.34442207 -0.3562476 -0.03667221 -0.5401374 -0.11233879 0.10955697 0.04059567 0.17077512 0.5963336 0.1242405 0.31189963 0.14947666 -0.47995433 -0.12814479 -0.085595995 0.28545094 -0.37504688 -0.19400544 -0.07078012 -0.5577371 -0.51523894 -0.2583828 0.28048894 -0.059498046 -0.3467877 0.15696481 0.4200783 0.18944159 -0.2763466 0.54902005 -0.12145933 0.35282245 -0.19358726 0.15614593 0.3042308 -0.035364814 -0.089146696 -0.16568357 -0.07498214 -0.18831246 0.1497286 -0.30932635 0.5029943 0.26800162 -0.22564879 -0.2995429 0.09220754 0.07360329 -0.14970727 -0.12434961 -0.58424354 -0.6125833 0.6987975 0.024084203 -0.034872983 0.12440925 0.2529291 0.14317158 0.27449244 -0.41070172 0.07241589 0.042088766 -0.18321043 0.40787378 0.4207625 0.23692666 0.44093454 -0.004350092 0.5569365 0.66410506 0.45036796 0.2901418 0.19495152 -0.00036595826 0.09532248 0.21478148 0.31450757 -0.2245457 -0.040542264 -0.3554562 0.07972807 -0.14870715 -0.15567923 0.10972776 0.261443 -0.07000579 0.04362444
33 -0.028585767 0.015166533 0.6357813 0.2514107 0.33096457 0.060872808 0.11070754 -0.23674533 -0.33921254 -0.08287789 -0.34549883 0.24659142 0.23720959 0.5905279 0.60532445 0.3758364 -0.28748497 0.04183087 0.30349678 0.090190284 0.566255 0.029780742 0.4161247 0.047970932 -0.44133726 -0.24885505 -0.12826672 -0.04247618 -0.04009364 -0.25155717 0.29237935 0.10835053 0.44696718 0.45168126 0.26907837 -0.4657358 -0.6566255 -0.14215454 -0.000999848 0.06579166 -0.469972 0.24934752 -0.15565355 -0.64566153 -0.111747816 0.34411976 -0.07455603 0.08847341 0.30557448 0.24880825 0.005835173 -0.17998675 0.25711367 -0.088515855 -0.09627019 -0.40071908 0.3430245 -0.024204994 -0.59440345 -0.06444713 -0.4566208 0.014097108 -0.38798156 -0.021421496 -0.13065618 -0.01602601 0.28949165 0.056538705 0.16369441 0.0064861462 0.33382192 -0.23802526 0.3377655 0.1223758 0.0016355908 0.32894585 0.03978316 0.3144805 -0.3328267 0.32511485 -0.22817855 -0.10803077 -0.3811269 0.6276704 0.09384139 -0.46220884 -0.051050164 0.39552307 0.1206173 -0.48445725 0.56094354 -0.7321097 -0.24163507 0.5753932 0.1573625 -0.034891848 0.3146114 0.3750672 -0.0859762 0.43836766 -0.2807109 -0.06332389 0.13753721 -0.05438917 0.50134295 0.42121172 -0.045386564 0.41944832 0.24015185 0.354208 0.087414965 0.25581104 -0.03786638 0.002696446 -0.012290969 0.06990374 0.017790006 0.49634174 0.25930205 -0.20679185 -0.09903344 0.2590141 -0.2786919 0.071653344 0.260025 0.4654904 0.12581865 -0.1794006
52 -0.19155891 -0.29020035 0.23425408 0.289201 0.16490231 0.2572476 0.18858765 0.18223038 -0.15300037 0.63266593 0.18641683 -0.1078146 0.12034046 0.20797274 0.4183769 0.13632302 0.24418649 0.12848857 -0.013365684 0.16449885 0.30413076 -0.08513723 -0.049508233 -0.10460991 -0.5031745 0.02278773 -0.019258883 0.16828585 0.47326383 -0.39723858 0.19835886 -0.22451021 0.37401006 0.09886548 0.092922576 -0.4911218 0.1875168 -0.2595007 0.27270758 0.13317502 0.07479055 -0.18858047 0.46077576 0.03259996 -0.035503875 0.24660084 -0.29893786 0.31928793 0.4359917 0.2043202 -0.09457776 0.24170607 -0.21442567 -0.34893847 -0.038269706 -0.56193966 0.12329306 -0.1750399 0.62177825 0.06868536 -0.14389074 -0.1447113 -0.018266764 -0.04553949 -0.36782488 -0.44845158 -0.18862009 -0.05399549 -0.009801371 0.07879206 0.21126424 -0.0940401 0.47398987 -0.06899839 -0.3656005 0.28872323 0.0022038403 -0.23299018 0.26130062 -0.058337472 -0.12691261 -0.3694349 0.10826124 0.076769024 0.22328895 -0.11669064 -0.08155893 0.3088019 -0.3458537 -0.14805979 0.19625828 -0.34370726 -0.080744244 -0.2676035 0.40577513 -0.0396077 0.17655323 0.011875067 0.4605725 0.061192814 -0.38690484 0.10404519 -0.11269896 0.12534718 -0.061395455 0.014310573 -0.20925854 0.21262237 -0.27879864 -0.108024366 0.35671094 0.40100157 0.59233385 0.18093316 0.5245046 0.26456386 -0.17550087 -0.00045732892 -0.09570322 -0.16644484 0.03919585 -0.14691567 -0.06174926 0.063628346 0.10954399 -0.060167164 0.112283856 -0.030034505
8 -0.2875966 0.32154414 0.47335833 0.5363736 0.30290684 0.05125873 0.24046932 -0.15128551 -0.10989991 -0.17612737 0.104121715 -0.03927802 -0.050206304 -0.107041776 0.6365254 0.40742505 0.028725054 -0.33532917 -0.027829591 0.0019237028 0.3247022 0.26447305 0.10983316 -0.024455253 -0.32529417 -0.10290709 -0.42164755 -0.01284438 0.4545403 -0.10184879 0.2849127 -0.093574665 0.30536842 0.47962853 0.40019417 -0.33850408 -0.29497388 -0.31775406 0.067874804 0.037051182 -0.11716397 0.1252476 0.24326277 -0.18403703 -0.29291925 0.36240813 -0.21129636 0.2070025 0.37109113 0.0022421626 0.01782674 -0.21142696 -0.34346625 -0.27594364 -0.3120905 -0.19422866 0.19807412 -0.28271177 -0.22774445 -0.2813291 -0.25953913 0.19576967 -0.1828713 -0.26232985 -0.09854877 -0.44074407 0.06958996 -0.2957699 -0.22462721 -0.21588829 0.15516514 -0.18603444 0.24826539 0.25607237 -0.11896221 0.74220616 -0.25734487 -0.120987825 -0.035294928 0.14877264 -0.1430577 -0.11213582 -0.37895754 0.53240526 0.21507591 -0.2818891 0.045907564 0.18729354 -0.10488885 -0.73775584 -0.21474928 -0.28879532 -0.15304273 0.09471629 0.29955944 -0.12408894 0.51770306 0.07037269 0.14808515 0.39230895 0.101139694 -0.06680518 -0.3321601 0.084624484 -0.13398105 0.03545216 0.19591607 0.49221122 0.10740297 0.09804079 0.23719572 0.29803342 0.69973356 -0.24043995 -0.038348302 0.49626708 -0.28091103 0.1875177 -0.46771386 -0.2907402 0.050584886 -0.07807995 -0.10427913 0.08732428 0.2825094 0.541806 -0.17415878 -0.087322086
103 -0.28595644 0.19848773 0.59303397 0.2198133 0.4036665 -0.37570953 0.732509 -0.24585755 -0.5543026 0.5966618 -0.1977791 0.14477712 0.63046277 0.15130325 0.16861576 0.5112077 -0.22605267 -0.00095701613 -0.13238865 -0.21679096 0.068471365 -0.1594217 -0.0588823 0.020213597 -0.3569693 -0.09206639 -0.078451455 -0.18794338 -0.42830974 0.041611124 -0.20562483 -0.35739076 -0.05219283 -0.05045775 -0.006874533 -0.9011891 -0.14919825 -0.25479868 0.09366379 0.03843827 -0.33892077 -0.10311938 -0.17506036 -0.34961697 -0.5130521 -0.19449873 -0.23030587 0.37896323 -0.07243502 0.85708374 0.022773888 -0.07769704 0.12756363 -0.14631481 -0.019888403 0.029035112 0.014012728 -0.10343387 0.038913038 -0.065083824 0.15936247 -0.013018587 0.113464996 0.11102424 -0.34494182 0.30200222 -0.09625589 0.08621561 -0.17391561 -0.19166715 0.65490127 -0.31884766 0.4660254 -0.37121576 -0.59884524 0.39389428 -0.3806943 -0.18859924 0.043798067 -0.23102812 0.03717928 -0.15219533 -0.21493533 0.08645727 -0.05221257 -0.15719442 0.15825607 -0.15916967 0.5157148 -0.13231769 -0.022670262 0.09900238 -0.36674926 0.31918892 0.20043649 -0.29401335 0.38393083 0.25745624 0.60003495 -0.07935206 -0.07695003 0.37784 0.25112528 0.6853399 -0.019856159 0.30610085 0.033153348 -0.05318462 -0.24558027 0.25626004 0.26943496 0.2200184 0.6706965 0.42334193 -0.09233649 -0.19358665 -0.52616554 -0.08000356 0.2105069 -0.433953 -0.3577428 0.21330482 0.43403026 -0.14515743 -0.07156142 0.2672263 0.13822395 -0.22759978
92 -0.06630614 -0.05809397 0.5657551 -0.27859768 0.70076984 0.45093483 0.2913224 -0.28595436 -0.09097842 0.37249488 -0.330823 0.0004341487 0.11188226 -0.25171185 0.4174303 0.28118473 0.36934018 0.31086403 0.52458936 0.32732055 0.55266154 0.49748826 -0.4075789 0.26076648 -0.26705074 0.45129505 0.11978976 0.3211044 -0.11553572 -0.05479139 0.6435782 0.026037613 0.38973388 0.30788717 0.270333 -0.41570425 -0.31799042 -0.36467534 -0.024495214 -0.019002495 0.051269125 -0.31894293 -0.014037083 0.25485665 -0.48943797 -0.15205272 0.15083097 -0.14568384 0.66285324 -0.063186705 0.07075539 -0.19773676 0.16788067 -0.10918407 -0.028534763 0.12644844 -0.15923454 -0.58920515 0.050046094 -0.05305141 -0.23083945 -0.20551649 -0.06342774 0.16755463 -0.7477165 -0.19997403 0.46168336 0.34866828 -0.09004557 -0.09487614 0.0016606159 0.09897602 0.32577553 0.00047393292 -0.033209022 0.66980326 -0.19453137 0.24552223 0.11417927 0.0017971037 -0.021301469 0.09100236 -0.18216155 -0.10933691 0.23910749 0.42469433 0.009259517 -0.07286472 -0.29193738 -0.078754134 0.11291918 -0.5008551 -0.15840447 0.46553916 -0.0068228883 0.0553451 0.16132547 0.030575812 0.25317118 -0.30309796 -0.19996838 0.37377998 -0.12452605 -0.16568673 0.6348389 0.08645604 0.15433621 -0.59247947 -0.006320606 -0.011448853 0.44072264 0.39130464 0.10305068 0.06123686 0.27657 0.28596732 0.22783744 0.31501237 0.3978417 0.29210636 -0.26743233 0.07223917 -0.29088527 -0.40342814 0.34569857 0.52124864 0.021922404 -0.1965047
79 -0.4141038 -0.28551158 0.17153418 -0.31128815 0.2986266 0.16956614 0.6386606 -0.17285666 0.29559726 0.25750473 -0.31720075 -0.05029441 -0.047231913 -0.104972064 -0.1436994 0.16933359 0.23630655 0.18448067 -0.116165176 0.2323546 0.34810567 0.45835447 0.27485463 -0.14198285 -0.0117963515 0.4857829 0.21975443 0.5242642 -0.042606078 -0.24145645 0.735531 -0.7063112 0.33845183 0.3088066 0.53950924 -0.5646925 -0.62554926 -0.54780895 0.48576438 -0.3018579 -0.4207864 0.34576163 -0.02674251 -0.14690845 -0.1102901 -0.16723378 0.28850013 0.06689691 0.2606402 0.82041776 -0.1854885 -0.37709048 0.30115676 0.014815857 0.03864289 -0.5326519 -0.41555467 -0.26930335 -0.11207419 -0.083080895 -0.08631948 -0.50121224 -0.016060568 -0.038142532 -0.55952203 -0.11860702 0.06849285 -0.02342218 0.3567935 -0.34626666 0.36518613 0.17848735 0.63610095 -0.22515549 -0.054333847 0.16549559 -0.2053698 0.39530334 0.06730957 -0.315662 0.02170963 0.41944993 0.29224512 0.45984468 0.031216174 -0.17059483 -0.2652154 0.31412497 -0.09117133 -0.20276771 0.19734655 -0.3738217 0.18653263 0.44936013 0.23904164 0.25654885 0.5061279 0.22900973 -0.06553669 -0.064707614 -0.03455154 0.28431055 0.33468232 0.0034610673 -0.18180656 0.1219046 0.02581757 -0.03252288 0.02950467 0.023076335 0.4263685 -0.13244663 0.2736225 -0.22693503 -0.52317244 -0.29775256 0.18560435 -0.060363427 0.03976951 -0.5095304 0.0050494852 0.1449117 0.22156744 0.04300568 0.15355852 0.2898486 0.25704113 0.061276596
98 -0.16941859 -0.31093746 0.4468986 0.30693948 0.5367284 0.52120084 0.4516159 -0.23475821 -0.043225784 0.43261978 -0.51535755 0.034235734 0.44560573 -0.11163651 0.29434887 -0.044330712 0.2921179 0.47628453 -0.015861865 0.04033542 0.27609208 0.6769337 -0.36569044 -0.16073216 -0.2806596 -0.04908542 -0.09311102 0.17811213 -0.27244276 -0.018416163 0.41130924 0.24383444 0.24654835 0.24622096 0.19393215 -0.26449722 -0.46591023 -0.2760078 0.47665325 -0.13562347 -0.04445744 -0.4218497 -0.001088298 0.20808847 -0.23913065 0.006060347 0.33199576 0.07431182 0.33514386 0.18017292 0.023383675 -0.21268356 0.21984299 -0.12671742 -0.27021784 -0.2742139 0.11070786 -0.06946293 0.0043382933 -0.5745675 -0.21349885 0.19520344 0.1694033 -0.08915714 -0.5334007 -0.21011218 0.368939 0.111629464 -0.08440875 -0.0921302 0.18491027 0.17609283 0.2858461 -0.06718389 -0.14885074 0.24608518 -0.38276422 0.3061531 0.5498464 -0.08407269 0.043131754 0.10599148 0.2603115 -0.2944261 0.13088088 0.5484228 0.39205292 0.048425615 0.0787908 0.03863722 0.18816808 -0.053629752 -0.105699435 0.3827906 0.24172063 0.13880418 0.16867444 0.15788569 0.29605988 -0.20537402 -0.25332108 0.034008782 0.11372857 0.05833601 0.19336157 0.57027864 0.17081438 -0.68162185 -0.24984789 0.31585476 0.012050869 0.5234951 0.08880846 -0.021996217 0.25268063 0.032198396 0.30116045 -0.041767858 0.43874565 -0.1275497 -0.3208311 0.15871966 -0.3360183 -0.28786016 0.08323977 0.55260193 0.17889154 0.038854156
75 -0.41658002 -0.252885 0.13332632 -0.1259364 0.336618 0.12373517 0.6055311 -0.1533847 0.19236141 0.2326612 -0.2673966 -0.035016634 0.09497108 -0.029558767 -0.13916387 0.1066799 0.12867185 0.19318567 -0.22842231 0.16430426 0.24572957 0.40934736 0.086817406 -0.20252834 -0.065364234 0.30552804 0.21362513 0.2854095 -0.17572664 -0.12855397 0.56381506 -0.5449299 0.12635282 0.28842852 0.38888898 -0.5210236 -0.5035158 -0.45456767 0.41530845 -0.26375133 -0.33898094 0.17313918 -0.037940554 -0.2151496 -0.08618415 -0.22364512 0.22725822 0.18592384 0.1085502 0.7075717 -0.05761903 -0.42930534 0.266767 0.012333869 -0.03783735 -0.41167533 -0.3590993 -0.15070066 -0.11767425 -0.22887062 0.05092818 -0.24327031 0.17770673 -0.19752045 -0.40755966 0.0017745773 0.053501878 -0.074020274 0.19517359 -0.27601358 0.32384202 0.09508105 0.5006687 -0.20220183 -0.14462255 0.03602537 -0.2841375 0.28356355 0.19239062 -0.3039051 0.17171133 0.26012775 0.28906783 0.20495613 0.047045734 0.06702132 -0.053522825 0.18912145 -0.0051936917 -0.061102126 0.15452667 -0.118264765 0.14840105 0.32926857 0.20582841 0.10009186 0.41264522 0.19526899 -0.033997327 -0.12625764 0.027841248 0.20755427 0.3684418 0.09758147 -0.20984243 0.23963374 -0.0008829497 -0.16038764 -0.081609145 0.20048152 0.256352 -0.06967184 0.25946814 -0.11352143 -0.4704979 -0.31189775 0.050191395 -0.14813663 0.07834757 -0.4715892 -0.18820223 0.116539136 0.26259044 0.03410013 0.035052266 0.24212724 0.18782392 0.019465365
12 -0.30952212 -0.08255608 0.19134507 0.5226568 -0.05734867 -0.01728092 0.33308426 0.17090689 -0.16664673 -0.43132976 -0.18051033 0.2877678 0.2926877 0.23128028 0.32018772 0.40549287 -0.18716377 -0.38158524 0.2732454 0.07493631 0.34770042 0.16796753 -0.18864812 0.032950003 -0.20009485 0.18655728 -0.42270207 0.19249474 0.29230425 -0.20292267 0.49084654 -0.5393691 0.5721879 0.69341236 0.3183848 -0.23877254 -0.42725876 -0.19426993 0.22747748 0.07020292 0.082990475 0.11716769 -0.008028176 -0.05748382 -0.21819739 0.18471038 0.13365984 0.10958644 0.42985886 0.39332476 -0.14481339 -0.369969 -0.32564962 -0.0008771907 -0.42806286 -0.32030466 -0.06009896 -0.104570135 0.10422641 -0.025847254 -0.37235 -0.080859914 -0.56823826 -0.35894164 -0.13601896 0.031143393 0.37790516 -0.26433444 -0.15267792 -0.13442117 0.0133795785 0.024145652 0.08890052 0.28978348 -0.3567322 0.5805203 0.12931687 -0.010918431 -0.046688817 0.3092882 -0.005764514 0.043547455 -0.22059101 0.3418151 0.39814338 -0.49170533 0.18080734 0.2725609 -0.36637247 -0.4271285 -0.10040656 -0.5548765 0.32078263 0.044358023 0.4135154 0.033626813 0.28179765 0.0034591483 -0.029478554 -0.05735213 -0.20933859 -0.066919655 0.19007356 0.07253044 0.0012244983 0.14226367 0.23064926 0.5609949 0.002433723 0.17423646 -0.10103933 0.3748666 0.30339178 -0.020276338 0.14878595 0.40385827 -0.26624683 0.41169503 0.024516856 0.121066 -0.019766206 0.195424 -0.10668092 0.15786983 0.47666553 0.71250576 -0.24966323 -0.12513535
21 -0.17731825 -0.041022513 0.54875004 0.10226037 -0.05822558 -0.12936099 0.3617648 -0.24431546 -0.23369612 0.57871926 -0.42614594 -0.099957675 0.12752074 -0.040398754 0.16613269 0.5437857 -0.06091313 0.07705938 0.17305313 0.4347222 0.39405042 -0.2553781 0.4712968 -0.0475472 -0.58057994 0.050818868 -0.1319734 0.26653773 -0.04692945 -0.3896546 0.3496862 -0.44056576 0.28640872 0.06467385 0.17820942 -0.21009304 -0.11930344 0.21494903 0.6534362 -0.10867095 0.098426625 0.31102055 -0.35458052 -0.028069023 -0.49615645 -0.034009974 0.14013422 0.037439883 0.30636105 0.5647099 0.17174892 0.27041042 -0.03064281 -0.43481165 -0.40076733 -0.034950703 0.28339392 -0.3259289 -0.20772187 -0.22636378 -0.5838495 -0.412041 -0.39843282 0.21991104 -0.02278405 -0.40336427 0.24701273 0.43645194 0.029697403 -0.38023832 0.53216976 -0.18299566 0.2692865 -0.119041555 0.03950857 0.5020166 -0.09878373 -0.17844425 -0.11308287 0.040104575 -0.19644243 0.02386444 -0.4082642 0.5274952 0.37114933 -0.2400586 -0.31086984 0.11911648 -0.011303551 -0.3004822 -0.34145716 -0.6063869 -0.5265486 0.62508804 0.0785291 -0.07654177 0.23831879 0.3612492 0.21096663 0.2008768 -0.35855034 -0.0241268 0.08881089 -0.10561332 0.29487857 0.432915 0.37746865 0.6403598 0.027494788 0.56940293 0.5549987 0.5463275 0.44929555 0.16403411 0.054634213 0.24113157 0.022517366 0.4220467 -0.22616605 -0.028976439 -0.29710436 0.11956601 -0.13421239 -0.11632692 0.28197712 0.3717926 -0.24929051 0.04888117
67 -0.27925593 -0.23267855 0.11191477 0.12085329 0.33111012 -0.21284856 0.6253597 -0.049759395 -0.063436955 0.0035960649 -0.2077174 0.1135809 -0.0541156 0.46241507 0.13094896 0.36466014 -0.16358003 0.13160504 -0.15223019 0.46625102 0.52925026 -0.14000277 0.08695712 -0.3661957 -0.36016434 0.045158807 0.33170888 -0.01873884 -0.015871255 -0.22077245 0.6662023 -0.46001768 0.32065636 0.59163064 0.55887264 -0.6148005 -0.15717807 -0.5415338 0.08099609 -0.28959188 -0.255765 0.13277262 -0.14296708 -0.23001513 -0.18479376 -0.48051685 -0.15697065 0.57595867 -0.08821624 0.4518701 0.19462517 -0.50300395 0.24611406 -0.21225208 0.2352227 -0.45908114 -0.14507328 -0.27293608 -0.10390622 -0.05006323 -0.10124289 -0.09032436 0.60467154 -0.30426058 -0.28312021 0.11230664 0.41096213 -0.50002325 0.2633444 -0.1083793 0.46789366 0.28309724 0.724391 0.034432307 -0.370939 -0.12034514 -0.055224102 0.17468013 0.18291788 0.0017271129 0.44385564 0.3631499 -0.18599267 0.06501678 0.24160087 0.03360812 0.16757236 -0.001913758 -0.029547233 -0.09927568 0.3508972 -0.33544105 -0.3198106 0.17887403 0.18998608 -0.38462523 0.30764195 -0.19065273 -0.19085148 0.16101933 -0.10897017 0.15876424 0.35240424 0.24466966 -0.10884754 0.12205671 -0.22566888 -0.0953873 -0.084942386 0.62492955 0.56629115 0.18614087 0.52905697 0.109230645 -0.24980001 -0.13570419 -0.030245678 -0.23000024 -0.31530532 -0.29919147 -0.68479043 -0.24672845 0.059448417 0.084653914 -0.2477332 0.42287642 0.029240869 -0.10804243
59 -0.36325485 -0.356941 0.32053912 -0.09725427 0.412232 0.24113886 0.3512694 -0.039044734 0.1763744 0.37491047 -0.25691414 -0.27991098 0.23331666 0.028072705 0.091166824 0.19230053 0.05383849 0.024040902 -0.14191698 0.3589363 0.26137662 0.1472278 -0.21907026 -0.09151682 -0.14512238 0.24258754 0.31153017 0.310794 -0.10626745 -0.031015353 0.52504677 -0.42389905 -0.075085625 0.48301148 0.14744127 -0.53503054 -0.15032868 -0.22467445 0.16498391 -0.17589611 0.0025149735 -0.2537019 0.108069845 -0.1510374 -0.22333479 -0.24656571 0.1908693 0.12280446 0.24333753 0.46686143 0.26030043 -0.41595078 0.08756355 0.07476276 -0.015429926 -0.08114424 -0.25417045 -0.3356976 0.053094666 -0.36981282 0.21821311 -0.19848776 0.26926976 -0.37973085 -0.24039973 0.0466548 0.08598924 -0.0410152 -0.10596276 0.06477269 0.2923028 -0.12143552 0.53692114 -0.03987801 -0.26483932 0.09809296 -0.37883937 0.16592799 0.34069628 -0.41911882 0.43074027 -0.15348879 0.23574813 -0.31689468 0.3537219 0.33381158 0.16249351 0.054409914 -0.113808475 0.073247336 0.041100923 0.026808232 0.120321125 0.29987338 0.12841837 -0.08176592 0.3958123 0.18170264 0.16519538 -0.093723334 0.05409869 0.28682095 0.2778739 0.09779181 0.10505974 0.3840372 -0.08381205 -0.3944575 -0.25590527 0.41170007 0.15771075 0.06667625 0.24541566 0.1513953 -0.15842842 -0.13727258 -0.068806715 -0.03587075 0.14356571 -0.2569026 -0.5089308 0.20558603 0.44802123 0.16168998 0.081528984 0.108007245 0.22780402 -0.076068915
56 -0.33677927 -0.31961367 0.023376672 0.24444032 0.33199775 0.4465281 0.2582747 -0.010648258 -0.05425778 0.19748938 -0.19306451 -0.13486005 0.39875683 0.10453811 0.32825458 0.1368782 0.20287119 0.2682108 0.053082358 0.119542845 0.24322714 0.582393 -0.32614473 -0.06115675 -0.33802643 0.29835308 -0.056827575 -0.021974219 -0.14096494 -0.065296546 0.36624196 0.01390416 0.023573445 0.39437383 0.16459256 -0.5181334 -0.32367283 -0.2887756 0.25117135 0.1058113 0.121987045 -0.20765458 0.08203932 -0.29577768 -0.19577426 -0.121813916 0.27780643 0.25286713 0.35247847 0.20226368 0.096672736 -0.5012747 0.12416802 -0.03465021 -0.46002004 -0.16933948 -0.18902327 -0.06767021 -0.018775674 -0.53655434 0.13958848 0.1742052 0.116886415 -0.4948784 -0.35853985 -0.07334431 0.07925663 0.21128608 -0.15012555 -0.16621378 -0.03770153 -0.15434995 0.18098159 0.048299447 -0.35831738 0.1494882 -0.58113104 0.04130874 0.390143 -0.11637588 0.3417424 -0.25205585 0.1984334 -0.18014982 0.20666909 0.33418605 0.23834899 -0.013917622 -0.19628158 0.10218956 -0.08695552 -0.05916558 0.08804821 0.018369185 0.33983156 0.05526037 0.09086479 0.017816689 0.34184015 -0.24780567 -0.2997769 0.27445865 0.18909325 0.09229175 0.15136318 0.45553967 0.2247802 -0.21316662 -0.3601986 0.24368717 -0.13392216 0.38426307 0.15340228 0.091668 -0.16324623 0.048273444 -0.04564733 -0.01565428 0.41146645 -0.24832629 -0.385396 0.21440342 0.070292465 -0.04757542 0.04293929 0.45446014 -0.12552129 -0.15072517
106 -0.4874145 0.1829818 0.40820882 0.366283 0.40303633 -0.34396237 0.48070207 -0.17817283 -0.25976247 0.3129503 -0.11368394 0.14077857 0.67709327 0.070908755 0.021365188 0.018117508 0.022074064 0.018460676 -0.13379367 -0.18811698 -0.011239287 0.17797263 -0.29114732 -0.03789977 -0.5328793 0.0759172 -0.062141296 -0.09872367 -0.5493751 0.11623338 -0.04676292 -0.5673595 -0.05822428 0.0065600867 -0.17216063 -0.65054756 -0.41941363 -0.39046726 0.12020186 0.20427677 -0.28114456 0.020137746 0.18512273 -0.4232462 -0.3199284 0.060265183 -0.14813717 0.381355 0.08673732 0.940954 0.08132736 -0.15443915 -0.11149422 -0.3338938 -0.33946335 -0.38332665 -0.10066903 0.016271425 -0.039596878 -0.29333523 -0.0011241825 0.2812309 -0.024255961 -0.1924046 -0.63500035 0.069722146 -0.08455248 0.24873473 -0.22809608 -0.36457267 0.33201572 0.021943685 0.19066048 -0.31826472 -0.5914283 0.37329373 0.019189557 -0.20941915 -0.17976856 0.004376268 -0.120477505 -0.4492283 -0.31562254 0.32904118 -0.29827037 -0.11970545 0.24246357 0.3241345 0.2092753 -0.07683428 0.0045919153 -0.050601516 -0.054392118 0.2662405 0.28156498 0.047847334 0.52567697 0.15618736 0.41618374 -0.60163593 0.13892008 0.18325973 -0.032149892 0.34245056 0.12832652 0.22485128 0.23829314 0.20305295 -0.22483751 0.057707082 0.32212135 0.30584064 0.5382347 0.23891297 -0.043590173 0.15908056 -0.40101877 0.030611679 -0.017370306 -0.11999023 -0.26797587 -0.016655054 0.4484736 -0.3816355 0.20315616 0.17878105 -0.16798362 -0.22878978
65 -0.2755307 -0.22388078 0.06281693 0.03907057 0.42631638 -0.0390819 0.64291435 -0.11483317 -0.017077526 0.007705758 -0.2071954 0.09839754 0.0057793763 0.2933234 0.07076935 0.2477186 -0.09110551 0.24551706 -0.1451164 0.4045398 0.49358606 0.08007914 -0.0021851268 -0.31891572 -0.22987741 0.13720708 0.32251608 0.009083521 -0.1044376 -0.15994072 0.6536554 -0.35691956 0.25632066 0.503513 0.5062754 -0.5267274 -0.23704803 -0.52716106 0.14241393 -0.29631144 -0.2777785 0.098302044 -0.16245466 -0.2001982 -0.11005481 -0.4871503 -0.053562675 0.4703942 -0.04681719 0.3519557 0.14496185 -0.56676346 0.3324445 -0.13196261 0.14900659 -0.36234048 -0.26422828 -0.23606412 -0.14091013 -0.102158606 -0.07048775 -0.098176055 0.6212312 -0.29188907 -0.32504025 0.1074454 0.3958803 -0.3800162 0.21769129 -0.19679877 0.3605894 0.25788552 0.5734794 -0.023759652 -0.2690716 -0.13029078 -0.12436041 0.22622953 0.2666872 -0.06731046 0.4047004 0.38717905 -0.020994645 0.0029638233 0.21039519 0.23276564 0.11140111 -0.07179981 -0.03674964 0.011814414 0.29364046 -0.24135183 -0.2544816 0.20833267 0.14955388 -0.30649456 0.23608497 -0.15199424 -0.21059208 0.025355328 -0.066966675 0.17402329 0.36695707 0.16962011 -0.11342464 0.13083772 -0.16003676 -0.27963066 -0.10856605 0.5397294 0.48013696 0.15111753 0.40100494 0.009862165 -0.3009714 -0.2149673 0.0038704204 -0.2435678 -0.13285267 -0.28559563 -0.5937837 -0.18371944 -0.007952674 0.01238513 -0.2111596 0.4291906 0.03897277 -0.112079404
50 -0.14082071 -0.29064366 0.26388302 0.30533227 0.18759164 0.21073328 0.26038703 0.15476675 -0.22958824 0.7038354 0.19194764 -0.085645005 0.16048653 0.22619681 0.41915262 0.18441013 0.20314376 0.16086417 -0.01782821 0.13947512 0.31667057 -0.17206338 -0.026868882 -0.11594326 -0.54724884 0.027443914 0.014177108 0.122834966 0.41837633 -0.39424783 0.12559089 -0.28986564 0.4101952 0.021907236 0.08816615 -0.5301405 0.23111169 -0.30903414 0.29359812 0.15335275 -0.00045723125 -0.14710328 0.4420897 -0.045231212 -0.006582669 0.1885504 -0.37370932 0.3514589 0.40018407 0.33077607 -0.101413555 0.29379344 -0.19735569 -0.39790553 -0.018263986 -0.57314646 0.15411714 -0.15237704 0.6601453 0.11719243 -0.13208404 -0.16305141 0.017294262 0.015705885 -0.362389 -0.38432142 -0.17041978 -0.02934309 -0.030473007 0.054682095 0.21189383 -0.11816657 0.44216576 -0.10075202 -0.3776375 0.28781465 0.05690445 -0.2638591 0.17513934 -0.04823348 -0.20768125 -0.35275564 0.057224024 0.100645475 0.17014574 -0.16066888 -0.121531926 0.29561433 -0.3114062 -0.105355985 0.25199738 -0.3824698 -0.1461648 -0.2507378 0.38948503 -0.05493583 0.14524777 0.03128291 0.47765812 0.017718041 -0.3966127 0.08783122 -0.099137746 0.182564 -0.027588306 -0.0018852521 -0.2344595 0.28018188 -0.27394906 -0.16804636 0.37944964 0.40360296 0.6069476 0.21313366 0.54987323 0.21052581 -0.23135933 0.0036618104 -0.08197625 -0.16583747 0.06355497 -0.14892644 -0.012162122 0.005716841 0.08547096 -0.14114906 0.12204332 -0.0566017
90 -0.14043559 -0.104597285 0.54453963 -0.14849123 0.6438291 0.4647399 0.264146 -0.21357054 -0.05469316 0.35903952 -0.35607514 -0.04255423 0.23174238 -0.22728899 0.35374835 0.2299998 0.27262655 0.26220337 0.33274114 0.2976911 0.45841658 0.5028898 -0.41183317 0.14810733 -0.16902466 0.31554994 0.10672515 0.3118249 -0.1512781 -0.00012264162 0.57962245 0.019331533 0.21241368 0.36825895 0.21059342 -0.39081335 -0.3529727 -0.27044973 0.0006358625 -0.09354737 0.030044382 -0.3563218 -0.009456118 0.14216584 -0.38603395 -0.122965656 0.20341839 -0.10111292 0.55580896 -0.00024092023 0.14012846 -0.27866203 0.17706178 -0.03855417 -0.11233751 0.12546177 -0.13127021 -0.4839661 -0.033728447 -0.22105215 -0.11300939 -0.14857915 0.044143323 -0.017748615 -0.5393682 -0.113294944 0.3561952 0.25968754 -0.19522266 -0.048462994 0.084356815 0.022716124 0.30990455 0.0025784601 -0.08967265 0.49189782 -0.26916623 0.199024 0.2120035 -0.10434025 0.09105319 -0.04350265 -0.024741156 -0.23947239 0.2665221 0.47611973 0.08703318 -0.092672594 -0.19320607 -0.038626403 0.040162712 -0.27493405 -0.07795916 0.4375571 0.034874965 0.02892049 0.17478244 0.06285511 0.24342579 -0.26679063 -0.08304889 0.33681458 -0.026954804 -0.116821125 0.5157966 0.22891918 0.11285514 -0.5936483 -0.07645043 0.10481477 0.2948073 0.32454088 0.065155596 0.054219786 0.16024707 0.16257681 0.14053512 0.22876053 0.40968022 0.18772559 -0.2822698 0.16071461 -0.16069008 -0.24886353 0.3138478 0.4347996 0.0803215 -0.19341037
105 -0.3467449 0.15932582 0.3478871 0.36664876 0.3340047 -0.27991357 0.42452675 -0.14548348 -0.29453975 0.2684842 -0.09528775 0.13842651 0.61836326 0.08627893 0.08546664 0.0875435 -0.048472207 -0.012783948 -0.110605575 -0.22021507 0.0038315991 0.10588505 -0.24225335 0.0027047042 -0.41630718 -0.010458723 -0.13071932 -0.1842552 -0.462658 0.109357886 -0.120324254 -0.35134628 -0.059832443 0.01294419 -0.16264766 -0.59151626 -0.28912455 -0.29888 0.080994055 0.20147385 -0.2599766 -0.038186193 0.12626755 -0.3756306 -0.3012593 0.054465055 -0.15291062 0.32805178 0.05962281 0.6958138 0.034715176 -0.099171646 -0.09150239 -0.26347062 -0.26902393 -0.2513098 -0.024456337 0.05642698 -0.0073253214 -0.23751311 0.029188778 0.2855798 -0.04097653 -0.14951977 -0.4788912 0.1123176 -0.08884597 0.16956359 -0.23872484 -0.27066687 0.3183843 -0.08398537 0.16891961 -0.22740182 -0.5403908 0.32590762 -0.07632555 -0.18221815 -0.096535586 0.008070653 -0.089397 -0.3755139 -0.27448615 0.2192741 -0.21021956 -0.12625016 0.24895166 0.19575591 0.2169495 -0.10386105 0.009432563 -0.026259162 -0.079854004 0.18652128 0.2570279 -0.022887487 0.40286195 0.16547698 0.42290202 -0.42721286 0.05890797 0.14976658 -0.006586675 0.3843831 0.13247715 0.2315637 0.17409663 0.17108908 -0.1923219 0.066123344 0.17450213 0.30843666 0.4615157 0.2402467 0.029532563 0.11125535 -0.38212326 0.04123716 0.053524245 -0.124966525 -0.23453252 0.06701 0.33047256 -0.26320258 0.13944925 0.21923637 -0.08832941 -0.20696057
7 -0.21440634 0.19899844 0.4371053 0.4609812 0.23297098 0.12087756 0.12550937 -0.078847975 -0.16098543 -0.06441931 0.123583496 -0.04213079 0.012092203 -0.017857745 0.60402256 0.36923593 -0.009826404 -0.2400218 0.014055291 0.040229805 0.321876 0.15125944 0.10727917 -0.038247336 -0.32236895 -0.101939715 -0.31004673 -0.009419125 0.45144165 -0.13273388 0.21823233 -0.05971267 0.26433158 0.3950122 0.28731525 -0.27923682 -0.18376075 -0.18721725 0.09742668 0.059067648 -0.029256536 0.07010909 0.21694215 -0.21017805 -0.18667072 0.33019596 -0.18338068 0.17127588 0.38293594 0.010652686 0.038220033 -0.12906672 -0.2813015 -0.23978946 -0.31750363 -0.18651424 0.21248488 -0.22383407 -0.11192004 -0.23795985 -0.21654116 0.11509219 -0.16822556 -0.24040052 -0.030873159 -0.39110395 0.05134826 -0.17978802 -0.22243497 -0.10688267 0.119133554 -0.22916096 0.19399405 0.20349532 -0.10398284 0.602058 -0.20100786 -0.13508019 -0.018195912 0.11441069 -0.14615911 -0.22719881 -0.24210933 0.39159784 0.25122428 -0.22118837 0.009424486 0.17511043 -0.16631117 -0.5408232 -0.15210773 -0.27130836 -0.10706149 0.036732722 0.2578756 -0.13932402 0.36840254 0.096775085 0.15020871 0.32263228 0.020419208 -0.04628548 -0.24642572 0.03210622 -0.04019514 0.09343525 0.10112629 0.43419963 0.04088997 0.08814416 0.16796936 0.27350366 0.54868 -0.121561125 0.06260505 0.4316552 -0.258796 0.22986288 -0.3011347 -0.22565934 0.05715065 -0.041084398 -0.09840345 0.108287066 0.26348412 0.3645742 -0.12738846 -0.08643431
102 -0.25480297 0.17119622 0.43337408 0.3321988 0.36660263 -0.3053768 0.6561535 -0.2018924 -0.47000623 0.43069816 -0.18084934 0.13981819 0.69232017 0.12505648 0.17135784 0.36731404 -0.17096165 0.00080819504 -0.11676212 -0.23898892 0.042742874 -0.04825906 -0.16886999 0.012905141 -0.39253128 -0.039301198 -0.13098684 -0.23992896 -0.44472766 0.08166654 -0.17654799 -0.28861135 -0.01080462 -0.016058225 -0.068828024 -0.80123067 -0.15363038 -0.29802385 0.1247893 0.16552871 -0.29599455 -0.074374415 -0.073798865 -0.35788333 -0.4706004 -0.14142527 -0.18469469 0.38684505 -0.051135387 0.77727425 0.008469393 -0.089787856 0.008571468 -0.17317083 -0.12805828 -0.035415787 -3.474272e-05 0.020478372 0.086156815 -0.13595335 0.13431416 0.16323711 0.06731284 0.0018086607 -0.42983282 0.2748608 -0.06317359 0.1417825 -0.21693483 -0.25253937 0.4861847 -0.22915578 0.30683985 -0.29973197 -0.62641996 0.37168926 -0.3309171 -0.17076112 0.022818029 -0.14698997 0.010822443 -0.18503432 -0.2422778 0.07485512 -0.11696294 -0.16917352 0.24491216 -0.091231965 0.42361537 -0.09209769 -0.030098123 0.05709023 -0.27919358 0.24115865 0.24993959 -0.20419906 0.36386344 0.19902577 0.579233 -0.24811207 -0.07724603 0.3174944 0.16479933 0.64011145 0.07123996 0.30563667 0.12637697 0.0032506527 -0.2981338 0.16702679 0.16481139 0.32524207 0.5927633 0.36515972 -0.016211662 -0.06989701 -0.48028144 -0.06805928 0.2093557 -0.30185333 -0.3680437 0.1825824 0.40015206 -0.20646207 -0.04977753 0.3160868 0.052290473 -0.24080835
46 -0.17228328 0.120546564 0.7168293 0.23280372 0.21932015 0.022313116 -0.17006454 0.05999406 -0.20044866 0.27059165 -0.19620796 -0.10043382 0.08265822 0.36627078 0.49649164 0.043344975 0.20750369 0.004692452 0.13179475 0.11708704 -0.18794395 -0.07112649 -0.053681858 -0.2011525 -0.68425965 0.10813586 0.16680074 0.51059574 0.40118957 -0.2430565 0.10468416 -0.2308758 0.61510605 0.15613787 0.3878483 -0.40223208 -0.14928949 -0.418902 -0.26070285 0.018109994 0.3479011 -0.24295211 0.25799426 0.31532377 -0.17735797 0.17672954 -0.23455189 0.37351224 0.45237213 0.7382721 0.32117558 -0.05692231 -0.125321 -0.123454526 -0.019300144 -0.5789429 0.29779628 -0.4979265 0.24942616 0.25032654 -0.1802205 -0.19217563 0.09087176 0.15747735 -0.77638453 -0.41207057 0.38356245 0.06944532 0.36150715 0.07706113 0.082917064 0.36464715 0.66244143 -0.1547504 -0.25045663 0.40158632 0.23309767 0.0106870355 -0.093597844 -0.0016182192 -0.032262627 -0.287228 -0.15318705 0.17738388 0.088527545 -0.1795748 -0.010683772 0.40817407 0.17747304 -0.116715014 0.2966731 -0.29195502 -0.41511256 0.19196162 0.2780319 0.08307856 0.57751715 -0.35885197 0.4186333 0.3775652 -0.35316318 0.27388963 -0.09402264 -0.11443783 -0.19330111 0.004741253 -0.09068717 -0.4258508 -0.41945252 0.0629684 0.6199129 0.22709495 0.6273938 0.15426508 0.2631746 0.520745 0.16628759 -0.030886956 -0.1906971 -0.39029655 -0.3161925 -0.5569147 0.030440092 -0.22426288 0.017520545 0.004609795 0.093875505 -0.0007205614
19 -0.17246152 0.0028235468 0.4941198 0.20512936 -0.07148598 -0.17813653 0.25194064 -0.16256383 -0.2737464 0.40301734 -0.27947176 -0.016227886 0.15938193 0.08944016 0.23637179 0.47881728 -0.11217645 -0.026538577 0.17436115 0.26719213 0.34627032 -0.23807268 0.40375644 -0.01252623 -0.5046541 -0.018601906 -0.16748805 0.15228586 0.015471805 -0.34111595 0.21428324 -0.3837187 0.26163062 0.08482352 0.120710686 -0.22859068 -0.124361105 0.17874801 0.45468962 -0.009463724 0.044371117 0.2741423 -0.21928436 -0.11547806 -0.38873476 0.072401956 0.033961248 0.0707351 0.2548914 0.49287945 0.08771942 0.20358598 -0.08251921 -0.38475698 -0.34315738 -0.09697777 0.26412857 -0.2412616 -0.14373365 -0.14161907 -0.46984968 -0.282101 -0.40034512 0.11771539 0.0011488847 -0.29867995 0.14292571 0.2907044 -0.0011535299 -0.26199344 0.44166827 -0.19889201 0.22434624 -0.07436702 -0.032900233 0.4411235 -0.035489585 -0.19962443 -0.15913677 0.09558715 -0.21883601 -0.08111192 -0.3552665 0.51194775 0.27617943 -0.3407262 -0.21735469 0.17582063 -0.032781646 -0.29601887 -0.24160995 -0.5275186 -0.34946504 0.41767666 0.11732706 -0.0740445 0.21293929 0.28395137 0.19063494 0.19034083 -0.27287358 -0.036018714 0.05552206 -0.03672863 0.22251137 0.32969335 0.24329478 0.6680435 0.054043528 0.41662505 0.38918683 0.43106142 0.40025717 0.1748302 0.08833921 0.26775938 -0.081540555 0.40770093 -0.21600068 -0.041082863 -0.1616204 0.10752376 -0.07769782 -0.027916063 0.26148075 0.29639822 -0.23100951 0.011201843
96 -0.18035488 -0.2822526 0.52254266 0.3354756 0.5707996 0.47888964 0.48327914 -0.2503818 -0.041424 0.46421707 -0.5771782 0.0611909 0.44972706 -0.08802268 0.24323642 -0.069930345 0.25874984 0.47661754 -0.07694932 0.06965827 0.22434539 0.6270002 -0.38387614 -0.16954869 -0.28300384 -0.11293591 -0.07130445 0.18057235 -0.31747237 -0.051232424 0.4209402 0.17641477 0.19297281 0.24143824 0.18383545 -0.2685952 -0.511452 -0.25539517 0.42854872 -0.15939268 -0.10332947 -0.4148875 -0.035734985 0.17874394 -0.22581416 -0.017025111 0.28265554 0.116618834 0.2620964 0.27312115 0.034735687 -0.16636364 0.26298222 -0.12440899 -0.22887519 -0.2721879 0.1073335 -0.099612296 -0.015032869 -0.5305024 -0.19249065 0.19183348 0.21110661 -0.07007585 -0.49662608 -0.1369971 0.3576298 0.12559412 -0.08328479 -0.081427895 0.22631906 0.2252733 0.28017458 -0.12819983 -0.15605362 0.18250887 -0.32065234 0.30532965 0.52492577 -0.11919516 0.052486576 0.11410177 0.25296572 -0.3248494 0.07512049 0.5516888 0.3658008 0.013198033 0.1766458 0.0034472642 0.23627418 0.025723083 -0.115262926 0.42944783 0.16328333 0.11560897 0.17959423 0.20884328 0.23697926 -0.2150976 -0.14491764 0.044138193 0.15568729 0.09839839 0.16448413 0.55493325 0.10165634 -0.7025474 -0.22655876 0.27355033 0.0335949 0.41935998 0.066342846 -0.057940297 0.2428352 -0.066502295 0.26799658 -0.089206874 0.4330049 -0.11440394 -0.3361054 0.16068539 -0.28861663 -0.24583969 0.08264917 0.47544813 0.23781134 0.046682756
82 0.1072089 -0.2157189 0.107577085 0.06478704 0.42098442 0.36769336 0.28113124 -0.19312513 0.01433114 0.11905953 -0.4051421 -0.18767074 0.42998162 0.02612345 0.32653514 0.107569024 0.04933686 0.2843106 0.08493975 0.24100292 0.2904286 0.17289321 -0.19548826 -0.06986675 -0.3312679 0.23481879 0.18968074 0.040844943 -0.25809354 0.09820482 0.38013414 0.15134098 0.24886648 0.3005831 0.14456886 -0.36293742 -0.06599045 -0.25945604 0.26836586 0.108094506 0.02737846 -0.059939433 -0.018468304 -0.14816076 -0.24562888 -0.3365412 0.22288463 0.19394122 0.14803696 0.23385149 0.22330031 -0.23954263 0.049036693 0.016212674 -0.1209913 0.06886114 -0.024421846 0.008441363 0.07853391 -0.36108494 0.061401017 0.14284022 0.30034944 -0.13023709 -0.52436215 0.04870291 0.3445771 0.3929975 -0.07467165 -0.16579677 -0.030824276 0.019347277 0.22468229 -0.022862628 -0.20698513 0.14260678 -0.43074027 0.26999536 0.14741729 -0.27232784 0.19898331 0.009181679 0.029815016 -0.25804883 0.12497637 0.22213054 0.21083376 -0.10774864 0.09175301 0.18609533 0.0626544 -0.17153409 -0.2583043 0.3565077 0.11665541 -0.09613964 0.18516815 0.07639251 0.25300932 -0.2619505 -0.2071931 0.34771568 0.10552186 0.12153978 0.5348353 0.4337426 0.17092931 -0.4870528 -0.44141752 0.30210784 0.05671073 0.38469556 0.12888585 0.10668766 0.051656876 0.054641616 0.18271661 0.046248004 0.37061566 -0.0997847 -0.6390014 0.11637549 0.11525366 -0.18947107 -0.12500142 0.4186398 0.12862453 -0.2193544
44 -0.23791215 0.055642646 0.52911246 0.32629684 0.18264832 -0.01840014 -0.012017275 0.12346089 -0.15523838 0.34625366 -0.02790892 -0.087582015 0.11482362 0.25043532 0.45870328 0.033744954 0.29029408 -0.0378521 0.040917374 0.030978547 -0.12321054 -0.018955873 -0.12802379 -0.10239826 -0.591522 0.06403017 -0.007582096 0.35328436 0.33650756 -0.21509854 0.043193243 -0.19961947 0.45631796 0.13085292 0.26221368 -0.50262487 -0.08493151 -0.42355025 -0.23184463 0.12283972 0.21756499 -0.26638988 0.382923 0.25565475 -0.20590587 0.23267673 -0.29682 0.3570292 0.3810809 0.5511426 0.14071217 0.042672217 -0.19552785 -0.16366147 0.026840154 -0.5399288 0.2378322 -0.3721417 0.3596761 0.20775527 -0.10796163 -0.08709833 0.00067542377 0.09275824 -0.7143903 -0.35167986 0.0849703 -0.051463116 0.20042945 0.06365909 0.17643756 0.23357019 0.62128586 -0.1289778 -0.3843078 0.35310805 0.15190385 -0.112780154 -0.0073619667 -0.015667696 -0.030944258 -0.31997228 -0.143815 0.15401731 0.037109595 -0.23190457 0.05475394 0.36174166 0.09758841 -0.17519325 0.2540159 -0.2315875 -0.2735965 0.0021955662 0.3774358 0.11828212 0.4932269 -0.2934392 0.5336677 0.26309085 -0.28343427 0.25575295 -0.1474273 0.05652352 -0.19600181 -0.068277545 -0.10259833 -0.2268613 -0.36667958 -0.08925462 0.49171394 0.2655634 0.65153116 0.14754726 0.3232031 0.44805247 -0.0035456903 -0.09265963 -0.2019603 -0.3354658 -0.15905063 -0.39590958 0.09991863 -0.13555697 0.027612431 0.019795053 0.12338949 -0.030884491
10 -0.26658833 -0.03870104 0.2785338 0.45256883 -0.007615233 0.0022344124 0.1962378 0.122385584 -0.20474097 -0.19754358 -0.07672684 0.16653855 0.25349686 0.21563245 0.32612598 0.35601246 -0.19927177 -0.31002468 0.1888357 0.0791653 0.24662082 0.041410547 -0.07125969 -0.0037883692 -0.2757009 0.0747153 -0.291555 0.13821647 0.32918426 -0.19153927 0.2935587 -0.4268491 0.42250368 0.49542215 0.1944742 -0.20825109 -0.23647936 -0.085956305 0.21106 0.081076674 0.12972192 0.08922937 0.05576739 -0.11167322 -0.1713802 0.21198119 0.0044269077 0.12864816 0.38415188 0.38541663 -0.05262653 -0.2048356 -0.29299355 -0.06140534 -0.38129738 -0.30258492 0.06696682 -0.10898522 0.11333771 -0.04534938 -0.27895617 -0.064934656 -0.42076194 -0.2723702 -0.07851115 -0.09332088 0.24189828 -0.17201671 -0.14917324 -0.07668433 0.019161368 -0.06722977 0.10054182 0.19032465 -0.25975475 0.52797645 0.097388014 -0.10418256 -0.06704012 0.22065207 -0.05111111 -0.14874843 -0.18561268 0.31578842 0.33670926 -0.38786888 0.088139355 0.24839906 -0.28934932 -0.33053175 -0.106094554 -0.4021958 0.15462115 0.027417673 0.32165518 -0.03690621 0.2582001 0.05176236 0.022031028 0.056932162 -0.17054108 -0.06751366 0.07589726 0.03896019 -0.02060802 0.120595165 0.14669816 0.51216674 -0.045230616 0.14437217 -0.008774465 0.30597222 0.33463576 0.03385276 0.17355753 0.3928861 -0.28565073 0.3455656 -0.040338837 0.047435544 -0.018016113 0.07634168 -0.036343813 0.1223486 0.36330104 0.42173603 -0.20040558 -0.07623628
36 -0.2862861 -0.27205378 0.07001486 0.38755032 0.024367753 0.05594447 0.20550224 0.2949207 0.064082265 0.35974854 -0.03866814 -0.12701471 0.12657483 0.20087965 0.33536753 0.061042473 0.40717348 -0.093718 -0.011608328 0.06809415 0.19109938 0.12147575 -0.1556375 0.037587814 -0.36899126 0.07622797 -0.2819615 0.20217909 0.1945592 -0.343588 0.28699863 -0.1787466 0.30945745 0.27716112 0.19055927 -0.6679642 -0.00041130566 -0.47639295 -0.12871 0.20064127 -0.07822738 -0.24412134 0.49223492 0.164829 -0.26960847 0.28593174 -0.19980232 0.29721943 0.37907174 0.06104383 -0.1539681 0.15515958 -0.23179975 -0.28835684 0.09236171 -0.52456284 0.110243134 -0.23404007 0.45468396 0.13420705 -0.07827929 -0.0007375167 -0.25952914 -0.12832667 -0.5656872 -0.25926712 -0.27383998 -0.20537655 0.0281616 0.065981895 0.37923062 -0.021294517 0.65643007 0.14043148 -0.5795012 0.14302395 -0.069056064 -0.122294724 0.26409087 0.050328635 0.09511145 -0.19333003 -0.102930985 0.0916844 0.10867743 -0.34233794 0.124696605 0.31260216 -0.15971063 -0.38643602 0.21900322 -0.4197131 0.018263582 -0.19177747 0.5629244 0.24479076 0.31515145 -0.12603953 0.66447026 0.12684318 -0.38780528 0.16597508 -0.093967095 0.28063416 -0.051445603 -0.00020359072 -0.09628509 0.20358737 -0.17372274 -0.18321517 0.21880919 0.45528954 0.48284099 0.111709595 0.3772297 0.18740521 -0.07048514 -0.115539245 -0.1424908 -0.16394795 -0.036893353 0.060049426 0.029277535 0.13863526 0.12917337 0.20882593 0.19211362 -0.056784958
42 -0.3557633 0.07296629 0.37055948 0.45911804 0.14678825 -0.11712517 0.20187886 0.17072427 0.027147604 0.045454003 0.20212968 -0.027374962 -0.10526525 0.042754233 0.5306944 0.1472531 0.40205124 -0.16742036 0.037907697 0.07315652 0.005288371 0.12210619 -0.1902977 -0.0061783167 -0.4829157 0.12391131 -0.21630727 0.32384259 0.44160843 -0.12545244 0.15433893 -0.1964432 0.5508609 0.44109327 0.40336674 -0.5383979 -0.23859711 -0.49981195 -0.18578652 0.1540264 0.2003454 -0.16782083 0.4813948 0.2683578 -0.22724348 0.23992339 -0.3390386 0.27080673 0.33990642 0.4001614 -0.09160604 -0.11838341 -0.31927988 -0.12917839 0.06887284 -0.5397114 0.14092004 -0.36248618 0.34107727 0.12415774 -0.24050474 -0.08995953 -0.091871984 -0.038021807 -0.6051525 -0.29137817 0.024532327 -0.42716455 0.045442224 -0.03123927 0.1931858 0.24176241 0.58858055 0.022490654 -0.41999108 0.46852517 0.17495206 -0.21815914 -0.0660437 0.038985953 0.026489088 -0.0951085 -0.25330794 0.27153662 0.09105769 -0.368886 0.11939073 0.31676632 -0.15451069 -0.33404034 0.2150502 -0.32941812 -0.15784046 -0.16351475 0.565447 0.17571044 0.47241184 -0.36850324 0.42511752 0.28266498 -0.11866392 0.20690396 -0.22395194 0.09275361 -0.20738827 -0.27766335 -0.05300985 0.031784695 -0.23370668 -0.17244212 0.42990077 0.2676355 0.73600054 -0.09955112 0.27436194 0.5782284 -0.154982 -0.07557637 -0.3890203 -0.2558768 0.08576576 -0.39404714 0.087126926 -0.012713968 0.03916917 0.28863767 0.05668527 -0.075909734
14 -0.2766829 -0.15684523 0.16348244 0.50051314 -0.060235772 -0.017221877 0.41940492 0.1521301 -0.11977523 -0.37891874 -0.22027463 0.28918275 0.23346019 0.20130055 0.2694101 0.4497455 -0.20808381 -0.353067 0.2752679 0.16794941 0.40922767 0.12889338 -0.09057752 0.0012459089 -0.20811154 0.18763559 -0.3517795 0.26753926 0.3781797 -0.28823876 0.5934662 -0.59970814 0.7006982 0.69237757 0.3927861 -0.24368003 -0.34533593 -0.27090544 0.32495806 0.037350718 0.028445633 0.2559384 -0.019881679 0.020012297 -0.25191745 0.11156821 0.052881222 0.1123029 0.4516531 0.4292127 -0.21039292 -0.25759584 -0.2912526 -0.07258913 -0.32568887 -0.4326789 -0.0056093796 -0.1682553 0.20993766 0.079248674 -0.44191438 -0.167788 -0.5573061 -0.23494762 -0.23336719 -0.048434243 0.414333 -0.32744724 -0.105487995 -0.2139607 0.0052042473 0.12494538 0.14477448 0.27369508 -0.30823636 0.5380355 0.19551373 0.009595079 -0.084959514 0.33962396 -0.037739873 0.16747096 -0.21289667 0.42177936 0.37970233 -0.5581116 0.073225096 0.22915712 -0.41217977 -0.4068939 -0.08656163 -0.67386395 0.19906056 0.09359562 0.42001882 0.03368917 0.29701594 0.010231732 -0.09857442 0.03757542 -0.25468874 -0.10497737 0.16961393 0.0534469 -0.014474934 0.05543043 0.22107027 0.64289266 -0.007986387 0.09994128 0.07514551 0.41282758 0.3605955 -0.07079069 0.24738549 0.42897448 -0.23139049 0.39015466 -0.059483886 0.17125371 -0.0126868775 0.13133854 -0.14705305 0.14854087 0.44131795 0.7239262 -0.20312978 -0.052709635
39 -0.2810846 -0.3896134 -0.074988246 0.35208085 -0.053045817 -0.004257907 0.32866687 0.3439366 0.18433692 0.43219155 -0.19231926 -0.16106547 0.13772564 0.16862799 0.22603269 0.03518937 0.54158056 -0.077300616 -0.016769629 0.115158044 0.23445946 0.16203271 -0.18966147 0.08637234 -0.310704 0.14371768 -0.33749378 0.2496684 0.009818202 -0.385306 0.41153756 -0.19274351 0.29614702 0.26604217 0.20615612 -0.75824314 0.026903626 -0.569103 -0.16403098 0.19923037 -0.18245895 -0.2734032 0.47713575 0.31773344 -0.40871954 0.19709277 -0.13027477 0.29960313 0.31510058 -0.028905727 -0.22745568 0.2388773 -0.18928467 -0.33142415 0.23162432 -0.4852958 0.055958852 -0.268393 0.5153878 0.19777182 -0.0929448 -0.025653884 -0.32595503 -0.07517383 -0.7036479 -0.19857118 -0.35020417 -0.21774545 0.07701612 0.037117764 0.53878796 0.032598455 0.79918575 0.17608176 -0.6875024 0.011266513 -0.10967861 -0.075779416 0.35787523 0.033819046 0.19364458 -0.0074870717 -0.14297146 0.032315362 0.08544129 -0.3899429 0.17129438 0.25742677 -0.12980923 -0.4184605 0.23485044 -0.5127517 0.010261086 -0.1487648 0.6246197 0.37260216 0.29569033 -0.15239814 0.7997322 0.059702292 -0.46998227 0.21830977 -0.055016406 0.39253554 0.01653048 0.007991756 -0.066633426 0.16768864 -0.15660739 -0.20612642 0.24618995 0.55123127 0.42600596 0.12044292 0.4053678 0.053516395 0.033978503 -0.22067025 -0.13273412 -0.0887331 -0.09108629 0.18860595 0.024948403 0.14685766 0.09702605 0.28042918 0.27846894 -0.037607115
4 -0.27836323 0.08895352 0.47818586 0.47345838 0.06944855 0.09231863 -0.16541815 0.014260201 -0.26992506 0.20788264 -0.12242183 -0.09765366 0.3074231 0.25446367 0.492672 0.16744293 0.025052493 -0.24618821 0.13546461 -0.08226217 0.021548964 0.16189198 -0.07078817 0.036425292 -0.48527417 -0.09475333 -0.3328813 0.026320228 0.12322614 -0.08826775 -0.054161645 -0.04735026 0.075452685 0.24153872 -0.057448063 -0.34966168 -0.13212043 0.06816906 -0.08962875 0.1571404 0.22460656 -0.24941483 0.29575112 -0.14352934 -0.26735196 0.44097412 0.0042463015 0.20647563 0.3845713 0.203335 0.20058039 -0.0439279 -0.28330114 -0.15376672 -0.41453934 -0.18042178 0.29141924 -0.11461478 -0.026083972 -0.28094506 -0.05564908 0.23258014 -0.25290728 -0.24179265 -0.1923148 -0.2410588 -0.030959763 0.18784183 -0.17438655 0.053529773 0.0734734 -0.28414857 0.25171688 0.15334918 -0.307259 0.4855583 -0.15837952 -0.23060189 0.00637325 0.109836146 0.019052748 -0.63739157 -0.24823698 0.14411037 0.20570277 -0.1891064 0.2053982 0.30092353 0.028973157 -0.36984327 -0.1371715 -0.14898379 -0.066620566 0.0655039 0.29610354 -0.004224272 0.31845224 0.06608606 0.5003063 0.16378465 -0.19451025 0.051601667 -0.12920374 0.082735434 0.054790583 0.2874647 0.1586295 0.2156098 -0.13428347 0.23630314 -0.06909103 0.40864977 0.37031153 0.21502823 0.17445804 0.44087094 -0.18276231 0.28203923 -0.00968169 -0.14496858 -0.17493431 -0.013410979 0.053128447 0.05362428 0.2420112 0.15448089 -0.19433892 -0.10822924
100 -0.38028306 0.038410313 0.30992875 0.23757644 0.2888146 -0.09101352 0.369141 -0.077251226 -0.19178285 0.36393556 -0.07035687 -0.0052906713 0.4653936 0.039162774 0.0902353 0.13471074 0.027405329 -0.037127417 -0.15768649 -0.16184738 -0.007021005 0.1759483 -0.20626873 0.006686435 -0.25952548 0.037380025 -0.098350264 -0.08636949 -0.28766114 0.06826433 -0.06313724 -0.28969538 -0.16241652 0.083195806 -0.117258474 -0.5801428 -0.2006544 -0.20129365 0.07903391 0.111450054 -0.14916052 -0.1626252 0.17158407 -0.28453028 -0.26020554 0.048712242 -0.04465282 0.24248452 0.08296985 0.54224366 0.033166647 -0.14206074 -0.047944855 -0.10801294 -0.19555192 -0.14670822 -0.085000664 0.0015011707 0.045429133 -0.2647175 0.1887734 0.1458802 0.016709747 -0.19809277 -0.30588996 0.103148 -0.21829484 0.08107011 -0.21275012 -0.12383377 0.29992753 -0.20578511 0.2505699 -0.17801073 -0.45735556 0.26314703 -0.27243775 -0.14457677 0.08625119 -0.15735789 0.05973668 -0.36634305 -0.042747024 0.036889583 -0.06996434 -0.04401005 0.2087479 0.10892226 0.15792792 -0.10464102 -0.052298762 0.12718445 0.0554871 0.07422107 0.24396008 -0.03484114 0.34692323 0.19000746 0.4417393 -0.24025792 0.056613244 0.20041469 0.076598115 0.3682209 -0.034694564 0.24568188 0.07302091 0.018030332 -0.18138534 0.08559855 0.033235278 0.18359035 0.40540817 0.23393396 -0.08294054 -0.017816806 -0.35499322 -0.026136987 0.12375155 -0.2665638 -0.19320628 0.1553095 0.40542012 -0.05573275 0.08152034 0.1232193 0.015396911 -0.15132529
85 0.2585163 -0.3522719 0.015491277 0.19696024 0.356593 0.5075644 0.24781749 -0.19467948 0.03967894 0.081938885 -0.49943316 -0.24830908 0.44764936 0.15819955 0.47942 0.065554 0.08246674 0.40298176 0.14403851 0.31452063 0.33980855 0.13285747 -0.08787966 -0.13141924 -0.5261725 0.21461794 0.16457151 0.021589745 -0.19287859 -0.0034630732 0.43568087 0.31338957 0.462416 0.32395637 0.21032894 -0.3150169 -0.01613867 -0.28033963 0.4488529 0.21539474 0.06942243 0.04284228 -0.0034204642 -0.16195165 -0.21726738 -0.32475898 0.25643912 0.26733348 0.16570683 0.23279978 0.22527885 -0.1547597 0.012768817 -0.043590736 -0.16736862 -0.06062925 0.1101888 0.119418435 0.15063974 -0.41811693 -0.059385274 0.23054469 0.2883949 -0.10296337 -0.6302977 -0.07324366 0.476089 0.53790927 0.051773533 -0.20936826 -0.14760347 0.09311075 0.21179327 0.0137821315 -0.16428883 0.086357914 -0.4690994 0.37397295 0.14624381 -0.2320887 0.150077 0.0776772 0.026160847 -0.20553944 0.12545696 0.13493359 0.21657024 -0.03516134 0.09985962 0.22001615 0.17476511 -0.35290667 -0.40940335 0.37894243 0.19236618 -0.050152574 0.13505262 0.084352605 0.27204102 -0.19607048 -0.44237092 0.30957896 0.088866636 0.09170662 0.6811258 0.54371 0.22895862 -0.43337667 -0.57454365 0.34014377 0.0023695382 0.55080074 0.092079274 0.068397515 0.19131334 0.14923589 0.37854886 0.06606537 0.39844817 -0.13025558 -0.7551854 0.075668454 -0.029579543 -0.23154207 -0.23536122 0.5242496 0.12690711 -0.18165402
